network unknown {
}
variable accept_num {
    type discrete [ 4 ] { 0, 1, 2, 3 };
}
variable author_identity {
    type discrete [ 3 ] { 0, 1, 2 };
}
variable body_words {
    type discrete [ 5 ] { 0, 1, 2, 3, 4 };
}
variable change_num {
    type discrete [ 4 ] { 0, 1, 2, 3 };
}
variable close_num {
    type discrete [ 4 ] { 0, 1, 2, 3 };
}
variable comment_num {
    type discrete [ 3 ] { 0, 1, 3 };
}
variable commit_num {
    type discrete [ 4 ] { 0, 1, 2, 4 };
}
variable file_changed_num {
    type discrete [ 4 ] { 0, 1, 2, 4 };
}
variable has_assignees_content {
    type discrete [ 2 ] { 0, 1 };
}
variable has_bug {
    type discrete [ 2 ] { 0, 1 };
}
variable has_document {
    type discrete [ 2 ] { 0, 1 };
}
variable has_feature {
    type discrete [ 2 ] { 0, 1 };
}
variable has_labels {
    type discrete [ 2 ] { 0, 1 };
}
variable has_refactor {
    type discrete [ 2 ] { 0, 1 };
}
variable is_weekday {
    type discrete [ 2 ] { 0, 1 };
}
variable mergable_state {
    type discrete [ 3 ] { 0, 2, 3 };
}
variable participants_count {
    type discrete [ 3 ] { 0, 1, 3 };
}
variable pre_prs {
    type discrete [ 4 ] { 0, 1, 2, 3 };
}
variable priorities_number {
    type discrete [ 5 ] { 0, 1, 2, 3, 4 };
}
variable title_words {
    type discrete [ 5 ] { 0, 1, 2, 3, 4 };
}
variable total_add_line {
    type discrete [ 5 ] { 0, 1, 2, 3, 4 };
}
variable total_delete_line {
    type discrete [ 5 ] { 0, 1, 2, 3, 4 };
}
variable workload {
    type discrete [ 5 ] { 0, 1, 2, 3, 4 };
}
probability ( accept_num | close_num, pre_prs ) {
    table 0.9488470796908653, 0.5576923076923077, 0.25, 0.25, 0.36049723756906077, 0.036671963452179955, 0.0013397642015005359, 0.25, 0.25, 0.0027593818984547464, 0.00011517552750391596, 0.0013171759747102212, 0.25, 0.006345177664974619, 0.0011961722488038277, 5.010220850535091e-05, 0.05083618396047131, 0.42094017094017094, 0.25, 0.25, 0.6256906077348067, 0.912230608799285, 0.670150053590568, 0.25, 0.25, 0.6385209713024282, 0.03107435732055653, 0.0013171759747102212, 0.25, 0.006345177664974619, 0.0011961722488038277, 5.010220850535091e-05, 0.0001583681743316863, 0.010683760683760684, 0.25, 0.25, 0.006906077348066298, 0.05097328433806734, 0.3271704180064309, 0.25, 0.25, 0.35596026490066224, 0.8684465124850271, 0.42281348788198103, 0.25, 0.9809644670050761, 0.7055023923444976, 0.03724598180287787, 0.0001583681743316863, 0.010683760683760684, 0.25, 0.25, 0.006906077348066298, 0.00012414341046777238, 0.0013397642015005359, 0.25, 0.25, 0.0027593818984547464, 0.10036395466691238, 0.5745521601685986, 0.25, 0.006345177664974619, 0.29210526315789476, 0.9626538137801114 ;
}
probability ( author_identity | mergable_state ) {
    table 0.5793967880924402, 0.555943547213735, 0.15151515151515152, 0.22017234625930276, 0.09500945729666813, 0.15151515151515152, 0.20043086564825693, 0.349046995489597, 0.6969696969696969 ;
}
probability ( body_words | accept_num, has_feature ) {
    table 0.0037799244015119695, 0.13880320789636028, 0.0004185851820845542, 0.287776708373436, 0.02393952120957581, 0.36416477129138236, 0.01816294758692268, 0.3554476058292852, 0.0037799244015119695, 0.459592843923504, 0.0004185851820845542, 0.4494706448508181, 0.00041999160016799666, 0.3419257012888552, 0.0015568240788790867, 0.3121443442054129, 0.034019319613607726, 0.40037014188772363, 0.0740895772289661, 0.25954443375040104, 0.11465770684586309, 0.28936062673742735, 0.13163812489188723, 0.3287994448299792, 0.18185636287274254, 0.0006169031462060457, 0.5562997069903726, 0.0028873917228103944, 0.6085678286434272, 0.00429618397776093, 0.40287147552326585, 0.0034698126301179735, 0.7765644687106258, 0.0006169031462060457, 0.36877354541649227, 0.0003208213025344883, 0.252414951700966, 0.00025271670457417233, 0.44577062791904515, 0.00013879250520471896 ;
}
probability ( change_num | accept_num, author_identity, has_feature, pre_prs ) {
    table 0.9924772299296724, 0.012376237623762377, 0.25, 0.25, 0.9457814532614754, 0.39922279792746107, 0.25, 0.25, 0.9978361223312178, 0.9944608567208273, 0.25, 0.25, 0.3779003033532837, 0.0014384349827387798, 0.25, 0.25, 0.25, 0.25, 0.25, 0.25, 0.25, 0.25, 0.25, 0.25, 0.8308124459809852, 0.2825963932694484, 0.0025773195876288664, 0.25, 0.0006834335702569711, 0.0052473965359089185, 0.03744705429341548, 0.25, 0.01237623762376238, 0.4999028673556608, 0.0016170763260025872, 0.25, 0.25, 0.1563008350504284, 0.000763591936469151, 0.25, 0.25, 0.25, 0.25, 0.25, 0.25, 0.9988528602018963, 0.9872013651877132, 0.25, 0.25, 0.31229720960415314, 0.0805961283108533, 0.0006185056902523503, 0.25, 0.0009266123054114158, 0.050826582906265495, 0.0002827414612078715, 0.25, 0.002151462994836489, 0.00019712979025390318, 0.002577319587628866, 0.25, 0.0032133676092544992, 0.0001478764935525849, 0.0016170763260025876, 0.25, 0.00108038029386344, 0.0006185056902523504, 0.012376237623762377, 0.25, 0.006345177664974619, 0.2666089965397923, 0.00634517766497462, 0.25, 0.25, 0.06090450677592184, 0.0034333627537511033, 0.25, 0.25, 0.09115978569177434, 0.0024525256601013795, 0.25, 0.25, 0.0009266123054114158, 0.0002955781508630882, 0.25, 0.25, 0.006345177664974619, 0.00030963586821897447, 0.25, 0.25, 0.012376237623762377, 0.006008083320379295, 0.25, 0.25, 0.0032133676092544992, 3.206690438931788e-05, 4.803812305445603e-05, 0.012376237623762377, 0.25, 0.25, 0.05375394908009663, 0.5981865284974093, 0.25, 0.25, 0.0007212925562608196, 0.0018463810930576074, 0.25, 0.25, 0.6218947282118554, 0.9956846950517835, 0.25, 0.25, 0.25, 0.25, 0.25, 0.25, 0.25, 0.25, 0.25, 0.25, 0.1670267934312878, 0.36952010865464424, 0.5963917525773197, 0.25, 0.7355112083105523, 0.3885636432309933, 0.2962071621101271, 0.25, 0.9628712871287131, 0.4327647835884684, 0.6225743855109961, 0.25, 0.25, 0.6872627697646677, 0.4112706169822847, 0.25, 0.25, 0.25, 0.25, 0.25, 0.25, 0.00038237993270113173, 0.004266211604095562, 0.25, 0.25, 0.0008111615833874109, 0.1678139632399189, 0.0006185056902523503, 0.25, 0.0009266123054114158, 0.17144156058852705, 0.10885546256503052, 0.25, 0.002151462994836489, 0.43924459864374704, 0.002577319587628866, 0.25, 0.7435732647814911, 0.15914468236129187, 0.1258085381630013, 0.25, 0.00108038029386344, 0.19062345373577436, 0.012376237623762377, 0.25, 0.006345177664974619, 0.59878892733564, 0.00634517766497462, 0.25, 0.25, 0.15167034352347933, 0.02715798764342454, 0.25, 0.25, 0.27269145918688936, 0.03634655637656672, 0.25, 0.25, 0.07209043736100815, 0.09109718609600377, 0.25, 0.25, 0.006345177664974619, 0.0716497399058707, 0.25, 0.25, 0.012376237623762377, 0.02690035753147832, 0.25, 0.25, 0.49678663239074555, 0.02712218773248506, 0.007426693824218903, 0.9628712871287128, 0.25, 0.25, 0.00023229882921390073, 0.0012953367875647669, 0.25, 0.25, 0.0007212925562608196, 0.0018463810930576074, 0.25, 0.25, 0.00010248421743051572, 0.0014384349827387798, 0.25, 0.25, 0.25, 0.25, 0.25, 0.25, 0.25, 0.25, 0.25, 0.25, 0.0010803802938634398, 0.34054553685957895, 0.3984536082474227, 0.25, 0.26312192454893385, 0.606121512976852, 0.5919329996149403, 0.25, 0.01237623762376238, 0.06723521641153159, 0.3741914618369987, 0.25, 0.25, 0.1563008350504284, 0.5872021991447771, 0.25, 0.25, 0.25, 0.25, 0.25, 0.25, 0.00038237993270113173, 0.004266211604095562, 0.25, 0.25, 0.6860804672290721, 0.5435215598574323, 0.38062840178129637, 0.25, 0.9972201630837657, 0.5301124152752522, 0.17399909522732415, 0.25, 0.9935456110154905, 0.514942438101246, 0.39845360824742265, 0.25, 0.25, 0.5339228676209631, 0.1258085381630013, 0.25, 0.9967588591184097, 0.5231321128154379, 0.012376237623762377, 0.25, 0.9809644670050761, 0.13373702422145328, 0.4936548223350254, 0.25, 0.25, 0.42396785376615187, 0.07799646954986761, 0.25, 0.25, 0.36345729593444687, 0.0605565783168991, 0.25, 0.25, 0.7837286879169756, 0.1364979900685741, 0.25, 0.25, 0.9809644670050761, 0.11920980926430516, 0.25, 0.25, 0.012376237623762377, 0.03286957873464947, 0.25, 0.25, 0.25, 0.03697314076088351, 4.803812305445603e-05, 0.012376237623762377, 0.25, 0.25, 0.00023229882921390073, 0.0012953367875647669, 0.25, 0.25, 0.0007212925562608196, 0.0018463810930576074, 0.25, 0.25, 0.00010248421743051572, 0.0014384349827387798, 0.25, 0.25, 0.25, 0.25, 0.25, 0.25, 0.25, 0.25, 0.25, 0.25, 0.0010803802938634398, 0.007337961216328378, 0.0025773195876288664, 0.25, 0.0006834335702569711, 6.744725624561593e-05, 0.07441278398151714, 0.25, 0.01237623762376238, 9.713264433910948e-05, 0.0016170763260025872, 0.25, 0.25, 0.00013556013447565344, 0.000763591936469151, 0.25, 0.25, 0.25, 0.25, 0.25, 0.25, 0.00038237993270113173, 0.004266211604095562, 0.25, 0.25, 0.0008111615833874109, 0.20806834859179535, 0.6181345868381989, 0.25, 0.0009266123054114158, 0.24761944122995536, 0.7168627007464374, 0.25, 0.002151462994836489, 0.045615833464753196, 0.5963917525773196, 0.25, 0.0032133676092544992, 0.3067845735241926, 0.7467658473479949, 0.25, 0.00108038029386344, 0.2856259277585354, 0.9628712871287128, 0.25, 0.006345177664974619, 0.0008650519031141868, 0.4936548223350254, 0.25, 0.25, 0.36345729593444687, 0.8914121800529567, 0.25, 0.25, 0.27269145918688936, 0.9006443396464328, 0.25, 0.25, 0.1432542624166049, 0.772109245684559, 0.25, 0.25, 0.006345177664974619, 0.8088308149616051, 0.25, 0.25, 0.9628712871287128, 0.9342219804134929, 0.25, 0.25, 0.25, 0.9358726046022421 ;
}
probability ( close_num | author_identity, has_feature, mergable_state ) {
    table 0.26532916105521664, 0.4164739884393064, 0.25, 0.03085018572018159, 0.19030750678323785, 0.25, 0.0663640073454397, 0.06616341030195383, 0.25, 0.32380539347106135, 0.389300134589502, 0.25, 0.0003110226424483702, 0.00047152018106374945, 0.25, 0.0002011263073209976, 0.0005822077317186772, 0.030487804878048776, 0.12701021944070345, 0.2666473988439306, 0.25, 0.21550910913271623, 0.20658727766053664, 0.25, 0.4850540705978371, 0.3539076376554174, 0.25, 0.33232140041002994, 0.17126514131897716, 0.25, 0.0003110226424483702, 0.00047152018106374945, 0.25, 0.10736122284794851, 0.0005822077317186772, 0.030487804878048776, 0.20971639071536086, 0.15427745664739884, 0.25, 0.33967631625493777, 0.2988393126318963, 0.25, 0.2903999183840032, 0.3858792184724689, 0.25, 0.21309730326446932, 0.24394347240915212, 0.25, 0.018225926847474497, 0.014051301395699736, 0.25, 0.0668141592920354, 0.00896599906846763, 0.030487804878048776, 0.397944228788719, 0.16260115606936415, 0.25, 0.41396438889216436, 0.3042659029243292, 0.25, 0.1581820036727198, 0.19404973357015987, 0.25, 0.13077590285443935, 0.1954912516823688, 0.25, 0.9811520278676287, 0.9850056582421727, 0.25, 0.8256234915526951, 0.989869585468095, 0.9085365853658536 ;
}
probability ( comment_num | close_num, mergable_state, workload ) {
    table 0.12513554543482977, 0.1838006230529595, 0.2727927927927928, 0.3077742279020234, 0.22273425499231947, 0.07494824016563145, 0.12334613743064447, 0.23142250530785563, 0.009009009009009009, 0.00546448087431694, 0.3333333333333333, 0.3333333333333333, 0.3333333333333333, 0.3333333333333333, 0.3333333333333333, 0.16678841003165326, 0.2727689837118605, 0.36873156342182895, 0.3658206429780034, 0.3564165979664743, 0.4280078895463511, 0.2039034411915768, 0.36578769438810005, 0.5977961432506887, 0.9487179487179489, 0.3333333333333333, 0.3333333333333333, 0.3333333333333333, 0.3333333333333333, 0.3333333333333333, 0.33765999639444744, 0.39351603080780945, 0.5538246454963052, 0.5453085570084882, 0.6325957147874955, 0.4322097378277153, 0.7980636237897648, 0.29430894308943084, 0.7230181470869149, 0.4280078895463511, 0.3333333333333333, 0.3333333333333333, 0.3333333333333333, 0.3333333333333333, 0.3333333333333333, 0.35758854029352316, 0.35389054188080427, 0.4639564589581251, 0.5768363593212295, 0.5258698395529116, 0.5117277832837793, 0.49980182322631783, 0.4336342360414577, 0.45226296663363064, 0.3333333333333333, 0.025641025641025647, 0.3333333333333333, 0.9487179487179489, 0.3333333333333333, 0.3333333333333333, 0.25786163522012584, 0.40809968847352024, 0.5711711711711711, 0.46112886048988283, 0.6651305683563747, 0.14948240165631468, 0.38454972257789155, 0.3842887473460722, 0.009009009009009009, 0.00546448087431694, 0.3333333333333333, 0.3333333333333333, 0.3333333333333333, 0.3333333333333333, 0.3333333333333333, 0.5086437789140491, 0.44620325762789625, 0.5061599861183411, 0.4632825719120135, 0.47513053036548497, 0.2859960552268245, 0.18541345659989728, 0.3901284651791751, 0.20110192837465565, 0.025641025641025647, 0.3333333333333333, 0.3333333333333333, 0.3333333333333333, 0.3333333333333333, 0.3333333333333333, 0.396069947719488, 0.43220490775568693, 0.38845616137407635, 0.2479926588667126, 0.24060414471373373, 0.1895131086142322, 0.05117565698478561, 0.5284552845528455, 0.20725883476599807, 0.2859960552268245, 0.3333333333333333, 0.3333333333333333, 0.3333333333333333, 0.3333333333333333, 0.3333333333333333, 0.32278759117672906, 0.3766116671174827, 0.3439964456292347, 0.28634152130058144, 0.3117000180277628, 0.214403700033036, 0.2715021799445105, 0.37345369441658305, 0.3333333333333333, 0.4312126155519304, 0.9487179487179489, 0.3333333333333333, 0.025641025641025647, 0.3333333333333333, 0.3333333333333333, 0.6170028193450445, 0.40809968847352024, 0.15603603603603602, 0.2310969116080937, 0.11213517665130567, 0.7755693581780537, 0.49210413999146385, 0.3842887473460722, 0.981981981981982, 0.9890710382513661, 0.3333333333333333, 0.3333333333333333, 0.3333333333333333, 0.3333333333333333, 0.3333333333333333, 0.3245678110542975, 0.28102775866024315, 0.12510845045982996, 0.17089678510998307, 0.16845287166804065, 0.2859960552268245, 0.610683102208526, 0.24408384043272482, 0.20110192837465565, 0.025641025641025647, 0.3333333333333333, 0.3333333333333333, 0.3333333333333333, 0.3333333333333333, 0.3333333333333333, 0.2662700558860645, 0.1742790614365037, 0.05771919312961855, 0.2066987841247993, 0.12680014049877064, 0.3782771535580524, 0.15076071922544948, 0.17723577235772356, 0.06972301814708691, 0.2859960552268245, 0.3333333333333333, 0.3333333333333333, 0.3333333333333333, 0.3333333333333333, 0.3333333333333333, 0.3196238685297478, 0.2694977910017131, 0.19204709541264026, 0.13682211937818917, 0.1624301424193258, 0.2738685166831846, 0.2286959968291716, 0.1929120695419592, 0.214403700033036, 0.23545405111473627, 0.025641025641025647, 0.3333333333333333, 0.025641025641025647, 0.3333333333333333, 0.3333333333333333 ;
}
probability ( commit_num | file_changed_num ) {
    table 0.6015704154002026, 0.24652887346165983, 0.08998979201224959, 0.08296213808463251, 0.2449341438703141, 0.40683180814136954, 0.27169197396963124, 0.1809576837416481, 0.15307328605200946, 0.346244872199432, 0.638158734209519, 0.6174832962138085, 0.0004221546774738264, 0.00039444619753865575, 0.00015949980860022967, 0.11859688195991092 ;
}
probability ( file_changed_num | author_identity, change_num, mergable_state ) {
    table 0.3219915304081873, 0.508089250115013, 0.25, 0.25727664735210887, 0.3504681310767015, 0.25, 0.14349112426035504, 0.2784310284310284, 0.25, 0.07981243075982734, 0.25286898310487727, 0.25, 0.24827751196172243, 0.39794520547945206, 0.25, 0.20885828966439957, 0.38648528099910795, 0.25, 0.1527748358398644, 0.1908672798948752, 0.25, 0.14156626506024095, 0.2993150684931507, 0.25, 0.13989053444945268, 0.25, 0.25, 0.2608043217286915, 0.33237986270022885, 0.25, 0.20015384615384615, 0.4965753424657534, 0.25, 0.08101415810901136, 0.4466093981112754, 0.016233766233766232, 0.24999999999999997, 0.2320579665695445, 0.25, 0.2621277455868481, 0.23379546272956428, 0.25, 0.25738180326908433, 0.37951912951912953, 0.25, 0.1912079306261222, 0.2299171182658591, 0.25, 0.2000478468899521, 0.20068493150684932, 0.25, 0.28512097223770766, 0.29014272970562, 0.25, 0.23665536962507938, 0.09625492772667545, 0.25, 0.2121742785093864, 0.10205479452054796, 0.25, 0.18625241468126208, 0.25, 0.25, 0.3472388955582233, 0.5795194508009153, 0.25, 0.39953846153846156, 0.2993150684931507, 0.25, 0.15101476575317493, 0.11483103879849811, 0.016233766233766232, 0.4193918362545583, 0.254140469253182, 0.25, 0.47557606791537527, 0.4152862801584444, 0.25, 0.5927265803503428, 0.3416110916110916, 0.25, 0.7096783435840623, 0.5168154287535862, 0.25, 0.5514354066985645, 0.39794520547945206, 0.25, 0.493839892964656, 0.322256913470116, 0.25, 0.6103050201228553, 0.7112352168199738, 0.25, 0.6156486410759316, 0.5952054794520548, 0.25, 0.6730521571152608, 0.25, 0.25, 0.30402160864345745, 0.08524027459954234, 0.25, 0.3773846153846154, 0.20068493150684932, 0.25, 0.5928936015069575, 0.43432131072932073, 0.9512987012987012, 0.00861663333725444, 0.005712314062260389, 0.25, 0.005019539145667699, 0.0004501260352898812, 0.25, 0.006400492120217939, 0.00043875043875043877, 0.25, 0.019301295029988157, 0.00039846987567739885, 0.25, 0.00023923444976076553, 0.003424657534246575, 0.25, 0.012180845133236704, 0.0011150758251561109, 0.25, 0.00026477441220080486, 0.0016425755584756902, 0.25, 0.03061081535444102, 0.003424657534246575, 0.25, 0.0008048937540244688, 0.25, 0.25, 0.08793517406962786, 0.002860411899313501, 0.25, 0.022923076923076928, 0.003424657534246575, 0.25, 0.17507747463085618, 0.004238252360905677, 0.016233766233766232 ;
}
probability ( has_assignees_content | priorities_number ) {
    table 0.915893271461717, 0.9765151515151516, 0.9823076923076923, 0.9862914862914863, 0.983085250338295, 0.08410672853828306, 0.023484848484848483, 0.01769230769230769, 0.013708513708513708, 0.016914749661705007 ;
}
probability ( has_bug | accept_num ) {
    table 0.9887556221889056, 0.9772974936432982, 0.9575575891448407, 0.9306175881718775, 0.011244377811094454, 0.02270250635670178, 0.04244241085515935, 0.06938241182812259 ;
}
probability ( has_document ) {
    table 0.9959766925638179, 0.00402330743618202 ;
}
probability ( has_feature | has_document, mergable_state ) {
    table 0.42318130863177766, 0.5492233646904398, 0.1470588235294118, 0.11971830985915495, 0.22727272727272727, 0.5, 0.5768186913682223, 0.45077663530956025, 0.8529411764705883, 0.8802816901408451, 0.7727272727272727, 0.5 ;
}
probability ( has_labels | comment_num, priorities_number ) {
    table 0.6691365979381443, 0.8795, 0.9454419889502763, 0.9852941176470589, 0.9866412213740458, 0.8770380434782609, 0.9464, 0.9564439140811455, 0.9769065520945219, 0.9993234100135319, 0.947986577181208, 0.7957746478873239, 0.9832474226804123, 0.9870517928286853, 0.9946546052631579, 0.3308634020618556, 0.12049999999999998, 0.054558011049723756, 0.014705882352941176, 0.013358778625954198, 0.12296195652173915, 0.0536, 0.04355608591885441, 0.02309344790547798, 0.0006765899864682003, 0.05201342281879195, 0.20422535211267606, 0.016752577319587625, 0.012948207171314742, 0.0053453947368421045 ;
}
probability ( has_refactor | total_delete_line ) {
    table 0.9632843791722296, 0.9788629737609329, 0.9941935483870967, 0.9971164936562861, 0.9971537001897534, 0.036715620827770364, 0.021137026239067054, 0.005806451612903226, 0.0028835063437139563, 0.0028462998102466793 ;
}
probability ( is_weekday | close_num, mergable_state ) {
    table 0.08407291916526746, 0.014394350896252036, 0.5, 0.14039763722806511, 0.043252595155709346, 0.5, 0.1776763912093561, 0.11249112845990066, 0.5, 0.15621493167865869, 0.13481763257999554, 0.08620689655172413, 0.9159270808347326, 0.9856056491037479, 0.5, 0.8596023627719349, 0.9567474048442907, 0.5, 0.8223236087906438, 0.8875088715400994, 0.5, 0.8437850683213414, 0.8651823674200045, 0.9137931034482758 ;
}
probability ( mergable_state ) {
    table 0.7870884202737699, 0.21189419163891973, 0.001017388087310396 ;
}
probability ( participants_count | comment_num, commit_num ) {
    table 0.8711564303217136, 0.8382572366457773, 0.8010542095846027, 0.6260162601626016, 0.22402640264026402, 0.19101961661818448, 0.06176669450741756, 0.0165016501650165, 0.011870994852400462, 0.0006358896095637798, 0.0026216510007033697, 0.0574712643678161, 0.11991146944905537, 0.1549985079080871, 0.18825861985589243, 0.3333333333333333, 0.7135313531353136, 0.7602744834787797, 0.8650121306128942, 0.9669966996699669, 0.03456245403928984, 0.08762558819788885, 0.02564102564102564, 0.471264367816092, 0.00893210022923089, 0.00674425544613548, 0.010687170559504812, 0.04065040650406505, 0.06244224422442245, 0.04870589990303572, 0.07322117487968817, 0.0165016501650165, 0.9535665511083096, 0.9117385221925474, 0.971737323358271, 0.471264367816092 ;
}
probability ( pre_prs | close_num ) {
    table 0.9841645885286783, 0.016178047908473363, 0.0004078303425774878, 0.00019086883493663154, 0.014588528678304239, 0.8999821237039686, 0.03694942903752039, 0.007520232096503283, 0.0006234413965087282, 0.08339292098677153, 0.8852365415986949, 0.03989158650175599, 0.0006234413965087282, 0.000446907400786557, 0.07740619902120718, 0.952397312566804 ;
}
probability ( priorities_number | mergable_state, participants_count, workload ) {
    table 0.4316719242902209, 0.40854244527496003, 0.19702725020644093, 0.19753199268738575, 0.3206703910614525, 0.3423509075194468, 0.1949478748997594, 0.06348943224202237, 0.06439333862014272, 0.06677631578947368, 0.13980891719745223, 0.11679819616685456, 0.045137157107231915, 0.0377253814147018, 0.15525812619502868, 0.798790322580645, 0.6514469453376205, 0.5854684512428298, 0.5774696707105719, 0.6168421052631579, 0.518550106609808, 0.2690831556503198, 0.299815157116451, 0.3883076923076923, 0.36605166051660515, 0.11588785046728972, 0.06834804539722572, 0.13907692307692307, 0.23063829787234041, 0.2994475138121547, 0.19999999999999998, 0.19999999999999998, 0.9200000000000003, 0.19999999999999998, 0.19999999999999998, 0.9200000000000003, 0.19999999999999998, 0.19999999999999998, 0.19999999999999998, 0.19999999999999998, 0.19999999999999998, 0.19999999999999998, 0.19999999999999998, 0.19999999999999998, 0.19999999999999998, 0.3010725552050474, 0.2788040576615057, 0.34938067712634185, 0.23866544789762342, 0.21382681564245812, 0.16732929991356957, 0.20577385725741779, 0.16419394944053045, 0.1143536875495638, 0.14819078947368422, 0.18996815286624202, 0.1472378804960541, 0.045137157107231915, 0.08765603328710124, 0.08642447418738049, 0.12741935483870964, 0.1305466237942122, 0.08642447418738047, 0.15632582322357014, 0.09578947368421052, 0.1347547974413646, 0.17313432835820894, 0.11682070240295749, 0.08369230769230768, 0.2, 0.11588785046728972, 0.04564943253467844, 0.028307692307692305, 0.0774468085106383, 0.05082872928176795, 0.19999999999999998, 0.19999999999999998, 0.020000000000000007, 0.19999999999999998, 0.19999999999999998, 0.020000000000000007, 0.19999999999999998, 0.19999999999999998, 0.19999999999999998, 0.19999999999999998, 0.19999999999999998, 0.19999999999999998, 0.19999999999999998, 0.19999999999999998, 0.19999999999999998, 0.18750788643533128, 0.206727175654031, 0.21189099917423615, 0.22221206581352834, 0.20125698324022348, 0.17121866897147794, 0.24186046511627907, 0.27981765437215084, 0.2713719270420301, 0.18519736842105264, 0.1290605095541401, 0.12694475760992108, 0.26957605985037403, 0.13758668515950068, 0.10363288718929253, 0.036693548387096764, 0.1160771704180064, 0.06921606118546843, 0.10953206239168108, 0.1431578947368421, 0.15394456289978678, 0.15394456289978678, 0.133456561922366, 0.13907692307692307, 0.03394833948339483, 0.07383177570093458, 0.15914249684741488, 0.055999999999999994, 0.03914893617021276, 0.05082872928176795, 0.19999999999999998, 0.19999999999999998, 0.020000000000000007, 0.19999999999999998, 0.19999999999999998, 0.020000000000000007, 0.19999999999999998, 0.19999999999999998, 0.19999999999999998, 0.19999999999999998, 0.19999999999999998, 0.19999999999999998, 0.19999999999999998, 0.19999999999999998, 0.19999999999999998, 0.06258675078864354, 0.08659903897490658, 0.19702725020644093, 0.24689213893967094, 0.21382681564245812, 0.202333621434745, 0.2346431435445068, 0.2835474513054289, 0.28564631245043615, 0.2962171052631579, 0.16488853503184714, 0.17260428410372042, 0.22468827930174562, 0.19999999999999998, 0.18967495219885275, 0.018548387096774185, 0.08713826366559484, 0.20688336520076475, 0.12512998266897743, 0.09578947368421052, 0.09637526652452025, 0.1347547974413646, 0.266543438077634, 0.19446153846153844, 0.13357933579335793, 0.1789719626168224, 0.2158890290037831, 0.16676923076923075, 0.11574468085106383, 0.15027624309392265, 0.19999999999999998, 0.19999999999999998, 0.020000000000000007, 0.19999999999999998, 0.19999999999999998, 0.020000000000000007, 0.19999999999999998, 0.19999999999999998, 0.19999999999999998, 0.19999999999999998, 0.19999999999999998, 0.19999999999999998, 0.19999999999999998, 0.19999999999999998, 0.19999999999999998, 0.0171608832807571, 0.019327282434596905, 0.04467382328654004, 0.09469835466179159, 0.05041899441340782, 0.11676750216076057, 0.1227746591820369, 0.2089515126398674, 0.26423473433782707, 0.3036184210526316, 0.3762738853503184, 0.4364148816234498, 0.4154613466334165, 0.5370319001386963, 0.4650095602294455, 0.018548387096774185, 0.014790996784565911, 0.05200764818355639, 0.0315424610051993, 0.04842105263157894, 0.09637526652452025, 0.2690831556503198, 0.1833641404805915, 0.19446153846153844, 0.26642066420664207, 0.5154205607476636, 0.5109709962168979, 0.6098461538461538, 0.5370212765957447, 0.4486187845303867, 0.19999999999999998, 0.19999999999999998, 0.020000000000000007, 0.19999999999999998, 0.19999999999999998, 0.020000000000000007, 0.19999999999999998, 0.19999999999999998, 0.19999999999999998, 0.19999999999999998, 0.19999999999999998, 0.19999999999999998, 0.19999999999999998, 0.19999999999999998, 0.19999999999999998 ;
}
probability ( title_words | accept_num, body_words, file_changed_num, has_feature ) {
    table 0.2, 0.24980544747081712, 0.2, 0.36317280453257794, 0.9757575757575754, 0.2221453287197232, 0.2, 0.2, 0.00606060606060606, 0.2580060422960725, 0.2, 0.3331599479843953, 0.2, 0.3156943303204601, 0.2, 0.2, 0.49767441860465117, 0.10015600624024962, 0.4953846153846153, 0.3681444991789819, 0.7457364341085272, 0.3094423791821561, 0.2, 0.2, 0.45418439716312053, 0.2, 0.2630541871921182, 0.2, 0.3074340527577938, 0.2, 0.2, 0.2, 0.27774403470715836, 0.2, 0.2902770780856423, 0.2, 0.27365998026964816, 0.2, 0.4953846153846153, 0.2, 0.2, 0.393755912961211, 0.2, 0.3331022530329289, 0.2, 0.4588837685611879, 0.2, 0.2, 0.2, 0.22578046324269888, 0.2, 0.3254901960784314, 0.2, 0.1881224868543149, 0.2, 0.2, 0.3319587628865979, 0.12529182879377432, 0.0020618556701030924, 0.3843937575030012, 0.6241715399610136, 0.19697113109323236, 0.2, 0.00606060606060606, 0.3054640069384215, 0.2, 0.34135567402894135, 0.2, 0.3257985257985258, 0.9757575757575754, 0.2, 0.2, 0.19444926279271466, 0.2, 0.15007800312012481, 0.2, 0.32068355922215674, 0.2, 0.00606060606060606, 0.2, 0.0020618556701030924, 0.32684684684684684, 0.2, 0.38285714285714284, 0.2496124031007752, 0.4196683378326263, 0.2, 0.2, 0.2, 0.29989594172736733, 0.2, 0.1428996282527881, 0.2, 0.2680193236714976, 0.2, 0.2, 0.4275555555555556, 0.055805892547660316, 0.44359861591695504, 0.1389418907198612, 0.3526605504587156, 0.1428783934548159, 0.006060606060606061, 0.2, 0.1702325581395349, 0.9757575757575754, 0.28840840840840837, 0.2, 0.40236190476190475, 0.9757575757575754, 0.2, 0.2, 0.21425389755011137, 0.2, 0.15007800312012481, 0.2, 0.15792933442892357, 0.2, 0.002061855670103093, 0.2, 0.9757575757575754, 0.49978708303761527, 0.4953846153846153, 0.5524866420057543, 0.2996884735202493, 0.41620935765265665, 0.2, 0.3319587628865979, 0.2, 0.16670135275754422, 0.2, 0.34606606606606605, 0.006060606060606061, 0.2430864836872087, 0.2, 0.05580589254766031, 0.4206896551724138, 8.676789587852495e-05, 0.2173677069199457, 0.1621940928270042, 0.35839717147908073, 0.17164840289111682, 0.2, 0.00011785503830288743, 0.26464646464646463, 0.006060606060606058, 0.42361037586024347, 0.2, 0.2937993235625705, 0.0030769230769230765, 0.2496124031007752, 0.2, 0.08202764976958525, 0.2, 0.04176968119713728, 0.2, 0.10882305326210136, 0.2, 0.00031201248049921986, 0.2, 0.2, 0.12529182879377432, 0.2, 0.27252124645892356, 0.006060606060606058, 0.11141868512110728, 0.2, 0.2, 0.00606060606060606, 0.3224572004028197, 0.2, 0.16671001300390115, 0.2, 0.3419884963023829, 0.2, 0.2, 0.0015503875968992248, 0.10015600624024962, 0.4953846153846153, 0.1579638752052545, 0.0015503875968992248, 0.23806691449814127, 0.2, 0.2, 0.18184397163120566, 0.2, 0.2630541871921182, 0.2, 0.3074340527577938, 0.2, 0.2, 0.2, 0.12503253796095445, 0.2, 0.24191435768261962, 0.2, 0.23156856297270637, 0.2, 0.0030769230769230765, 0.2, 0.2, 0.15156102175969724, 0.2, 0.22218370883882146, 0.2, 0.1803379416282642, 0.2, 0.2, 0.2, 0.35468277945619336, 0.2, 0.2092955700798838, 0.2, 0.33659140117537895, 0.2, 0.2, 0.6618556701030928, 0.12529182879377432, 0.6618556701030928, 0.2691476590636254, 0.1875243664717349, 0.28783719829626125, 0.2, 0.00606060606060606, 0.27771032090199477, 0.2, 0.2926123381568926, 0.2, 0.26963846963846966, 0.006060606060606058, 0.2, 0.2, 0.1389418907198612, 0.2, 0.24992199687987518, 0.2, 0.20754272245138478, 0.2, 0.00606060606060606, 0.2, 0.6618556701030928, 0.32684684684684684, 0.2, 0.23401993355481723, 0.2496124031007752, 0.246895487851909, 0.2, 0.2, 0.2, 0.16670135275754422, 0.2, 0.2856505576208178, 0.2, 0.2680193236714976, 0.2, 0.2, 0.0008888888888888889, 0.11126516464471405, 0.0006920415224913497, 0.24995663486556807, 0.11779816513761468, 0.23808107103012274, 0.006060606060606061, 0.3987577639751553, 0.31906976744186044, 0.006060606060606058, 0.32684684684684684, 0.2, 0.18293333333333334, 0.006060606060606058, 0.2, 0.2, 0.21425389755011137, 0.2, 0.24992199687987518, 0.2, 0.13163516844700082, 0.2, 0.002061855670103093, 0.2, 0.006060606060606058, 0.13640880056777854, 0.0030769230769230765, 0.1842170160295931, 0.4990654205607477, 0.2284218873909596, 0.2, 0.6618556701030928, 0.2, 0.16670135275754422, 0.2, 0.26918918918918916, 0.006060606060606061, 0.21546694286207493, 0.2, 0.8322357019064123, 0.05287356321839081, 0.013969631236442518, 0.26078697421981, 0.18919831223628691, 0.3018267530936947, 0.14180461646071346, 0.2, 0.6978196817913965, 0.08833792470156107, 0.9757575757575754, 0.15256749602964528, 0.2, 0.20103076179739088, 0.4953846153846153, 0.0015503875968992248, 0.2, 0.03287250384024578, 0.2, 0.14586857514638907, 0.2, 0.08292051157519832, 0.2, 0.7990639625585021, 0.2, 0.2, 0.3743190661478599, 0.2, 0.18186968838526915, 0.006060606060606058, 0.3328719723183391, 0.2, 0.2, 0.00606060606060606, 0.16132930513595165, 0.2, 0.24993498049414822, 0.2, 0.10534100246507805, 0.2, 0.2, 0.49767441860465117, 0.15007800312012481, 0.0030769230769230765, 0.1579638752052545, 0.0015503875968992248, 0.09531598513011151, 0.2, 0.2, 0.04567375886524823, 0.2, 0.10541871921182266, 0.2, 0.00047961630695443657, 0.2, 0.2, 0.2, 0.02785249457700651, 0.2, 0.0645843828715365, 0.2, 0.16843143702729366, 0.2, 0.0030769230769230765, 0.2, 0.2, 0.12128666035950803, 0.2, 0.055805892547660316, 0.2, 0.16395289298515103, 0.2, 0.2, 0.2, 0.09687814702920443, 0.2, 0.16281771968046477, 0.2, 0.1782245592329106, 0.2, 0.2, 0.0020618556701030924, 0.12529182879377432, 0.3319587628865979, 0.07707082833133254, 0.00038986354775828464, 0.06067203028868906, 0.2, 0.9757575757575756, 0.1111882046834345, 0.2, 0.07326732673267326, 0.2, 0.20224640224640225, 0.006060606060606058, 0.2, 0.2, 0.00017346053772766696, 0.2, 0.05023400936037442, 0.2, 0.09440188568061282, 0.2, 0.00606060606060606, 0.2, 0.0020618556701030924, 0.07699699699699698, 0.2, 0.10644518272425246, 0.2496124031007752, 0.11114539143848823, 0.2, 0.2, 0.2, 0.19999999999999998, 0.2, 0.1666914498141264, 0.2, 0.11342995169082125, 0.2, 0.2, 0.14311111111111113, 0.2776429809358752, 0.22214532871972323, 0.1111882046834345, 0.4113761467889908, 0.17857939754555596, 0.006060606060606061, 0.0012422360248447205, 0.14897009966777408, 0.006060606060606058, 0.11543543543543541, 0.2, 0.15855238095238094, 0.006060606060606058, 0.2, 0.2, 0.07171492204899778, 0.2, 0.15007800312012481, 0.2, 0.18422350041084634, 0.2, 0.002061855670103093, 0.2, 0.006060606060606058, 0.04556422995031937, 0.0030769230769230765, 0.0921496095355528, 0.0006230529595015578, 0.1827438540840603, 0.2, 0.0020618556701030924, 0.2, 0.13340270551508843, 0.2, 0.11543543543543541, 0.006060606060606061, 0.17127567754186088, 0.2, 0.00034662045060658575, 0.1579638752052545, 0.0417353579175705, 0.2173677069199457, 0.1351898734177215, 0.09440188568061282, 0.08211704359990674, 0.2, 0.00011785503830288743, 0.05895316804407714, 0.006060606060606058, 0.15256749602964528, 0.2, 0.09795458205830247, 0.0030769230769230765, 0.0015503875968992248, 0.2, 0.06564260112647209, 0.2, 0.10422901756668834, 0.2, 0.10882305326210136, 0.2, 0.00031201248049921986, 0.2, 0.2, 0.12529182879377432, 0.2, 0.09121813031161476, 0.006060606060606058, 0.2221453287197232, 0.2, 0.2, 0.9757575757575756, 0.19355488418932526, 0.2, 0.2083224967490247, 0.2, 0.15792933442892357, 0.2, 0.2, 0.0015503875968992248, 0.44960998439937594, 0.0030769230769230765, 0.1579638752052545, 0.2496124031007752, 0.26185873605947957, 0.2, 0.2, 0.3180141843971631, 0.2, 0.3681444991789819, 0.2, 0.38417266187050364, 0.2, 0.2, 0.2, 0.3749240780911063, 0.2, 0.27415617128463476, 0.2, 0.21052285432423545, 0.2, 0.0030769230769230765, 0.2, 0.2, 0.33320719016083256, 0.2, 0.3331022530329289, 0.2, 0.11479774705581156, 0.2, 0.2, 0.2, 0.2580060422960725, 0.2, 0.25577342047930285, 0.2, 0.23761212496133624, 0.2, 0.2, 0.0020618556701030924, 0.6233463035019455, 0.0020618556701030924, 0.19231692677070827, 0.1875243664717349, 0.27269285376242314, 0.2, 0.00606060606060606, 0.16669557675628793, 0.2, 0.2682406702208682, 0.2, 0.13485433485433485, 0.006060606060606058, 0.2, 0.2, 0.5552471812662619, 0.2, 0.39968798751950074, 0.2, 0.24525633470830874, 0.2, 0.9757575757575756, 0.2, 0.0020618556701030924, 0.23075075075075072, 0.2, 0.17023255813953486, 0.2496124031007752, 0.1605090628615503, 0.2, 0.2, 0.2, 0.26659729448491154, 0.2, 0.3570260223048327, 0.2, 0.2474074074074074, 0.2, 0.2, 0.2853333333333333, 0.16672443674176776, 0.1114186851211073, 0.27771032090199477, 0.059082568807339454, 0.3570844179992562, 0.006060606060606061, 0.0012422360248447205, 0.29780730897009966, 0.006060606060606058, 0.2115315315315315, 0.2, 0.20731428571428573, 0.006060606060606058, 0.2, 0.2, 0.2855233853006681, 0.2, 0.19999999999999998, 0.2, 0.3945768282662284, 0.2, 0.002061855670103093, 0.2, 0.006060606060606058, 0.2499645138396025, 0.0030769230769230765, 0.07899712289354706, 0.0006230529595015578, 0.12183980967486124, 0.2, 0.0020618556701030924, 0.2, 0.19999999999999998, 0.2, 0.07699699699699698, 0.006060606060606061, 0.2430864836872087, 0.2, 0.05580589254766031, 0.2630541871921182, 0.15279826464208243, 0.2173677069199457, 0.24320675105485232, 0.11325869180907482, 0.2462578689671252, 0.2, 0.05668827342368886, 0.4115702479338843, 0.006060606060606058, 0.15256749602964528, 0.2, 0.25772266065388955, 0.4953846153846153, 0.49767441860465117, 0.2, 0.24587813620071683, 0.2, 0.2707872478854912, 0.2, 0.18135016998542983, 0.2, 0.10015600624024958, 0.2, 0.2, 0.12529182879377432, 0.2, 0.09121813031161476, 0.006060606060606058, 0.11141868512110728, 0.2, 0.2, 0.00606060606060606, 0.06465256797583081, 0.2, 0.04187256176853056, 0.2, 0.0790468364831553, 0.2, 0.2, 0.0015503875968992248, 0.19999999999999998, 0.0030769230769230765, 0.1579638752052545, 0.0015503875968992248, 0.09531598513011151, 0.2, 0.2, 0.00028368794326241134, 0.2, 0.0003284072249589491, 0.2, 0.00047961630695443657, 0.2, 0.2, 0.2, 0.1944468546637744, 0.2, 0.12906801007556673, 0.2, 0.1158171654061164, 0.2, 0.4953846153846153, 0.2, 0.2, 0.0001892147587511826, 0.2, 0.055805892547660316, 0.2, 0.08202764976958524, 0.2, 0.2, 0.2, 0.06465256797583081, 0.2, 0.046623093681917215, 0.2, 0.05944942777605938, 0.2, 0.2, 0.0020618556701030924, 0.0007782101167315176, 0.0020618556701030924, 0.07707082833133254, 0.00038986354775828464, 0.18182678655939422, 0.2, 0.00606060606060606, 0.1389418907198612, 0.2, 0.024523990860624525, 0.2, 0.06746226746226745, 0.006060606060606058, 0.2, 0.2, 0.1111882046834345, 0.2, 0.15007800312012481, 0.2, 0.1321154979375368, 0.2, 0.00606060606060606, 0.2, 0.3319587628865979, 0.03855855855855855, 0.2, 0.10644518272425246, 0.0015503875968992248, 0.061781720015426145, 0.2, 0.2, 0.2, 0.0668054110301769, 0.2, 0.047732342007434946, 0.2, 0.10312399355877616, 0.2, 0.2, 0.14311111111111113, 0.38856152512998265, 0.22214532871972323, 0.22220294882914135, 0.059082568807339454, 0.08337671997024916, 0.9757575757575758, 0.3987577639751553, 0.0639202657807309, 0.006060606060606058, 0.05777777777777777, 0.2, 0.048838095238095236, 0.006060606060606058, 0.2, 0.2, 0.21425389755011137, 0.2, 0.24992199687987518, 0.2, 0.13163516844700082, 0.2, 0.9917525773195877, 0.2, 0.006060606060606058, 0.06827537260468416, 0.4953846153846153, 0.0921496095355528, 0.20000000000000004, 0.050785091197462336, 0.2, 0.0020618556701030924, 0.2, 0.33319458896982307, 0.2, 0.19231231231231227, 0.9757575757575758, 0.12708441222164682, 0.2, 0.05580589254766031, 0.10541871921182266, 0.7914099783080261, 0.08710990502035279, 0.270210970464135, 0.1321154979375368, 0.35817206808113783, 0.2, 0.24525633470830874, 0.17649219467401284, 0.006060606060606058, 0.11868713605082051, 0.2, 0.14949267192784668, 0.0030769230769230765, 0.2496124031007752, 0.2, 0.57357910906298, 0.2, 0.4373454782042941, 0.2, 0.5180832119151692, 0.2, 0.10015600624024958, 0.2 ;
}
probability ( total_add_line | commit_num, file_changed_num ) {
    table 0.8602105263157894, 0.2256, 0.07408720311946118, 0.006711409395973154, 0.6290934160634264, 0.18014349427961993, 0.03956792297757426, 0.003076923076923077, 0.4947600661886376, 0.10959216222374117, 0.016845788552861785, 0.0009017132551848512, 0.2, 0.2, 0.2, 0.004694835680751174, 0.1303859649122807, 0.49696, 0.27259836937256293, 0.006711409395973154, 0.28162702516373667, 0.43455497382198954, 0.16167664670658682, 0.003076923076923077, 0.24765581908439052, 0.35019366598313967, 0.09202699325168708, 0.0009017132551848512, 0.2, 0.2, 0.2, 0.004694835680751174, 0.009122807017543859, 0.22048, 0.28961361219425735, 0.006711409395973154, 0.06101344364012409, 0.2732208648439015, 0.29129975343430786, 0.003076923076923077, 0.23000551571980143, 0.35019366598313967, 0.18880279930017496, 0.0009017132551848512, 0.2, 0.2, 0.2, 0.004694835680751174, 0.00014035087719298245, 0.05152, 0.24991137894363702, 0.006711409395973154, 0.011375387797311272, 0.09637386077176653, 0.36080779617236114, 0.003076923076923077, 0.0005515719801434088, 0.17156527682843473, 0.4287428142964259, 0.0009017132551848512, 0.2, 0.2, 0.2, 0.004694835680751174, 0.00014035087719298245, 0.00544, 0.11378943637008153, 0.9731543624161074, 0.016890727335401586, 0.015706806282722512, 0.1466478807091699, 0.9876923076923076, 0.02702702702702703, 0.01845522898154477, 0.2735816045988503, 0.9963931469792606, 0.2, 0.2, 0.2, 0.9812206572769953 ;
}
probability ( total_delete_line | file_changed_num, total_add_line ) {
    table 0.7357433348395843, 0.6779599271402549, 0.29212121212121217, 0.4666666666666668, 0.808, 0.34064272211720226, 0.22820705176294073, 0.03542354235423543, 0.10254957507082153, 0.2711111111111111, 0.43529411764705883, 0.22086258776328985, 0.011418880723572639, 0.002654580770475882, 0.0069278818852924464, 0.2, 0.2, 0.2, 0.2, 0.00044943820224719103, 0.11034794396746497, 0.27723132969034603, 0.5103030303030304, 0.4666666666666668, 0.008000000000000002, 0.1667296786389414, 0.37824456114028504, 0.48426842684268423, 0.13654390934844193, 0.2711111111111111, 0.14570135746606336, 0.3091273821464393, 0.3098925946862634, 0.0596309485270314, 0.05235661555934128, 0.2, 0.2, 0.2, 0.2, 0.00044943820224719103, 0.06154541346588341, 0.022222222222222216, 0.17090909090909093, 0.022222222222222227, 0.008000000000000002, 0.18185255198487713, 0.17719429857464367, 0.32585258525852584, 0.6577903682719547, 0.36, 0.05520361990950226, 0.15667001003009026, 0.300847936687394, 0.3626416315959858, 0.12731402612152184, 0.2, 0.2, 0.2, 0.2, 0.00044943820224719103, 0.030817894261183913, 0.014936247723132965, 0.0012121212121212123, 0.022222222222222227, 0.008000000000000002, 0.12136105860113422, 0.10517629407351838, 0.09702970297029703, 0.10254957507082153, 0.09333333333333334, 0.037104072398190045, 0.15265797392176528, 0.19231204070096097, 0.4105535772094529, 0.7315161839863713, 0.2, 0.2, 0.2, 0.2, 0.00044943820224719103, 0.06154541346588341, 0.007650273224043715, 0.02545454545454546, 0.022222222222222227, 0.16800000000000004, 0.189413988657845, 0.11117779444861214, 0.05742574257425743, 0.00056657223796034, 0.0044444444444444444, 0.3266968325791855, 0.16068204613841525, 0.1855285472018089, 0.16451926189705407, 0.08188529244747302, 0.2, 0.2, 0.2, 0.2, 0.9982022471910112 ;
}
probability ( workload | author_identity, change_num, close_num, has_feature ) {
    table 0.6133988255715181, 0.0589675576412977, 0.00023646252069047059, 0.10051813471502592, 0.33275713050993955, 0.07190511489992588, 0.2, 0.7429305912596401, 0.9796954314720815, 0.27238454288407166, 0.09269608787820391, 0.010976575761004866, 0.31231719207019826, 0.17189786957228817, 0.3321858864027538, 0.18186112423240433, 0.005076142131979696, 0.9796954314720815, 0.1273415326395459, 0.21897089002052145, 0.18368214171889938, 0.32470878737452363, 0.11777301927194864, 0.16135524991613553, 0.2, 0.2, 0.2, 0.49238578680203055, 0.2618280901659648, 0.1650662084302032, 0.2086314764170382, 0.19537337010361722, 0.0005467468562055767, 0.24994580533275526, 0.7634812780106981, 0.19999999999999998, 0.9603960396039601, 0.2, 0.2, 0.2, 0.0099009900990099, 0.00012695188523549573, 0.034044805080261066, 0.10981338072870382, 0.29397369226063014, 0.0007980845969672786, 0.0025706940874035992, 0.0020618556701030924, 0.2, 0.2, 0.7476231633535005, 0.18521370812475932, 0.539646201873049, 0.10879891427278897, 0.22209436133486768, 0.0012936610608020697, 0.2, 0.2, 0.2, 0.2, 0.16695352839931152, 0.1923230707716913, 0.11123952614851201, 0.12205024105556968, 0.2, 0.2, 0.2, 0.00028893383415197916, 0.2, 0.0020618556701030924, 0.005076142131979695, 0.2, 0.2, 0.2, 0.2, 0.2, 0.9897172236503853, 0.07741420590582603, 0.11162255466052934, 0.4430379746835444, 0.2, 0.2, 0.2, 0.009900990099009898, 0.9603960396039601, 0.33105802047781574, 0.8474629687992435, 0.645693341478314, 0.2, 0.2, 0.2, 0.2, 0.0099009900990099, 0.0034129692832764497, 0.24061838893409274, 0.30869218719942837, 0.3793994903423569, 0.5486635380534586, 0.6812485221092458, 0.2, 0.49870354364736397, 0.0007412898443291327, 0.2, 0.0025706940874035992, 0.005076142131979697, 0.4533459000942508, 0.5552129504721527, 0.17392780355324206, 0.09392265193370167, 0.35924540575703373, 0.49741824440619614, 0.4992914501653282, 0.005076142131979696, 0.005076142131979697, 0.32715231788079474, 0.3503078209318234, 0.40805269308403264, 0.1701111170755274, 0.2939736922606302, 0.22576316672257632, 0.2, 0.2, 0.2, 0.49238578680203055, 0.4282883329204855, 0.3397351662791873, 0.280560446559023, 0.2699135184342285, 0.2629852378348824, 0.3748103186646435, 0.1944484603151655, 0.13356401384083044, 0.009900990099009898, 0.2, 0.2, 0.2, 0.0099009900990099, 0.00012695188523549573, 0.017110601517022404, 0.036689094833058274, 0.00030590394616090543, 0.0007980845969672786, 0.0025706940874035992, 0.0020618556701030924, 0.2, 0.2, 0.16681071737251515, 0.2591451675009626, 0.16004162330905308, 0.10879891427278897, 0.5535097813578828, 0.6222509702457956, 0.2, 0.2, 0.2, 0.2, 0.001721170395869191, 0.07716913234706116, 0.38861600693441206, 0.19512814006597312, 0.2, 0.2, 0.2, 0.00028893383415197916, 0.2, 0.0020618556701030924, 0.005076142131979695, 0.2, 0.2, 0.2, 0.2, 0.2, 0.002570694087403598, 0.0007980845969672786, 0.11162255466052934, 0.11162255466052937, 0.2, 0.2, 0.2, 0.9603960396039601, 0.009900990099009898, 0.33105802047781574, 0.030570438071225968, 0.0006108735491753207, 0.2, 0.2, 0.2, 0.2, 0.0099009900990099, 0.3310580204778157, 0.18750203417412528, 0.18206051279232735, 0.007127820659600398, 0.3919608243215671, 0.27264128635611257, 0.6974093264248705, 0.000864304235090752, 0.7123795404002965, 0.2, 0.0025706940874035992, 0.005076142131979697, 0.27238454288407166, 0.25920215841202543, 0.5324205046961638, 0.03152421189470264, 0.21873475361847455, 0.001721170395869191, 0.18186112423240433, 0.9796954314720813, 0.005076142131979697, 0.49063386944181653, 0.2992323477996504, 0.13268883459046, 0.20103065113532664, 0.20587335576628943, 0.1935592083193559, 0.2, 0.2, 0.2, 0.005076142131979696, 0.047807778053009654, 0.08743556049732133, 0.12591316075375567, 0.22621756941283566, 0.7353745215965007, 0.3748103186646435, 0.014023420558045395, 0.3328719723183391, 0.009900990099009898, 0.2, 0.2, 0.2, 0.9603960396039604, 0.3657483813634632, 0.2711236549656024, 0.20731242858956458, 0.20587335576628937, 0.9201915403032722, 0.24935732647814915, 0.9917525773195875, 0.2, 0.2, 0.08383751080380296, 0.3330766268771659, 0.2599375650364204, 0.3693734449219634, 0.22209436133486768, 0.12548512289780078, 0.2, 0.2, 0.2, 0.2, 0.16695352839931152, 0.3458616553378648, 0.083501878069922, 0.2194874397361076, 0.2, 0.2, 0.2, 0.05576422999133198, 0.2, 0.0020618556701030924, 0.49238578680203043, 0.2, 0.2, 0.2, 0.2, 0.2, 0.002570694087403598, 0.6137270550678372, 0.22209436133486762, 0.22209436133486768, 0.2, 0.2, 0.2, 0.009900990099009898, 0.009900990099009898, 0.33105802047781574, 0.06082571698707846, 0.1178985949908369, 0.2, 0.2, 0.2, 0.2, 0.0099009900990099, 0.0034129692832764497, 0.2468673718470301, 0.2242710709280277, 3.6931713262178225e-05, 0.00020403999183840033, 0.02293686450697565, 0.0010362694300518136, 0.08383751080380296, 0.21423276501111935, 0.2, 0.24935732647814915, 0.005076142131979697, 0.0009425070688030161, 0.07419541337444596, 0.23910829467013692, 0.3747156321091973, 0.15628557489022604, 0.16695352839931152, 0.1365139348134152, 0.005076142131979696, 0.005076142131979697, 0.05468306527909177, 0.13141293607965343, 0.13268883459046, 0.22679692951849267, 0.32334047109207714, 0.16135524991613553, 0.2, 0.2, 0.2, 0.005076142131979696, 0.09536784741144415, 0.2038815323966441, 0.19784213089574046, 0.18252162039144287, 0.0005467468562055767, 0.00021677866897897247, 0.014023420558045395, 0.3328719723183391, 0.009900990099009898, 0.2, 0.2, 0.2, 0.0099009900990099, 0.35356100038085564, 0.16951843358617041, 0.1585629046591342, 0.20587335576628937, 0.0007980845969672786, 0.7429305912596401, 0.0020618556701030924, 0.2, 0.2, 0.0008643042350907521, 0.11128224874855601, 0.040166493236212276, 0.41280253336349243, 0.0011507479861910242, 0.24967658473479945, 0.2, 0.2, 0.2, 0.2, 0.6626506024096386, 0.2307077169132347, 0.277665414620052, 0.2925653387465111, 0.2, 0.2, 0.2, 0.33314071077723195, 0.2, 0.0020618556701030924, 0.49238578680203043, 0.2, 0.2, 0.2, 0.2, 0.2, 0.002570694087403598, 0.15403032721468476, 0.001150747986191024, 0.22209436133486768, 0.2, 0.2, 0.2, 0.009900990099009898, 0.009900990099009898, 0.0034129692832764505, 0.06082571698707846, 0.17654245571166768, 0.2, 0.2, 0.2, 0.2, 0.9603960396039604, 0.3310580204778157, 0.1968755085435313, 0.19261315232625242, 3.6931713262178225e-05, 0.00020403999183840033, 0.02293686450697565, 0.0010362694300518136, 0.08383751080380296, 0.0007412898443291327, 0.2, 0.0025706940874035992, 0.005076142131979697, 0.0009425070688030161, 0.018693389863172098, 0.043566821319452304, 0.18752031199220023, 0.09383639616197757, 0.001721170395869191, 0.0004723665564478034, 0.005076142131979696, 0.005076142131979697, 0.0001892147587511826, 7.600516835144791e-05, 0.14288749601614786, 0.0773525148961297, 0.05903946160905476, 0.25796712512579667, 0.2, 0.2, 0.2, 0.005076142131979696, 0.16670795144909586, 0.2038815323966441, 0.18705278537444275, 0.1259739216578757, 0.0005467468562055767, 0.00021677866897897247, 0.014023420558045395, 0.0006920415224913495, 0.009900990099009898, 0.2, 0.2, 0.2, 0.0099009900990099, 0.28043671448521007, 0.5082025048509438, 0.48762219118953914, 0.29397369226063014, 0.07741420590582603, 0.0025706940874035992, 0.0020618556701030924, 0.2, 0.2, 0.0008643042350907521, 0.11128224874855601, 0.0002081165452653486, 0.0002261931689662972, 0.0011507479861910242, 0.0012936610608020697, 0.2, 0.2, 0.2, 0.2, 0.001721170395869191, 0.15393842463014795, 0.138977174227102, 0.17076884039583864, 0.2, 0.2, 0.2, 0.610517191563132, 0.2, 0.9917525773195875, 0.005076142131979695, 0.2, 0.2, 0.2, 0.2, 0.2, 0.002570694087403598, 0.15403032721468476, 0.5535097813578826, 0.0011507479861910242, 0.2, 0.2, 0.2, 0.009900990099009898, 0.009900990099009898, 0.0034129692832764505, 0.0003151591553734636, 0.05925473427000612, 0.2, 0.2, 0.2, 0.2, 0.0099009900990099, 0.3310580204778157, 0.12813669650122048, 0.09236307675396409 ;
}
