network unknown {
}
variable accept_num {
    type discrete [ 5 ] { 0, 1, 2, 3, 4 };
}
variable author_identity {
    type discrete [ 3 ] { 0, 1, 2 };
}
variable body_words {
    type discrete [ 5 ] { 0, 1, 2, 3, 4 };
}
variable change_num {
    type discrete [ 5 ] { 0, 1, 2, 3, 4 };
}
variable close_num {
    type discrete [ 4 ] { 0, 1, 2, 3 };
}
variable comment_num {
    type discrete [ 3 ] { 0, 1, 2 };
}
variable commit_num {
    type discrete [ 3 ] { 0, 1, 4 };
}
variable file_changed_num {
    type discrete [ 4 ] { 0, 1, 2, 4 };
}
variable has_assignees_content {
    type discrete [ 2 ] { 0, 1 };
}
variable has_bug {
    type discrete [ 2 ] { 0, 1 };
}
variable has_document {
    type discrete [ 2 ] { 0, 1 };
}
variable has_feature {
    type discrete [ 2 ] { 0, 1 };
}
variable has_improve {
    type discrete [ 2 ] { 0, 1 };
}
variable has_labels {
    type discrete [ 2 ] { 0, 1 };
}
variable has_refactor {
    type discrete [ 2 ] { 0, 1 };
}
variable is_weekday {
    type discrete [ 2 ] { 0, 1 };
}
variable mergable_state {
    type discrete [ 2 ] { 0, 2 };
}
variable participants_count {
    type discrete [ 3 ] { 0, 1, 3 };
}
variable pre_prs {
    type discrete [ 5 ] { 0, 1, 2, 3, 4 };
}
variable priorities_number {
    type discrete [ 5 ] { 0, 1, 2, 3, 4 };
}
variable review_comment_num {
    type discrete [ 2 ] { 0, 1 };
}
variable review_num {
    type discrete [ 2 ] { 0, 1 };
}
variable title_words {
    type discrete [ 5 ] { 0, 1, 2, 3, 4 };
}
variable total_add_line {
    type discrete [ 5 ] { 0, 1, 2, 3, 4 };
}
variable total_delete_line {
    type discrete [ 5 ] { 0, 1, 2, 3, 4 };
}
variable workload {
    type discrete [ 5 ] { 0, 1, 2, 3, 4 };
}
probability ( accept_num | pre_prs ) {
    table 0.9309734513274336, 0.029787234042553203, 0.0013333333333333337, 0.001388888888888889, 0.0017543859649122807, 0.06371681415929203, 0.9517730496453903, 0.068, 0.001388888888888889, 0.0017543859649122807, 0.0017699115044247787, 0.015602836879432631, 0.7946666666666669, 0.001388888888888889, 0.0017543859649122807, 0.0017699115044247787, 0.0014184397163120575, 0.13466666666666668, 0.8694444444444445, 0.0017543859649122807, 0.0017699115044247787, 0.0014184397163120575, 0.0013333333333333337, 0.12638888888888888, 0.9929824561403509 ;
}
probability ( author_identity | change_num, has_assignees_content ) {
    table 0.5062571103526735, 0.3333333333333333, 0.7902973395931142, 0.7777777777777777, 0.9581699346405228, 0.3333333333333333, 0.934959349593496, 0.3333333333333333, 0.8926342072409489, 0.11111111111111109, 0.49260523321956773, 0.3333333333333333, 0.20813771517996868, 0.11111111111111109, 0.04052287581699346, 0.3333333333333333, 0.04297328687572591, 0.3333333333333333, 0.02372034956304619, 0.7777777777777777, 0.0011376564277588168, 0.3333333333333333, 0.0015649452269170575, 0.11111111111111109, 0.0013071895424836598, 0.3333333333333333, 0.022067363530778168, 0.3333333333333333, 0.08364544319600499, 0.11111111111111109 ;
}
probability ( body_words | has_labels, has_refactor, participants_count ) {
    table 0.1341026661360923, 0.0763669227293267, 0.012297097884899163, 0.69811320754717, 0.3170731707317072, 0.03448275862068964, 0.012987012987012988, 0.24528301886792456, 0.9558011049723759, 0.2, 0.2, 0.7647058823529413, 0.301233585356148, 0.20108450067781292, 0.12444663059517952, 0.24528301886792456, 0.6097560975609755, 0.8620689655172412, 0.32467532467532473, 0.24528301886792456, 0.027624309392265203, 0.2, 0.2, 0.05882352941176472, 0.24393155590927176, 0.24988703117939448, 0.21298573536645352, 0.01886792452830189, 0.02439024390243902, 0.03448275862068964, 0.6363636363636364, 0.01886792452830189, 0.001104972375690608, 0.2, 0.2, 0.05882352941176472, 0.17230401910067647, 0.30953456845910526, 0.33103787506148546, 0.01886792452830189, 0.02439024390243902, 0.03448275862068964, 0.012987012987012988, 0.24528301886792456, 0.001104972375690608, 0.2, 0.2, 0.05882352941176472, 0.14842817349781137, 0.16312697695436057, 0.3192326610919823, 0.01886792452830189, 0.02439024390243902, 0.03448275862068964, 0.012987012987012988, 0.24528301886792456, 0.014364640883977904, 0.2, 0.2, 0.05882352941176472 ;
}
probability ( change_num | has_labels, pre_prs ) {
    table 0.9464566929133857, 0.439662447257384, 0.1715302491103203, 0.022382671480144407, 0.0008888888888888889, 0.14343434343434341, 0.004444444444444444, 0.010526315789473684, 0.018181818181818184, 0.06666666666666667, 0.048818897637795275, 0.4902953586497891, 0.2711743772241993, 0.044043321299638984, 0.0008888888888888889, 0.00202020202020202, 0.09333333333333332, 0.010526315789473684, 0.018181818181818184, 0.06666666666666667, 0.0015748031496062992, 0.06835443037974684, 0.3138790035587189, 0.23898916967509026, 0.0008888888888888889, 0.8505050505050505, 0.004444444444444444, 0.010526315789473684, 0.018181818181818184, 0.06666666666666667, 0.0015748031496062992, 0.0008438818565400845, 0.24270462633451959, 0.5494584837545126, 0.0008888888888888889, 0.00202020202020202, 0.8933333333333332, 0.9578947368421052, 0.7454545454545454, 0.06666666666666667, 0.0015748031496062992, 0.0008438818565400845, 0.0007117437722419929, 0.14512635379061373, 0.9964444444444444, 0.00202020202020202, 0.004444444444444444, 0.010526315789473684, 0.2, 0.7333333333333334 ;
}
probability ( close_num | has_labels, review_comment_num, review_num, title_words ) {
    table 0.056228373702422146, 0.11301369863013698, 0.21460176991150443, 0.12064676616915423, 0.0028089887640449437, 0.001937984496124031, 0.0038461538461538464, 0.003424657534246575, 0.0014124293785310734, 0.00510204081632653, 0.177007299270073, 0.006097560975609756, 0.2993827160493827, 0.2226027397260274, 0.20121951219512196, 0.0636769078295342, 0.14059080962800874, 0.09708249496981891, 0.17535392535392536, 0.14861751152073732, 0.25, 0.25, 0.25, 0.9558823529411765, 0.027777777777777776, 0.027777777777777776, 0.25, 0.25, 0.25, 0.25, 0.9166666666666666, 0.25, 0.25, 0.25, 0.027777777777777776, 0.9757617728531855, 0.032101167315175094, 0.9558823529411765, 0.027777777777777776, 0.25, 0.47145328719723184, 0.3321917808219178, 0.3561946902654867, 0.47885572139303484, 0.18258426966292135, 0.001937984496124031, 0.0038461538461538464, 0.003424657534246575, 0.0014124293785310734, 0.00510204081632653, 0.46897810218978103, 0.39634146341463417, 0.39814814814814814, 0.4417808219178082, 0.20121951219512196, 0.19053518334985134, 0.17560175054704596, 0.24195171026156942, 0.14446589446589447, 0.2960829493087558, 0.25, 0.25, 0.25, 0.014705882352941176, 0.9166666666666666, 0.027777777777777776, 0.25, 0.25, 0.25, 0.25, 0.027777777777777776, 0.25, 0.25, 0.25, 0.9166666666666666, 0.0006925207756232687, 0.6546692607003891, 0.014705882352941176, 0.027777777777777776, 0.25, 0.3607266435986159, 0.3321917808219178, 0.4269911504424779, 0.31965174129353235, 0.7219101123595506, 0.06395348837209303, 0.25, 0.003424657534246575, 0.18220338983050846, 0.00510204081632653, 0.2354014598540146, 0.39634146341463417, 0.10185185185185185, 0.003424657534246575, 0.39634146341463417, 0.25396432111000994, 0.21061269146608316, 0.2902414486921529, 0.22683397683397682, 0.22235023041474655, 0.25, 0.25, 0.25, 0.014705882352941176, 0.027777777777777776, 0.9166666666666666, 0.25, 0.25, 0.25, 0.25, 0.027777777777777776, 0.25, 0.25, 0.25, 0.027777777777777776, 0.0006925207756232687, 0.2188715953307393, 0.014705882352941176, 0.9166666666666666, 0.25, 0.1115916955017301, 0.2226027397260274, 0.0022123893805309734, 0.08084577114427861, 0.09269662921348315, 0.9321705426356589, 0.7423076923076923, 0.9897260273972602, 0.8149717514124294, 0.9846938775510204, 0.11861313868613138, 0.20121951219512196, 0.2006172839506173, 0.3321917808219178, 0.20121951219512196, 0.4918235877106046, 0.47319474835886216, 0.37072434607645877, 0.45334620334620335, 0.33294930875576034, 0.25, 0.25, 0.25, 0.014705882352941176, 0.027777777777777776, 0.027777777777777776, 0.25, 0.25, 0.25, 0.25, 0.027777777777777776, 0.25, 0.25, 0.25, 0.027777777777777776, 0.022853185595567867, 0.0943579766536965, 0.014705882352941176, 0.027777777777777776, 0.25 ;
}
probability ( comment_num | commit_num, has_assignees_content, total_add_line ) {
    table 0.620140216698534, 0.42828882294757664, 0.33333333333333337, 0.4871794871794871, 0.3333333333333333, 0.025641025641025637, 0.3333333333333333, 0.3333333333333333, 0.3333333333333333, 0.3333333333333333, 0.27927927927927926, 0.18102872411489646, 0.13187347931873478, 0.04967454607742377, 0.07369844489519946, 0.3333333333333333, 0.3333333333333333, 0.3333333333333333, 0.3333333333333333, 0.3333333333333333, 0.3333333333333333, 0.3333333333333333, 0.3333333333333333, 0.3333333333333333, 0.4871794871794872, 0.3333333333333333, 0.3333333333333333, 0.3333333333333333, 0.3333333333333333, 0.3333333333333333, 0.23008285532186107, 0.33926805143422356, 0.45747126436781615, 0.025641025641025637, 0.3333333333333333, 0.4871794871794871, 0.3333333333333333, 0.3333333333333333, 0.3333333333333333, 0.3333333333333333, 0.3951093951093951, 0.4575818303273213, 0.3420924574209246, 0.22850291195614936, 0.30493576741041245, 0.3333333333333333, 0.3333333333333333, 0.3333333333333333, 0.3333333333333333, 0.3333333333333333, 0.3333333333333333, 0.3333333333333333, 0.3333333333333333, 0.3333333333333333, 0.4871794871794872, 0.3333333333333333, 0.3333333333333333, 0.3333333333333333, 0.3333333333333333, 0.3333333333333333, 0.14977692797960485, 0.23244312561819977, 0.20919540229885059, 0.4871794871794871, 0.3333333333333333, 0.4871794871794871, 0.3333333333333333, 0.3333333333333333, 0.3333333333333333, 0.3333333333333333, 0.32561132561132555, 0.36138944555778224, 0.5260340632603406, 0.7218225419664268, 0.6213657876943881, 0.3333333333333333, 0.3333333333333333, 0.3333333333333333, 0.3333333333333333, 0.3333333333333333, 0.3333333333333333, 0.3333333333333333, 0.3333333333333333, 0.3333333333333333, 0.02564102564102564, 0.3333333333333333, 0.3333333333333333, 0.3333333333333333, 0.3333333333333333, 0.3333333333333333 ;
}
probability ( commit_num | total_add_line ) {
    table 0.6716791979949874, 0.4023809523809524, 0.1750599520383693, 0.01414141414141414, 0.003921568627450981, 0.32581453634085217, 0.5952380952380952, 0.8225419664268585, 0.9838383838383837, 0.9686274509803923, 0.002506265664160401, 0.0023809523809523807, 0.002398081534772182, 0.0020202020202020198, 0.02745098039215687 ;
}
probability ( file_changed_num | has_assignees_content, has_refactor ) {
    table 0.22176015473887814, 0.7388888888888889, 0.7115384615384616, 0.25, 0.2558027079303675, 0.027777777777777776, 0.09615384615384616, 0.25, 0.5188588007736944, 0.20555555555555555, 0.09615384615384616, 0.25, 0.003578336557059961, 0.027777777777777776, 0.09615384615384616, 0.25 ;
}
probability ( has_assignees_content ) {
    table 0.993202416918429, 0.006797583081570997 ;
}
probability ( has_bug | body_words ) {
    table 0.8089430894308943, 0.9507575757575758, 0.967391304347826, 0.9966887417218543, 0.9957627118644068, 0.1910569105691057, 0.04924242424242424, 0.03260869565217391, 0.0033112582781456954, 0.00423728813559322 ;
}
probability ( has_document | body_words ) {
    table 0.8658536585365854, 0.9128787878787878, 0.967391304347826, 0.9900662251655629, 0.9957627118644068, 0.13414634146341464, 0.08712121212121213, 0.03260869565217391, 0.009933774834437087, 0.00423728813559322 ;
}
probability ( has_feature | has_improve, has_labels ) {
    table 0.9776251661497564, 0.9072948328267477, 0.6081081081081081, 0.74, 0.022374833850243685, 0.09270516717325228, 0.3918918918918919, 0.26 ;
}
probability ( has_improve | has_document ) {
    table 0.9820717131474104, 0.8768115942028986, 0.017928286852589643, 0.12318840579710146 ;
}
probability ( has_labels | has_assignees_content, participants_count, total_delete_line ) {
    table 0.9572748267898384, 0.9985163204747775, 0.9969325153374233, 0.9960629921259843, 0.950592885375494, 0.9673366834170853, 0.9420062695924765, 0.9972375690607735, 0.9977578475336322, 0.9978165938864628, 0.9691943127962085, 0.5879478827361564, 0.3782961460446247, 0.9558303886925794, 0.96524064171123, 0.07142857142857144, 0.5, 0.5, 0.5, 0.5, 0.5, 0.5, 0.5, 0.5, 0.5, 0.9285714285714286, 0.5, 0.5, 0.5, 0.5, 0.04272517321016167, 0.0014836795252225518, 0.003067484662576687, 0.003937007874015748, 0.04940711462450593, 0.03266331658291457, 0.05799373040752351, 0.0027624309392265192, 0.0022421524663677125, 0.0021834061135371174, 0.030805687203791465, 0.41205211726384366, 0.6217038539553752, 0.044169611307420496, 0.034759358288770054, 0.9285714285714286, 0.5, 0.5, 0.5, 0.5, 0.5, 0.5, 0.5, 0.5, 0.5, 0.07142857142857144, 0.5, 0.5, 0.5, 0.5 ;
}
probability ( has_refactor ) {
    table 0.9811178247734139, 0.0188821752265861 ;
}
probability ( is_weekday | has_labels, total_add_line ) {
    table 0.26862745098039215, 0.23062730627306274, 0.30544747081712065, 0.15326633165829145, 0.19696969696969696, 0.5909090909090909, 0.2777777777777778, 0.21428571428571427, 0.019083969465648856, 0.5, 0.7313725490196078, 0.7693726937269373, 0.6945525291828794, 0.8467336683417085, 0.803030303030303, 0.4090909090909091, 0.7222222222222222, 0.7857142857142857, 0.9809160305343512, 0.5 ;
}
probability ( mergable_state | comment_num ) {
    table 0.8913043478260869, 0.9531001589825119, 0.9940217391304348, 0.10869565217391303, 0.04689984101748808, 0.0059782608695652184 ;
}
probability ( participants_count | comment_num, commit_num, review_num ) {
    table 0.9380577427821521, 0.9199433227063407, 0.8568232662192393, 0.7683160721135404, 0.3333333333333333, 0.855072463768116, 0.6966360856269114, 0.3333333333333333, 0.6885130373502467, 0.15422885572139303, 0.3333333333333333, 0.855072463768116, 0.5951515151515151, 0.3333333333333333, 0.2197360872059667, 0.017032755298651253, 0.3333333333333333, 0.3333333333333333, 0.059317585301837256, 0.07828551186680835, 0.1319910514541387, 0.22976601457614113, 0.3333333333333333, 0.07246376811594203, 0.30030581039755355, 0.38033072236727594, 0.30796335447498246, 0.7913290689410093, 0.3333333333333333, 0.07246376811594203, 0.3987878787878787, 0.2786220871327254, 0.7773952954675846, 0.03784200385356455, 0.3333333333333333, 0.3333333333333333, 0.002624671916010498, 0.0017711654268508675, 0.011185682326621923, 0.0019179133103183733, 0.3333333333333333, 0.07246376811594203, 0.0030581039755351682, 0.28633594429939074, 0.0035236081747709656, 0.05444207533759773, 0.3333333333333333, 0.07246376811594203, 0.006060606060606059, 0.3880445795339412, 0.0028686173264486515, 0.9451252408477842, 0.3333333333333333, 0.3333333333333333 ;
}
probability ( pre_prs | close_num ) {
    table 0.9732739420935412, 0.021207177814029365, 0.0016207455429497568, 0.0010319917440660474, 0.0200445434298441, 0.8955954323001631, 0.008103727714748784, 0.0010319917440660474, 0.0022271714922048997, 0.0799347471451876, 0.8444084278768234, 0.029927760577915376, 0.0022271714922048997, 0.0016313213703099511, 0.14424635332252836, 0.500515995872033, 0.0022271714922048997, 0.0016313213703099511, 0.0016207455429497568, 0.4674922600619195 ;
}
probability ( priorities_number | participants_count, total_add_line ) {
    table 0.5380597014925373, 0.3880184331797235, 0.482, 0.0653061224489796, 0.22142857142857145, 0.2951219512195122, 0.2661764705882353, 0.09870129870129869, 0.04881889763779529, 0.002531645569620253, 0.004081632653061225, 0.09253731343283583, 0.0196319018404908, 0.010031347962382444, 0.0013513513513513514, 0.32537313432835824, 0.42949308755760374, 0.18199999999999997, 0.18775510204081636, 0.22142857142857145, 0.2951219512195122, 0.24411764705882352, 0.312987012987013, 0.07244094488188978, 0.04050632911392405, 0.18775510204081636, 0.18208955223880596, 0.14846625766871166, 0.019435736677115987, 0.021621621621621623, 0.10149253731343284, 0.15299539170506912, 0.27199999999999996, 0.4326530612244898, 0.22142857142857145, 0.33170731707317075, 0.3102941176470588, 0.274025974025974, 0.3086614173228347, 0.34430379746835443, 0.31020408163265306, 0.18208955223880596, 0.2773006134969325, 0.08526645768025078, 0.14324324324324325, 0.023134328358208958, 0.028571428571428577, 0.002, 0.2489795918367347, 0.11428571428571428, 0.07560975609756099, 0.1338235294117647, 0.2545454545454545, 0.2614173228346457, 0.2683544303797468, 0.12653061224489798, 0.3164179104477612, 0.29570552147239265, 0.4238244514106583, 0.42702702702702705, 0.011940298507462687, 0.0009216589861751152, 0.062, 0.0653061224489796, 0.22142857142857145, 0.0024390243902439024, 0.04558823529411765, 0.05974025974025974, 0.3086614173228347, 0.34430379746835443, 0.37142857142857144, 0.22686567164179106, 0.2588957055214724, 0.4614420062695925, 0.40675675675675677 ;
}
probability ( review_comment_num | commit_num, has_assignees_content, participants_count, review_num ) {
    table 0.8862315601251677, 0.7044525215810995, 0.6458670988654781, 0.17909238249594814, 0.5, 0.005720823798627002, 0.9390243902439025, 0.5, 0.5, 0.5, 0.5, 0.9390243902439025, 0.6244598098530683, 0.21376646978646072, 0.32424735557363715, 0.008684863523573201, 0.5, 0.0002965950883853363, 0.5, 0.5, 0.5, 0.5, 0.5, 0.5, 0.5, 0.5, 0.5, 0.5, 0.5, 0.5, 0.5, 0.5, 0.5, 0.5, 0.5, 0.5, 0.11376843987483237, 0.2955474784189005, 0.3541329011345219, 0.8209076175040518, 0.5, 0.994279176201373, 0.06097560975609757, 0.5, 0.5, 0.5, 0.5, 0.06097560975609757, 0.37554019014693174, 0.7862335302135394, 0.675752644426363, 0.9913151364764268, 0.5, 0.9997034049116146, 0.5, 0.5, 0.5, 0.5, 0.5, 0.5, 0.5, 0.5, 0.5, 0.5, 0.5, 0.5, 0.5, 0.5, 0.5, 0.5, 0.5, 0.5 ;
}
probability ( review_num | commit_num, total_add_line ) {
    table 0.47201492537313433, 0.46449704142011833, 0.4589041095890411, 0.5, 0.5, 0.39615384615384613, 0.266, 0.12390670553935859, 0.06262833675564682, 0.03846153846153846, 0.5, 0.5, 0.5, 0.5, 0.07142857142857144, 0.5279850746268657, 0.5355029585798816, 0.541095890410959, 0.5, 0.5, 0.6038461538461538, 0.734, 0.8760932944606413, 0.9373716632443533, 0.9615384615384615, 0.5, 0.5, 0.5, 0.5, 0.9285714285714286 ;
}
probability ( title_words | commit_num, has_labels, total_add_line ) {
    table 0.3216061185468451, 0.32106824925816024, 0.4151724137931035, 0.9384615384615387, 0.2, 0.015384615384615382, 0.2, 0.2, 0.2, 0.2, 0.15020746887966802, 0.24042105263157895, 0.48992, 0.432590051457976, 0.22494802494802496, 0.3263157894736842, 0.48800000000000004, 0.49508196721311476, 0.5989769820971867, 0.015384615384615389, 0.2, 0.2, 0.2, 0.2, 0.476923076923077, 0.2, 0.2, 0.2, 0.2, 0.2, 0.11510516252390057, 0.05400593471810088, 0.08413793103448276, 0.015384615384615389, 0.2, 0.015384615384615382, 0.2, 0.2, 0.2, 0.2, 0.10041493775933609, 0.08884210526315789, 0.16352000000000003, 0.19588336192109781, 0.2, 0.010526315789473682, 0.008, 0.39672131147540984, 0.3994884910485934, 0.9384615384615387, 0.2, 0.2, 0.2, 0.2, 0.476923076923077, 0.2, 0.2, 0.2, 0.2, 0.2, 0.11510516252390057, 0.08961424332344213, 0.12551724137931036, 0.015384615384615389, 0.2, 0.015384615384615382, 0.2, 0.2, 0.2, 0.2, 0.19999999999999998, 0.35410526315789476, 0.06752000000000001, 0.1547169811320755, 0.23742203742203744, 0.010526315789473682, 0.24800000000000005, 0.1016393442622951, 0.0005115089514066497, 0.015384615384615389, 0.2, 0.2, 0.2, 0.2, 0.015384615384615385, 0.2, 0.2, 0.2, 0.2, 0.2, 0.29866156787762904, 0.33887240356083087, 0.2910344827586207, 0.015384615384615389, 0.2, 0.4769230769230769, 0.2, 0.2, 0.2, 0.2, 0.4738589211618257, 0.2909473684210526, 0.24032000000000003, 0.17530017152658667, 0.21247401247401249, 0.3263157894736842, 0.24800000000000005, 0.003278688524590164, 0.0005115089514066497, 0.015384615384615389, 0.2, 0.2, 0.2, 0.2, 0.015384615384615385, 0.2, 0.2, 0.2, 0.2, 0.2, 0.14952198852772466, 0.19643916913946585, 0.08413793103448276, 0.015384615384615389, 0.2, 0.4769230769230769, 0.2, 0.2, 0.2, 0.2, 0.0755186721991701, 0.025684210526315785, 0.038720000000000004, 0.041509433962264156, 0.12515592515592514, 0.3263157894736842, 0.008, 0.003278688524590164, 0.0005115089514066497, 0.015384615384615389, 0.2, 0.2, 0.2, 0.2, 0.015384615384615385, 0.2, 0.2, 0.2, 0.2, 0.2 ;
}
probability ( total_add_line | file_changed_num ) {
    table 0.6110210696920584, 0.1699248120300752, 0.030303030303030304, 0.07692307692307693, 0.2739059967585089, 0.362406015037594, 0.11012564671101256, 0.07692307692307693, 0.07941653160453808, 0.26015037593984963, 0.24611973392461198, 0.07692307692307693, 0.03403565640194489, 0.19398496240601504, 0.3762010347376201, 0.07692307692307693, 0.0016207455429497568, 0.013533834586466165, 0.23725055432372505, 0.6923076923076923 ;
}
probability ( total_delete_line | total_add_line ) {
    table 0.6105263157894737, 0.3585714285714286, 0.06618705035971223, 0.007272727272727274, 0.014117647058823528, 0.1518796992481203, 0.28, 0.4906474820143885, 0.17090909090909093, 0.0611764705882353, 0.05413533834586466, 0.09428571428571428, 0.19568345323741007, 0.5527272727272728, 0.014117647058823528, 0.02406015037593985, 0.08, 0.11654676258992805, 0.14060606060606062, 0.6141176470588235, 0.1593984962406015, 0.18714285714285714, 0.13093525179856114, 0.1284848484848485, 0.2964705882352941 ;
}
probability ( workload | author_identity, change_num, close_num, mergable_state ) {
    table 0.25635005336179295, 0.4938775510204082, 0.000396039603960396, 0.2, 0.0006920415224913494, 0.2, 0.2, 0.2, 0.9836734693877551, 0.2, 0.4903377847604085, 0.4938775510204082, 0.2725897920604915, 0.9680000000000001, 0.0020618556701030933, 0.008, 0.45213082259663034, 0.2, 0.11152073732718892, 0.008, 0.3110083256244218, 0.2, 0.18185255198487713, 0.3315068493150685, 0.008, 0.2, 0.047920792079207915, 0.2, 0.1904856293359762, 0.0020618556701030933, 0.3436564736499675, 0.004081632653061225, 0.2, 0.2, 0.2, 0.2, 0.2, 0.2, 0.25215501629844256, 0.0020618556701030933, 0.5594009983361066, 0.2, 0.0002447980416156671, 0.008, 0.0007547169811320754, 0.2, 0.008, 0.2, 0.2, 0.2, 0.0008298755186721993, 0.2, 0.0007547169811320754, 0.2, 0.008, 0.2, 0.2, 0.2, 0.2, 0.2, 0.0027397260273972603, 0.2, 0.004081632653061225, 0.2, 0.2, 0.2, 0.2, 0.2, 0.008, 0.2, 0.001652892561983471, 0.2, 0.2, 0.2, 0.2, 0.2, 0.2, 0.2, 0.0020618556701030933, 0.2, 0.2, 0.2, 0.2, 0.2, 0.2, 0.2, 0.2, 0.2, 0.2, 0.2, 0.2, 0.2, 0.2, 0.2, 0.2, 0.2, 0.2, 0.2, 0.2, 0.2, 0.2, 0.2, 0.2, 0.2, 0.2, 0.2, 0.2, 0.2, 0.008, 0.2, 0.008, 0.008, 0.2, 0.2, 0.2, 0.2, 0.2, 0.2, 0.0010362694300518132, 0.0027397260273972603, 0.10266808964781218, 0.004081632653061225, 0.000396039603960396, 0.2, 0.24982698961937713, 0.2, 0.2, 0.2, 0.004081632653061225, 0.2, 0.0755695208169678, 0.004081632653061225, 0.31795841209829867, 0.008, 0.24948453608247426, 0.008, 0.45213082259663034, 0.2, 0.0009216589861751151, 0.008, 0.2, 0.2, 0.13648393194706993, 0.6602739726027398, 0.9680000000000001, 0.2, 0.1904950495049505, 0.2, 0.16669970267591677, 0.24948453608247426, 0.21873780091086534, 0.4938775510204082, 0.2, 0.2, 0.2, 0.2, 0.2, 0.2, 0.21738500543281417, 0.24948453608247426, 0.3198003327787022, 0.2, 0.20587515299877604, 0.9680000000000001, 0.09132075471698112, 0.2, 0.008, 0.2, 0.2, 0.2, 0.0008298755186721993, 0.2, 0.0007547169811320754, 0.2, 0.008, 0.2, 0.2, 0.2, 0.2, 0.2, 0.0027397260273972603, 0.2, 0.004081632653061225, 0.2, 0.2, 0.2, 0.2, 0.2, 0.008, 0.2, 0.001652892561983471, 0.2, 0.2, 0.2, 0.2, 0.2, 0.2, 0.2, 0.0020618556701030933, 0.2, 0.2, 0.2, 0.2, 0.2, 0.2, 0.2, 0.2, 0.2, 0.2, 0.2, 0.2, 0.2, 0.2, 0.2, 0.2, 0.2, 0.2, 0.2, 0.2, 0.2, 0.2, 0.2, 0.2, 0.2, 0.2, 0.2, 0.2, 0.2, 0.008, 0.2, 0.008, 0.008, 0.2, 0.2, 0.2, 0.2, 0.2, 0.2, 0.3740932642487046, 0.0027397260273972603, 0.25635005336179295, 0.4938775510204082, 0.38059405940594054, 0.2, 0.1667820069204152, 0.2, 0.2, 0.2, 0.004081632653061225, 0.2, 0.09442262372348784, 0.004081632653061225, 0.22722117202268433, 0.008, 0.0020618556701030933, 0.9680000000000001, 0.09534192269573837, 0.2, 0.0009216589861751151, 0.008, 0.1555966697502313, 0.2, 0.31795841209829867, 0.0027397260273972603, 0.008, 0.2, 0.23801980198019804, 0.2, 0.1904856293359762, 0.24948453608247426, 0.10943396226415096, 0.004081632653061225, 0.2, 0.2, 0.2, 0.2, 0.2, 0.2, 0.18261499456718577, 0.24948453608247426, 0.12013311148086524, 0.2, 0.44088127294981644, 0.008, 0.09132075471698112, 0.2, 0.008, 0.2, 0.2, 0.2, 0.0008298755186721993, 0.2, 0.3630188679245283, 0.2, 0.008, 0.2, 0.2, 0.2, 0.2, 0.2, 0.0027397260273972603, 0.2, 0.4938775510204082, 0.2, 0.2, 0.2, 0.2, 0.2, 0.008, 0.2, 0.3983471074380165, 0.2, 0.2, 0.2, 0.2, 0.2, 0.2, 0.2, 0.0020618556701030933, 0.2, 0.2, 0.2, 0.2, 0.2, 0.2, 0.2, 0.2, 0.2, 0.2, 0.2, 0.2, 0.2, 0.2, 0.2, 0.2, 0.2, 0.2, 0.2, 0.2, 0.2, 0.2, 0.2, 0.2, 0.2, 0.2, 0.2, 0.2, 0.2, 0.008, 0.2, 0.9680000000000001, 0.008, 0.2, 0.2, 0.2, 0.2, 0.2, 0.2, 0.249740932642487, 0.0027397260273972603, 0.20512273212379936, 0.004081632653061225, 0.23801980198019804, 0.2, 0.1667820069204152, 0.2, 0.2, 0.2, 0.004081632653061225, 0.2, 0.11327572663000787, 0.4938775510204082, 0.00037807183364839316, 0.008, 0.24948453608247426, 0.008, 0.00019821605550049556, 0.2, 0.33271889400921656, 0.008, 0.13339500462534692, 0.2, 0.18185255198487713, 0.0027397260273972603, 0.008, 0.2, 0.3330693069306931, 0.2, 0.333201189296333, 0.0020618556701030933, 0.09381912817176319, 0.4938775510204082, 0.2, 0.2, 0.2, 0.2, 0.2, 0.2, 0.060919956537486414, 0.24948453608247426, 0.00033277870216306157, 0.2, 0.20587515299877604, 0.008, 0.2724528301886792, 0.2, 0.008, 0.2, 0.2, 0.2, 0.1004149377593361, 0.2, 0.2724528301886792, 0.2, 0.008, 0.2, 0.2, 0.2, 0.2, 0.2, 0.3315068493150685, 0.2, 0.4938775510204082, 0.2, 0.2, 0.2, 0.2, 0.2, 0.9680000000000001, 0.2, 0.596694214876033, 0.2, 0.2, 0.2, 0.2, 0.2, 0.2, 0.2, 0.4969072164948454, 0.2, 0.2, 0.2, 0.2, 0.2, 0.2, 0.2, 0.2, 0.2, 0.2, 0.2, 0.2, 0.2, 0.2, 0.2, 0.2, 0.2, 0.2, 0.2, 0.2, 0.2, 0.2, 0.2, 0.2, 0.2, 0.2, 0.2, 0.2, 0.2, 0.9680000000000001, 0.2, 0.008, 0.008, 0.2, 0.2, 0.2, 0.2, 0.2, 0.2, 0.0010362694300518132, 0.6602739726027398, 0.17950907150480258, 0.004081632653061225, 0.38059405940594054, 0.2, 0.415916955017301, 0.2, 0.2, 0.2, 0.004081632653061225, 0.2, 0.22639434406912803, 0.004081632653061225, 0.18185255198487713, 0.008, 0.4969072164948454, 0.008, 0.00019821605550049556, 0.2, 0.5539170506912442, 0.9679999999999999, 0.2, 0.2, 0.18185255198487713, 0.0027397260273972603, 0.008, 0.2, 0.1904950495049505, 0.2, 0.11912784935579783, 0.4969072164948454, 0.23435263500325312, 0.004081632653061225, 0.2, 0.2, 0.2, 0.2, 0.2, 0.2, 0.2869250271640709, 0.24948453608247426, 0.00033277870216306157, 0.2, 0.14712362301101595, 0.008, 0.5441509433962264, 0.2, 0.9679999999999999, 0.2, 0.2, 0.2, 0.8970954356846473, 0.2, 0.3630188679245283, 0.2, 0.9679999999999999, 0.2, 0.2, 0.2, 0.2, 0.2, 0.6602739726027398, 0.2, 0.004081632653061225, 0.2, 0.2, 0.2, 0.2, 0.2, 0.008, 0.2, 0.001652892561983471, 0.2, 0.2, 0.2, 0.2, 0.2, 0.2, 0.2, 0.4969072164948454, 0.2, 0.2, 0.2, 0.2, 0.2, 0.2, 0.2, 0.2, 0.2, 0.2, 0.2, 0.2, 0.2, 0.2, 0.2, 0.2, 0.2, 0.2, 0.2, 0.2, 0.2, 0.2, 0.2, 0.2, 0.2, 0.2, 0.2, 0.2, 0.2, 0.008, 0.2, 0.008, 0.9679999999999999, 0.2, 0.2, 0.2, 0.2, 0.2, 0.2, 0.3740932642487046, 0.3315068493150685 ;
}
