network unknown {
}
variable accept_num {
    type discrete [ 5 ] { 0, 1, 2, 3, 4 };
}
variable author_identity {
    type discrete [ 3 ] { 0, 1, 2 };
}
variable body_words {
    type discrete [ 5 ] { 0, 1, 2, 3, 4 };
}
variable change_num {
    type discrete [ 5 ] { 0, 1, 2, 3, 4 };
}
variable close_num {
    type discrete [ 5 ] { 0, 1, 2, 3, 4 };
}
variable comment_num {
    type discrete [ 4 ] { 0, 1, 2, 4 };
}
variable commit_num {
    type discrete [ 4 ] { 0, 1, 2, 4 };
}
variable file_changed_num {
    type discrete [ 4 ] { 0, 1, 2, 4 };
}
variable has_assignees_content {
    type discrete [ 2 ] { 0, 1 };
}
variable has_bug {
    type discrete [ 2 ] { 0, 1 };
}
variable has_document {
    type discrete [ 2 ] { 0, 1 };
}
variable has_feature {
    type discrete [ 2 ] { 0, 1 };
}
variable has_improve {
    type discrete [ 2 ] { 0, 1 };
}
variable has_labels {
    type discrete [ 2 ] { 0, 1 };
}
variable has_refactor {
    type discrete [ 2 ] { 0, 1 };
}
variable is_weekday {
    type discrete [ 2 ] { 0, 1 };
}
variable mergable_state {
    type discrete [ 3 ] { 0, 2, 3 };
}
variable participants_count {
    type discrete [ 3 ] { 0, 1, 3 };
}
variable pre_prs {
    type discrete [ 5 ] { 0, 1, 2, 3, 4 };
}
variable priorities_number {
    type discrete [ 5 ] { 0, 1, 2, 3, 4 };
}
variable review_comment_num {
    type discrete [ 2 ] { 0, 1 };
}
variable title_words {
    type discrete [ 5 ] { 0, 1, 2, 3, 4 };
}
variable total_add_line {
    type discrete [ 5 ] { 0, 1, 2, 3, 4 };
}
variable total_delete_line {
    type discrete [ 5 ] { 0, 1, 2, 3, 4 };
}
variable workload {
    type discrete [ 5 ] { 0, 1, 2, 3, 4 };
}
probability ( accept_num | close_num, pre_prs ) {
    table 0.9905027932960896, 0.9272727272727272, 0.19999999999999998, 0.19999999999999998, 0.19999999999999998, 0.033333333333333326, 0.02743501409332916, 0.033333333333333326, 0.19999999999999998, 0.19999999999999998, 0.19999999999999998, 0.01818181818181818, 3.665689149560118e-05, 0.007692307692307692, 0.19999999999999998, 0.19999999999999998, 0.19999999999999998, 0.005555555555555556, 3.4867503486750356e-05, 0.19999999999999998, 0.19999999999999998, 0.19999999999999998, 0.19999999999999998, 0.00048076923076923085, 6.16142945163278e-05, 0.009357541899441341, 0.01818181818181818, 0.19999999999999998, 0.19999999999999998, 0.19999999999999998, 0.8666666666666666, 0.960726589414344, 0.8666666666666666, 0.19999999999999998, 0.19999999999999998, 0.19999999999999998, 0.01818181818181818, 0.01653225806451613, 0.007692307692307692, 0.19999999999999998, 0.19999999999999998, 0.19999999999999998, 0.005555555555555556, 3.4867503486750356e-05, 0.19999999999999998, 0.19999999999999998, 0.19999999999999998, 0.19999999999999998, 0.00048076923076923085, 6.16142945163278e-05, 4.655493482309126e-05, 0.01818181818181818, 0.19999999999999998, 0.19999999999999998, 0.19999999999999998, 0.033333333333333326, 0.011775759473849045, 0.033333333333333326, 0.19999999999999998, 0.19999999999999998, 0.19999999999999998, 0.9272727272727272, 0.9393695014662757, 0.7769230769230769, 0.19999999999999998, 0.19999999999999998, 0.19999999999999998, 0.5611111111111111, 0.027057182705718275, 0.19999999999999998, 0.19999999999999998, 0.19999999999999998, 0.19999999999999998, 0.00048076923076923085, 6.16142945163278e-05, 4.655493482309126e-05, 0.01818181818181818, 0.19999999999999998, 0.19999999999999998, 0.19999999999999998, 0.033333333333333326, 3.131850923896023e-05, 0.033333333333333326, 0.19999999999999998, 0.19999999999999998, 0.19999999999999998, 0.01818181818181818, 0.04402492668621701, 0.2, 0.19999999999999998, 0.19999999999999998, 0.19999999999999998, 0.4222222222222222, 0.9039748953974897, 0.19999999999999998, 0.19999999999999998, 0.19999999999999998, 0.19999999999999998, 0.6134615384615385, 6.16142945163278e-05, 4.655493482309126e-05, 0.01818181818181818, 0.19999999999999998, 0.19999999999999998, 0.19999999999999998, 0.033333333333333326, 3.131850923896023e-05, 0.033333333333333326, 0.19999999999999998, 0.19999999999999998, 0.19999999999999998, 0.01818181818181818, 3.665689149560118e-05, 0.007692307692307692, 0.19999999999999998, 0.19999999999999998, 0.19999999999999998, 0.005555555555555556, 0.0688981868898187, 0.19999999999999998, 0.19999999999999998, 0.19999999999999998, 0.19999999999999998, 0.38509615384615387, 0.9997535428219347 ;
}
probability ( author_identity | accept_num, change_num ) {
    table 8.735150244584205e-05, 0.0005324813631522897, 0.3333333333333333, 0.3333333333333333, 0.3333333333333333, 0.00016291951775822744, 0.00014330753797649757, 0.00017488632388947185, 0.3333333333333333, 0.3333333333333333, 0.0007733952049497294, 0.0003027550711474417, 0.0878404296125815, 0.4123025768911056, 0.3333333333333333, 0.3333333333333333, 0.028624192059095114, 0.26037391700866397, 0.685846908390261, 0.8316790736145575, 0.3333333333333333, 0.3333333333333333, 0.7301587301587302, 0.6263020833333334, 0.696350916997542, 0.9998252969951081, 0.9989350372736955, 0.3333333333333333, 0.3333333333333333, 0.3333333333333333, 0.9996741609644836, 0.999713384924047, 0.9996502273522211, 0.3333333333333333, 0.3333333333333333, 0.9984532095901006, 0.9993944898577052, 0.9120636747219024, 0.5868661679135495, 0.3333333333333333, 0.3333333333333333, 0.9704524469067406, 0.7186502507979936, 0.29041863723944644, 0.09966914805624484, 0.3333333333333333, 0.3333333333333333, 0.015873015873015872, 0.040364583333333336, 0.029873321989033842, 8.735150244584205e-05, 0.0005324813631522897, 0.3333333333333333, 0.3333333333333333, 0.3333333333333333, 0.00016291951775822744, 0.00014330753797649757, 0.00017488632388947185, 0.3333333333333333, 0.3333333333333333, 0.0007733952049497294, 0.0003027550711474417, 9.589566551591866e-05, 0.0008312551953449708, 0.3333333333333333, 0.3333333333333333, 0.0009233610341643584, 0.020975832193342456, 0.023734454370292514, 0.0686517783291977, 0.3333333333333333, 0.3333333333333333, 0.25396825396825395, 0.3333333333333333, 0.27377576101342405 ;
}
probability ( body_words | comment_num, total_add_line ) {
    table 0.5200645942672589, 0.3937762825904121, 0.30796221322537104, 0.27117988394584136, 0.1148936170212766, 0.3766051011433597, 0.27238979118329465, 0.21514004542013626, 0.15004460303300624, 0.1657311669128508, 0.2686427457098284, 0.14393530997304582, 0.14066363044892646, 0.09694915254237288, 0.055651024454725716, 0.15406698564593302, 0.06894865525672371, 0.12738275340393343, 0.03896663078579118, 0.029333333333333333, 0.24069438837303195, 0.2592094196804037, 0.3025641025641025, 0.186073500967118, 0.2851063829787234, 0.2394019349164468, 0.28476411446249034, 0.2635881907645723, 0.22497769848349686, 0.18345642540620385, 0.29984399375975035, 0.25534591194968553, 0.22394274560832791, 0.19767554479418886, 0.1534699272967614, 0.15406698564593302, 0.2938875305623472, 0.16369137670196673, 0.11646932185145317, 0.07781818181818183, 0.12119499394428747, 0.1919259882253995, 0.1460188933873144, 0.27117988394584136, 0.1148936170212766, 0.204221635883905, 0.20123743232791955, 0.24239212717638153, 0.24995539696699376, 0.1952732644017725, 0.1750390015600624, 0.24815813117699909, 0.2343526350032531, 0.24803874092009687, 0.2539325842696629, 0.17320574162679428, 0.2254278728606357, 0.2242057488653555, 0.22411194833153927, 0.22327272727272726, 0.07597900686314091, 0.08427249789739277, 0.15681511470985154, 0.19381044487427468, 0.22836879432624116, 0.10923482849604221, 0.13317865429234338, 0.13338380015140044, 0.24281891168599465, 0.24254062038404725, 0.11887675507020282, 0.2265947888589398, 0.2291476903057905, 0.24416464891041162, 0.27243886318572375, 0.26889952153110047, 0.1471882640586797, 0.21210287443267775, 0.31022604951560817, 0.35903030303030303, 0.04206701655228099, 0.07081581160639193, 0.08663967611336032, 0.07775628626692457, 0.2567375886524823, 0.07053649956024627, 0.10843000773395205, 0.14549583648750947, 0.13220338983050847, 0.21299852289512552, 0.13759750390015602, 0.12596585804132973, 0.171893298633702, 0.21317191283292977, 0.26450760079312624, 0.24976076555023924, 0.2645476772616137, 0.27261724659606656, 0.31022604951560817, 0.3105454545454545 ;
}
probability ( change_num | accept_num, close_num, pre_prs ) {
    table 0.8895093062605751, 0.00392156862745098, 0.2, 0.2, 0.2, 0.2, 0.17146118721461184, 0.2, 0.2, 0.2, 0.2, 0.2, 0.2, 0.2, 0.2, 0.2, 0.2, 0.2, 0.2, 0.2, 0.2, 0.2, 0.2, 0.2, 0.2, 0.0009950248756218911, 0.2, 0.2, 0.2, 0.2, 0.007692307692307692, 0.3333289868300952, 0.007692307692307692, 0.2, 0.2, 0.2, 0.2, 0.00044345898004434595, 0.2, 0.2, 0.2, 0.2, 0.2, 0.2, 0.2, 0.2, 0.2, 0.2, 0.2, 0.2, 0.2, 0.2, 0.2, 0.2, 0.2, 0.2, 0.7319148936170214, 0.2, 0.2, 0.2, 0.2, 0.49411764705882355, 0.0722001092640287, 0.0019801980198019802, 0.2, 0.2, 0.2, 0.0019801980198019802, 0.00025773195876288666, 0.2, 0.2, 0.2, 0.2, 0.2, 0.2, 0.2, 0.2, 0.2, 0.2, 0.2, 0.2, 0.2, 0.2, 0.2, 0.2, 0.2, 0.2, 0.0001665278934221482, 0.007692307692307692, 0.2, 0.2, 0.2, 0.002631578947368421, 7.714263673532362e-06, 0.2, 0.2, 0.2, 0.2, 0.00015673981191222572, 0.2, 0.2, 0.2, 0.2, 0.2, 0.2, 0.2, 0.2, 0.2, 0.2, 0.2, 0.2, 0.2, 0.2, 0.2, 0.2, 0.2, 0.2, 0.2, 0.00010121457489878542, 0.2, 0.2, 0.2, 0.2, 0.00024968789013732833, 1.2325896708985578e-05, 0.11046249294980257, 0.984313725490196, 0.2, 0.2, 0.2, 0.2, 0.8278538812785387, 0.2, 0.2, 0.2, 0.2, 0.2, 0.2, 0.2, 0.2, 0.2, 0.2, 0.2, 0.2, 0.2, 0.2, 0.2, 0.2, 0.2, 0.2, 0.9960199004975129, 0.2, 0.2, 0.2, 0.2, 0.9692307692307692, 0.3667427304733342, 0.007692307692307692, 0.2, 0.2, 0.2, 0.2, 0.3330376940133038, 0.2, 0.2, 0.2, 0.2, 0.2, 0.2, 0.2, 0.2, 0.2, 0.2, 0.2, 0.2, 0.2, 0.2, 0.2, 0.2, 0.2, 0.2, 0.2664893617021277, 0.2, 0.2, 0.2, 0.2, 0.49411764705882355, 0.2097557168500741, 0.0019801980198019802, 0.2, 0.2, 0.2, 0.0019801980198019802, 0.00025773195876288666, 0.2, 0.2, 0.2, 0.2, 0.2, 0.2, 0.2, 0.2, 0.2, 0.2, 0.2, 0.2, 0.2, 0.2, 0.2, 0.2, 0.2, 0.2, 0.6038301415487093, 0.9692307692307692, 0.2, 0.2, 0.2, 0.002631578947368421, 0.040507598549718436, 0.2, 0.2, 0.2, 0.2, 0.00015673981191222572, 0.2, 0.2, 0.2, 0.2, 0.2, 0.2, 0.2, 0.2, 0.2, 0.2, 0.2, 0.2, 0.2, 0.2, 0.2, 0.2, 0.2, 0.2, 0.2, 0.00010121457489878542, 0.2, 0.2, 0.2, 0.2, 0.00024968789013732833, 1.2325896708985578e-05, 9.400263207369804e-06, 0.00392156862745098, 0.2, 0.2, 0.2, 0.2, 0.000228310502283105, 0.2, 0.2, 0.2, 0.2, 0.2, 0.2, 0.2, 0.2, 0.2, 0.2, 0.2, 0.2, 0.2, 0.2, 0.2, 0.2, 0.2, 0.2, 0.0009950248756218911, 0.2, 0.2, 0.2, 0.2, 0.007692307692307692, 0.2999152431868562, 0.9692307692307692, 0.2, 0.2, 0.2, 0.2, 0.6656319290465632, 0.2, 0.2, 0.2, 0.2, 0.2, 0.2, 0.2, 0.2, 0.2, 0.2, 0.2, 0.2, 0.2, 0.2, 0.2, 0.2, 0.2, 0.2, 0.0005319148936170214, 0.2, 0.2, 0.2, 0.2, 0.00392156862745098, 0.6614454070085068, 0.0019801980198019802, 0.2, 0.2, 0.2, 0.2495049504950495, 0.5157216494845361, 0.2, 0.2, 0.2, 0.2, 0.2, 0.2, 0.2, 0.2, 0.2, 0.2, 0.2, 0.2, 0.2, 0.2, 0.2, 0.2, 0.2, 0.2, 0.39567027477102407, 0.007692307692307692, 0.2, 0.2, 0.2, 0.6605263157894736, 0.12054308416261668, 0.2, 0.2, 0.2, 0.2, 0.00015673981191222572, 0.2, 0.2, 0.2, 0.2, 0.2, 0.2, 0.2, 0.2, 0.2, 0.2, 0.2, 0.2, 0.2, 0.2, 0.2, 0.2, 0.2, 0.2, 0.2, 0.050708502024291495, 0.2, 0.2, 0.2, 0.2, 0.00024968789013732833, 1.2325896708985578e-05, 9.400263207369804e-06, 0.00392156862745098, 0.2, 0.2, 0.2, 0.2, 0.000228310502283105, 0.2, 0.2, 0.2, 0.2, 0.2, 0.2, 0.2, 0.2, 0.2, 0.2, 0.2, 0.2, 0.2, 0.2, 0.2, 0.2, 0.2, 0.2, 0.0009950248756218911, 0.2, 0.2, 0.2, 0.2, 0.007692307692307692, 6.519754857217369e-06, 0.007692307692307692, 0.2, 0.2, 0.2, 0.2, 0.00044345898004434595, 0.2, 0.2, 0.2, 0.2, 0.2, 0.2, 0.2, 0.2, 0.2, 0.2, 0.2, 0.2, 0.2, 0.2, 0.2, 0.2, 0.2, 0.2, 0.0005319148936170214, 0.2, 0.2, 0.2, 0.2, 0.00392156862745098, 0.056590962303910086, 0.9920792079207921, 0.2, 0.2, 0.2, 0.7445544554455445, 0.4835051546391753, 0.2, 0.2, 0.2, 0.2, 0.2, 0.2, 0.2, 0.2, 0.2, 0.2, 0.2, 0.2, 0.2, 0.2, 0.2, 0.2, 0.2, 0.2, 0.0001665278934221482, 0.007692307692307692, 0.2, 0.2, 0.2, 0.33157894736842103, 0.7048985574326931, 0.2, 0.2, 0.2, 0.2, 0.5683385579937305, 0.2, 0.2, 0.2, 0.2, 0.2, 0.2, 0.2, 0.2, 0.2, 0.2, 0.2, 0.2, 0.2, 0.2, 0.2, 0.2, 0.2, 0.2, 0.2, 0.43026315789473685, 0.2, 0.2, 0.2, 0.2, 0.53083645443196, 1.2325896708985578e-05, 9.400263207369804e-06, 0.00392156862745098, 0.2, 0.2, 0.2, 0.2, 0.000228310502283105, 0.2, 0.2, 0.2, 0.2, 0.2, 0.2, 0.2, 0.2, 0.2, 0.2, 0.2, 0.2, 0.2, 0.2, 0.2, 0.2, 0.2, 0.2, 0.0009950248756218911, 0.2, 0.2, 0.2, 0.2, 0.007692307692307692, 6.519754857217369e-06, 0.007692307692307692, 0.2, 0.2, 0.2, 0.2, 0.00044345898004434595, 0.2, 0.2, 0.2, 0.2, 0.2, 0.2, 0.2, 0.2, 0.2, 0.2, 0.2, 0.2, 0.2, 0.2, 0.2, 0.2, 0.2, 0.2, 0.0005319148936170214, 0.2, 0.2, 0.2, 0.2, 0.00392156862745098, 7.804573480059314e-06, 0.0019801980198019802, 0.2, 0.2, 0.2, 0.0019801980198019802, 0.00025773195876288666, 0.2, 0.2, 0.2, 0.2, 0.2, 0.2, 0.2, 0.2, 0.2, 0.2, 0.2, 0.2, 0.2, 0.2, 0.2, 0.2, 0.2, 0.2, 0.0001665278934221482, 0.007692307692307692, 0.2, 0.2, 0.2, 0.002631578947368421, 0.13404304559129832, 0.2, 0.2, 0.2, 0.2, 0.4311912225705329, 0.2, 0.2, 0.2, 0.2, 0.2, 0.2, 0.2, 0.2, 0.2, 0.2, 0.2, 0.2, 0.2, 0.2, 0.2, 0.2, 0.2, 0.2, 0.2, 0.518825910931174, 0.2, 0.2, 0.2, 0.2, 0.46841448189762797, 0.999950696413164 ;
}
probability ( close_num | pre_prs ) {
    table 0.9979094076655051, 0.0017160686427457096, 0.00018181818181818178, 0.00016181229773462783, 0.0003076923076923077, 0.0013937282229965152, 0.9962558502340092, 0.0010909090909090907, 0.00016181229773462783, 0.0003076923076923077, 0.0002322880371660859, 0.0017160686427457096, 0.9919999999999999, 0.004207119741100324, 0.0003076923076923077, 0.0002322880371660859, 0.00015600624024960996, 0.006545454545454544, 0.9281553398058253, 0.0003076923076923077, 0.0002322880371660859, 0.00015600624024960996, 0.00018181818181818178, 0.06731391585760518, 0.9987692307692309 ;
}
probability ( comment_num | commit_num, total_add_line ) {
    table 0.6594463559587113, 0.4630177514792899, 0.35526315789473684, 0.33791208791208793, 0.014705882352941176, 0.29244482173174874, 0.22145405887600356, 0.16612903225806452, 0.14466089466089466, 0.1569767441860465, 0.2898818316100443, 0.17358559882439384, 0.12923475488242328, 0.08847203274215552, 0.03816729003740225, 0.25, 0.25, 0.25, 0.25, 0.11956521739130435, 0.21653112292774476, 0.32889546351084814, 0.3672932330827068, 0.33791208791208793, 0.25, 0.44864176570458403, 0.3855932203389831, 0.3578341013824885, 0.39285714285714285, 0.312015503875969, 0.26624815361890697, 0.264695077149155, 0.27431247508967715, 0.206343792633015, 0.2000170010200612, 0.25, 0.25, 0.25, 0.25, 0.6413043478260869, 0.09892086330935251, 0.16321499013806706, 0.21090225563909776, 0.25, 0.4852941176470588, 0.22453310696095077, 0.27854594112399644, 0.3836405529953917, 0.35245310245310246, 0.3430232558139535, 0.28397341211225996, 0.40576781778104337, 0.3906935033878039, 0.4781036834924966, 0.49107446446786807, 0.25, 0.25, 0.25, 0.25, 0.23550724637681159, 0.025101657804191428, 0.04487179487179487, 0.06654135338345865, 0.07417582417582418, 0.25, 0.03438030560271647, 0.11440677966101695, 0.0923963133640553, 0.11002886002886003, 0.187984496124031, 0.15989660265878877, 0.1559515062454078, 0.20575926664009567, 0.2270804911323329, 0.27074124447466846, 0.25, 0.25, 0.25, 0.25, 0.0036231884057971015 ;
}
probability ( commit_num | file_changed_num, total_add_line ) {
    table 0.8114849187935035, 0.5657398680490103, 0.3089569160997732, 0.3073248407643312, 0.0043859649122807015, 0.5805785123966942, 0.3695002715915263, 0.21146674953387198, 0.11419753086419752, 0.03733031674208145, 0.32563025210084034, 0.21821071752951862, 0.08521955636034405, 0.030473545746857643, 0.0029453766511960016, 0.25, 0.25, 0.25, 0.25, 0.003246753246753247, 0.09023864766324163, 0.21135721017907635, 0.20918367346938777, 0.12898089171974522, 0.07456140350877193, 0.21694214876033058, 0.3303910917979359, 0.33328154133001864, 0.3041310541310541, 0.14592760180995476, 0.22478991596638656, 0.26180744777475023, 0.20654142145767315, 0.10296696872259573, 0.032934666190646195, 0.25, 0.25, 0.25, 0.25, 0.003246753246753247, 0.098193569771296, 0.22266729500471252, 0.4812925170068027, 0.5621019108280255, 0.9166666666666666, 0.20224977043158862, 0.2999728408473656, 0.4550963331261653, 0.5814339981006648, 0.8156108597285068, 0.4488795518207283, 0.5197547683923706, 0.7081258488003621, 0.8664864074831921, 0.9640307033202428, 0.25, 0.25, 0.25, 0.25, 0.10714285714285714, 8.286377195889956e-05, 0.000235626767200754, 0.0005668934240362812, 0.0015923566878980893, 0.0043859649122807015, 0.0002295684113865932, 0.00013579576317218902, 0.00015537600994406463, 0.00023741690408357076, 0.0011312217194570137, 0.0007002801120448179, 0.00022706630336058128, 0.00011317338162064282, 7.307804735457468e-05, 8.925383791503035e-05, 0.25, 0.25, 0.25, 0.25, 0.8863636363636364 ;
}
probability ( file_changed_num | total_delete_line ) {
    table 0.6514272970561998, 0.26237396883593034, 0.07994526974198593, 0.02640845070422535, 0.0593944099378882, 0.25, 0.38336388634280477, 0.3567240031274433, 0.17630784708249497, 0.19138198757763975, 0.09834968777876896, 0.35403299725022913, 0.5631352619233776, 0.7970321931589537, 0.719332298136646, 0.00022301516503122213, 0.00022914757103574703, 0.00019546520719311962, 0.00025150905432595576, 0.029891304347826088 ;
}
probability ( has_assignees_content | comment_num ) {
    table 0.911056268509378, 0.9671111912056226, 0.9856602125491338, 0.9939004286185296, 0.08894373149062192, 0.03288880879437737, 0.01433978745086621, 0.006099571381470491 ;
}
probability ( has_bug | body_words ) {
    table 0.9049513704686118, 0.9350132625994695, 0.9579870729455217, 0.9768280123583934, 0.9981549815498155, 0.09504862953138815, 0.0649867374005305, 0.0420129270544783, 0.023171987641606592, 0.0018450184501845018 ;
}
probability ( has_document | body_words ) {
    table 0.9279398762157383, 0.9650751547303271, 0.9829178208679594, 0.9881565396498455, 0.9993849938499385, 0.07206012378426171, 0.034924845269672856, 0.017082179132040628, 0.01184346035015448, 0.0006150061500615006 ;
}
probability ( has_feature | body_words ) {
    table 0.9535809018567639, 0.9871794871794872, 0.9921514312096029, 0.9963954685890835, 0.9993849938499385, 0.046419098143236075, 0.01282051282051282, 0.007848568790397045, 0.003604531410916581, 0.0006150061500615006 ;
}
probability ( has_improve | body_words ) {
    table 0.9650751547303271, 0.98894783377542, 0.9958448753462604, 0.994335736354274, 0.9981549815498155, 0.034924845269672856, 0.011052166224580018, 0.004155124653739612, 0.005664263645726055, 0.0018450184501845018 ;
}
probability ( has_labels | has_assignees_content, participants_count ) {
    table 0.9019505955711887, 0.9422488631665977, 0.9340931615460852, 0.7383654937570941, 0.7372093023255814, 0.7068965517241379, 0.09804940442881124, 0.05775113683340223, 0.06590683845391478, 0.26163450624290574, 0.2627906976744186, 0.2931034482758621 ;
}
probability ( has_refactor ) {
    table 0.9880093585494248, 0.01199064145057516 ;
}
probability ( is_weekday | close_num ) {
    table 0.13747099767981438, 0.152734375, 0.21519563239308462, 0.20822510822510823, 0.2339699863574352, 0.8625290023201856, 0.847265625, 0.7848043676069154, 0.7917748917748918, 0.7660300136425648 ;
}
probability ( mergable_state | accept_num, author_identity ) {
    table 0.3333333333333333, 0.970481550969356, 0.3333333333333333, 0.3333333333333333, 0.924942467693397, 0.3333333333333333, 0.9446407538280329, 0.866081476479856, 0.3333333333333333, 0.765597574597096, 0.7132848288870925, 0.6529209621993126, 0.790584758285835, 0.7761904761904762, 0.2797055730809674, 0.3333333333333333, 0.029393370856785492, 0.3333333333333333, 0.3333333333333333, 0.07257921756063021, 0.3333333333333333, 0.054181389870435796, 0.13380598694575738, 0.3333333333333333, 0.22993457794798153, 0.2864457019671248, 0.28178694158075596, 0.19780451762719023, 0.21904761904761905, 0.68664563617245, 0.3333333333333333, 0.00012507817385866166, 0.3333333333333333, 0.3333333333333333, 0.0024783147459727386, 0.3333333333333333, 0.001177856301531213, 0.00011253657438667567, 0.3333333333333333, 0.004467847454922611, 0.0002694691457828079, 0.06529209621993126, 0.01161072408697488, 0.0047619047619047615, 0.033648790746582544 ;
}
probability ( participants_count | comment_num, review_comment_num ) {
    table 0.9222604047346316, 0.8703671581381901, 0.7077725233418213, 0.5511638120333773, 0.47045775357935066, 0.11333609157357608, 0.22687957418496338, 0.0002994908655286014, 0.0773577701412753, 0.12795605666377563, 0.2916211955862738, 0.44480376891444084, 0.5236942932042751, 0.7865673700179286, 0.76979374584165, 0.011799940101826896, 0.00038182512409316535, 0.0016767851980341135, 0.0006062810719049352, 0.0040324190521818975, 0.005847953216374269, 0.1000965384084954, 0.00332667997338656, 0.9879005690326446 ;
}
probability ( pre_prs | comment_num, file_changed_num, has_feature ) {
    table 0.10401212843142563, 0.002207505518763797, 0.08074534161490683, 0.10153846153846154, 0.05236296825558844, 0.0034129692832764505, 0.014492753623188406, 0.2, 0.1828053285570357, 0.0023752969121140144, 0.1685761047463175, 0.005076142131979695, 0.14036573820319898, 0.0028011204481792717, 0.0028011204481792717, 0.2, 0.2405361614376197, 0.009900990099009901, 0.24998287319312187, 0.24812030075187969, 0.17038202111248904, 0.007518796992481203, 0.007518796992481203, 0.2, 0.35685109543260307, 0.2, 0.3156943303204601, 0.2, 0.22802431213646168, 0.32673267326732675, 0.014492753623188406, 0.2, 0.22183117656613785, 0.0728476821192053, 0.15275902421460077, 0.10153846153846154, 0.09482494641216699, 0.0034129692832764505, 0.014492753623188406, 0.2, 0.25444979290272024, 0.30641330166270786, 0.25055148366896746, 0.16751269035532995, 0.20892919427973491, 0.27170868347338933, 0.0028011204481792717, 0.2, 0.32537929002798643, 0.32673267326732675, 0.2828663423991231, 0.7293233082706767, 0.24007138320075014, 0.24812030075187969, 0.007518796992481203, 0.2, 0.3330857779428147, 0.2, 0.352506162695152, 0.2, 0.42252140382981507, 0.32673267326732675, 0.014492753623188406, 0.2, 0.32925442633602253, 0.2141280353200883, 0.21325051759834368, 0.003076923076923077, 0.23527610493008064, 0.11262798634812286, 0.4782608695652174, 0.2, 0.29385424829284673, 0.0023752969121140144, 0.26193695296378, 0.005076142131979695, 0.20255119836563854, 0.09243697478991597, 0.09243697478991597, 0.2, 0.22639564000589188, 0.009900990099009901, 0.2105227101459204, 0.007518796992481203, 0.17134992891927045, 0.007518796992481203, 0.24812030075187969, 0.2, 0.16672855551429633, 0.2, 0.19474116680361545, 0.2, 0.12345598326906738, 0.009900990099009901, 0.014492753623188406, 0.2, 0.25994910390383885, 0.4260485651214128, 0.38608335583760917, 0.6923076923076923, 0.3626620393998163, 0.658703071672355, 0.4782608695652174, 0.2, 0.19713422142617262, 0.4584323040380047, 0.211840888066605, 0.6548223350253807, 0.26154766057102996, 0.18207282913165265, 0.7198879551820728, 0.2, 0.15097952570334364, 0.32673267326732675, 0.19956155374391998, 0.007518796992481203, 0.24297510662109434, 0.24812030075187969, 0.48872180451127817, 0.2, 0.1310805792796138, 0.2, 0.11585866885784717, 0.2, 0.15900921508398144, 0.32673267326732675, 0.014492753623188406, 0.2, 0.08495316476257513, 0.2847682119205298, 0.16716176073453956, 0.10153846153846154, 0.25487394100234767, 0.22184300341296928, 0.014492753623188406, 0.2, 0.07175640882122468, 0.23040380047505937, 0.10709457055433004, 0.16751269035532995, 0.18660620858039761, 0.45098039215686275, 0.18207282913165265, 0.2, 0.05670938282515835, 0.32673267326732675, 0.05706652051791464, 0.007518796992481203, 0.17522156014639606, 0.48872180451127817, 0.24812030075187969, 0.2, 0.012253991830672113, 0.2, 0.021199671322925225, 0.2, 0.06698908568067447, 0.009900990099009901, 0.9420289855072463, 0.2 ;
}
probability ( priorities_number | comment_num, mergable_state, total_add_line ) {
    table 0.5796446437812662, 0.42848642618073624, 0.30886932972241027, 0.1828111011638317, 0.22215384615384617, 0.801102265768524, 0.6473622508792497, 0.5318120805369128, 0.5990498812351545, 0.37319587628865986, 0.2, 0.008, 0.2, 0.015384615384615385, 0.2, 0.20657019945248337, 0.14499845153298235, 0.1360490045941807, 0.11020120014119308, 0.058909981628903874, 0.5348182883939039, 0.42557781201849, 0.3034175334323923, 0.2952741020793951, 0.13810888252148995, 0.2, 0.2, 0.48800000000000004, 0.2, 0.004081632653061225, 0.12936109117013642, 0.0890222379103424, 0.06125819771678407, 0.0348883644944636, 0.019872551333490675, 0.20453686200378074, 0.2924949290060852, 0.23676148796498905, 0.05682888540031398, 0.20830449826989617, 0.2, 0.015384615384615385, 0.005405405405405405, 0.004081632653061225, 0.015384615384615385, 0.12210953346855984, 0.06463742166517458, 0.056678889470927196, 0.008841797588600658, 0.029481420988158435, 0.2991735537190083, 0.12577319587628866, 0.2, 0.2489795918367347, 0.48800000000000004, 0.9384615384615387, 0.015384615384615385, 0.015384615384615385, 0.2, 0.2, 0.25671899258237024, 0.2990702863518036, 0.3332430602572783, 0.23652641002685765, 0.3698461538461539, 0.13239436619718306, 0.16905041031652993, 0.22577181208053695, 0.22850356294536822, 0.12577319587628866, 0.2, 0.48800000000000004, 0.2, 0.015384615384615385, 0.2, 0.35205318732890106, 0.33081449365128524, 0.2352833078101072, 0.21609601129544653, 0.1838334353949786, 0.19718640093786638, 0.16671802773497693, 0.14294205052005945, 0.13648393194706993, 0.27564469914040113, 0.2, 0.2, 0.48800000000000004, 0.2, 0.004081632653061225, 0.327494615936827, 0.21609601129544653, 0.1574447413164926, 0.11548375385732437, 0.1133349067736606, 0.11379962192816634, 0.09776876267748479, 0.15798687089715535, 0.09450549450549452, 0.04221453287197231, 0.2, 0.015384615384615385, 0.005405405405405405, 0.004081632653061225, 0.015384615384615385, 0.14645030425963487, 0.22578334825425248, 0.07553693033001573, 0.08776032151991231, 0.04418129848917927, 0.10082644628099174, 0.0020618556701030933, 0.003278688524590164, 0.2489795918367347, 0.008, 0.015384615384615389, 0.015384615384615385, 0.015384615384615385, 0.2, 0.2, 0.12630671036743144, 0.18750464856824095, 0.23574813811780637, 0.26875559534467325, 0.03753846153846154, 0.05156154317207592, 0.12684642438452523, 0.04859060402684564, 0.08598574821852732, 0.0020618556701030933, 0.2, 0.48800000000000004, 0.2, 0.015384615384615385, 0.2, 0.2535001955416504, 0.2750696810157944, 0.27203675344563555, 0.22033180374161668, 0.2573178199632578, 0.16905041031652993, 0.16671802773497693, 0.17860326894502232, 0.18185255198487713, 0.24126074498567332, 0.2, 0.2, 0.008, 0.2, 0.2489795918367347, 0.19827709978463748, 0.2796328979879986, 0.30609667233422394, 0.20697041205300415, 0.16148218078829357, 0.09111531190926275, 0.26815415821501015, 0.13172866520787746, 0.11334379905808478, 0.12525951557093423, 0.2, 0.015384615384615385, 0.005405405405405405, 0.004081632653061225, 0.015384615384615385, 0.17079107505070992, 0.26875559534467325, 0.18239916186485072, 0.16229448301059554, 0.15198040016333197, 0.0016528925619834713, 0.4969072164948454, 0.39672131147540984, 0.004081632653061225, 0.008, 0.015384615384615389, 0.015384615384615385, 0.015384615384615385, 0.2, 0.2, 0.033155080213903745, 0.053625883227965784, 0.09763033175355451, 0.20429722470904207, 0.2590769230769231, 0.01481935088793631, 0.014302461899179367, 0.11302013422818792, 0.08598574821852732, 0.37319587628865986, 0.2, 0.008, 0.2, 0.9384615384615385, 0.2, 0.13617520531873287, 0.15614741406008054, 0.22058192955589587, 0.2584539357571479, 0.242620943049602, 0.08464243845252052, 0.1482280431432974, 0.24992570579494802, 0.22722117202268433, 0.06934097421203438, 0.2, 0.2, 0.008, 0.2, 0.2489795918367347, 0.18966259870782484, 0.20762442640310627, 0.2478017974253097, 0.3463786531130877, 0.28609865470852014, 0.2952741020793951, 0.09776876267748479, 0.21050328227571116, 0.33940345368916797, 0.1667820069204152, 0.2, 0.015384615384615385, 0.005405405405405405, 0.4938775510204082, 0.015384615384615385, 0.3411764705882353, 0.16132497761862133, 0.33326348873755895, 0.24998173182316408, 0.26467946100449163, 0.0016528925619834713, 0.24948453608247426, 0.39672131147540984, 0.2489795918367347, 0.008, 0.015384615384615389, 0.015384615384615385, 0.015384615384615385, 0.2, 0.2, 0.0041745730550284636, 0.031312755671253245, 0.024509140148950576, 0.10760966875559536, 0.11138461538461539, 0.00012247397428046536, 0.042438452520515826, 0.08080536912751678, 0.0004750593824228029, 0.12577319587628866, 0.2, 0.008, 0.2, 0.015384615384615385, 0.2, 0.05170121235823231, 0.09296995973985754, 0.1360490045941807, 0.19491704906459584, 0.2573178199632578, 0.014302461899179367, 0.09275808936825887, 0.125111441307578, 0.1591682419659735, 0.27564469914040113, 0.2, 0.2, 0.008, 0.2, 0.4938775510204082, 0.1552045944005743, 0.20762442640310627, 0.22739859120718972, 0.2962788164821202, 0.41921170639603494, 0.2952741020793951, 0.2438133874239351, 0.263019693654267, 0.3959183673469388, 0.457439446366782, 0.2, 0.9384615384615385, 0.9783783783783783, 0.4938775510204082, 0.9384615384615385, 0.21947261663286005, 0.27949865711727845, 0.3521215295966475, 0.4911216660577275, 0.5096774193548388, 0.5966942148760331, 0.12577319587628866, 0.003278688524590164, 0.2489795918367347, 0.48800000000000004, 0.015384615384615389, 0.9384615384615385, 0.9384615384615385, 0.2, 0.2 ;
}
probability ( review_comment_num | commit_num, total_add_line ) {
    table 0.549421332499218, 0.4342537804076266, 0.2894736842105263, 0.30952380952380953, 0.2647058823529412, 0.39473684210526316, 0.30017841213202495, 0.21059907834101382, 0.18542568542568544, 0.25193798449612403, 0.2548005908419498, 0.15907421013960324, 0.12614587485053808, 0.05034106412005457, 0.021931315878952737, 0.5, 0.5, 0.5, 0.5, 0.2971014492753623, 0.45057866750078196, 0.5657462195923735, 0.7105263157894737, 0.6904761904761905, 0.7352941176470589, 0.6052631578947368, 0.699821587867975, 0.7894009216589861, 0.8145743145743146, 0.748062015503876, 0.7451994091580503, 0.8409257898603968, 0.8738541251494619, 0.9496589358799454, 0.9780686841210473, 0.5, 0.5, 0.5, 0.5, 0.7028985507246377 ;
}
probability ( title_words | change_num, file_changed_num ) {
    table 0.09042801556420234, 0.13355134074558533, 0.17658712291760467, 0.2, 0.1429228998849252, 0.2213536701620591, 0.22827030378177304, 0.2, 0.16524257784214336, 0.2801647220315717, 0.3521760391198044, 0.48800000000000004, 0.29108367626886145, 0.3136141038197845, 0.3524653739612188, 0.7176470588235295, 0.27334754797441363, 0.3648612945838837, 0.36471655328798186, 0.11351351351351352, 0.2709727626459144, 0.37423152387181163, 0.37289509230076545, 0.2, 0.2672036823935558, 0.27855100095328883, 0.33490390576565404, 0.2, 0.255032585083273, 0.29389155799588196, 0.33066014669926647, 0.008000000000000002, 0.2252400548696845, 0.3057786483839373, 0.2771191135734072, 0.24705882352941183, 0.22217484008528787, 0.24332892998678995, 0.24861678004535148, 0.4378378378378378, 0.2180544747081712, 0.1623283191628515, 0.21620891490319674, 0.2, 0.18434982738780206, 0.18322211630123927, 0.15883446993180406, 0.2, 0.1391745112237509, 0.13191489361702127, 0.11745721271393642, 0.16800000000000004, 0.11550068587105625, 0.11380999020568071, 0.10869806094182824, 0.011764705882352944, 0.1283582089552239, 0.11651254953764861, 0.10349206349206348, 0.11351351351351352, 0.16513618677042802, 0.14924787442773052, 0.14777127420081043, 0.2, 0.15673187571921748, 0.1298379408960915, 0.12411655300681956, 0.2, 0.1507603186097031, 0.13191489361702127, 0.11158924205378971, 0.328, 0.12098765432098765, 0.08246816846229188, 0.0998337950138504, 0.011764705882352944, 0.034541577825159916, 0.07952443857331572, 0.13977324263038549, 0.11351351351351352, 0.25540856031128406, 0.1806409417920209, 0.08653759567762269, 0.2, 0.24879171461449942, 0.18703527168732126, 0.15387476751394913, 0.2, 0.28979000724112963, 0.16211393273850377, 0.08811735941320292, 0.008000000000000002, 0.24718792866941014, 0.18432908912830556, 0.16188365650969527, 0.011764705882352944, 0.34157782515991475, 0.19577278731836195, 0.14340136054421768, 0.2216216216216216 ;
}
probability ( total_add_line | file_changed_num, total_delete_line ) {
    table 0.7641903457719961, 0.34951965065502183, 0.5481662591687042, 0.4209523809523809, 0.7594771241830067, 0.45691347011596783, 0.14835624626419602, 0.08339726027397258, 0.09728958630527818, 0.21947261663286005, 0.3541950113378685, 0.04155339805825243, 0.005623047552933009, 0.005112022720100978, 0.05623313545601727, 0.2, 0.2, 0.2, 0.2, 0.0025974025974025974, 0.1493324204039713, 0.3844541484716157, 0.27432762836185826, 0.4209523809523809, 0.18431372549019612, 0.29991079393398745, 0.40418410041841, 0.2872328767123288, 0.2970042796005706, 0.195131845841785, 0.3360544217687075, 0.2693851132686084, 0.08892745574453315, 0.031618807194698645, 0.09724770642201834, 0.2, 0.2, 0.2, 0.2, 0.0025974025974025974, 0.03978089695309827, 0.2307423580786026, 0.10806845965770173, 0.15428571428571425, 0.0013071895424836605, 0.0751115075825156, 0.3276748356246264, 0.3025753424657534, 0.3426533523537803, 0.373630831643002, 0.10022675736961453, 0.41695792880258903, 0.2666435265532801, 0.11618807194698642, 0.2073394495412844, 0.2, 0.2, 0.2, 0.2, 0.0025974025974025974, 0.03156453269428279, 0.03161572052401747, 0.06894865525672372, 0.0019047619047619045, 0.0013071895424836605, 0.07154326494201604, 0.0957561267184698, 0.3003835616438356, 0.23994293865905847, 0.195131845841785, 0.07301587301587303, 0.189126213592233, 0.5457132939951406, 0.2285263490059956, 0.4318402590393956, 0.2, 0.2, 0.2, 0.2, 0.0025974025974025974, 0.015131804176651838, 0.0036681222707423584, 0.000488997555012225, 0.0019047619047619045, 0.05359477124183007, 0.09652096342551292, 0.02402869097429767, 0.026410958904109588, 0.02310984308131241, 0.01663286004056795, 0.13650793650793652, 0.08297734627831714, 0.09309267615411315, 0.6185547491322184, 0.2073394495412844, 0.2, 0.2, 0.2, 0.2, 0.9896103896103896 ;
}
probability ( total_delete_line | has_refactor ) {
    table 0.21361618154908732, 0.6260162601626016, 0.21361618154908732, 0.13821138211382114, 0.25130735076467686, 0.08943089430894309, 0.19526393685249135, 0.07317073170731707, 0.12619634928465712, 0.07317073170731707 ;
}
probability ( workload | accept_num, author_identity, change_num, participants_count ) {
    table 0.19999999999999998, 0.19999999999999998, 0.19999999999999998, 0.19999999999999998, 0.19999999999999998, 0.19999999999999998, 0.19999999999999998, 0.19999999999999998, 0.19999999999999998, 0.19999999999999998, 0.19999999999999998, 0.19999999999999998, 0.19999999999999998, 0.19999999999999998, 0.19999999999999998, 0.4946765075376884, 0.4113775402573658, 0.34754098360655733, 0.00013063357282821683, 8.227067050596462e-05, 0.00012004801920768306, 0.19999999999999998, 0.19999999999999998, 0.19999999999999998, 0.19999999999999998, 0.19999999999999998, 0.19999999999999998, 0.19999999999999998, 0.19999999999999998, 0.19999999999999998, 0.19999999999999998, 0.19999999999999998, 0.19999999999999998, 0.19999999999999998, 0.19999999999999998, 0.19999999999999998, 0.19999999999999998, 0.19999999999999998, 0.19999999999999998, 0.19999999999999998, 0.19999999999999998, 0.19999999999999998, 0.19999999999999998, 0.19999999999999998, 0.19999999999999998, 0.19999999999999998, 0.19999999999999998, 0.19999999999999998, 0.19999999999999998, 0.19999999999999998, 0.19999999999999998, 0.19999999999999998, 0.19999999999999998, 0.19999999999999998, 0.19999999999999998, 0.19999999999999998, 0.19999999999999998, 0.19999999999999998, 0.19999999999999998, 0.19999999999999998, 0.13334320841356834, 0.1139995394888326, 0.12123864018848873, 0.27406188281764315, 0.11352390103290895, 0.10346307079374807, 0.5784428938670584, 0.4927064884881662, 0.45077399380804956, 0.19999999999999998, 0.19999999999999998, 0.19999999999999998, 0.19999999999999998, 0.19999999999999998, 0.19999999999999998, 0.19999999999999998, 0.19999999999999998, 0.19999999999999998, 0.19999999999999998, 0.19999999999999998, 0.19999999999999998, 0.19999999999999998, 0.19999999999999998, 0.19999999999999998, 0.19999999999999998, 0.19999999999999998, 0.19999999999999998, 0.19999999999999998, 0.19999999999999998, 0.19999999999999998, 0.19999999999999998, 0.19999999999999998, 0.19999999999999998, 0.19999999999999998, 0.19999999999999998, 0.19999999999999998, 0.5934767522553782, 0.3213322759714512, 0.9826086956521738, 0.000554016620498615, 0.0003696857670979667, 0.00034129692832764505, 0.19999999999999998, 0.19999999999999998, 0.19999999999999998, 0.26663376110562687, 0.11434010152284262, 0.0007380073800738008, 0.28233141662310507, 0.06143052036640031, 0.14291754756871036, 0.2586709659329875, 0.18376222580951476, 0.3132226980728051, 0.31565420560747665, 0.05900783289817231, 0.1818548387096774, 0.19999999999999998, 0.19999999999999998, 0.19999999999999998, 0.19999999999999998, 0.19999999999999998, 0.19999999999999998, 0.19999999999999998, 0.19999999999999998, 0.19999999999999998, 0.19999999999999998, 0.19999999999999998, 0.19999999999999998, 0.19999999999999998, 0.19999999999999998, 0.19999999999999998, 0.19999999999999998, 0.19999999999999998, 0.19999999999999998, 0.19999999999999998, 0.19999999999999998, 0.19999999999999998, 0.19999999999999998, 0.002197802197802198, 0.19999999999999998, 0.5214285714285714, 0.2725806451612903, 0.24972375690607737, 0.3220872170439414, 0.22221960968727955, 0.09094580949175361, 0.31503347534996956, 0.2708005552984729, 0.3843003412969283, 0.19999999999999998, 0.19999999999999998, 0.19999999999999998, 0.00013879250520471893, 0.00013879250520471893, 0.0007380073800738007, 0.06158578263841421, 0.00014803849000740192, 0.0004434589800443459, 0.38257341576506954, 0.32095447065277016, 0.35985790408525753, 0.24986149584487533, 0.28544303797468357, 0.004347826086956522, 0.19999999999999998, 0.19999999999999998, 0.19999999999999998, 0.19999999999999998, 0.19999999999999998, 0.19999999999999998, 0.4967032967032967, 0.19999999999999998, 0.004347826086956521, 0.22216748768472905, 0.14303797468354432, 0.4967032967032967, 0.0008849557522123896, 0.39911504424778765, 0.004347826086956521, 0.19999999999999998, 0.19999999999999998, 0.19999999999999998, 0.19999999999999998, 0.19999999999999998, 0.19999999999999998, 0.19999999999999998, 0.0014705882352941176, 0.19999999999999998, 0.3997780244173141, 0.16672828096118297, 0.19999999999999998, 0.31537475429450473, 0.2449950005554938, 0.1613180515759312, 0.19999999999999998, 0.19999999999999998, 0.19999999999999998, 0.19999999999999998, 0.19999999999999998, 0.19999999999999998, 0.19999999999999998, 0.19999999999999998, 0.19999999999999998, 0.004347826086956521, 0.004347826086956521, 0.19999999999999998, 0.000554016620498615, 0.1818548387096774, 0.002197802197802198, 0.19999999999999998, 0.19999999999999998, 0.19999999999999998, 0.19999999999999998, 0.19999999999999998, 0.19999999999999998, 0.004347826086956521, 0.19999999999999998, 0.19999999999999998, 0.7262096774193547, 0.20000000000000004, 0.9826086956521738, 0.30690717113946325, 0.24998611496806442, 0.16672828096118297, 0.19999999999999998, 0.19999999999999998, 0.19999999999999998, 0.19999999999999998, 0.19999999999999998, 0.19999999999999998, 0.19999999999999998, 0.19999999999999998, 0.19999999999999998, 0.19999999999999998, 0.19999999999999998, 0.19999999999999998, 0.19999999999999998, 0.19999999999999998, 0.19999999999999998, 0.2932788944723618, 0.2531608185078405, 0.1951226121121799, 0.00013063357282821683, 8.227067050596462e-05, 0.00012004801920768306, 0.19999999999999998, 0.19999999999999998, 0.19999999999999998, 0.19999999999999998, 0.19999999999999998, 0.19999999999999998, 0.19999999999999998, 0.19999999999999998, 0.19999999999999998, 0.19999999999999998, 0.19999999999999998, 0.19999999999999998, 0.19999999999999998, 0.19999999999999998, 0.19999999999999998, 0.19999999999999998, 0.19999999999999998, 0.19999999999999998, 0.19999999999999998, 0.19999999999999998, 0.19999999999999998, 0.19999999999999998, 0.19999999999999998, 0.19999999999999998, 0.19999999999999998, 0.19999999999999998, 0.19999999999999998, 0.19999999999999998, 0.19999999999999998, 0.19999999999999998, 0.19999999999999998, 0.19999999999999998, 0.19999999999999998, 0.19999999999999998, 0.19999999999999998, 0.19999999999999998, 0.19999999999999998, 0.19999999999999998, 0.19999999999999998, 0.39330469560065173, 0.3108680635505411, 0.18182430158195895, 0.11112574061882817, 0.0919048762911362, 0.041403616304014706, 0.2892398090341535, 0.31882144582192884, 0.31145510835913315, 0.19999999999999998, 0.19999999999999998, 0.19999999999999998, 0.19999999999999998, 0.19999999999999998, 0.19999999999999998, 0.19999999999999998, 0.19999999999999998, 0.19999999999999998, 0.19999999999999998, 0.19999999999999998, 0.19999999999999998, 0.19999999999999998, 0.19999999999999998, 0.19999999999999998, 0.19999999999999998, 0.19999999999999998, 0.19999999999999998, 0.19999999999999998, 0.19999999999999998, 0.19999999999999998, 0.19999999999999998, 0.19999999999999998, 0.19999999999999998, 0.19999999999999998, 0.19999999999999998, 0.19999999999999998, 0.37487855655794583, 0.5711340206185567, 0.004347826086956521, 0.6238227146814405, 0.16672828096118297, 0.00034129692832764505, 0.19999999999999998, 0.19999999999999998, 0.19999999999999998, 0.3554787759131293, 0.45697969543147204, 0.3328413284132842, 0.2940930475692629, 0.1842136035860456, 0.23805496828752643, 0.35014720314033365, 0.2777703921754819, 0.18072805139186296, 0.15794392523364484, 0.47023498694516963, 0.09112903225806451, 0.19999999999999998, 0.19999999999999998, 0.19999999999999998, 0.19999999999999998, 0.19999999999999998, 0.19999999999999998, 0.19999999999999998, 0.19999999999999998, 0.19999999999999998, 0.19999999999999998, 0.19999999999999998, 0.19999999999999998, 0.19999999999999998, 0.19999999999999998, 0.19999999999999998, 0.19999999999999998, 0.19999999999999998, 0.19999999999999998, 0.19999999999999998, 0.19999999999999998, 0.19999999999999998, 0.19999999999999998, 0.002197802197802198, 0.19999999999999998, 0.13050193050193049, 0.2725806451612903, 0.0011049723756906078, 0.2734021304926764, 0.2063484599106513, 0.18182430158195895, 0.2191722458916616, 0.16668209162424805, 0.07713310580204778, 0.19999999999999998, 0.19999999999999998, 0.19999999999999998, 0.00013879250520471893, 0.09382373351838999, 0.0007380073800738007, 0.10772385509227614, 0.16669133974833455, 0.0004434589800443459, 0.13914219474497683, 0.17284695556774549, 0.23996447602131435, 0.49916897506925206, 0.14303797468354432, 0.004347826086956522, 0.19999999999999998, 0.19999999999999998, 0.19999999999999998, 0.19999999999999998, 0.19999999999999998, 0.19999999999999998, 0.002197802197802198, 0.19999999999999998, 0.004347826086956521, 0.554679802955665, 0.28544303797468357, 0.002197802197802198, 0.5982300884955754, 0.20000000000000004, 0.004347826086956521, 0.19999999999999998, 0.19999999999999998, 0.19999999999999998, 0.19999999999999998, 0.19999999999999998, 0.19999999999999998, 0.19999999999999998, 0.33235294117647063, 0.19999999999999998, 0.24994450610432847, 0.24990757855822548, 0.19999999999999998, 0.1807708742842492, 0.15500499944450616, 0.29025787965616046, 0.19999999999999998, 0.19999999999999998, 0.19999999999999998, 0.19999999999999998, 0.19999999999999998, 0.19999999999999998, 0.19999999999999998, 0.19999999999999998, 0.19999999999999998, 0.9826086956521738, 0.004347826086956521, 0.19999999999999998, 0.37451523545706367, 0.09112903225806451, 0.002197802197802198, 0.19999999999999998, 0.19999999999999998, 0.19999999999999998, 0.19999999999999998, 0.19999999999999998, 0.19999999999999998, 0.004347826086956521, 0.19999999999999998, 0.19999999999999998, 0.09112903225806449, 0.39911504424778765, 0.004347826086956521, 0.31680598328200615, 0.12502082754790336, 0.333086876155268, 0.19999999999999998, 0.19999999999999998, 0.19999999999999998, 0.19999999999999998, 0.19999999999999998, 0.19999999999999998, 0.19999999999999998, 0.19999999999999998, 0.19999999999999998, 0.19999999999999998, 0.19999999999999998, 0.19999999999999998, 0.19999999999999998, 0.19999999999999998, 0.19999999999999998, 0.12368090452261306, 0.19620279867801138, 0.18292914239262972, 0.00013063357282821683, 8.227067050596462e-05, 0.027130852340936373, 0.19999999999999998, 0.19999999999999998, 0.19999999999999998, 0.19999999999999998, 0.19999999999999998, 0.19999999999999998, 0.19999999999999998, 0.19999999999999998, 0.19999999999999998, 0.19999999999999998, 0.19999999999999998, 0.19999999999999998, 0.19999999999999998, 0.19999999999999998, 0.19999999999999998, 0.19999999999999998, 0.19999999999999998, 0.19999999999999998, 0.19999999999999998, 0.19999999999999998, 0.19999999999999998, 0.19999999999999998, 0.19999999999999998, 0.19999999999999998, 0.19999999999999998, 0.19999999999999998, 0.19999999999999998, 0.19999999999999998, 0.19999999999999998, 0.19999999999999998, 0.19999999999999998, 0.19999999999999998, 0.19999999999999998, 0.19999999999999998, 0.19999999999999998, 0.19999999999999998, 0.19999999999999998, 0.19999999999999998, 0.19999999999999998, 0.32664790401422006, 0.3678563205157725, 0.5150454392460451, 0.18518762343647135, 0.16216670670189764, 0.19999999999999998, 0.11571795813441058, 0.11595556271131864, 0.1557457657985795, 0.19999999999999998, 0.19999999999999998, 0.19999999999999998, 0.19999999999999998, 0.19999999999999998, 0.19999999999999998, 0.19999999999999998, 0.19999999999999998, 0.19999999999999998, 0.19999999999999998, 0.19999999999999998, 0.19999999999999998, 0.19999999999999998, 0.19999999999999998, 0.19999999999999998, 0.19999999999999998, 0.19999999999999998, 0.19999999999999998, 0.19999999999999998, 0.19999999999999998, 0.19999999999999998, 0.19999999999999998, 0.19999999999999998, 0.19999999999999998, 0.19999999999999998, 0.19999999999999998, 0.19999999999999998, 0.03136710617626648, 0.07153053132434574, 0.004347826086956521, 0.000554016620498615, 0.0003696857670979667, 0.00034129692832764505, 0.19999999999999998, 0.19999999999999998, 0.19999999999999998, 0.26663376110562687, 0.25710659898477156, 0.49889298892988937, 0.0941453214845792, 0.20175404404599492, 0.28562367864693444, 0.22081872984718912, 0.25640489981958026, 0.28913276231263385, 0.2630841121495327, 0.23524804177545686, 0.0004032258064516129, 0.19999999999999998, 0.19999999999999998, 0.19999999999999998, 0.19999999999999998, 0.19999999999999998, 0.19999999999999998, 0.19999999999999998, 0.19999999999999998, 0.19999999999999998, 0.19999999999999998, 0.19999999999999998, 0.19999999999999998, 0.19999999999999998, 0.19999999999999998, 0.19999999999999998, 0.19999999999999998, 0.19999999999999998, 0.19999999999999998, 0.19999999999999998, 0.19999999999999998, 0.19999999999999998, 0.19999999999999998, 0.002197802197802198, 0.19999999999999998, 0.1739382239382239, 0.1818548387096774, 0.0011049723756906078, 0.1348368841544607, 0.2592522924994122, 0.18182430158195895, 0.1917833231892879, 0.16668209162424805, 0.4610921501706485, 0.19999999999999998, 0.19999999999999998, 0.19999999999999998, 0.12505204718945176, 0.1562803608605135, 0.0007380073800738007, 0.3845522898154477, 0.19999999999999998, 0.4993348115299335, 0.2, 0.18518924849149754, 0.08010657193605682, 0.000554016620498615, 0.28544303797468357, 0.004347826086956522, 0.19999999999999998, 0.19999999999999998, 0.19999999999999998, 0.19999999999999998, 0.19999999999999998, 0.19999999999999998, 0.002197802197802198, 0.19999999999999998, 0.004347826086956521, 0.0004926108374384236, 0.14303797468354432, 0.4967032967032967, 0.20000000000000004, 0.20000000000000004, 0.9826086956521738, 0.19999999999999998, 0.19999999999999998, 0.19999999999999998, 0.19999999999999998, 0.19999999999999998, 0.19999999999999998, 0.19999999999999998, 0.33235294117647063, 0.19999999999999998, 0.15005549389567144, 0.333086876155268, 0.19999999999999998, 0.14231262285274762, 0.21999777802466391, 0.29025787965616046, 0.19999999999999998, 0.19999999999999998, 0.19999999999999998, 0.19999999999999998, 0.19999999999999998, 0.19999999999999998, 0.19999999999999998, 0.19999999999999998, 0.19999999999999998, 0.004347826086956521, 0.9826086956521738, 0.19999999999999998, 0.12520775623268698, 0.1818548387096774, 0.002197802197802198, 0.19999999999999998, 0.19999999999999998, 0.19999999999999998, 0.19999999999999998, 0.19999999999999998, 0.19999999999999998, 0.004347826086956521, 0.19999999999999998, 0.19999999999999998, 0.09112903225806449, 0.20000000000000004, 0.004347826086956521, 0.14852617685877695, 0.2249930574840322, 0.24990757855822548, 0.19999999999999998, 0.19999999999999998, 0.19999999999999998, 0.19999999999999998, 0.19999999999999998, 0.19999999999999998, 0.19999999999999998, 0.19999999999999998, 0.19999999999999998, 0.19999999999999998, 0.19999999999999998, 0.19999999999999998, 0.19999999999999998, 0.19999999999999998, 0.19999999999999998, 0.038881909547738694, 0.09177976232332466, 0.10976832407532854, 0.26466361854996734, 0.20370218017276842, 0.1351740696278511, 0.19999999999999998, 0.19999999999999998, 0.19999999999999998, 0.19999999999999998, 0.19999999999999998, 0.19999999999999998, 0.19999999999999998, 0.19999999999999998, 0.19999999999999998, 0.19999999999999998, 0.19999999999999998, 0.19999999999999998, 0.19999999999999998, 0.19999999999999998, 0.19999999999999998, 0.19999999999999998, 0.19999999999999998, 0.19999999999999998, 0.19999999999999998, 0.19999999999999998, 0.19999999999999998, 0.19999999999999998, 0.19999999999999998, 0.19999999999999998, 0.19999999999999998, 0.19999999999999998, 0.19999999999999998, 0.19999999999999998, 0.19999999999999998, 0.19999999999999998, 0.19999999999999998, 0.19999999999999998, 0.19999999999999998, 0.19999999999999998, 0.19999999999999998, 0.19999999999999998, 0.19999999999999998, 0.19999999999999998, 0.19999999999999998, 0.06002073766849356, 0.13472254202164402, 0.10609222484012117, 0.14815668202764976, 0.22161902474177275, 0.27585044437634076, 0.008299669482188762, 0.05799388182257286, 0.06559825168457477, 0.19999999999999998, 0.19999999999999998, 0.19999999999999998, 0.19999999999999998, 0.19999999999999998, 0.19999999999999998, 0.19999999999999998, 0.19999999999999998, 0.19999999999999998, 0.19999999999999998, 0.19999999999999998, 0.19999999999999998, 0.19999999999999998, 0.19999999999999998, 0.19999999999999998, 0.19999999999999998, 0.19999999999999998, 0.19999999999999998, 0.19999999999999998, 0.19999999999999998, 0.19999999999999998, 0.19999999999999998, 0.19999999999999998, 0.19999999999999998, 0.19999999999999998, 0.19999999999999998, 0.19999999999999998, 0.00013879250520471893, 0.03584456780333069, 0.004347826086956521, 0.12520775623268698, 0.333086876155268, 0.5378839590443686, 0.19999999999999998, 0.19999999999999998, 0.19999999999999998, 0.0889437314906219, 0.08578680203045684, 0.166789667896679, 0.1647151071615264, 0.41223932956538684, 0.19048625792811838, 0.07887284452544512, 0.1410312410977115, 0.1686830835117773, 0.15794392523364484, 0.23524804177545686, 0.7262096774193549, 0.19999999999999998, 0.19999999999999998, 0.19999999999999998, 0.19999999999999998, 0.19999999999999998, 0.19999999999999998, 0.19999999999999998, 0.19999999999999998, 0.19999999999999998, 0.19999999999999998, 0.19999999999999998, 0.19999999999999998, 0.19999999999999998, 0.19999999999999998, 0.19999999999999998, 0.19999999999999998, 0.19999999999999998, 0.19999999999999998, 0.19999999999999998, 0.19999999999999998, 0.19999999999999998, 0.19999999999999998, 0.002197802197802198, 0.19999999999999998, 0.08706563706563704, 0.0004032258064516129, 0.0011049723756906078, 0.11236684420772303, 0.12699271102750997, 0.27270279367216427, 0.10961655508216678, 0.14585839888940305, 0.00034129692832764505, 0.19999999999999998, 0.19999999999999998, 0.19999999999999998, 0.2811936155447606, 0.18750867453157527, 0.3328413284132841, 0.23075871496924127, 0.26661732050333087, 0.2997782705099778, 0.13914219474497683, 0.12347778387273725, 0.19999999999999996, 0.12520775623268698, 0.14303797468354432, 0.004347826086956522, 0.19999999999999998, 0.19999999999999998, 0.19999999999999998, 0.19999999999999998, 0.19999999999999998, 0.19999999999999998, 0.4967032967032967, 0.19999999999999998, 0.9826086956521738, 0.11133004926108375, 0.14303797468354432, 0.002197802197802198, 0.20000000000000004, 0.20000000000000004, 0.004347826086956521, 0.19999999999999998, 0.19999999999999998, 0.19999999999999998, 0.19999999999999998, 0.19999999999999998, 0.19999999999999998, 0.19999999999999998, 0.0014705882352941176, 0.19999999999999998, 0.05016648168701442, 0.0003696857670979667, 0.19999999999999998, 0.17692504914109905, 0.1450061104321742, 0.1290830945558739, 0.19999999999999998, 0.19999999999999998, 0.19999999999999998, 0.19999999999999998, 0.19999999999999998, 0.19999999999999998, 0.19999999999999998, 0.19999999999999998, 0.19999999999999998, 0.004347826086956521, 0.004347826086956521, 0.19999999999999998, 0.12520775623268698, 0.2725806451612903, 0.002197802197802198, 0.19999999999999998, 0.19999999999999998, 0.19999999999999998, 0.19999999999999998, 0.19999999999999998, 0.19999999999999998, 0.9826086956521738, 0.19999999999999998, 0.19999999999999998, 0.09112903225806449, 0.20000000000000004, 0.004347826086956521, 0.12872855257369115, 0.1875034712579839, 0.16672828096118297, 0.19999999999999998, 0.19999999999999998, 0.19999999999999998, 0.19999999999999998, 0.19999999999999998, 0.19999999999999998, 0.19999999999999998, 0.19999999999999998, 0.19999999999999998, 0.19999999999999998, 0.19999999999999998, 0.19999999999999998, 0.19999999999999998, 0.19999999999999998, 0.19999999999999998, 0.04948178391959799, 0.047479080233457566, 0.1646389378133044, 0.7349444807315479, 0.7960510078157137, 0.8374549819927971, 0.19999999999999998, 0.19999999999999998, 0.19999999999999998, 0.19999999999999998, 0.19999999999999998, 0.19999999999999998, 0.19999999999999998, 0.19999999999999998, 0.19999999999999998, 0.19999999999999998, 0.19999999999999998, 0.19999999999999998, 0.19999999999999998, 0.19999999999999998, 0.19999999999999998, 0.19999999999999998, 0.19999999999999998, 0.19999999999999998, 0.19999999999999998, 0.19999999999999998, 0.19999999999999998, 0.19999999999999998, 0.19999999999999998, 0.19999999999999998, 0.19999999999999998, 0.19999999999999998, 0.19999999999999998, 0.19999999999999998, 0.19999999999999998, 0.19999999999999998, 0.19999999999999998, 0.19999999999999998, 0.19999999999999998, 0.19999999999999998, 0.19999999999999998, 0.19999999999999998, 0.19999999999999998, 0.19999999999999998, 0.19999999999999998, 0.0866834543030662, 0.07255353442320976, 0.07579939414338606, 0.28146807109940747, 0.41078549123228436, 0.3792828685258964, 0.008299669482188762, 0.014522621156013524, 0.016426880349663085, 0.19999999999999998, 0.19999999999999998, 0.19999999999999998, 0.19999999999999998, 0.19999999999999998, 0.19999999999999998, 0.19999999999999998, 0.19999999999999998, 0.19999999999999998, 0.19999999999999998, 0.19999999999999998, 0.19999999999999998, 0.19999999999999998, 0.19999999999999998, 0.19999999999999998, 0.19999999999999998, 0.19999999999999998, 0.19999999999999998, 0.19999999999999998, 0.19999999999999998, 0.19999999999999998, 0.19999999999999998, 0.19999999999999998, 0.19999999999999998, 0.19999999999999998, 0.19999999999999998, 0.19999999999999998, 0.00013879250520471893, 0.0001586042823156225, 0.004347826086956521, 0.24986149584487533, 0.499445471349353, 0.4610921501706485, 0.19999999999999998, 0.19999999999999998, 0.19999999999999998, 0.022309970384995062, 0.08578680203045684, 0.0007380073800738008, 0.1647151071615264, 0.1403625024361723, 0.14291754756871036, 0.09149025655404458, 0.1410312410977115, 0.04823340471092077, 0.10537383177570092, 0.00026109660574412526, 0.0004032258064516129, 0.19999999999999998, 0.19999999999999998, 0.19999999999999998, 0.19999999999999998, 0.19999999999999998, 0.19999999999999998, 0.19999999999999998, 0.19999999999999998, 0.19999999999999998, 0.19999999999999998, 0.19999999999999998, 0.19999999999999998, 0.19999999999999998, 0.19999999999999998, 0.19999999999999998, 0.19999999999999998, 0.19999999999999998, 0.19999999999999998, 0.19999999999999998, 0.19999999999999998, 0.19999999999999998, 0.19999999999999998, 0.9912087912087911, 0.19999999999999998, 0.08706563706563704, 0.2725806451612903, 0.7469613259668508, 0.1573069241011984, 0.18518692687514693, 0.27270279367216427, 0.16439440048691417, 0.24997686256362794, 0.07713310580204778, 0.19999999999999998, 0.19999999999999998, 0.19999999999999998, 0.5934767522553782, 0.5622484385843164, 0.6649446494464945, 0.21537935748462064, 0.3665433012583272, 0.19999999999999998, 0.13914219474497683, 0.1975315414152496, 0.1200710479573712, 0.12520775623268698, 0.14303797468354432, 0.982608695652174, 0.19999999999999998, 0.19999999999999998, 0.19999999999999998, 0.19999999999999998, 0.19999999999999998, 0.19999999999999998, 0.002197802197802198, 0.19999999999999998, 0.004347826086956521, 0.11133004926108375, 0.28544303797468357, 0.002197802197802198, 0.0008849557522123896, 0.0008849557522123896, 0.004347826086956521, 0.19999999999999998, 0.19999999999999998, 0.19999999999999998, 0.19999999999999998, 0.19999999999999998, 0.19999999999999998, 0.19999999999999998, 0.33235294117647063, 0.19999999999999998, 0.15005549389567144, 0.24990757855822548, 0.19999999999999998, 0.18461669942739936, 0.23499611154316186, 0.1290830945558739, 0.19999999999999998, 0.19999999999999998, 0.19999999999999998, 0.19999999999999998, 0.19999999999999998, 0.19999999999999998, 0.19999999999999998, 0.19999999999999998, 0.19999999999999998, 0.004347826086956521, 0.004347826086956521, 0.19999999999999998, 0.37451523545706367, 0.2725806451612903, 0.9912087912087911, 0.19999999999999998, 0.19999999999999998, 0.19999999999999998, 0.19999999999999998, 0.19999999999999998, 0.19999999999999998, 0.004347826086956521, 0.19999999999999998, 0.19999999999999998, 0.0004032258064516128, 0.0008849557522123896, 0.004347826086956521, 0.09903211614606247, 0.2124965287420161, 0.08354898336414049 ;
}
