network unknown {
}
variable accept_num {
    type discrete [ 5 ] { 0, 1, 2, 3, 4 };
}
variable author_identity {
    type discrete [ 4 ] { 0, 1, 2, 3 };
}
variable body_words {
    type discrete [ 5 ] { 0, 1, 2, 3, 4 };
}
variable change_num {
    type discrete [ 5 ] { 0, 1, 2, 3, 4 };
}
variable close_num {
    type discrete [ 5 ] { 0, 1, 2, 3, 4 };
}
variable comment_num {
    type discrete [ 3 ] { 0, 1, 3 };
}
variable commit_num {
    type discrete [ 4 ] { 0, 1, 2, 4 };
}
variable file_changed_num {
    type discrete [ 4 ] { 0, 1, 2, 4 };
}
variable has_assignees_content {
    type discrete [ 2 ] { 0, 1 };
}
variable has_bug {
    type discrete [ 2 ] { 0, 1 };
}
variable has_document {
    type discrete [ 2 ] { 0, 1 };
}
variable has_feature {
    type discrete [ 2 ] { 0, 1 };
}
variable has_improve {
    type discrete [ 2 ] { 0, 1 };
}
variable has_labels {
    type discrete [ 2 ] { 0, 1 };
}
variable has_refactor {
    type discrete [ 2 ] { 0, 1 };
}
variable is_weekday {
    type discrete [ 2 ] { 0, 1 };
}
variable label_count {
    type discrete [ 2 ] { 0, 1 };
}
variable mergable_state {
    type discrete [ 2 ] { 0, 2 };
}
variable participants_count {
    type discrete [ 3 ] { 0, 1, 2 };
}
variable pre_prs {
    type discrete [ 5 ] { 0, 1, 2, 3, 4 };
}
variable priorities_number {
    type discrete [ 5 ] { 0, 1, 2, 3, 4 };
}
variable title_words {
    type discrete [ 5 ] { 0, 1, 2, 3, 4 };
}
variable total_add_line {
    type discrete [ 5 ] { 0, 1, 2, 3, 4 };
}
variable total_delete_line {
    type discrete [ 5 ] { 0, 1, 2, 3, 4 };
}
variable workload {
    type discrete [ 5 ] { 0, 1, 2, 3, 4 };
}
probability ( accept_num | close_num, pre_prs ) {
    table 0.9999693615717514, 0.6702380952380951, 0.19999999999999998, 0.19999999999999998, 0.19999999999999998, 0.19999999999999998, 0.004737126638734965, 0.0006756756756756757, 0.19999999999999998, 0.19999999999999998, 0.19999999999999998, 0.0007380073800738008, 6.7156912125180485e-06, 0.0003992015968063872, 0.19999999999999998, 0.19999999999999998, 0.19999999999999998, 0.007692307692307692, 6.831534362617844e-06, 9.61076405574243e-05, 0.19999999999999998, 0.19999999999999998, 0.19999999999999998, 0.0012048192771084336, 7.216048491845866e-06, 7.659607062157711e-06, 0.32797619047619037, 0.19999999999999998, 0.19999999999999998, 0.19999999999999998, 0.19999999999999998, 0.9795310177050953, 0.5750000000000001, 0.19999999999999998, 0.19999999999999998, 0.19999999999999998, 0.9970479704797048, 0.009744467949363688, 0.0003992015968063872, 0.19999999999999998, 0.19999999999999998, 0.19999999999999998, 0.007692307692307692, 6.831534362617844e-06, 9.61076405574243e-05, 0.19999999999999998, 0.19999999999999998, 0.19999999999999998, 0.0012048192771084336, 7.216048491845866e-06, 7.659607062157711e-06, 0.0005952380952380951, 0.19999999999999998, 0.19999999999999998, 0.19999999999999998, 0.19999999999999998, 0.015718340316258954, 0.422972972972973, 0.19999999999999998, 0.19999999999999998, 0.19999999999999998, 0.0007380073800738008, 0.9808334172794735, 0.8087824351297406, 0.19999999999999998, 0.19999999999999998, 0.19999999999999998, 0.7769230769230769, 0.018110397595299907, 9.61076405574243e-05, 0.19999999999999998, 0.19999999999999998, 0.19999999999999998, 0.0012048192771084336, 7.216048491845866e-06, 7.659607062157711e-06, 0.0005952380952380951, 0.19999999999999998, 0.19999999999999998, 0.19999999999999998, 0.19999999999999998, 6.757669955399379e-06, 0.0006756756756756757, 0.19999999999999998, 0.19999999999999998, 0.19999999999999998, 0.0007380073800738008, 0.009408683388737786, 0.19001996007984032, 0.19999999999999998, 0.19999999999999998, 0.19999999999999998, 0.2, 0.9663273671266567, 0.6368092263334935, 0.19999999999999998, 0.19999999999999998, 0.19999999999999998, 0.6939759036144577, 0.010650887573964497, 7.659607062157711e-06, 0.0005952380952380951, 0.19999999999999998, 0.19999999999999998, 0.19999999999999998, 0.19999999999999998, 6.757669955399379e-06, 0.0006756756756756757, 0.19999999999999998, 0.19999999999999998, 0.19999999999999998, 0.0007380073800738008, 6.7156912125180485e-06, 0.0003992015968063872, 0.19999999999999998, 0.19999999999999998, 0.19999999999999998, 0.007692307692307692, 0.015548572209318214, 0.3629024507448342, 0.19999999999999998, 0.19999999999999998, 0.19999999999999998, 0.3024096385542168, 0.98932746428056 ;
}
probability ( author_identity | accept_num, change_num, close_num ) {
    table 0.572558621040063, 0.996268656716418, 0.25, 0.25, 0.25, 0.7990232072810187, 0.000499001996007984, 0.25, 0.25, 0.25, 0.0002081598667776853, 0.25, 0.25, 0.25, 0.25, 0.25, 0.25, 0.25, 0.25, 0.25, 0.25, 0.25, 0.25, 0.25, 0.25, 0.0019841269841269845, 0.5862363962751038, 0.25, 0.25, 0.25, 0.9972826086956522, 0.48377560785713125, 0.0024752475247524757, 0.25, 0.25, 0.001655629139072848, 0.6680309661708569, 0.26189343482397714, 0.25, 0.25, 0.25, 4.503693028283193e-05, 0.00015142337976983643, 0.25, 0.25, 0.25, 0.25, 0.25, 0.25, 0.25, 0.25, 0.0001722949689869056, 0.1673280423280423, 0.004901960784313726, 0.25, 0.25, 0.871157786885246, 0.5587078751645849, 0.623134328358209, 0.25, 0.25, 0.9985741444866918, 0.6460182632876346, 0.36651131824234345, 0.25, 0.25, 0.25, 0.7339588474728375, 0.8802207637231503, 0.25, 0.25, 0.25, 0.25, 0.9901315789473686, 0.25, 0.25, 0.25, 0.9852941176470591, 0.29996668887408395, 0.25, 0.25, 0.25, 0.9901315789473686, 0.8087895485247069, 0.25, 0.25, 0.25, 0.8967725409836067, 0.7923860042171851, 0.25, 0.25, 0.25, 0.7413015463917526, 0.8426601322087985, 0.8430087390761549, 0.25, 0.25, 0.25, 0.8784888157102124, 0.8595123900879298, 0.25, 0.25, 0.25, 0.9925742574257427, 0.8443251533742332, 0.25, 0.25, 0.25, 0.9067028985507247, 0.7849500713266762, 0.25, 0.25, 0.25, 0.9552951388888887, 0.9082929782082325, 0.25, 0.25, 0.25, 0.8062123817712811, 0.834646151334585, 0.25, 0.25, 0.25, 0.8736491354466858, 0.8129771766557674, 0.19180766201763078, 0.0012437810945273634, 0.25, 0.25, 0.25, 4.8308245251299496e-06, 0.000499001996007984, 0.25, 0.25, 0.25, 0.999375520399667, 0.25, 0.25, 0.25, 0.25, 0.25, 0.25, 0.25, 0.25, 0.25, 0.25, 0.25, 0.25, 0.25, 0.25, 0.9940476190476192, 0.41373555480758445, 0.25, 0.25, 0.25, 0.0009057971014492755, 0.3665836726087168, 0.9925742574257427, 0.25, 0.25, 0.9950331125827816, 0.27889709753850206, 0.5473358705994291, 0.25, 0.25, 0.25, 0.9998648892091516, 0.9995457298606902, 0.25, 0.25, 0.25, 0.25, 0.25, 0.25, 0.25, 0.25, 0.9994831150930393, 0.27237005913476503, 0.004901960784313726, 0.25, 0.25, 0.1283299180327869, 0.4092470018860539, 0.3743781094527363, 0.25, 0.25, 0.0004752851711026615, 0.21888319510388454, 0.5329560585885486, 0.25, 0.25, 0.25, 0.21955225794045063, 0.07473150357995226, 0.25, 0.25, 0.25, 0.25, 0.0032894736842105274, 0.25, 0.25, 0.25, 0.004901960784313728, 0.0001665556295802798, 0.25, 0.25, 0.25, 0.0032894736842105274, 0.18223426946320656, 0.25, 0.25, 0.25, 0.10271516393442624, 0.1400401950448076, 0.25, 0.25, 0.25, 0.00032216494845360824, 0.07482829704363682, 0.00031210986267166043, 0.25, 0.25, 0.25, 0.01908557889241396, 0.00019984012789768188, 0.25, 0.25, 0.25, 0.0024752475247524757, 0.0007668711656441718, 0.25, 0.25, 0.25, 0.0009057971014492755, 0.10734664764621966, 0.25, 0.25, 0.25, 0.00043402777777777765, 0.0003026634382566586, 0.25, 0.25, 0.25, 0.021603611349957, 0.03267080238347891, 0.25, 0.25, 0.25, 0.018101585014409217, 0.0081155528149873, 3.175570967659985e-06, 0.0012437810945273634, 0.25, 0.25, 0.25, 4.8308245251299496e-06, 0.000499001996007984, 0.25, 0.25, 0.25, 0.0002081598667776853, 0.25, 0.25, 0.25, 0.25, 0.25, 0.25, 0.25, 0.25, 0.25, 0.25, 0.25, 0.25, 0.25, 0.25, 0.0019841269841269845, 1.4024458655895883e-05, 0.25, 0.25, 0.25, 0.0009057971014492755, 4.055084264651019e-06, 0.0024752475247524757, 0.25, 0.25, 0.001655629139072848, 4.11346584177965e-06, 0.0002378686964795433, 0.25, 0.25, 0.25, 4.503693028283193e-05, 0.00015142337976983643, 0.25, 0.25, 0.25, 0.25, 0.25, 0.25, 0.25, 0.25, 0.0001722949689869056, 0.05061469032057267, 0.004901960784313726, 0.25, 0.25, 0.0002561475409836066, 0.03203622646880894, 0.0012437810945273634, 0.25, 0.25, 0.0004752851711026615, 0.07498694612087282, 0.03362183754993341, 0.25, 0.25, 0.25, 0.04648088202301208, 0.044898568019093074, 0.25, 0.25, 0.25, 0.25, 0.0032894736842105274, 0.25, 0.25, 0.25, 0.004901960784313728, 0.0001665556295802798, 0.25, 0.25, 0.25, 0.0032894736842105274, 0.00893174546747245, 0.25, 0.25, 0.25, 0.0002561475409836066, 0.0477892725355825, 0.25, 0.25, 0.25, 0.2580541237113402, 0.06491759249165022, 0.06273408239700375, 0.25, 0.25, 0.25, 0.10241556563993415, 0.12010391686650682, 0.25, 0.25, 0.25, 0.0024752475247524757, 0.0007668711656441718, 0.25, 0.25, 0.25, 0.09148550724637682, 0.07168330955777459, 0.25, 0.25, 0.25, 0.043836805555555546, 0.060835351089588374, 0.25, 0.25, 0.25, 0.17207652622527944, 0.11837809158436047, 0.25, 0.25, 0.25, 0.10815922190201727, 0.1746456418203503, 0.23563054137133857, 0.0012437810945273634, 0.25, 0.25, 0.25, 0.20096713106993103, 0.998502994011976, 0.25, 0.25, 0.25, 0.0002081598667776853, 0.25, 0.25, 0.25, 0.25, 0.25, 0.25, 0.25, 0.25, 0.25, 0.25, 0.25, 0.25, 0.25, 0.25, 0.0019841269841269845, 1.4024458655895883e-05, 0.25, 0.25, 0.25, 0.0009057971014492755, 0.14963666444988727, 0.0024752475247524757, 0.25, 0.25, 0.001655629139072848, 0.05306782282479926, 0.19053282588011416, 0.25, 0.25, 0.25, 4.503693028283193e-05, 0.00015142337976983643, 0.25, 0.25, 0.25, 0.25, 0.25, 0.25, 0.25, 0.25, 0.0001722949689869056, 0.50968720821662, 0.9852941176470589, 0.25, 0.25, 0.0002561475409836066, 8.896480552293514e-06, 0.0012437810945273634, 0.25, 0.25, 0.0004752851711026615, 0.0601115954876079, 0.0669107856191744, 0.25, 0.25, 0.25, 8.012563699881414e-06, 0.00014916467780429592, 0.25, 0.25, 0.25, 0.25, 0.0032894736842105274, 0.25, 0.25, 0.25, 0.004901960784313728, 0.6997001998667554, 0.25, 0.25, 0.25, 0.0032894736842105274, 4.44365446142908e-05, 0.25, 0.25, 0.25, 0.0002561475409836066, 0.01978452820242488, 0.25, 0.25, 0.25, 0.00032216494845360824, 0.01759397825591421, 0.09394506866416978, 0.25, 0.25, 0.25, 1.0039757439460264e-05, 0.02018385291766587, 0.25, 0.25, 0.25, 0.0024752475247524757, 0.15414110429447853, 0.25, 0.25, 0.25, 0.0009057971014492755, 0.036019971469329524, 0.25, 0.25, 0.25, 0.00043402777777777765, 0.030569007263922518, 0.25, 0.25, 0.25, 0.00010748065348237315, 0.014304954697575709, 0.25, 0.25, 0.25, 9.005763688760805e-05, 0.004261628708894857 ;
}
probability ( body_words | accept_num, author_identity, priorities_number, workload ) {
    table 0.13253824840380676, 0.1938781756963575, 0.17391682364874658, 0.03130271790065604, 0.24987531172069832, 0.07843931769165415, 0.17063608586960838, 0.1288920492422559, 0.07693359541919494, 0.00014275517487508923, 0.03660529203755639, 0.10092197605614421, 0.03448910003448144, 0.03262688838169764, 0.00024968789013732833, 0.010658440591426444, 0.04028814483069121, 0.041669965209058135, 0.03847041371353222, 0.00012492192379762648, 9.995002498750626e-05, 0.02186765750505437, 0.018273138212866993, 0.015398815475732632, 0.00018165304268846503, 0.1429386590584879, 0.00024968789013732833, 0.1250468457214241, 0.00018165304268846503, 0.0009950248756218907, 0.0019801980198019802, 0.14289793004996432, 0.05409348824641987, 0.06979772146012556, 0.08343047460449625, 0.000995024875621891, 0.00011757789535567315, 0.07503124218945263, 0.0400213304892681, 0.07152034261241971, 0.000995024875621891, 0.00013324450366422388, 0.12699571496587847, 0.04879892696012682, 0.00013324450366422383, 0.2, 0.0009950248756218907, 0.05270910047343504, 0.011385069878422905, 0.014952992090732725, 0.2, 0.2, 0.2, 0.2, 0.2, 0.2, 0.2, 0.2, 0.2, 0.2, 0.2, 0.2, 0.2, 0.2, 0.2, 0.2, 0.2, 0.2, 0.2, 0.2, 0.2, 0.2, 0.2, 0.2, 0.2, 0.3897983392645314, 0.44114100867519485, 0.2940899735371949, 0.17648442092886538, 0.0019801980198019802, 0.22856734752178257, 0.23852857536005873, 0.1645614479179851, 0.19047845751011666, 0.0002219755826859045, 0.17910759588121175, 0.1489416019572386, 0.1857163262391087, 0.1285816311955435, 0.15388162951575712, 0.15385798513201743, 0.06819679581865698, 0.13924819643083153, 0.09679084018706659, 0.00016652789342214822, 0.00039920159680638726, 9.519276534983343e-05, 9.995002498750624e-05, 4.876859302609119e-05, 0.00022197558268590461, 0.3113102537496463, 0.3577836895697643, 0.13637327677624603, 0.07145152651312266, 0.24993757802746563, 0.26469953926085676, 0.22900541943363104, 0.09357347523536635, 0.040731188633998466, 7.689350249903882e-05, 0.1406342758943915, 0.2, 0.09357347523536634, 0.03226708241492393, 0.08002399520095979, 0.11113579561232989, 0.1818202476991251, 0.06038262707067658, 0.01750456238594035, 0.01178684860604635, 0.050074962518740634, 5.5540127742293814e-05, 0.00981324444880153, 0.0026648227440759556, 0.015009249537523124, 0.5713527851458885, 0.39211919231523223, 0.28568368439842917, 0.10531299316149395, 0.27266121707538604, 0.44993751562109463, 0.2558074642483432, 0.13334073991778694, 0.04287958863019569, 0.08574692944872893, 0.3142530705512711, 0.10346491984140664, 0.03961983961983962, 0.02085199458389751, 0.02224197311409843, 0.19999999999999998, 0.0543636561243343, 0.044455966224724086, 0.035472661513367844, 0.017873404160342825, 0.03281429273889526, 1.1764013881536379e-05, 1.4284693950432114e-05, 0.004817076102110475, 0.0037109736676419394, 0.2, 0.2, 0.2, 0.2, 0.2, 0.2, 0.2, 0.2, 0.2, 0.2, 0.2, 0.2, 0.2, 0.2, 0.2, 0.2, 0.2, 0.2, 0.2, 0.2, 0.2, 0.2, 0.2, 0.2, 0.2, 0.2, 0.2, 0.2, 0.4985074626865673, 0.0009950248756218911, 0.2, 0.2, 0.2, 0.23527336860670195, 0.27583591864874185, 0.2, 0.2, 0.2, 0.1621723858416644, 0.23635702599527358, 0.2, 0.2, 0.2, 0.06979772146012554, 0.09590467059306945, 0.2, 0.2, 0.2, 0.07145152651312264, 0.06771522316546012, 0.5092306267938155, 0.45799557285703374, 0.30321914715179665, 0.20388311814386953, 0.2812246173070916, 0.2941038082634907, 0.40763008725558875, 0.21383604289173297, 0.11607517521539217, 0.13096059992857995, 0.2727107475573733, 0.2903152971534554, 0.1837613777189009, 0.05245271144365582, 0.058832756029017705, 0.21052354643514865, 0.20175423208490484, 0.13830115419392583, 0.03679475602822648, 0.04939201283871367, 0.04173261141191171, 0.03453981385729059, 0.1351438994730442, 0.04805261103270172, 0.03552361957323571, 0.6425410421127765, 0.5150560436231445, 0.12503123698458976, 0.19231064975009612, 0.2, 0.42824536376604855, 0.3570867547304535, 0.10418662778587792, 2.22197533607377e-05, 0.10348155808341951, 0.3996007984031937, 0.09837731519423044, 0.09304812834224599, 0.03177273448658943, 0.0714416896235078, 0.4985074626865672, 0.17648442092886538, 0.044799283689001636, 0.030782247519421577, 0.07548344495802282, 0.0019801980198019802, 0.008637186449444015, 0.01565380409311045, 1.2194378391561491e-05, 0.032349532357618394, 0.8322795341098171, 0.2855920114122682, 0.1739243807040417, 0.0019801980198019802, 0.2, 0.8741573033707863, 0.00019980019980019975, 0.16001599360255897, 0.0009950248756218911, 0.20000000000000004, 0.9960199004975129, 0.07152034261241969, 0.050651816225794205, 6.664445184938355e-05, 0.11120976692563816, 0.0019801980198019802, 0.1428979300499643, 0.017889662560257095, 0.07701767870868562, 0.2, 0.0019801980198019802, 0.33289036544850503, 0.10009990009990008, 0.0004987531172069826, 0.033388870376541153, 0.2, 0.2, 0.2, 0.2, 0.9920792079207921, 0.2, 0.0006644518272425252, 0.14293865905848788, 0.000995024875621891, 0.3076095311299, 0.2, 0.000995024875621891, 0.00018165304268846506, 0.0002853067047075606, 0.09094213874583458, 0.2, 0.00033277870216306157, 0.00018165304268846503, 0.11120976692563818, 0.07695462701871314, 0.2, 0.00014275517487508923, 5.403944879762227e-05, 7.996801279488206e-05, 0.07080789310680471, 0.544955293370721, 0.6008596114205517, 0.4090822693277137, 0.30344114199020755, 0.32893040389422445, 0.4657170250650597, 0.45261828324825004, 0.3095941302126869, 0.1980198673311112, 0.19875784112788025, 0.3499625093726568, 0.4012221467810628, 0.21613786346214806, 0.14641032015690175, 0.13218585672825495, 0.24241139048773097, 0.40204102669827857, 0.18400063997440103, 0.11180398124281855, 0.09756454478938016, 0.33311148086522463, 0.499863698318946, 0.07845520486179179, 0.06404610610314763, 0.06984333582006635, 0.6658901830282863, 0.4116402116402117, 0.4992518703241896, 0.0006644518272425252, 0.24987531172069827, 0.4985074626865673, 0.3748906933166771, 0.4992518703241896, 0.00018165304268846506, 0.058906525573192245, 0.9960199004975129, 0.10003332222592469, 0.23074558032282855, 0.07152034261241971, 0.1666746012854082, 0.2, 0.24995836802664445, 0.14293865905848788, 0.00018165304268846503, 0.027073763847608755, 0.2, 0.0019801980198019802, 0.00033277870216306157, 0.023296907695884675, 0.0604120528823569, 0.4985074626865673, 0.24987531172069827, 0.24987531172069827, 0.0003327787021630616, 0.0004987531172069826, 0.0002853067047075607, 0.49962546816479386, 0.0001665278934221482, 0.09528795811518323, 0.444173140954495, 0.0019801980198019802, 0.0002853067047075607, 0.07412069603850424, 0.07412069603850424, 0.26664445184938357, 0.4985074626865672, 0.9920792079207921, 0.04354628422425033, 6.894174422612891e-05, 0.19444598722577058, 0.00033277870216306157, 0.000664451827242525, 0.0002853067047075606, 0.05563575791227097, 0.20512776685753356, 0.7996002664890073, 0.9986688851913479, 0.0019801980198019802, 0.2, 0.2, 0.5992015968063873, 0.5992015968063873, 0.24987531172069827, 0.0009950248756218907, 0.000995024875621891, 0.4992518703241896, 0.24987531172069832, 0.0004987531172069826, 0.0004987531172069826, 0.24993757802746563, 0.3996007984031937, 0.2, 0.00015372790161414295, 0.14293865905848788, 0.2, 0.2, 0.2, 0.00033277870216306157, 0.0009950248756218907, 0.1363925488414357, 0.628420714646117, 0.6024936195138277, 0.41665663626683946, 0.33332426365553364, 0.4406371801389594, 0.5360478301206062, 0.49571385838212034, 0.33903633437211056, 0.2274358326414209, 0.306659556029598, 0.39211919231523223, 0.43634931216289913, 0.25597078598000067, 0.160132021829352, 0.1911265827104877, 0.4117024404586886, 0.3529261837074797, 0.17187646476746002, 0.16033922619298763, 0.18983085319141726, 0.31572856391372967, 0.2812246173070916, 0.08773899315909488, 0.07609369056029563, 0.08016272218993609, 0.2, 0.2, 0.33289036544850503, 0.4985074626865673, 0.2, 0.2, 0.2, 0.5992015968063873, 0.2, 0.2, 0.2, 0.9920792079207921, 0.4992518703241896, 0.000995024875621891, 0.2, 0.2, 0.4985074626865673, 0.9920792079207921, 0.2, 0.00022197558268590456, 0.2, 0.2, 0.0019801980198019802, 0.14293865905848788, 0.09528795811518324, 0.4999210734017363, 0.5101407875943684, 0.4530854553975941, 0.24998611496806442, 0.44430871737923383, 0.6359673024523159, 0.32605955227124533, 0.3773250330126391, 0.26152899553914777, 0.2333222259246918, 0.1429386590584879, 0.48377942599161566, 0.2096758587324625, 0.1428673451169434, 0.2096758587324625, 0.9980049875311723, 0.3181281235801908, 0.12123598909421388, 0.04765532016186621, 0.1428673451169434, 0.6658901830282863, 0.10009990009990008, 0.14293865905848788, 0.10813293704404213, 0.12963614480140728, 0.8741573033707863, 0.9980049875311723, 0.9920792079207921, 0.2, 0.2, 0.0009950248756218911, 0.6651162790697676, 0.9980049875311723, 0.2, 0.2, 0.9920792079207921, 0.0019801980198019802, 0.2, 0.2, 0.4985074626865673, 0.2, 0.2, 0.0019801980198019802, 0.0019801980198019802, 0.2, 0.2, 0.2, 0.0009950248756218907, 0.2, 0.0009950248756218907, 0.13253824840380676, 0.20408121620242833, 0.2318794377626431, 0.15626366760387375, 0.24987531172069832, 0.17647212600483628, 0.1428594103408595, 0.1244478023198969, 0.1282112639945304, 0.14289793004996432, 0.08537983172783806, 0.1376175404797945, 0.11111451668518448, 0.09783719160960766, 0.00024968789013732833, 0.06384427188596957, 0.06398426577569251, 0.06875273431803504, 0.07143563540464809, 0.00012492192379762648, 0.10004997501249376, 0.07650948035626469, 0.0684991552897128, 0.08462425967233289, 0.00018165304268846503, 0.5708987161198289, 0.24993757802746563, 0.06258588382261088, 0.09100817438692098, 0.0009950248756218907, 0.9920792079207921, 0.21427551748750895, 0.13515266144285326, 0.1627993489886073, 0.08343047460449625, 0.000995024875621891, 0.00011757789535567315, 0.15001249687578105, 0.08001599786695109, 0.07152034261241971, 0.000995024875621891, 0.33324450366422387, 3.174099349309634e-05, 0.02441165711498598, 0.00013324450366422383, 0.2, 0.4985074626865672, 0.05270910047343504, 0.04547210544256334, 2.9846291598268913e-05, 0.2, 0.2, 0.2, 0.2, 0.2, 0.2, 0.2, 0.2, 0.2, 0.2, 0.2, 0.2, 0.2, 0.2, 0.2, 0.2, 0.2, 0.2, 0.2, 0.2, 0.2, 0.2, 0.2, 0.2, 0.2, 0.2203355363497712, 0.22058520805763862, 0.44110555718906197, 0.3528512639623751, 0.0019801980198019802, 0.24285102128267386, 0.3302632785982938, 0.2784710796101759, 0.09526303261128302, 0.0002219755826859045, 0.089568721086405, 0.27658759706414215, 0.2571346950435652, 0.2571346950435652, 0.15388162951575712, 0.2563957959497565, 0.21590728326326555, 0.20253132514871533, 0.19354942751169166, 0.08343047460449625, 0.2, 0.3332698714897668, 0.15002498750624685, 0.14635454767129966, 0.22219755826859047, 0.50940477313461, 0.4219979818365288, 0.2121193758521436, 0.08930548116407784, 0.00024968789013732833, 0.5391824330947947, 0.442729562628807, 0.12865914274019064, 0.12217546717343107, 0.1923106497500961, 0.4530854553975941, 0.4249718785151857, 0.1286591427401906, 0.09677974302456857, 0.10001999600079983, 0.5276867536795333, 0.29544369957959327, 0.12830459227953664, 0.08250293742656434, 0.04707681449241266, 0.2999500249875063, 0.1944459872257706, 0.03922356747218274, 0.0531953937395282, 0.03500824958752063, 0.4081207916751683, 0.33330719466771214, 0.3570867547304535, 0.31572856391372967, 0.18183469573115352, 0.44993751562109463, 0.38369956981746317, 0.2888790134429508, 0.11429795743465222, 0.14287346472436446, 0.2, 0.27584899155318043, 0.15841995841995843, 0.1250078116862827, 0.07779135651594267, 0.13337774816788805, 0.20652103032279098, 0.17037256499518552, 0.11348131338202964, 0.08036782430140167, 0.049205048352729056, 0.011775777895417915, 0.028583672594814657, 0.043276765540118264, 0.007414540202214733, 0.2, 0.2, 0.2, 0.2, 0.2, 0.2, 0.2, 0.2, 0.2, 0.2, 0.2, 0.2, 0.2, 0.2, 0.2, 0.2, 0.2, 0.2, 0.2, 0.2, 0.2, 0.2, 0.2, 0.2, 0.2, 0.2, 0.2, 0.2, 0.4985074626865673, 0.9960199004975129, 0.2, 0.2, 0.2, 0.4704291593180483, 0.27583591864874185, 0.2, 0.2, 0.2, 0.18919211024047555, 0.3272495909834575, 0.2, 0.2, 0.2, 0.41855382469193203, 0.36983974797972885, 0.2, 0.2, 0.2, 0.17857525441885377, 0.22395708556845997, 0.24073696879918527, 0.27480345011831153, 0.23870718018192374, 0.22329870886321718, 0.21874414245548268, 0.27940008822232026, 0.3120947710336921, 0.23270337410773245, 0.15625195303781084, 0.13096059992857995, 0.24998863894569415, 0.40320941859527465, 0.20085466433058416, 0.15035138631516382, 0.11111692046271483, 0.26314127861089187, 0.315779317603719, 0.196808680389341, 0.10702652085214542, 0.11728905623109684, 0.04173261141191171, 0.13795243019648395, 0.12163221186326174, 0.07207591363622715, 0.10655993005655584, 0.2142755174875089, 0.2727052408361103, 0.416576426488963, 0.11541714725105728, 0.2, 0.5708987161198289, 0.3927882898964656, 0.27081857946261195, 0.16667036995889348, 0.31030679076180634, 0.3996007984031937, 0.295066382560236, 0.13954894210648686, 0.12699571496587847, 0.1938781756963575, 0.0009950248756218907, 0.00011757789535567315, 0.10449186688553946, 0.15384970386893312, 0.07548344495802282, 0.9920792079207921, 1.7239893112662702e-05, 0.01565380409311045, 0.04269251874885678, 0.09164712541440932, 0.16672212978369388, 0.1429386590584879, 0.2608431116905693, 0.9920792079207921, 0.2, 0.12509363295880147, 0.7994005994005992, 0.31995201919232313, 0.9960199004975129, 0.798802395209581, 0.0009950248756218911, 0.713918629550321, 0.025338564738640677, 0.10003332222592469, 0.11120976692563816, 0.0019801980198019802, 0.49978586723768736, 0.19642920906980896, 0.07701767870868562, 0.00039920159680638726, 0.9920792079207921, 0.33289036544850503, 0.6995004995004994, 0.0004987531172069826, 0.2, 0.2, 0.2, 0.2, 0.2, 0.0019801980198019802, 0.2, 0.6651162790697676, 0.0002853067047075606, 0.000995024875621891, 0.15388162951575707, 0.2, 0.000995024875621891, 0.18183469573115352, 0.14293865905848788, 0.4847621932747651, 0.2, 0.16672212978369386, 0.09100817438692098, 0.00022197558268590456, 0.41020251217636494, 0.2, 0.00014275517487508923, 0.027073763847608755, 7.996801279488206e-05, 0.24778338200159278, 0.3333262790328554, 0.32894171308275943, 0.2396677823230445, 0.255168609061444, 0.2368372582554927, 0.30135597863306396, 0.3999894742381979, 0.27553945698275595, 0.24092274182370219, 0.28570896217626235, 0.37495626093476625, 0.31480772791802974, 0.21613786346214806, 0.20441976740974005, 0.20689635355305883, 0.24241139048773097, 0.38142459540253587, 0.22399904003839846, 0.13664793018850346, 0.18815372286679907, 0.33311148086522463, 0.3635620172648797, 0.196079200156832, 0.10837889759125166, 0.11587435120077459, 0.0003327787021630616, 0.3528512639623751, 0.4992518703241896, 0.6651162790697676, 0.24987531172069827, 0.4985074626865673, 0.31242973141786384, 0.24987531172069832, 0.27266121707538604, 0.29406231628453855, 0.0009950248756218911, 0.3666111296234589, 0.615065334358186, 0.21427551748750895, 0.35710545108307545, 0.2, 0.41648626144879264, 0.14293865905848788, 0.00018165304268846503, 0.08111321264523101, 0.2, 0.0019801980198019802, 0.00033277870216306157, 4.6500813764240866e-05, 0.22147506878732973, 0.4985074626865673, 0.24987531172069827, 0.24987531172069827, 0.33311148086522463, 0.0004987531172069826, 0.2855920114122682, 0.3747815230961297, 0.16669442131557033, 0.23807710613993333, 0.3331853496115427, 0.9920792079207921, 0.7135520684736092, 0.07412069603850424, 0.07412069603850424, 0.16667777407530823, 0.0009950248756218907, 0.0019801980198019802, 0.08700564971751412, 0.17242330230954842, 0.24998611496806442, 0.00033277870216306157, 0.33289036544850503, 0.0002853067047075606, 0.05563575791227097, 0.20512776685753356, 0.06675549633577614, 0.0003327787021630616, 0.0019801980198019802, 0.2, 0.2, 0.3996007984031937, 0.3996007984031937, 0.0004987531172069826, 0.0009950248756218907, 0.000995024875621891, 0.0004987531172069827, 0.748628428927681, 0.0004987531172069826, 0.0004987531172069826, 0.24993757802746563, 0.3996007984031937, 0.2, 0.00015372790161414295, 0.0002853067047075606, 0.2999000999000999, 0.2, 0.2, 0.00033277870216306157, 0.0009950248756218907, 0.3635620172648796, 0.28439979817439565, 0.30125099368227265, 0.3009212536456645, 0.25169716345826815, 0.18644297576681917, 0.2783424389238223, 0.35896756548865427, 0.24657374747440156, 0.24187574455795818, 0.2266648890073995, 0.4117231915310723, 0.33938549178837646, 0.30375072523122076, 0.2908467043560668, 0.30716357803487937, 0.3528962069979418, 0.4411528281541026, 0.3020780167699599, 0.22784692629002995, 0.2915223212772448, 0.36833245660178854, 0.4999062792877226, 0.2631468163480091, 0.16847997391446115, 0.2244484078475381, 0.2, 0.2, 0.33289036544850503, 0.4985074626865673, 0.2, 0.2, 0.2, 0.20000000000000004, 0.2, 0.2, 0.2, 0.0019801980198019802, 0.0004987531172069827, 0.000995024875621891, 0.00039920159680638726, 0.2, 0.4985074626865673, 0.0019801980198019802, 0.2, 0.11120976692563818, 0.2, 0.2, 0.0019801980198019802, 0.0002853067047075606, 0.23807710613993338, 0.36837674296237827, 0.4489287900428483, 0.2656147476956725, 0.361066370452652, 0.27773459189339256, 0.27266121707538593, 0.4999347967833079, 0.2452744765138653, 0.30767574219350863, 0.10003332222592469, 0.7135520684736092, 0.2580457916801032, 0.35481373971940006, 0.2678450276736297, 0.22580228995323334, 0.0004987531172069827, 0.45442980463425725, 0.24241139048773103, 0.2856938824089502, 0.3571148009284056, 0.33311148086522463, 0.5996003996003995, 0.14293865905848788, 0.16217238584166438, 0.21296176279974077, 0.12509363295880147, 0.0004987531172069827, 0.0019801980198019802, 0.2, 0.2, 0.9960199004975129, 0.3328903654485051, 0.0004987531172069827, 0.2, 0.2, 0.0019801980198019802, 0.0019801980198019802, 0.2, 0.2, 0.4985074626865673, 0.2, 0.2, 0.0019801980198019802, 0.0019801980198019802, 0.2, 0.2, 0.2, 0.0009950248756218907, 0.2, 0.0009950248756218907, 0.19277195518612214, 0.23469033772064077, 0.17391682364874658, 0.18750390502967818, 0.0004987531172069827, 0.16993660545062414, 0.19047656839014326, 0.14222479000933294, 0.1794889325698658, 0.2856531049250536, 0.13415437141811973, 0.16055226824457597, 0.14176468334546571, 0.13044234322356266, 0.1250936329588015, 0.13830443569832995, 0.11611573185469538, 0.11041853294723027, 0.1153892643261359, 0.00012492192379762648, 0.10004997501249376, 0.10383039178186984, 0.08676316149947491, 0.08462425967233289, 0.00018165304268846503, 0.1429386590584879, 0.499625468164794, 0.24996876951905062, 0.1818346957311535, 0.0009950248756218907, 0.0019801980198019802, 0.07152034261241971, 0.05409348824641987, 0.13954894210648686, 0.00016652789342214822, 0.9960199004975127, 0.29406231628453855, 0.24998750312421897, 0.0400213304892681, 0.00014275517487508923, 0.9960199004975127, 0.3998667554963358, 0.14286621171242664, 0.10976710157297892, 0.06675549633577614, 0.2, 0.0009950248756218907, 0.00010520778537611784, 0.05683445063061015, 0.07464557528727055, 0.2, 0.2, 0.2, 0.2, 0.2, 0.2, 0.2, 0.2, 0.2, 0.2, 0.2, 0.2, 0.2, 0.2, 0.2, 0.2, 0.2, 0.2, 0.2, 0.2, 0.2, 0.2, 0.2, 0.2, 0.2, 0.16949669547534316, 0.17647404793412735, 0.17647750661570122, 0.1176954732510288, 0.0019801980198019802, 0.2571346950435652, 0.2201816347124117, 0.329097582584483, 0.2856938824089503, 0.11120976692563816, 0.3283390538725563, 0.36168492713541117, 0.2142836737608913, 0.27141836880445647, 0.3076095311299001, 0.28203024865419124, 0.3522554255198273, 0.26581445386659913, 0.32256087727785837, 0.24995836802664445, 0.2, 0.23807710613993338, 0.2999500249875062, 0.24389173372348205, 0.1112097669256382, 0.1698141684746722, 0.2018346940647647, 0.19697015603696408, 0.19642920906980899, 0.24993757802746563, 0.1666699343201647, 0.2671704450041982, 0.18128764399742706, 0.18099633500746573, 0.1538638985005767, 0.3749726605217934, 0.3124859392575928, 0.20467808900064322, 0.204300844040643, 0.23999200159968007, 0.361066370452652, 0.29544369957959327, 0.2188672125580167, 0.1850003749906252, 0.24705328784848843, 0.39990004997501255, 0.2777561788392114, 0.1372579775501201, 0.19414909177947395, 0.18000099995000252, 0.02044480718220771, 0.13726720250931188, 0.17857907890039273, 0.31572856391372967, 0.09100817438692099, 0.07503124218945262, 0.19767468898965238, 0.2, 0.17143265247821743, 0.28568980291345336, 0.14287346472436446, 0.2586105843820031, 0.18811998811998812, 0.1979168836579523, 0.15556049327852461, 0.06675549633577615, 0.11957395935224432, 0.17037256499518552, 0.14184809587972486, 0.16964556736005715, 0.016423537125061463, 0.03530380565849067, 0.04286836654524677, 0.0721215326186241, 0.08889300396281619, 0.2, 0.2, 0.2, 0.2, 0.2, 0.2, 0.2, 0.2, 0.2, 0.2, 0.2, 0.2, 0.2, 0.2, 0.2, 0.2, 0.2, 0.2, 0.2, 0.2, 0.2, 0.2, 0.2, 0.2, 0.2, 0.2, 0.2, 0.2, 0.000995024875621891, 0.0009950248756218911, 0.2, 0.2, 0.2, 0.29406231628453855, 0.27583591864874185, 0.2, 0.2, 0.2, 0.32429073223453125, 0.2181785129976368, 0.2, 0.2, 0.2, 0.18604975587072772, 0.27396247089439807, 0.2, 0.2, 0.2, 0.2678450276736297, 0.31770220301025986, 0.12037774280159245, 0.16030837340661014, 0.2516095735758983, 0.16505193670517426, 0.15626366760387378, 0.22058520805763862, 0.22929749697471496, 0.23899248451306562, 0.2544618543815009, 0.19047732412808, 0.22726653033401498, 0.24999596806709137, 0.23504123755395068, 0.19580434250550682, 0.1830076465590484, 0.26314127861089187, 0.30700815717919483, 0.22340301047816605, 0.21739072271830373, 0.1604962656626134, 8.329862557267806e-05, 0.2758359186487418, 0.20270233752195652, 0.18318368817753222, 0.15300674844949594, 0.1428979300499643, 0.12123598909421388, 0.12503123698458976, 0.26920415224913496, 0.39960079840319357, 0.0002853067047075607, 0.17857907890039273, 0.22916059154342844, 0.27776913676258197, 0.27583591864874185, 0.20000000000000004, 0.16394033764956564, 0.25580097651708905, 0.2857006824313601, 0.2959085807570656, 0.0009950248756218907, 0.4116402116402117, 0.1940307416803462, 0.2846088762402892, 0.2735779643429865, 0.0019801980198019802, 0.008637186449444015, 0.06252148101859084, 0.15853911346869093, 0.1428586830543651, 0.0003327787021630616, 0.5708987161198289, 0.043546284224250324, 0.0019801980198019802, 0.2, 0.0002496878901373283, 0.00019980019980019975, 0.12003198720511796, 0.0009950248756218911, 0.0003992015968063873, 0.0009950248756218911, 0.00014275517487508918, 0.0886216934565245, 0.033388870376541153, 0.5551609322974471, 0.9920792079207921, 0.1428979300499643, 0.05359757186216746, 0.15388162951575707, 0.5992015968063872, 0.0019801980198019802, 0.000664451827242525, 0.19999999999999996, 0.7486284289276808, 0.4665778073975342, 0.2, 0.2, 0.2, 0.2, 0.0019801980198019802, 0.2, 0.0006644518272425252, 0.14293865905848788, 0.000995024875621891, 0.3076095311299, 0.2, 0.9960199004975127, 0.18183469573115352, 0.14293865905848788, 0.27270524083611025, 0.2, 0.00033277870216306157, 0.1818346957311535, 0.00022197558268590456, 0.35893360676749547, 0.2, 0.2856531049250536, 0.1621723858416644, 0.08004798080767693, 0.35396867533846565, 0.08995291254430982, 0.04386649708346124, 0.173554811784637, 0.17931177160195846, 0.24999342191816867, 0.10960142446240244, 0.08947950107889056, 0.21981362806105073, 0.26732451074221975, 0.23602260729147256, 0.24998750312421894, 0.19135855811369665, 0.2190196247946745, 0.2679539239247535, 0.27298640843653915, 0.5150560436231444, 0.17526028244510874, 0.29999600015999356, 0.27950063662619173, 0.27177450263057035, 0.16672212978369388, 0.1363925488414357, 0.29409919623603215, 0.22659967489286245, 0.25396739734289936, 0.33311148086522463, 0.23527336860670195, 0.0004987531172069827, 0.0006644518272425252, 0.24987531172069827, 0.000995024875621891, 0.31242973141786384, 0.0004987531172069827, 0.27266121707538604, 0.23527336860670195, 0.0009950248756218911, 0.5332222592469177, 0.15388162951575707, 0.21427551748750895, 0.2856938824089502, 0.2, 0.16669442131557033, 0.14293865905848788, 0.09100817438692098, 0.40534990543096466, 0.2, 0.9920792079207921, 0.00033277870216306157, 0.13954894210648683, 0.275162740755654, 0.000995024875621891, 0.4992518703241895, 0.24987531172069827, 0.33311148086522463, 0.0004987531172069826, 0.1429386590584879, 0.12509363295880147, 0.5830141548709408, 0.23807710613993333, 0.00022197558268590456, 0.0019801980198019802, 0.2855920114122682, 0.18519067012217696, 0.1481673454276194, 0.2333222259246918, 0.4985074626865672, 0.0019801980198019802, 0.17392438070404173, 0.24136504653567734, 0.41660649819494583, 0.00033277870216306157, 0.000664451827242525, 0.28559201141226814, 0.16668517490283177, 0.34186821639176146, 0.13337774816788805, 0.0003327787021630616, 0.0019801980198019802, 0.2, 0.2, 0.0003992015968063873, 0.0003992015968063873, 0.0004987531172069826, 0.0009950248756218907, 0.9960199004975127, 0.4992518703241896, 0.0004987531172069827, 0.0004987531172069826, 0.24987531172069827, 0.1250936329588015, 0.20000000000000004, 0.2, 0.00015372790161414295, 0.0002853067047075606, 0.2, 0.2, 0.2, 0.00033277870216306157, 0.0009950248756218907, 0.1363925488414357, 0.05963946607953763, 0.07531902430860632, 0.1620387945002546, 0.2721039385075845, 0.2033892560582952, 0.1649520667972374, 0.11538823127216784, 0.23630012670798944, 0.2996353922241074, 0.2266648890073995, 0.17647520094099195, 0.18181928367977696, 0.23208081635439062, 0.27123950197705954, 0.29351216682024506, 0.20588062334607465, 0.1764728948142339, 0.2968699546898599, 0.3291084764355934, 0.23050744042574828, 0.26312467122567074, 0.15626366760387378, 0.33330994562357474, 0.2880386935492636, 0.2985952185326948, 0.2, 0.2, 0.000664451827242525, 0.000995024875621891, 0.2, 0.2, 0.2, 0.20000000000000004, 0.2, 0.2, 0.2, 0.0019801980198019802, 0.24987531172069832, 0.9960199004975127, 0.39960079840319357, 0.2, 0.000995024875621891, 0.0019801980198019802, 0.2, 0.444173140954495, 0.2, 0.2, 0.0019801980198019802, 0.14293865905848788, 0.09528795811518324, 0.10528808208366218, 0.040848806366047735, 0.12501171691923138, 0.2222160510969175, 0.16668517490283177, 0.09100817438692096, 0.10871549663116713, 0.26413884172797586, 0.23076449776957392, 0.3666111296234589, 0.0002853067047075607, 0.19355046759109965, 0.24192872117400419, 0.2678450276736297, 0.30643444605708753, 0.0004987531172069827, 0.1363925488414357, 0.2727052408361103, 0.333301594858367, 0.37496875557936077, 0.0003327787021630616, 0.10009990009990008, 0.28559201141226814, 0.18919211024047553, 0.22222016479955561, 0.0002496878901373283, 0.0004987531172069827, 0.0019801980198019802, 0.2, 0.2, 0.0009950248756218911, 0.0006644518272425252, 0.0004987531172069827, 0.2, 0.2, 0.0019801980198019802, 0.9920792079207921, 0.2, 0.2, 0.000995024875621891, 0.2, 0.2, 0.0019801980198019802, 0.0019801980198019802, 0.2, 0.2, 0.2, 0.0009950248756218907, 0.2, 0.0009950248756218907, 0.3855198168895314, 0.31631466176920725, 0.3043327054050138, 0.4374258044361137, 0.4992518703241896, 0.4705705509443827, 0.432530455140669, 0.5110972845651305, 0.4444235535424323, 0.4284082798001428, 0.6706743080112181, 0.5366818035869915, 0.6589862457377113, 0.6629931529181611, 0.37478152309612983, 0.6276140836081268, 0.7061491433852278, 0.7020728734818024, 0.7087632547662216, 0.7496564647095565, 0.5498250874562719, 0.4152887820337686, 0.41094927172275236, 0.4692100607645565, 0.1818346957311535, 0.1429386590584879, 0.1250936329588015, 0.1250468457214241, 0.09100817438692098, 0.0009950248756218907, 0.0019801980198019802, 0.07152034261241971, 0.2702512834369089, 0.13954894210648686, 0.16669442131557033, 0.000995024875621891, 0.17648442092886538, 0.17500624843789053, 0.3466471137181709, 0.35703069236259816, 0.000995024875621891, 0.13337774816788808, 0.2857006824313601, 0.28047799048896477, 0.13337774816788805, 0.2, 0.0009950248756218907, 0.05270910047343504, 0.17045790251107829, 0.14926130428294285, 0.2, 0.2, 0.2, 0.2, 0.2, 0.2, 0.2, 0.2, 0.2, 0.2, 0.2, 0.2, 0.2, 0.2, 0.2, 0.2, 0.2, 0.2, 0.2, 0.2, 0.2, 0.2, 0.2, 0.2, 0.2, 0.06781901372648702, 0.10295544772827527, 0.08826815642458098, 0.29406231628453855, 0.0019801980198019802, 0.1428653049564348, 0.11009999082652969, 0.22784457663586888, 0.16667460128540823, 0.888124306326304, 0.20895388747948068, 0.1489416019572386, 0.2142836737608913, 0.1714326524782174, 0.15388162951575712, 0.10258907972314792, 0.22726962845131235, 0.17721807366156184, 0.22580228995323334, 0.24995836802664445, 0.2, 0.09528795811518324, 0.05007496251874063, 0.2682760302365277, 0.44417314095449506, 0.009451938496368268, 0.01836528758829465, 0.2121193758521436, 0.44638457418318156, 0.37478152309612983, 0.029428487403195765, 0.030547286466681933, 0.45612537278521725, 0.5067734491651962, 0.5767781622452902, 0.01565380409311045, 0.05001874765654293, 0.35671598152154843, 0.4408472662760067, 0.18000399920015997, 5.55401277422938e-05, 0.06819679581865698, 0.3471642579525301, 0.4674933126671833, 0.29410657569697685, 0.10004997501249376, 0.1389058594834768, 0.289211313170923, 0.2632961889311454, 0.3149942502874857, 4.080799836768006e-05, 0.03924720643011174, 0.17857907890039273, 0.10531299316149395, 0.27266121707538604, 4.998750312421894e-05, 0.011649808161841647, 0.2, 0.2999857163262391, 0.05718366181091117, 0.028620394173093405, 0.12070332701258402, 0.297020097020097, 0.2708259556296219, 0.10001110987668037, 0.00013324450366422385, 0.01089012063906097, 0.2666617287608325, 0.24113183462165808, 0.19642889027765378, 3.278151122766759e-05, 0.02942179871772248, 0.1357188772230555, 0.18750060093264748, 0.13333580237768972, 0.2, 0.2, 0.2, 0.2, 0.2, 0.2, 0.2, 0.2, 0.2, 0.2, 0.2, 0.2, 0.2, 0.2, 0.2, 0.2, 0.2, 0.2, 0.2, 0.2, 0.2, 0.2, 0.2, 0.2, 0.2, 0.2, 0.2, 0.2, 0.000995024875621891, 0.0009950248756218911, 0.2, 0.2, 0.2, 0.00011757789535567315, 0.17242330230954844, 0.2, 0.2, 0.2, 0.1621723858416644, 0.1818214870023632, 0.2, 0.2, 0.2, 0.2325505696349686, 0.13699493220106837, 0.2, 0.2, 0.2, 0.2678450276736297, 0.14583615436696004, 0.12963614480140728, 0.10687733760781619, 0.09032965615121605, 0.16505193670517426, 0.18750390502967823, 0.19117776797529779, 0.03185784344946181, 0.16352315964906766, 0.29910271862863264, 0.26189739316748006, 0.22726653033401498, 0.04033545681799855, 0.23504123755395068, 0.2867102548861928, 0.254898372655382, 0.13159694817153378, 0.11404262783966321, 0.23935960853146107, 0.32775492458446204, 0.27160051848651323, 0.04173261141191171, 0.03453981385729059, 0.22972571274152143, 0.2552535959881085, 0.24043605365973605, 0.0001427551748750892, 0.06064828839745531, 0.12503123698458976, 0.19231064975009612, 0.2, 0.0002853067047075607, 0.0714744734023563, 0.18750260362424495, 0.2444395067214754, 0.17242330230954844, 0.0003992015968063873, 0.049205048352729056, 0.1627993489886073, 0.25395968893826376, 0.18367513519028672, 0.4985074626865672, 0.17648442092886538, 0.17910759588121175, 0.24615029613106681, 0.3018771813979813, 0.0019801980198019802, 1.7239893112662702e-05, 0.21874707077019215, 0.27438570818852515, 0.22102369208377132, 0.0003327787021630616, 0.0002853067047075607, 0.4781399391568883, 0.0019801980198019802, 0.2, 0.0002496878901373283, 0.10009990009990007, 0.27996801279488204, 0.0009950248756218911, 0.0003992015968063873, 0.0009950248756218911, 0.21427551748750887, 0.8353626123275535, 0.8331222925691436, 0.11120976692563816, 0.0019801980198019802, 0.21427551748750892, 0.7141938939475093, 0.615065334358186, 0.2, 0.0019801980198019802, 0.000664451827242525, 0.00019980019980019977, 0.24987531172069827, 0.2, 0.2, 0.2, 0.2, 0.2, 0.0019801980198019802, 0.2, 0.0006644518272425252, 0.4282453637660485, 0.9960199004975127, 0.07701767870868562, 0.2, 0.000995024875621891, 0.09100817438692099, 0.7135520684736091, 0.15152983944259313, 0.2, 0.00033277870216306157, 0.09100817438692098, 0.5551609322974472, 0.07695462701871314, 0.2, 0.2856531049250536, 0.18919211024047555, 0.08004798080767693, 0.14159808866471993, 0.026464208242950104, 0.026323406868119813, 0.11983802322218089, 0.16551961933659745, 0.09211945796605711, 0.09590467059306945, 0.03158781116783327, 0.09288257329494443, 0.14521632949407612, 0.1304391031612943, 0.02504373906523369, 0.06790938830936362, 0.19308377280193653, 0.16298444794342698, 0.149426740610902, 6.058770069675855e-05, 0.030945263374909805, 0.15200191992320308, 0.2080742834073476, 0.1986063203372705, 0.16672212978369388, 9.086778736937757e-05, 0.15687120172515193, 0.23645140633466333, 0.21269821113950574, 0.0003327787021630616, 0.00011757789535567315, 0.0004987531172069827, 0.3328903654485051, 0.24987531172069827, 0.000995024875621891, 0.0001249219237976265, 0.0004987531172069827, 0.27266121707538604, 0.17648442092886538, 0.0009950248756218911, 6.664445184938355e-05, 0.00015372790161414295, 0.35703069236259816, 0.09526303261128301, 0.2, 0.16669442131557033, 0.28559201141226814, 0.5451407811080835, 0.1351526614428533, 0.2, 0.0019801980198019802, 0.16672212978369386, 0.2325505696349686, 0.14765451983088385, 0.000995024875621891, 0.0004987531172069826, 0.24987531172069827, 0.16672212978369388, 0.7486284289276808, 0.5708987161198289, 0.0002496878901373283, 0.08343047460449625, 0.3808662541646835, 0.11120976692563818, 0.0019801980198019802, 0.0002853067047075607, 0.44435394298408, 0.5554239170677526, 0.2, 0.0009950248756218907, 0.0019801980198019802, 0.39122120817036077, 0.3447776628748707, 0.11113579561232989, 0.9986688851913478, 0.6651162790697674, 0.14293865905848788, 0.38878400888395337, 0.14530382018630886, 0.00013324450366422383, 0.0003327787021630616, 0.9920792079207921, 0.2, 0.2, 0.0003992015968063873, 0.0003992015968063873, 0.24987531172069827, 0.4985074626865672, 0.000995024875621891, 0.0004987531172069827, 0.0004987531172069827, 0.4992518703241895, 0.7486284289276808, 0.24993757802746563, 0.0003992015968063873, 0.2, 0.3076095311299, 0.4282453637660485, 0.00019980019980019985, 0.2, 0.2, 0.00033277870216306157, 0.0009950248756218907, 0.04552476147205815, 0.027530847208843624, 0.016744069285803936, 0.07407990370816164, 0.10884973811305351, 0.06781901372648702, 0.02063704772703845, 0.02564847656083073, 0.10274305674463204, 0.16606620699613733, 0.13333777748150122, 0.01964320721427171, 0.03031331434458517, 0.12628237944097473, 0.1503284206398484, 0.116043821029999, 0.029461922963834163, 0.009822566415057347, 0.15625227852716003, 0.1645584574490528, 0.13898511914850345, 0.05270910047343504, 0.031302717900656044, 0.175442904753552, 0.222824846475735, 0.18036111500771526, 0.2, 0.2, 0.33289036544850503, 0.000995024875621891, 0.2, 0.2, 0.2, 0.0003992015968063873, 0.2, 0.2, 0.2, 0.0019801980198019802, 0.0004987531172069827, 0.000995024875621891, 0.00039920159680638726, 0.2, 0.000995024875621891, 0.0019801980198019802, 0.2, 0.3331853496115427, 0.2, 0.2, 0.0019801980198019802, 0.5708987161198288, 0.3332698714897668, 0.02636148382004735, 4.080799836768006e-05, 0.06252148101859084, 0.13890585948347678, 0.05563575791227097, 0.000181653042688465, 0.04351227993914365, 0.07549518958687039, 0.06155976003691739, 0.13335554815061645, 0.0002853067047075607, 0.06455981941309255, 0.14517013384937913, 0.21428316372076414, 0.1290437026286083, 0.0004987531172069827, 0.09095865515674693, 0.21211754013935172, 0.1666746012854082, 0.08930548116407783, 0.0003327787021630616, 0.10009990009990008, 0.0002853067047075606, 0.3242907322345312, 0.2777705767984446, 0.0002496878901373283, 0.0004987531172069827, 0.0019801980198019802, 0.2, 0.2, 0.0009950248756218911, 0.0006644518272425252, 0.0004987531172069827, 0.2, 0.2, 0.0019801980198019802, 0.0019801980198019802, 0.2, 0.2, 0.000995024875621891, 0.2, 0.2, 0.9920792079207921, 0.0019801980198019802, 0.2, 0.2, 0.2, 0.4985074626865672, 0.2, 0.0009950248756218907, 0.15663173111673293, 0.05103560861136619, 0.11595420953485004, 0.18750390502967818, 0.0004987531172069827, 0.10458139990850271, 0.06349748025871989, 0.09333807386338384, 0.17094265447397658, 0.14289793004996432, 0.07318619680526764, 0.06422641163249393, 0.0536454541971572, 0.07610042386697098, 0.499625468164794, 0.15957876821614722, 0.07346271415369303, 0.07708589404387409, 0.06594143178946212, 0.24996876951905056, 0.24997501249375315, 0.38250368832304243, 0.4155152732751929, 0.34614260441504496, 0.8176203451407812, 0.0002853067047075607, 0.1250936329588015, 0.43735165521549035, 0.635967302452316, 0.9960199004975124, 0.0019801980198019802, 0.4997858672376874, 0.4864090786273979, 0.48830504533829344, 0.6662781015820151, 0.000995024875621891, 0.5292181069958849, 0.3499625093726569, 0.49329422743634194, 0.4997858672376874, 0.000995024875621891, 0.13337774816788808, 0.44440564989684184, 0.5365443238629436, 0.7996002664890073, 0.2, 0.4985074626865672, 0.8417674907943188, 0.7158504715373253, 0.7611102820474556, 0.2, 0.2, 0.2, 0.2, 0.2, 0.2, 0.2, 0.2, 0.2, 0.2, 0.2, 0.2, 0.2, 0.2, 0.2, 0.2, 0.2, 0.2, 0.2, 0.2, 0.2, 0.2, 0.2, 0.2, 0.2, 0.15255041518386714, 0.05884428760476401, 5.8806233460746834e-05, 0.058906525573192245, 0.9920792079207921, 0.1285816311955435, 0.10092652050270619, 2.5313251487153527e-05, 0.2618900261842419, 0.0002219755826859045, 0.1940307416803462, 0.06384427188596958, 0.1285816311955435, 0.1714326524782174, 0.2307455803228286, 0.20512689054088698, 0.13637086694693787, 0.2151879508922921, 0.16129656507014997, 0.41648626144879264, 0.39960079840319357, 0.3332698714897668, 0.4998500749625187, 0.3414289197756644, 0.22219755826859047, 1.8866144703329877e-05, 1.8346940647647007e-05, 0.2424178154825026, 0.19642920906980899, 0.1250936329588015, 1.960592098813842e-05, 0.030547286466681933, 0.14035436524179873, 0.14932356001990862, 0.07697039600153786, 0.01565380409311045, 0.012523434570678667, 0.2163733115022513, 0.22580506424385788, 0.39996000799840026, 5.55401277422938e-05, 0.1590955573230315, 0.24528131013924, 0.24749881252968672, 0.39997647335607583, 0.15002498750624688, 0.388836434323799, 0.5244938973579727, 0.4866945028057765, 0.45498725063746814, 4.080799836768006e-05, 0.09805920407763183, 7.140307033202428e-05, 0.15791688584955288, 0.18183469573115352, 0.02504373906523369, 0.1511684687826997, 0.1777802466392623, 0.37140408513069567, 0.42850614110254215, 0.3142530705512711, 0.2413721772108257, 0.31682011682011685, 0.38539735444224565, 0.6443950672147539, 0.5997335109926716, 0.6086512335615694, 0.34813717502407227, 0.46806609460321963, 0.5356843139005446, 0.9015243402720865, 0.9234868537144874, 0.7928147989429327, 0.6922840248064996, 0.7666456797896375, 0.2, 0.2, 0.2, 0.2, 0.2, 0.2, 0.2, 0.2, 0.2, 0.2, 0.2, 0.2, 0.2, 0.2, 0.2, 0.2, 0.2, 0.2, 0.2, 0.2, 0.2, 0.2, 0.2, 0.2, 0.2, 0.2, 0.2, 0.2, 0.000995024875621891, 0.0009950248756218911, 0.2, 0.2, 0.2, 0.00011757789535567315, 6.894174422612893e-05, 0.2, 0.2, 0.2, 0.1621723858416644, 0.036393383021268856, 0.2, 0.2, 0.2, 0.09304812834224598, 0.1232981783317354, 0.2, 0.2, 0.2, 0.21428316372076414, 0.24478933388885996, 1.8516803999629667e-05, 1.526601022822685e-05, 0.1161344429391652, 0.2427142995825648, 0.15626366760387378, 0.014733127481252759, 0.019119801286542254, 0.15094493883840132, 0.17410829873666356, 0.2857040828472801, 0.02276755282890252, 0.016143859366180145, 0.14530148284261357, 0.31468130484948076, 0.39214430429383695, 0.13159694817153378, 0.061415665292518205, 0.202127546407106, 0.3110330758168623, 0.4012221467810629, 0.8747188671386923, 0.517132023440193, 0.3107958384002162, 0.44143419116543053, 0.46447364826097653, 0.0001427551748750892, 0.03035443804907604, 0.20832986255726782, 0.23075740099961553, 0.00039920159680638726, 0.0002853067047075607, 7.140307033202428e-05, 0.20833159758383668, 0.3110987668036885, 0.13795243019648398, 0.0003992015968063873, 0.39341091624323876, 0.34880260404557084, 0.3015711791779083, 0.2550964187327824, 0.0009950248756218907, 0.23527336860670195, 0.4775705118639009, 0.2846088762402892, 0.2735779643429865, 0.0019801980198019802, 0.9826911473148867, 0.6874238400249961, 0.5243704652155357, 0.5121209670898359, 0.0003327787021630616, 0.0002853067047075607, 0.043546284224250324, 0.0019801980198019802, 0.2, 0.0002496878901373283, 0.10009990009990007, 0.12003198720511796, 0.0009950248756218911, 0.0003992015968063873, 0.0009950248756218911, 0.00014275517487508918, 2.5313251487153527e-05, 0.033388870376541153, 0.11120976692563816, 0.0019801980198019802, 0.00014275517487508923, 0.017889662560257095, 0.07701767870868562, 0.00039920159680638726, 0.0019801980198019802, 0.33289036544850503, 0.00019980019980019977, 0.0004987531172069826, 0.10003332222592469, 0.2, 0.2, 0.2, 0.2, 0.0019801980198019802, 0.2, 0.3328903654485051, 0.28559201141226814, 0.000995024875621891, 0.15388162951575707, 0.2, 0.000995024875621891, 0.5451407811080836, 0.0002853067047075606, 6.058770069675855e-05, 0.2, 0.8322795341098169, 0.635967302452316, 0.3331853496115427, 0.07695462701871314, 0.2, 0.4284082798001428, 0.6215077006214537, 0.8397441023590564, 0.18584196088841695, 0.005301306809163536, 8.771545107670714e-06, 0.05785711334242386, 0.09655885800979241, 0.09211945796605711, 0.027420901246404603, 0.02632493026682806, 0.10217021144856198, 0.1485165506088908, 0.14907148624309047, 4.998750312421894e-05, 0.024702178877847043, 0.15562087547909284, 0.21823154056517774, 0.23850464067124508, 6.058770069675855e-05, 0.010328832079167098, 0.14000239990400384, 0.26397316853513864, 0.2439009093759799, 0.0003327787021630616, 9.086778736937757e-05, 0.2744951970201921, 0.36452391507807497, 0.347616704496754, 0.0003327787021630616, 0.00011757789535567315, 0.0004987531172069827, 0.0006644518272425252, 0.0004987531172069826, 0.000995024875621891, 0.0001249219237976265, 0.24987531172069832, 0.18183469573115352, 0.23527336860670195, 0.0009950248756218911, 6.664445184938355e-05, 0.00015372790161414295, 0.14289793004996432, 0.09526303261128301, 0.2, 0.00016652789342214822, 0.28559201141226814, 0.3634877384196185, 0.35131045663334237, 0.2, 0.0019801980198019802, 0.8322795341098169, 0.6045570797488955, 0.2952956177437756, 0.000995024875621891, 0.0004987531172069826, 0.0004987531172069826, 0.16672212978369388, 0.24987531172069827, 0.0002853067047075607, 0.0002496878901373283, 0.16669442131557033, 0.04769157544026654, 0.11120976692563818, 0.0019801980198019802, 0.0002853067047075607, 0.2222139948167345, 0.1481673454276194, 0.13335554815061645, 0.0009950248756218907, 0.0019801980198019802, 0.30430247718383313, 0.24136504653567734, 0.027825603998889194, 0.00033277870216306157, 0.000664451827242525, 0.5708987161198288, 0.33325930038867296, 0.10257242970686267, 0.00013324450366422383, 0.0003327787021630616, 0.0019801980198019802, 0.2, 0.2, 0.0003992015968063873, 0.0003992015968063873, 0.4992518703241895, 0.4985074626865672, 0.000995024875621891, 0.0004987531172069827, 0.0004987531172069827, 0.4992518703241895, 0.0004987531172069826, 0.1250936329588015, 0.0003992015968063873, 0.2, 0.6919292851652574, 0.4282453637660485, 0.2999000999000999, 0.2, 0.2, 0.9986688851913478, 0.9960199004975124, 0.31812812358019077, 9.17389110591257e-06, 0.004192293209489142, 0.04630341187907967, 0.03402489626556016, 0.10171157430943907, 2.061643129574271e-05, 0.004281868296226656, 0.0753467347008664, 0.06498682358037616, 0.10667288847410171, 3.920799843168006e-05, 0.012132598024362158, 0.0819152929934132, 0.1274533511976733, 0.09215385140438893, 5.8806233460746834e-05, 0.019625526909126556, 0.07292328524556012, 0.11814691363233618, 0.14915426595708622, 0.00010520778537611784, 0.031302717900656044, 0.14036134011576917, 0.24456279550024454, 0.2164325364221158, 0.2, 0.2, 0.000664451827242525, 0.000995024875621891, 0.2, 0.2, 0.2, 0.0003992015968063873, 0.2, 0.2, 0.2, 0.0019801980198019802, 0.24987531172069832, 0.000995024875621891, 0.39960079840319357, 0.2, 0.000995024875621891, 0.0019801980198019802, 0.2, 0.11120976692563818, 0.2, 0.2, 0.9920792079207921, 0.14293865905848788, 0.23807710613993338, 5.261773217574322e-05, 4.080799836768006e-05, 0.0937665989689111, 0.027825603998889194, 0.05563575791227097, 0.000181653042688465, 0.021777874375135838, 0.037766459158649304, 0.13847100446085217, 0.16667777407530823, 0.1429386590584879, 6.449532408900356e-05, 0.048411546524754066, 0.10715943581503301, 0.1290437026286083, 0.0004987531172069827, 9.086778736937757e-05, 0.15152983944259316, 0.1666746012854082, 0.035743617211212275, 0.0003327787021630616, 0.10009990009990008, 0.4282453637660485, 0.21621183463928667, 0.15741135080085178, 0.0002496878901373283, 0.0004987531172069827, 0.0019801980198019802, 0.2, 0.2, 0.0009950248756218911, 0.0006644518272425252, 0.0004987531172069827, 0.2, 0.2, 0.0019801980198019802, 0.0019801980198019802, 0.2, 0.2, 0.000995024875621891, 0.2, 0.2, 0.0019801980198019802, 0.9920792079207921, 0.2, 0.2, 0.2, 0.4985074626865672, 0.2, 0.9960199004975124 ;
}
probability ( change_num | close_num, pre_prs, total_add_line ) {
    table 0.719387434005804, 0.6297233643367529, 0.5866529190073241, 0.5228819457162741, 0.5203576084932017, 0.29960159362549804, 0.30736196319018405, 0.49880478087649416, 0.23067484662576695, 0.33307984790874534, 0.2, 0.2, 0.2, 0.2, 0.2, 0.2, 0.2, 0.2, 0.2, 0.2, 0.2, 0.2, 0.2, 0.2, 0.2, 0.2, 0.2, 0.2, 0.2, 0.2, 0.1536718499151415, 0.1751477437282298, 0.1441394720145651, 0.09740555828114628, 0.09924645091838795, 0.11784037558685447, 0.0717948717948718, 0.11150442477876107, 0.0005319148936170214, 0.0019801980198019802, 0.2, 0.2, 0.2, 0.2, 0.2, 0.2, 0.2, 0.2, 0.2, 0.2, 0.2, 0.2, 0.2, 0.2, 0.2, 0.2, 0.2, 0.002631578947368421, 0.0004694835680751174, 0.00023501762632197412, 0.061797674580519386, 0.042885343516391054, 0.03774055905488955, 0.03626184614346902, 0.0357562758182396, 0.16674057649667406, 0.00042016806722689084, 0.03870967741935484, 0.0003472222222222223, 0.0005698005698005699, 0.2, 0.2, 0.2, 0.2, 0.2, 0.2, 0.2, 0.2, 0.2, 0.2, 0.2, 0.2, 0.2, 0.2, 0.2, 0.00392156862745098, 0.007692307692307692, 0.2, 0.007692307692307692, 0.007692307692307692, 0.01798568542173213, 0.008777521125113298, 0.010122642096744069, 0.006927095948237085, 0.010259213703248142, 0.01343283582089552, 0.012753036437246963, 7.404664938911516e-05, 9.871668311944718e-05, 0.013800657174151151, 0.2, 0.2, 0.2, 0.2, 0.2, 0.2, 0.2, 0.2, 0.2, 0.2, 0.2, 0.2, 0.2, 0.2, 0.2, 0.007692307692307692, 0.100398406374502, 0.0008849557522123895, 0.0009950248756218907, 0.0015873015873015873, 0.0025288398569341592, 0.004114820746581249, 0.0007893253147904529, 0.0029887251685259205, 0.0008711885500933417, 0.27709520646131247, 0.3642648996048061, 0.4097703192775367, 0.463360316471924, 0.46448128143043393, 0.100398406374502, 0.5374233128834356, 0.49880478087649416, 0.7674846625766873, 0.47566539923954376, 0.2, 0.2, 0.2, 0.2, 0.2, 0.2, 0.2, 0.2, 0.2, 0.2, 0.2, 0.2, 0.2, 0.2, 0.2, 0.2, 0.2, 0.2, 0.2, 0.2, 0.627273978257878, 0.5039019999217251, 0.4268902926815812, 0.3722894000173155, 0.26240328332099844, 0.4112676056338028, 0.2142450142450143, 0.33274336283185846, 0.20000000000000004, 0.0019801980198019802, 0.2, 0.2, 0.2, 0.2, 0.2, 0.2, 0.2, 0.2, 0.2, 0.2, 0.2, 0.2, 0.2, 0.2, 0.2, 0.2, 0.2, 0.002631578947368421, 0.0004694835680751174, 0.00023501762632197412, 0.25848360370396156, 0.19983819293873983, 0.17997155380105076, 0.1661056962665677, 0.13406418811566573, 0.16674057649667406, 0.05294117647058825, 0.11551459293394778, 0.0003472222222222223, 0.0005698005698005699, 0.2, 0.2, 0.2, 0.2, 0.2, 0.2, 0.2, 0.2, 0.2, 0.2, 0.2, 0.2, 0.2, 0.2, 0.2, 0.00392156862745098, 0.007692307692307692, 0.2, 0.007692307692307692, 0.007692307692307692, 0.07705900482860174, 0.045326160053799594, 0.028799103529851208, 0.02595757932251479, 0.022787116760056486, 0.01343283582089552, 0.00010121457489878542, 0.009329877823028509, 0.024777887462981242, 0.013800657174151151, 0.2, 0.2, 0.2, 0.2, 0.2, 0.2, 0.2, 0.2, 0.2, 0.2, 0.2, 0.2, 0.2, 0.2, 0.2, 0.007692307692307692, 0.0007968127490039842, 0.0008849557522123895, 0.0009950248756218907, 0.0015873015873015873, 0.005047604654677346, 0.004114820746581249, 0.004704629455616113, 0.0022430352562190538, 0.009513932102606652, 0.003503374007901821, 0.005995768631990738, 0.0035625399985778276, 0.013743086333833922, 0.015142484634010056, 0.5984063745019921, 0.1539877300613497, 0.0007968127490039843, 0.0006134969325153377, 0.1904942965779468, 0.2, 0.2, 0.2, 0.2, 0.2, 0.2, 0.2, 0.2, 0.2, 0.2, 0.2, 0.2, 0.2, 0.2, 0.2, 0.2, 0.2, 0.2, 0.2, 0.2, 0.21903582404476854, 0.3199561660991741, 0.4199939312018979, 0.48989062364722513, 0.5105025903249681, 0.46995305164319245, 0.7128205128205128, 0.5539823008849558, 0.798404255319149, 0.9920792079207921, 0.2, 0.2, 0.2, 0.2, 0.2, 0.2, 0.2, 0.2, 0.2, 0.2, 0.2, 0.2, 0.2, 0.2, 0.2, 0.2, 0.2, 0.002631578947368421, 0.0004694835680751174, 0.00023501762632197412, 0.603119125530878, 0.6181094462962363, 0.5747351310557023, 0.5109507267883039, 0.482610422624722, 0.27760532150776057, 0.5256302521008404, 0.1923195084485407, 0.3909722222222223, 0.3566951566951567, 0.2, 0.2, 0.2, 0.2, 0.2, 0.2, 0.2, 0.2, 0.2, 0.2, 0.2, 0.2, 0.2, 0.2, 0.2, 0.984313725490196, 0.9692307692307692, 0.2, 0.007692307692307692, 0.9692307692307692, 0.18921269819526726, 0.11549954679687728, 0.08327211604308035, 0.08218400747378983, 0.0751765295430732, 0.0267590618336887, 0.038056680161943315, 7.404664938911516e-05, 0.03711747285291214, 0.013800657174151151, 0.2, 0.2, 0.2, 0.2, 0.2, 0.2, 0.2, 0.2, 0.2, 0.2, 0.2, 0.2, 0.2, 0.2, 0.2, 0.007692307692307692, 0.0007968127490039842, 0.0008849557522123895, 0.0009950248756218907, 0.0015873015873015873, 0.010085134250163717, 0.011301383926738122, 0.00392156862745098, 0.004480104993139653, 0.0025997372605960035, 6.992762490821998e-06, 7.983713225020955e-06, 7.110858280594467e-06, 7.325738983920002e-06, 9.312721177127956e-06, 0.0007968127490039842, 0.0006134969325153375, 0.0007968127490039843, 0.0006134969325153377, 0.00038022813688212936, 0.2, 0.2, 0.2, 0.2, 0.2, 0.2, 0.2, 0.2, 0.2, 0.2, 0.2, 0.2, 0.2, 0.2, 0.2, 0.2, 0.2, 0.2, 0.2, 0.2, 9.17389110591257e-06, 0.0009862627685804858, 0.00897078701277206, 0.040408646215116445, 0.12784094731884546, 0.0004694835680751174, 0.0005698005698005699, 0.0008849557522123895, 0.0005319148936170214, 0.0019801980198019802, 0.2, 0.2, 0.2, 0.2, 0.2, 0.2, 0.2, 0.2, 0.2, 0.2, 0.2, 0.2, 0.2, 0.2, 0.2, 0.2, 0.2, 0.9894736842105263, 0.9981220657276996, 0.999059929494712, 0.07659263385086681, 0.1391605449661823, 0.207546950741633, 0.2866749856665879, 0.34756116936765175, 0.388470066518847, 0.4205882352941177, 0.6531490015360983, 0.6079861111111112, 0.6415954415954416, 0.2, 0.2, 0.2, 0.2, 0.2, 0.2, 0.2, 0.2, 0.2, 0.2, 0.2, 0.2, 0.2, 0.2, 0.2, 0.00392156862745098, 0.007692307692307692, 0.2, 0.9692307692307692, 0.007692307692307692, 0.6600869833224888, 0.7185520891202011, 0.7143808753034924, 0.6695339261617246, 0.6833492779372238, 0.4798507462686567, 0.442914979757085, 0.25923731951129214, 0.2592300098716683, 0.3971522453450165, 0.2, 0.2, 0.2, 0.2, 0.2, 0.2, 0.2, 0.2, 0.2, 0.2, 0.2, 0.2, 0.2, 0.2, 0.2, 0.9692307692307692, 0.49880478087649405, 0.6646017699115044, 0.6228855721393035, 0.2, 0.21032693567074706, 0.1170465278633321, 0.07518010399047798, 0.055932708942313426, 0.044949180667911225, 6.992762490821998e-06, 7.983713225020955e-06, 7.110858280594467e-06, 7.325738983920002e-06, 9.312721177127956e-06, 0.0007968127490039842, 0.0006134969325153375, 0.0007968127490039843, 0.0006134969325153377, 0.00038022813688212936, 0.2, 0.2, 0.2, 0.2, 0.2, 0.2, 0.2, 0.2, 0.2, 0.2, 0.2, 0.2, 0.2, 0.2, 0.2, 0.2, 0.2, 0.2, 0.2, 0.2, 9.17389110591257e-06, 7.827482290321317e-06, 5.517089183746655e-06, 5.7718391965599835e-06, 6.72811680010765e-06, 0.0004694835680751174, 0.0005698005698005699, 0.0008849557522123895, 0.0005319148936170214, 0.0019801980198019802, 0.2, 0.2, 0.2, 0.2, 0.2, 0.2, 0.2, 0.2, 0.2, 0.2, 0.2, 0.2, 0.2, 0.2, 0.2, 0.2, 0.2, 0.002631578947368421, 0.0004694835680751174, 0.00023501762632197412, 6.96233377428114e-06, 6.472282450406135e-06, 5.80534672433311e-06, 6.745135071329802e-06, 7.944073721004132e-06, 0.00044345898004434595, 0.00042016806722689084, 0.00030721966205837174, 0.0003472222222222223, 0.0005698005698005699, 0.2, 0.2, 0.2, 0.2, 0.2, 0.2, 0.2, 0.2, 0.2, 0.2, 0.2, 0.2, 0.2, 0.2, 0.2, 0.00392156862745098, 0.007692307692307692, 0.2, 0.007692307692307692, 0.007692307692307692, 0.05565562823190985, 0.11184468290400865, 0.16342526302683183, 0.2153973910937338, 0.20842786205639832, 0.46652452025586355, 0.5061740890688259, 0.7312847093669012, 0.6787759131293188, 0.5614457831325302, 0.2, 0.2, 0.2, 0.2, 0.2, 0.2, 0.2, 0.2, 0.2, 0.2, 0.2, 0.2, 0.2, 0.2, 0.2, 0.007692307692307692, 0.39920318725099607, 0.33274336283185846, 0.3741293532338309, 0.7952380952380952, 0.7720114855674777, 0.8634224467167674, 0.9154043726116645, 0.934355425639802, 0.9420659614187928 ;
}
probability ( close_num | total_add_line, total_delete_line ) {
    table 0.31875244682239334, 0.14950188938509107, 0.06949429037520391, 0.12347600518806745, 0.04487626640093008, 0.2242746503294417, 0.1822854802375589, 0.15231255386383225, 0.16252342286071203, 0.10877598152424943, 0.2660377358490566, 0.16171897917277797, 0.16289225629399834, 0.17310756972111555, 0.17728005156300353, 0.27377049180327867, 0.18133524766690595, 0.18149354880750684, 0.1745004473605726, 0.1509068167604753, 0.29876543209876544, 0.23453947368421055, 0.20435729847494552, 0.16864171864171865, 0.1259466517440776, 0.19347514028448387, 0.1821367227756785, 0.19999999999999998, 0.14293125810635537, 0.09885401096163428, 0.19711016067506648, 0.19098914601679295, 0.19540361964952602, 0.1406620861961274, 0.13571978444957658, 0.22315608919382504, 0.23982106189498387, 0.2082329077675695, 0.2104581673306773, 0.1893651305188527, 0.2601092896174863, 0.21722900215362526, 0.22906294799947868, 0.20805249030718762, 0.21813633520950595, 0.24732510288065843, 0.21398026315789476, 0.2561002178649237, 0.19607299607299608, 0.3208729714605484, 0.19282265431293227, 0.2439711439367915, 0.23670473083197388, 0.2337224383916991, 0.28237834246802856, 0.2080915501098139, 0.21198033995494572, 0.2126400459638035, 0.19375390381011864, 0.26081601231716706, 0.2403087478559177, 0.21415371076562043, 0.21777830807779502, 0.19178286852589643, 0.199838865613922, 0.28743169398907104, 0.22261306532663316, 0.17725791737260524, 0.21028929317029527, 0.19937460913070668, 0.19588477366255141, 0.24276315789473685, 0.24793028322440086, 0.1721067221067221, 0.27050923335198657, 0.18107790682500327, 0.2714531088972862, 0.29787928221859705, 0.31802853437094686, 0.34050822122571, 0.24623742919893654, 0.24321114069219743, 0.24424016087331227, 0.27807620237351655, 0.27717474980754425, 0.1716981132075472, 0.21122029920797888, 0.2106192578451259, 0.21792828685258964, 0.20064453754431194, 0.12349726775956282, 0.1849246231155779, 0.1981102567444285, 0.19463167312854163, 0.20093808630393997, 0.2267489711934156, 0.1769736842105263, 0.1526143790849673, 0.1978054978054978, 0.136205931729155, 0.11387185175518727, 0.1529371350051529, 0.19592169657422512, 0.18184176394293128, 0.23338315894369707, 0.12428620968674141, 0.17153389309850503, 0.19540361964952602, 0.22498438475952529, 0.21751347190146264, 0.09879931389365351, 0.1730859489586389, 0.20047727001551127, 0.20672310756972112, 0.23287141475990977, 0.05519125683060109, 0.1938980617372577, 0.2140753290759807, 0.21252609603340292, 0.2306441525953721, 0.031275720164609055, 0.1317434210526316, 0.1389978213507625, 0.2653730653730654, 0.1464652117142324 ;
}
probability ( comment_num | commit_num, participants_count ) {
    table 0.8747969832923279, 0.37333992782693115, 0.013969244185071523, 0.7795540720570366, 0.24607515287891576, 0.007214434163324198, 0.661293099542386, 0.11975687330011357, 0.0015755753373786323, 0.8773333333333333, 0.4258188824662813, 0.04065040650406505, 0.1210703201633782, 0.5863420710373505, 0.19870537136724187, 0.21404834058002842, 0.6987425904511881, 0.13445322531538328, 0.3340945131620679, 0.866547043157414, 0.07192483387955682, 0.10933333333333331, 0.5645472061657033, 0.04065040650406505, 0.0041326965442938235, 0.04031800113571834, 0.7873253844476866, 0.006397587362934985, 0.05518225666989614, 0.8583323405212924, 0.0046123872955461925, 0.013696083542472409, 0.9264995907830645, 0.013333333333333332, 0.009633911368015413, 0.9186991869918699 ;
}
probability ( commit_num ) {
    table 0.16762160498050216, 0.22789389067524116, 0.6035181637818978, 0.0009663405623588972 ;
}
probability ( file_changed_num | commit_num ) {
    table 0.6453369726034386, 0.2082348305752561, 0.07551400677312853, 0.011061946902654867, 0.18209530126013979, 0.27382828623963373, 0.10425020900344324, 0.011061946902654867, 0.16985102800877505, 0.5135370933243274, 0.8195379252688705, 0.011061946902654867, 0.0027166981276465487, 0.004399789860782768, 0.000697858954557692, 0.9668141592920354 ;
}
probability ( has_assignees_content | priorities_number ) {
    table 0.9795673076923077, 0.9936719833564494, 0.9949704614402044, 0.9982646748151501, 0.9984631147540983, 0.020432692307692308, 0.006328016643550624, 0.005029538559795625, 0.0017353251848498566, 0.0015368852459016393 ;
}
probability ( has_bug | body_words ) {
    table 0.8953414839797639, 0.9534863349684654, 0.9742259271861178, 0.9913989952808646, 0.9999210734017364, 0.10465851602023608, 0.04651366503153469, 0.025774072813882273, 0.008601004719135332, 7.892659826361483e-05 ;
}
probability ( has_document | body_words, has_feature, has_improve ) {
    table 0.9396712949844148, 0.8368869936034116, 0.8588456712672522, 0.5615384615384615, 0.9414557680948703, 0.7953586497890295, 0.8760683760683761, 0.5, 0.9600216216216216, 0.9720496894409938, 0.9253393665158371, 0.9, 0.9932491872250908, 0.9, 0.9, 0.5, 0.9998223941271658, 0.5, 0.5, 0.5, 0.060328705015585155, 0.1631130063965885, 0.1411543287327478, 0.43846153846153846, 0.058544231905129716, 0.20464135021097046, 0.12393162393162394, 0.5, 0.03997837837837838, 0.027950310559006212, 0.0746606334841629, 0.1, 0.00675081277490916, 0.1, 0.1, 0.5, 0.00017760587283419506, 0.5, 0.5, 0.5 ;
}
probability ( has_feature | body_words, has_refactor ) {
    table 0.9564638175423639, 0.7857142857142857, 0.9746661950658767, 0.9392523364485982, 0.9903887227680478, 0.9901960784313726, 0.996763384357627, 0.9285714285714286, 0.9999605335859184, 0.5, 0.04353618245763615, 0.21428571428571427, 0.025333804934123266, 0.06074766355140187, 0.009611277231952157, 0.00980392156862745, 0.0032366156423730102, 0.07142857142857142, 3.946641408161654e-05, 0.5 ;
}
probability ( has_improve | body_words ) {
    table 0.9718591905564924, 0.9895760336370008, 0.9929397754338211, 0.9982493530217689, 0.9999210734017364, 0.028140809443507588, 0.010423966362999299, 0.007060224566178972, 0.0017506469782310853, 7.892659826361483e-05 ;
}
probability ( has_labels | comment_num, mergable_state, priorities_number, workload ) {
    table 0.7652760457997959, 0.7181374762894047, 0.5063687506634116, 0.6244550696104626, 0.8581198706789356, 0.8197868087941372, 0.7014591278394959, 0.5259227255894334, 0.7287950932128158, 0.9011329205638255, 0.9078549848942598, 0.7740462117141322, 0.6158684617082322, 0.7306369974214497, 0.9365128715333914, 0.5, 0.5998668442077231, 0.6264552388598956, 0.760467721607618, 0.9542687566580429, 0.9966887417218543, 0.9972375690607735, 0.8228962818003913, 0.8308012741975006, 0.9839226578357013, 0.6822600243013366, 0.6886594696572687, 0.38966785426962414, 0.563818471902145, 0.8676932746700189, 0.60710035700119, 0.6858314430291398, 0.6216059709175138, 0.677267295179923, 0.8707684040838259, 0.7497027348394768, 0.7537160430548436, 0.550712388312002, 0.7745834311194555, 0.8772943575798776, 0.6993355481727574, 0.9086781029263371, 0.7401557767200346, 0.8052196992037747, 0.8821032005225343, 0.9918032786885246, 0.8314917127071824, 0.8494176372712147, 0.9298993028659954, 0.9739538855678908, 0.883033975330015, 0.8320904218130972, 0.5409724119093144, 0.5270148581719946, 0.7197070572569907, 0.8583778685947815, 0.8373313343328336, 0.630755819915906, 0.6925181573972738, 0.947011109151825, 0.8549010140028972, 0.9202391015577829, 0.7126875978270878, 0.828825075315685, 0.9656192354175943, 0.9661487236403996, 0.9256723312984655, 0.7161478385216148, 0.8382145701856504, 0.9564055177876049, 0.9986149584487534, 0.9204124801692226, 0.9172404296337098, 0.930214030403514, 0.9778587841479675, 0.7912970510668904, 0.8058940562049242, 0.5725611394786347, 0.4590387766247952, 0.5710900473933649, 0.7396713079205661, 0.8175067243597239, 0.7366630509811656, 0.6771421073349954, 0.8885291396854764, 0.8436306837903506, 0.8570956222721862, 0.7002769261200672, 0.7449873854733767, 0.880650277557494, 0.7465570857396713, 0.8779031623146568, 0.8175318094809143, 0.7696530949373239, 0.9442387783433596, 0.8884093711467325, 0.9608394634357421, 0.8818560518398519, 0.9429778748456937, 0.9564114948080173, 0.8886489821098088, 0.9228058936579117, 0.7207591014717274, 0.3752598752598752, 0.9972375690607735, 0.8622745337817181, 0.9132415018884692, 0.7344191301073244, 0.6732101616628176, 0.9858861638130495, 0.9319593450028233, 0.9656255951247381, 0.810960943763601, 0.8290906045888461, 0.9924400634867597, 0.9270139309509389, 0.9492397481185685, 0.7696530949373239, 0.7483812758730496, 0.9933994602873606, 0.9997620180866255, 0.9818793293846, 0.9426281711071012, 0.9287342132750926, 0.9972145812625691, 0.8398489560195469, 0.7497687326549491, 0.6665692577440093, 0.36681465038845734, 0.5, 0.768152725667623, 0.9203749289907214, 0.6615689462453003, 0.4836636898279242, 0.4616368286445013, 0.8401990280027771, 0.928810486682471, 0.6361651999168457, 0.40477450072741694, 0.5805585392051558, 0.9146215448204599, 0.933477979872588, 0.6850312759721797, 0.489083763918201, 0.5685826257348139, 0.943117536140792, 0.9872389791183294, 0.8960610323558057, 0.8635904557505365, 0.9434537775692163, 0.23472395420020403, 0.2818625237105953, 0.4936312493365885, 0.3755449303895373, 0.14188012932106442, 0.1802131912058628, 0.298540872160504, 0.4740772744105666, 0.2712049067871843, 0.0988670794361744, 0.09214501510574016, 0.22595378828586785, 0.3841315382917678, 0.2693630025785503, 0.06348712846660862, 0.5, 0.400133155792277, 0.3735447611401044, 0.23953227839238198, 0.045731243341957085, 0.0033112582781456954, 0.0027624309392265192, 0.1771037181996086, 0.1691987258024994, 0.016077342164298687, 0.31773997569866336, 0.31134053034273135, 0.6103321457303759, 0.436181528097855, 0.13230672532998114, 0.39289964299881, 0.31416855697086016, 0.37839402908248615, 0.322732704820077, 0.1292315959161741, 0.2502972651605232, 0.2462839569451563, 0.4492876116879981, 0.22541656888054448, 0.12270564242012237, 0.3006644518272425, 0.09132189707366296, 0.25984422327996537, 0.1947803007962253, 0.11789679947746572, 0.00819672131147541, 0.16850828729281767, 0.15058236272878536, 0.07010069713400464, 0.02604611443210931, 0.11696602466998482, 0.1679095781869028, 0.4590275880906856, 0.4729851418280054, 0.28029294274300937, 0.14162213140521848, 0.1626686656671664, 0.36924418008409393, 0.3074818426027261, 0.05298889084817492, 0.14509898599710286, 0.0797608984422171, 0.28731240217291226, 0.1711749246843151, 0.0343807645824057, 0.033851276359600446, 0.0743276687015344, 0.2838521614783852, 0.16178542981434962, 0.04359448221239522, 0.0013850415512465372, 0.07958751983077737, 0.08275957036629028, 0.06978596959648595, 0.022141215852032565, 0.20870294893310956, 0.19410594379507584, 0.4274388605213652, 0.5409612233752048, 0.42890995260663506, 0.26032869207943393, 0.18249327564027598, 0.2633369490188344, 0.32285789266500453, 0.11147086031452359, 0.15636931620964944, 0.14290437772781375, 0.29972307387993274, 0.25501261452662327, 0.11934972244250595, 0.2534429142603287, 0.12209683768534312, 0.18246819051908567, 0.23034690506267613, 0.05576122165664044, 0.11159062885326758, 0.0391605365642579, 0.11814394816014812, 0.05702212515430634, 0.0435885051919826, 0.11135101789019124, 0.07719410634208841, 0.27924089852827266, 0.6247401247401247, 0.0027624309392265192, 0.13772546621828188, 0.08675849811153076, 0.26558086989267554, 0.32678983833718245, 0.014113836186950486, 0.06804065499717674, 0.034374404875261846, 0.18903905623639902, 0.17090939541115388, 0.007559936513240331, 0.07298606904906117, 0.05076025188143142, 0.23034690506267613, 0.2516187241269504, 0.006600539712639487, 0.00023798191337458352, 0.018120670615400063, 0.057371828892898845, 0.07126578672490742, 0.0027854187374309423, 0.16015104398045316, 0.2502312673450509, 0.3334307422559906, 0.6331853496115427, 0.5, 0.23184727433237695, 0.07962507100927854, 0.3384310537546997, 0.5163363101720758, 0.5383631713554987, 0.15980097199722287, 0.07118951331752893, 0.3638348000831544, 0.595225499272583, 0.4194414607948443, 0.08537845517954018, 0.06652202012741205, 0.31496872402782033, 0.510916236081799, 0.43141737426518617, 0.056882463859208046, 0.012761020881670531, 0.10393896764419436, 0.13640954424946344, 0.05654622243078367 ;
}
probability ( has_refactor | body_words ) {
    table 0.988933389544688, 0.9906271899088998, 0.995661789724396, 0.9994671943979296, 0.9999210734017364, 0.011066610455311973, 0.00937281009110021, 0.004338210275603947, 0.0005328056020703304, 7.892659826361483e-05 ;
}
probability ( is_weekday | priorities_number, workload ) {
    table 0.09149966967628274, 0.07612621174681619, 0.10113660282045885, 0.07769712966017815, 0.17209507042253522, 0.1069328381306097, 0.11461074137130477, 0.18330190902663213, 0.20176486199575375, 0.2464811260396673, 0.05427308447937131, 0.0365693976805088, 0.05516418588796728, 0.07010273173009574, 0.1973042948522693, 0.026539973787680204, 0.010162973814319723, 0.0290204913635876, 0.057755447219182174, 0.1594598583234947, 0.024231678486997636, 0.028184366241046404, 0.03473274183077256, 0.07820967069612339, 0.1696777036384238, 0.9085003303237172, 0.9238737882531838, 0.8988633971795411, 0.9223028703398218, 0.8279049295774648, 0.8930671618693903, 0.8853892586286953, 0.816698090973368, 0.7982351380042463, 0.7535188739603327, 0.9457269155206286, 0.9634306023194913, 0.9448358141120328, 0.9298972682699043, 0.8026957051477308, 0.9734600262123198, 0.9898370261856804, 0.9709795086364125, 0.9422445527808179, 0.8405401416765054, 0.9757683215130024, 0.9718156337589535, 0.9652672581692274, 0.9217903293038766, 0.8303222963615763 ;
}
probability ( label_count | has_labels ) {
    table 5.289997672401024e-05, 0.9997769649388883, 0.999947100023276, 0.00022303506111160675 ;
}
probability ( mergable_state | accept_num, author_identity, change_num, workload ) {
    table 0.334932178656013, 0.35525073965281384, 0.29975921967519226, 0.29273347963911245, 0.5, 0.5, 0.4000043476370593, 0.2798136975950697, 0.24609870900958966, 0.2745540090178396, 0.5, 0.5, 0.5, 0.5, 0.5, 0.5, 0.5, 0.5, 0.5, 0.5, 0.5, 0.5, 0.5, 0.5, 0.5, 0.6362397820163488, 0.7659008721548607, 0.41290884459067156, 0.5, 0.6788826713145583, 0.5, 0.5, 0.5, 0.5, 0.5, 0.9950495049504952, 0.5554938956714761, 0.6499250374812594, 0.4118165784832451, 0.004950495049504951, 0.5, 0.5, 0.5, 0.5, 0.5, 0.5, 0.5, 0.5, 0.5, 0.5, 0.5, 0.5, 0.5, 0.5, 0.5, 0.5, 0.5, 0.5, 0.5, 0.5, 0.5, 0.5, 0.5, 0.5, 0.5, 0.5, 0.5, 0.5, 0.5, 0.5, 0.5, 0.5, 0.5, 0.5, 0.5, 0.24584392316986795, 0.2377120843692795, 0.1333604918154211, 0.9950495049504952, 0.5, 0.5, 0.07173447537473232, 0.13607917828719135, 0.3809575343058742, 0.5, 0.5, 0.5, 0.5, 0.5, 0.5, 0.5, 0.5, 0.5, 0.5, 0.5, 0.5, 0.5, 0.5, 0.5, 0.5, 0.08027282266526758, 0.23395715792853541, 0.25007810059356456, 0.16722129783693843, 0.5, 0.17650230369571612, 0.26598234230401024, 0.31847519160952, 0.2961501795095434, 0.1137241536014542, 0.18754882049679739, 0.40909779562154386, 0.4144407903531991, 0.5162159970811205, 0.8922956216731793, 0.5, 0.5, 0.5, 0.5, 0.5, 0.5, 0.5, 0.5, 0.5, 0.5, 0.20059880239520958, 0.05286691215149921, 0.1433666191155492, 0.8211121047069344, 0.8150469145948908, 0.47706632419044126, 0.497076194374598, 0.5529391004274342, 0.517440846462415, 0.8407790657181234, 0.5357015351660122, 0.776901776786401, 0.7113952083752768, 0.8078468189162046, 0.9239518156832934, 0.9999138079641441, 0.978067294358076, 0.9758462835802916, 0.8996003996003995, 0.5, 0.5, 0.5, 0.5, 0.5, 0.5, 0.5, 0.5, 0.5, 0.5, 0.5, 0.5, 0.5, 0.5, 0.5, 0.5, 0.5, 0.5, 0.5, 0.5, 0.5, 0.5, 0.5, 0.5, 0.5, 0.5, 0.5, 0.5, 0.5, 0.5, 0.5, 0.5, 0.5, 0.5, 0.5, 0.5, 0.5, 0.5, 0.5, 0.8880847493182296, 0.9159108004070616, 0.5, 0.5, 0.5, 0.9995836802664446, 0.9759619230461564, 0.5, 0.5, 0.5, 0.5, 0.5, 0.5, 0.5, 0.5, 0.5, 0.5, 0.13523372061604969, 0.16722129783693843, 0.5, 0.5, 0.5, 0.5768935024990388, 0.46154437778803253, 0.31818933101937935, 0.6113488493952229, 0.7714027235501381, 0.2451105337973629, 0.35782327432999217, 0.39552433723251434, 0.5645380916582744, 0.8532302651786629, 0.533311125916056, 0.3387356877922915, 0.41361708811057013, 0.8778013568695541, 0.9671599202040353, 0.5, 0.5, 0.5, 0.5, 0.9983388704318937, 0.5, 0.23342219260246586, 0.07280494455553535, 0.0976591075347476, 0.0024875621890547268, 0.5, 0.3336106489184692, 0.4671556820670024, 0.3450758776099433, 0.36588636917824924, 0.4827645639434678, 0.5813858853621672, 0.5454132606721163, 0.8031257381308559, 0.9751967934546807, 0.5, 0.9999624088414405, 0.9766333410834689, 0.9521656354117087, 0.963358127057676, 0.5, 0.5, 0.5, 0.5, 0.5, 0.8330557868442964, 0.9950495049504952, 0.5, 0.5, 0.5, 0.5, 0.0007132667617689016, 0.0001723543605653223, 0.5, 0.5, 0.6663893510815307, 0.47369113391212836, 0.1962217581165749, 0.4444567873805821, 0.9950495049504952, 0.5, 0.5, 0.3336106489184692, 0.5998003992015968, 0.8749218912726515, 0.5, 0.5, 0.5, 0.5, 0.5, 0.5, 0.12015193922431028, 0.2576124829571277, 0.15008747813046736, 0.0024875621890547268, 0.5, 0.5, 0.5, 0.5, 0.5, 0.5, 0.5, 0.5, 0.9983388704318937, 0.9847469671590274, 0.5, 0.5, 0.5, 0.5, 0.5, 0.5, 0.5, 0.5, 0.5, 0.5, 0.3751560549313358, 0.1433666191155492, 0.0016611295681063125, 0.0024875621890547268, 0.5, 0.9991680532445923, 0.8821281599059376, 0.3051177766480257, 0.4047732412807999, 0.789321409784324, 0.7418574653337633, 0.8241402043731458, 0.7462502798298635, 0.7632980297023845, 0.7472255796066366, 0.6099539438197585, 0.5916094567448842, 0.5758345008418915, 0.7037890546320541, 0.9198200896908396, 0.6181603344846391, 0.6488435997252118, 0.5020919626793858, 0.7330409728401339, 0.9338352593284308, 0.5, 0.5, 0.5, 0.5, 0.5, 0.5, 0.5, 0.5, 0.4666777740753083, 0.8884572697003329, 0.0024875621890547268, 0.5651890482398957, 0.5, 0.9441976679622432, 0.857057843370626, 0.6248439450686641, 0.3773816261082814, 0.7142092109960728, 0.9284184219921457, 0.9675422950110805, 0.5, 0.5, 0.5, 0.9991680532445923, 0.9996156802459646, 0.5, 0.5, 0.5, 0.5, 0.5, 0.5, 0.5, 0.5, 0.9950495049504952, 0.004950495049504951, 0.5, 0.004950495049504951, 0.9995004995004995, 0.9996668887408394, 0.9983388704318937, 0.9975124378109453, 0.7139800285306704, 0.43751301812122473, 0.525419420437214, 0.8845907313633742, 0.8747657713928794, 0.8664223850766155, 0.40006662225183204, 0.5768935024990388, 0.805470702582616, 0.5, 0.5, 0.22232506479081823, 0.2001998667554963, 0.5, 0.5, 0.5, 0.5, 0.5, 0.5, 0.5998003992015968, 0.6661129568106312, 0.5, 0.5, 0.9987531172069826, 0.5651890482398957, 0.25020815986677764, 0.004950495049504951, 0.5, 0.9472507234938173, 0.004950495049504951, 0.5, 0.5, 0.5, 0.5, 0.3001998001998002, 0.0012468827930174565, 0.004950495049504951, 0.5, 0.5, 0.4445061043285239, 0.2506234413965087, 0.111542730299667, 0.16722129783693843, 0.2506234413965087, 0.9995836802664446, 0.8330557868442964, 0.5454132606721163, 0.6998001998001998, 0.9992867332382311, 0.8619441571871769, 0.7682599682965492, 0.6554491219225276, 0.7368213314621525, 0.8642596957360189, 0.7242277373889306, 0.6880568946732138, 0.6813166888275953, 0.7668925867523335, 0.9353673767041335, 0.5, 0.5, 0.5, 0.5, 0.5, 0.5, 0.5, 0.004950495049504951, 0.5, 0.5, 0.5, 0.5, 0.5, 0.5, 0.5, 0.5, 0.9975124378109453, 0.7994011976047904, 0.9987531172069826, 0.9992867332382311, 0.5, 0.9950495049504952, 0.0006242197253433207, 0.7994011976047904, 0.9284184219921457, 0.5, 0.5, 0.5, 0.5, 0.5, 0.9950495049504952, 0.004950495049504951, 0.5, 0.004950495049504951, 0.5, 0.5, 0.0024875621890547268, 0.004950495049504951, 0.5, 0.5, 0.4445061043285239, 0.6921598770176787, 0.533311125916056, 0.5454338936846888, 0.8664223850766155, 0.5, 0.6056263643405394, 0.5615733215112556, 0.7182996103469321, 0.833963939616231, 0.5, 0.5, 0.004950495049504951, 0.004950495049504951, 0.5, 0.5, 0.5, 0.004950495049504951, 0.5, 0.5, 0.5, 0.004950495049504951, 0.5, 0.5, 0.5, 0.9983388704318937, 0.004950495049504951, 0.5, 0.5, 0.9950495049504952, 0.6248439450686641, 0.6663893510815307, 0.5, 0.5, 0.9983388704318937, 0.665067821343987, 0.6447492603471862, 0.7002407803248077, 0.7072665203608876, 0.5, 0.5, 0.5999956523629407, 0.7201863024049303, 0.7539012909904104, 0.7254459909821603, 0.5, 0.5, 0.5, 0.5, 0.5, 0.5, 0.5, 0.5, 0.5, 0.5, 0.5, 0.5, 0.5, 0.5, 0.5, 0.3637602179836512, 0.2340991278451393, 0.5870911554093284, 0.5, 0.32111732868544174, 0.5, 0.5, 0.5, 0.5, 0.5, 0.004950495049504951, 0.4445061043285239, 0.3500749625187406, 0.5881834215167548, 0.9950495049504952, 0.5, 0.5, 0.5, 0.5, 0.5, 0.5, 0.5, 0.5, 0.5, 0.5, 0.5, 0.5, 0.5, 0.5, 0.5, 0.5, 0.5, 0.5, 0.5, 0.5, 0.5, 0.5, 0.5, 0.5, 0.5, 0.5, 0.5, 0.5, 0.5, 0.5, 0.5, 0.5, 0.5, 0.5, 0.5, 0.7541560768301321, 0.7622879156307205, 0.8666395081845789, 0.004950495049504951, 0.5, 0.5, 0.9282655246252676, 0.8639208217128087, 0.6190424656941258, 0.5, 0.5, 0.5, 0.5, 0.5, 0.5, 0.5, 0.5, 0.5, 0.5, 0.5, 0.5, 0.5, 0.5, 0.5, 0.5, 0.9197271773347324, 0.7660428420714647, 0.7499218994064355, 0.8327787021630616, 0.5, 0.8234976963042839, 0.7340176576959898, 0.68152480839048, 0.7038498204904566, 0.8862758463985457, 0.8124511795032026, 0.5909022043784562, 0.5855592096468009, 0.48378400291887946, 0.10770437832682073, 0.5, 0.5, 0.5, 0.5, 0.5, 0.5, 0.5, 0.5, 0.5, 0.5, 0.7994011976047904, 0.9471330878485008, 0.8566333808844508, 0.17888789529306562, 0.18495308540510924, 0.5229336758095587, 0.5029238056254021, 0.4470608995725658, 0.48255915353758505, 0.15922093428187653, 0.46429846483398785, 0.22309822321359896, 0.2886047916247232, 0.19215318108379548, 0.07604818431670664, 8.619203585588691e-05, 0.02193270564192395, 0.02415371641970847, 0.10039960039960037, 0.5, 0.5, 0.5, 0.5, 0.5, 0.5, 0.5, 0.5, 0.5, 0.5, 0.5, 0.5, 0.5, 0.5, 0.5, 0.5, 0.5, 0.5, 0.5, 0.5, 0.5, 0.5, 0.5, 0.5, 0.5, 0.5, 0.5, 0.5, 0.5, 0.5, 0.5, 0.5, 0.5, 0.5, 0.5, 0.5, 0.5, 0.5, 0.5, 0.11191525068177051, 0.08408919959293837, 0.5, 0.5, 0.5, 0.0004163197335553705, 0.024038076953843694, 0.5, 0.5, 0.5, 0.5, 0.5, 0.5, 0.5, 0.5, 0.5, 0.5, 0.8647662793839502, 0.8327787021630616, 0.5, 0.5, 0.5, 0.4231064975009612, 0.5384556222119674, 0.6818106689806206, 0.38865115060477706, 0.22859727644986194, 0.7548894662026371, 0.6421767256700078, 0.6044756627674857, 0.43546190834172566, 0.14676973482133718, 0.466688874083944, 0.6612643122077084, 0.5863829118894299, 0.12219864313044598, 0.032840079795964754, 0.5, 0.5, 0.5, 0.5, 0.0016611295681063125, 0.5, 0.7665778073975342, 0.9271950554444646, 0.9023408924652523, 0.9975124378109453, 0.5, 0.6663893510815307, 0.5328443179329976, 0.6549241223900567, 0.6341136308217508, 0.5172354360565322, 0.4186141146378328, 0.45458673932788374, 0.19687426186914417, 0.024803206545319315, 0.5, 3.7591158559506806e-05, 0.023366658916531034, 0.04783436458829129, 0.03664187294232411, 0.5, 0.5, 0.5, 0.5, 0.5, 0.16694421315570354, 0.004950495049504951, 0.5, 0.5, 0.5, 0.5, 0.9992867332382311, 0.9998276456394347, 0.5, 0.5, 0.3336106489184692, 0.5263088660878716, 0.8037782418834252, 0.5555432126194179, 0.004950495049504951, 0.5, 0.5, 0.6663893510815307, 0.40019960079840317, 0.12507810872734845, 0.5, 0.5, 0.5, 0.5, 0.5, 0.5, 0.8798480607756898, 0.7423875170428723, 0.8499125218695326, 0.9975124378109453, 0.5, 0.5, 0.5, 0.5, 0.5, 0.5, 0.5, 0.5, 0.0016611295681063125, 0.01525303284097254, 0.5, 0.5, 0.5, 0.5, 0.5, 0.5, 0.5, 0.5, 0.5, 0.5, 0.6248439450686641, 0.8566333808844508, 0.9983388704318937, 0.9975124378109453, 0.5, 0.0008319467554076539, 0.1178718400940623, 0.6948822233519742, 0.5952267587192, 0.21067859021567595, 0.25814253466623677, 0.1758597956268542, 0.2537497201701366, 0.23670197029761555, 0.2527744203933634, 0.39004605618024146, 0.40839054325511576, 0.4241654991581085, 0.2962109453679459, 0.08017991030916025, 0.3818396655153608, 0.3511564002747882, 0.4979080373206142, 0.26695902715986614, 0.0661647406715692, 0.5, 0.5, 0.5, 0.5, 0.5, 0.5, 0.5, 0.5, 0.5333222259246918, 0.111542730299667, 0.9975124378109453, 0.4348109517601043, 0.5, 0.0558023320377568, 0.14294215662937393, 0.3751560549313358, 0.6226183738917185, 0.28579078900392724, 0.07158157800785434, 0.03245770498891952, 0.5, 0.5, 0.5, 0.0008319467554076539, 0.00038431975403535736, 0.5, 0.5, 0.5, 0.5, 0.5, 0.5, 0.5, 0.5, 0.004950495049504951, 0.9950495049504952, 0.5, 0.9950495049504952, 0.0004995004995004994, 0.0003331112591605596, 0.0016611295681063125, 0.0024875621890547268, 0.2860199714693295, 0.5624869818787752, 0.474580579562786, 0.11540926863662586, 0.12523422860712052, 0.13357761492338438, 0.5999333777481679, 0.4231064975009612, 0.19452929741738406, 0.5, 0.5, 0.7776749352091819, 0.7998001332445036, 0.5, 0.5, 0.5, 0.5, 0.5, 0.5, 0.40019960079840317, 0.33388704318936874, 0.5, 0.5, 0.0012468827930174565, 0.4348109517601043, 0.7497918401332223, 0.9950495049504952, 0.5, 0.05274927650618257, 0.9950495049504952, 0.5, 0.5, 0.5, 0.5, 0.6998001998001998, 0.9987531172069826, 0.9950495049504952, 0.5, 0.5, 0.5554938956714761, 0.7493765586034913, 0.8884572697003329, 0.8327787021630616, 0.7493765586034913, 0.0004163197335553705, 0.16694421315570354, 0.45458673932788374, 0.3001998001998002, 0.0007132667617689016, 0.13805584281282318, 0.23174003170345078, 0.34455087807747253, 0.26317866853784755, 0.13574030426398115, 0.2757722626110693, 0.31194310532678615, 0.31868331117240467, 0.2331074132476665, 0.0646326232958664, 0.5, 0.5, 0.5, 0.5, 0.5, 0.5, 0.5, 0.9950495049504952, 0.5, 0.5, 0.5, 0.5, 0.5, 0.5, 0.5, 0.5, 0.0024875621890547268, 0.20059880239520958, 0.0012468827930174565, 0.0007132667617689016, 0.5, 0.004950495049504951, 0.9993757802746566, 0.20059880239520958, 0.07158157800785434, 0.5, 0.5, 0.5, 0.5, 0.5, 0.004950495049504951, 0.9950495049504952, 0.5, 0.9950495049504952, 0.5, 0.5, 0.9975124378109453, 0.9950495049504952, 0.5, 0.5, 0.5554938956714761, 0.3078401229823213, 0.466688874083944, 0.45456610631531125, 0.13357761492338438, 0.5, 0.39437363565946065, 0.4384266784887444, 0.28170038965306793, 0.16603606038376897, 0.5, 0.5, 0.9950495049504952, 0.9950495049504952, 0.5, 0.5, 0.5, 0.9950495049504952, 0.5, 0.5, 0.5, 0.9950495049504952, 0.5, 0.5, 0.5, 0.0016611295681063125, 0.9950495049504952, 0.5, 0.5, 0.004950495049504951, 0.3751560549313358, 0.3336106489184692, 0.5, 0.5, 0.0016611295681063125 ;
}
probability ( participants_count | accept_num, author_identity, change_num, commit_num ) {
