network unknown {
}
variable accept_num {
    type discrete [ 5 ] { 0, 1, 2, 3, 4 };
}
variable author_identity {
    type discrete [ 3 ] { 0, 1, 2 };
}
variable body_words {
    type discrete [ 4 ] { 0, 1, 2, 3 };
}
variable change_num {
    type discrete [ 5 ] { 0, 1, 2, 3, 4 };
}
variable close_num {
    type discrete [ 5 ] { 0, 1, 2, 3, 4 };
}
variable comment_num {
    type discrete [ 5 ] { 0, 1, 2, 3, 4 };
}
variable commit_num {
    type discrete [ 3 ] { 0, 1, 4 };
}
variable file_changed_num {
    type discrete [ 4 ] { 0, 1, 2, 4 };
}
variable has_bug {
    type discrete [ 2 ] { 0, 1 };
}
variable has_document {
    type discrete [ 2 ] { 0, 1 };
}
variable has_feature {
    type discrete [ 2 ] { 0, 1 };
}
variable has_improve {
    type discrete [ 2 ] { 0, 1 };
}
variable has_refactor {
    type discrete [ 2 ] { 0, 1 };
}
variable is_weekday {
    type discrete [ 2 ] { 0, 1 };
}
variable mergable_state {
    type discrete [ 3 ] { 0, 2, 3 };
}
variable participants_count {
    type discrete [ 4 ] { 0, 1, 2, 4 };
}
variable pre_prs {
    type discrete [ 5 ] { 0, 1, 2, 3, 4 };
}
variable priorities_number {
    type discrete [ 5 ] { 0, 1, 2, 3, 4 };
}
variable review_comment_num {
    type discrete [ 2 ] { 0, 1 };
}
variable review_num {
    type discrete [ 2 ] { 0, 1 };
}
variable title_words {
    type discrete [ 5 ] { 0, 1, 2, 3, 4 };
}
variable total_add_line {
    type discrete [ 5 ] { 0, 1, 2, 3, 4 };
}
variable total_delete_line {
    type discrete [ 5 ] { 0, 1, 2, 3, 4 };
}
variable workload {
    type discrete [ 5 ] { 0, 1, 2, 3, 4 };
}
probability ( accept_num | close_num, pre_prs ) {
    table 0.9844202898550722, 0.4727272727272727, 0.19999999999999998, 0.19999999999999998, 0.19999999999999998, 0.009523809523809523, 0.024181117533718682, 0.0020833333333333337, 0.19999999999999998, 0.19999999999999998, 0.19999999999999998, 0.00392156862745098, 9.276437847866419e-05, 0.0035714285714285718, 0.19999999999999998, 0.19999999999999998, 0.19999999999999998, 0.0011049723756906078, 8.525149190110827e-05, 0.19999999999999998, 0.19999999999999998, 0.19999999999999998, 0.19999999999999998, 0.00035650623885917997, 0.00011074197120708748, 0.015217391304347822, 0.4727272727272727, 0.19999999999999998, 0.19999999999999998, 0.19999999999999998, 0.9619047619047618, 0.9153179190751444, 0.41875000000000007, 0.19999999999999998, 0.19999999999999998, 0.19999999999999998, 0.6901960784313727, 0.03951762523191094, 0.0035714285714285718, 0.19999999999999998, 0.19999999999999998, 0.19999999999999998, 0.0011049723756906078, 8.525149190110827e-05, 0.19999999999999998, 0.19999999999999998, 0.19999999999999998, 0.19999999999999998, 0.00035650623885917997, 0.00011074197120708748, 0.00012077294685990335, 0.01818181818181818, 0.19999999999999998, 0.19999999999999998, 0.19999999999999998, 0.009523809523809523, 0.060308285163776475, 0.5750000000000001, 0.19999999999999998, 0.19999999999999998, 0.19999999999999998, 0.29803921568627456, 0.9045454545454545, 0.45, 0.19999999999999998, 0.19999999999999998, 0.19999999999999998, 0.5535911602209945, 0.04057971014492753, 0.19999999999999998, 0.19999999999999998, 0.19999999999999998, 0.19999999999999998, 0.00035650623885917997, 0.00011074197120708748, 0.00012077294685990335, 0.01818181818181818, 0.19999999999999998, 0.19999999999999998, 0.19999999999999998, 0.009523809523809523, 9.633911368015412e-05, 0.0020833333333333337, 0.19999999999999998, 0.19999999999999998, 0.19999999999999998, 0.00392156862745098, 0.053432282003710564, 0.45, 0.19999999999999998, 0.19999999999999998, 0.19999999999999998, 0.4430939226519337, 0.8121057118499574, 0.19999999999999998, 0.19999999999999998, 0.19999999999999998, 0.19999999999999998, 0.5796791443850267, 0.00011074197120708748, 0.00012077294685990335, 0.01818181818181818, 0.19999999999999998, 0.19999999999999998, 0.19999999999999998, 0.009523809523809523, 9.633911368015412e-05, 0.0020833333333333337, 0.19999999999999998, 0.19999999999999998, 0.19999999999999998, 0.00392156862745098, 0.0024118738404452686, 0.09285714285714286, 0.19999999999999998, 0.19999999999999998, 0.19999999999999998, 0.0011049723756906078, 0.14714407502131288, 0.19999999999999998, 0.19999999999999998, 0.19999999999999998, 0.19999999999999998, 0.41925133689839567, 0.9995570321151716 ;
}
probability ( author_identity | accept_num, change_num ) {
    table 0.990086741016109, 0.998800959232614, 0.9880952380952381, 0.3333333333333333, 0.3333333333333333, 0.526026026026026, 0.8175046554934824, 0.9277223014740847, 0.010752688172043012, 0.3333333333333333, 0.2729103726082578, 0.9012003693444137, 0.7987475092513522, 0.7121212121212122, 0.3333333333333333, 0.4432234432234432, 0.8497652582159625, 0.8013998250218722, 0.7774786899955137, 0.8810641627543037, 0.888888888888889, 0.7301587301587302, 0.825136612021858, 0.6261261261261262, 0.6474867724867724, 0.009603469640644364, 0.0005995203836930456, 0.005952380952380953, 0.3333333333333333, 0.3333333333333333, 0.4734734734734735, 0.00046554934823091253, 0.00047551117451260106, 0.978494623655914, 0.3333333333333333, 0.15206445115810674, 0.09787626962142199, 0.07714204383717621, 0.1982872200263505, 0.3333333333333333, 0.003663003663003663, 0.004694835680751174, 0.053368328958880135, 0.07088380439659041, 0.024256651017214404, 0.05555555555555556, 0.015873015873015872, 0.00546448087431694, 0.034909909909909914, 0.027447089947089946, 0.0003097893432465923, 0.0005995203836930456, 0.005952380952380953, 0.3333333333333333, 0.3333333333333333, 0.0005005005005005005, 0.1820297951582868, 0.07180218735140276, 0.010752688172043012, 0.3333333333333333, 0.5750251762336355, 0.0009233610341643584, 0.12411044691147168, 0.08959156785243742, 0.3333333333333333, 0.5531135531135531, 0.1455399061032864, 0.14523184601924757, 0.15163750560789593, 0.09467918622848201, 0.05555555555555556, 0.25396825396825395, 0.16939890710382516, 0.33896396396396394, 0.32506613756613756 ;
}
probability ( body_words | author_identity, file_changed_num, has_refactor ) {
    table 0.3458721704394141, 0.660958904109589, 0.22403097047225157, 0.9292452830188678, 0.1323806606663211, 0.3279220779220779, 0.25000000000000006, 0.25, 0.3252169720347155, 0.25, 0.12202007528230867, 0.25, 0.011927255550307036, 0.25, 0.023584905660377357, 0.25, 0.31488332384746726, 0.8706896551724139, 0.2998701298701299, 0.25, 0.17885375494071148, 0.9292452830188678, 0.007225433526011561, 0.25, 0.1948008715651858, 0.2664383561643835, 0.20787246321054148, 0.023584905660377353, 0.20476179256396967, 0.3279220779220779, 0.16808873720136522, 0.25, 0.11692381870781098, 0.25, 0.06179422835633627, 0.25, 0.07994803967879073, 0.25, 0.023584905660377357, 0.25, 0.20560614684120662, 0.04310344827586208, 0.2874025974025974, 0.25, 0.1955940478958382, 0.023584905660377353, 0.14595375722543352, 0.25, 0.16284348141871446, 0.0691780821917808, 0.18248052322785416, 0.023584905660377353, 0.25226191037180157, 0.3279220779220779, 0.08617747440273038, 0.25, 0.2789296046287367, 0.25, 0.12202007528230867, 0.25, 0.2159896079357581, 0.25, 0.023584905660377357, 0.25, 0.24658508821855435, 0.04310344827586208, 0.16272727272727275, 0.25, 0.22907463380609164, 0.023584905660377353, 0.007225433526011561, 0.25, 0.2964834765766856, 0.003424657534246575, 0.3856160430893527, 0.023584905660377353, 0.41059563639790775, 0.016233766233766232, 0.4957337883959045, 0.25, 0.2789296046287367, 0.25, 0.6941656210790464, 0.25, 0.6921350968351441, 0.25, 0.9292452830188679, 0.25, 0.23292544109277177, 0.04310344827586208, 0.25, 0.25, 0.3964775633573588, 0.023584905660377353, 0.8395953757225434, 0.25 ;
}
probability ( change_num | accept_num, close_num, pre_prs ) {
    table 0.650251502883082, 0.9692307692307692, 0.2, 0.2, 0.2, 0.2, 0.2000000000000001, 0.2, 0.2, 0.2, 0.2, 0.2, 0.2, 0.2, 0.2, 0.2, 0.2, 0.2, 0.2, 0.2, 0.2, 0.2, 0.2, 0.2, 0.2, 0.7952380952380952, 0.9692307692307692, 0.2, 0.2, 0.2, 0.0019801980198019802, 0.33156509841069365, 0.24975124378109456, 0.2, 0.2, 0.2, 0.0011363636363636363, 0.0004694835680751174, 0.2, 0.2, 0.2, 0.2, 0.2, 0.2, 0.2, 0.2, 0.2, 0.2, 0.2, 0.2, 0.2, 0.2, 0.2, 0.2, 0.2, 0.2, 0.16006389776357827, 0.1818840579710145, 0.2, 0.2, 0.2, 0.002631578947368421, 0.14359552866372682, 0.0015873015873015873, 0.2, 0.2, 0.2, 0.2, 0.00042016806722689084, 0.2, 0.2, 0.2, 0.2, 0.2, 0.2, 0.2, 0.2, 0.2, 0.2, 0.2, 0.2, 0.2, 0.2, 0.2, 0.2, 0.2, 0.2, 0.08715277777777779, 0.0015873015873015873, 0.2, 0.2, 0.2, 0.24987531172069827, 0.03151375183707747, 0.2, 0.2, 0.2, 0.2, 0.0001230012300123001, 0.2, 0.2, 0.2, 0.2, 0.2, 0.2, 0.2, 0.2, 0.2, 0.2, 0.2, 0.2, 0.2, 0.007692307692307692, 0.007692307692307692, 0.2, 0.2, 0.2, 0.2, 0.014600231749710311, 0.2, 0.2, 0.2, 0.2, 0.00017006802721088437, 2.2158209616662976e-05, 0.31593669488406334, 0.007692307692307692, 0.2, 0.2, 0.2, 0.2, 0.7976095617529884, 0.2, 0.2, 0.2, 0.2, 0.2, 0.2, 0.2, 0.2, 0.2, 0.2, 0.2, 0.2, 0.2, 0.2, 0.2, 0.2, 0.2, 0.2, 0.2, 0.007692307692307692, 0.2, 0.2, 0.2, 0.2495049504950495, 0.344721608251763, 0.6228855721393035, 0.2, 0.2, 0.2, 0.0011363636363636363, 0.2938967136150235, 0.2, 0.2, 0.2, 0.2, 0.2, 0.2, 0.2, 0.2, 0.2, 0.2, 0.2, 0.2, 0.2, 0.2, 0.2, 0.2, 0.2, 0.2, 0.0003194888178913738, 0.27246376811594203, 0.2, 0.2, 0.2, 0.002631578947368421, 0.17692544354425188, 0.0015873015873015873, 0.2, 0.2, 0.2, 0.00039920159680638726, 0.00042016806722689084, 0.2, 0.2, 0.2, 0.2, 0.2, 0.2, 0.2, 0.2, 0.2, 0.2, 0.2, 0.2, 0.2, 0.2, 0.2, 0.2, 0.2, 0.2, 0.043750000000000004, 0.3984126984126984, 0.2, 0.2, 0.2, 0.0004987531172069826, 0.0288893554482469, 0.2, 0.2, 0.2, 0.2, 0.0001230012300123001, 0.2, 0.2, 0.2, 0.2, 0.2, 0.2, 0.2, 0.2, 0.2, 0.2, 0.2, 0.2, 0.2, 0.9692307692307692, 0.9692307692307692, 0.2, 0.2, 0.2, 0.2, 0.029084588644264192, 0.2, 0.2, 0.2, 0.2, 0.00017006802721088437, 2.2158209616662976e-05, 0.033762728499570606, 0.007692307692307692, 0.2, 0.2, 0.2, 0.2, 0.0007968127490039844, 0.2, 0.2, 0.2, 0.2, 0.2, 0.2, 0.2, 0.2, 0.2, 0.2, 0.2, 0.2, 0.2, 0.2, 0.2, 0.2, 0.2, 0.2, 0.0015873015873015873, 0.007692307692307692, 0.2, 0.2, 0.2, 0.7445544554455445, 0.3078833806967688, 0.12537313432835823, 0.2, 0.2, 0.2, 0.9954545454545455, 0.7046948356807512, 0.2, 0.2, 0.2, 0.2, 0.2, 0.2, 0.2, 0.2, 0.2, 0.2, 0.2, 0.2, 0.2, 0.2, 0.2, 0.2, 0.2, 0.2, 0.5993610223642173, 0.3630434782608696, 0.2, 0.2, 0.2, 0.9894736842105263, 0.49484155471233726, 0.3984126984126984, 0.2, 0.2, 0.2, 0.29980039920159685, 0.5781512605042017, 0.2, 0.2, 0.2, 0.2, 0.2, 0.2, 0.2, 0.2, 0.2, 0.2, 0.2, 0.2, 0.2, 0.2, 0.2, 0.2, 0.2, 0.2, 0.3041666666666667, 0.0015873015873015873, 0.2, 0.2, 0.2, 0.18753117206982545, 0.1653579676674365, 0.2, 0.2, 0.2, 0.2, 0.046248462484624844, 0.2, 0.2, 0.2, 0.2, 0.2, 0.2, 0.2, 0.2, 0.2, 0.2, 0.2, 0.2, 0.2, 0.007692307692307692, 0.007692307692307692, 0.2, 0.2, 0.2, 0.2, 0.11599073001158747, 0.2, 0.2, 0.2, 0.2, 0.08520408163265307, 2.2158209616662976e-05, 2.4536866642129805e-05, 0.007692307692307692, 0.2, 0.2, 0.2, 0.2, 0.0007968127490039844, 0.2, 0.2, 0.2, 0.2, 0.2, 0.2, 0.2, 0.2, 0.2, 0.2, 0.2, 0.2, 0.2, 0.2, 0.2, 0.2, 0.2, 0.2, 0.0015873015873015873, 0.007692307692307692, 0.2, 0.2, 0.2, 0.0019801980198019802, 0.015808862225028947, 0.0009950248756218907, 0.2, 0.2, 0.2, 0.0011363636363636363, 0.0004694835680751174, 0.2, 0.2, 0.2, 0.2, 0.2, 0.2, 0.2, 0.2, 0.2, 0.2, 0.2, 0.2, 0.2, 0.2, 0.2, 0.2, 0.2, 0.2, 0.23993610223642173, 0.1818840579710145, 0.2, 0.2, 0.2, 0.002631578947368421, 0.1846169623628346, 0.5968253968253968, 0.2, 0.2, 0.2, 0.4994011976047904, 0.4205882352941177, 0.2, 0.2, 0.2, 0.2, 0.2, 0.2, 0.2, 0.2, 0.2, 0.2, 0.2, 0.2, 0.2, 0.2, 0.2, 0.2, 0.2, 0.2, 0.5645833333333333, 0.5968253968253968, 0.2, 0.2, 0.2, 0.5615960099750623, 0.6220029393239555, 0.2, 0.2, 0.2, 0.2, 0.5382533825338254, 0.2, 0.2, 0.2, 0.2, 0.2, 0.2, 0.2, 0.2, 0.2, 0.2, 0.2, 0.2, 0.2, 0.007692307692307692, 0.007692307692307692, 0.2, 0.2, 0.2, 0.2, 0.5070683661645423, 0.2, 0.2, 0.2, 0.2, 0.5103741496598639, 2.2158209616662976e-05, 2.4536866642129805e-05, 0.007692307692307692, 0.2, 0.2, 0.2, 0.2, 0.0007968127490039844, 0.2, 0.2, 0.2, 0.2, 0.2, 0.2, 0.2, 0.2, 0.2, 0.2, 0.2, 0.2, 0.2, 0.2, 0.2, 0.2, 0.2, 0.2, 0.0015873015873015873, 0.007692307692307692, 0.2, 0.2, 0.2, 0.0019801980198019802, 2.105041574571098e-05, 0.0009950248756218907, 0.2, 0.2, 0.2, 0.0011363636363636363, 0.0004694835680751174, 0.2, 0.2, 0.2, 0.2, 0.2, 0.2, 0.2, 0.2, 0.2, 0.2, 0.2, 0.2, 0.2, 0.2, 0.2, 0.2, 0.2, 0.2, 0.0003194888178913738, 0.0007246376811594204, 0.2, 0.2, 0.2, 0.002631578947368421, 2.0510716849553894e-05, 0.0015873015873015873, 0.2, 0.2, 0.2, 0.00039920159680638726, 0.00042016806722689084, 0.2, 0.2, 0.2, 0.2, 0.2, 0.2, 0.2, 0.2, 0.2, 0.2, 0.2, 0.2, 0.2, 0.2, 0.2, 0.2, 0.2, 0.2, 0.00034722222222222224, 0.0015873015873015873, 0.2, 0.2, 0.2, 0.0004987531172069826, 0.15223598572328365, 0.2, 0.2, 0.2, 0.2, 0.41525215252152514, 0.2, 0.2, 0.2, 0.2, 0.2, 0.2, 0.2, 0.2, 0.2, 0.2, 0.2, 0.2, 0.2, 0.007692307692307692, 0.007692307692307692, 0.2, 0.2, 0.2, 0.2, 0.33325608342989566, 0.2, 0.2, 0.2, 0.2, 0.40408163265306124, 0.9999113671615334 ;
}
probability ( close_num | pre_prs ) {
    table 0.9857142857142859, 0.005140186915887851, 0.00041067761806981524, 0.0003372681281618887, 0.0005524861878453039, 0.012500000000000002, 0.9700934579439253, 0.03942505133470226, 0.0003372681281618887, 0.0005524861878453039, 0.0005952380952380954, 0.02383177570093458, 0.8854209445585216, 0.018887015177065765, 0.0005524861878453039, 0.0005952380952380954, 0.0004672897196261683, 0.07433264887063656, 0.7912310286677908, 0.0005524861878453039, 0.0005952380952380954, 0.0004672897196261683, 0.00041067761806981524, 0.18920741989881956, 0.9977900552486187 ;
}
probability ( comment_num | participants_count, review_comment_num ) {
    table 0.7840845854201447, 0.5623856567874131, 0.5364806866952789, 0.2040302267002519, 0.24671532846715327, 0.06816922224274893, 0.047619047619047616, 0.0004422821760283061, 0.18308291597106288, 0.4306622758873033, 0.3098712446351931, 0.45032185838231176, 0.27007299270072993, 0.23369665619804175, 0.047619047619047616, 0.011057054400707651, 0.018363939899833055, 0.0062202707647274055, 0.09012875536480687, 0.3338930870417017, 0.17664233576642335, 0.24108627378533162, 0.047619047619047616, 0.04997788589119859, 0.013912075681691708, 0.00036589828027808267, 0.048927038626609444, 0.011474951021550517, 0.2116788321167883, 0.4435617956770737, 0.8095238095238095, 0.26581158779301195, 0.0005564830272676684, 0.00036589828027808267, 0.014592274678111588, 0.000279876854184159, 0.0948905109489051, 0.01348605209680399, 0.047619047619047616, 0.6727111897390535 ;
}
probability ( commit_num | comment_num, mergable_state, review_comment_num ) {
    table 0.5525884282033263, 0.28093158660844253, 0.7088791848617175, 0.5248826291079812, 0.3333333333333333, 0.3333333333333334, 0.25302740599107715, 0.11223562994680163, 0.5977961432506886, 0.27173169062286107, 0.4871794871794872, 0.3333333333333333, 0.27619047619047615, 0.06959706959706961, 0.3333333333333334, 0.26346433770014555, 0.3333333333333333, 0.025641025641025647, 0.2859960552268244, 0.04559986538785126, 0.4871794871794872, 0.22485875706214686, 0.3333333333333333, 0.047619047619047616, 0.00546448087431694, 0.08479874951152797, 0.3333333333333333, 0.45957918050941304, 0.3333333333333333, 0.14728682170542637, 0.44717732490044515, 0.718860469952173, 0.2896652110625909, 0.47417840375586856, 0.3333333333333333, 0.6491228070175439, 0.7463352453792225, 0.8876346178798495, 0.39944903581267216, 0.7152635181382614, 0.4871794871794872, 0.3333333333333333, 0.7219047619047618, 0.9163292847503375, 0.6491228070175439, 0.735080058224163, 0.3333333333333333, 0.9487179487179489, 0.7120315581854043, 0.9542318694262157, 0.4871794871794872, 0.7536723163841808, 0.3333333333333333, 0.9047619047619048, 0.9890710382513661, 0.9148104728409536, 0.3333333333333333, 0.5193798449612403, 0.3333333333333333, 0.8449612403100776, 0.000234246896228625, 0.00020794343938448744, 0.0014556040756914116, 0.0009389671361502346, 0.3333333333333333, 0.01754385964912281, 0.0006373486297004461, 0.0001297521733489036, 0.002754820936639118, 0.01300479123887748, 0.02564102564102564, 0.3333333333333333, 0.0019047619047619043, 0.014073645652593022, 0.01754385964912281, 0.0014556040756914116, 0.3333333333333333, 0.025641025641025647, 0.001972386587771203, 0.00016826518593303046, 0.02564102564102564, 0.021468926553672316, 0.3333333333333333, 0.047619047619047616, 0.00546448087431694, 0.000390777647518562, 0.3333333333333333, 0.021040974529346623, 0.3333333333333333, 0.007751937984496124 ;
}
probability ( file_changed_num | commit_num, review_comment_num ) {
    table 0.5721872541306058, 0.397313156269302, 0.3344067796610169, 0.11307971425331671, 0.25, 0.026595744680851068, 0.28422501966955155, 0.34172328597899937, 0.37508474576271184, 0.20696791019389954, 0.25, 0.026595744680851068, 0.14260424862313137, 0.2527794935145151, 0.2896610169491525, 0.67164644517519, 0.25, 0.026595744680851068, 0.000983477576711251, 0.008184064237183448, 0.000847457627118644, 0.008305930377593833, 0.25, 0.9202127659574468 ;
}
probability ( has_bug | body_words ) {
    table 0.8900277008310249, 0.9432930339666091, 0.9730953649440597, 0.9980910425844347, 0.10997229916897507, 0.056706966033390906, 0.026904635055940332, 0.0019089574155653451 ;
}
probability ( has_document | body_words ) {
    table 0.9210526315789473, 0.966321243523316, 0.9667021843367075, 0.995741556534508, 0.07894736842105263, 0.03367875647668394, 0.033297815663292485, 0.004258443465491923 ;
}
probability ( has_feature | body_words ) {
    table 0.9476454293628809, 0.9847438111686816, 0.9944059669685669, 0.9992657856093979, 0.05235457063711911, 0.015256188831318365, 0.005594033031433138, 0.0007342143906020558 ;
}
probability ( has_improve | body_words ) {
    table 0.9476454293628809, 0.9870466321243523, 0.9944059669685669, 0.9992657856093979, 0.05235457063711911, 0.012953367875647668, 0.005594033031433138, 0.0007342143906020558 ;
}
probability ( has_refactor ) {
    table 0.9884406165004533, 0.011559383499546692 ;
}
probability ( is_weekday | has_document ) {
    table 0.11759887666744676, 0.23381294964028776, 0.8824011233325533, 0.7661870503597122 ;
}
probability ( mergable_state | accept_num ) {
    table 0.9773175542406313, 0.9133175728920411, 0.8403656821378341, 0.7827562797012899, 0.7256944444444445, 0.018737672583826432, 0.08353033884948781, 0.15471167369901548, 0.20638153428377462, 0.2611111111111111, 0.0039447731755424065, 0.0031520882584712374, 0.0049226441631504934, 0.010862186014935507, 0.013194444444444446 ;
}
probability ( participants_count | mergable_state, review_comment_num, workload ) {
    table 0.4043837357052097, 0.43968386023294503, 0.6122540250447227, 0.5164756446991404, 0.55, 0.1160837551771744, 0.18232104121475054, 0.22989468645284825, 0.23906337633202468, 0.40584415584415584, 0.49657534246575347, 0.37244897959183676, 0.44266055045871555, 0.6804347826086956, 0.4932432432432432, 0.10798816568047338, 0.07765957446808511, 0.1893258426966292, 0.23367029548989113, 0.13857142857142857, 0.25, 0.8928571428571427, 0.8928571428571427, 0.25, 0.25, 0.008064516129032258, 0.03571428571428571, 0.3289473684210526, 0.49000000000000005, 0.25, 0.30527318932655656, 0.3997504159733777, 0.268783542039356, 0.34455587392550147, 0.33181818181818185, 0.1602623101702715, 0.23177874186550976, 0.2701053135471517, 0.4106842400448682, 0.31233766233766236, 0.33219178082191786, 0.25, 0.33256880733944955, 0.15869565217391302, 0.33108108108108103, 0.1789940828402367, 0.25638297872340426, 0.24325842696629213, 0.23367029548989113, 0.17285714285714285, 0.25, 0.035714285714285705, 0.035714285714285705, 0.25, 0.25, 0.008064516129032258, 0.03571428571428571, 0.013157894736842103, 0.01, 0.25, 0.2900254129606099, 0.1501663893510815, 0.11851520572450804, 0.13825214899713467, 0.11363636363636365, 0.46398987574781403, 0.40097613882863337, 0.4481809478219243, 0.30973079080201904, 0.25, 0.1678082191780822, 0.37244897959183676, 0.22247706422018348, 0.15869565217391302, 0.006756756756756756, 0.39201183431952663, 0.43510638297872345, 0.2702247191011236, 0.2523328149300155, 0.4471428571428571, 0.25, 0.035714285714285705, 0.035714285714285705, 0.25, 0.25, 0.20161290322580647, 0.03571428571428571, 0.3289473684210526, 0.01, 0.25, 0.0003176620076238882, 0.010399334442595673, 0.00044722719141323787, 0.0007163323782234957, 0.004545454545454545, 0.25966405890474, 0.18492407809110628, 0.051819052178075635, 0.04052159282108805, 0.031818181818181815, 0.003424657534246575, 0.005102040816326531, 0.002293577981651376, 0.0021739130434782605, 0.16891891891891891, 0.32100591715976334, 0.23085106382978723, 0.29719101123595504, 0.28032659409020216, 0.24142857142857144, 0.25, 0.035714285714285705, 0.035714285714285705, 0.25, 0.25, 0.782258064516129, 0.8928571428571429, 0.3289473684210526, 0.49000000000000005, 0.25 ;
}
probability ( pre_prs | has_refactor, workload ) {
    table 0.2945868945868946, 0.1943449575871819, 0.11119473189087488, 0.02295760082730093, 0.0009216589861751152, 0.328, 0.6, 0.015384615384615385, 0.43999999999999995, 0.2, 0.13884140550807217, 0.27351555136663525, 0.22220131702728127, 0.18014477766287487, 0.010138248847926268, 0.16800000000000004, 0.3142857142857143, 0.015384615384615385, 0.039999999999999994, 0.2, 0.23380816714150046, 0.16795475966069745, 0.22784571966133582, 0.24839710444674248, 0.23133640552995394, 0.24800000000000005, 0.02857142857142857, 0.7846153846153846, 0.039999999999999994, 0.2, 0.21291547958214624, 0.24147031102733268, 0.2824082784571966, 0.3166494312306101, 0.4248847926267281, 0.16800000000000004, 0.02857142857142857, 0.015384615384615385, 0.43999999999999995, 0.2, 0.11984805318138651, 0.12271442035815268, 0.15634995296331136, 0.23185108583247155, 0.3327188940092166, 0.08800000000000002, 0.02857142857142857, 0.16923076923076924, 0.039999999999999994, 0.2 ;
}
probability ( priorities_number | comment_num, mergable_state ) {
    table 0.35109054857898214, 0.6376712328767123, 0.31999999999999995, 0.16313065976714103, 0.4546052631578948, 0.02857142857142857, 0.11050420168067229, 0.19516129032258067, 0.02857142857142857, 0.1062325581395349, 0.17662337662337663, 0.05, 0.09890590809628008, 0.1205298013245033, 0.41818181818181815, 0.30746860541969595, 0.1445205479452055, 0.31999999999999995, 0.20970245795601555, 0.13881578947368423, 0.45714285714285713, 0.19243697478991598, 0.1709677419354839, 0.02857142857142857, 0.1592558139534884, 0.0987012987012987, 0.05, 0.09890590809628008, 0.060927152317880796, 0.00909090909090909, 0.1845340383344349, 0.10342465753424658, 0.31999999999999995, 0.24851228978007764, 0.0993421052631579, 0.02857142857142857, 0.23970588235294119, 0.12258064516129033, 0.02857142857142857, 0.1843720930232558, 0.1181818181818182, 0.05, 0.18424507658643324, 0.08079470198675495, 0.00909090909090909, 0.10720423000660939, 0.06232876712328767, 0.019999999999999997, 0.22716688227684348, 0.11907894736842106, 0.45714285714285713, 0.24285714285714285, 0.1467741935483871, 0.02857142857142857, 0.2736744186046512, 0.15714285714285714, 0.05, 0.30897155361050327, 0.02119205298013245, 0.00909090909090909, 0.049702577660277594, 0.052054794520547946, 0.019999999999999997, 0.15148771021992238, 0.1881578947368421, 0.02857142857142857, 0.21449579831932772, 0.3645161290322581, 0.8857142857142858, 0.2764651162790698, 0.4493506493506494, 0.8, 0.30897155361050327, 0.7165562913907285, 0.5545454545454545 ;
}
probability ( review_comment_num | close_num, review_num ) {
    table 0.7119815668202765, 0.0011086474501108647, 0.6601731601731602, 0.006955177743431221, 0.6255411255411255, 0.04518518518518518, 0.7772277227722773, 0.20472008781558726, 0.9545454545454546, 0.1648879402347919, 0.2880184331797235, 0.9988913525498891, 0.3398268398268398, 0.9930448222565688, 0.37445887445887444, 0.9548148148148148, 0.22277227722772278, 0.7952799121844127, 0.045454545454545456, 0.8351120597652081 ;
}
probability ( review_num | change_num ) {
    table 0.3444700460829493, 0.23623188405797102, 0.2626582278481013, 0.07650862068965517, 0.009202453987730062, 0.6555299539170507, 0.763768115942029, 0.7373417721518988, 0.9234913793103449, 0.99079754601227 ;
}
probability ( title_words | total_add_line ) {
    table 0.2262833675564682, 0.2671264367816092, 0.3346062052505967, 0.28477064220183484, 0.175625, 0.20574948665297743, 0.2671264367816092, 0.2677804295942721, 0.27192660550458714, 0.2475, 0.14209445585215608, 0.18666666666666668, 0.14367541766109787, 0.1398165137614679, 0.11625, 0.2427104722792608, 0.19816091954022988, 0.17947494033412892, 0.20770642201834863, 0.294375, 0.1831622176591376, 0.08091954022988507, 0.07446300715990455, 0.09577981651376147, 0.16625 ;
}
probability ( total_add_line | file_changed_num, review_comment_num ) {
    table 0.860036832412523, 0.7423481041571494, 0.2628992628992629, 0.14654900724866057, 0.04059040590405904, 0.005802249851983422, 0.2, 0.005780346820809248, 0.12829957028852057, 0.19780721790772043, 0.5184275184275184, 0.40119760479041916, 0.2865928659286593, 0.08253404381290705, 0.2, 0.005780346820809248, 0.010435850214855739, 0.04431247144814984, 0.17772317772317772, 0.28017648912700915, 0.3948339483394834, 0.21420959147424512, 0.2, 0.005780346820809248, 0.0006138735420503376, 0.004111466423024212, 0.03357903357903358, 0.15915537346359912, 0.17835178351783518, 0.4330373001776199, 0.2, 0.005780346820809248, 0.0006138735420503376, 0.011420740063956145, 0.007371007371007371, 0.012921525370312008, 0.0996309963099631, 0.2644168146832445, 0.2, 0.976878612716763 ;
}
probability ( total_delete_line | file_changed_num, total_add_line ) {
    table 0.7060145406477197, 0.5613707165109035, 0.5649122807017543, 0.8399999999999999, 0.9384615384615387, 0.4178117048346056, 0.21427072402938088, 0.022061482820976492, 0.08864468864468865, 0.648, 0.19999999999999998, 0.1552688172043011, 0.007699530516431925, 0.0022093634928984744, 0.017458945548833187, 0.2, 0.2, 0.2, 0.2, 0.0023529411764705885, 0.1561136814276272, 0.3246105919003116, 0.4245614035087718, 0.039999999999999994, 0.015384615384615389, 0.2651399491094148, 0.4451206715634837, 0.41265822784810124, 0.08864468864468865, 0.16800000000000004, 0.19999999999999998, 0.39612903225806456, 0.30816901408450703, 0.03377169910573382, 0.024373379429559205, 0.2, 0.2, 0.2, 0.2, 0.0023529411764705885, 0.04771976206212822, 0.1003115264797508, 0.0035087719298245606, 0.039999999999999994, 0.015384615384615389, 0.13282442748091605, 0.21427072402938088, 0.3764918625678119, 0.5721611721611721, 0.16800000000000004, 0.004878048780487805, 0.18107526881720432, 0.3307042253521127, 0.3262493424513414, 0.08660328435609335, 0.2, 0.2, 0.2, 0.2, 0.0023529411764705885, 0.0371447455386649, 0.0006230529595015578, 0.0035087719298245606, 0.039999999999999994, 0.015384615384615389, 0.08193384223918578, 0.0925498426023085, 0.1450271247739602, 0.1619047619047619, 0.008000000000000002, 0.10243902439024391, 0.1466666666666667, 0.187981220657277, 0.48195686480799577, 0.7296456352636128, 0.2, 0.2, 0.2, 0.2, 0.0023529411764705885, 0.05300727032385987, 0.013084112149532713, 0.0035087719298245606, 0.039999999999999994, 0.015384615384615389, 0.10229007633587789, 0.033788037775445964, 0.04376130198915009, 0.08864468864468865, 0.008000000000000002, 0.4926829268292683, 0.12086021505376346, 0.16544600938967136, 0.15581273014203048, 0.14191875540190146, 0.2, 0.2, 0.2, 0.2, 0.9905882352941177 ;
}
probability ( workload | has_refactor ) {
    table 0.24145838110525109, 0.49019607843137253, 0.24329282274707636, 0.13725490196078433, 0.24375143315753267, 0.2549019607843137, 0.22173813345562945, 0.09803921568627451, 0.04975922953451043, 0.0196078431372549 ;
}
