network unknown {
}
variable accept_num {
    type discrete [ 4 ] { 0, 1, 2, 3 };
}
variable author_identity {
    type discrete [ 4 ] { 0, 1, 2, 3 };
}
variable body_words {
    type discrete [ 5 ] { 0, 1, 2, 3, 4 };
}
variable change_num {
    type discrete [ 4 ] { 0, 1, 2, 3 };
}
variable close_num {
    type discrete [ 4 ] { 0, 1, 2, 3 };
}
variable comment_num {
    type discrete [ 4 ] { 0, 1, 2, 3 };
}
variable commit_num {
    type discrete [ 4 ] { 0, 1, 2, 4 };
}
variable file_changed_num {
    type discrete [ 4 ] { 0, 1, 2, 4 };
}
variable has_assignees_content {
    type discrete [ 2 ] { 0, 1 };
}
variable has_bug {
    type discrete [ 2 ] { 0, 1 };
}
variable has_document {
    type discrete [ 2 ] { 0, 1 };
}
variable has_feature {
    type discrete [ 2 ] { 0, 1 };
}
variable has_improve {
    type discrete [ 2 ] { 0, 1 };
}
variable has_labels {
    type discrete [ 2 ] { 0, 1 };
}
variable has_refactor {
    type discrete [ 2 ] { 0, 1 };
}
variable is_weekday {
    type discrete [ 2 ] { 0, 1 };
}
variable label_count {
    type discrete [ 4 ] { 0, 1, 2, 4 };
}
variable mergable_state {
    type discrete [ 4 ] { 0, 1, 2, 3 };
}
variable participants_count {
    type discrete [ 4 ] { 0, 1, 2, 3 };
}
variable pre_prs {
    type discrete [ 4 ] { 0, 1, 2, 3 };
}
variable priorities_number {
    type discrete [ 5 ] { 0, 1, 2, 3, 4 };
}
variable review_comment_num {
    type discrete [ 2 ] { 0, 1 };
}
variable title_words {
    type discrete [ 5 ] { 0, 1, 2, 3, 4 };
}
variable total_add_line {
    type discrete [ 5 ] { 0, 1, 2, 3, 4 };
}
variable total_delete_line {
    type discrete [ 5 ] { 0, 1, 2, 3, 4 };
}
variable workload {
    type discrete [ 5 ] { 0, 1, 2, 3, 4 };
}
probability ( accept_num | has_refactor, label_count ) {
    table 0.12079982301345618, 0.10634607536389606, 0.16348375362532566, 0.06431334622823985, 0.2725140712945591, 0.01, 0.06954887218045112, 0.25, 0.23802738085942585, 0.1854282864009432, 0.20071195661079158, 0.11073500967117988, 0.4226078799249531, 0.33, 0.3101503759398496, 0.25, 0.2222027016475365, 0.20937060717362718, 0.19927001917121367, 0.0488394584139265, 0.2124765478424015, 0.458, 0.25, 0.25, 0.4189700944795815, 0.49885503106153356, 0.4365342705926691, 0.7761121856866537, 0.0924015009380863, 0.202, 0.37030075187969924, 0.25 ;
}
probability ( author_identity | accept_num, close_num, label_count ) {
    table 0.49470330272714813, 0.27880204401602693, 0.6867486603395958, 0.985632183908046, 0.8198386199220924, 0.29153147306943544, 0.39443988510463684, 0.25, 0.25, 0.25, 0.25, 0.25, 0.25, 0.25, 0.25, 0.25, 0.9011981742107266, 0.4821332616872649, 0.8033343061432949, 0.018115942028985508, 0.861492526102306, 0.7372228161533951, 0.6983270766819867, 0.7915384615384615, 0.8772333044232438, 0.6754928931682714, 0.875939487377144, 0.9456521739130435, 0.25, 0.25, 0.0016170763260025874, 0.25, 0.25, 0.25, 0.25, 0.25, 0.8025709900230238, 0.7129938786867001, 0.770941798119512, 0.9718045112781954, 0.8994046110970357, 0.7363604711011535, 0.8302279180895911, 0.9456521739130435, 0.9888660640920296, 0.7989278752436647, 0.742723054207973, 0.25, 0.25, 0.25, 0.25, 0.25, 0.25, 0.25, 0.9718045112781954, 0.9456521739130435, 0.8891708054415893, 0.8260713716743667, 0.85695468914647, 0.9718045112781954, 0.7156932913445939, 0.6210711016173329, 0.6894762056850846, 0.3402754729505476, 0.49294915718788546, 0.5575315022356425, 0.28264252049841826, 0.004789272030651341, 0.17877017250973845, 0.45765736534717716, 0.6045342634386541, 0.25, 0.25, 0.25, 0.25, 0.25, 0.25, 0.25, 0.25, 0.25, 0.09785089387599848, 0.5165233745298227, 0.19630089012111485, 0.9456521739130435, 0.10578006459851273, 0.15012759940683518, 0.24850308154697168, 0.20076923076923076, 0.12233304423243713, 0.29401650618982117, 0.12357872422432067, 0.018115942028985508, 0.25, 0.25, 0.0016170763260025874, 0.25, 0.25, 0.25, 0.25, 0.25, 0.19678946022000512, 0.17877017250973845, 0.1642124485196985, 0.009398496240601503, 0.08217633645806942, 0.226747706560901, 0.13371423925144793, 0.018115942028985508, 0.010723089564502877, 0.10029239766081871, 0.13525627504745835, 0.25, 0.25, 0.25, 0.25, 0.25, 0.25, 0.25, 0.009398496240601503, 0.018115942028985508, 0.06458288346649392, 0.09196272104508524, 0.08735201140519432, 0.009398496240601503, 0.0233302102039577, 0.039856576136710405, 0.04672805990276447, 0.021656156654497178, 3.4260655063724815e-05, 7.258579641135823e-05, 1.61404867970818e-05, 0.004789272030651341, 0.0006956037840845854, 0.0008111615833874108, 0.0005129257283545343, 0.25, 0.25, 0.25, 0.25, 0.25, 0.25, 0.25, 0.25, 0.25, 0.00047546595663750473, 0.0006716818914562063, 0.00018240186779512624, 0.018115942028985508, 0.02886276571771952, 0.026528606407559403, 0.02995298740483458, 0.0038461538461538464, 0.0002168256721595837, 0.029917469050894086, 0.00024089419926768163, 0.018115942028985508, 0.25, 0.25, 0.9951487710219923, 0.25, 0.25, 0.25, 0.25, 0.25, 0.0003197748784855462, 0.03631051752921536, 0.06474862071645038, 0.009398496240601503, 0.017316949581960984, 0.0077886100093856915, 0.02803630177255726, 0.018115942028985508, 0.00020542317173377156, 0.10029239766081871, 0.1217570132883358, 0.25, 0.25, 0.25, 0.25, 0.25, 0.25, 0.25, 0.009398496240601503, 0.018115942028985508, 0.046156337724033686, 0.08176676756412299, 0.05561581850864687, 0.009398496240601503, 0.2604104312521146, 0.33593225511138236, 0.2634649409641425, 0.6376535014935281, 0.0123132794299027, 0.16359386795191916, 0.030592678675188844, 0.004789272030651341, 0.0006956037840845854, 0.25, 0.0005129257283545343, 0.25, 0.25, 0.25, 0.25, 0.25, 0.25, 0.25, 0.25, 0.25, 0.00047546595663750473, 0.0006716818914562063, 0.00018240186779512624, 0.018115942028985508, 0.003864643581461729, 0.08612097803221024, 0.023216854366207067, 0.0038461538461538464, 0.0002168256721595837, 0.0005731315910132966, 0.00024089419926768163, 0.018115942028985508, 0.25, 0.25, 0.0016170763260025874, 0.25, 0.25, 0.25, 0.25, 0.25, 0.0003197748784855462, 0.07192543127434613, 9.713264433910948e-05, 0.009398496240601503, 0.0011021028629338739, 0.029103212328559752, 0.008021540886403724, 0.018115942028985508, 0.00020542317173377156, 0.0004873294346978557, 0.00026365745623286224, 0.25, 0.25, 0.25, 0.25, 0.25, 0.25, 0.25, 0.009398496240601503, 0.018115942028985508, 8.99733678831066e-05, 0.0001991397164250438, 7.748093968883655e-05, 0.009398496240601503, 0.0005660671993337324, 0.003140067134574306, 0.0003307934480083953, 0.000414868901427149 ;
}
probability ( body_words | author_identity, change_num, file_changed_num, priorities_number ) {
    table 0.4999349099587764, 0.21311139564660692, 0.14607688256977358, 0.016205958631159464, 0.018065107748739113, 0.2884349654550916, 0.31663629263212706, 0.17857541379951647, 0.11966884764321005, 0.07363174542317646, 0.16327701625757093, 0.1904776074988841, 0.16296724916097674, 0.11111682633575516, 0.021746698934318347, 0.6642487046632126, 0.003076923076923077, 0.2, 0.33264248704663213, 0.0015503875968992248, 0.3467557011465289, 0.2825946680251316, 0.2, 0.10347427955830864, 0.05664603595638078, 0.3779308648050191, 0.282432915921288, 0.2266638891782106, 0.15790339157245634, 0.09094781682641107, 0.2592506871112397, 0.21897593796327974, 0.19745248283411285, 0.15741356863879646, 0.018207640960090893, 0.9876923076923075, 0.33264248704663213, 0.2, 0.0030769230769230765, 0.2, 0.4422894914744986, 0.39847292376365556, 0.23332754730081584, 0.2, 0.057174737781745144, 0.388875226039783, 0.2976673206889034, 0.2483170808430324, 0.2095223925011159, 0.09680020156210632, 0.1989248215035699, 0.1722862660190766, 0.16466085210516407, 0.13147836912542793, 0.08075691411935954, 0.33264248704663213, 0.4988326848249028, 0.0015503875968992257, 0.4976744186046513, 0.33264248704663213, 0.444425155843131, 0.34144544646259367, 0.2856951573309529, 0.1686805947675513, 0.10391560154189491, 0.36362886597938143, 0.2640809814600869, 0.22748611625323953, 0.2290041741204532, 0.1666714884999277, 0.2439465797666502, 0.21093723297771053, 0.1673158374708684, 0.11022762641877451, 0.11933475034493045, 0.5710144927536231, 0.0006230529595015578, 0.0006230529595015578, 0.1429844097995546, 0.05895316804407714, 0.7641873278236914, 0.26082824168363883, 0.12004996876951904, 0.05411566061629379, 0.023287920072661214, 0.5554527046572173, 0.4863655550865345, 0.5369395429563206, 0.3213608477412158, 0.10005205622071837, 0.3998958875585632, 0.4358029635562675, 0.2784654933755191, 0.22915717539863328, 0.07696004806248122, 0.2, 0.0030769230769230765, 0.2, 0.2, 0.0015503875968992252, 0.5433616298811546, 0.46501997820559393, 0.464138315672058, 0.24997559785261106, 0.09759999999999999, 0.45895006402048655, 0.41811985231468335, 0.3399562636676039, 0.24998698255662588, 0.19047973224246934, 0.16002498438475948, 0.24240416469474682, 0.2856983448019342, 0.1956529122092036, 0.14287308228730825, 0.2, 0.2, 0.2, 0.2, 0.2, 0.4998048145738451, 0.4089425124201561, 0.33319458896982307, 0.27771032090199477, 0.07707082833133254, 0.11768488745980707, 0.16667751383013343, 0.3657904761904763, 0.2580352644836272, 0.16671001300390115, 0.22218370883882146, 0.08007495315427857, 0.1428783934548159, 0.018921308576480993, 0.12198095238095237, 0.2, 0.2, 0.0030769230769230765, 0.2, 0.2, 0.49960988296488945, 0.20000000000000004, 0.37465886939571147, 0.13340270551508843, 0.28561872909698993, 0.21426978818283166, 0.33319458896982307, 0.09531598513011151, 0.06263414634146341, 0.0668054110301769, 0.29403122130394854, 0.27995003123048096, 0.16130982367758187, 0.2666319625195211, 0.044498438042346405, 0.0030769230769230765, 0.2, 0.2, 0.2, 0.2, 0.0007782101167315176, 0.0010362694300518134, 0.0006230529595015577, 0.0006230529595015577, 0.0002081165452653486, 0.0007782101167315177, 0.0030769230769230765, 0.0030769230769230765, 0.003076923076923077, 0.2, 0.7981308411214955, 0.33264248704663224, 0.4976744186046513, 0.0007782101167315176, 0.0006230529595015577, 0.2, 0.2, 0.2, 0.2, 0.2, 0.6642487046632126, 0.0007782101167315177, 0.24980544747081712, 0.0010362694300518134, 0.0006230529595015577, 0.0015503875968992248, 0.4988326848249028, 0.33264248704663213, 0.7478599221789884, 0.2, 0.0015503875968992248, 0.1667532467532468, 0.0007782101167315176, 0.00038986354775828464, 0.0015503875968992252, 0.2, 0.2, 0.2, 0.2, 0.2, 0.38872506504770166, 0.39968798751950074, 0.33264248704663213, 0.4992207792207793, 0.22218370883882146, 0.36340425531914894, 0.26659729448491154, 0.1667532467532468, 0.09106382978723404, 0.598753894080997, 0.39968798751950074, 0.1250487963565387, 0.06263414634146341, 0.13340270551508843, 0.0003466204506065858, 0.2, 0.2, 0.2, 0.2, 0.2, 0.4493944181147973, 0.16130982367758184, 0.1250292854353768, 0.07231319405232449, 0.04809974462971308, 0.3356991407209017, 0.21276171485543371, 0.3332702318977757, 0.11768488745980707, 0.18605158009444245, 0.2659897943079594, 0.18461723350558829, 0.18285867333273814, 0.143651273198101, 0.11043803316399886, 0.332987012987013, 0.0006230529595015577, 0.00028368794326241134, 0.0002081165452653486, 0.02332001452960407, 0.2, 0.2, 0.2, 0.20000000000000004, 0.1111882046834345, 0.0005194805194805196, 0.2, 0.9876923076923075, 0.09106382978723404, 0.0006230529595015578, 0.00022296544035674468, 0.0010362694300518136, 0.0010362694300518139, 0.09106382978723404, 0.043584521384928715, 0.2, 0.2, 0.2, 0.2, 0.2, 0.2, 0.2, 0.2, 0.2, 0.6642487046632126, 0.2, 0.2, 0.2, 0.2, 0.2, 0.2, 0.2, 0.2, 0.2, 0.003076923076923077, 0.2, 0.2, 0.2, 0.2, 0.2, 0.2, 0.2, 0.003076923076923077, 0.0015503875968992248, 0.24980544747081712, 0.2, 0.2, 0.995854922279793, 0.8325097529258776, 0.7685474189675868, 0.0010362694300518139, 0.0010362694300518139, 0.0006230529595015578, 0.0030769230769230765, 0.07707082833133251, 0.2, 0.2, 0.2, 0.2, 0.2, 0.2, 0.2, 0.2, 0.2, 0.9876923076923075, 0.2, 0.003076923076923077, 0.2, 0.49767441860465117, 0.49953198127925114, 0.2, 0.0015503875968992248, 0.0010362694300518134, 0.0010362694300518134, 0.18751219512195122, 0.2, 0.2, 0.2, 0.2, 0.2, 0.1805597743545238, 0.19672215108834828, 0.10114095137791822, 0.04454424694794105, 0.03160864811483794, 0.1730850105136678, 0.2166623275188753, 0.20238050957783152, 0.16239818400320472, 0.055228601552765266, 0.10207204335352248, 0.1809552149977682, 0.14074759865756278, 0.1152317880794702, 0.09239587313717997, 0.33264248704663224, 0.003076923076923077, 0.2, 0.0010362694300518134, 0.0015503875968992248, 0.20161270001259926, 0.3369332654100866, 0.2142825262218255, 0.15518448693778616, 0.05664603595638078, 0.2283429696149588, 0.27480023852116875, 0.35331736277471093, 0.32892086330935255, 0.22726304579339723, 0.32405612613915813, 0.21897593796327974, 0.3184595482137526, 0.2407348473889773, 0.09092458457605454, 0.0030769230769230765, 0.0010362694300518134, 0.2, 0.0030769230769230765, 0.2, 0.24038158191241643, 0.23307882062727595, 0.18889081756639473, 0.10668610706102896, 0.2, 0.254625678119349, 0.24185742315238717, 0.26844919786096255, 0.22856717750334773, 0.17742504409171078, 0.2580596388072238, 0.22471765463163437, 0.24096128505992342, 0.1912356053532524, 0.15528384279475982, 0.0010362694300518134, 0.24980544747081718, 0.9937984496124035, 0.4976744186046513, 0.0010362694300518134, 0.2070701491359583, 0.25202591134256325, 0.22856505244365097, 0.192772444946358, 0.18182187056198013, 0.23753493699885453, 0.28520657974363206, 0.26065901517956314, 0.1526774001192606, 0.14815564877766527, 0.24022229334574766, 0.24531139376480068, 0.21789846995642922, 0.200531197476812, 0.1432002088227617, 0.2856187290969899, 0.0006230529595015578, 0.3993769470404985, 0.2855233853006682, 0.11772268135904498, 0.1764921946740128, 0.2173794976238968, 0.23997501561524046, 0.02710004221190376, 0.011662125340599456, 0.38883424934914673, 0.3512874630645843, 0.37032108764825, 0.3927495817066369, 0.16668401874023944, 0.3998958875585632, 0.23075690828994797, 0.4683013644453234, 0.35411649853563293, 0.11541003304295584, 0.2, 0.0030769230769230765, 0.2, 0.2, 0.0015503875968992252, 0.3477758913412564, 0.27904104613149294, 0.2856664807585053, 0.21874084919472914, 0.17074285714285714, 0.26227912932138286, 0.18182334564044306, 0.31996251171508905, 0.38328560270762824, 0.19047973224246934, 0.4398500936914428, 0.363558920965452, 0.2976008926910917, 0.3151978264561046, 0.24998605299860532, 0.2, 0.2, 0.2, 0.2, 0.2, 0.12504879635653868, 0.2726756564939673, 0.19999999999999998, 0.38872506504770166, 0.15390156062424967, 0.2352779053743684, 0.3332899446794663, 0.3170285714285715, 0.2580352644836272, 0.0834850455136541, 0.11126516464471405, 0.23997501561524046, 0.30948307921160284, 0.28299440023577954, 0.14636190476190475, 0.2, 0.2, 0.0030769230769230765, 0.2, 0.2, 0.16671001300390115, 0.3993769470404985, 0.12514619883040937, 0.13340270551508843, 0.14292084726867335, 0.28561872909698993, 0.26659729448491154, 0.3332342007434944, 0.18751219512195122, 0.33319458896982307, 0.05895316804407714, 0.19999999999999998, 0.09682619647355163, 0.29994794377928163, 0.1333564734467199, 0.9876923076923075, 0.2, 0.2, 0.2, 0.2, 0.24980544747081712, 0.0010362694300518134, 0.0006230529595015577, 0.0006230529595015577, 0.0668054110301769, 0.7478599221789884, 0.9876923076923075, 0.9876923076923075, 0.003076923076923077, 0.2, 0.0006230529595015578, 0.6642487046632126, 0.4976744186046513, 0.24980544747081712, 0.2, 0.2, 0.2, 0.2, 0.2, 0.2, 0.33264248704663224, 0.4988326848249028, 0.24980544747081712, 0.0010362694300518134, 0.0006230529595015577, 0.0015503875968992248, 0.24980544747081718, 0.0010362694300518134, 0.0007782101167315177, 0.2, 0.0015503875968992248, 0.0005194805194805196, 0.0007782101167315176, 0.12514619883040937, 0.0015503875968992252, 0.2, 0.2, 0.2, 0.2, 0.2, 0.16669557675628793, 0.10015600624024962, 0.0010362694300518134, 0.0005194805194805196, 0.0003466204506065858, 0.2726241134751773, 0.19999999999999998, 0.332987012987013, 0.2726241134751773, 0.20000000000000004, 0.10015600624024962, 0.16668835393623943, 0.18751219512195122, 0.13340270551508843, 0.0003466204506065858, 0.2, 0.2, 0.2, 0.2, 0.2, 0.24718272775144817, 0.2580352644836272, 0.10003904724716907, 0.06026726896292114, 0.08655550548295028, 0.2928467804932485, 0.4041874376869392, 0.18182678655939422, 0.26467615985300874, 0.11630948056665455, 0.2424220106265453, 0.2846052157192645, 0.18285867333273814, 0.17679758308157098, 0.17791622735550658, 0.0005194805194805196, 0.2, 0.00028368794326241134, 0.0668054110301769, 0.02332001452960407, 0.2, 0.2, 0.2, 0.20000000000000004, 0.22220294882914135, 0.0005194805194805196, 0.2, 0.0030769230769230765, 0.09106382978723404, 0.20000000000000004, 0.00022296544035674468, 0.0010362694300518136, 0.6642487046632126, 0.2726241134751773, 0.043584521384928715, 0.2, 0.2, 0.2, 0.2, 0.2, 0.2, 0.2, 0.2, 0.2, 0.33264248704663224, 0.2, 0.2, 0.2, 0.2, 0.2, 0.2, 0.2, 0.2, 0.2, 0.003076923076923077, 0.2, 0.2, 0.2, 0.2, 0.2, 0.2, 0.2, 0.003076923076923077, 0.0015503875968992248, 0.24980544747081712, 0.2, 0.2, 0.0010362694300518139, 0.00026007802340702205, 0.0002400960384153661, 0.6642487046632126, 0.995854922279793, 0.7981308411214955, 0.9876923076923075, 0.7685474189675868, 0.2, 0.2, 0.2, 0.2, 0.2, 0.2, 0.2, 0.2, 0.2, 0.0030769230769230765, 0.2, 0.003076923076923077, 0.2, 0.0015503875968992248, 0.10015600624024962, 0.2, 0.49767441860465117, 0.33264248704663213, 0.0010362694300518134, 0.18751219512195122, 0.2, 0.2, 0.2, 0.2, 0.2, 0.16667389889346934, 0.21311139564660692, 0.07867298578199051, 0.06073755455753052, 0.05643847211935245, 0.2884349654550916, 0.18333767248112473, 0.23808815324530408, 0.17094405127520365, 0.1901849899357807, 0.42849856550844756, 0.1809552149977682, 0.17778034949658605, 0.17695621423519578, 0.18206597885619666, 0.0010362694300518139, 0.003076923076923077, 0.2, 0.0010362694300518134, 0.0015503875968992248, 0.20967620007559534, 0.2173883511631856, 0.2571301048873019, 0.15518448693778616, 0.16982021809608017, 0.2204699224996925, 0.26716756112104945, 0.25999375065097385, 0.24998972250770812, 0.20454384096556621, 0.26850860697237094, 0.3138556277796784, 0.25477161906657375, 0.2685086069723709, 0.23635847180798183, 0.0030769230769230765, 0.0010362694300518134, 0.2, 0.9876923076923075, 0.2, 0.17788627657177195, 0.18797133795371784, 0.33331018920326333, 0.3066444490731098, 0.17143494755634903, 0.20370343580470163, 0.20465082479470967, 0.2348956694977456, 0.1904776074988841, 0.3386747291509196, 0.2849391012179756, 0.3108549359236936, 0.24497709732070025, 0.2270899470899471, 0.14286268801552646, 0.33264248704663213, 0.0007782101167315177, 0.0015503875968992257, 0.0015503875968992252, 0.0010362694300518134, 0.19191982955890474, 0.19512257081163473, 0.2571301048873019, 0.25300207039337475, 0.18182187056198013, 0.18768384879725086, 0.24295538317654178, 0.23696408737504626, 0.25190220632081095, 0.2499927672501085, 0.23463586371439377, 0.23437416078709017, 0.2658871212888844, 0.2788828253065798, 0.21956967595182159, 0.00022296544035674466, 0.3993769470404985, 0.0006230529595015578, 0.1429844097995546, 0.17649219467401284, 0.058953168044077124, 0.43462321792260694, 0.31992504684572143, 0.1351625158294639, 0.04653950953678474, 0.0555973387330055, 0.16217813423385397, 0.07411050043390223, 0.07150027886224204, 0.16668401874023944, 0.16668401874023944, 0.23075690828994797, 0.18987542020961048, 0.20833062154246665, 0.11541003304295584, 0.2, 0.9876923076923075, 0.2, 0.2, 0.0015503875968992252, 0.06526315789473684, 0.18605158009444245, 0.10719464584495257, 0.15627135187896535, 0.12198095238095237, 0.1311651728553137, 0.21817665435955697, 0.21999375195251486, 0.2, 0.1428783934548159, 0.2799500312304809, 0.363558920965452, 0.19047796168867398, 0.3151978264561046, 0.21428172942817295, 0.2, 0.2, 0.2, 0.2, 0.2, 0.24996746909564083, 0.09098651525904895, 0.19999999999999998, 0.1111882046834345, 0.07707082833133254, 0.3822691777675701, 0.18750406768630004, 0.1219809523809524, 0.16130982367758184, 0.3331599479843953, 0.3331022530329289, 0.23997501561524046, 0.26188174042394946, 0.18868258178603006, 0.2682666666666667, 0.2, 0.2, 0.9876923076923075, 0.2, 0.2, 0.16671001300390115, 0.20000000000000004, 0.12514619883040937, 0.0668054110301769, 0.28561872909698993, 0.35696767001114826, 0.33319458896982307, 0.19048327137546467, 0.312390243902439, 0.26659729448491154, 0.11772268135904498, 0.23997501561524046, 0.4192443324937028, 0.1333680374804789, 0.2888580354043735, 0.0030769230769230765, 0.2, 0.2, 0.2, 0.2, 0.4988326848249027, 0.6642487046632124, 0.2, 0.0006230529595015577, 0.0002081165452653486, 0.0007782101167315177, 0.0030769230769230765, 0.0030769230769230765, 0.003076923076923077, 0.2, 0.20000000000000004, 0.0010362694300518139, 0.0015503875968992252, 0.24980544747081712, 0.5987538940809969, 0.2, 0.2, 0.2, 0.2, 0.2, 0.0010362694300518139, 0.24980544747081718, 0.24980544747081712, 0.0010362694300518134, 0.0006230529595015577, 0.49767441860465117, 0.24980544747081718, 0.0010362694300518134, 0.24980544747081718, 0.2, 0.49767441860465117, 0.332987012987013, 0.0007782101167315176, 0.37465886939571147, 0.9937984496124033, 0.2, 0.2, 0.2, 0.2, 0.2, 0.22220294882914135, 0.19999999999999998, 0.0010362694300518134, 0.332987012987013, 0.11126516464471405, 0.00028368794326241134, 0.0668054110301769, 0.0005194805194805196, 0.2726241134751773, 0.0006230529595015578, 0.10015600624024962, 0.16668835393623943, 0.24995121951219512, 0.13340270551508843, 0.0003466204506065858, 0.2, 0.2, 0.2, 0.2, 0.2, 0.16854484816570128, 0.2902770780856423, 0.1250292854353768, 0.048221343873517786, 0.09616944569625958, 0.16428969981028904, 0.19149219009637755, 0.09096071935636535, 0.08828663298116673, 0.11630948056665455, 0.19191961702351518, 0.16923446701117656, 0.30856173555932503, 0.24861458782908932, 0.21472251509632895, 0.1667532467532468, 0.2, 0.00028368794326241134, 0.0002081165452653486, 0.06981474754812932, 0.2, 0.2, 0.2, 0.0006230529595015578, 0.4442324371205551, 0.4992207792207793, 0.2, 0.0030769230769230765, 0.5449645390070922, 0.3993769470404985, 0.9991081382385729, 0.9958549222797929, 0.33264248704663224, 0.18184397163120566, 0.3042769857433808, 0.2, 0.2, 0.2, 0.2, 0.2, 0.2, 0.2, 0.2, 0.2, 0.0010362694300518139, 0.2, 0.2, 0.2, 0.2, 0.2, 0.2, 0.2, 0.2, 0.2, 0.003076923076923077, 0.2, 0.2, 0.2, 0.2, 0.2, 0.2, 0.2, 0.003076923076923077, 0.49767441860465117, 0.24980544747081712, 0.2, 0.2, 0.0010362694300518139, 0.08348504551365407, 0.07707082833133251, 0.0010362694300518139, 0.0010362694300518139, 0.20000000000000004, 0.0030769230769230765, 0.15390156062424964, 0.2, 0.2, 0.2, 0.2, 0.2, 0.2, 0.2, 0.2, 0.2, 0.0030769230769230765, 0.2, 0.003076923076923077, 0.2, 0.0015503875968992248, 0.10015600624024962, 0.2, 0.0015503875968992248, 0.0010362694300518134, 0.0010362694300518134, 0.06263414634146341, 0.2, 0.2, 0.2, 0.2, 0.2, 0.041701019743979176, 0.1311651728553137, 0.14607688256977358, 0.12955911189828578, 0.09255457976228264, 0.1730850105136678, 0.13335068992449883, 0.13096522224288637, 0.19658165309120043, 0.24539442154701427, 0.2244819891616194, 0.29522392501115907, 0.22221965050341397, 0.20576094644120105, 0.22010784188850677, 0.0010362694300518139, 0.003076923076923077, 0.2, 0.33264248704663213, 0.0015503875968992248, 0.16935869976061488, 0.0761079979623026, 0.22856505244365097, 0.1896579585241045, 0.24526967285587978, 0.1259933571164965, 0.0916159809183065, 0.09334444328715759, 0.14474820143884892, 0.31813986510472136, 0.06483437002748446, 0.11679781046869656, 0.08281421036919097, 0.14815564877766527, 0.48177815651185907, 0.0030769230769230765, 0.6642487046632124, 0.2, 0.0030769230769230765, 0.2, 0.06251032825058214, 0.06016680371196993, 0.13334490539836835, 0.14667777546344513, 0.1000223164472216, 0.0926003616636528, 0.14419010246348377, 0.14094579008073818, 0.24761196250557954, 0.20967498110355254, 0.17204535909281812, 0.21722745625841183, 0.2248980360168162, 0.3067662620603797, 0.3974963609898107, 0.33264248704663213, 0.0007782101167315177, 0.0015503875968992257, 0.0015503875968992252, 0.0010362694300518134, 0.06566716641679161, 0.09757398704432874, 0.08573979022539611, 0.15663466967814796, 0.15585311422195172, 0.12317067583046963, 0.1408483248060736, 0.1706182895223991, 0.1526774001192606, 0.2222190076667149, 0.15828799208589134, 0.17187568662874442, 0.15434593170533994, 0.19521922270869216, 0.20763694671290597, 0.07157190635451503, 0.598753894080997, 0.3993769470404985, 0.4280623608017818, 0.5291092745638201, 0.00018365472910927453, 0.08703326544467073, 0.12004996876951904, 0.08113127902068383, 0.2209264305177112, 5.7853630315302295e-05, 8.442380751371888e-05, 0.018571015331212037, 0.07150027886224204, 0.23331598125976052, 0.03342009370119729, 0.051341609931918296, 0.03800672335376706, 0.04171819069313374, 0.2115349954941424, 0.2, 0.0030769230769230765, 0.2, 0.2, 0.9937984496124033, 0.02179966044142615, 0.046567381038866686, 0.07150027886224204, 0.06256710590531966, 0.024457142857142858, 0.1311651728553137, 0.16364669128088613, 0.12002499218994064, 0.08336370736787295, 0.0952770546671625, 0.08007495315427855, 9.46521533364884e-05, 0.11906267435372886, 0.1304465953472576, 0.07146443514644352, 0.2, 0.2, 0.2, 0.2, 0.2, 0.12504879635653868, 0.18183108587650812, 0.19999999999999998, 0.1111882046834345, 0.15390156062424967, 0.2352779053743684, 0.20833062154246665, 0.07321904761904763, 0.19355163727959696, 0.0834850455136541, 0.3331022530329289, 0.23997501561524046, 0.1428783934548159, 0.22640730916592988, 0.19512380952380953, 0.2, 0.2, 0.0030769230769230765, 0.2, 0.2, 0.0834850455136541, 0.20000000000000004, 0.2499025341130604, 0.19999999999999998, 0.07157190635451505, 0.07157190635451505, 0.0002081165452653486, 0.23806691449814127, 0.24995121951219512, 0.0668054110301769, 0.3528007346189164, 0.23997501561524046, 0.19355163727959698, 0.10005205622071836, 0.33328705310656026, 0.0030769230769230765, 0.2, 0.2, 0.2, 0.2, 0.0007782101167315176, 0.33264248704663213, 0.0006230529595015577, 0.0006230529595015577, 0.0002081165452653486, 0.24980544747081718, 0.0030769230769230765, 0.0030769230769230765, 0.003076923076923077, 0.2, 0.0006230529595015578, 0.0010362694300518139, 0.0015503875968992252, 0.0007782101167315176, 0.0006230529595015577, 0.2, 0.2, 0.2, 0.2, 0.2, 0.0010362694300518139, 0.0007782101167315177, 0.0007782101167315176, 0.0010362694300518134, 0.2, 0.49767441860465117, 0.0007782101167315177, 0.0010362694300518134, 0.0007782101167315177, 0.2, 0.0015503875968992248, 0.332987012987013, 0.0007782101167315176, 0.12514619883040937, 0.0015503875968992252, 0.2, 0.2, 0.2, 0.2, 0.2, 0.16669557675628793, 0.10015600624024962, 0.33264248704663213, 0.0005194805194805196, 0.11126516464471405, 0.36340425531914894, 0.13340270551508843, 0.0005194805194805196, 0.2726241134751773, 0.20000000000000004, 0.19999999999999998, 0.04176968119713728, 0.24995121951219512, 0.13340270551508843, 0.22218370883882146, 0.2, 0.2, 0.2, 0.2, 0.2, 0.044971037388099, 0.16130982367758184, 0.1250292854353768, 0.192772444946358, 0.22115066846928047, 0.11429527954469368, 0.08514456630109671, 0.2121154756270705, 0.17648139641708774, 0.13955684707591717, 0.15151770214109106, 0.19230861675279415, 0.1885724488884921, 0.226517047906776, 0.18405060864564363, 0.1667532467532468, 0.5987538940809969, 0.7265248226950355, 0.7327783558792924, 0.7207410098074828, 0.2, 0.2, 0.2, 0.3993769470404985, 0.05568083261058109, 0.4992207792207793, 0.2, 0.0030769230769230765, 0.2726241134751773, 0.3993769470404985, 0.00022296544035674468, 0.0010362694300518136, 0.0010362694300518139, 0.36340425531914894, 0.4346232179226069, 0.2, 0.2, 0.2, 0.2, 0.2, 0.2, 0.2, 0.2, 0.2, 0.0010362694300518139, 0.2, 0.2, 0.2, 0.2, 0.2, 0.2, 0.2, 0.2, 0.2, 0.003076923076923077, 0.2, 0.2, 0.2, 0.2, 0.2, 0.2, 0.2, 0.9876923076923078, 0.0015503875968992248, 0.24980544747081712, 0.2, 0.2, 0.0010362694300518139, 0.00026007802340702205, 0.15390156062424964, 0.33264248704663224, 0.0010362694300518139, 0.0006230529595015578, 0.0030769230769230765, 0.0002400960384153661, 0.2, 0.2, 0.2, 0.2, 0.2, 0.2, 0.2, 0.2, 0.2, 0.0030769230769230765, 0.2, 0.9876923076923078, 0.2, 0.49767441860465117, 0.10015600624024962, 0.2, 0.0015503875968992248, 0.6642487046632124, 0.0010362694300518134, 0.12507317073170732, 0.2, 0.2, 0.2, 0.2, 0.2, 0.1111303970492515, 0.2458898847631242, 0.5280322977005442, 0.7489531279650832, 0.8013331922547878, 0.07696004806248122, 0.15001301744337414, 0.2499907011344616, 0.3504072639871812, 0.43556024154126327, 0.08167038571883965, 0.15238803749442048, 0.29628515218146045, 0.3909342249083778, 0.48368360718379827, 0.0010362694300518139, 0.9876923076923078, 0.2, 0.33264248704663213, 0.993798449612403, 0.07259669900466173, 0.08697571743929361, 0.1000223164472216, 0.39649878804201455, 0.4716180371352785, 0.04726288596383319, 0.08398330351818724, 0.066680554108947, 0.11843782117163414, 0.15910543130990415, 0.08335020974974687, 0.13139468582506558, 0.14650213951636978, 0.18518732822219008, 0.17273114614401364, 0.0030769230769230765, 0.0010362694300518134, 0.2, 0.0030769230769230765, 0.2, 0.07693232179073087, 0.12031011394338072, 0.1111265405311578, 0.23999166840241618, 0.47136799821468417, 0.06019529837251356, 0.11163432890051596, 0.10739226171752124, 0.12382085999107276, 0.17742504409171078, 0.08603107937841244, 0.07491368716718357, 0.124502729497396, 0.14342981637099284, 0.2236001940805434, 0.0010362694300518134, 0.24980544747081718, 0.0015503875968992257, 0.0015503875968992252, 0.6642487046632124, 0.09091769904521424, 0.11383208433887973, 0.14286989511269807, 0.22891022021456806, 0.37658754311219317, 0.08798167239404353, 0.06690873081366562, 0.10427249166975194, 0.21373881932021468, 0.21296108780558368, 0.12290727108731705, 0.13750152584165426, 0.19455263957847807, 0.2151391280891416, 0.3102584181675803, 0.07157190635451503, 0.0006230529595015578, 0.20000000000000004, 0.00044543429844098, 0.11772268135904498, 0.00018365472910927453, 0.00013577732518669383, 0.19999999999999998, 0.7024905023216548, 0.6975840145322434, 5.7853630315302295e-05, 8.442380751371888e-05, 5.7853630315302295e-05, 0.14288901282766311, 0.3332639250390422, 0.00010411244143675169, 0.051341609931918296, 0.02535099861578011, 0.16667751383013343, 0.4806848903574647, 0.2, 0.0030769230769230765, 0.2, 0.2, 0.0015503875968992252, 0.02179966044142615, 0.02332001452960407, 0.07150027886224204, 0.3124450951683748, 0.5852190476190476, 0.0164404609475032, 0.01823345640443056, 6.248047485160888e-05, 0.08336370736787295, 0.38088508739308297, 0.040099937539038094, 0.03038334122101278, 0.10716012646457133, 0.043504839531329595, 0.32139470013947, 0.2, 0.2, 0.2, 0.2, 0.2, 0.0001301236174365647, 0.04556422995031937, 0.0668054110301769, 0.1111882046834345, 0.5380552220888355, 0.029490124023886084, 0.10419785226163358, 0.1219809523809524, 0.12906801007556673, 0.3331599479843953, 0.0003466204506065858, 0.19999999999999998, 0.1428783934548159, 0.28299440023577954, 0.2682666666666667, 0.2, 0.2, 0.0030769230769230765, 0.2, 0.2, 0.0834850455136541, 0.0006230529595015578, 0.12514619883040937, 0.4663891779396462, 0.21426978818283166, 0.07157190635451505, 0.0668054110301769, 0.1428996282527881, 0.18751219512195122, 0.26659729448491154, 0.17649219467401284, 0.0400999375390381, 0.12906801007556676, 0.19999999999999998, 0.2, 0.0030769230769230765, 0.2, 0.2, 0.2, 0.2, 0.24980544747081712, 0.0010362694300518134, 0.7981308411214952, 0.9975077881619937, 0.932570239334027, 0.0007782101167315177, 0.0030769230769230765, 0.0030769230769230765, 0.9876923076923078, 0.2, 0.0006230529595015578, 0.0010362694300518139, 0.0015503875968992252, 0.4988326848249027, 0.2, 0.2, 0.2, 0.2, 0.2, 0.2, 0.0010362694300518139, 0.24980544747081718, 0.24980544747081712, 0.9958549222797927, 0.7981308411214952, 0.0015503875968992248, 0.0007782101167315177, 0.6642487046632124, 0.0007782101167315177, 0.2, 0.49767441860465117, 0.1667532467532468, 0.9968871595330739, 0.37465886939571147, 0.0015503875968992252, 0.2, 0.2, 0.2, 0.2, 0.2, 0.05568083261058109, 0.19999999999999998, 0.33264248704663213, 0.1667532467532468, 0.5549393414211439, 0.00028368794326241134, 0.33319458896982307, 0.4992207792207793, 0.09106382978723404, 0.0006230529595015578, 0.19999999999999998, 0.4998048145738452, 0.24995121951219512, 0.4663891779396462, 0.7767764298093587, 0.2, 0.2, 0.2, 0.2, 0.2, 0.08990696857995438, 0.12906801007556673, 0.5248730964467005, 0.6264257481648786, 0.5480246357217966, 0.0928690994308671, 0.10641409106015287, 0.18182678655939422, 0.3528709232889297, 0.4417726116963313, 0.14815087590088905, 0.16923446701117656, 0.13714846888670654, 0.20441950798446265, 0.312872615738522, 0.332987012987013, 0.0006230529595015577, 0.2726241134751773, 0.19999999999999998, 0.1628042135851798, 0.2, 0.2, 0.2, 0.20000000000000004, 0.16669557675628793, 0.0005194805194805196, 0.2, 0.0030769230769230765, 0.00028368794326241134, 0.0006230529595015578, 0.00022296544035674468, 0.0010362694300518136, 0.0010362694300518139, 0.09106382978723404, 0.17393075356415474, 0.2, 0.2, 0.2, 0.2, 0.2, 0.2, 0.2, 0.2, 0.2, 0.0010362694300518139, 0.2, 0.2, 0.2, 0.2, 0.2, 0.2, 0.2, 0.2, 0.2, 0.9876923076923078, 0.2, 0.2, 0.2, 0.2, 0.2, 0.2, 0.2, 0.003076923076923077, 0.49767441860465117, 0.0007782101167315176, 0.2, 0.2, 0.0010362694300518139, 0.08348504551365407, 0.0002400960384153661, 0.0010362694300518139, 0.0010362694300518139, 0.0006230529595015578, 0.0030769230769230765, 0.0002400960384153661, 0.2, 0.2, 0.2, 0.2, 0.2, 0.2, 0.2, 0.2, 0.2, 0.0030769230769230765, 0.2, 0.003076923076923077, 0.2, 0.0015503875968992248, 0.19999999999999998, 0.2, 0.49767441860465117, 0.0010362694300518134, 0.9958549222797927, 0.43726829268292683, 0.2, 0.2, 0.2, 0.2, 0.2 ;
}
probability ( change_num | author_identity, close_num, pre_prs, workload ) {
    table 0.4434252386002121, 0.8127645655352882, 0.7991788152795719, 0.9923803041960111, 0.9999595926943592, 0.8318181818181818, 0.5906671398154719, 0.04559971611071682, 0.9991638795986622, 0.9996450544249882, 0.25, 0.25, 0.25, 0.25, 0.25, 0.25, 0.25, 0.25, 0.25, 0.25, 0.25, 0.25, 0.0012953367875647669, 0.25, 0.25, 0.32694962836827207, 0.2505050345633029, 0.18784798653373042, 0.34388476493460585, 0.6347695390781564, 0.09382625671059053, 0.12504067686300033, 0.16133501259445843, 0.00030012004801920766, 0.4560838585913949, 0.25, 0.25, 0.25, 0.25, 0.25, 0.25, 0.25, 0.25, 0.25, 0.25, 0.34175400435040537, 0.1819148936170213, 0.0009727626459143969, 0.051361633960752905, 0.25, 0.0389438898260557, 0.0878980644158267, 0.09877126654064272, 0.06745704467353952, 0.18887176244302165, 0.03642431127520591, 0.04843789367598891, 0.02280795172168974, 0.02640772708590218, 0.06497261107729763, 0.25, 0.25, 0.25, 0.25, 0.25, 0.25, 0.25, 0.25, 0.25, 0.25, 0.19102159031068983, 0.06389165835825855, 0.05572419774501301, 0.46644120707596254, 0.14297658862876253, 0.01226724032817154, 0.0127063599458728, 0.014317857841630097, 0.012505798198286174, 0.015863329409578093, 0.8663150694794441, 0.6190247380494761, 0.29340911217139115, 0.10621457210009679, 0.9996095783446122, 0.6661248374512354, 0.22227036395147315, 0.001937984496124031, 0.0038461538461538464, 0.5450354609929078, 0.25, 0.25, 0.25, 0.25, 0.25, 0.25, 0.25, 0.25, 0.25, 0.25, 0.25, 0.25, 0.25, 0.00030012004801920766, 0.25, 0.3333251449346566, 0.13335763382628618, 0.25490045941807044, 0.1531667839549613, 0.22785029170374765, 0.000778816199376947, 0.000778816199376947, 0.0009727626459143969, 0.9961139896373057, 0.3748780487804878, 0.25, 0.25, 0.25, 0.25, 0.25, 0.25, 0.25, 0.25, 0.25, 0.25, 0.000778816199376947, 0.25, 0.001937984496124031, 0.001937984496124031, 0.25, 0.010565696431507976, 0.10258378955801843, 0.1000468603561387, 0.1333940655908381, 0.23762567672080434, 0.0005567928730512249, 0.14297658862876253, 0.000778816199376947, 0.001937984496124031, 0.0006493506493506494, 0.25, 0.25, 0.25, 0.25, 0.25, 0.25, 0.25, 0.25, 0.25, 0.25, 0.0009727626459143969, 0.0038461538461538464, 0.25, 0.0006493506493506494, 0.001937984496124031, 6.619009796134498e-05, 0.060650887573964495, 0.00013943112102621306, 0.032367758186397984, 6.97350069735007e-05, 0.25, 0.25, 0.25, 0.25, 0.25, 0.25, 0.25, 0.25, 0.25, 0.25, 0.25, 0.25, 0.25, 0.25, 0.25, 0.25, 0.25, 0.25, 0.25, 0.25, 0.25, 0.25, 0.25, 0.25, 0.25, 0.8737816764132553, 0.2608621860149355, 0.9081560283687943, 0.16133501259445843, 0.6424191750278707, 0.0038461538461538464, 0.001937984496124031, 0.25, 0.25, 0.4993506493506494, 0.25, 0.25, 0.25, 0.25, 0.25, 0.25, 0.25, 0.25, 0.25, 0.25, 0.25, 0.25, 0.25, 0.0038461538461538464, 0.25, 0.00026014568158168577, 0.0005567928730512249, 0.0006493506493506494, 0.000778816199376947, 0.26469912723932015, 0.0012953367875647669, 0.000778816199376947, 0.001937984496124031, 0.0006493506493506494, 0.25, 0.25, 0.25, 0.25, 0.25, 0.25, 0.25, 0.25, 0.25, 0.0005567928730512249, 0.25, 0.0038461538461538464, 0.0038461538461538464, 0.25, 0.00026014568158168577, 0.0009727626459143969, 0.012962962962962963, 9.503896597605019e-06, 1.783548548191482e-05, 1.5438769838819242e-05, 0.006404704001066063, 0.9983296213808464, 0.9998047383493882, 0.9992195629552549, 0.25, 0.25, 0.25, 0.9980519480519481, 0.25, 0.25, 0.25, 0.25, 0.25, 0.25, 0.25, 0.25, 0.25, 0.25, 0.25, 0.25, 0.25, 0.25, 0.25, 0.25, 0.25, 0.25, 0.25531738118976405, 0.00016265452179570593, 0.000778816199376947, 0.25, 0.25, 0.0012953367875647669, 0.0012953367875647669, 0.25, 0.25, 0.25, 0.25, 0.25, 0.25, 0.25, 0.25, 0.25, 0.25, 0.25, 0.25, 0.25, 0.25, 0.25, 0.25, 0.25, 0.25, 0.0001858736059479554, 0.0012953367875647669, 0.25, 0.25, 0.25, 0.001937984496124031, 0.25, 0.25, 0.25, 0.25, 0.25, 0.25, 0.25, 0.25, 0.25, 0.25, 0.25, 0.25, 0.25, 0.25, 0.25, 0.25, 0.25, 0.25, 0.25, 0.0006493506493506494, 0.25, 0.25, 0.25, 0.25, 0.5474902792506186, 0.17734549372739167, 0.20079042873838962, 0.007590104752322898, 1.3469101880286623e-05, 0.0006493506493506494, 0.3181334279630944, 0.9540454222853088, 0.0002787068004459309, 0.0001183151916706105, 0.25, 0.25, 0.25, 0.25, 0.25, 0.25, 0.25, 0.25, 0.25, 0.25, 0.07506833268254588, 0.25, 0.0012953367875647669, 0.25, 0.25, 0.34167682996985527, 0.44645844512483823, 0.4475052872372567, 0.15837751855779428, 0.1434818790122618, 0.46864324060517326, 0.3749593231369997, 0.12909319899244331, 0.00030012004801920766, 0.10530282269114825, 0.25, 0.25, 0.25, 0.25, 0.25, 0.25, 0.25, 0.25, 0.25, 0.25, 0.15191813328060114, 0.7265957446808511, 0.25, 0.1538846615939127, 0.25, 0.18584248223223915, 0.22885626927162958, 0.1432139963735967, 0.12903780068728524, 0.13491028377203382, 0.09095427435387674, 0.09681279919375158, 0.13640397586084488, 0.15793259350595973, 0.07795698924731183, 0.25, 0.25, 0.25, 0.25, 0.25, 0.25, 0.25, 0.25, 0.25, 0.25, 0.044979813937159906, 0.1489697573944832, 0.11123156981786643, 0.00026014568158168577, 0.0002787068004459309, 0.006693201414412374, 0.023098782138024358, 0.010740140313609302, 0.010943336344327531, 0.013484294653367201, 0.13364893080855353, 0.38094426188852376, 0.7065441107680793, 0.893716300290336, 0.0001301405517959396, 0.33322496749024705, 0.7768630849220104, 0.9941860465116279, 0.9884615384615385, 0.09113475177304965, 0.25, 0.25, 0.25, 0.25, 0.25, 0.25, 0.25, 0.25, 0.25, 0.25, 0.25, 0.25, 0.25, 0.9990996398559424, 0.25, 0.5156971602633389, 0.6399187669235576, 0.33330781010719757, 0.6576002814919071, 0.3544200533966182, 0.5989096573208723, 0.39953271028037385, 0.9970817120622568, 0.0012953367875647669, 0.1875609756097561, 0.25, 0.25, 0.25, 0.25, 0.25, 0.25, 0.25, 0.25, 0.25, 0.25, 0.20015576323987538, 0.25, 0.001937984496124031, 0.001937984496124031, 0.25, 0.24210656142081893, 0.21368006409400453, 0.1000468603561387, 0.23334200937011973, 0.1188321732405259, 0.14309576837416482, 0.0002787068004459309, 0.000778816199376947, 0.001937984496124031, 0.16688311688311688, 0.25, 0.25, 0.25, 0.25, 0.25, 0.25, 0.25, 0.25, 0.25, 0.25, 0.0009727626459143969, 0.0038461538461538464, 0.25, 0.0006493506493506494, 0.001937984496124031, 0.01701085517606566, 0.060650887573964495, 0.035833798103736755, 0.0646095717884131, 0.0893305439330544, 0.25, 0.25, 0.25, 0.25, 0.25, 0.25, 0.25, 0.25, 0.25, 0.25, 0.25, 0.25, 0.25, 0.25, 0.25, 0.25, 0.25, 0.25, 0.25, 0.25, 0.25, 0.25, 0.25, 0.25, 0.25, 0.12524366471734893, 0.3043109300746775, 0.09113475177304965, 0.6449622166246851, 0.28567447045707917, 0.0038461538461538464, 0.001937984496124031, 0.25, 0.25, 0.0006493506493506494, 0.25, 0.25, 0.25, 0.25, 0.25, 0.25, 0.25, 0.25, 0.25, 0.25, 0.25, 0.25, 0.25, 0.0038461538461538464, 0.25, 0.00026014568158168577, 0.0005567928730512249, 0.16688311688311688, 0.20015576323987538, 0.2059026182820395, 0.0012953367875647669, 0.000778816199376947, 0.001937984496124031, 0.0006493506493506494, 0.25, 0.25, 0.25, 0.25, 0.25, 0.25, 0.25, 0.25, 0.25, 0.0005567928730512249, 0.25, 0.0038461538461538464, 0.0038461538461538464, 0.25, 0.00026014568158168577, 0.25, 1.0119409026512851e-05, 0.009741494012545144, 0.004583719768852108, 1.5438769838819242e-05, 0.010668954259253089, 0.0005567928730512249, 6.508721687060662e-05, 0.00026014568158168577, 0.25, 0.25, 0.25, 0.0006493506493506494, 0.25, 0.25, 0.25, 0.25, 0.25, 0.25, 0.25, 0.25, 0.25, 0.25, 0.25, 0.25, 0.25, 0.25, 0.25, 0.25, 0.25, 0.25, 0.08516118311731473, 0.00016265452179570593, 0.000778816199376947, 0.25, 0.25, 0.0012953367875647669, 0.0012953367875647669, 0.25, 0.25, 0.25, 0.25, 0.25, 0.25, 0.25, 0.25, 0.25, 0.25, 0.25, 0.25, 0.25, 0.25, 0.25, 0.25, 0.25, 0.25, 0.0001858736059479554, 0.0012953367875647669, 0.25, 0.25, 0.25, 0.001937984496124031, 0.25, 0.25, 0.25, 0.25, 0.25, 0.25, 0.25, 0.25, 0.25, 0.25, 0.25, 0.25, 0.25, 0.25, 0.25, 0.25, 0.25, 0.25, 0.25, 0.0006493506493506494, 0.25, 0.25, 0.25, 0.25, 0.009066808059384942, 0.009870699607480951, 1.5377991019253245e-05, 1.4795525832988105e-05, 1.3469101880286623e-05, 0.16688311688311688, 0.09102200141944641, 0.000177430801987225, 0.0002787068004459309, 0.0001183151916706105, 0.25, 0.25, 0.25, 0.25, 0.25, 0.25, 0.25, 0.25, 0.25, 0.25, 0.6748340491995314, 0.25, 0.9961139896373057, 0.25, 0.25, 0.32547690820811376, 0.2888876613743253, 0.32872588372394146, 0.4615235065394132, 0.21739241194252912, 0.43740849194729137, 0.4374389847054995, 0.5159949622166247, 0.9222689075630253, 0.38592765141134555, 0.25, 0.25, 0.25, 0.25, 0.25, 0.25, 0.25, 0.25, 0.25, 0.25, 0.41768835277832705, 0.0003546099290780142, 0.7480544747081712, 0.7946535843011614, 0.25, 0.4619410414534996, 0.4295144197134195, 0.4394988619266232, 0.4633333333333333, 0.4097765657523779, 0.23636750923033228, 0.33868732678256486, 0.20456159034433793, 0.26315248664200575, 0.22078514911746805, 0.25, 0.25, 0.25, 0.25, 0.25, 0.25, 0.25, 0.25, 0.25, 0.25, 0.30336141829032826, 0.48928215353938187, 0.6107979184735473, 0.2666493236212279, 0.7137681159420289, 0.10368147851382188, 0.09930987821380244, 0.07871677334600441, 0.07187934864871463, 0.050755839167337835, 1.7999856001151992e-05, 1.5500031000062e-05, 2.3388530264758163e-05, 3.456380478363058e-05, 0.0001301405517959396, 0.00032509752925877764, 0.0004332755632582322, 0.001937984496124031, 0.0038461538461538464, 0.36347517730496454, 0.25, 0.25, 0.25, 0.25, 0.25, 0.25, 0.25, 0.25, 0.25, 0.25, 0.25, 0.25, 0.25, 0.00030012004801920766, 0.25, 0.15095312960597426, 0.22667152676525723, 0.41171516079632464, 0.18919774806474313, 0.4177049342430535, 0.39953271028037385, 0.5989096573208723, 0.0009727626459143969, 0.0012953367875647669, 0.4373170731707317, 0.25, 0.25, 0.25, 0.25, 0.25, 0.25, 0.25, 0.25, 0.25, 0.25, 0.7982866043613707, 0.25, 0.9941860465116279, 0.9941860465116279, 0.25, 0.6630899523104753, 0.5384230204299639, 0.5399094033114652, 0.5998178032274857, 0.40591647331786546, 0.2856347438752784, 0.49972129319955405, 0.000778816199376947, 0.49806201550387597, 0.0006493506493506494, 0.25, 0.25, 0.25, 0.25, 0.25, 0.25, 0.25, 0.25, 0.25, 0.25, 0.25, 0.9884615384615385, 0.25, 0.8318181818181818, 0.001937984496124031, 0.15256817580090018, 0.10609467455621302, 0.0715281650864473, 0.09685138539042822, 0.10718270571827057, 0.25, 0.25, 0.25, 0.25, 0.25, 0.25, 0.25, 0.25, 0.25, 0.25, 0.25, 0.25, 0.25, 0.25, 0.25, 0.25, 0.25, 0.25, 0.25, 0.25, 0.25, 0.25, 0.25, 0.25, 0.25, 0.0004873294346978557, 0.4346571622539036, 0.0003546099290780142, 0.19357682619647354, 0.07162764771460424, 0.9884615384615385, 0.9941860465116279, 0.25, 0.25, 0.4993506493506494, 0.25, 0.25, 0.25, 0.25, 0.25, 0.25, 0.25, 0.25, 0.25, 0.25, 0.25, 0.25, 0.25, 0.9884615384615385, 0.25, 0.7994276795005203, 0.428173719376392, 0.8318181818181818, 0.5989096573208723, 0.49988516306844283, 0.6645077720207254, 0.5989096573208723, 0.001937984496124031, 0.33311688311688314, 0.25, 0.25, 0.25, 0.25, 0.25, 0.25, 0.25, 0.25, 0.25, 0.9983296213808464, 0.25, 0.9884615384615385, 0.9884615384615385, 0.25, 0.9992195629552549, 0.0009727626459143969, 0.03627808136004857, 0.04137046188937464, 0.04567667831918385, 0.023729389242265177, 0.053311456841123366, 0.0005567928730512249, 6.508721687060662e-05, 0.00026014568158168577, 0.25, 0.25, 0.25, 0.0006493506493506494, 0.25, 0.25, 0.25, 0.25, 0.25, 0.25, 0.25, 0.25, 0.25, 0.25, 0.25, 0.25, 0.25, 0.25, 0.25, 0.25, 0.25, 0.25, 0.48928215353938187, 0.9995120364346128, 0.9976635514018691, 0.25, 0.25, 0.0012953367875647669, 0.9961139896373057, 0.25, 0.25, 0.25, 0.25, 0.25, 0.25, 0.25, 0.25, 0.25, 0.25, 0.25, 0.25, 0.25, 0.25, 0.25, 0.25, 0.25, 0.25, 0.09535315985130112, 0.9961139896373057, 0.25, 0.25, 0.25, 0.001937984496124031, 0.25, 0.25, 0.25, 0.25, 0.25, 0.25, 0.25, 0.25, 0.25, 0.25, 0.25, 0.25, 0.25, 0.25, 0.25, 0.25, 0.25, 0.25, 0.25, 0.0006493506493506494, 0.25, 0.25, 0.25, 0.25, 1.7674089784376105e-05, 1.9241129839144154e-05, 1.5377991019253245e-05, 1.4795525832988105e-05, 1.3469101880286623e-05, 0.0006493506493506494, 0.000177430801987225, 0.000177430801987225, 0.0002787068004459309, 0.0001183151916706105, 0.25, 0.25, 0.25, 0.25, 0.25, 0.25, 0.25, 0.25, 0.25, 0.25, 9.761811792268645e-05, 0.25, 0.0012953367875647669, 0.25, 0.25, 0.005896633453758888, 0.014148858937533537, 0.03592084250507143, 0.03621420996818664, 0.0043561699670527495, 0.00012201073694485115, 0.06256101529450049, 0.19357682619647354, 0.07713085234093638, 0.05268566730611127, 0.25, 0.25, 0.25, 0.25, 0.25, 0.25, 0.25, 0.25, 0.25, 0.25, 0.08863950959066641, 0.09113475177304965, 0.0009727626459143969, 0.00010012014417300761, 0.25, 0.31327258648820555, 0.2537312465991242, 0.3185158751591374, 0.34017182130584195, 0.2664413880325666, 0.6362539051405851, 0.5160619803476947, 0.6362264820731275, 0.5525071927661324, 0.6362852505579225, 0.25, 0.25, 0.25, 0.25, 0.25, 0.25, 0.25, 0.25, 0.25, 0.25, 0.46063717746182203, 0.2978564307078764, 0.22224631396357328, 0.2666493236212279, 0.14297658862876253, 0.8773580797435943, 0.8648849797023004, 0.8962252284987562, 0.9046715168086716, 0.9198965367697168, 1.7999856001151992e-05, 1.5500031000062e-05, 2.3388530264758163e-05, 3.456380478363058e-05, 0.0001301405517959396, 0.00032509752925877764, 0.0004332755632582322, 0.001937984496124031, 0.0038461538461538464, 0.0003546099290780142, 0.25, 0.25, 0.25, 0.25, 0.25, 0.25, 0.25, 0.25, 0.25, 0.25, 0.25, 0.25, 0.25, 0.00030012004801920766, 0.25, 2.456519603026432e-05, 5.207248489897938e-05, 7.656967840735069e-05, 3.518648838845883e-05, 2.4720656580638783e-05, 0.000778816199376947, 0.000778816199376947, 0.0009727626459143969, 0.0012953367875647669, 0.00024390243902439024, 0.25, 0.25, 0.25, 0.25, 0.25, 0.25, 0.25, 0.25, 0.25, 0.25, 0.000778816199376947, 0.25, 0.001937984496124031, 0.001937984496124031, 0.25, 0.08423778983719783, 0.1453131259180131, 0.2599968759762574, 0.033446121811556484, 0.23762567672080434, 0.5707126948775055, 0.35702341137123744, 0.9976635514018691, 0.49806201550387597, 0.8318181818181818, 0.25, 0.25, 0.25, 0.25, 0.25, 0.25, 0.25, 0.25, 0.25, 0.25, 0.7480544747081712, 0.0038461538461538464, 0.25, 0.16688311688311688, 0.9941860465116279, 0.8303547789250728, 0.772603550295858, 0.8924986056887897, 0.8061712846347607, 0.8034170153417015, 0.25, 0.25, 0.25, 0.25, 0.25, 0.25, 0.25, 0.25, 0.25, 0.25, 0.25, 0.25, 0.25, 0.25, 0.25, 0.25, 0.25, 0.25, 0.25, 0.25, 0.25, 0.25, 0.25, 0.25, 0.25, 0.0004873294346978557, 0.00016972165648336727, 0.0003546099290780142, 0.00012594458438287153, 0.0002787068004459309, 0.0038461538461538464, 0.001937984496124031, 0.25, 0.25, 0.0006493506493506494, 0.25, 0.25, 0.25, 0.25, 0.25, 0.25, 0.25, 0.25, 0.25, 0.25, 0.25, 0.25, 0.25, 0.0038461538461538464, 0.25, 0.20005202913631634, 0.5707126948775055, 0.0006493506493506494, 0.20015576323987538, 0.02951309141019752, 0.3329015544041451, 0.39953271028037385, 0.9941860465116279, 0.6655844155844156, 0.25, 0.25, 0.25, 0.25, 0.25, 0.25, 0.25, 0.25, 0.25, 0.0005567928730512249, 0.25, 0.0038461538461538464, 0.0038461538461538464, 0.25, 0.00026014568158168577, 0.7480544747081712, 0.9507488362679619, 0.9488785402014827, 0.9497217664264821, 0.9762397332180572, 0.9296148848985575, 0.0005567928730512249, 6.508721687060662e-05, 0.00026014568158168577, 0.25, 0.25, 0.25, 0.0006493506493506494, 0.25, 0.25, 0.25, 0.25, 0.25, 0.25, 0.25, 0.25, 0.25, 0.25, 0.25, 0.25, 0.25, 0.25, 0.25, 0.25, 0.25, 0.25, 0.1702392821535394, 0.00016265452179570593, 0.000778816199376947, 0.25, 0.25, 0.9961139896373057, 0.0012953367875647669, 0.25, 0.25, 0.25, 0.25, 0.25, 0.25, 0.25, 0.25, 0.25, 0.25, 0.25, 0.25, 0.25, 0.25, 0.25, 0.25, 0.25, 0.25, 0.904275092936803, 0.0012953367875647669, 0.25, 0.25, 0.25, 0.9941860465116279, 0.25, 0.25, 0.25, 0.25, 0.25, 0.25, 0.25, 0.25, 0.25, 0.25, 0.25, 0.25, 0.25, 0.25, 0.25, 0.25, 0.25, 0.25, 0.25, 0.9980519480519481, 0.25, 0.25, 0.25, 0.25 ;
}
probability ( close_num | accept_num, pre_prs ) {
    table 0.9918555795942683, 0.5061330561330561, 0.25, 0.25, 0.7426029588164734, 0.021964352844917184, 0.0003146237100427888, 0.25, 0.25, 0.00032375032375032373, 2.8292705008940495e-05, 0.00041050903119868636, 0.25, 0.014705882352941176, 0.00018240186779512624, 1.2304481784445166e-05, 0.008066033298843006, 0.49282744282744284, 0.25, 0.25, 0.2563974410235906, 0.9394142102120696, 0.5600931286181726, 0.25, 0.25, 0.8374125874125874, 0.03262148887530839, 0.00041050903119868636, 0.25, 0.5794117647058824, 0.00018240186779512624, 1.2304481784445166e-05, 3.919355344432948e-05, 0.0005197505197505198, 0.25, 0.25, 0.0004998000799680128, 0.03611706950310696, 0.4191417065190033, 0.25, 0.25, 0.16193991193991195, 0.9184321314592245, 0.6099343185550082, 0.25, 0.3911764705882353, 0.8196775134977382, 0.03403173571941844, 3.919355344432948e-05, 0.0005197505197505198, 0.25, 0.25, 0.0004998000799680128, 0.002504367439906238, 0.020450541152781273, 0.25, 0.25, 0.00032375032375032373, 0.048918086960458115, 0.3892446633825944, 0.25, 0.014705882352941176, 0.17995768276667154, 0.9659436553170127 ;
}
probability ( comment_num | commit_num, has_assignees_content, participants_count, review_comment_num ) {
    table 0.6737853008244168, 0.31282174330337664, 0.15808370947886746, 0.09749699639567481, 0.05757238307349666, 0.029462439696760854, 0.25, 4.388274530454625e-05, 0.8595735232813151, 0.8103144621981725, 0.35711297071129705, 0.3186011790827655, 0.16669312337291256, 0.06225216476491058, 0.018115942028985508, 7.049004680539108e-05, 0.5575807036634023, 0.6091557887031841, 0.06714285714285714, 0.09531003067769825, 0.0006716818914562063, 0.015167569264578918, 0.25, 7.152257252388854e-05, 0.6920240887228207, 0.7021455983253867, 0.163399829892523, 0.24193751574703956, 0.05480018242973605, 0.047038789411428805, 0.018115942028985508, 4.172647461361284e-05, 0.6334157474324839, 0.38754891040470685, 0.06498240321769734, 0.04134476747939487, 0.11151182919792267, 0.005733357106242618, 0.25, 2.0776198786669992e-05, 0.6725431252458279, 0.5940723492855667, 0.17297757426323823, 0.15973038462233957, 0.05120825259318363, 0.03263465206692197, 0.018115942028985508, 0.0005613917352812121, 0.25, 0.4952107279693487, 0.25, 0.20076923076923076, 0.018115942028985508, 0.0027593818984547464, 0.25, 0.006345177664974619, 0.8504415011037527, 0.9947108603667136, 0.006345177664974619, 0.33121827411167515, 0.004789272030651341, 0.33121827411167515, 0.25, 0.004789272030651341, 0.19106297140852482, 0.6869601256434866, 0.28939269593762823, 0.41531838205847016, 0.22861915367483296, 0.13532046864231564, 0.25, 0.027005441460417764, 0.11718141119750602, 0.18955791515646536, 0.3499721059972106, 0.49500421100987674, 0.24796812496031495, 0.3315731973780044, 0.018115942028985508, 0.02172503242542153, 0.348657961552412, 0.3905392216664633, 0.23337662337662338, 0.44633726875522917, 0.1038420204191295, 0.1960010988148497, 0.25, 0.014719345425416261, 0.25190801764916326, 0.2903147652827848, 0.3712402381504678, 0.5418619299571681, 0.13506926629040533, 0.30808214708161685, 0.018115942028985508, 0.01926928597656641, 0.3169456066945607, 0.6032402250592637, 0.29022121669180495, 0.41458284017301855, 0.14844200807847663, 0.1597818092669772, 0.25, 0.009594448599684202, 0.2517980558521099, 0.40080185005642355, 0.3758659152283668, 0.5034493047142005, 0.14604468254872904, 0.31127233280428673, 0.018115942028985508, 0.008820948300338126, 0.25, 0.4952107279693487, 0.25, 0.20076923076923076, 0.018115942028985508, 0.28532008830022076, 0.25, 0.006345177664974619, 0.0027593818984547464, 0.001763046544428773, 0.6560913705583756, 0.6560913705583756, 0.004789272030651341, 0.6560913705583756, 0.25, 0.004789272030651341, 0.11248026661989124, 0.00010906552656836228, 0.34191629052113254, 0.487084501401682, 0.4566815144766147, 0.8292786583965082, 0.25, 0.30336141829032826, 0.02090243416163703, 6.381132268109654e-05, 0.25357043235704324, 0.18629890513743205, 0.3780081275001587, 0.5801772274823986, 0.018115942028985508, 0.35737043929397166, 0.0700943054044251, 0.000152494815176284, 0.6323376623376623, 0.458236497164637, 0.4477431488447072, 0.7837100698532298, 0.25, 0.23443668821880184, 0.05347418213618476, 0.007491181145094391, 0.4207260496404546, 0.21613756613756613, 0.41601105980274783, 0.5900089733654199, 0.018115942028985508, 0.23931802249891512, 0.049163179916317995, 0.009175163510696027, 0.6119909502262444, 0.5440454926940541, 0.3330929024812464, 0.8330306001916691, 0.25, 0.17447436217069726, 0.0755885823453391, 0.005105933213598869, 0.4209522132206176, 0.3367977070939043, 0.43784908241194576, 0.6495515237998165, 0.9456521739130435, 0.15749296647136257, 0.25, 0.004789272030651341, 0.25, 0.5946153846153847, 0.9456521739130435, 0.7091611479028698, 0.25, 0.006345177664974619, 0.14403973509933773, 0.001763046544428773, 0.33121827411167515, 0.006345177664974619, 0.7404214559386973, 0.006345177664974619, 0.25, 0.004789272030651341, 0.022671461147167164, 0.00010906552656836228, 0.21060730406237177, 0.00010012014417300761, 0.25712694877505565, 0.005938433264415345, 0.25, 0.6695892575039495, 0.0023426313595418047, 6.381132268109654e-05, 0.03934449093444909, 9.57047699257331e-05, 0.20733062416661374, 0.025997410374686412, 0.9456521739130435, 0.6208340382338013, 0.02366702937976061, 0.000152494815176284, 0.06714285714285714, 0.00011620340243562332, 0.4477431488447072, 0.005121262067341653, 0.25, 0.750772443783258, 0.0025937114918312995, 4.845524673411637e-05, 0.04463388231655455, 6.298815822625347e-05, 0.3941194914771108, 0.05487009014153445, 0.9456521739130435, 0.7413709650499049, 0.00047546595663750473, 3.5701025333447575e-05, 0.032805429864253395, 2.6899653532462503e-05, 0.4069532602423543, 0.001454233435111101, 0.25, 0.8159104130308319, 7.02365567230432e-05, 1.986744441089054e-05, 0.030204297287777387, 2.2603569555704236e-05, 0.3648979824461416, 0.006541491328974766, 0.018115942028985508, 0.8331246934930181, 0.25, 0.004789272030651341, 0.25, 0.0038461538461538464, 0.018115942028985508, 0.0027593818984547464, 0.25, 0.9809644670050761, 0.0027593818984547464, 0.001763046544428773, 0.006345177664974619, 0.006345177664974619, 0.25, 0.006345177664974619, 0.25, 0.985632183908046 ;
}
probability ( commit_num | file_changed_num, review_comment_num, total_add_line ) {
    table 0.7684043828111625, 0.5639348638547784, 0.3566666666666667, 0.027777777777777776, 0.027777777777777776, 0.778561490299142, 0.3175643751476494, 0.22223551938726663, 0.27247191011235955, 0.11602870813397129, 0.6092938733125649, 0.48301403430608153, 0.37842965557501457, 0.20975855130784707, 0.014705882352941176, 0.2600580270793037, 0.20136434327725153, 0.13623159032563167, 0.07723087042315281, 0.056678383128295255, 0.37678936605316976, 0.382404181184669, 0.2881221320155312, 0.12762906309751434, 0.1285796105383734, 0.11622073578595318, 0.0954567135702361, 0.04569988402176822, 0.018995442342511083, 0.011584015189186746, 0.25, 0.25, 0.25, 0.25, 0.14349112426035504, 0.25, 0.25, 0.25, 0.25, 0.10727029438001784, 0.1534411915767848, 0.24786438868126, 0.4988888888888889, 0.9166666666666666, 0.9166666666666666, 0.10267063461389812, 0.2608669974013702, 0.21840593585447582, 0.45224719101123595, 0.11602870813397129, 0.2133091034960194, 0.336879037647583, 0.38309982486865146, 0.3546277665995976, 0.9558823529411765, 0.26934235976789167, 0.34840237522974693, 0.35566139710849887, 0.2947270335452752, 0.29569420035149385, 0.3440695296523517, 0.4102787456445993, 0.41237204376985526, 0.47944550669216063, 0.4309851088201604, 0.25, 0.2767111853088481, 0.2219867963243822, 0.15634950365236935, 0.07993535554450522, 0.25, 0.25, 0.25, 0.25, 0.14349112426035504, 0.25, 0.25, 0.25, 0.25, 0.22859054415700267, 0.07811162472179421, 0.1880672717565403, 0.14333333333333334, 0.027777777777777776, 0.027777777777777776, 0.11874855066862487, 0.4215095676824947, 0.5592388702728578, 0.27247191011235955, 0.7667464114832536, 0.1773104880581516, 0.18005123635553574, 0.23832457676590776, 0.4351106639839034, 0.014705882352941176, 0.47050290135396516, 0.45019793581224377, 0.5080732333468451, 0.6279872834904626, 0.6471880492091389, 0.27862985685071573, 0.20719263315082131, 0.2994175785386516, 0.39276609305289995, 0.4401489117983963, 0.6335005574136009, 0.6277724779394228, 0.7322910161477384, 0.8246394455890617, 0.9084693277880747, 0.25, 0.25, 0.25, 0.25, 0.0014792899408284023, 0.25, 0.25, 0.25, 0.25, 0.37845673505798394, 4.2800890258517374e-05, 0.00013347570742124932, 0.0011111111111111111, 0.027777777777777776, 0.027777777777777776, 1.9324418335008117e-05, 5.9059768485707536e-05, 0.00011967448539971278, 0.0028089887640449437, 0.0011961722488038277, 8.653513326410523e-05, 5.569169079973268e-05, 0.00014594279042615295, 0.0005030181086519115, 0.014705882352941176, 9.671179883945841e-05, 3.53456807578114e-05, 3.3779219024456154e-05, 5.4812541109405835e-05, 0.0004393673110720562, 0.0005112474437627812, 0.00012444001991040318, 8.824567596187787e-05, 0.00015933715742511153, 0.000286368843069874, 0.0002787068004459309, 5.9623181492964464e-05, 2.2303506111160674e-05, 1.560841605793844e-05, 1.1301478233352923e-05, 0.25, 0.25, 0.25, 0.25, 0.7115384615384616, 0.25, 0.25, 0.25, 0.25, 0.2856824264049955 ;
}
probability ( file_changed_num | total_add_line, total_delete_line ) {
    table 0.8454114221303775, 0.5998182762201454, 0.4928180574555403, 0.4603718199608611, 0.4456128448665762, 0.47981435920375753, 0.2314936281859071, 0.12578526556253566, 0.07599431818181816, 0.05865134431916739, 0.394704433497537, 0.15636895051658511, 0.026227840743969777, 0.008965314520870075, 0.010029840848806365, 0.2854609929078014, 0.017309875141884222, 0.0005972016835399841, 0.00012370113805047008, 0.00010499790004199917, 0.28369272237196763, 0.04033546325878594, 0.00024015369836695484, 2.3516132066597685e-05, 0.0017436067751577548, 0.12589235393575052, 0.3505970924195223, 0.4107387140902872, 0.43101761252446186, 0.40038444142921753, 0.3266047864012525, 0.5200993253373314, 0.6483438035408338, 0.6299715909090908, 0.5161535125758889, 0.29618226600985226, 0.37591761827079934, 0.38513513513513514, 0.4087301587301587, 0.2620192307692308, 0.2854609929078014, 0.35783200908059026, 0.25710954385166646, 0.11887679366650172, 0.12820243595128097, 0.35107816711590295, 0.20007987220447285, 0.0914985590778098, 2.3516132066597685e-05, 0.005064762537363002, 0.028672740935562647, 0.049454828660436136, 0.09610123119015047, 0.10812133072407047, 0.1538896426956128, 0.19352493849250726, 0.2483601949025488, 0.22572815533980578, 0.2937973484848484, 0.42508673026886384, 0.30849753694581283, 0.46767944535073414, 0.5885643708224353, 0.5821575543797766, 0.7278680371352785, 0.42730496453900707, 0.6245743473325767, 0.7422648162893868, 0.8808758040573974, 0.871587568248635, 0.36455525606469, 0.759185303514377, 0.9080211335254563, 0.9999294516038002, 0.7257555629359017, 2.348299830922412e-05, 0.00012980269989615784, 0.0003419972640218878, 0.0004892367906066537, 0.00011307100859339665, 5.591590248266607e-05, 4.6851574212893565e-05, 0.00014277555682467162, 0.0002367424242424242, 0.00010841283607979184, 0.0006157635467980297, 3.398586188145732e-05, 7.265329845975008e-05, 0.00014697236919459142, 8.289124668435013e-05, 0.0017730496453900709, 0.0002837684449489217, 2.843817540666591e-05, 0.00012370113805047008, 0.00010499790004199917, 0.0006738544474393531, 0.0003993610223642173, 0.00024015369836695484, 2.3516132066597685e-05, 0.2674360677515775 ;
}
probability ( has_assignees_content | author_identity, change_num, label_count, workload ) {
    table 0.009514994446501297, 0.04463130659767141, 0.00018162005085361425, 0.33419689119170987, 0.33419689119170987, 0.42969608202123766, 0.30211554109031735, 0.3126829268292683, 0.11178509532062392, 0.11144839549002603, 0.7435409573402764, 0.6719785026871641, 0.7556240822320117, 0.7352842879224631, 0.5586285690759001, 0.5, 0.9961240310077519, 0.9961240310077519, 0.856347438752784, 0.5, 0.0026381447093950672, 0.04622802041973908, 0.06471045472211426, 0.2509727626459144, 0.0019455252918287938, 0.10303239145416954, 0.21133113311331134, 0.5832791151594015, 0.0006002400960384153, 0.22270363951473138, 0.5094311818449749, 0.18610354223433243, 0.3837420526793824, 0.31328816111424806, 0.7715787443340727, 0.5, 0.007692307692307693, 0.5, 0.5, 0.5, 0.012809408002132126, 0.03275982329690769, 0.0903222306607356, 0.003875968992248062, 0.09148936170212765, 0.16480248557478916, 0.16526287189240593, 0.3617480890661349, 0.11918928969877278, 0.11773489547438548, 0.5319042871385843, 0.3524029162327035, 0.5156237285377167, 0.4715203955500618, 0.6675462289632246, 0.5, 0.9923076923076923, 0.5, 0.9974093264248705, 0.9923076923076923, 0.007519061583577713, 0.005267478451224518, 0.03059971344749949, 0.06292682926829268, 0.0004108463434675431, 0.1404301995826422, 0.3365978202880878, 0.3365630163737419, 0.13597755194903685, 0.20385112946561848, 0.5376280866789854, 0.39011932354708556, 0.5115601715962972, 0.44590302502497375, 0.6116244784056655, 0.5, 0.9923076923076923, 0.9961240310077519, 0.5, 0.9085106382978724, 0.007997520148791072, 0.031992687385740404, 0.05734047300312361, 0.5, 0.003875968992248062, 0.057241687123409955, 0.08709677419354839, 0.33362218370883884, 0.5, 0.5, 0.7962105872143477, 0.434804753820034, 0.434826883910387, 0.588194763435921, 0.7525366403607666, 0.5, 0.5, 0.5, 0.9923076923076923, 0.007692307692307693, 0.00010848340203948796, 0.08903158625477264, 0.0007092198581560284, 0.0009746588693957114, 0.5, 0.1277833167165171, 0.1178226917776757, 0.2501626545217957, 0.16021236727045596, 0.0025906735751295338, 0.7998126171143035, 0.40778097982708933, 0.580345933881992, 0.4207392588358579, 0.8665902936888148, 0.5, 0.5, 0.5, 0.5, 0.5, 0.06397474243934861, 0.0003003003003003003, 0.034733441033925685, 0.007692307692307693, 0.0025906735751295338, 0.11377351792687256, 0.07158795091111937, 0.40031152647975077, 0.11178509532062392, 0.2730496453900709, 0.3573021181716834, 0.36673607496095784, 0.6665221162185603, 0.45001952362358455, 0.5636273256639682, 0.5, 0.5, 0.5, 0.5, 0.5, 0.04196486662329213, 0.0005202913631633715, 0.1878048780487805, 0.5, 0.003875968992248062, 0.3637331440738112, 0.21444506413831568, 0.25048732943469787, 0.003875968992248062, 0.0011135857461024498, 0.2779705117085863, 0.4333680374804789, 0.3685291700903862, 0.32011242973141785, 0.6119141991140126, 0.5, 0.5, 0.5, 0.9923076923076923, 0.5, 0.0009746588693957114, 0.0025906735751295338, 0.0025906735751295338, 0.5, 0.5, 0.007692307692307693, 0.007692307692307693, 0.5, 0.9923076923076923, 0.003875968992248062, 0.9974093264248705, 0.5, 0.7138084632516704, 0.7490272373540856, 0.9562118126272913, 0.5, 0.5, 0.5, 0.5, 0.5, 0.007692307692307693, 0.00078003120124805, 0.5, 0.5, 0.5, 0.5, 0.9923076923076923, 0.5, 0.0025906735751295338, 0.007692307692307693, 0.5, 0.5, 0.9923076923076923, 0.0004336513443191674, 0.7644628099173554, 0.5, 0.5, 0.5, 0.5, 0.5, 0.0003717472118959108, 0.07717717717717718, 0.0009746588693957114, 0.0025906735751295338, 0.5, 0.16753246753246753, 0.6247563352826511, 0.0025906735751295338, 0.0008665511265164644, 0.25048732943469787, 0.33419689119170987, 0.9961240310077519, 0.9980544747081712, 0.46430563301728944, 0.5384461353624349, 0.5, 0.5, 0.5, 0.5, 0.5, 0.02371267449385227, 0.051176209498446514, 0.06568501920614597, 0.10558751027115859, 0.05922865013774105, 0.17005155444461803, 0.39417265366632454, 0.43285148053159245, 0.25008874689385874, 0.16674556213017752, 0.49505027068832175, 0.45783926218708826, 0.7160077145612344, 0.7902981940361192, 0.7597475719044714, 0.007692307692307693, 0.5, 0.9923076923076923, 0.9974093264248705, 0.9597126795752654, 0.5, 0.33376623376623377, 0.007692307692307693, 0.5, 0.5, 0.5262941659819228, 0.09394826744753539, 0.001557632398753894, 0.5, 0.5, 0.5, 0.28583379810373677, 0.11178509532062392, 0.5, 0.5, 0.5, 0.5, 0.5, 0.5, 0.5, 0.5, 0.5, 0.5, 0.5, 0.5, 0.9980544747081712, 0.5, 0.5, 0.5, 0.5, 0.5, 0.5, 0.5, 0.5, 0.5, 0.5, 0.5, 0.5, 0.5, 0.5, 0.0025906735751295338, 0.5, 0.5, 0.5, 0.5, 0.5454222853087296, 0.12573099415204678, 0.007692307692307693, 0.5, 0.5, 0.5, 0.27288857345635203, 0.0019455252918287938, 0.5, 0.5, 0.5, 0.5, 0.5, 0.5, 0.5, 0.33419689119170987, 0.5, 0.5, 0.5, 0.5, 0.6314708299096138, 0.5, 0.5, 0.5, 0.5, 0.8746341463414634, 0.5, 0.5, 0.5, 0.5, 0.5, 0.5, 0.5, 0.5, 0.5, 0.9904850055534987, 0.9553686934023286, 0.9998183799491464, 0.6658031088082902, 0.6658031088082902, 0.5703039179787623, 0.6978844589096826, 0.6873170731707318, 0.8882149046793761, 0.888551604509974, 0.25645904265972364, 0.3280214973128359, 0.24437591776798825, 0.26471571207753686, 0.44137143092409986, 0.5, 0.003875968992248062, 0.003875968992248062, 0.14365256124721604, 0.5, 0.997361855290605, 0.9537719795802609, 0.9352895452778858, 0.7490272373540856, 0.9980544747081712, 0.8969676085458305, 0.7886688668866887, 0.41672088484059855, 0.9993997599039616, 0.7772963604852686, 0.49056881815502507, 0.8138964577656675, 0.6162579473206177, 0.6867118388857519, 0.22842125566592728, 0.5, 0.9923076923076923, 0.5, 0.5, 0.5, 0.9871905919978679, 0.9672401767030923, 0.9096777693392644, 0.9961240310077519, 0.9085106382978724, 0.8351975144252108, 0.834737128107594, 0.638251910933865, 0.8808107103012273, 0.8822651045256146, 0.46809571286141577, 0.6475970837672965, 0.48437627146228335, 0.5284796044499382, 0.3324537710367754, 0.5, 0.007692307692307693, 0.5, 0.0025906735751295338, 0.007692307692307693, 0.9924809384164223, 0.9947325215487755, 0.9694002865525005, 0.9370731707317074, 0.9995891536565324, 0.8595698004173578, 0.6634021797119122, 0.663436983626258, 0.8640224480509632, 0.7961488705343815, 0.4623719133210146, 0.6098806764529144, 0.48843982840370287, 0.5540969749750263, 0.3883755215943345, 0.5, 0.007692307692307693, 0.003875968992248062, 0.5, 0.09148936170212765, 0.9920024798512089, 0.9680073126142597, 0.9426595269968764, 0.5, 0.9961240310077519, 0.9427583128765901, 0.9129032258064517, 0.6663778162911612, 0.5, 0.5, 0.2037894127856523, 0.5651952461799661, 0.5651731160896131, 0.411805236564079, 0.24746335963923338, 0.5, 0.5, 0.5, 0.007692307692307693, 0.9923076923076923, 0.9998915165979605, 0.9109684137452273, 0.999290780141844, 0.9990253411306043, 0.5, 0.8722166832834829, 0.8821773082223243, 0.7498373454782042, 0.839787632729544, 0.9974093264248705, 0.20018738288569643, 0.5922190201729106, 0.4196540661180081, 0.5792607411641422, 0.13340970631118518, 0.5, 0.5, 0.5, 0.5, 0.5, 0.9360252575606514, 0.9996996996996997, 0.9652665589660743, 0.9923076923076923, 0.9974093264248705, 0.8862264820731275, 0.9284120490888806, 0.5996884735202492, 0.8882149046793761, 0.7269503546099291, 0.6426978818283167, 0.6332639250390422, 0.3334778837814397, 0.5499804763764155, 0.43637267433603183, 0.5, 0.5, 0.5, 0.5, 0.5, 0.9580351333767079, 0.9994797086368367, 0.8121951219512196, 0.5, 0.9961240310077519, 0.6362668559261888, 0.7855549358616843, 0.7495126705653021, 0.9961240310077519, 0.9988864142538976, 0.7220294882914137, 0.5666319625195211, 0.6314708299096138, 0.6798875702685822, 0.38808580088598743, 0.5, 0.5, 0.5, 0.007692307692307693, 0.5, 0.9990253411306043, 0.9974093264248705, 0.9974093264248705, 0.5, 0.5, 0.9923076923076923, 0.9923076923076923, 0.5, 0.007692307692307693, 0.9961240310077519, 0.0025906735751295338, 0.5, 0.28619153674832964, 0.2509727626459144, 0.04378818737270876, 0.5, 0.5, 0.5, 0.5, 0.5, 0.9923076923076923, 0.999219968798752, 0.5, 0.5, 0.5, 0.5, 0.007692307692307693, 0.5, 0.9974093264248705, 0.9923076923076923, 0.5, 0.5, 0.007692307692307693, 0.9995663486556808, 0.23553719008264462, 0.5, 0.5, 0.5, 0.5, 0.5, 0.9996282527881041, 0.9228228228228228, 0.9990253411306043, 0.9974093264248705, 0.5, 0.8324675324675325, 0.37524366471734893, 0.9974093264248705, 0.9991334488734835, 0.7495126705653021, 0.6658031088082902, 0.003875968992248062, 0.0019455252918287938, 0.5356943669827106, 0.4615538646375651, 0.5, 0.5, 0.5, 0.5, 0.5, 0.9762873255061477, 0.9488237905015535, 0.934314980793854, 0.8944124897288415, 0.940771349862259, 0.8299484455553819, 0.6058273463336754, 0.5671485194684076, 0.7499112531061413, 0.8332544378698225, 0.5049497293116783, 0.5421607378129117, 0.28399228543876565, 0.20970180596388072, 0.24025242809552855, 0.9923076923076923, 0.5, 0.007692307692307693, 0.0025906735751295338, 0.04028732042473454, 0.5, 0.6662337662337663, 0.9923076923076923, 0.5, 0.5, 0.47370583401807725, 0.9060517325524646, 0.9984423676012462, 0.5, 0.5, 0.5, 0.7141662018962632, 0.8882149046793761, 0.5, 0.5, 0.5, 0.5, 0.5, 0.5, 0.5, 0.5, 0.5, 0.5, 0.5, 0.5, 0.0019455252918287938, 0.5, 0.5, 0.5, 0.5, 0.5, 0.5, 0.5, 0.5, 0.5, 0.5, 0.5, 0.5, 0.5, 0.5, 0.9974093264248705, 0.5, 0.5, 0.5, 0.5, 0.4545777146912704, 0.8742690058479532, 0.9923076923076923, 0.5, 0.5, 0.5, 0.727111426543648, 0.9980544747081712, 0.5, 0.5, 0.5, 0.5, 0.5, 0.5, 0.5, 0.6658031088082902, 0.5, 0.5, 0.5, 0.5, 0.3685291700903862, 0.5, 0.5, 0.5, 0.5, 0.12536585365853659, 0.5, 0.5, 0.5, 0.5, 0.5, 0.5, 0.5, 0.5, 0.5 ;
}
probability ( has_bug | body_words ) {
    table 0.924198717948718, 0.9658482845451684, 0.9795447554598585, 0.9950357426528992, 0.9998478393183201, 0.07580128205128205, 0.0341517154548316, 0.020455244540141495, 0.004964257347100874, 0.00015216068167985393 ;
}
probability ( has_document | body_words, has_improve ) {
    table 0.9438475742823569, 0.9346289752650176, 0.9626865671641791, 0.9634146341463414, 0.9732765298218435, 0.8191489361702128, 0.9863518629209006, 0.6176470588235294, 0.9999239080809618, 0.5, 0.05615242571764311, 0.06537102473498234, 0.03731343283582089, 0.036585365853658534, 0.026723470178156468, 0.18085106382978725, 0.013648137079099423, 0.38235294117647056, 7.609191903819814e-05, 0.5 ;
}
probability ( has_feature | body_words ) {
    table 0.954647435897436, 0.9828454516839786, 0.9921562596124269, 0.9958300238284352, 0.9998478393183201, 0.0453525641025641, 0.017154548316021402, 0.007843740387573054, 0.0041699761715647335, 0.00015216068167985393 ;
}
probability ( has_improve | body_words ) {
    table 0.954647435897436, 0.9806421152030217, 0.9927714549369425, 0.9966243050039714, 0.9998478393183201, 0.0453525641025641, 0.01935788479697828, 0.00722854506305752, 0.003375694996028594, 0.00015216068167985393 ;
}
probability ( has_labels ) {
    table 0.004331683168316832, 0.9956683168316832 ;
}
probability ( has_refactor ) {
    table 0.9935187597707139, 0.006481240229286087 ;
}
probability ( is_weekday | has_assignees_content, priorities_number ) {
    table 0.20868347338935575, 0.18790637191157347, 0.28020477815699657, 0.14998385534388117, 0.1142707240293809, 0.16434840205332008, 0.15164337728793545, 0.21329127691973027, 0.0611827618748034, 0.05350553505535055, 0.7913165266106442, 0.8120936280884266, 0.7197952218430034, 0.8500161446561189, 0.8857292759706191, 0.8356515979466799, 0.8483566227120646, 0.7867087230802697, 0.9388172381251966, 0.9464944649446494 ;
}
probability ( label_count | has_labels, has_refactor ) {
    table 0.004789272030651341, 0.25, 0.3162068511415826, 0.6749363867684478, 0.004789272030651341, 0.25, 0.1814885841742251, 0.15585241730279897, 0.004789272030651341, 0.25, 0.5022839882137977, 0.16603053435114504, 0.985632183908046, 0.25, 2.0576470394574398e-05, 0.0031806615776081423 ;
}
probability ( mergable_state | author_identity, label_count ) {
    table 0.9225728195532299, 0.8726890458110074, 0.887224188823922, 0.5454091816367266, 0.9600325806089204, 0.9495031937544358, 0.9110447676721942, 0.6273584905660378, 0.7616002379535991, 0.7127291242362526, 0.5849148012028066, 0.06855670103092784, 0.9823943661971831, 0.9978753541076487, 0.9718282111899134, 0.25, 0.0008155458775604828, 0.005154181895603421, 0.006528426505015777, 0.0344311377245509, 0.00014043365913942254, 0.002448545067423705, 0.0027873677061520177, 0.02358490566037736, 0.011570493753718025, 0.02189409368635438, 0.026812562646174407, 0.002577319587628866, 0.005868544600938967, 0.000708215297450425, 0.0009850275807722615, 0.25, 0.07579608869164914, 0.1107572477910649, 0.10605229526922337, 0.4176646706586826, 0.03968655207280081, 0.04332860184528034, 0.08428603769313486, 0.32547169811320753, 0.22287328970850684, 0.2586897488119484, 0.38711994654193116, 0.9262886597938145, 0.005868544600938967, 0.000708215297450425, 0.02620173364854216, 0.25, 0.0008155458775604828, 0.011399524502324261, 0.00019508940183892966, 0.00249500998003992, 0.00014043365913942254, 0.004719659332860185, 0.001881826928518875, 0.02358490566037736, 0.003955978584176086, 0.006687033265444671, 0.0011526896090878716, 0.002577319587628866, 0.005868544600938967, 0.000708215297450425, 0.0009850275807722615, 0.25 ;
}
probability ( participants_count | close_num, has_assignees_content, review_comment_num, workload ) {
    table 0.25, 0.0015527950310559005, 0.28555555555555556, 0.11206896551724138, 0.25, 0.015853658536585366, 0.023733398917855385, 0.03908869247180738, 0.036939820742637644, 0.010494630654083957, 0.37354152367879206, 0.32426160337552745, 0.3271850170261067, 0.5751417769376181, 0.16695501730103807, 0.11366402921485089, 0.04695803555066887, 0.09145112529392005, 0.13214496169711254, 0.07050153981522217, 0.33163265306122447, 0.05327868852459016, 0.28555555555555556, 0.7245762711864406, 0.2580482897384306, 8.010253123998718e-05, 0.029546846295162278, 0.05306164666942491, 0.1212608860280197, 0.05899042004421518, 0.33330781010719757, 0.3011855476100866, 0.4265195670274771, 0.7770457697642164, 0.5864993215739485, 0.09092647219490878, 0.08507811241745852, 0.08815028901734104, 0.39176105224698576, 0.17621243677476942, 0.00510204081632653, 0.41580310880829013, 0.40704387990762125, 0.6136363636363636, 0.42077175697865354, 0.011939750183688464, 0.043149764942914705, 0.11977562692476902, 0.20995857783914393, 0.14866291344123855, 0.40472353087031987, 0.41699355561782014, 0.433237896928683, 0.7595753538717736, 0.8712034383954155, 0.0966658449402194, 0.10325743200506009, 0.17469304229195087, 0.40507850048061517, 0.5267085076708508, 0.7423076923076923, 0.3329015544041451, 0.7132516703786191, 0.7188279301745636, 0.733794466403162, 0.055012015104703056, 0.04883159766319533, 0.18899138991389913, 0.3545072574484339, 0.4586250899810222, 0.5393058844962653, 0.5772225507589198, 0.5902333458788107, 0.8527195883866225, 0.9164931007550117, 0.19606064754603328, 0.2386789566281649, 0.24734086754196444, 0.5701928042692374, 0.7349054387407494, 0.25, 0.39906832298136646, 0.21444444444444444, 0.6637931034482759, 0.49870466321243523, 0.015853658536585366, 0.05521396950319724, 0.0781011886619933, 0.10659411011523688, 0.0729742922225838, 0.25274536719286206, 0.20274261603375526, 0.2908626560726447, 0.42391304347826086, 0.4991349480968858, 0.1396327855548793, 0.10559831409199194, 0.09145112529392005, 0.2452857984678845, 0.14089309282886053, 0.33163265306122447, 0.05327868852459016, 0.14333333333333334, 0.18220338983050846, 0.3546277665995976, 0.035966036526754244, 0.0981322718922229, 0.15235829540753, 0.20001893222264294, 0.20283714075165807, 0.23039816232771823, 0.29516371847948814, 0.3066194837635304, 0.17787794729542303, 0.23914518317503392, 0.10141483666557413, 0.09538573039136737, 0.12338287916322599, 0.3099196200219218, 0.2380987801249628, 0.6581632653061225, 0.16709844559585493, 0.2592378752886836, 0.23086124401913877, 0.3682266009852217, 0.023695811903012492, 0.05389523169912693, 0.16201055873295206, 0.4308767690714532, 0.3355735397607319, 0.2460327299776841, 0.2197394228075091, 0.2250130140551796, 0.20004163197335553, 0.11934097421203438, 0.13216442746209786, 0.16802656546489564, 0.1397680763983629, 0.3333066324895867, 0.28570432357043235, 0.25, 0.41580310880829013, 0.14309576837416482, 0.20012468827930174, 0.25316205533596836, 0.1264160659114315, 0.154495808991618, 0.2519680196801968, 0.36428571428571427, 0.3560140043190891, 0.23906904718527966, 0.23974965503646758, 0.22892359804290555, 0.1294560823226755, 0.07921114293152824, 0.22453624478061468, 0.2239921976592978, 0.21277214558750207, 0.30026682733689103, 0.23496417244214732, 0.25, 0.5978260869565217, 0.4988888888888889, 0.22241379310344828, 0.25, 0.265609756097561, 0.14965568125922282, 0.22439804937519048, 0.26638924455825863, 0.3228929384965831, 0.37354152367879206, 0.4592827004219409, 0.38166855845629966, 0.0004725897920604915, 0.33304498269896193, 0.2305234327449787, 0.21994685724757193, 0.23656365468592544, 0.2264289923394225, 0.2746370435547734, 0.33163265306122447, 0.8926229508196721, 0.57, 0.09180790960451977, 0.3868209255533199, 0.16925664851009292, 0.18631353337415799, 0.16559784857261067, 0.30906853464596745, 0.3301768607221813, 0.4362174578866769, 0.4035566428302597, 0.2666527893422148, 0.04472954230235784, 0.17401628222523746, 0.2552441822353327, 0.23196166854565953, 0.26431323974676574, 0.14623675557179394, 0.309506099375186, 0.33163265306122447, 0.41580310880829013, 0.3331408775981524, 0.15430622009569378, 0.2105911330049261, 0.32935341660543715, 0.3117864338482203, 0.2535195776506819, 0.17682084915429755, 0.2815270935960591, 0.34918175055789735, 0.35871392546931913, 0.3416189484643415, 0.026852622814321398, 0.009312320916905445, 0.2800751879699248, 0.2429158760278305, 0.27510231923601636, 0.1743832105094521, 0.11610878661087866, 0.0038461538461538464, 0.25, 0.14309576837416482, 0.08042394014962594, 0.012845849802371542, 0.47245108135942326, 0.5365125730251461, 0.31100861008610087, 0.2127196333078686, 0.14241541783914666, 0.2215795226817271, 0.18297851369998028, 0.18074896499811818, 0.017732451304667402, 0.004230669096589429, 0.29791566842357453, 0.2558135087585099, 0.27925045703839124, 0.08542778447237045, 0.020703629742746386, 0.25, 0.0015527950310559005, 0.0011111111111111111, 0.0017241379310344827, 0.0012953367875647669, 0.7026829268292683, 0.7713969503197246, 0.6584120694910088, 0.5900768245838668, 0.5936381386267491, 0.00017158544955387783, 0.013713080168776372, 0.00028376844494892167, 0.0004725897920604915, 0.0008650519031141869, 0.5161797524852911, 0.6274967931097672, 0.5805340947262345, 0.3961402474955804, 0.5139683238011439, 0.00510204081632653, 0.000819672131147541, 0.0011111111111111111, 0.0014124293785310734, 0.0005030181086519115, 0.7946972124319128, 0.6860073484384568, 0.6289822093504345, 0.36965164710336995, 0.40799557848194545, 7.656967840735069e-05, 9.40910801656003e-05, 0.00020815986677768527, 0.00034674063800277393, 0.00033921302578018993, 0.5524145089041844, 0.5875744886455145, 0.5241535920726672, 0.1520825721592985, 0.2761826837250818, 0.00510204081632653, 0.0012953367875647669, 0.0005773672055427252, 0.0011961722488038277, 0.00041050903119868636, 0.6350110213078619, 0.5911685695097381, 0.464694236691597, 0.18234380393510527, 0.23423645320197045, 6.198859409868585e-05, 0.004553096105351639, 0.0001301405517959396, 0.013530391340549543, 0.00014326647564469913, 0.4910945396277579, 0.48580012650221377, 0.41043656207366985, 0.08723165652034605, 0.07147838214783822, 0.0038461538461538464, 0.0012953367875647669, 0.0005567928730512249, 0.0006234413965087282, 0.0001976284584980237, 0.3461208376244422, 0.26016002032004065, 0.2480319803198032, 0.0684873949579832, 0.0429454878607421, 4.554563672800146e-05, 4.928050463236744e-05, 9.40910801656003e-05, 9.187798603454613e-05, 6.508721687060662e-05, 0.28148743924977754, 0.28151533695402736, 0.26063652983214225, 0.04411258392150112, 0.009426759074356866 ;
}
probability ( pre_prs | accept_num ) {
    table 0.9296082546344876, 0.0483752417794971, 9.786267908870273e-05, 4.606936203147459e-05, 0.07010026815902996, 0.8746808510638298, 0.07556956079229625, 0.000783179154535068, 0.00014573860324122655, 0.07684719535783366, 0.8647342049635951, 0.06314266760033907, 0.00014573860324122655, 9.671179883945841e-05, 0.059598371565019966, 0.9360280838830944 ;
}
probability ( priorities_number | comment_num, has_assignees_content, label_count, participants_count ) {
    table 0.7675254643499101, 0.007518796992481203, 0.0038314176245210726, 0.2, 0.29304078610849377, 0.14317425083240842, 0.007518796992481203, 0.2, 0.10678031612995097, 0.07583106589376552, 0.10545752974969225, 0.2, 0.002570694087403599, 0.0038314176245210726, 0.2, 0.2, 0.8413969206394687, 0.4975283951548998, 0.30374616981318575, 0.9699248120300752, 0.6234164481261014, 0.4195662785021965, 0.3996879875195008, 0.2, 0.3738014415252267, 0.18965865481720864, 0.2, 0.2, 0.9846743295019157, 0.2, 0.2, 0.2, 0.7473275024295433, 0.1818825194621373, 0.22212618841832324, 0.2, 0.23073844306583952, 0.11551155115511551, 0.11120745718621287, 0.002570694087403599, 0.02606572005573211, 0.013469251922302208, 0.0183359527551555, 0.18185040765685928, 0.2495164410058027, 0.0038314176245210726, 0.0015503875968992248, 0.2, 0.6880709651793989, 0.47353200758642705, 0.2914343003947616, 0.41127922971114167, 0.3826720023142568, 0.28569779522105504, 0.28330621542466644, 0.2, 0.13648945113074856, 0.13462356976540396, 0.10565975468896101, 0.000864304235090752, 0.007518796992481203, 0.2, 0.2, 0.2, 0.49805950840879687, 0.33247089262613194, 0.00030003000300030005, 0.000864304235090752, 0.007518796992481203, 0.11912283962088831, 0.057174737781745144, 0.03145574250182882, 0.07729179149191133, 0.01764924704812554, 0.009453888084411692, 0.006293312437250532, 0.2, 0.00129366106080207, 0.00043308791684711995, 0.002570694087403599, 0.6661608497723824, 0.39192212583899205, 0.23214098882830936, 0.17213560841309986, 0.554019014693172, 0.27675894289101177, 0.16788778971975937, 0.11653650769580712, 0.20831979200519987, 0.08390783506776062, 0.08101856902834449, 0.033155744064552836, 0.2, 0.2, 0.007518796992481203, 0.2, 0.007518796992481203, 0.42730299667036625, 0.002570694087403599, 0.00027862914460852607, 0.007518796992481203, 0.007518796992481203, 0.0019342359767891683, 0.009513937733683782, 0.007518796992481203, 0.002570694087403599, 0.0002600780234070221, 0.0019702998382360834, 0.2, 0.2, 0.2, 0.0005194805194805195, 0.007518796992481203, 0.23521320495185694, 0.09525974294334008, 0.06955366124070281, 0.9699248120300752, 0.9699248120300752, 0.0002889338341519792, 0.04557801464940709, 0.007518796992481203, 0.00129366106080207, 0.0002889338341519792, 0.00902245055950454, 0.2, 0.2, 0.2, 0.0038314176245210726, 0.15398442180946675, 0.9699248120300752, 0.0038314176245210726, 0.2, 0.36195988692960024, 0.28523862375138737, 0.007518796992481203, 0.2, 0.19010517322049758, 0.16668638353247367, 0.10545752974969225, 0.2, 0.6606683804627249, 0.0038314176245210726, 0.2, 0.2, 0.12621670135933458, 0.35745820912418397, 0.5061777206681822, 0.007518796992481203, 0.2610970042598066, 0.330311693745206, 0.31981279251170047, 0.2, 0.31904208323645666, 0.32754325725442673, 0.2, 0.2, 0.0038314176245210726, 0.2, 0.2, 0.2, 0.24975704567541301, 0.3630573248407643, 0.000864304235090752, 0.2, 0.2819691815089053, 0.23072307230723071, 0.05571211792759592, 0.33161953727506427, 0.11824287302158837, 0.09866358397701995, 0.09758536933847693, 0.0003544842254519674, 0.0019342359767891683, 0.0038314176245210726, 0.0015503875968992248, 0.2, 0.19661061829736529, 0.3028749554015736, 0.33421058128119974, 0.46996790463090327, 0.29627308230075694, 0.28569779522105504, 0.26664497233973317, 0.3984496124031008, 0.2519631763475694, 0.21474174407250696, 0.19718387327429734, 0.000864304235090752, 0.007518796992481203, 0.2, 0.2, 0.2, 0.33247089262613194, 0.00129366106080207, 0.0387038703870387, 0.000864304235090752, 0.007518796992481203, 0.14291023973239175, 0.02289667484936398, 0.000243842965130456, 0.23067705212702216, 0.06879210812747137, 0.028343217642338662, 0.009427724857359748, 0.2, 0.00129366106080207, 0.11130359462970983, 0.002570694087403599, 0.3054411445913722, 0.3316324528005652, 0.3437416444821613, 0.38111854531485095, 0.111495246326707, 0.31246077679380796, 0.3102032670980985, 0.28152248085525816, 0.29151771205719856, 0.19463157618810453, 0.15922232647450305, 0.12584699736202348, 0.2, 0.2, 0.007518796992481203, 0.2, 0.9699248120300752, 0.5693673695893452, 0.33161953727506427, 0.03594315965449986, 0.9699248120300752, 0.007518796992481203, 0.2495164410058027, 0.03794469329582053, 0.007518796992481203, 0.002570694087403599, 0.10013003901170352, 0.02061531620629116, 0.2, 0.2, 0.2, 0.0005194805194805195, 0.007518796992481203, 0.41127922971114167, 0.3756250774889449, 0.23026204688796376, 0.007518796992481203, 0.007518796992481203, 0.37012424154868534, 0.17026657424926472, 0.9699248120300752, 0.00129366106080207, 0.2961571800057787, 0.095502850306144, 0.2, 0.2, 0.2, 0.0038314176245210726, 0.07729179149191133, 0.007518796992481203, 0.9846743295019157, 0.2, 0.24135146049266387, 0.28523862375138737, 0.9699248120300752, 0.2, 0.29165734279960126, 0.24239914823139713, 0.15798112433319655, 0.2, 0.002570694087403599, 0.4942528735632184, 0.2, 0.2, 0.024818600888244665, 0.1159578883815705, 0.1772264505288129, 0.007518796992481203, 0.08348943373711304, 0.1964298166097204, 0.16006240249609985, 0.2, 0.1892862125087189, 0.32754325725442673, 0.31981279251170047, 0.2, 0.0038314176245210726, 0.2, 0.2, 0.2, 0.0009718172983479105, 0.2724699221514508, 0.3327571305099395, 0.2, 0.2819691815089053, 0.23072307230723071, 0.11120745718621287, 0.002570694087403599, 0.202404621381718, 0.20851943320547178, 0.15245035005000715, 0.09110244594115562, 0.49709864603481624, 0.0038314176245210726, 0.0015503875968992248, 0.2, 0.0847610221104197, 0.1706758304696449, 0.25667857217453055, 0.1178358551123338, 0.22838821657586422, 0.24629651006194928, 0.28330621542466644, 0.2, 0.2677095934225904, 0.24678901379534815, 0.2887079918596337, 0.000864304235090752, 0.007518796992481203, 0.2, 0.2, 0.2, 0.00129366106080207, 0.16688227684346701, 0.26912691269126915, 0.22212618841832324, 0.9699248120300752, 0.09533543950938488, 0.08002677973666593, 0.000243842965130456, 0.15398442180946675, 0.1622600956173103, 0.09681703728982392, 0.07838479809976247, 0.2, 0.00129366106080207, 0.22217410134257254, 0.002570694087403599, 0.02796444829828745, 0.19598068846410488, 0.2901733297683124, 0.27457822454140923, 0.22212618841832324, 0.16965344118262324, 0.2773612338569433, 0.3688679960573205, 0.3331166720831979, 0.25167107918949383, 0.2290471099085732, 0.19205503543164537, 0.2, 0.2, 0.007518796992481203, 0.2, 0.007518796992481203, 0.0011098779134295228, 0.002570694087403599, 0.0716076901643912, 0.007518796992481203, 0.007518796992481203, 0.0019342359767891683, 0.0332062340354644, 0.007518796992481203, 0.002570694087403599, 0.2, 0.07851299861235693, 0.2, 0.2, 0.2, 0.06701298701298701, 0.9699248120300752, 0.29390187987161853, 0.39678472537917925, 0.4257435920027607, 0.007518796992481203, 0.007518796992481203, 0.5180583646344987, 0.2613851370337761, 0.007518796992481203, 0.16688227684346701, 0.37012424154868534, 0.22342177493138152, 0.2, 0.2, 0.2, 0.0038314176245210726, 0.0005991611743559018, 0.007518796992481203, 0.0038314176245210726, 0.2, 0.08628348364517431, 0.28523862375138737, 0.007518796992481203, 0.2, 0.3255080659926358, 0.3786821246894594, 0.4205990972507181, 0.2, 0.33161953727506427, 0.4942528735632184, 0.2, 0.2, 0.0075593497442293595, 0.024187766499377383, 0.0127508154591282, 0.007518796992481203, 0.03198323828553192, 0.044697022522836624, 0.12012480499219969, 0.2, 0.09881422924901186, 0.13795192890325186, 0.27987519500780034, 0.2, 0.0038314176245210726, 0.2, 0.2, 0.2, 0.0009718172983479105, 0.1818825194621373, 0.22212618841832324, 0.2, 0.07704622773664198, 0.15391539153915393, 0.11120745718621287, 0.002570694087403599, 0.41280899228204204, 0.349762667927767, 0.341429728056389, 0.3633463310882666, 0.2495164410058027, 0.4942528735632184, 0.5968992248062015, 0.2, 0.030530914868264265, 0.03607308508440839, 0.11230862418280177, 0.0004585052728106373, 0.08644713369654308, 0.15271845780907306, 0.1416856492027335, 0.0015503875968992248, 0.2782072048059377, 0.3108835532410305, 0.2746273582311204, 0.44338807260155577, 0.9699248120300752, 0.2, 0.2, 0.2, 0.16688227684346701, 0.49805950840879687, 0.3459345934593459, 0.22212618841832324, 0.007518796992481203, 0.33320944062441926, 0.1885739790225396, 0.18751524018532065, 0.38406231276213304, 0.38446700927239913, 0.2845297497717232, 0.2633151308862061, 0.2, 0.8292367399741267, 0.2776093546990039, 0.6606683804627249, 0.00021677866897897247, 0.07037720296738234, 0.11607630694830331, 0.17213560841309986, 0.111495246326707, 0.1785788996583223, 0.18613336374262338, 0.15535673667450148, 0.1667208319792005, 0.35903955542740307, 0.30166488468000613, 0.2450214658873429, 0.2, 0.2, 0.007518796992481203, 0.2, 0.007518796992481203, 0.0011098779134295228, 0.33161953727506427, 0.35692393424352187, 0.007518796992481203, 0.9699248120300752, 0.49709864603481624, 0.11849850072187465, 0.9699248120300752, 0.33161953727506427, 0.2665799739921977, 0.2512247291796039, 0.2, 0.2, 0.2, 0.13350649350649352, 0.007518796992481203, 0.059147180192572216, 0.12699921477869158, 0.25375742490656916, 0.007518796992481203, 0.007518796992481203, 0.07425599537705865, 0.2973529907645042, 0.007518796992481203, 0.8292367399741267, 0.18520658769141868, 0.2882820747413611, 0.2, 0.2, 0.2, 0.0038314176245210726, 0.0005991611743559018, 0.007518796992481203, 0.0038314176245210726, 0.2, 0.017364382824067843, 0.0011098779134295228, 0.007518796992481203, 0.2, 0.08594910185731432, 0.1364012776529043, 0.21050471891670086, 0.2, 0.002570694087403599, 0.0038314176245210726, 0.2, 0.2, 8.427368722663722e-06, 0.004867740839968303, 9.884353069091628e-05, 0.007518796992481203, 1.3875591447085432e-05, 0.008995188620040444, 0.00031201248049921997, 0.2, 0.01905603348058591, 0.017302901770686056, 0.00031201248049921997, 0.2, 0.0038314176245210726, 0.2, 0.2, 0.2, 0.0009718172983479105, 0.0007077140835102619, 0.22212618841832324, 0.2, 0.12827696617970782, 0.26912691269126915, 0.6106655105137655, 0.6606683804627249, 0.2404777932589195, 0.3295850629674391, 0.3901985997999714, 0.3633463310882666, 0.0019342359767891683, 0.4942528735632184, 0.3984496124031008, 0.2, 2.6479544551833708e-05, 0.016844121457946032, 0.005367921966706352, 0.0004585052728106373, 0.00621956511257895, 0.029589441686867522, 0.025056947608200455, 0.2, 0.065630574293154, 0.09296211912571042, 0.13382102194598758, 0.554019014693172, 0.007518796992481203, 0.2, 0.2, 0.2, 0.00129366106080207, 0.00129366106080207, 0.3459345934593459, 0.554019014693172, 0.007518796992481203, 0.30942204051291583, 0.6513278286096853, 0.7805413313825896, 0.15398442180946675, 0.36683153993469364, 0.5808561072117026, 0.6425790337194212, 0.2, 0.16688227684346701, 0.38847986141186663, 0.33161953727506427, 0.00021677866897897247, 0.010087529928955528, 0.017867729972913592, 3.201331754009668e-05, 0.000864304235090752, 0.06254793947423472, 0.05841434558257547, 0.07771627871711274, 0.00032499187520311994, 0.11074995412723794, 0.2290471099085732, 0.40392075725443544, 0.2, 0.2, 0.9699248120300752, 0.2, 0.007518796992481203, 0.0011098779134295228, 0.33161953727506427, 0.5352465867929785, 0.007518796992481203, 0.007518796992481203, 0.2495164410058027, 0.8008366342131567, 0.007518796992481203, 0.6606683804627249, 0.43302990897269183, 0.6476766561635119, 0.2, 0.2, 0.2, 0.7984415584415584, 0.007518796992481203, 0.0004585052728106373, 0.005331239409844196, 0.02068327496200357, 0.007518796992481203, 0.007518796992481203, 0.037272464605605314, 0.2254172833030479, 0.007518796992481203, 0.00129366106080207, 0.14822305691996532, 0.38377084946160883, 0.2, 0.2, 0.2, 0.9846743295019157 ;
}
probability ( review_comment_num | has_assignees_content, label_count, total_add_line ) {
    table 0.5597014925373134, 0.5, 0.2866666666666667, 0.11379310344827587, 0.0036496350364963502, 0.1463081130355515, 0.12644281217208814, 0.08974358974358974, 0.10609137055837563, 0.014114627887082978, 0.051129835312140944, 0.1641743217261269, 0.07939216642288315, 0.04094738295815495, 0.011249865432231672, 0.004424778761061947, 0.008771929824561403, 0.11643835616438356, 0.09550561797752809, 0.0036496350364963502, 0.6312329123812004, 0.48519324986390855, 0.27851809304997127, 0.13347903513032217, 0.0766920954390521, 0.521628116551517, 0.33909895414320196, 0.198870765370138, 0.081886278515492, 0.05957378107846303, 0.36569669837716845, 0.3230878474335565, 0.16795508926928032, 0.1130779647900948, 0.05529272619751626, 0.02, 0.5, 0.5, 0.5, 0.34, 0.44029850746268656, 0.5, 0.7133333333333334, 0.8862068965517241, 0.9963503649635036, 0.8536918869644485, 0.8735571878279118, 0.9102564102564102, 0.8939086294416244, 0.985885372112917, 0.948870164687859, 0.8358256782738731, 0.9206078335771168, 0.9590526170418451, 0.9887501345677683, 0.995575221238938, 0.9912280701754386, 0.8835616438356164, 0.9044943820224719, 0.9963503649635036, 0.3687670876187996, 0.5148067501360915, 0.7214819069500287, 0.8665209648696779, 0.9233079045609479, 0.478371883448483, 0.6609010458567981, 0.801129234629862, 0.918113721484508, 0.940426218921537, 0.6343033016228316, 0.6769121525664435, 0.8320449107307196, 0.8869220352099052, 0.9447072738024838, 0.98, 0.5, 0.5, 0.5, 0.66 ;
}
probability ( title_words | body_words, change_num, commit_num, has_refactor ) {
