network unknown {
}
variable accept_num {
    type discrete [ 3 ] { 0, 1, 2 };
}
variable author_identity {
    type discrete [ 3 ] { 0, 1, 2 };
}
variable body_words {
    type discrete [ 5 ] { 0, 1, 2, 3, 4 };
}
variable change_num {
    type discrete [ 3 ] { 0, 1, 2 };
}
variable close_num {
    type discrete [ 3 ] { 0, 1, 2 };
}
variable comment_num {
    type discrete [ 4 ] { 0, 1, 2, 4 };
}
variable commit_num {
    type discrete [ 3 ] { 0, 1, 4 };
}
variable file_changed_num {
    type discrete [ 4 ] { 0, 1, 2, 4 };
}
variable has_assignees_content {
    type discrete [ 2 ] { 0, 1 };
}
variable has_bug {
    type discrete [ 2 ] { 0, 1 };
}
variable has_document {
    type discrete [ 2 ] { 0, 1 };
}
variable has_feature {
    type discrete [ 2 ] { 0, 1 };
}
variable has_improve {
    type discrete [ 2 ] { 0, 1 };
}
variable has_labels {
    type discrete [ 2 ] { 0, 1 };
}
variable has_refactor {
    type discrete [ 2 ] { 0, 1 };
}
variable is_weekday {
    type discrete [ 2 ] { 0, 1 };
}
variable mergable_state {
    type discrete [ 2 ] { 0, 2 };
}
variable participants_count {
    type discrete [ 3 ] { 0, 1, 4 };
}
variable pre_prs {
    type discrete [ 3 ] { 0, 1, 2 };
}
variable priorities_number {
    type discrete [ 5 ] { 0, 1, 2, 3, 4 };
}
variable review_comment_num {
    type discrete [ 2 ] { 0, 1 };
}
variable title_words {
    type discrete [ 5 ] { 0, 1, 2, 3, 4 };
}
variable total_add_line {
    type discrete [ 5 ] { 0, 1, 2, 3, 4 };
}
variable total_delete_line {
    type discrete [ 4 ] { 0, 1, 2, 4 };
}
variable workload {
    type discrete [ 5 ] { 0, 1, 2, 3, 4 };
}
probability ( accept_num | close_num, pre_prs ) {
    table 0.9928291316526612, 0.6732348111658456, 0.3333333333333333, 0.905852417302799, 0.053558052434456944, 0.3333333333333333, 0.3333333333333333, 0.004803073967339097, 0.0001543781647523774, 0.0066106442577030826, 0.3185550082101806, 0.3333333333333333, 0.08142493638676844, 0.9206928838951312, 0.3333333333333333, 0.3333333333333333, 0.9644572526416908, 0.19022477460787945, 0.0005602240896358544, 0.008210180623973726, 0.3333333333333333, 0.01272264631043257, 0.02574906367041199, 0.3333333333333333, 0.3333333333333333, 0.030739673390970224, 0.8096208472273682 ;
}
probability ( author_identity | accept_num, change_num, mergable_state ) {
    table 0.4443302500856458, 0.5464772054470101, 0.5835460992907802, 0.7873873873873874, 0.855072463768116, 0.3333333333333333, 0.7561700862325305, 0.6152125279642058, 0.8904484272655294, 0.956551255940258, 0.9363484087102178, 0.9621077560686797, 0.722943722943723, 0.3333333333333333, 0.7342879872712809, 0.021645021645021644, 0.8574785339394339, 0.4164528818197366, 0.547927372387804, 0.4185908821788041, 0.1699290780141844, 0.10630630630630629, 0.07246376811594203, 0.3333333333333333, 0.16205768658935474, 0.25279642058165547, 0.08587058230763694, 0.0033944331296673455, 0.03969120967154614, 0.002960331557134399, 0.021645021645021644, 0.3333333333333333, 0.046937151949085126, 0.021645021645021644, 0.008410742912356984, 0.01009064477509834, 0.007742377526550189, 0.034931912374185914, 0.24652482269503542, 0.10630630630630629, 0.07246376811594203, 0.3333333333333333, 0.08177222717811476, 0.1319910514541387, 0.023680990426833658, 0.04005431093007468, 0.02396038161823611, 0.034931912374185914, 0.2554112554112554, 0.3333333333333333, 0.21877486077963407, 0.9567099567099567, 0.13411072314820915, 0.573456473405165 ;
}
probability ( body_words | comment_num, has_bug, has_feature, has_refactor ) {
    table 0.33703855379395076, 0.9699248120300752, 0.5958762886597938, 0.8918918918918919, 0.6827852998065764, 0.2, 0.2, 0.2, 0.18657499125975993, 0.014492753623188406, 0.9699248120300752, 0.2, 0.817258883248731, 0.2, 0.2, 0.2, 0.0978566096754701, 0.8918918918918919, 0.45098039215686275, 0.2, 0.3824228028503563, 0.8918918918918919, 0.2, 0.2, 0.05518062723302898, 0.8918918918918919, 0.4782608695652174, 0.2, 0.48872180451127817, 0.2, 0.2, 0.2, 0.24343298426256363, 0.007518796992481203, 0.26597938144329897, 0.02702702702702703, 0.2495164410058027, 0.2, 0.2, 0.2, 0.2313250203938935, 0.014492753623188406, 0.007518796992481203, 0.2, 0.16751269035532995, 0.2, 0.2, 0.2, 0.19226531120036966, 0.02702702702702703, 0.27170868347338933, 0.2, 0.3824228028503563, 0.02702702702702703, 0.2, 0.2, 0.10599444223898373, 0.02702702702702703, 0.014492753623188406, 0.2, 0.24812030075187969, 0.2, 0.2, 0.2, 0.211607090621892, 0.007518796992481203, 0.13402061855670103, 0.02702702702702703, 0.06382978723404255, 0.2, 0.2, 0.2, 0.20149166763780446, 0.9420289855072463, 0.007518796992481203, 0.2, 0.005076142131979695, 0.2, 0.2, 0.2, 0.24458820602139836, 0.02702702702702703, 0.18207282913165265, 0.2, 0.23040380047505937, 0.02702702702702703, 0.2, 0.2, 0.2076220722508932, 0.02702702702702703, 0.4782608695652174, 0.2, 0.24812030075187969, 0.2, 0.2, 0.2, 0.13485052360615457, 0.007518796992481203, 0.002061855670103093, 0.02702702702702703, 0.0019342359767891683, 0.2, 0.2, 0.2, 0.2089500058268267, 0.014492753623188406, 0.007518796992481203, 0.2, 0.005076142131979695, 0.2, 0.2, 0.2, 0.21956421284612376, 0.02702702702702703, 0.09243697478991597, 0.2, 0.0023752969121140144, 0.02702702702702703, 0.2, 0.2, 0.23726346433770015, 0.02702702702702703, 0.014492753623188406, 0.2, 0.007518796992481203, 0.2, 0.2, 0.2, 0.07307084771543906, 0.007518796992481203, 0.002061855670103093, 0.02702702702702703, 0.0019342359767891683, 0.2, 0.2, 0.2, 0.17165831488171543, 0.014492753623188406, 0.007518796992481203, 0.2, 0.005076142131979695, 0.2, 0.2, 0.2, 0.2457256602566381, 0.02702702702702703, 0.0028011204481792717, 0.2, 0.0023752969121140144, 0.02702702702702703, 0.2, 0.2, 0.3939393939393939, 0.02702702702702703, 0.014492753623188406, 0.2, 0.007518796992481203, 0.2, 0.2, 0.2 ;
}
probability ( change_num | accept_num, pre_prs ) {
    table 0.8554543482975494, 0.2512664640324215, 0.3333333333333333, 0.3333333333333333, 0.161998005620524, 0.013936152973586129, 0.3333333333333333, 0.10256410256410256, 0.003278438548337908, 0.14400346996313165, 0.7163120567375887, 0.3333333333333333, 0.6145833333333334, 0.5634122019762487, 0.22832604116026575, 0.3333333333333333, 0.6217948717948718, 0.020776151265629768, 0.0005421817393190198, 0.032421479229989864, 0.3333333333333333, 0.052083333333333336, 0.2745897924032273, 0.7577378058661481, 0.3333333333333333, 0.27564102564102566, 0.9759454101860324 ;
}
probability ( close_num ) {
    table 0.17656848061241473, 0.20502579464137127, 0.618405724746214 ;
}
probability ( comment_num | participants_count, review_comment_num ) {
    table 0.7060168895144264, 0.7735767682576195, 0.37188515709642467, 0.11487545041516528, 0.05434782608695652, 0.0008175277959450621, 0.1444405348346235, 0.22498562392179414, 0.20287107258938242, 0.13743537521541596, 0.05434782608695652, 0.016514061478090255, 0.13599577762139337, 0.000718803910293272, 0.2873781148429036, 0.7474933416888612, 0.3152173913043478, 0.1303139306736429, 0.01354679802955665, 0.000718803910293272, 0.13786565547128926, 0.00019583268055773148, 0.5760869565217391, 0.8523544800523218 ;
}
probability ( commit_num | total_add_line ) {
    table 0.6076051779935275, 0.30923694779116473, 0.21943048576214408, 0.08423423423423422, 0.061403508771929814, 0.39158576051779936, 0.6899598393574298, 0.7797319932998326, 0.9153153153153152, 0.8771929824561403, 0.0008090614886731391, 0.0008032128514056225, 0.0008375209380234507, 0.00045045045045045035, 0.061403508771929814 ;
}
probability ( file_changed_num | change_num ) {
    table 0.5188053097345132, 0.2667669819432502, 0.16745156081808393, 0.1736725663716814, 0.23581255374032675, 0.19247847147470395, 0.30376106194690267, 0.49118658641444535, 0.6389262648008611, 0.003761061946902655, 0.006233877901977643, 0.001143702906350915 ;
}
probability ( has_assignees_content | priorities_number ) {
    table 0.8832853025936599, 0.9515235457063712, 0.9760705289672544, 0.9850574712643678, 0.9859611231101512, 0.11671469740634005, 0.04847645429362881, 0.02392947103274559, 0.014942528735632184, 0.014038876889848811 ;
}
probability ( has_bug ) {
    table 0.9787818272591113, 0.021218172740888667 ;
}
probability ( has_document | body_words ) {
    table 0.8802631578947369, 0.9098765432098765, 0.9290540540540541, 0.9696569920844327, 0.9987341772151899, 0.11973684210526316, 0.09012345679012346, 0.07094594594594594, 0.030343007915567283, 0.0012658227848101266 ;
}
probability ( has_feature | commit_num ) {
    table 0.9550879396984925, 0.9926236949614163, 0.7727272727272727, 0.04491206030150754, 0.0073763050385837504, 0.22727272727272727 ;
}
probability ( has_improve | has_document ) {
    table 0.9881491344873502, 0.9103585657370518, 0.0118508655126498, 0.08964143426294821 ;
}
probability ( has_labels | has_assignees_content ) {
    table 0.9858257477243173, 0.7981366459627329, 0.014174252275682704, 0.20186335403726707 ;
}
probability ( has_refactor | commit_num ) {
    table 0.9833542713567839, 0.9980708125283705, 0.7727272727272727, 0.01664572864321608, 0.0019291874716295962, 0.22727272727272727 ;
}
probability ( is_weekday | has_refactor, mergable_state ) {
    table 0.22718295951474116, 0.3373424971363116, 0.5, 0.5, 0.7728170404852589, 0.6626575028636884, 0.5, 0.5 ;
}
probability ( mergable_state | comment_num, participants_count, review_comment_num ) {
    table 0.8139795664091702, 0.7140866010035309, 0.928259286234523, 0.8273099215819979, 0.5, 0.5, 0.9092570036540804, 0.9063897763578275, 0.9966622162883845, 0.7599031062980907, 0.5, 0.7376237623762376, 0.8725743855109961, 0.5, 0.8619227144203582, 0.967173172648677, 0.9137931034482758, 0.6957340025094103, 0.9675324675324676, 0.5, 0.9479371316306483, 0.5, 0.9528301886792453, 0.9672933051985422, 0.18602043359082984, 0.2859133989964691, 0.07174071376547707, 0.17269007841800205, 0.5, 0.5, 0.0907429963459196, 0.09361022364217253, 0.003337783711615487, 0.24009689370190934, 0.5, 0.2623762376237624, 0.12742561448900389, 0.5, 0.13807728557964186, 0.032826827351323036, 0.08620689655172413, 0.3042659974905897, 0.03246753246753247, 0.5, 0.052062868369351666, 0.5, 0.04716981132075473, 0.032706694801457895 ;
}
probability ( participants_count | has_bug, has_labels, priorities_number, review_comment_num ) {
    table 0.7536676902081201, 0.270974358974359, 0.5813163481953291, 0.20249536334513574, 0.5491540923639688, 0.23243877401378502, 0.3333333333333333, 0.1539056457849961, 0.49885057471264366, 0.09181236266360943, 0.6329588014981273, 0.3333333333333333, 0.3333333333333334, 0.3333333333333334, 0.3333333333333333, 0.10288065843621402, 0.3333333333333333, 0.008130081300813007, 0.3333333333333333, 0.019607843137254905, 0.9259259259259258, 0.6533333333333334, 0.03703703703703703, 0.37435897435897436, 0.9733333333333334, 0.37435897435897436, 0.9259259259259258, 0.6621004566210046, 0.9259259259259258, 0.4949494949494949, 0.3333333333333333, 0.3333333333333333, 0.3333333333333333, 0.3333333333333333, 0.3333333333333333, 0.3333333333333333, 0.3333333333333333, 0.3333333333333333, 0.3333333333333333, 0.03703703703703703, 0.2459911293074036, 0.6894358974358975, 0.40806794055201695, 0.7244983982465015, 0.45038866026520347, 0.6266314708901598, 0.665677546983185, 0.6948403491326924, 0.49885057471264366, 0.6306487054552402, 0.1835205992509363, 0.3333333333333333, 0.6533333333333334, 0.6533333333333334, 0.3333333333333333, 0.8930041152263375, 0.3333333333333333, 0.5934959349593496, 0.3333333333333333, 0.9607843137254903, 0.03703703703703703, 0.3333333333333334, 0.9259259259259258, 0.2512820512820513, 0.013333333333333334, 0.49743589743589745, 0.03703703703703703, 0.3333333333333333, 0.03703703703703703, 0.0101010101010101, 0.3333333333333333, 0.3333333333333333, 0.3333333333333333, 0.3333333333333333, 0.3333333333333333, 0.3333333333333333, 0.3333333333333333, 0.3333333333333333, 0.3333333333333333, 0.9259259259259258, 0.0003411804844762879, 0.03958974358974359, 0.010615711252653929, 0.07300623840836286, 0.0004572473708276177, 0.14092975509605513, 0.0009891196834817012, 0.15125400508231132, 0.0022988505747126436, 0.27753893188115025, 0.1835205992509363, 0.3333333333333333, 0.013333333333333334, 0.013333333333333334, 0.3333333333333333, 0.00411522633744856, 0.3333333333333333, 0.39837398373983735, 0.3333333333333333, 0.019607843137254905, 0.03703703703703703, 0.013333333333333334, 0.03703703703703703, 0.37435897435897436, 0.013333333333333334, 0.12820512820512822, 0.03703703703703703, 0.0045662100456621, 0.03703703703703703, 0.4949494949494949, 0.3333333333333333, 0.3333333333333333, 0.3333333333333333, 0.3333333333333333, 0.3333333333333333, 0.3333333333333333, 0.3333333333333333, 0.3333333333333333, 0.3333333333333333, 0.03703703703703703 ;
}
probability ( pre_prs | close_num ) {
    table 0.9346528432296576, 0.035443722943722944, 0.0004485109436670255, 0.06377631165567076, 0.9632034632034633, 0.03112665949049157, 0.0015708451146716935, 0.001352813852813853, 0.9684248295658414 ;
}
probability ( priorities_number | commit_num, review_comment_num ) {
    table 0.3524075366364271, 0.19588806396344946, 0.3196099674972915, 0.11801242236024842, 0.6363636363636362, 0.0909090909090909, 0.26448011165387303, 0.20959451741861793, 0.25460455037919827, 0.1499556344276841, 0.09090909090909088, 0.0909090909090909, 0.2477320307048151, 0.2575671045117076, 0.22860238353196102, 0.17277221447585242, 0.09090909090909088, 0.0909090909090909, 0.11374738311235172, 0.19246145059965733, 0.10509209100758399, 0.25491190264925845, 0.09090909090909088, 0.0909090909090909, 0.02163293789253315, 0.14448886350656767, 0.09209100758396534, 0.3043478260869565, 0.09090909090909088, 0.6363636363636364 ;
}
probability ( review_comment_num | commit_num, has_bug, total_add_line ) {
    table 0.6048663468128855, 0.39530201342281884, 0.27103718199608606, 0.274798927613941, 0.03846153846153846, 0.1511627906976744, 0.02, 0.5, 0.5, 0.5, 0.38619599578503694, 0.13236168947055324, 0.07970215113072257, 0.03903716637565477, 0.0025906735751295333, 0.026315789473684206, 0.3378378378378379, 0.2551020408163266, 0.11818181818181815, 0.07142857142857144, 0.5, 0.5, 0.5, 0.5, 0.5, 0.5, 0.5, 0.5, 0.5, 0.5, 0.3951336531871144, 0.6046979865771812, 0.7289628180039138, 0.7252010723860589, 0.9615384615384615, 0.8488372093023256, 0.9800000000000001, 0.5, 0.5, 0.5, 0.6138040042149632, 0.8676383105294467, 0.9202978488692775, 0.9609628336243452, 0.9974093264248703, 0.9736842105263157, 0.6621621621621622, 0.7448979591836735, 0.8818181818181817, 0.9285714285714286, 0.5, 0.5, 0.5, 0.5, 0.5, 0.5, 0.5, 0.5, 0.5, 0.5 ;
}
probability ( title_words | body_words, has_feature, has_refactor ) {
    table 0.3777146912704045, 0.14482758620689656, 0.15844155844155844, 0.039999999999999994, 0.3575833857772184, 0.2, 0.4206896551724138, 0.2, 0.286647564469914, 0.4666666666666667, 0.20000000000000004, 0.2, 0.19628893306825712, 0.2, 0.8399999999999999, 0.2, 0.1802155992390615, 0.2, 0.2, 0.2, 0.15628105039034773, 0.006896551724137932, 0.15844155844155844, 0.039999999999999994, 0.12599118942731274, 0.2, 0.006896551724137933, 0.2, 0.13306590257879655, 0.022222222222222223, 0.39047619047619053, 0.2, 0.14857521537442014, 0.2, 0.039999999999999994, 0.2, 0.11426759670259987, 0.2, 0.2, 0.2, 0.2953867991483321, 0.2827586206896551, 0.36623376623376624, 0.8399999999999999, 0.28709880427942097, 0.2, 0.2827586206896552, 0.2, 0.33478510028653297, 0.022222222222222223, 0.009523809523809526, 0.2, 0.3261762756792578, 0.2, 0.039999999999999994, 0.2, 0.3501585288522511, 0.2, 0.2, 0.2, 0.07963094393186657, 0.14482758620689656, 0.05454545454545455, 0.039999999999999994, 0.13354310887350532, 0.2, 0.006896551724137933, 0.2, 0.1078510028653295, 0.022222222222222223, 0.39047619047619053, 0.2, 0.13532140490390987, 0.2, 0.039999999999999994, 0.2, 0.13455928979074191, 0.2, 0.2, 0.2, 0.09098651525904895, 0.42068965517241375, 0.2623376623376623, 0.039999999999999994, 0.09578351164254247, 0.2, 0.2827586206896552, 0.2, 0.13765042979942693, 0.4666666666666667, 0.009523809523809526, 0.2, 0.19363817097415506, 0.2, 0.039999999999999994, 0.2, 0.2207989854153456, 0.2, 0.2, 0.2 ;
}
probability ( total_add_line | file_changed_num ) {
    table 0.5733333333333334, 0.19797596457938013, 0.039452679589509695, 0.047619047619047616, 0.2849382716049383, 0.3295382669196711, 0.12793614595210948, 0.047619047619047616, 0.12691358024691357, 0.286527514231499, 0.2009122006841505, 0.047619047619047616, 0.012345679012345678, 0.1752055660974067, 0.6059293044469783, 0.047619047619047616, 0.0024691358024691358, 0.010752688172043012, 0.025769669327251995, 0.8095238095238095 ;
}
probability ( total_delete_line | file_changed_num, total_add_line ) {
    table 0.7030577088716624, 0.41637781629116116, 0.0632295719844358, 0.33, 0.05, 0.46086261980830673, 0.15403071017274472, 0.0358719646799117, 0.015342960288808664, 0.4852941176470588, 0.4407514450867052, 0.2428698752228164, 0.022985244040862655, 0.0031050056454648097, 0.03761061946902655, 0.25, 0.25, 0.25, 0.25, 0.014705882352941176, 0.15869939707149008, 0.40251299826689774, 0.8103112840466926, 0.33, 0.05, 0.26916932907348246, 0.3536468330134357, 0.6186534216335541, 0.08754512635379061, 0.4852941176470588, 0.16329479768786126, 0.321301247771836, 0.5133371169125993, 0.025686864885208882, 0.2853982300884956, 0.25, 0.25, 0.25, 0.25, 0.014705882352941176, 0.07945736434108527, 0.13908145580589254, 0.0632295719844358, 0.17, 0.05, 0.12859424920127796, 0.31525911708253357, 0.25662251655629137, 0.8962093862815884, 0.014705882352941176, 0.0476878612716763, 0.16443850267379678, 0.20913734392735528, 0.8687429431689876, 0.6039823008849557, 0.25, 0.25, 0.25, 0.25, 0.014705882352941176, 0.05878552971576227, 0.042027729636048526, 0.0632295719844358, 0.17, 0.85, 0.1413738019169329, 0.177063339731286, 0.08885209713024282, 0.0009025270758122744, 0.014705882352941176, 0.34826589595375723, 0.2713903743315508, 0.25454029511918275, 0.10246518630033873, 0.07300884955752213, 0.25, 0.25, 0.25, 0.25, 0.9558823529411765 ;
}
probability ( workload | has_labels, has_refactor, mergable_state, priorities_number ) {
    table 0.24273426889995475, 0.2389783889980354, 0.13692822610635924, 0.10624797669148592, 0.05040455498951153, 0.08029925187032419, 0.05934065934065934, 0.04487534626038781, 0.02376811594202899, 0.04807121661721068, 0.011764705882352944, 0.011764705882352944, 0.006060606060606061, 0.2, 0.2, 0.9111111111111114, 0.2, 0.022222222222222227, 0.2, 0.2, 0.7805309734513274, 0.33061224489795915, 0.19999999999999996, 0.19999999999999998, 0.008000000000000002, 0.328, 0.2, 0.2, 0.2, 0.2, 0.2, 0.2, 0.2, 0.2, 0.2, 0.2, 0.2, 0.2, 0.2, 0.2, 0.3912177455862381, 0.31756385068762283, 0.32435849758274454, 0.25386856587892526, 0.22541204674857657, 0.1600997506234414, 0.3230769230769231, 0.2, 0.04695652173913044, 0.11928783382789318, 0.011764705882352944, 0.011764705882352944, 0.4909090909090909, 0.2, 0.2, 0.022222222222222233, 0.2, 0.022222222222222227, 0.2, 0.2, 0.21415929203539819, 0.49387755102040815, 0.5950617283950617, 0.39512195121951216, 0.328, 0.008000000000000002, 0.2, 0.2, 0.2, 0.2, 0.2, 0.2, 0.2, 0.2, 0.2, 0.2, 0.2, 0.2, 0.2, 0.2, 0.19203259393390673, 0.20754420432220042, 0.2113053179620677, 0.22279054710262222, 0.278154030566377, 0.21995012468827932, 0.3230769230769231, 0.2664819944598338, 0.2092753623188406, 0.40415430267062313, 0.9529411764705884, 0.48235294117647065, 0.4909090909090909, 0.2, 0.2, 0.022222222222222233, 0.2, 0.9111111111111112, 0.2, 0.2, 0.0017699115044247787, 0.004081632653061225, 0.19999999999999996, 0.19999999999999998, 0.648, 0.648, 0.2, 0.2, 0.2, 0.2, 0.2, 0.2, 0.2, 0.2, 0.2, 0.2, 0.2, 0.2, 0.2, 0.2, 0.11598008148483477, 0.16039292730844792, 0.20238006693938268, 0.3082550987374555, 0.33089601438417743, 0.35960099750623437, 0.23516483516483516, 0.310803324099723, 0.5571014492753624, 0.26172106824925817, 0.011764705882352944, 0.48235294117647065, 0.006060606060606061, 0.2, 0.2, 0.022222222222222233, 0.2, 0.022222222222222227, 0.2, 0.2, 0.0017699115044247787, 0.16734693877551018, 0.0024691358024691353, 0.004878048780487805, 0.008000000000000002, 0.008000000000000002, 0.2, 0.2, 0.2, 0.2, 0.2, 0.2, 0.2, 0.2, 0.2, 0.2, 0.2, 0.2, 0.2, 0.2, 0.058035310095065636, 0.07552062868369351, 0.1250278914094459, 0.10883781158951117, 0.1151333533113575, 0.1800498753117207, 0.05934065934065934, 0.1778393351800554, 0.16289855072463771, 0.16676557863501484, 0.011764705882352944, 0.011764705882352944, 0.006060606060606061, 0.2, 0.2, 0.022222222222222233, 0.2, 0.022222222222222227, 0.2, 0.2, 0.0017699115044247787, 0.004081632653061225, 0.0024691358024691353, 0.19999999999999998, 0.008000000000000002, 0.008000000000000002, 0.2, 0.2, 0.2, 0.2, 0.2, 0.2, 0.2, 0.2, 0.2, 0.2, 0.2, 0.2, 0.2, 0.2 ;
}
