network unknown {
}
variable accept_num {
    type discrete [ 5 ] { 0, 1, 2, 3, 4 };
}
variable author_identity {
    type discrete [ 4 ] { 0, 1, 2, 3 };
}
variable body_words {
    type discrete [ 5 ] { 0, 1, 2, 3, 4 };
}
variable change_num {
    type discrete [ 5 ] { 0, 1, 2, 3, 4 };
}
variable close_num {
    type discrete [ 5 ] { 0, 1, 2, 3, 4 };
}
variable comment_num {
    type discrete [ 5 ] { 0, 1, 2, 3, 4 };
}
variable commit_num {
    type discrete [ 2 ] { 0, 4 };
}
variable file_changed_num {
    type discrete [ 4 ] { 0, 1, 2, 4 };
}
variable has_assignees_content {
    type discrete [ 2 ] { 0, 1 };
}
variable has_bug {
    type discrete [ 2 ] { 0, 1 };
}
variable has_document {
    type discrete [ 2 ] { 0, 1 };
}
variable has_feature {
    type discrete [ 2 ] { 0, 1 };
}
variable has_improve {
    type discrete [ 2 ] { 0, 1 };
}
variable has_labels {
    type discrete [ 2 ] { 0, 1 };
}
variable has_refactor {
    type discrete [ 2 ] { 0, 1 };
}
variable is_weekday {
    type discrete [ 2 ] { 0, 1 };
}
variable label_count {
    type discrete [ 3 ] { 0, 1, 3 };
}
variable mergable_state {
    type discrete [ 2 ] { 0, 2 };
}
variable participants_count {
    type discrete [ 4 ] { 0, 1, 2, 4 };
}
variable pre_prs {
    type discrete [ 5 ] { 0, 1, 2, 3, 4 };
}
variable priorities_number {
    type discrete [ 5 ] { 0, 1, 2, 3, 4 };
}
variable review_comment_num {
    type discrete [ 2 ] { 0, 1 };
}
variable review_num {
    type discrete [ 2 ] { 0, 1 };
}
variable title_words {
    type discrete [ 5 ] { 0, 1, 2, 3, 4 };
}
variable total_add_line {
    type discrete [ 5 ] { 0, 1, 2, 3, 4 };
}
variable total_delete_line {
    type discrete [ 5 ] { 0, 1, 2, 3, 4 };
}
variable workload {
    type discrete [ 5 ] { 0, 1, 2, 3, 4 };
}
probability ( accept_num | close_num, pre_prs ) {
    table 0.9623233055454875, 0.3868131868131869, 0.19999999999999998, 0.19999999999999998, 0.19999999999999998, 0.6090909090909092, 0.01611786490620723, 0.0008474576271186442, 0.19999999999999998, 0.19999999999999998, 0.19999999999999998, 0.0010471204188481676, 1.5144631228229594e-05, 0.000546448087431694, 0.19999999999999998, 0.19999999999999998, 0.19999999999999998, 0.0006042296072507553, 1.4523273545857237e-05, 6.894174422612891e-05, 0.19999999999999998, 0.19999999999999998, 0.19999999999999998, 0.0007246376811594204, 1.751160143595132e-05, 0.03762232693004713, 0.6065934065934067, 0.19999999999999998, 0.19999999999999998, 0.19999999999999998, 0.38181818181818195, 0.946799774575316, 0.7000000000000001, 0.19999999999999998, 0.19999999999999998, 0.19999999999999998, 0.5507853403141362, 0.03409056489474482, 0.000546448087431694, 0.19999999999999998, 0.19999999999999998, 0.19999999999999998, 0.0006042296072507553, 1.4523273545857237e-05, 6.894174422612891e-05, 0.19999999999999998, 0.19999999999999998, 0.19999999999999998, 0.0007246376811594204, 1.751160143595132e-05, 1.8122508155128673e-05, 0.0021978021978021982, 0.19999999999999998, 0.19999999999999998, 0.19999999999999998, 0.003030303030303031, 0.03705015699219065, 0.2974576271186441, 0.19999999999999998, 0.19999999999999998, 0.19999999999999998, 0.4460732984293194, 0.9295168862638196, 0.560655737704918, 0.19999999999999998, 0.19999999999999998, 0.19999999999999998, 0.6803625377643504, 0.025067170140149593, 6.894174422612891e-05, 0.19999999999999998, 0.19999999999999998, 0.19999999999999998, 0.0007246376811594204, 1.751160143595132e-05, 1.8122508155128673e-05, 0.0021978021978021982, 0.19999999999999998, 0.19999999999999998, 0.19999999999999998, 0.003030303030303031, 1.6101763143064167e-05, 0.0008474576271186442, 0.19999999999999998, 0.19999999999999998, 0.19999999999999998, 0.0010471204188481676, 0.036362259578979254, 0.4377049180327869, 0.19999999999999998, 0.19999999999999998, 0.19999999999999998, 0.31782477341389725, 0.9291409483697626, 0.6119269217511203, 0.19999999999999998, 0.19999999999999998, 0.19999999999999998, 0.7978260869565218, 0.042483145083617904, 1.8122508155128673e-05, 0.0021978021978021982, 0.19999999999999998, 0.19999999999999998, 0.19999999999999998, 0.003030303030303031, 1.6101763143064167e-05, 0.0008474576271186442, 0.19999999999999998, 0.19999999999999998, 0.19999999999999998, 0.0010471204188481676, 1.5144631228229594e-05, 0.000546448087431694, 0.19999999999999998, 0.19999999999999998, 0.19999999999999998, 0.0006042296072507553, 0.045762834942996156, 0.38786625301620126, 0.19999999999999998, 0.19999999999999998, 0.19999999999999998, 0.2, 0.9574643201120743 ;
}
probability ( author_identity | accept_num, change_num, label_count ) {
    table 0.2877607288420043, 0.8643344709897612, 0.9939103849238172, 0.34815585960737655, 0.4861388419597604, 0.47748548960868753, 0.25, 0.25, 0.00806451612903226, 0.25, 0.25, 0.25, 0.25, 0.25, 0.25, 0.2950655498907502, 0.7512610340479193, 0.9084460102837556, 0.1829540837058106, 0.3102461117757649, 0.9379860339628632, 0.6953939745075319, 0.7029388002423753, 0.5750122070312501, 0.25, 0.25, 0.25, 0.25, 0.25, 0.25, 0.7479253112033194, 0.7769970414201184, 0.4969797349961029, 0.5634463961235615, 0.7042843072882468, 0.905710925248301, 0.7040405442932518, 0.7458262247136243, 0.8531392306947002, 0.71875, 0.8391103838143408, 0.813534007352941, 0.25, 0.25, 0.25, 0.9836956521739131, 0.99585635359116, 0.6659556313993175, 0.7665816326530612, 0.9336790393013101, 0.745507399577167, 0.9564700285442436, 0.873056419369169, 0.9025763653193457, 0.8398427086110369, 0.880107428151685, 0.8946957131921409, 0.9794386422976502, 0.9671314741035855, 0.9562396179401995, 0.9758064516129034, 0.9531250000000001, 0.9901315789473685, 0.015625, 0.00806451612903226, 0.9836956521739131, 0.9531250000000001, 0.9901315789473685, 0.9877049180327869, 0.6528132992327367, 0.609463850528026, 0.6783164782867341, 0.5856804238706079, 0.7013594782314078, 0.7271057020744293, 0.7121193958283386, 0.1355651475607308, 0.006039494787489976, 0.6515466983938132, 0.5137843649209031, 0.52242089496349, 0.25, 0.25, 0.9758064516129034, 0.25, 0.25, 0.25, 0.25, 0.25, 0.25, 0.519027676620539, 0.04868492163574131, 0.005760807465244716, 0.8168427468508734, 0.6896684327465391, 0.06193461355340423, 0.30431633835457705, 0.29696021005857404, 0.42486572265625, 0.25, 0.25, 0.25, 0.25, 0.25, 0.25, 0.18775933609958503, 0.04474852071005917, 9.742790335151988e-05, 0.43625075711689887, 0.29555154300722253, 0.05495295347621536, 0.2958206053873923, 0.2541128442602974, 0.1468123243871718, 0.280875748502994, 0.160740850937221, 0.18623621323529407, 0.25, 0.25, 0.25, 0.005434782608695653, 0.0013812154696132592, 0.00042662116040955637, 0.0012755102040816326, 0.0002729257641921398, 0.0002642706131078224, 0.04305423406279734, 0.12672145713016433, 0.09726936130823817, 0.1360303918954945, 0.08954641447066386, 0.07943671855065068, 0.019908616187989555, 0.005523361101050342, 0.01873961794019934, 0.00806451612903226, 0.015625000000000003, 0.0032894736842105266, 0.015625, 0.00806451612903226, 0.005434782608695653, 0.015625000000000003, 0.0032894736842105266, 0.004098360655737705, 0.03900255754475704, 0.048943948009748175, 0.017995240928019036, 0.004252649191299498, 0.010185498898864985, 0.007831231106014804, 5.9937664828578277e-05, 5.0190724754065456e-05, 2.506014434643144e-05, 0.000148720999405116, 3.839655966825373e-05, 4.680771391125257e-05, 0.25, 0.25, 0.00806451612903226, 0.25, 0.25, 0.25, 0.25, 0.25, 0.25, 0.027403495994173344, 0.02166276346604216, 0.074319177299562, 0.00010158472165786263, 4.2727738848060166e-05, 3.967624186637042e-05, 0.00014484356894553882, 5.049484952534841e-05, 6.103515625e-05, 0.25, 0.25, 0.25, 0.25, 0.25, 0.25, 0.0010373443983402487, 0.00036982248520710064, 0.28068978955572876, 0.00015142337976983646, 8.20748522652659e-05, 6.534239414532147e-05, 6.942515967786725e-05, 3.0465513039239584e-05, 2.4222459064044183e-05, 0.00018712574850299402, 7.438262421898243e-05, 0.00011488970588235293, 0.25, 0.25, 0.25, 0.005434782608695653, 0.0013812154696132592, 0.3331911262798635, 0.23086734693877548, 0.06577510917030568, 0.07954545454545454, 0.0002378686964795433, 0.0001110617503331852, 7.713668620796049e-05, 0.024060250599840037, 0.028945918648425308, 0.020110359785659608, 0.00032637075718015666, 0.027254617892068084, 0.024968853820598012, 0.00806451612903226, 0.015625000000000003, 0.0032894736842105266, 0.953125, 0.9758064516129034, 0.005434782608695653, 0.015625000000000003, 0.0032894736842105266, 0.004098360655737705, 0.3075447570332482, 0.34138911454102355, 0.30353955978584174, 0.40999721137757944, 0.2884338471963409, 0.26426821640779735, 5.9937664828578277e-05, 5.0190724754065456e-05, 2.506014434643144e-05, 0.000148720999405116, 3.839655966825373e-05, 4.680771391125257e-05, 0.25, 0.25, 0.00806451612903226, 0.25, 0.25, 0.25, 0.25, 0.25, 0.25, 0.15850327749453752, 0.17839128085029726, 0.011474004951437824, 0.00010158472165786263, 4.2727738848060166e-05, 3.967624186637042e-05, 0.00014484356894553882, 5.049484952534841e-05, 6.103515625e-05, 0.25, 0.25, 0.25, 0.25, 0.25, 0.25, 0.06327800829875517, 0.17788461538461542, 0.22223304754481685, 0.00015142337976983646, 8.20748522652659e-05, 0.03927077888133821, 6.942515967786725e-05, 3.0465513039239584e-05, 2.4222459064044183e-05, 0.00018712574850299402, 7.438262421898243e-05, 0.00011488970588235293, 0.25, 0.25, 0.25, 0.005434782608695653, 0.0013812154696132592, 0.00042662116040955637, 0.0012755102040816326, 0.0002729257641921398, 0.17468287526427065, 0.0002378686964795433, 0.0001110617503331852, 7.713668620796049e-05, 6.664889362836575e-05, 0.0014002387292259663, 0.005757208471548865, 0.00032637075718015666, 9.054690329590725e-05, 5.191029900332227e-05, 0.00806451612903226, 0.015625000000000003, 0.0032894736842105266, 0.015625, 0.00806451612903226, 0.005434782608695653, 0.015625000000000003, 0.0032894736842105266, 0.004098360655737705, 0.0006393861892583121, 0.0002030869212022746, 0.000148720999405116, 6.971556051310652e-05, 2.117567338641369e-05, 0.0007948504117585739 ;
}
probability ( body_words | comment_num, has_refactor, total_add_line ) {
    table 0.35828440132754663, 0.2618106896133802, 0.22202412165705296, 0.12943251984710383, 0.23666469544648136, 0.5769401330376939, 0.39801980198019804, 0.19999999999999998, 0.9272727272727272, 0.19999999999999998, 0.20491722668415013, 0.16903848885101547, 0.15845165147212673, 0.12406595068824686, 0.11735537190082647, 0.46490066225165566, 0.2305343511450382, 0.32903225806451614, 0.19999999999999998, 0.19999999999999998, 0.18489976568601926, 0.14584273563617425, 0.12659260300942202, 0.09345953161024147, 0.06142376845490426, 0.14312796208530806, 0.33186813186813197, 0.003921568627450982, 0.009523809523809523, 0.009523809523809523, 0.1644602398933807, 0.09498665084544647, 0.11159755840875607, 0.09408189842280422, 0.05591300407793385, 0.4253521126760564, 0.9272727272727272, 0.24878048780487808, 0.19999999999999998, 0.24878048780487808, 0.12111160914388165, 0.08296219575349559, 0.04511481314723097, 0.05238226383916276, 0.03397421397873784, 0.6516129032258065, 0.01818181818181818, 0.01818181818181818, 0.01818181818181818, 0.19999999999999998, 0.27233426942387884, 0.22666343473518363, 0.2762104527180563, 0.2764481034989709, 0.20118273211117682, 0.35521064301552097, 0.39801980198019804, 0.19999999999999998, 0.01818181818181818, 0.19999999999999998, 0.26720209801671857, 0.24857264593097572, 0.25260798086982517, 0.2027227348358796, 0.1920021327645961, 0.39867549668874175, 0.2305343511450382, 0.6516129032258065, 0.19999999999999998, 0.19999999999999998, 0.23696953918250457, 0.19444540878319735, 0.23346927295738998, 0.18689479432107756, 0.1418213711445695, 0.38009478672985786, 0.4417582417582418, 0.9843137254901964, 0.009523809523809523, 0.009523809523809523, 0.16890270990670814, 0.2344111539602492, 0.16632287939381182, 0.14761973665171466, 0.11632683884609575, 0.28450704225352114, 0.01818181818181818, 0.24878048780487808, 0.19999999999999998, 0.004878048780487806, 0.13455849394890182, 0.14510616261004658, 0.13516434038721295, 0.10746350867529607, 0.07468898439267134, 0.0064516129032258064, 0.9272727272727272, 0.9272727272727272, 0.9272727272727272, 0.19999999999999998, 0.1617053867755936, 0.21333171736759182, 0.1940569830449222, 0.2264628050573361, 0.1834417504435245, 0.06696230598669622, 0.0019801980198019807, 0.19999999999999998, 0.01818181818181818, 0.19999999999999998, 0.1983609244386166, 0.2088055673909956, 0.19282618442684205, 0.25869006201784905, 0.23465742468675022, 0.13377483443708613, 0.3068702290076336, 0.0064516129032258064, 0.19999999999999998, 0.19999999999999998, 0.19271023171049206, 0.20659607706995312, 0.18284348192940517, 0.2196578085183837, 0.24560736734395558, 0.33270142180094786, 0.22197802197802202, 0.003921568627450982, 0.9619047619047618, 0.4857142857142857, 0.16890270990670814, 0.1958469296944527, 0.21894338034098085, 0.20839241788453192, 0.22658208729799126, 0.14366197183098592, 0.01818181818181818, 0.49268292682926834, 0.19999999999999998, 0.24878048780487808, 0.18386373823397578, 0.13474883480062141, 0.20720396217919856, 0.17080694023684936, 0.1493327301515494, 0.32903225806451614, 0.01818181818181818, 0.01818181818181818, 0.01818181818181818, 0.19999999999999998, 0.13277167900604206, 0.18424433402011878, 0.1870651983918895, 0.21470155836518673, 0.15978710821998815, 0.00044345898004434584, 0.20000000000000004, 0.19999999999999998, 0.01818181818181818, 0.19999999999999998, 0.2065563022455335, 0.21590683141599207, 0.21972799282618444, 0.22692482226592045, 0.23998933617701948, 0.0013245033112582784, 0.2305343511450382, 0.0064516129032258064, 0.19999999999999998, 0.19999999999999998, 0.1901067430356678, 0.2465197014407221, 0.24050063282238784, 0.2948913966751608, 0.2894606051746821, 0.14312796208530806, 0.0021978021978021982, 0.003921568627450982, 0.009523809523809523, 0.4857142857142857, 0.23553976010661928, 0.24924354790863246, 0.24630604083350874, 0.2894226595282882, 0.2915269596737653, 0.14366197183098592, 0.01818181818181818, 0.004878048780487806, 0.19999999999999998, 0.49268292682926834, 0.228686687584043, 0.2486794407042983, 0.274741107609185, 0.3112641145689892, 0.31671567518660937, 0.0064516129032258064, 0.01818181818181818, 0.01818181818181818, 0.01818181818181818, 0.19999999999999998, 0.07490426346693899, 0.1139498242637256, 0.120643244188079, 0.15295501323140256, 0.21892371377882908, 0.00044345898004434584, 0.0019801980198019807, 0.19999999999999998, 0.01818181818181818, 0.19999999999999998, 0.12296344861498114, 0.15767646641102115, 0.17638619040502165, 0.18759643019210406, 0.2159957344708078, 0.0013245033112582784, 0.0015267175572519086, 0.0064516129032258064, 0.19999999999999998, 0.19999999999999998, 0.19531372038531633, 0.20659607706995312, 0.21659400928139502, 0.20509646887513652, 0.2616868878818886, 0.0009478672985781992, 0.0021978021978021982, 0.003921568627450982, 0.009523809523809523, 0.009523809523809523, 0.2621945801865837, 0.22551171759121924, 0.25683014102294255, 0.260483287512661, 0.30965111010421387, 0.0028169014084507044, 0.01818181818181818, 0.004878048780487806, 0.19999999999999998, 0.004878048780487806, 0.33177947108919764, 0.388503366131538, 0.3377757766771724, 0.3580831726797026, 0.425288396290432, 0.0064516129032258064, 0.01818181818181818, 0.01818181818181818, 0.01818181818181818, 0.19999999999999998 ;
}
probability ( change_num | accept_num, close_num, pre_prs ) {
    table 0.5894465264307641, 0.2852272727272727, 0.2, 0.2, 0.2, 0.4985074626865673, 0.42477522477522467, 0.2, 0.2, 0.2, 0.2, 0.2, 0.2, 0.2, 0.2, 0.2, 0.2, 0.2, 0.2, 0.2, 0.2, 0.2, 0.2, 0.2, 0.2, 0.4215799614643546, 0.7253623188405799, 0.2, 0.2, 0.2, 0.0015873015873015873, 0.3588408360402034, 0.09104116222760289, 0.2, 0.2, 0.2, 0.1904942965779468, 0.10004442470013328, 0.2, 0.2, 0.2, 0.2, 0.2, 0.2, 0.2, 0.2, 0.2, 0.2, 0.2, 0.2, 0.2, 0.2, 0.2, 0.2, 0.2, 0.2, 0.20651890482398957, 0.4991452991452992, 0.2, 0.2, 0.2, 0.11784037558685447, 0.08146832638164757, 0.0001949317738791423, 0.2, 0.2, 0.2, 0.06678507992895204, 0.014600231749710311, 0.2, 0.2, 0.2, 0.2, 0.2, 0.2, 0.2, 0.2, 0.2, 0.2, 0.2, 0.2, 0.2, 0.2, 0.2, 0.2, 0.2, 0.2, 0.06255726780508122, 0.00024968789013732833, 0.2, 0.2, 0.2, 0.1429657794676806, 0.017587845442040766, 2.2532672374943666e-05, 0.2, 0.2, 0.2, 0.000181653042688465, 8.244023083264632e-05, 0.2, 0.2, 0.2, 0.2, 0.2, 0.2, 0.2, 0.2, 0.2, 0.2, 0.2, 0.2, 0.2, 0.2, 0.2, 0.2, 0.2, 0.2, 0.047667407172326245, 3.554923569143263e-05, 0.2, 0.2, 0.2, 0.0007246376811594204, 0.0009181359280122906, 0.41054217434699924, 0.7113636363636363, 0.2, 0.2, 0.2, 0.4985074626865673, 0.5246753246753245, 0.2, 0.2, 0.2, 0.2, 0.2, 0.2, 0.2, 0.2, 0.2, 0.2, 0.2, 0.2, 0.2, 0.2, 0.2, 0.2, 0.2, 0.2, 0.3613680154142582, 0.0007246376811594206, 0.2, 0.2, 0.2, 0.9936507936507937, 0.37584734953487187, 0.42397094430992727, 0.2, 0.2, 0.2, 0.38060836501901146, 0.36659262549977795, 0.2, 0.2, 0.2, 0.2, 0.2, 0.2, 0.2, 0.2, 0.2, 0.2, 0.2, 0.2, 0.2, 0.2, 0.2, 0.2, 0.2, 0.2, 0.336897001303781, 0.2854700854700855, 0.2, 0.2, 0.2, 0.35258215962441314, 0.20733185610010432, 0.14639376218323588, 0.2, 0.2, 0.2, 0.022380106571936058, 0.1594438006952491, 0.2, 0.2, 0.2, 0.2, 0.2, 0.2, 0.2, 0.2, 0.2, 0.2, 0.2, 0.2, 0.2, 0.2, 0.2, 0.2, 0.2, 0.2, 0.22915451895043734, 0.09388264669163546, 0.2, 0.2, 0.2, 0.04790874524714829, 0.04259722395898462, 0.00565570076611086, 0.2, 0.2, 0.2, 0.000181653042688465, 8.244023083264632e-05, 0.2, 0.2, 0.2, 0.2, 0.2, 0.2, 0.2, 0.2, 0.2, 0.2, 0.2, 0.2, 0.2, 0.2, 0.2, 0.2, 0.2, 0.2, 0.023865439543002222, 0.01336651261997867, 0.2, 0.2, 0.2, 0.0007246376811594204, 3.6579120637939866e-06, 3.7664074122897884e-06, 0.0011363636363636363, 0.2, 0.2, 0.2, 0.000995024875621891, 0.05014985014985014, 0.2, 0.2, 0.2, 0.2, 0.2, 0.2, 0.2, 0.2, 0.2, 0.2, 0.2, 0.2, 0.2, 0.2, 0.2, 0.2, 0.2, 0.2, 0.21685934489402697, 0.27246376811594214, 0.2, 0.2, 0.2, 0.0015873015873015873, 0.2653050118195269, 0.48450363196125895, 0.2, 0.2, 0.2, 0.42813688212927764, 0.5331852509995558, 0.2, 0.2, 0.2, 0.2, 0.2, 0.2, 0.2, 0.2, 0.2, 0.2, 0.2, 0.2, 0.2, 0.2, 0.2, 0.2, 0.2, 0.2, 0.45641025641025645, 0.21424501424501427, 0.2, 0.2, 0.2, 0.5286384976525821, 0.5511144421272159, 0.3900584795321637, 0.2, 0.2, 0.2, 0.6440497335701598, 0.33325608342989566, 0.2, 0.2, 0.2, 0.2, 0.2, 0.2, 0.2, 0.2, 0.2, 0.2, 0.2, 0.2, 0.2, 0.2, 0.2, 0.2, 0.2, 0.2, 0.40616409829237826, 0.499625468164794, 0.2, 0.2, 0.2, 0.5231939163498098, 0.1414624234087783, 0.011288868859846778, 0.2, 0.2, 0.2, 0.022888283378746592, 0.03099752679307502, 0.2, 0.2, 0.2, 0.2, 0.2, 0.2, 0.2, 0.2, 0.2, 0.2, 0.2, 0.2, 0.2, 0.2, 0.2, 0.2, 0.2, 0.2, 0.03973341796255157, 0.00892285815854959, 0.2, 0.2, 0.2, 0.0007246376811594204, 0.0013753749359865389, 3.7664074122897884e-06, 0.0011363636363636363, 0.2, 0.2, 0.2, 0.000995024875621891, 0.00019980019980019977, 0.2, 0.2, 0.2, 0.2, 0.2, 0.2, 0.2, 0.2, 0.2, 0.2, 0.2, 0.2, 0.2, 0.2, 0.2, 0.2, 0.2, 0.2, 9.633911368015416e-05, 0.0007246376811594206, 0.2, 0.2, 0.2, 0.0015873015873015873, 3.401302698933692e-06, 0.00024213075060532682, 0.2, 0.2, 0.2, 0.00038022813688212936, 8.884940026654821e-05, 0.2, 0.2, 0.2, 0.2, 0.2, 0.2, 0.2, 0.2, 0.2, 0.2, 0.2, 0.2, 0.2, 0.2, 0.2, 0.2, 0.2, 0.2, 8.691873098652761e-05, 0.0005698005698005699, 0.2, 0.2, 0.2, 0.0004694835680751174, 0.16008211678832118, 0.4631578947368421, 0.2, 0.2, 0.2, 0.266607460035524, 0.4925840092699884, 0.2, 0.2, 0.2, 0.2, 0.2, 0.2, 0.2, 0.2, 0.2, 0.2, 0.2, 0.2, 0.2, 0.2, 0.2, 0.2, 0.2, 0.2, 0.3020408163265306, 0.40599250936329584, 0.2, 0.2, 0.2, 0.2855513307984791, 0.7022195823433788, 0.29576385759351054, 0.2, 0.2, 0.2, 0.7722070844686648, 0.3813685078318219, 0.2, 0.2, 0.2, 0.2, 0.2, 0.2, 0.2, 0.2, 0.2, 0.2, 0.2, 0.2, 0.2, 0.2, 0.2, 0.2, 0.2, 0.2, 0.6427165979054269, 0.3333096338428723, 0.2, 0.2, 0.2, 0.45362318840579713, 0.026980759382544444, 3.7664074122897884e-06, 0.0011363636363636363, 0.2, 0.2, 0.2, 0.000995024875621891, 0.00019980019980019977, 0.2, 0.2, 0.2, 0.2, 0.2, 0.2, 0.2, 0.2, 0.2, 0.2, 0.2, 0.2, 0.2, 0.2, 0.2, 0.2, 0.2, 0.2, 9.633911368015416e-05, 0.0007246376811594206, 0.2, 0.2, 0.2, 0.0015873015873015873, 3.401302698933692e-06, 0.00024213075060532682, 0.2, 0.2, 0.2, 0.00038022813688212936, 8.884940026654821e-05, 0.2, 0.2, 0.2, 0.2, 0.2, 0.2, 0.2, 0.2, 0.2, 0.2, 0.2, 0.2, 0.2, 0.2, 0.2, 0.2, 0.2, 0.2, 8.691873098652761e-05, 0.0005698005698005699, 0.2, 0.2, 0.2, 0.0004694835680751174, 3.2586027111574564e-06, 0.0001949317738791423, 0.2, 0.2, 0.2, 0.00017761989342806396, 0.00011587485515643104, 0.2, 0.2, 0.2, 0.2, 0.2, 0.2, 0.2, 0.2, 0.2, 0.2, 0.2, 0.2, 0.2, 0.2, 0.2, 0.2, 0.2, 0.2, 8.329862557267806e-05, 0.00024968789013732833, 0.2, 0.2, 0.2, 0.0003802281368821293, 0.09613292484681756, 0.6872690401081568, 0.2, 0.2, 0.2, 0.20454132606721157, 0.5874690849134377, 0.2, 0.2, 0.2, 0.2, 0.2, 0.2, 0.2, 0.2, 0.2, 0.2, 0.2, 0.2, 0.2, 0.2, 0.2, 0.2, 0.2, 0.2, 0.24601713741669312, 0.6443654461429079, 0.2, 0.2, 0.2, 0.5442028985507247, 0.9707220718413928 ;
}
probability ( close_num ) {
    table 0.16781002638522427, 0.1918582736524689, 0.20753863550697324, 0.25638899359215983, 0.17640407086317378 ;
}
probability ( comment_num | participants_count, review_comment_num, review_num ) {
    table 0.7064109522947952, 0.7589593841252986, 0.5723951285520974, 0.5656661400737231, 0.2697308185314045, 0.27632580563308806, 0.21656600517687663, 0.13975311565673013, 0.12355509889545338, 0.1770546056260342, 0.07494896471274425, 0.027086750107898145, 0.0014104372355430183, 0.0034129692832764505, 0.0017699115044247787, 0.004998164515855759, 0.21910620589831736, 0.17706397663923545, 0.3373284361105741, 0.37131823766894856, 0.3927852041750595, 0.4346612534889622, 0.3178027034800115, 0.3931499955596341, 0.2920626765990239, 0.28295642581356867, 0.2662583843686206, 0.14613724643936124, 0.20451339915373765, 0.22184300341296928, 0.0584070796460177, 0.03798040267698303, 0.0579579036246306, 0.05247323245730466, 0.08679682969263483, 0.06294540986484115, 0.2580113532320088, 0.22354732301446334, 0.3684210526315789, 0.46040673751517125, 0.39070125866940664, 0.3800330943188086, 0.3642461358996792, 0.3488821752265861, 0.2947813822284908, 0.22184300341296928, 0.3415929203539823, 0.1256318301188829, 0.016464628188890898, 0.011414919033713831, 0.003286294219988401, 3.5106196243637e-05, 0.06464017579197949, 0.057092108601877696, 0.09692263445498993, 0.006186909801367633, 0.17698433085024404, 0.10645339216767788, 0.27092446777486145, 0.4748381527837721, 0.1368124118476728, 0.2764505119453925, 0.11504424778761062, 0.20921695422584927, 6.030999336590073e-05, 8.848774444739404e-05, 0.00019331142470520006, 3.5106196243637e-05, 0.014832448269547702, 0.008373509261608729, 0.0002876042565429968, 0.0005032414670968888, 0.016696634985872077, 0.053502482073910645, 0.023622047244094488, 0.003055675442382391, 0.3624823695345557, 0.2764505119453925, 0.4831858407079646, 0.622172648462429 ;
}
probability ( commit_num | file_changed_num ) {
    table 0.999789792314807, 0.9998346670193771, 0.9999034338908417, 0.27070063694267515, 0.00021020768519297066, 0.00016533298062297466, 9.656610915832979e-05, 0.7292993630573248 ;
}
probability ( file_changed_num | total_add_line ) {
    table 0.6940753045404208, 0.2588951310861423, 0.11800600826135937, 0.019157420249653258, 0.013787943565626336, 0.23117386489479513, 0.49634831460674156, 0.3940105144573789, 0.23829750346740639, 0.039439931594698587, 0.07465854558877814, 0.2446629213483146, 0.4878895981975216, 0.7424583911234397, 0.9304189824711415, 9.228497600590623e-05, 9.363295880149813e-05, 9.38790837401427e-05, 8.668515950069348e-05, 0.016353142368533562 ;
}
probability ( has_assignees_content | priorities_number ) {
    table 0.9201469450889405, 0.9682156133828996, 0.9701352366641622, 0.9808451816745656, 0.9840787119856887, 0.07985305491105955, 0.03178438661710037, 0.029864763335837714, 0.01915481832543444, 0.01592128801431127 ;
}
probability ( has_bug | body_words ) {
    table 0.829523346303502, 0.9504786450662739, 0.9789414834140887, 0.9907467532467532, 0.997985347985348, 0.17047665369649806, 0.049521354933726065, 0.021058516585911295, 0.009253246753246753, 0.002014652014652015 ;
}
probability ( has_document | body_words ) {
    table 0.9229085603112841, 0.9456921944035346, 0.959560193812896, 0.9813311688311688, 0.9987179487179487, 0.07709143968871596, 0.05430780559646539, 0.04043980618710399, 0.018668831168831168, 0.001282051282051282 ;
}
probability ( has_feature | body_words ) {
    table 0.9535505836575876, 0.9814064801178203, 0.9919865821841223, 0.9972402597402598, 0.9998168498168498, 0.04644941634241245, 0.018593519882179676, 0.00801341781587775, 0.00275974025974026, 0.00018315018315018315 ;
}
probability ( has_improve | body_words ) {
    table 0.9661964980544747, 0.9821428571428571, 0.988632128214685, 0.9972402597402598, 0.9990842490842491, 0.03380350194552529, 0.017857142857142856, 0.011367871785314947, 0.00275974025974026, 0.0009157509157509158 ;
}
probability ( has_labels | label_count ) {
    table 0.0004241601628775026, 0.00017053206002728516, 0.9998700691232265, 0.9995758398371225, 0.9998294679399727, 0.00012993087677355648 ;
}
probability ( has_refactor | total_delete_line ) {
    table 0.9648767929385803, 0.9883365200764819, 0.9952278325123153, 0.9982531055900621, 0.9978642619838634, 0.03512320706141964, 0.011663479923518164, 0.004772167487684729, 0.0017468944099378882, 0.0021357380161366873 ;
}
probability ( is_weekday | author_identity, change_num ) {
    table 0.08343418044910582, 0.0843899226082661, 0.10761203192142418, 0.13935139841114375, 0.18547919805307683, 0.12831858407079647, 0.16852165497217517, 0.1654275092936803, 0.16997294860234446, 0.2981651376146789, 0.18079800498753118, 0.20491803278688525, 0.5, 0.1109936575052854, 0.16580406654343807, 0.05555555555555555, 0.052941176470588235, 0.5, 0.017241379310344827, 0.1, 0.9165658195508942, 0.915610077391734, 0.8923879680785758, 0.8606486015888563, 0.8145208019469231, 0.8716814159292036, 0.8314783450278248, 0.8345724907063197, 0.8300270513976555, 0.7018348623853211, 0.8192019950124688, 0.7950819672131147, 0.5, 0.8890063424947146, 0.834195933456562, 0.9444444444444444, 0.9470588235294117, 0.5, 0.9827586206896551, 0.9 ;
}
probability ( label_count | accept_num, body_words, has_bug, review_comment_num ) {
    table 0.3749674733281291, 0.38156308231941244, 0.47331583552055995, 0.28211694408877513, 0.29489643390988685, 0.29502649556279126, 0.3333333333333333, 0.3477946493130875, 0.24696689286448695, 0.17462836586785166, 0.49593495934959353, 0.20132013201320131, 0.14299310016654773, 0.08388359011983369, 0.015873015873015876, 0.9682539682539684, 0.17658584374234634, 0.0750248373553825, 0.3333333333333333, 0.3333333333333333, 0.38736304967732255, 0.20529685170569148, 0.23116219667943805, 0.3541449878598682, 0.33103527519246234, 0.25334399857796736, 0.3333333333333333, 0.10586176727909011, 0.24774568240868103, 0.17662347590108166, 0.015873015873015872, 0.22253000923361033, 0.17716467117820578, 0.13752039718084919, 0.008130081300813009, 0.00546448087431694, 0.06174737381501409, 0.03953158022381596, 0.3333333333333333, 0.3333333333333333, 0.37418037192303555, 0.2281568776531711, 0.4229046705054383, 0.3808957590170432, 0.2756595108405425, 0.18828179114207713, 0.4991708126036484, 0.2501485442661914, 0.25603092096494734, 0.13557516089161656, 0.3333333333333333, 0.12629399585921322, 0.10165300013015749, 0.09057507463176197, 0.9682539682539684, 0.008130081300813009, 0.14296174263225336, 0.048879749817932576, 0.3333333333333333, 0.015873015873015876, 0.33552559465088233, 0.1543696083159192, 0.31583552055992997, 0.2546170148349985, 0.2541655159716468, 0.113191372629702, 0.20066334991708124, 0.15835520559930008, 0.13050826995050102, 0.08319308319308319, 0.008130081300813009, 0.0011074197120708748, 0.1143482814433971, 0.07454582214135112, 0.008130081300813009, 0.0016583747927031507, 0.05968669442791989, 0.0736211809688706, 0.3333333333333333, 0.015873015873015876, 0.28950252027175105, 0.11260188992281613, 0.5543278084714548, 0.44992712887778474, 0.1790285814483605, 0.08104459351136985, 0.008130081300813009, 0.23558162267839686, 0.07808782176076141, 0.07575251456779127, 0.3333333333333333, 0.20132013201320131, 0.12516263335935468, 0.07565731890907818, 0.3333333333333333, 0.0027548209366391185, 0.05443094916779127, 0.0759257502450748, 0.015873015873015876, 0.008130081300813009, 0.3281290658339839, 0.30921845884029375, 0.36832895888013995, 0.5894152795561246, 0.3333333333333333, 0.3333333333333333, 0.6612021857923498, 0.3477946493130875, 0.5060662142710262, 0.4222081151140031, 0.49593495934959353, 0.20132013201320131, 0.41422793242921724, 0.29979387206093006, 0.9682539682539684, 0.015873015873015876, 0.32353661523389665, 0.33461526135307507, 0.3333333333333333, 0.3333333333333333, 0.37835809695332434, 0.46312373936683326, 0.6909323116219668, 0.541449878598682, 0.42755371710904283, 0.5066435586366262, 0.6612021857923498, 0.7357830271216098, 0.48616842427021245, 0.46099453426594805, 0.015873015873015872, 0.3333333333333333, 0.437445774770085, 0.3979099399368121, 0.49593495934959353, 0.6612021857923498, 0.5844222393031002, 0.2557253230779891, 0.3333333333333333, 0.3333333333333333, 0.30323551542513166, 0.3764176645758094, 0.4612923864363404, 0.5235830360681728, 0.34614973833173124, 0.39852503768895403, 0.10116086235489219, 0.6779560308972074, 0.3759829401572704, 0.38106806461236836, 0.3333333333333333, 0.3747412008281573, 0.4765065729532734, 0.36417019322245187, 0.015873015873015876, 0.49593495934959353, 0.4724510342302764, 0.2879235745191278, 0.3333333333333333, 0.9682539682539684, 0.2566041872191165, 0.33761988962117556, 0.5258092738407699, 0.4726006660611565, 0.3591089017766731, 0.3827109693790076, 0.20066334991708124, 0.57830271216098, 0.391283351442714, 0.32277332277332277, 0.49593495934959353, 0.3997785160575858, 0.49709606779015514, 0.32235797013545914, 0.49593495934959353, 0.3996683250414593, 0.5593892524291096, 0.3008693142877755, 0.3333333333333333, 0.9682539682539684, 0.31580100810870043, 0.359301738440453, 0.4438305709023941, 0.39995835935873414, 0.39996493073820794, 0.3291144580854744, 0.49593495934959353, 0.17693059628543498, 0.4804239671209172, 0.3140333296217942, 0.3333333333333333, 0.39933993399339934, 0.5467083008066614, 0.31302734306620456, 0.3333333333333333, 0.3333333333333333, 0.5402609086819613, 0.3320684312051356, 0.9682539682539684, 0.008130081300813009, 0.29690346083788705, 0.30921845884029375, 0.15835520559930008, 0.12846777635510032, 0.37177023275677984, 0.37164017110387537, 0.00546448087431694, 0.30441070137382503, 0.24696689286448695, 0.40316351901814523, 0.008130081300813009, 0.5973597359735974, 0.44277896740423506, 0.6163225378192362, 0.015873015873015876, 0.015873015873015876, 0.49987754102375703, 0.5903599012915425, 0.3333333333333333, 0.3333333333333333, 0.23427885336935314, 0.3315794089274752, 0.07790549169859513, 0.10440513354144988, 0.24141100769849475, 0.24001244278540637, 0.00546448087431694, 0.15835520559930008, 0.26608589332110655, 0.3623819898329702, 0.9682539682539681, 0.44413665743305636, 0.38538955405170916, 0.4645696628823386, 0.49593495934959353, 0.3333333333333333, 0.35383038688188573, 0.7047430966981949, 0.3333333333333333, 0.3333333333333333, 0.32258411265183273, 0.39542545777101945, 0.11580294305822136, 0.095521204914784, 0.37819075082772613, 0.4131931711689687, 0.3996683250414593, 0.07189542483660132, 0.3679861388777822, 0.48335677449601494, 0.3333333333333333, 0.4989648033126293, 0.421840426916569, 0.5452547321457861, 0.015873015873015876, 0.49593495934959353, 0.38458722313747024, 0.6631966756629397, 0.3333333333333333, 0.015873015873015876, 0.40787021813000107, 0.5080105020629052, 0.15835520559930008, 0.27278231910384504, 0.38672558225167997, 0.5040976579912902, 0.5986733001658374, 0.26334208223972, 0.47820837860678495, 0.594033594033594, 0.49593495934959353, 0.5991140642303433, 0.38855565076644766, 0.6030962077231898, 0.49593495934959353, 0.5986733001658374, 0.38092405314297045, 0.6255095047433539, 0.3333333333333333, 0.015873015873015876, 0.3946964716195486, 0.5280963716367308, 0.0018416206261510127, 0.15011451176348117, 0.42100648781343153, 0.5898409484031556, 0.49593495934959353, 0.5874877810361682, 0.4414882111183214, 0.6102141558104145, 0.3333333333333333, 0.39933993399339934, 0.3281290658339839, 0.6113153380247173, 0.3333333333333333, 0.6639118457300276, 0.40530814215024746, 0.5920058185497897, 0.015873015873015876, 0.983739837398374 ;
}
probability ( mergable_state | author_identity, comment_num, commit_num, participants_count ) {
    table 0.7366127440319855, 0.7909812350169464, 0.7602633617350891, 0.20186335403726707, 0.007692307692307693, 0.5, 0.015151515151515152, 0.5, 0.8233738058082442, 0.846233874323762, 0.7854155133173403, 0.4927569035762789, 0.015151515151515152, 0.5993788819875776, 0.007692307692307693, 0.5, 0.9074408524471735, 0.911717467965504, 0.8444549275238014, 0.5960443281514545, 0.5, 0.007692307692307693, 0.015151515151515152, 0.5, 0.8327556325823223, 0.8843843843843844, 0.950845801242525, 0.6066971515671145, 0.5, 0.5, 0.015151515151515152, 0.5, 0.5, 0.5993788819875776, 0.5499219968798752, 0.7289739217933309, 0.5, 0.5, 0.5, 0.007692307692307693, 0.8299230708224284, 0.7612708555200568, 0.8526170798898072, 0.005154639175257732, 0.5, 0.5, 0.5, 0.5, 0.8898938555837943, 0.9295144491711896, 0.8402467839327907, 0.6839080459770115, 0.5, 0.5, 0.5, 0.5, 0.929920116194626, 0.9665972325546793, 0.9484778862722574, 0.7016438356164384, 0.5, 0.5, 0.5, 0.5, 0.5993788819875776, 0.998960498960499, 0.982890023626248, 0.7999013482407102, 0.5, 0.5, 0.5, 0.5, 0.5, 0.6649484536082474, 0.007692307692307693, 0.6948636483981996, 0.5, 0.5, 0.5, 0.5, 0.1513874614594039, 0.24165769644779334, 0.40062111801242234, 0.005154639175257732, 0.5, 0.5, 0.5, 0.5, 0.3000892458723784, 0.28580121703853956, 0.23651334469051674, 0.1264591439688716, 0.5, 0.5, 0.015151515151515152, 0.5, 0.5, 0.4308024987986545, 0.364627399934917, 0.11933085501858737, 0.5, 0.5, 0.9848484848484849, 0.015151515151515152, 0.015151515151515152, 0.5, 0.5671328671328671, 0.1962645437844458, 0.5, 0.5, 0.5, 0.015151515151515152, 0.5, 0.5, 0.33505154639175255, 0.24409522038311326, 0.5, 0.5, 0.5, 0.015151515151515152, 0.6816891412349184, 0.8555555555555555, 0.33505154639175255, 0.5, 0.5, 0.5, 0.5, 0.5, 0.7615156017830609, 0.8415435139573071, 0.748062015503876, 0.015151515151515152, 0.5, 0.5, 0.5, 0.5, 0.7768166089965398, 0.6953867028493894, 0.6871345029239766, 0.007692307692307693, 0.5, 0.5, 0.5, 0.5, 0.5, 0.015151515151515152, 0.8172804532577904, 0.33505154639175255, 0.5, 0.5, 0.5, 0.5, 0.5, 0.5, 0.015151515151515152, 0.1264591439688716, 0.5, 0.5, 0.5, 0.5, 0.26338725596801443, 0.20901876498305366, 0.23973663826491093, 0.7981366459627329, 0.9923076923076923, 0.5, 0.9848484848484849, 0.5, 0.1766261941917558, 0.15376612567623804, 0.21458448668265978, 0.5072430964237211, 0.9848484848484849, 0.40062111801242234, 0.9923076923076923, 0.5, 0.09255914755282645, 0.088282532034496, 0.15554507247619864, 0.4039556718485455, 0.5, 0.9923076923076923, 0.9848484848484849, 0.5, 0.16724436741767765, 0.11561561561561562, 0.049154198757474926, 0.3933028484328856, 0.5, 0.5, 0.9848484848484849, 0.5, 0.5, 0.40062111801242234, 0.4500780031201248, 0.2710260782066691, 0.5, 0.5, 0.5, 0.9923076923076923, 0.17007692917757158, 0.2387291444799432, 0.14738292011019283, 0.9948453608247423, 0.5, 0.5, 0.5, 0.5, 0.11010614441620571, 0.07048555082881033, 0.15975321606720924, 0.3160919540229885, 0.5, 0.5, 0.5, 0.5, 0.070079883805374, 0.033402767445320634, 0.05152211372774268, 0.29835616438356166, 0.5, 0.5, 0.5, 0.5, 0.40062111801242234, 0.0010395010395010396, 0.017109976373752, 0.2000986517592897, 0.5, 0.5, 0.5, 0.5, 0.5, 0.33505154639175255, 0.9923076923076923, 0.30513635160180036, 0.5, 0.5, 0.5, 0.5, 0.848612538540596, 0.7583423035522067, 0.5993788819875776, 0.9948453608247423, 0.5, 0.5, 0.5, 0.5, 0.6999107541276216, 0.7141987829614604, 0.7634866553094832, 0.8735408560311284, 0.5, 0.5, 0.9848484848484849, 0.5, 0.5, 0.5691975012013455, 0.635372600065083, 0.8806691449814127, 0.5, 0.5, 0.015151515151515152, 0.9848484848484849, 0.9848484848484849, 0.5, 0.43286713286713285, 0.8037354562155542, 0.5, 0.5, 0.5, 0.9848484848484849, 0.5, 0.5, 0.6649484536082474, 0.7559047796168867, 0.5, 0.5, 0.5, 0.9848484848484849, 0.31831085876508164, 0.14444444444444443, 0.6649484536082474, 0.5, 0.5, 0.5, 0.5, 0.5, 0.2384843982169391, 0.15845648604269294, 0.25193798449612403, 0.9848484848484849, 0.5, 0.5, 0.5, 0.5, 0.2231833910034602, 0.3046132971506106, 0.3128654970760234, 0.9923076923076923, 0.5, 0.5, 0.5, 0.5, 0.5, 0.9848484848484849, 0.18271954674220964, 0.6649484536082474, 0.5, 0.5, 0.5, 0.5, 0.5, 0.5, 0.9848484848484849, 0.8735408560311284, 0.5, 0.5, 0.5, 0.5 ;
}
probability ( participants_count | review_comment_num, review_num ) {
    table 0.6223164689986489, 0.6514295596034125, 0.4091268585890541, 0.18306084676486464, 0.20496171745984088, 0.22717316117131658, 0.2749920911104081, 0.21709596154340505, 0.1461116949406996, 0.10450772423334102, 0.2711958241062955, 0.3722590678902856, 0.026610118600810688, 0.016889554991929904, 0.044685226194242325, 0.2275841238014447 ;
}
probability ( pre_prs | close_num ) {
    table 0.9915543575920938, 0.005186640471512772, 7.264802034144572e-05, 5.880623346074684e-05, 8.547008547008547e-05, 0.008176100628930821, 0.9761100196463657, 0.013875771885216132, 5.880623346074684e-05, 8.547008547008547e-05, 8.984725965858045e-05, 0.01854616895874264, 0.959389756629132, 0.019464863275507206, 8.547008547008547e-05, 8.984725965858045e-05, 7.858546168958746e-05, 0.02658917544496913, 0.8098206409879447, 0.02358974358974359, 8.984725965858045e-05, 7.858546168958746e-05, 7.264802034144572e-05, 0.1705968832696266, 0.976153846153846 ;
}
probability ( priorities_number | comment_num, is_weekday, mergable_state, review_comment_num ) {
    table 0.6609636184857423, 0.31807000946073793, 0.9489361702127661, 0.7561497326203207, 0.548976841073398, 0.30783539304369983, 0.8411029728565276, 0.6847466526647416, 0.23678160919540223, 0.12984984984984982, 0.8077519379844963, 0.395065312046444, 0.21814234016887818, 0.1119518486672399, 0.41387137452711215, 0.3928033472803347, 0.16674364896073907, 0.07412263787119167, 0.49387755102040815, 0.17247311827956993, 0.0971685393258427, 0.04076536000496987, 0.31553610503282276, 0.18415380133993592, 0.19999999999999998, 0.0038515735086895255, 0.011764705882352944, 0.07014492753623189, 0.022720897615708273, 0.01045457840933807, 0.3325443786982249, 0.08948704926358557, 0.011764705882352944, 0.020844099913867355, 0.022222222222222233, 0.04961479198767335, 0.0014598540145985403, 0.005081268739151018, 0.11172413793103447, 0.03313195548489666, 0.2833824975417895, 0.40132450331125824, 0.024924012158054714, 0.14295900178253118, 0.27646121798799167, 0.2823544400560581, 0.09659629470056012, 0.1470727224993437, 0.5783251231527092, 0.44216216216216214, 0.18759689922480624, 0.406676342525399, 0.3513148371531966, 0.24952708512467756, 0.33316519546027734, 0.1986610878661088, 0.46235565819861435, 0.32402622445044355, 0.16734693877551018, 0.37892473118279574, 0.2733483146067416, 0.15059949058830838, 0.29803063457330414, 0.17716283134284883, 0.596694214876033, 0.2894316580554251, 0.48235294117647065, 0.23246376811594205, 0.28078541374474053, 0.08759515696367723, 0.14319526627218934, 0.15855764347384457, 0.48235294117647065, 0.137984496124031, 0.9111111111111114, 0.11124807395993837, 0.23503649635036497, 0.07072747356793435, 0.11172413793103447, 0.056025437201907786, 0.05526057030481808, 0.2272469252601703, 0.024924012158054714, 0.08591800356506238, 0.1215782379610342, 0.22221939100522362, 0.041447651874192165, 0.08196377001837754, 0.13169129720853856, 0.25957957957957956, 0.0015503875968992252, 0.11640058055152393, 0.2548130277442702, 0.2570311889314469, 0.1112232030264817, 0.19196652719665272, 0.2591224018475751, 0.3178557655225608, 0.33061224489795915, 0.13806451612903228, 0.2733483146067416, 0.24154811455550723, 0.2105032822757112, 0.20978735799592194, 0.13388429752066114, 0.28191639267261626, 0.48235294117647065, 0.2788405797101449, 0.32566619915848527, 0.19605597041977813, 0.19053254437869824, 0.182935500253936, 0.48235294117647065, 0.2275624461670973, 0.022222222222222233, 0.07426810477657936, 0.4102189781021898, 0.15531008363578983, 0.27724137931034487, 0.09672496025437202, 0.0001966568338249754, 0.04560075685903501, 0.0006079027355623102, 0.014616755793226377, 0.0460972919985296, 0.13150719836921904, 0.020766910814304186, 0.056760304541874515, 0.039737274220032835, 0.10582582582582581, 0.0015503875968992252, 0.03512336719883889, 0.12357056694813029, 0.22701477370436957, 0.10113493064312735, 0.11163179916317992, 0.0558891454965358, 0.19136135750096414, 0.004081632653061225, 0.17247311827956993, 0.25896629213483147, 0.3036714915822824, 0.07045951859956238, 0.17483250801048647, 0.0677685950413223, 0.24434006575857212, 0.011764705882352944, 0.11652173913043479, 0.26956521739130435, 0.3219169143768578, 0.09585798816568047, 0.1707465718638903, 0.011764705882352944, 0.12420327304048233, 0.022222222222222233, 0.07426810477657936, 0.17664233576642335, 0.25125453684708854, 0.11172413793103447, 0.10435612082670906, 0.0001966568338249754, 0.007757805108798485, 0.0006079027355623102, 0.00035650623885917997, 0.0068864109790466865, 0.05608357752579947, 8.616975441619993e-05, 0.02945655027566291, 0.01346469622331691, 0.06258258258258258, 0.0015503875968992252, 0.0467343976777939, 0.05215922798552473, 0.1544751035722661, 0.04060529634300126, 0.10493723849372384, 0.0558891454965358, 0.09263401465483995, 0.004081632653061225, 0.13806451612903228, 0.0971685393258427, 0.2634155432689321, 0.10547045951859958, 0.2540635013108069, 0.001652892561983471, 0.18046031000469703, 0.011764705882352944, 0.3020289855072464, 0.10126227208976157, 0.38397737983034874, 0.2378698224852071, 0.39827323514474355, 0.011764705882352944, 0.489405684754522, 0.022222222222222233, 0.6906009244992296, 0.17664233576642335, 0.5176266372100362, 0.38758620689655177, 0.7097615262321144 ;
}
probability ( review_comment_num | accept_num, review_num ) {
    table 0.6585677749360613, 0.00015688735487919673, 0.6694495980210265, 0.0023776223776223776, 0.696319018404908, 0.037142857142857144, 0.6888544891640866, 0.2143091835058321, 0.9, 0.1410206084396467, 0.3414322250639386, 0.9998431126451208, 0.3305504019789734, 0.9976223776223776, 0.30368098159509205, 0.9628571428571429, 0.3111455108359133, 0.7856908164941679, 0.1, 0.8589793915603533 ;
}
probability ( review_num | change_num, pre_prs ) {
    table 0.2819857496902107, 0.31477348806070077, 0.26859861591695505, 0.07854406130268198, 0.045454545454545456, 0.2558165057067603, 0.3403475711892797, 0.37846627867168775, 0.09909228441754918, 0.019230769230769235, 0.44505494505494503, 0.2801799187463726, 0.34891942369263607, 0.1420132325141777, 0.00819672131147541, 0.5, 0.5, 0.2160381644706951, 0.03433844292053247, 0.0003620564808110065, 0.5, 0.5, 0.5, 0.0003422313483915126, 0.0008173750583839328, 0.7180142503097894, 0.6852265119392993, 0.731401384083045, 0.921455938697318, 0.9545454545454545, 0.7441834942932397, 0.6596524288107203, 0.6215337213283122, 0.9009077155824509, 0.9807692307692308, 0.554945054945055, 0.7198200812536274, 0.6510805763073639, 0.8579867674858223, 0.9918032786885246, 0.5, 0.5, 0.7839618355293049, 0.9656615570794675, 0.9996379435191889, 0.5, 0.5, 0.5, 0.9996577686516084, 0.9991826249416161 ;
}
probability ( title_words | body_words, has_labels ) {
    table 0.2690784982935154, 0.24110313562523614, 0.2343735866123926, 0.19689537410742006, 0.22658277624852538, 0.15097414098476797, 0.23521254145312032, 0.14780161800914526, 0.22599453385970242, 0.13853253345639133, 0.27044368600682595, 0.27208160181337365, 0.2750791497060154, 0.27575287177895064, 0.23759339362957138, 0.25724406659582005, 0.21591799819113658, 0.21252198381990856, 0.19016094746431828, 0.19575449930779878, 0.13802047781569965, 0.1489233094068757, 0.14663048394391678, 0.16398633964607265, 0.14636256390090444, 0.15239107332624865, 0.15441664154356347, 0.1534294759057334, 0.12213786820528393, 0.13391785879095522, 0.22266211604095562, 0.2562145825462788, 0.23889642695612848, 0.2645762185656628, 0.2777034998033818, 0.30825363088912505, 0.25330117576123007, 0.31734083714386213, 0.27033100516246583, 0.35173050299953856, 0.0997952218430034, 0.08167737060823574, 0.10502035278154681, 0.09878919590189382, 0.11175776641761698, 0.13113708820403824, 0.14115164305094965, 0.1689060851213507, 0.1913756453082296, 0.1800646054453161 ;
}
probability ( total_add_line | change_num, comment_num, review_comment_num ) {
    table 0.6165565830030822, 0.2999666777740753, 0.32867898699520876, 0.2433630450493857, 0.29257003654080393, 0.18937053645573823, 0.19356913183279742, 0.12218954987559377, 0.4253521126760564, 0.21363016810540664, 0.5516028955532576, 0.2916348490107602, 0.39047619047619053, 0.17716984845502853, 0.19102132435465768, 0.13572576325656133, 0.1944598337950138, 0.10979844342446618, 0.299009900990099, 0.18644833427442123, 0.5732681336593318, 0.26459550907413104, 0.3596587446678854, 0.2008926578888641, 0.2, 0.10569360203482686, 0.19233716475095786, 0.10069335719078507, 0.4253521126760564, 0.1764798118384947, 0.497107554057849, 0.2567414212375034, 0.2285551113649343, 0.1342744735015043, 0.14450610432852387, 0.10681421083284799, 0.1540229885057471, 0.07822790807865435, 0.181981981981982, 0.17550479973518707, 0.4555883593420497, 0.18351502260037225, 0.20832466181061396, 0.12826612153874742, 0.02312925170068027, 0.05199181231302157, 0.24938271604938272, 0.045001070434596446, 0.0064516129032258064, 0.0809888427040035, 0.2642888595332452, 0.2899700099966678, 0.3697467488021902, 0.20481811611659842, 0.3656516443361754, 0.16113602391629298, 0.41864951768488745, 0.15611852522053835, 0.0028169014084507044, 0.17273966378918673, 0.2792830058600483, 0.2708087469628601, 0.3202185792349727, 0.25589450895493016, 0.42671156004489347, 0.2017853954650955, 0.30526315789473674, 0.17565356216324085, 0.299009900990099, 0.16950875211744776, 0.27443629448519424, 0.24921562596124272, 0.32309567336989636, 0.22097746038830618, 0.32208657047724754, 0.18199960868714538, 0.3455938697318008, 0.1342428986803847, 0.28450704225352114, 0.1764798118384947, 0.3370401572591969, 0.22972169683869226, 0.3541976013706453, 0.24073131219625088, 0.32208657047724754, 0.170879440885265, 0.460536398467433, 0.13745557924662402, 0.181981981981982, 0.15895398874544855, 0.2742302825811893, 0.2047859611805371, 0.2603537981269511, 0.1189741683701914, 0.272562358276644, 0.08820658164068651, 0.0024691358024691358, 0.0385784628559195, 0.0064516129032258064, 0.05692408663312185, 0.08815499779832671, 0.2066644451849384, 0.17809719370294316, 0.21927246446639365, 0.2194884287454324, 0.2342135857830925, 0.19356913183279742, 0.22397647591042752, 0.28450704225352114, 0.15456610631531123, 0.10692864529472597, 0.19444637278722668, 0.18750975800156128, 0.20865971265498917, 0.17979797979797982, 0.22499553651133725, 0.38836565096952896, 0.20957892636200356, 0.299009900990099, 0.1582156973461321, 0.12230372181472428, 0.2522916025838204, 0.2255941499085923, 0.2633787101093506, 0.3331853496115427, 0.25047935824691847, 0.1157088122605364, 0.22370834265265038, 0.14366197183098592, 0.19999999999999998, 0.1264251614714968, 0.2540394487976223, 0.27995431182181607, 0.22453135848183292, 0.29988901220865705, 0.21941370607649, 0.2689655172413793, 0.20379057095475003, 0.5423423423423424, 0.15895398874544855, 0.18566005904681568, 0.2473278383408668, 0.2603537981269511, 0.1840178405500836, 0.36326530612244895, 0.15906156510785702, 0.24938271604938272, 0.12207236137871975, 0.32903225806451614, 0.10724130387223803, 0.01770145310435931, 0.13335554815061648, 0.10280629705681038, 0.21686340640809446, 0.09768574908647991, 0.2508221225710015, 0.16141479099678457, 0.26242931463469804, 0.14366197183098592, 0.236347114947751, 0.04488107549120993, 0.16320721971537663, 0.07041373926619829, 0.2244046447549695, 0.19102132435465768, 0.23927870023210143, 0.055955678670360096, 0.2754340451007783, 0.100990099009901, 0.2654997176736307, 0.02993751697908177, 0.14770839741617967, 0.07324801950030468, 0.21874581566614595, 0.06681465038845727, 0.24265310115437294, 0.3455938697318008, 0.2908074256318497, 0.14366197183098592, 0.2039200313602509, 0.03656276326874474, 0.16487435828154556, 0.11433466590519702, 0.24073131219625088, 0.14450610432852387, 0.299009900990099, 0.1157088122605364, 0.3222459132906894, 0.09189189189189191, 0.24832836809003642, 0.06756642766765077, 0.23403350172826376, 0.1562955254942768, 0.3419810444155362, 0.272562358276644, 0.3259644150527476, 0.12592592592592594, 0.3233140655105973, 0.32903225806451614, 0.2910085320498797, 0.013298106560986346, 0.0700433188937021, 0.020670773442847363, 0.11568296795952784, 0.024604141291108408, 0.16445773127387475, 0.03279742765273312, 0.23528613435874238, 0.14366197183098592, 0.2227169468423444, 0.017304377800758358, 0.07990281152377647, 0.03138173302107728, 0.13387128518008265, 0.011447811447811448, 0.19821460453490447, 0.055955678670360096, 0.22953502294951106, 0.0019801980198019802, 0.22032749858836814, 5.4333061668025e-05, 0.08618886496462627, 0.018403412553321143, 0.0960053559473332, 0.0779134295227525, 0.21917432987673646, 0.0007662835249042146, 0.2505479758443301, 0.0028169014084507044, 0.2431203449627597, 0.0028643639427127217, 0.0946230748446366, 0.02295830953740719, 0.1597315436241611, 0.08901220865704773, 0.20388274121529798, 0.0007662835249042146, 0.25828002842928216, 0.0018018018018018023, 0.25825885468387955, 0.01695487136229439, 0.13033767614996014, 0.11467221644120708, 0.22676082512544135, 0.06848072562358276, 0.3747756258856873, 0.3728395061728395, 0.471034039820167, 0.32903225806451614, 0.46383723474075694 ;
}
probability ( total_delete_line | file_changed_num, total_add_line ) {
    table 0.7323760138279485, 0.43985533453887893, 0.13699284009546536, 0.36289592760180994, 0.5906976744186047, 0.40566866267465074, 0.18189020939445388, 0.044841553490588514, 0.03353946889778102, 0.2932249322493225, 0.5490729295426452, 0.2694986605434367, 0.027746776986723107, 0.00422650321074139, 0.014267662263067204, 0.2, 0.2, 0.2, 0.2, 0.0013071895424836603, 0.1473474272038293, 0.3834358047016276, 0.6779634049323786, 0.09140271493212669, 0.21860465116279068, 0.23960079840319362, 0.31846821354461424, 0.375553967119371, 0.0786467806475082, 0.3040650406504065, 0.10902348578491966, 0.2878683505549177, 0.3163748316336348, 0.047659077641564504, 0.03494543365881677, 0.2, 0.2, 0.2, 0.2, 0.0013071895424836603, 0.05906129504055312, 0.1186980108499096, 0.10517104216388223, 0.5076923076923077, 0.0015503875968992248, 0.14858283433133732, 0.25055649877381625, 0.31837026447462474, 0.6766824299745363, 0.27154471544715447, 0.049690976514215085, 0.12101033295063146, 0.273273042139696, 0.5095388207822533, 0.09605973578403217, 0.2, 0.2, 0.2, 0.2, 0.0013071895424836603, 0.0170456056375482, 0.02466546112115733, 0.022434367541766104, 0.01900452488687783, 0.0015503875968992248, 0.05277445109780439, 0.12454253914355783, 0.13252323087919943, 0.117933794106948, 0.07642276422764227, 0.00024721878862793575, 0.05212399540757749, 0.12857417741004426, 0.17048453006421482, 0.7016886846639862, 0.2, 0.2, 0.2, 0.2, 0.0013071895424836603, 0.044169658290121, 0.03334538878842677, 0.05743834526650755, 0.01900452488687783, 0.18759689922480619, 0.15337325349301398, 0.12454253914355783, 0.12871098403621636, 0.09319752637322663, 0.054742547425474256, 0.2919653893695921, 0.2694986605434367, 0.25403117182990187, 0.2680910683012259, 0.15303848363009764, 0.2, 0.2, 0.2, 0.2, 0.9947712418300653 ;
}
probability ( workload | author_identity, change_num, label_count, pre_prs ) {
    table 0.0123842830693273, 0.18000666444518496, 0.00022197558268590456, 0.0008298755186721993, 0.0032786885245901635, 0.05556342247154295, 0.11450925513644171, 0.37490890161374285, 0.00027739251040221914, 0.0032786885245901635, 0.010691839902292562, 0.006260090620280195, 0.23332716163673395, 0.0001110494169905608, 0.2, 0.2820162323793251, 0.07700192184497116, 0.015921713832319495, 0.15390524967989758, 0.2, 0.14146817331924236, 0.015649004035932824, 0.07948350071736013, 0.276568592697625, 0.003278688524590163, 0.006192778520728321, 0.0266413784754449, 0.013650481024164838, 0.10419993057965983, 0.0016528925619834713, 0.00036968576709796677, 0.2058809115412889, 0.10180620696537274, 0.09724600786854894, 0.0032786885245901635, 0.00036968576709796677, 0.09600693287114193, 0.089518775840757, 0.09092411513565626, 0.000664451827242525, 0.2, 0.045132188948753295, 0.020838118639993592, 0.049737593223460094, 0.0006644518272425248, 0.2, 0.2, 0.030345872254481192, 0.10345620228224285, 0.18183194549583648, 0.2, 0.2, 0.07018809082935387, 0.1597454806847528, 0.1250156217454697, 0.2, 0.2, 0.07827851036081727, 0.031114238625210646, 0.03511182575646835, 0.2, 0.2, 0.2, 0.10005552470849527, 0.05001562337256536, 0.2, 0.2, 0.2, 0.09576316255982983, 0.13364953748591493, 0.2, 0.2, 0.2, 0.045768434811022767, 0.01753048077366584, 0.1282112639945304, 0.05053021376872581, 0.0016528925619834708, 0.2, 0.2, 0.15910639909125332, 0.05276073619631901, 0.0016528925619834708, 0.2, 0.2, 0.0008298755186721993, 0.0016528925619834708, 0.2, 0.2, 0.2, 0.1000208289939596, 0.05884329925780703, 0.017911335911930976, 0.2, 0.2, 0.05692026285482014, 0.12719830421752798, 4.272591326639607e-05, 0.2, 0.2, 0.05029326878316731, 0.1951239333604226, 0.000554016620498615, 0.2, 0.2, 0.2, 9.519276534983341e-05, 0.042894548916924555, 0.0008298755186721993, 0.2, 0.2, 3.830683777054204e-05, 0.2013887281564634, 0.08007994670219853, 0.2, 0.2, 2.8731504094239336e-05, 0.1359326969745996, 0.0001665278934221482, 0.0032786885245901635, 0.2, 0.2, 0.0417765440666204, 0.02865302237029986, 0.003278688524590163, 0.2, 0.2, 0.13891716797778805, 0.04765934937847131, 0.000554016620498615, 0.2, 0.2, 0.10719809637120763, 0.012697743092174647, 0.19999999999999998, 0.2, 0.2, 0.2, 0.2, 0.0016528925619834708, 0.2, 0.2, 0.2, 0.2, 0.11127541589648801, 0.2, 0.2, 0.2, 0.0008298755186721994, 0.0002773925104022192, 0.2, 0.3993355481727575, 0.2, 0.2, 0.2, 0.2, 0.00041580041580041577, 0.2, 0.2, 0.2, 0.2, 0.00010746910263299302, 6.664445184938355e-05, 0.0005540166204986151, 0.2, 0.2, 0.2, 0.2, 0.0008298755186721993, 0.2, 0.2, 0.2, 0.2, 0.000829875518672199, 0.49752066115702476, 0.2, 0.2, 0.2, 0.0006644518272425251, 0.2, 0.2, 0.2, 0.2, 0.2, 0.2, 0.2, 0.2, 0.2, 0.2, 0.2, 0.2, 0.2, 0.2, 0.2, 0.2, 0.2, 0.2, 0.2, 0.00041580041580041577, 0.0005540166204986149, 0.2, 0.2, 0.2, 0.06674069961132705, 0.1053461875547765, 0.2, 0.2, 0.2, 0.030388692579505303, 0.00015140045420136263, 0.2, 0.2, 0.2, 0.0032786885245901635, 0.09280192406802955, 0.2, 0.2, 0.2, 0.20000000000000007, 0.11894868218192498, 0.2, 0.2, 0.2, 0.0006644518272425248, 0.008806998680416402, 0.0016528925619834713, 0.21427721594289112, 0.2, 0.2, 0.2, 0.0008298755186721993, 0.04481472270579458, 0.0011049723756906076, 0.2, 0.2, 0.2, 0.0006644518272425248, 9.0049527239982e-05, 0.2, 0.2, 0.2, 0.2, 0.2, 0.2, 0.2, 0.2, 0.2, 0.2, 0.2, 0.2, 0.2, 0.2, 0.00033277870216306157, 0.00030257186081694405, 0.2, 0.2, 0.2, 0.2, 0.2, 0.2, 0.2, 0.2, 0.2, 0.2, 0.2, 0.2, 0.2, 0.2, 0.2, 0.2, 0.2, 0.2, 0.2, 0.2, 0.2, 0.2, 0.2, 0.2, 0.0032786885245901635, 0.2, 0.2, 0.2, 0.2, 0.0006644518272425251, 0.0032786885245901635, 0.2, 0.2, 0.2, 0.2, 0.2, 0.2, 0.2, 0.2, 0.2, 0.2, 0.2, 0.2, 0.2, 0.2, 0.0032786885245901635, 0.12347253651512036, 0.3199600133288904, 0.19999999999999998, 0.0008298755186721993, 0.0032786885245901635, 0.25816676651598497, 0.41220024171490366, 0.18750650702758978, 0.08349514563106797, 0.0032786885245901635, 0.05191216508485789, 0.009384927868340191, 0.2555452693945566, 0.2999444752915047, 0.2, 0.15386586928662965, 0.2691864189622037, 0.3015604337476858, 0.00025608194622279127, 0.2, 0.3707178278188765, 0.45309204530660074, 0.44368171283522795, 0.42545196738745134, 0.9868852459016391, 0.0185371875321469, 0.08717162342116944, 0.0454662525566245, 0.04172162443595974, 0.0016528925619834713, 0.44399260628465803, 0.27939230580740015, 0.20957988224728072, 0.24998842860448972, 0.0032786885245901635, 0.22218114602587805, 0.3039930671288581, 0.3733941434721453, 0.2975072304090346, 0.000664451827242525, 0.2, 0.10527502819195592, 0.056093587243930446, 0.044213240033146126, 0.0006644518272425248, 0.2, 0.2, 0.15152739207270893, 0.261078729168377, 0.27267221801665403, 0.2, 0.2, 0.3625572556281064, 0.3642128803812465, 0.38746094563632577, 0.2, 0.2, 0.10436168671207072, 0.05222495879705931, 0.04388247332261365, 0.2, 0.2, 0.2, 0.1333703498056635, 0.2624934902614311, 0.2, 0.2, 0.2, 0.37230987413579153, 0.36634784203768245, 0.2, 0.2, 0.2, 0.07844461387648405, 0.05074030227087529, 0.1641056319972652, 0.3838074398249453, 0.993388429752066, 0.2, 0.2, 0.11366906474820143, 0.5260297984224365, 0.993388429752066, 0.2, 0.2, 0.0008298755186721993, 0.993388429752066, 0.2, 0.2, 0.2, 0.16250781087273486, 0.1428651449376838, 0.24998512347515622, 0.2, 0.2, 0.16260415960978253, 0.35525180907828374, 0.38457594531083106, 0.2, 0.2, 0.0782236290848152, 0.17074360016253554, 0.16675900277008313, 0.2, 0.2, 0.2, 0.05721085197524989, 0.5427755296358011, 0.7477178423236515, 0.2, 0.2, 0.011530358168933155, 0.43052887397291983, 0.39986675549633577, 0.2, 0.2, 0.00864818273236604, 0.03886102572399288, 0.05012489592006661, 0.0032786885245901635, 0.2, 0.2, 0.12505204718945176, 0.3142313184198001, 0.9868852459016391, 0.2, 0.2, 0.33327163350300787, 0.25395398042845807, 0.4991689750692521, 0.2, 0.2, 0.00011897679952409281, 0.10128664838641638, 0.0006644518272425248, 0.2, 0.2, 0.2, 0.2, 0.49752066115702476, 0.2, 0.2, 0.2, 0.2, 0.5548983364140481, 0.2, 0.2, 0.2, 0.0008298755186721994, 0.0002773925104022192, 0.2, 0.000664451827242525, 0.2, 0.2, 0.2, 0.2, 0.24989604989604988, 0.2, 0.2, 0.2, 0.2, 0.0968296614723267, 6.664445184938355e-05, 0.0005540166204986151, 0.2, 0.2, 0.2, 0.2, 0.0008298755186721993, 0.2, 0.2, 0.2, 0.2, 0.000829875518672199, 0.0016528925619834708, 0.2, 0.2, 0.2, 0.0006644518272425251, 0.2, 0.2, 0.2, 0.2, 0.2, 0.2, 0.2, 0.2, 0.2, 0.2, 0.2, 0.2, 0.2, 0.2, 0.2, 0.2, 0.2, 0.2, 0.2, 0.24989604989604988, 0.33296398891966755, 0.2, 0.2, 0.2, 0.23331482509716822, 0.4734443470639789, 0.2, 0.2, 0.2, 0.030388692579505303, 0.04557153671461015, 0.2, 0.2, 0.2, 0.0032786885245901635, 0.2267995189829926, 0.2, 0.2, 0.2, 0.5986710963455151, 0.4096762352250202, 0.2, 0.2, 0.2, 0.0006644518272425248, 0.061590342603000836, 0.0016528925619834713, 0.24997025580011897, 0.2, 0.2, 0.2, 0.4987551867219917, 0.25371798060184036, 0.33259668508287293, 0.2, 0.2, 0.2, 0.3993355481727574, 0.08113462404322377, 0.2, 0.2, 0.2, 0.2, 0.2, 0.2, 0.2, 0.2, 0.2, 0.2, 0.2, 0.2, 0.2, 0.2, 0.00033277870216306157, 0.00030257186081694405, 0.2, 0.2, 0.2, 0.2, 0.2, 0.2, 0.2, 0.2, 0.2, 0.2, 0.2, 0.2, 0.2, 0.2, 0.2, 0.2, 0.2, 0.2, 0.2, 0.2, 0.2, 0.2, 0.2, 0.2, 0.0032786885245901635, 0.2, 0.2, 0.2, 0.2, 0.0006644518272425251, 0.0032786885245901635, 0.2, 0.2, 0.2, 0.2, 0.2, 0.2, 0.2, 0.2, 0.2, 0.2, 0.2, 0.2, 0.2, 0.2, 0.0032786885245901635, 0.24690392923266818, 0.3199600133288904, 0.13340732519422863, 0.24979253112033198, 0.9868852459016393, 0.24182778715756223, 0.25190509509573183, 0.09380530973451327, 0.41636615811373084, 0.0032786885245901635, 0.39541487493956895, 0.06563199833342014, 0.1000185150897982, 0.10005552470849527, 0.2, 0.256386159760786, 0.07700192184497116, 0.22221634488230627, 0.15390524967989758, 0.2, 0.2487765222339647, 0.14844421299309987, 0.23178457123937757, 0.14895427153491672, 0.003278688524590163, 0.01236498302643761, 0.31234413461926475, 0.3045375350352246, 0.16667823672335996, 0.0016528925619834713, 0.00036968576709796677, 0.24998774810095567, 0.24550444067458338, 0.11113168248090721, 0.0032786885245901635, 0.22218114602587805, 0.29599360042663825, 0.21483312731767615, 0.2727172565762292, 0.598671096345515, 0.2, 0.24059641648916177, 0.2804465692689832, 0.23204124850382102, 0.5986710963455149, 0.2, 0.2, 0.16667508204998738, 0.261078729168377, 0.22725208175624526, 0.2, 0.2, 0.2105252899327551, 0.2156545352892628, 0.2249947927515101, 0.2, 0.2, 0.2608607448195914, 0.2644432510509065, 0.2631486624762462, 0.2, 0.2, 0.2, 0.2666296501943365, 0.16875325486928447, 0.2, 0.2, 0.2, 0.23403651834781072, 0.22326983045517676, 0.2, 0.2, 0.2, 0.30717786733471303, 0.2629141618363801, 0.14359456456713102, 0.37370812994445385, 0.0016528925619834708, 0.2, 0.2, 0.13638773191972736, 0.31568799298860645, 0.0016528925619834708, 0.2, 0.2, 0.7477178423236515, 0.0016528925619834708, 0.2, 0.2, 0.2, 0.23749218912726516, 0.2100826214815852, 0.33924427253793515, 0.2, 0.2, 0.21951087324706997, 0.20613990205394342, 0.14103823969237345, 0.2, 0.2, 0.32959687179964625, 0.21950426655830965, 0.4991689750692521, 0.2, 0.2, 0.2, 0.19999999999999998, 0.185717686265175, 0.0008298755186721993, 0.2, 0.2, 0.2183872821298602, 0.19444508737414654, 0.12005329780146567, 0.2, 0.2, 0.12932049992817124, 0.3786118751011163, 0.5996669442131557, 0.0032786885245901635, 0.2, 0.2, 0.16668979875086742, 0.3142313184198001, 0.003278688524590163, 0.2, 0.2, 0.27774178621008794, 0.23808516265538218, 0.16675900277008313, 0.2, 0.2, 0.24997025580011897, 0.25315334317654503, 0.19999999999999998, 0.2, 0.2, 0.2, 0.2, 0.0016528925619834708, 0.2, 0.2, 0.2, 0.2, 0.00036968576709796677, 0.2, 0.2, 0.2, 0.9966804979253113, 0.41636615811373096, 0.2, 0.000664451827242525, 0.2, 0.2, 0.2, 0.2, 0.7488565488565487, 0.2, 0.2, 0.2, 0.2, 0.4837184309511015, 6.664445184938355e-05, 0.0005540166204986151, 0.2, 0.2, 0.2, 0.2, 0.0008298755186721993, 0.2, 0.2, 0.2, 0.2, 0.24979253112033192, 0.0016528925619834708, 0.2, 0.2, 0.2, 0.0006644518272425251, 0.2, 0.2, 0.2, 0.2, 0.2, 0.2, 0.2, 0.2, 0.2, 0.2, 0.2, 0.2, 0.2, 0.2, 0.2, 0.2, 0.2, 0.2, 0.2, 0.24989604989604988, 0.33296398891966755, 0.2, 0.2, 0.2, 0.1333703498056635, 0.21051709027169144, 0.2, 0.2, 0.2, 0.2424028268551237, 0.27267221801665403, 0.2, 0.2, 0.2, 0.9868852459016393, 0.2267995189829926, 0.2, 0.2, 0.2, 0.20000000000000007, 0.268717421628368, 0.2, 0.2, 0.2, 0.5986710963455149, 0.2844533502761351, 0.0016528925619834713, 0.1785841760856633, 0.2, 0.2, 0.2, 0.0008298755186721993, 0.13434469037552849, 0.6640883977900552, 0.2, 0.2, 0.2, 0.19999999999999998, 0.5674020711391266, 0.2, 0.2, 0.2, 0.2, 0.2, 0.2, 0.2, 0.2, 0.2, 0.2, 0.2, 0.2, 0.2, 0.2, 0.8988352745424293, 0.6357034795763994, 0.2, 0.2, 0.2, 0.2, 0.2, 0.2, 0.2, 0.2, 0.2, 0.2, 0.2, 0.2, 0.2, 0.2, 0.2, 0.2, 0.2, 0.2, 0.2, 0.2, 0.2, 0.2, 0.2, 0.2, 0.0032786885245901635, 0.2, 0.2, 0.2, 0.2, 0.0006644518272425251, 0.0032786885245901635, 0.2, 0.2, 0.2, 0.2, 0.2, 0.2, 0.2, 0.2, 0.2, 0.2, 0.2, 0.2, 0.2, 0.2, 0.0032786885245901635, 0.3826784612219708, 0.1600133288903699, 0.5329633740288569, 0.7477178423236515, 0.0032786885245901635, 0.3725396220249442, 0.18702372622606706, 0.2187402394586153, 0.24993065187239943, 0.9868852459016393, 0.42136841301748046, 0.3343680016665799, 0.022255137937418998, 0.19999999999999998, 0.2, 0.20512601452370782, 0.3844971172325432, 0.3491668870669135, 0.6148527528809219, 0.2, 0.18536704332981058, 0.28905090483010026, 0.10597064341684143, 0.04260900389932649, 0.003278688524590163, 0.06791482357782122, 0.24939267987571123, 0.18181955912430875, 0.16667823672335996, 0.49752066115702487, 0.5548983364140481, 0.24998774810095567, 0.3173535575291887, 0.40273084934043046, 0.0032786885245901635, 0.44399260628465803, 0.2479968002133191, 0.2583095349729338, 0.25619060735435895, 0.3993355481727575, 0.2, 0.2105249968675605, 0.17628268475735157, 0.16022465702973945, 0.19999999999999998, 0.2, 0.2, 0.3787427417318859, 0.28078154502914376, 0.27267221801665403, 0.2, 0.2, 0.27484650618848067, 0.19169351188732994, 0.23749218912726516, 0.2, 0.2, 0.13044486306332417, 0.22666617284865095, 0.14913024411635725, 0.2, 0.2, 0.2, 0.33325930038867296, 0.34373502760129154, 0.2, 0.2, 0.2, 0.20212728239673822, 0.2091192578810828, 0.2, 0.2, 0.2, 0.18954362269905242, 0.2158669147153334, 0.4768994103068114, 0.19192055209560682, 0.0016528925619834708, 0.2, 0.2, 0.43173040514956457, 0.1053461875547765, 0.0016528925619834708, 0.2, 0.2, 0.24979253112033198, 0.0016528925619834708, 0.2, 0.2, 0.2, 0.3374713601333056, 0.4789525276571909, 0.2856887831002678, 0.2, 0.2, 0.4918501456540885, 0.2675389225933777, 0.3717581713309122, 0.2, 0.2, 0.3966297365236012, 0.2438845997561967, 0.3329639889196676, 0.2, 0.2, 0.2, 0.48557829604950026, 0.22856462746965014, 0.24979253112033198, 0.2, 0.2, 0.4712124114154376, 0.15278324268024537, 0.39986675549633577, 0.2, 0.2, 0.04312598764545324, 0.10681119559941758, 0.34987510407993333, 0.9868852459016393, 0.2, 0.2, 0.4997918112421929, 0.2571156592099001, 0.003278688524590163, 0.2, 0.2, 0.24997686256362797, 0.3332980692938376, 0.3329639889196676, 0.2, 0.2, 0.10719809637120763, 0.22784222737819027, 0.19999999999999998, 0.2, 0.2, 0.2, 0.2, 0.49752066115702476, 0.2, 0.2, 0.2, 0.2, 0.33308687615526805, 0.2, 0.2, 0.2, 0.0008298755186721994, 0.24993065187239946, 0.2, 0.598671096345515, 0.2, 0.2, 0.2, 0.2, 0.00041580041580041577, 0.2, 0.2, 0.2, 0.2, 0.4192369693713057, 0.7598133955348216, 0.9977839335180057, 0.2, 0.2, 0.2, 0.2, 0.7477178423236515, 0.2, 0.2, 0.2, 0.2, 0.4987551867219916, 0.0016528925619834708, 0.2, 0.2, 0.2, 0.99734219269103, 0.2, 0.2, 0.2, 0.2, 0.2, 0.2, 0.2, 0.2, 0.2, 0.2, 0.2, 0.2, 0.2, 0.2, 0.2, 0.2, 0.2, 0.2, 0.2, 0.3746361746361746, 0.1667590027700831, 0.2, 0.2, 0.2, 0.4332037756801777, 0.157931638913234, 0.2, 0.2, 0.2, 0.2424028268551237, 0.27267221801665403, 0.2, 0.2, 0.2, 0.0032786885245901635, 0.35048960659680467, 0.2, 0.2, 0.2, 0.0006644518272425251, 0.1365685338815065, 0.2, 0.2, 0.2, 0.19999999999999998, 0.1759542544352671, 0.9933884297520662, 0.24997025580011897, 0.2, 0.2, 0.2, 0.4987551867219917, 0.3134046257149963, 0.0011049723756906076, 0.2, 0.2, 0.2, 0.19999999999999998, 0.3512832057631698, 0.2, 0.2, 0.2, 0.2, 0.2, 0.2, 0.2, 0.2, 0.2, 0.2, 0.2, 0.2, 0.2, 0.2, 0.10016638935108153, 0.36338880484114977, 0.2, 0.2, 0.2, 0.2, 0.2, 0.2, 0.2, 0.2, 0.2, 0.2, 0.2, 0.2, 0.2, 0.2, 0.2, 0.2, 0.2, 0.2, 0.2, 0.2, 0.2, 0.2, 0.2, 0.2, 0.9868852459016393, 0.2, 0.2, 0.2, 0.2, 0.7980066445182725, 0.0032786885245901635, 0.2, 0.2, 0.2, 0.2, 0.2, 0.2, 0.2, 0.2, 0.2, 0.2, 0.2, 0.2, 0.2, 0.2, 0.0032786885245901635, 0.2345607899609134, 0.02005998000666445, 0.13340732519422863, 0.0008298755186721993, 0.0032786885245901635, 0.0719024018299657, 0.034361681826855804, 0.12503904216553877, 0.24993065187239943, 0.0032786885245901635, 0.1206127070558001, 0.5843549815113797, 0.38885391594149227, 0.39988895058300944, 0.2, 0.10260572404955147, 0.19231262011531067, 0.11113462047077492, 0.07708066581306018, 0.2, 0.05367043329810585, 0.09376383283426638, 0.13907957179119304, 0.10641616448068061, 0.003278688524590163, 0.894990227342866, 0.32445018360840966, 0.45452617225967734, 0.5207219715376605, 0.49752066115702487, 0.00036968576709796677, 0.014751286449399659, 0.12575591258357452, 0.1389030317056237, 0.9868852459016393, 0.11127541589648801, 0.05600959936004267, 0.06394441839648779, 0.08266079052472113, 0.000664451827242525, 0.2, 0.3984713695025686, 0.4663390400897412, 0.5137832612098334, 0.19999999999999998, 0.2, 0.2, 0.27270891189093666, 0.09360479435185946, 0.04557153671461015, 0.2, 0.2, 0.08188285742130398, 0.06869359175740794, 0.025036450739429287, 0.2, 0.2, 0.42605419504419645, 0.4255513786781726, 0.5087267943283146, 0.2, 0.2, 0.2, 0.16668517490283175, 0.17500260389542757, 0.2, 0.2, 0.2, 0.09576316255982983, 0.06761353214014308, 0.2, 0.2, 0.2, 0.3790654612787278, 0.4529481404037453, 0.08718912913426204, 3.366436626830501e-05, 0.0016528925619834708, 0.2, 0.2, 0.15910639909125332, 0.00017528483786152498, 0.0016528925619834708, 0.2, 0.2, 0.0008298755186721993, 0.0016528925619834708, 0.2, 0.2, 0.2, 0.16250781087273486, 0.1092564066657331, 0.1071704849747099, 0.2, 0.2, 0.06911455863423888, 0.043871062056867194, 0.10258491775261697, 0.2, 0.2, 0.14525649380877015, 0.17074360016253554, 0.000554016620498615, 0.2, 0.2, 0.2, 0.2571156592099001, 4.760771244941682e-05, 0.0008298755186721993, 0.2, 0.2, 0.29883164144799845, 0.020854067816224977, 0.00013324450366422385, 0.2, 0.2, 0.8188765981899152, 0.33978320660087363, 0.0001665278934221482, 0.0032786885245901635, 0.2, 0.2, 0.16668979875086742, 0.08576868158019992, 0.003278688524590163, 0.2, 0.2, 9.254974548819991e-05, 0.12700343824385085, 0.000554016620498615, 0.2, 0.2, 0.5355145746579417, 0.4050200379666737, 0.3993355481727574, 0.2, 0.2, 0.2, 0.2, 0.0016528925619834708, 0.2, 0.2, 0.2, 0.2, 0.00036968576709796677, 0.2, 0.2, 0.2, 0.0008298755186721994, 0.3331484049930652, 0.2, 0.000664451827242525, 0.2, 0.2, 0.2, 0.2, 0.00041580041580041577, 0.2, 0.2, 0.2, 0.2, 0.00010746910263299302, 0.23998667110963015, 0.0005540166204986151, 0.2, 0.2, 0.2, 0.2, 0.24979253112033198, 0.2, 0.2, 0.2, 0.2, 0.24979253112033192, 0.49752066115702476, 0.2, 0.2, 0.2, 0.0006644518272425251, 0.2, 0.2, 0.2, 0.2, 0.2, 0.2, 0.2, 0.2, 0.2, 0.2, 0.2, 0.2, 0.2, 0.2, 0.2, 0.2, 0.2, 0.2, 0.2, 0.12515592515592516, 0.1667590027700831, 0.2, 0.2, 0.2, 0.1333703498056635, 0.05276073619631901, 0.2, 0.2, 0.2, 0.4544169611307421, 0.40893262679788045, 0.2, 0.2, 0.2, 0.0032786885245901635, 0.10310943136918056, 0.2, 0.2, 0.2, 0.0006644518272425251, 0.06608912708318039, 0.2, 0.2, 0.2, 0.19999999999999998, 0.4691950540051806, 0.0016528925619834713, 0.10719809637120763, 0.2, 0.2, 0.2, 0.0008298755186721993, 0.25371798060184036, 0.0011049723756906076, 0.2, 0.2, 0.2, 0.19999999999999998, 9.0049527239982e-05, 0.2, 0.2, 0.2, 0.2, 0.2, 0.2, 0.2, 0.2, 0.2, 0.2, 0.2, 0.2, 0.2, 0.2, 0.00033277870216306157, 0.00030257186081694405, 0.2, 0.2, 0.2, 0.2, 0.2, 0.2, 0.2, 0.2, 0.2, 0.2, 0.2, 0.2, 0.2, 0.2, 0.2, 0.2, 0.2, 0.2, 0.2, 0.2, 0.2, 0.2, 0.2, 0.2, 0.0032786885245901635, 0.2, 0.2, 0.2, 0.2, 0.20000000000000007, 0.9868852459016393, 0.2, 0.2, 0.2, 0.2, 0.2, 0.2, 0.2, 0.2, 0.2, 0.2, 0.2, 0.2, 0.2, 0.2, 0.9868852459016393 ;
}
