## MART
## No. of trees = 1000
## No. of leaves = 10
## No. of threshold candidates = 256
## Learning rate = 0.1
## Stop early = 100

<ensemble>
	<tree id="1" weight="0.1">
		<split>
			<feature> 10 </feature>
			<threshold> 0.021978023 </threshold>
			<split pos="left">
				<feature> 40 </feature>
				<threshold> 0.35344502 </threshold>
				<split pos="left">
					<feature> 10 </feature>
					<threshold> 0.0 </threshold>
					<split pos="left">
						<output> 3.4370901584625244 </output>
					</split>
					<split pos="right">
						<feature> 23 </feature>
						<threshold> 0.09090909 </threshold>
						<split pos="left">
							<output> 3.0774264335632324 </output>
						</split>
						<split pos="right">
							<output> 2.603015184402466 </output>
						</split>
					</split>
				</split>
				<split pos="right">
					<feature> 23 </feature>
					<threshold> 0.0 </threshold>
					<split pos="left">
						<feature> 32 </feature>
						<threshold> 0.5364861 </threshold>
						<split pos="left">
							<feature> 25 </feature>
							<threshold> 0.0 </threshold>
							<split pos="left">
								<output> 2.9985129833221436 </output>
							</split>
							<split pos="right">
								<output> 2.4143993854522705 </output>
							</split>
						</split>
						<split pos="right">
							<output> 1.752293586730957 </output>
						</split>
					</split>
					<split pos="right">
						<feature> 11 </feature>
						<threshold> 0.0 </threshold>
						<split pos="left">
							<output> 1.8567183017730713 </output>
						</split>
						<split pos="right">
							<output> 1.054651141166687 </output>
						</split>
					</split>
				</split>
			</split>
			<split pos="right">
				<feature> 43 </feature>
				<threshold> 0.14804941 </threshold>
				<split pos="left">
					<output> 1.924189805984497 </output>
				</split>
				<split pos="right">
					<output> 0.7679106593132019 </output>
				</split>
			</split>
		</split>
	</tree>
	<tree id="2" weight="0.1">
		<split>
			<feature> 10 </feature>
			<threshold> 0.021978023 </threshold>
			<split pos="left">
				<feature> 40 </feature>
				<threshold> 0.35344502 </threshold>
				<split pos="left">
					<feature> 10 </feature>
					<threshold> 0.0 </threshold>
					<split pos="left">
						<output> 3.0933454036712646 </output>
					</split>
					<split pos="right">
						<output> 2.7065482139587402 </output>
					</split>
				</split>
				<split pos="right">
					<feature> 23 </feature>
					<threshold> 0.0 </threshold>
					<split pos="left">
						<feature> 43 </feature>
						<threshold> 0.18281841 </threshold>
						<split pos="left">
							<feature> 25 </feature>
							<threshold> 0.0 </threshold>
							<split pos="left">
								<output> 2.693260431289673 </output>
							</split>
							<split pos="right">
								<output> 2.2088427543640137 </output>
							</split>
						</split>
						<split pos="right">
							<output> 1.721447467803955 </output>
						</split>
					</split>
					<split pos="right">
						<feature> 43 </feature>
						<threshold> 0.22543848 </threshold>
						<split pos="left">
							<feature> 23 </feature>
							<threshold> 0.09090909 </threshold>
							<split pos="left">
								<output> 1.7428807020187378 </output>
							</split>
							<split pos="right">
								<output> 1.1608220338821411 </output>
							</split>
						</split>
						<split pos="right">
							<output> 0.7207709550857544 </output>
						</split>
					</split>
				</split>
			</split>
			<split pos="right">
				<feature> 38 </feature>
				<threshold> 0.21732867 </threshold>
				<split pos="left">
					<output> 1.8702728748321533 </output>
				</split>
				<split pos="right">
					<output> 0.7889513969421387 </output>
				</split>
			</split>
		</split>
	</tree>
	<tree id="3" weight="0.1">
		<split>
			<feature> 38 </feature>
			<threshold> 0.2134478 </threshold>
			<split pos="left">
				<feature> 10 </feature>
				<threshold> 0.032967035 </threshold>
				<split pos="left">
					<feature> 10 </feature>
					<threshold> 0.010989011 </threshold>
					<split pos="left">
						<output> 2.699323892593384 </output>
					</split>
					<split pos="right">
						<output> 2.265974283218384 </output>
					</split>
				</split>
				<split pos="right">
					<output> 1.5667386054992676 </output>
				</split>
			</split>
			<split pos="right">
				<feature> 10 </feature>
				<threshold> 0.010989011 </threshold>
				<split pos="left">
					<feature> 33 </feature>
					<threshold> 0.48059824 </threshold>
					<split pos="left">
						<feature> 25 </feature>
						<threshold> 0.0 </threshold>
						<split pos="left">
							<output> 2.419280767440796 </output>
						</split>
						<split pos="right">
							<feature> 7 </feature>
							<threshold> 0.0234375 </threshold>
							<split pos="left">
								<feature> 11 </feature>
								<threshold> 0.0 </threshold>
								<split pos="left">
									<output> 1.7589644193649292 </output>
								</split>
								<split pos="right">
									<output> 0.8749119639396667 </output>
								</split>
							</split>
							<split pos="right">
								<output> 2.0702383518218994 </output>
							</split>
						</split>
					</split>
					<split pos="right">
						<output> 1.2793443202972412 </output>
					</split>
				</split>
				<split pos="right">
					<feature> 44 </feature>
					<threshold> 0.27282774 </threshold>
					<split pos="left">
						<output> 1.2281341552734375 </output>
					</split>
					<split pos="right">
						<output> 0.5889051556587219 </output>
					</split>
				</split>
			</split>
		</split>
	</tree>
	<tree id="4" weight="0.1">
		<split>
			<feature> 10 </feature>
			<threshold> 0.021978023 </threshold>
			<split pos="left">
				<feature> 40 </feature>
				<threshold> 0.35344502 </threshold>
				<split pos="left">
					<feature> 1 </feature>
					<threshold> 0.0 </threshold>
					<split pos="left">
						<output> 2.1666181087493896 </output>
					</split>
					<split pos="right">
						<output> 2.5086095333099365 </output>
					</split>
				</split>
				<split pos="right">
					<feature> 23 </feature>
					<threshold> 0.0 </threshold>
					<split pos="left">
						<feature> 33 </feature>
						<threshold> 0.48339242 </threshold>
						<split pos="left">
							<feature> 25 </feature>
							<threshold> 0.0 </threshold>
							<split pos="left">
								<output> 2.19320011138916 </output>
							</split>
							<split pos="right">
								<output> 1.7649848461151123 </output>
							</split>
						</split>
						<split pos="right">
							<output> 1.2720732688903809 </output>
						</split>
					</split>
					<split pos="right">
						<feature> 43 </feature>
						<threshold> 0.22543848 </threshold>
						<split pos="left">
							<output> 1.3406637907028198 </output>
						</split>
						<split pos="right">
							<output> 0.544546365737915 </output>
						</split>
					</split>
				</split>
			</split>
			<split pos="right">
				<feature> 39 </feature>
				<threshold> 0.2944999 </threshold>
				<split pos="left">
					<feature> 10 </feature>
					<threshold> 0.07692308 </threshold>
					<split pos="left">
						<output> 1.538368582725525 </output>
					</split>
					<split pos="right">
						<output> 0.6183342933654785 </output>
					</split>
				</split>
				<split pos="right">
					<output> 0.4459190368652344 </output>
				</split>
			</split>
		</split>
	</tree>
	<tree id="5" weight="0.1">
		<split>
			<feature> 38 </feature>
			<threshold> 0.2134478 </threshold>
			<split pos="left">
				<feature> 10 </feature>
				<threshold> 0.043956045 </threshold>
				<split pos="left">
					<feature> 7 </feature>
					<threshold> 0.00390625 </threshold>
					<split pos="left">
						<output> 1.7960933446884155 </output>
					</split>
					<split pos="right">
						<output> 2.203275680541992 </output>
					</split>
				</split>
				<split pos="right">
					<output> 1.1162583827972412 </output>
				</split>
			</split>
			<split pos="right">
				<feature> 10 </feature>
				<threshold> 0.010989011 </threshold>
				<split pos="left">
					<feature> 32 </feature>
					<threshold> 0.5364861 </threshold>
					<split pos="left">
						<feature> 25 </feature>
						<threshold> 0.0 </threshold>
						<split pos="left">
							<output> 1.9724382162094116 </output>
						</split>
						<split pos="right">
							<feature> 11 </feature>
							<threshold> 0.0 </threshold>
							<split pos="left">
								<feature> 9 </feature>
								<threshold> 0.0 </threshold>
								<split pos="left">
									<output> 1.0015745162963867 </output>
								</split>
								<split pos="right">
									<output> 1.5920900106430054 </output>
								</split>
							</split>
							<split pos="right">
								<output> 0.7586432099342346 </output>
							</split>
						</split>
					</split>
					<split pos="right">
						<output> 1.0348461866378784 </output>
					</split>
				</split>
				<split pos="right">
					<feature> 10 </feature>
					<threshold> 0.054945055 </threshold>
					<split pos="left">
						<output> 0.8991241455078125 </output>
					</split>
					<split pos="right">
						<output> 0.25029614567756653 </output>
					</split>
				</split>
			</split>
		</split>
	</tree>
	<tree id="6" weight="0.1">
		<split>
			<feature> 40 </feature>
			<threshold> 0.4839972 </threshold>
			<split pos="left">
				<feature> 10 </feature>
				<threshold> 0.032967035 </threshold>
				<split pos="left">
					<feature> 7 </feature>
					<threshold> 0.00390625 </threshold>
					<split pos="left">
						<output> 1.538167119026184 </output>
					</split>
					<split pos="right">
						<feature> 38 </feature>
						<threshold> 0.2134478 </threshold>
						<split pos="left">
							<output> 1.9941909313201904 </output>
						</split>
						<split pos="right">
							<output> 1.6823930740356445 </output>
						</split>
					</split>
				</split>
				<split pos="right">
					<output> 0.9987561702728271 </output>
				</split>
			</split>
			<split pos="right">
				<feature> 10 </feature>
				<threshold> 0.010989011 </threshold>
				<split pos="left">
					<feature> 11 </feature>
					<threshold> 0.0 </threshold>
					<split pos="left">
						<feature> 25 </feature>
						<threshold> 0.0 </threshold>
						<split pos="left">
							<output> 1.7601420879364014 </output>
						</split>
						<split pos="right">
							<feature> 31 </feature>
							<threshold> 0.3822934 </threshold>
							<split pos="left">
								<feature> 9 </feature>
								<threshold> 0.0 </threshold>
								<split pos="left">
									<output> 0.7282642722129822 </output>
								</split>
								<split pos="right">
									<output> 1.3759262561798096 </output>
								</split>
							</split>
							<split pos="right">
								<output> 0.9483059048652649 </output>
							</split>
						</split>
					</split>
					<split pos="right">
						<output> 0.46776628494262695 </output>
					</split>
				</split>
				<split pos="right">
					<output> 0.517914891242981 </output>
				</split>
			</split>
		</split>
	</tree>
	<tree id="7" weight="0.1">
		<split>
			<feature> 10 </feature>
			<threshold> 0.021978023 </threshold>
			<split pos="left">
				<feature> 40 </feature>
				<threshold> 0.480813 </threshold>
				<split pos="left">
					<feature> 25 </feature>
					<threshold> 0.0 </threshold>
					<split pos="left">
						<output> 1.8384417295455933 </output>
					</split>
					<split pos="right">
						<feature> 17 </feature>
						<threshold> 0.0049668876 </threshold>
						<split pos="left">
							<output> 1.8296804428100586 </output>
						</split>
						<split pos="right">
							<output> 1.434330701828003 </output>
						</split>
					</split>
				</split>
				<split pos="right">
					<feature> 10 </feature>
					<threshold> 0.0 </threshold>
					<split pos="left">
						<feature> 7 </feature>
						<threshold> 0.02734375 </threshold>
						<split pos="left">
							<output> 1.1075446605682373 </output>
						</split>
						<split pos="right">
							<output> 1.4397122859954834 </output>
						</split>
					</split>
					<split pos="right">
						<feature> 11 </feature>
						<threshold> 0.0034364262 </threshold>
						<split pos="left">
							<feature> 32 </feature>
							<threshold> 0.60882133 </threshold>
							<split pos="left">
								<output> 0.9832130670547485 </output>
							</split>
							<split pos="right">
								<output> 0.3946925401687622 </output>
							</split>
						</split>
						<split pos="right">
							<output> 0.19411823153495789 </output>
						</split>
					</split>
				</split>
			</split>
			<split pos="right">
				<feature> 39 </feature>
				<threshold> 0.2944999 </threshold>
				<split pos="left">
					<output> 0.9844236373901367 </output>
				</split>
				<split pos="right">
					<output> 0.28551849722862244 </output>
				</split>
			</split>
		</split>
	</tree>
	<tree id="8" weight="0.1">
		<split>
			<feature> 23 </feature>
			<threshold> 0.09090909 </threshold>
			<split pos="left">
				<feature> 33 </feature>
				<threshold> 0.15926796 </threshold>
				<split pos="left">
					<feature> 25 </feature>
					<threshold> 0.0 </threshold>
					<split pos="left">
						<output> 1.7263798713684082 </output>
					</split>
					<split pos="right">
						<output> 1.4397732019424438 </output>
					</split>
				</split>
				<split pos="right">
					<feature> 10 </feature>
					<threshold> 0.0 </threshold>
					<split pos="left">
						<feature> 19 </feature>
						<threshold> 0.004872681 </threshold>
						<split pos="left">
							<output> 0.9569149017333984 </output>
						</split>
						<split pos="right">
							<output> 1.2907036542892456 </output>
						</split>
					</split>
					<split pos="right">
						<feature> 39 </feature>
						<threshold> 0.48577306 </threshold>
						<split pos="left">
							<feature> 9 </feature>
							<threshold> 0.0 </threshold>
							<split pos="left">
								<output> 0.38929036259651184 </output>
							</split>
							<split pos="right">
								<feature> 13 </feature>
								<threshold> 1.8950162E-4 </threshold>
								<split pos="left">
									<output> 1.028300166130066 </output>
								</split>
								<split pos="right">
									<output> 0.7338708639144897 </output>
								</split>
							</split>
						</split>
						<split pos="right">
							<output> 0.3040175139904022 </output>
						</split>
					</split>
				</split>
			</split>
			<split pos="right">
				<feature> 43 </feature>
				<threshold> 0.14804941 </threshold>
				<split pos="left">
					<output> 0.8901047706604004 </output>
				</split>
				<split pos="right">
					<output> 0.26929348707199097 </output>
				</split>
			</split>
		</split>
	</tree>
	<tree id="9" weight="0.1">
		<split>
			<feature> 10 </feature>
			<threshold> 0.043956045 </threshold>
			<split pos="left">
				<feature> 31 </feature>
				<threshold> 0.17681047 </threshold>
				<split pos="left">
					<feature> 10 </feature>
					<threshold> 0.010989011 </threshold>
					<split pos="left">
						<feature> 38 </feature>
						<threshold> 0.2134478 </threshold>
						<split pos="left">
							<output> 1.4722262620925903 </output>
						</split>
						<split pos="right">
							<output> 1.2272692918777466 </output>
						</split>
					</split>
					<split pos="right">
						<output> 1.0832219123840332 </output>
					</split>
				</split>
				<split pos="right">
					<feature> 23 </feature>
					<threshold> 0.0 </threshold>
					<split pos="left">
						<feature> 43 </feature>
						<threshold> 0.18281841 </threshold>
						<split pos="left">
							<feature> 2 </feature>
							<threshold> 0.0 </threshold>
							<split pos="left">
								<output> 1.2279506921768188 </output>
							</split>
							<split pos="right">
								<output> 0.8468090295791626 </output>
							</split>
						</split>
						<split pos="right">
							<output> 0.7825867533683777 </output>
						</split>
					</split>
					<split pos="right">
						<feature> 11 </feature>
						<threshold> 0.0 </threshold>
						<split pos="left">
							<feature> 38 </feature>
							<threshold> 0.47346544 </threshold>
							<split pos="left">
								<output> 0.785402774810791 </output>
							</split>
							<split pos="right">
								<output> 0.48988038301467896 </output>
							</split>
						</split>
						<split pos="right">
							<output> 0.22446489334106445 </output>
						</split>
					</split>
				</split>
			</split>
			<split pos="right">
				<output> 0.3077310025691986 </output>
			</split>
		</split>
	</tree>
	<tree id="10" weight="0.1">
		<split>
			<feature> 10 </feature>
			<threshold> 0.032967035 </threshold>
			<split pos="left">
				<feature> 43 </feature>
				<threshold> 0.149171 </threshold>
				<split pos="left">
					<feature> 7 </feature>
					<threshold> 0.00390625 </threshold>
					<split pos="left">
						<output> 0.9802066087722778 </output>
					</split>
					<split pos="right">
						<feature> 3 </feature>
						<threshold> 0.0 </threshold>
						<split pos="left">
							<output> 1.3312418460845947 </output>
						</split>
						<split pos="right">
							<output> 1.0493344068527222 </output>
						</split>
					</split>
				</split>
				<split pos="right">
					<feature> 11 </feature>
					<threshold> 0.0 </threshold>
					<split pos="left">
						<feature> 10 </feature>
						<threshold> 0.0 </threshold>
						<split pos="left">
							<feature> 25 </feature>
							<threshold> 0.0 </threshold>
							<split pos="left">
								<output> 1.284271001815796 </output>
							</split>
							<split pos="right">
								<output> 0.8933501243591309 </output>
							</split>
						</split>
						<split pos="right">
							<feature> 37 </feature>
							<threshold> 0.4010479 </threshold>
							<split pos="left">
								<output> 0.7008316516876221 </output>
							</split>
							<split pos="right">
								<output> 0.2787962257862091 </output>
							</split>
						</split>
					</split>
					<split pos="right">
						<output> 0.20474550127983093 </output>
					</split>
				</split>
			</split>
			<split pos="right">
				<feature> 44 </feature>
				<threshold> 0.22439688 </threshold>
				<split pos="left">
					<output> 0.8156024813652039 </output>
				</split>
				<split pos="right">
					<output> 0.18890410661697388 </output>
				</split>
			</split>
		</split>
	</tree>
	<tree id="11" weight="0.1">
		<split>
			<feature> 10 </feature>
			<threshold> 0.054945055 </threshold>
			<split pos="left">
				<feature> 40 </feature>
				<threshold> 0.35344502 </threshold>
				<split pos="left">
					<feature> 10 </feature>
					<threshold> 0.0 </threshold>
					<split pos="left">
						<output> 1.2789710760116577 </output>
					</split>
					<split pos="right">
						<feature> 6 </feature>
						<threshold> 0.99609375 </threshold>
						<split pos="left">
							<output> 0.820901095867157 </output>
						</split>
						<split pos="right">
							<output> 1.0971004962921143 </output>
						</split>
					</split>
				</split>
				<split pos="right">
					<feature> 10 </feature>
					<threshold> 0.0 </threshold>
					<split pos="left">
						<feature> 19 </feature>
						<threshold> 0.004872681 </threshold>
						<split pos="left">
							<output> 0.6624954342842102 </output>
						</split>
						<split pos="right">
							<output> 0.960289478302002 </output>
						</split>
					</split>
					<split pos="right">
						<feature> 11 </feature>
						<threshold> 0.0 </threshold>
						<split pos="left">
							<feature> 9 </feature>
							<threshold> 0.0 </threshold>
							<split pos="left">
								<output> 0.17075100541114807 </output>
							</split>
							<split pos="right">
								<feature> 38 </feature>
								<threshold> 0.47346544 </threshold>
								<split pos="left">
									<output> 0.6941679120063782 </output>
								</split>
								<split pos="right">
									<output> 0.36579570174217224 </output>
								</split>
							</split>
						</split>
						<split pos="right">
							<output> 0.14697223901748657 </output>
						</split>
					</split>
				</split>
			</split>
			<split pos="right">
				<output> 0.14409542083740234 </output>
			</split>
		</split>
	</tree>
	<tree id="12" weight="0.1">
		<split>
			<feature> 23 </feature>
			<threshold> 0.09090909 </threshold>
			<split pos="left">
				<feature> 40 </feature>
				<threshold> 0.4903656 </threshold>
				<split pos="left">
					<feature> 25 </feature>
					<threshold> 0.0 </threshold>
					<split pos="left">
						<output> 1.1327126026153564 </output>
					</split>
					<split pos="right">
						<feature> 17 </feature>
						<threshold> 0.0049668876 </threshold>
						<split pos="left">
							<output> 1.134464979171753 </output>
						</split>
						<split pos="right">
							<feature> 5 </feature>
							<threshold> 0.91796875 </threshold>
							<split pos="left">
								<output> 0.5967674851417542 </output>
							</split>
							<split pos="right">
								<output> 0.8736220598220825 </output>
							</split>
						</split>
					</split>
				</split>
				<split pos="right">
					<feature> 25 </feature>
					<threshold> 0.0 </threshold>
					<split pos="left">
						<output> 1.0063153505325317 </output>
					</split>
					<split pos="right">
						<feature> 40 </feature>
						<threshold> 0.7673909 </threshold>
						<split pos="left">
							<feature> 7 </feature>
							<threshold> 0.02734375 </threshold>
							<split pos="left">
								<output> 0.5278406739234924 </output>
							</split>
							<split pos="right">
								<output> 0.7817873954772949 </output>
							</split>
						</split>
						<split pos="right">
							<output> 0.30054962635040283 </output>
						</split>
					</split>
				</split>
			</split>
			<split pos="right">
				<feature> 31 </feature>
				<threshold> 0.121855944 </threshold>
				<split pos="left">
					<output> 0.6693376898765564 </output>
				</split>
				<split pos="right">
					<output> 0.18509972095489502 </output>
				</split>
			</split>
		</split>
	</tree>
	<tree id="13" weight="0.1">
		<split>
			<feature> 10 </feature>
			<threshold> 0.043956045 </threshold>
			<split pos="left">
				<feature> 38 </feature>
				<threshold> 0.2134478 </threshold>
				<split pos="left">
					<feature> 1 </feature>
					<threshold> 0.0 </threshold>
					<split pos="left">
						<output> 0.8291259407997131 </output>
					</split>
					<split pos="right">
						<output> 1.0550683736801147 </output>
					</split>
				</split>
				<split pos="right">
					<feature> 11 </feature>
					<threshold> 0.0 </threshold>
					<split pos="left">
						<feature> 9 </feature>
						<threshold> 0.0 </threshold>
						<split pos="left">
							<output> 0.1998620629310608 </output>
						</split>
						<split pos="right">
							<feature> 25 </feature>
							<threshold> 0.0 </threshold>
							<split pos="left">
								<output> 0.9403230547904968 </output>
							</split>
							<split pos="right">
								<feature> 31 </feature>
								<threshold> 0.3822934 </threshold>
								<split pos="left">
									<feature> 10 </feature>
									<threshold> 0.0 </threshold>
									<split pos="left">
										<output> 0.7550380825996399 </output>
									</split>
									<split pos="right">
										<feature> 2 </feature>
										<threshold> 0.0 </threshold>
										<split pos="left">
											<output> 0.6286770701408386 </output>
										</split>
										<split pos="right">
											<output> 0.3965705633163452 </output>
										</split>
									</split>
								</split>
								<split pos="right">
									<output> 0.37028828263282776 </output>
								</split>
							</split>
						</split>
					</split>
					<split pos="right">
						<output> 0.1400059312582016 </output>
					</split>
				</split>
			</split>
			<split pos="right">
				<output> 0.16978022456169128 </output>
			</split>
		</split>
	</tree>
	<tree id="14" weight="0.1">
		<split>
			<feature> 11 </feature>
			<threshold> 0.0 </threshold>
			<split pos="left">
				<feature> 38 </feature>
				<threshold> 0.2134478 </threshold>
				<split pos="left">
					<feature> 10 </feature>
					<threshold> 0.08791209 </threshold>
					<split pos="left">
						<feature> 1 </feature>
						<threshold> 0.0 </threshold>
						<split pos="left">
							<output> 0.7447429299354553 </output>
						</split>
						<split pos="right">
							<output> 0.973403811454773 </output>
						</split>
					</split>
					<split pos="right">
						<output> 0.05713450908660889 </output>
					</split>
				</split>
				<split pos="right">
					<feature> 10 </feature>
					<threshold> 0.010989011 </threshold>
					<split pos="left">
						<feature> 9 </feature>
						<threshold> 0.0 </threshold>
						<split pos="left">
							<output> 0.23765422403812408 </output>
						</split>
						<split pos="right">
							<feature> 25 </feature>
							<threshold> 0.0 </threshold>
							<split pos="left">
								<output> 0.88149493932724 </output>
							</split>
							<split pos="right">
								<feature> 35 </feature>
								<threshold> 0.203125 </threshold>
								<split pos="left">
									<feature> 16 </feature>
									<threshold> 0.125 </threshold>
									<split pos="left">
										<output> 0.6824575066566467 </output>
									</split>
									<split pos="right">
										<output> 0.3606920540332794 </output>
									</split>
								</split>
								<split pos="right">
									<output> 0.40670856833457947 </output>
								</split>
							</split>
						</split>
					</split>
					<split pos="right">
						<output> 0.29661691188812256 </output>
					</split>
				</split>
			</split>
			<split pos="right">
				<output> 0.04002642631530762 </output>
			</split>
		</split>
	</tree>
	<tree id="15" weight="0.1">
		<split>
			<feature> 10 </feature>
			<threshold> 0.06593407 </threshold>
			<split pos="left">
				<feature> 40 </feature>
				<threshold> 0.59225994 </threshold>
				<split pos="left">
					<feature> 2 </feature>
					<threshold> 0.0 </threshold>
					<split pos="left">
						<feature> 7 </feature>
						<threshold> 0.00390625 </threshold>
						<split pos="left">
							<output> 0.5730537176132202 </output>
						</split>
						<split pos="right">
							<feature> 6 </feature>
							<threshold> 0.99609375 </threshold>
							<split pos="left">
								<output> 0.6008662581443787 </output>
							</split>
							<split pos="right">
								<feature> 25 </feature>
								<threshold> 0.0 </threshold>
								<split pos="left">
									<output> 0.9613383412361145 </output>
								</split>
								<split pos="right">
									<output> 0.7781257033348083 </output>
								</split>
							</split>
						</split>
					</split>
					<split pos="right">
						<output> 0.38512590527534485 </output>
					</split>
				</split>
				<split pos="right">
					<feature> 10 </feature>
					<threshold> 0.010989011 </threshold>
					<split pos="left">
						<feature> 25 </feature>
						<threshold> 0.0 </threshold>
						<split pos="left">
							<output> 0.823180079460144 </output>
						</split>
						<split pos="right">
							<feature> 7 </feature>
							<threshold> 0.02734375 </threshold>
							<split pos="left">
								<output> 0.3236924409866333 </output>
							</split>
							<split pos="right">
								<output> 0.5334381461143494 </output>
							</split>
						</split>
					</split>
					<split pos="right">
						<output> 0.1478288173675537 </output>
					</split>
				</split>
			</split>
			<split pos="right">
				<output> -0.036094896495342255 </output>
			</split>
		</split>
	</tree>
	<tree id="16" weight="0.1">
		<split>
			<feature> 11 </feature>
			<threshold> 0.0 </threshold>
			<split pos="left">
				<feature> 25 </feature>
				<threshold> 0.0 </threshold>
				<split pos="left">
					<output> 0.7326182723045349 </output>
				</split>
				<split pos="right">
					<feature> 17 </feature>
					<threshold> 0.0066225166 </threshold>
					<split pos="left">
						<output> 0.7719131112098694 </output>
					</split>
					<split pos="right">
						<feature> 10 </feature>
						<threshold> 0.06593407 </threshold>
						<split pos="left">
							<feature> 9 </feature>
							<threshold> 0.0 </threshold>
							<split pos="left">
								<output> 0.10393080115318298 </output>
							</split>
							<split pos="right">
								<feature> 33 </feature>
								<threshold> 0.38839042 </threshold>
								<split pos="left">
									<feature> 16 </feature>
									<threshold> 0.125 </threshold>
									<split pos="left">
										<feature> 6 </feature>
										<threshold> 0.9921875 </threshold>
										<split pos="left">
											<output> 0.44003239274024963 </output>
										</split>
										<split pos="right">
											<output> 0.6082146167755127 </output>
										</split>
									</split>
									<split pos="right">
										<output> 0.2582307755947113 </output>
									</split>
								</split>
								<split pos="right">
									<feature> 10 </feature>
									<threshold> 0.010989011 </threshold>
									<split pos="left">
										<output> 0.40529870986938477 </output>
									</split>
									<split pos="right">
										<output> 0.1863871067762375 </output>
									</split>
								</split>
							</split>
						</split>
						<split pos="right">
							<output> -0.03375433385372162 </output>
						</split>
					</split>
				</split>
			</split>
			<split pos="right">
				<output> 0.007110539358109236 </output>
			</split>
		</split>
	</tree>
	<tree id="17" weight="0.1">
		<split>
			<feature> 10 </feature>
			<threshold> 0.010989011 </threshold>
			<split pos="left">
				<feature> 31 </feature>
				<threshold> 0.17681047 </threshold>
				<split pos="left">
					<feature> 24 </feature>
					<threshold> 0.2 </threshold>
					<split pos="left">
						<output> 0.690727949142456 </output>
					</split>
					<split pos="right">
						<output> 0.5294776558876038 </output>
					</split>
				</split>
				<split pos="right">
					<feature> 9 </feature>
					<threshold> 0.0 </threshold>
					<split pos="left">
						<output> 0.0011712631676346064 </output>
					</split>
					<split pos="right">
						<feature> 40 </feature>
						<threshold> 0.7705751 </threshold>
						<split pos="left">
							<feature> 16 </feature>
							<threshold> 0.25 </threshold>
							<split pos="left">
								<feature> 25 </feature>
								<threshold> 0.0 </threshold>
								<split pos="left">
									<output> 0.7357285022735596 </output>
								</split>
								<split pos="right">
									<output> 0.4535389542579651 </output>
								</split>
							</split>
							<split pos="right">
								<output> 0.013834156095981598 </output>
							</split>
						</split>
						<split pos="right">
							<output> 0.1573970913887024 </output>
						</split>
					</split>
				</split>
			</split>
			<split pos="right">
				<feature> 17 </feature>
				<threshold> 0.03642384 </threshold>
				<split pos="left">
					<feature> 10 </feature>
					<threshold> 0.08791209 </threshold>
					<split pos="left">
						<output> 0.45643362402915955 </output>
					</split>
					<split pos="right">
						<output> -0.06627579778432846 </output>
					</split>
				</split>
				<split pos="right">
					<output> 0.0776672214269638 </output>
				</split>
			</split>
		</split>
	</tree>
	<tree id="18" weight="0.1">
		<split>
			<feature> 11 </feature>
			<threshold> 0.0 </threshold>
			<split pos="left">
				<feature> 25 </feature>
				<threshold> 0.0 </threshold>
				<split pos="left">
					<output> 0.6019774675369263 </output>
				</split>
				<split pos="right">
					<feature> 17 </feature>
					<threshold> 0.0066225166 </threshold>
					<split pos="left">
						<output> 0.6384685039520264 </output>
					</split>
					<split pos="right">
						<feature> 10 </feature>
						<threshold> 0.06593407 </threshold>
						<split pos="left">
							<feature> 9 </feature>
							<threshold> 0.0 </threshold>
							<split pos="left">
								<output> 0.06602662056684494 </output>
							</split>
							<split pos="right">
								<feature> 35 </feature>
								<threshold> 0.203125 </threshold>
								<split pos="left">
									<feature> 7 </feature>
									<threshold> 0.0234375 </threshold>
									<split pos="left">
										<feature> 37 </feature>
										<threshold> 0.301316 </threshold>
										<split pos="left">
											<feature> 16 </feature>
											<threshold> 0.125 </threshold>
											<split pos="left">
												<output> 0.4149801731109619 </output>
											</split>
											<split pos="right">
												<output> 0.11638074368238449 </output>
											</split>
										</split>
										<split pos="right">
											<output> 0.1758357137441635 </output>
										</split>
									</split>
									<split pos="right">
										<output> 0.5022822022438049 </output>
									</split>
								</split>
								<split pos="right">
									<output> 0.19257335364818573 </output>
								</split>
							</split>
						</split>
						<split pos="right">
							<output> -0.04112163558602333 </output>
						</split>
					</split>
				</split>
			</split>
			<split pos="right">
				<output> -0.016902493312954903 </output>
			</split>
		</split>
	</tree>
	<tree id="19" weight="0.1">
		<split>
			<feature> 10 </feature>
			<threshold> 0.054945055 </threshold>
			<split pos="left">
				<feature> 34 </feature>
				<threshold> 0.17184661 </threshold>
				<split pos="left">
					<feature> 2 </feature>
					<threshold> 0.0 </threshold>
					<split pos="left">
						<feature> 7 </feature>
						<threshold> 0.00390625 </threshold>
						<split pos="left">
							<feature> 17 </feature>
							<threshold> 0.0033112583 </threshold>
							<split pos="left">
								<output> 0.7074214220046997 </output>
							</split>
							<split pos="right">
								<output> 0.3073543906211853 </output>
							</split>
						</split>
						<split pos="right">
							<feature> 13 </feature>
							<threshold> 3.7900324E-4 </threshold>
							<split pos="left">
								<feature> 6 </feature>
								<threshold> 0.99609375 </threshold>
								<split pos="left">
									<output> 0.43188002705574036 </output>
								</split>
								<split pos="right">
									<feature> 24 </feature>
									<threshold> 0.24 </threshold>
									<split pos="left">
										<output> 0.6763722896575928 </output>
									</split>
									<split pos="right">
										<output> 0.5024506449699402 </output>
									</split>
								</split>
							</split>
							<split pos="right">
								<output> 0.36286330223083496 </output>
							</split>
						</split>
					</split>
					<split pos="right">
						<output> 0.24059845507144928 </output>
					</split>
				</split>
				<split pos="right">
					<feature> 10 </feature>
					<threshold> 0.0 </threshold>
					<split pos="left">
						<output> 0.3289516568183899 </output>
					</split>
					<split pos="right">
						<output> 0.1415865123271942 </output>
					</split>
				</split>
			</split>
			<split pos="right">
				<output> -0.0034339167177677155 </output>
			</split>
		</split>
	</tree>
	<tree id="20" weight="0.1">
		<split>
			<feature> 11 </feature>
			<threshold> 0.0 </threshold>
			<split pos="left">
				<feature> 38 </feature>
				<threshold> 0.2134478 </threshold>
				<split pos="left">
					<feature> 43 </feature>
					<threshold> 0.14019835 </threshold>
					<split pos="left">
						<feature> 6 </feature>
						<threshold> 0.99609375 </threshold>
						<split pos="left">
							<output> 0.2509382665157318 </output>
						</split>
						<split pos="right">
							<output> 0.49878358840942383 </output>
						</split>
					</split>
					<split pos="right">
						<output> 0.8786956667900085 </output>
					</split>
				</split>
				<split pos="right">
					<feature> 10 </feature>
					<threshold> 0.010989011 </threshold>
					<split pos="left">
						<feature> 24 </feature>
						<threshold> 0.08 </threshold>
						<split pos="left">
							<output> 0.5799376964569092 </output>
						</split>
						<split pos="right">
							<feature> 9 </feature>
							<threshold> 0.0 </threshold>
							<split pos="left">
								<output> 0.03755152225494385 </output>
							</split>
							<split pos="right">
								<feature> 16 </feature>
								<threshold> 0.25 </threshold>
								<split pos="left">
									<feature> 44 </feature>
									<threshold> 0.35677457 </threshold>
									<split pos="left">
										<output> 0.35895535349845886 </output>
									</split>
									<split pos="right">
										<output> 0.09747076779603958 </output>
									</split>
								</split>
								<split pos="right">
									<output> -0.06593799591064453 </output>
								</split>
							</split>
						</split>
					</split>
					<split pos="right">
						<output> 0.13685694336891174 </output>
					</split>
				</split>
			</split>
			<split pos="right">
				<output> -0.03465434908866882 </output>
			</split>
		</split>
	</tree>
	<tree id="21" weight="0.1">
		<split>
			<feature> 10 </feature>
			<threshold> 0.07692308 </threshold>
			<split pos="left">
				<feature> 31 </feature>
				<threshold> 0.3822934 </threshold>
				<split pos="left">
					<feature> 2 </feature>
					<threshold> 0.0 </threshold>
					<split pos="left">
						<feature> 7 </feature>
						<threshold> 0.00390625 </threshold>
						<split pos="left">
							<feature> 17 </feature>
							<threshold> 0.0016556291 </threshold>
							<split pos="left">
								<output> 0.6760756373405457 </output>
							</split>
							<split pos="right">
								<output> 0.2187531590461731 </output>
							</split>
						</split>
						<split pos="right">
							<feature> 5 </feature>
							<threshold> 0.93359375 </threshold>
							<split pos="left">
								<output> 0.2912376821041107 </output>
							</split>
							<split pos="right">
								<feature> 13 </feature>
								<threshold> 5.6850485E-4 </threshold>
								<split pos="left">
									<feature> 24 </feature>
									<threshold> 0.08 </threshold>
									<split pos="left">
										<output> 0.7011091709136963 </output>
									</split>
									<split pos="right">
										<feature> 3 </feature>
										<threshold> 0.0 </threshold>
										<split pos="left">
											<output> 0.5311707258224487 </output>
										</split>
										<split pos="right">
											<output> 0.38387858867645264 </output>
										</split>
									</split>
								</split>
								<split pos="right">
									<output> 0.293595552444458 </output>
								</split>
							</split>
						</split>
					</split>
					<split pos="right">
						<output> 0.14846502244472504 </output>
					</split>
				</split>
				<split pos="right">
					<output> 0.036264657974243164 </output>
				</split>
			</split>
			<split pos="right">
				<output> -0.13116638362407684 </output>
			</split>
		</split>
	</tree>
	<tree id="22" weight="0.1">
		<split>
			<feature> 11 </feature>
			<threshold> 0.0034364262 </threshold>
			<split pos="left">
				<feature> 25 </feature>
				<threshold> 0.0 </threshold>
				<split pos="left">
					<output> 0.414504736661911 </output>
				</split>
				<split pos="right">
					<feature> 17 </feature>
					<threshold> 0.0016556291 </threshold>
					<split pos="left">
						<output> 0.5514822006225586 </output>
					</split>
					<split pos="right">
						<feature> 9 </feature>
						<threshold> 0.0 </threshold>
						<split pos="left">
							<output> -0.015416113659739494 </output>
						</split>
						<split pos="right">
							<feature> 10 </feature>
							<threshold> 0.08791209 </threshold>
							<split pos="left">
								<feature> 35 </feature>
								<threshold> 0.203125 </threshold>
								<split pos="left">
									<feature> 5 </feature>
									<threshold> 0.93359375 </threshold>
									<split pos="left">
										<output> 0.17704010009765625 </output>
									</split>
									<split pos="right">
										<feature> 25 </feature>
										<threshold> 0.00390625 </threshold>
										<split pos="left">
											<feature> 13 </feature>
											<threshold> 1.8950162E-4 </threshold>
											<split pos="left">
												<output> 0.3681248426437378 </output>
											</split>
											<split pos="right">
												<output> 0.24444720149040222 </output>
											</split>
										</split>
										<split pos="right">
											<output> -0.004616335965692997 </output>
										</split>
									</split>
								</split>
								<split pos="right">
									<output> 0.0950445830821991 </output>
								</split>
							</split>
							<split pos="right">
								<output> -0.11628414690494537 </output>
							</split>
						</split>
					</split>
				</split>
			</split>
			<split pos="right">
				<output> -0.10489938408136368 </output>
			</split>
		</split>
	</tree>
	<tree id="23" weight="0.1">
		<split>
			<feature> 34 </feature>
			<threshold> 0.23515841 </threshold>
			<split pos="left">
				<feature> 2 </feature>
				<threshold> 0.0 </threshold>
				<split pos="left">
					<feature> 10 </feature>
					<threshold> 0.12087912 </threshold>
					<split pos="left">
						<feature> 25 </feature>
						<threshold> 0.0 </threshold>
						<split pos="left">
							<output> 0.4281027317047119 </output>
						</split>
						<split pos="right">
							<feature> 17 </feature>
							<threshold> 0.0016556291 </threshold>
							<split pos="left">
								<output> 0.4965677559375763 </output>
							</split>
							<split pos="right">
								<feature> 21 </feature>
								<threshold> 0.013780273 </threshold>
								<split pos="left">
									<feature> 14 </feature>
									<threshold> 0.01953125 </threshold>
									<split pos="left">
										<output> 0.15871071815490723 </output>
									</split>
									<split pos="right">
										<output> 1.289031744003296 </output>
									</split>
								</split>
								<split pos="right">
									<feature> 5 </feature>
									<threshold> 0.91796875 </threshold>
									<split pos="left">
										<output> 0.14618957042694092 </output>
									</split>
									<split pos="right">
										<output> 0.3407515585422516 </output>
									</split>
								</split>
							</split>
						</split>
					</split>
					<split pos="right">
						<output> -0.23695772886276245 </output>
					</split>
				</split>
				<split pos="right">
					<output> 0.10787985473871231 </output>
				</split>
			</split>
			<split pos="right">
				<feature> 10 </feature>
				<threshold> 0.032967035 </threshold>
				<split pos="left">
					<output> 0.12537157535552979 </output>
				</split>
				<split pos="right">
					<output> -0.19711650907993317 </output>
				</split>
			</split>
		</split>
	</tree>
	<tree id="24" weight="0.1">
		<split>
			<feature> 11 </feature>
			<threshold> 0.010309278 </threshold>
			<split pos="left">
				<feature> 7 </feature>
				<threshold> 0.00390625 </threshold>
				<split pos="left">
					<feature> 44 </feature>
					<threshold> 0.19695273 </threshold>
					<split pos="left">
						<output> 0.5117853879928589 </output>
					</split>
					<split pos="right">
						<feature> 9 </feature>
						<threshold> 0.0 </threshold>
						<split pos="left">
							<output> -0.1567889004945755 </output>
						</split>
						<split pos="right">
							<feature> 10 </feature>
							<threshold> 0.043956045 </threshold>
							<split pos="left">
								<feature> 13 </feature>
								<threshold> 0.004358537 </threshold>
								<split pos="left">
									<output> 0.16092993319034576 </output>
								</split>
								<split pos="right">
									<output> 0.835628867149353 </output>
								</split>
							</split>
							<split pos="right">
								<output> -0.06990473717451096 </output>
							</split>
						</split>
					</split>
				</split>
				<split pos="right">
					<feature> 13 </feature>
					<threshold> 1.8950162E-4 </threshold>
					<split pos="left">
						<feature> 24 </feature>
						<threshold> 0.08 </threshold>
						<split pos="left">
							<output> 0.5411117672920227 </output>
						</split>
						<split pos="right">
							<feature> 3 </feature>
							<threshold> 0.0 </threshold>
							<split pos="left">
								<output> 0.36560454964637756 </output>
							</split>
							<split pos="right">
								<output> 0.22982513904571533 </output>
							</split>
						</split>
					</split>
					<split pos="right">
						<output> 0.1570676863193512 </output>
					</split>
				</split>
			</split>
			<split pos="right">
				<output> -0.26612043380737305 </output>
			</split>
		</split>
	</tree>
	<tree id="25" weight="0.1">
		<split>
			<feature> 33 </feature>
			<threshold> 0.48339242 </threshold>
			<split pos="left">
				<feature> 10 </feature>
				<threshold> 0.12087912 </threshold>
				<split pos="left">
					<feature> 2 </feature>
					<threshold> 0.0 </threshold>
					<split pos="left">
						<feature> 7 </feature>
						<threshold> 0.00390625 </threshold>
						<split pos="left">
							<feature> 17 </feature>
							<threshold> 0.0033112583 </threshold>
							<split pos="left">
								<output> 0.4393925666809082 </output>
							</split>
							<split pos="right">
								<output> 0.13145634531974792 </output>
							</split>
						</split>
						<split pos="right">
							<feature> 6 </feature>
							<threshold> 0.99609375 </threshold>
							<split pos="left">
								<output> 0.16246141493320465 </output>
							</split>
							<split pos="right">
								<feature> 25 </feature>
								<threshold> 0.0 </threshold>
								<split pos="left">
									<output> 0.4292452335357666 </output>
								</split>
								<split pos="right">
									<feature> 14 </feature>
									<threshold> 0.0 </threshold>
									<split pos="left">
										<output> 0.6643387079238892 </output>
									</split>
									<split pos="right">
										<feature> 35 </feature>
										<threshold> 0.203125 </threshold>
										<split pos="left">
											<output> 0.299990713596344 </output>
										</split>
										<split pos="right">
											<output> 0.10188077390193939 </output>
										</split>
									</split>
								</split>
							</split>
						</split>
					</split>
					<split pos="right">
						<output> 0.07910007983446121 </output>
					</split>
				</split>
				<split pos="right">
					<output> -0.24682766199111938 </output>
				</split>
			</split>
			<split pos="right">
				<output> -0.028096476569771767 </output>
			</split>
		</split>
	</tree>
	<tree id="26" weight="0.1">
		<split>
			<feature> 13 </feature>
			<threshold> 1.8950162E-4 </threshold>
			<split pos="left">
				<feature> 7 </feature>
				<threshold> 0.02734375 </threshold>
				<split pos="left">
					<feature> 9 </feature>
					<threshold> 0.0 </threshold>
					<split pos="left">
						<output> -0.06936489790678024 </output>
					</split>
					<split pos="right">
						<feature> 33 </feature>
						<threshold> 0.38839042 </threshold>
						<split pos="left">
							<feature> 17 </feature>
							<threshold> 0.0016556291 </threshold>
							<split pos="left">
								<output> 0.45795050263404846 </output>
							</split>
							<split pos="right">
								<feature> 19 </feature>
								<threshold> 0.014618044 </threshold>
								<split pos="left">
									<feature> 10 </feature>
									<threshold> 0.17582418 </threshold>
									<split pos="left">
										<output> 0.19307920336723328 </output>
									</split>
									<split pos="right">
										<output> -0.6312345862388611 </output>
									</split>
								</split>
								<split pos="right">
									<output> 0.3973419666290283 </output>
								</split>
							</split>
						</split>
						<split pos="right">
							<output> 0.07264111191034317 </output>
						</split>
					</split>
				</split>
				<split pos="right">
					<feature> 24 </feature>
					<threshold> 0.08 </threshold>
					<split pos="left">
						<output> 0.5962837934494019 </output>
					</split>
					<split pos="right">
						<output> 0.28356364369392395 </output>
					</split>
				</split>
			</split>
			<split pos="right">
				<feature> 10 </feature>
				<threshold> 0.010989011 </threshold>
				<split pos="left">
					<output> 0.15688374638557434 </output>
				</split>
				<split pos="right">
					<output> -0.04106821119785309 </output>
				</split>
			</split>
		</split>
	</tree>
	<tree id="27" weight="0.1">
		<split>
			<feature> 11 </feature>
			<threshold> 0.0034364262 </threshold>
			<split pos="left">
				<feature> 25 </feature>
				<threshold> 0.00390625 </threshold>
				<split pos="left">
					<feature> 2 </feature>
					<threshold> 0.0 </threshold>
					<split pos="left">
						<feature> 24 </feature>
						<threshold> 0.24 </threshold>
						<split pos="left">
							<feature> 10 </feature>
							<threshold> 0.0 </threshold>
							<split pos="left">
								<output> 0.3158004581928253 </output>
							</split>
							<split pos="right">
								<feature> 38 </feature>
								<threshold> 0.18240081 </threshold>
								<split pos="left">
									<output> 0.32538995146751404 </output>
								</split>
								<split pos="right">
									<feature> 39 </feature>
									<threshold> 0.48577306 </threshold>
									<split pos="left">
										<feature> 42 </feature>
										<threshold> 0.92578125 </threshold>
										<split pos="left">
											<output> 0.18951842188835144 </output>
										</split>
										<split pos="right">
											<output> 0.05755989998579025 </output>
										</split>
									</split>
									<split pos="right">
										<output> -0.13358697295188904 </output>
									</split>
								</split>
							</split>
						</split>
						<split pos="right">
							<feature> 21 </feature>
							<threshold> 0.7096848 </threshold>
							<split pos="left">
								<output> 0.1236482635140419 </output>
							</split>
							<split pos="right">
								<output> -0.39424678683280945 </output>
							</split>
						</split>
					</split>
					<split pos="right">
						<output> 0.049769580364227295 </output>
					</split>
				</split>
				<split pos="right">
					<output> -0.12221086770296097 </output>
				</split>
			</split>
			<split pos="right">
				<output> -0.1119050607085228 </output>
			</split>
		</split>
	</tree>
	<tree id="28" weight="0.1">
		<split>
			<feature> 31 </feature>
			<threshold> 0.32255986 </threshold>
			<split pos="left">
				<feature> 16 </feature>
				<threshold> 0.125 </threshold>
				<split pos="left">
					<feature> 9 </feature>
					<threshold> 0.0 </threshold>
					<split pos="left">
						<output> 0.020225955173373222 </output>
					</split>
					<split pos="right">
						<feature> 10 </feature>
						<threshold> 0.13186814 </threshold>
						<split pos="left">
							<feature> 19 </feature>
							<threshold> 0.09501726 </threshold>
							<split pos="left">
								<feature> 6 </feature>
								<threshold> 0.99609375 </threshold>
								<split pos="left">
									<output> 0.13397090137004852 </output>
								</split>
								<split pos="right">
									<feature> 7 </feature>
									<threshold> 0.0078125 </threshold>
									<split pos="left">
										<output> 0.18496812880039215 </output>
									</split>
									<split pos="right">
										<output> 0.28572583198547363 </output>
									</split>
								</split>
							</split>
							<split pos="right">
								<output> 0.9079278707504272 </output>
							</split>
						</split>
						<split pos="right">
							<output> -0.2591852843761444 </output>
						</split>
					</split>
				</split>
				<split pos="right">
					<output> -0.02347187139093876 </output>
				</split>
			</split>
			<split pos="right">
				<feature> 10 </feature>
				<threshold> 0.054945055 </threshold>
				<split pos="left">
					<feature> 3 </feature>
					<threshold> 0.0 </threshold>
					<split pos="left">
						<output> -0.02985825203359127 </output>
					</split>
					<split pos="right">
						<output> 0.14004972577095032 </output>
					</split>
				</split>
				<split pos="right">
					<output> -0.2689509093761444 </output>
				</split>
			</split>
		</split>
	</tree>
	<tree id="29" weight="0.1">
		<split>
			<feature> 13 </feature>
			<threshold> 1.8950162E-4 </threshold>
			<split pos="left">
				<feature> 7 </feature>
				<threshold> 0.02734375 </threshold>
				<split pos="left">
					<feature> 9 </feature>
					<threshold> 0.0 </threshold>
					<split pos="left">
						<output> -0.07837603241205215 </output>
					</split>
					<split pos="right">
						<feature> 11 </feature>
						<threshold> 0.0 </threshold>
						<split pos="left">
							<feature> 17 </feature>
							<threshold> 0.0016556291 </threshold>
							<split pos="left">
								<output> 0.3734302818775177 </output>
							</split>
							<split pos="right">
								<feature> 41 </feature>
								<threshold> 0.98828125 </threshold>
								<split pos="left">
									<feature> 19 </feature>
									<threshold> 0.121817 </threshold>
									<split pos="left">
										<feature> 42 </feature>
										<threshold> 0.96484375 </threshold>
										<split pos="left">
											<output> 0.13891218602657318 </output>
										</split>
										<split pos="right">
											<output> -0.04377219080924988 </output>
										</split>
									</split>
									<split pos="right">
										<output> 0.720342755317688 </output>
									</split>
								</split>
								<split pos="right">
									<output> 0.437353253364563 </output>
								</split>
							</split>
						</split>
						<split pos="right">
							<output> -0.07048746943473816 </output>
						</split>
					</split>
				</split>
				<split pos="right">
					<output> 0.2462047040462494 </output>
				</split>
			</split>
			<split pos="right">
				<feature> 39 </feature>
				<threshold> 0.42201534 </threshold>
				<split pos="left">
					<output> 0.06991102546453476 </output>
				</split>
				<split pos="right">
					<output> -0.17723597586154938 </output>
				</split>
			</split>
		</split>
	</tree>
	<tree id="30" weight="0.1">
		<split>
			<feature> 11 </feature>
			<threshold> 0.010309278 </threshold>
			<split pos="left">
				<feature> 25 </feature>
				<threshold> 0.00390625 </threshold>
				<split pos="left">
					<feature> 5 </feature>
					<threshold> 0.93359375 </threshold>
					<split pos="left">
						<feature> 42 </feature>
						<threshold> 0.98046875 </threshold>
						<split pos="left">
							<feature> 31 </feature>
							<threshold> 0.023893306 </threshold>
							<split pos="left">
								<output> 0.3281828463077545 </output>
							</split>
							<split pos="right">
								<output> 0.02219514176249504 </output>
							</split>
						</split>
						<split pos="right">
							<output> 0.3220754563808441 </output>
						</split>
					</split>
					<split pos="right">
						<feature> 24 </feature>
						<threshold> 0.24 </threshold>
						<split pos="left">
							<feature> 25 </feature>
							<threshold> 0.0 </threshold>
							<split pos="left">
								<output> 0.2977495491504669 </output>
							</split>
							<split pos="right">
								<feature> 14 </feature>
								<threshold> 0.0 </threshold>
								<split pos="left">
									<output> 0.5455100536346436 </output>
								</split>
								<split pos="right">
									<feature> 34 </feature>
									<threshold> 0.15375753 </threshold>
									<split pos="left">
										<output> 0.20303091406822205 </output>
									</split>
									<split pos="right">
										<output> 0.07103773951530457 </output>
									</split>
								</split>
							</split>
						</split>
						<split pos="right">
							<output> 0.07617100328207016 </output>
						</split>
					</split>
				</split>
				<split pos="right">
					<output> -0.13483434915542603 </output>
				</split>
			</split>
			<split pos="right">
				<output> -0.22925017774105072 </output>
			</split>
		</split>
	</tree>
	<tree id="31" weight="0.1">
		<split>
			<feature> 13 </feature>
			<threshold> 1.8950162E-4 </threshold>
			<split pos="left">
				<feature> 7 </feature>
				<threshold> 0.02734375 </threshold>
				<split pos="left">
					<feature> 9 </feature>
					<threshold> 0.0 </threshold>
					<split pos="left">
						<output> -0.07902012765407562 </output>
					</split>
					<split pos="right">
						<feature> 33 </feature>
						<threshold> 0.38839042 </threshold>
						<split pos="left">
							<feature> 16 </feature>
							<threshold> 0.125 </threshold>
							<split pos="left">
								<feature> 8 </feature>
								<threshold> 0.9335917 </threshold>
								<split pos="left">
									<output> 0.2616925835609436 </output>
								</split>
								<split pos="right">
									<output> 0.13208110630512238 </output>
								</split>
							</split>
							<split pos="right">
								<output> 5.908699240535498E-4 </output>
							</split>
						</split>
						<split pos="right">
							<output> 0.03550512716174126 </output>
						</split>
					</split>
				</split>
				<split pos="right">
					<feature> 24 </feature>
					<threshold> 0.08 </threshold>
					<split pos="left">
						<output> 0.4451559782028198 </output>
					</split>
					<split pos="right">
						<feature> 3 </feature>
						<threshold> 0.0 </threshold>
						<split pos="left">
							<output> 0.2426045686006546 </output>
						</split>
						<split pos="right">
							<output> 0.10376494377851486 </output>
						</split>
					</split>
				</split>
			</split>
			<split pos="right">
				<feature> 10 </feature>
				<threshold> 0.010989011 </threshold>
				<split pos="left">
					<output> 0.09217613935470581 </output>
				</split>
				<split pos="right">
					<output> -0.06009522080421448 </output>
				</split>
			</split>
		</split>
	</tree>
	<tree id="32" weight="0.1">
		<split>
			<feature> 23 </feature>
			<threshold> 0.18181819 </threshold>
			<split pos="left">
				<feature> 2 </feature>
				<threshold> 0.0 </threshold>
				<split pos="left">
					<feature> 25 </feature>
					<threshold> 0.0 </threshold>
					<split pos="left">
						<output> 0.20701122283935547 </output>
					</split>
					<split pos="right">
						<feature> 25 </feature>
						<threshold> 0.00390625 </threshold>
						<split pos="left">
							<feature> 14 </feature>
							<threshold> 0.0 </threshold>
							<split pos="left">
								<output> 0.4077964127063751 </output>
							</split>
							<split pos="right">
								<feature> 42 </feature>
								<threshold> 0.5625 </threshold>
								<split pos="left">
									<output> 0.2780500650405884 </output>
								</split>
								<split pos="right">
									<feature> 24 </feature>
									<threshold> 0.08 </threshold>
									<split pos="left">
										<output> 0.21443374454975128 </output>
									</split>
									<split pos="right">
										<feature> 42 </feature>
										<threshold> 0.95703125 </threshold>
										<split pos="left">
											<feature> 31 </feature>
											<threshold> 0.3822934 </threshold>
											<split pos="left">
												<output> 0.10492447763681412 </output>
											</split>
											<split pos="right">
												<output> -0.031974636018276215 </output>
											</split>
										</split>
										<split pos="right">
											<output> -0.07060661166906357 </output>
										</split>
									</split>
								</split>
							</split>
						</split>
						<split pos="right">
							<output> -0.12690535187721252 </output>
						</split>
					</split>
				</split>
				<split pos="right">
					<output> -0.0016215747455134988 </output>
				</split>
			</split>
			<split pos="right">
				<output> -0.0934414193034172 </output>
			</split>
		</split>
	</tree>
	<tree id="33" weight="0.1">
		<split>
			<feature> 10 </feature>
			<threshold> 0.10989011 </threshold>
			<split pos="left">
				<feature> 36 </feature>
				<threshold> 0.1640625 </threshold>
				<split pos="left">
					<feature> 5 </feature>
					<threshold> 0.93359375 </threshold>
					<split pos="left">
						<feature> 1 </feature>
						<threshold> 0.0 </threshold>
						<split pos="left">
							<output> -0.00346063869073987 </output>
						</split>
						<split pos="right">
							<output> 0.14118137955665588 </output>
						</split>
					</split>
					<split pos="right">
						<feature> 24 </feature>
						<threshold> 0.2 </threshold>
						<split pos="left">
							<feature> 41 </feature>
							<threshold> 0.921875 </threshold>
							<split pos="left">
								<output> 0.21671062707901 </output>
							</split>
							<split pos="right">
								<output> 0.10766024887561798 </output>
							</split>
						</split>
						<split pos="right">
							<feature> 41 </feature>
							<threshold> 0.4453125 </threshold>
							<split pos="left">
								<output> 0.3315107226371765 </output>
							</split>
							<split pos="right">
								<feature> 6 </feature>
								<threshold> 0.99609375 </threshold>
								<split pos="left">
									<output> -0.004149610176682472 </output>
								</split>
								<split pos="right">
									<output> 0.1084594801068306 </output>
								</split>
							</split>
						</split>
					</split>
				</split>
				<split pos="right">
					<feature> 3 </feature>
					<threshold> 0.0 </threshold>
					<split pos="left">
						<output> -0.05421900749206543 </output>
					</split>
					<split pos="right">
						<output> 0.07454152405261993 </output>
					</split>
				</split>
			</split>
			<split pos="right">
				<output> -0.20008189976215363 </output>
			</split>
		</split>
	</tree>
	<tree id="34" weight="0.1">
		<split>
			<feature> 13 </feature>
			<threshold> 1.8950162E-4 </threshold>
			<split pos="left">
				<feature> 7 </feature>
				<threshold> 0.015625 </threshold>
				<split pos="left">
					<feature> 9 </feature>
					<threshold> 0.0 </threshold>
					<split pos="left">
						<output> -0.10009501874446869 </output>
					</split>
					<split pos="right">
						<feature> 11 </feature>
						<threshold> 0.0 </threshold>
						<split pos="left">
							<feature> 41 </feature>
							<threshold> 0.96484375 </threshold>
							<split pos="left">
								<feature> 19 </feature>
								<threshold> 0.11694432 </threshold>
								<split pos="left">
									<output> 0.10895853489637375 </output>
								</split>
								<split pos="right">
									<output> 0.5901792049407959 </output>
								</split>
							</split>
							<split pos="right">
								<output> -0.039535779505968094 </output>
							</split>
						</split>
						<split pos="right">
							<output> -0.0903310552239418 </output>
						</split>
					</split>
				</split>
				<split pos="right">
					<feature> 24 </feature>
					<threshold> 0.08 </threshold>
					<split pos="left">
						<output> 0.364928662776947 </output>
					</split>
					<split pos="right">
						<output> 0.12905722856521606 </output>
					</split>
				</split>
			</split>
			<split pos="right">
				<feature> 39 </feature>
				<threshold> 0.42201534 </threshold>
				<split pos="left">
					<feature> 2 </feature>
					<threshold> 0.0 </threshold>
					<split pos="left">
						<output> 0.06853456795215607 </output>
					</split>
					<split pos="right">
						<output> -0.10243085026741028 </output>
					</split>
				</split>
				<split pos="right">
					<output> -0.16217097640037537 </output>
				</split>
			</split>
		</split>
	</tree>
	<tree id="35" weight="0.1">
		<split>
			<feature> 11 </feature>
			<threshold> 0.010309278 </threshold>
			<split pos="left">
				<feature> 17 </feature>
				<threshold> 0.0 </threshold>
				<split pos="left">
					<output> 0.3042656481266022 </output>
				</split>
				<split pos="right">
					<feature> 9 </feature>
					<threshold> 0.0 </threshold>
					<split pos="left">
						<output> -0.06562101095914841 </output>
					</split>
					<split pos="right">
						<feature> 24 </feature>
						<threshold> 0.24 </threshold>
						<split pos="left">
							<feature> 10 </feature>
							<threshold> 0.0 </threshold>
							<split pos="left">
								<output> 0.16776449978351593 </output>
							</split>
							<split pos="right">
								<feature> 5 </feature>
								<threshold> 0.9453125 </threshold>
								<split pos="left">
									<output> -0.011059089563786983 </output>
								</split>
								<split pos="right">
									<output> 0.11495749652385712 </output>
								</split>
							</split>
						</split>
						<split pos="right">
							<feature> 18 </feature>
							<threshold> 0.74090004 </threshold>
							<split pos="left">
								<feature> 16 </feature>
								<threshold> 0.125 </threshold>
								<split pos="left">
									<feature> 10 </feature>
									<threshold> 0.12087912 </threshold>
									<split pos="left">
										<output> 0.036936014890670776 </output>
									</split>
									<split pos="right">
										<output> -0.3187572658061981 </output>
									</split>
								</split>
								<split pos="right">
									<output> -0.13289955258369446 </output>
								</split>
							</split>
							<split pos="right">
								<output> -0.4388761818408966 </output>
							</split>
						</split>
					</split>
				</split>
			</split>
			<split pos="right">
				<output> -0.1979023814201355 </output>
			</split>
		</split>
	</tree>
	<tree id="36" weight="0.1">
		<split>
			<feature> 44 </feature>
			<threshold> 0.26798466 </threshold>
			<split pos="left">
				<feature> 6 </feature>
				<threshold> 0.99609375 </threshold>
				<split pos="left">
					<output> 0.01407400332391262 </output>
				</split>
				<split pos="right">
					<feature> 16 </feature>
					<threshold> 0.125 </threshold>
					<split pos="left">
						<feature> 33 </feature>
						<threshold> 0.2486816 </threshold>
						<split pos="left">
							<feature> 7 </feature>
							<threshold> 0.0078125 </threshold>
							<split pos="left">
								<output> 0.03370080888271332 </output>
							</split>
							<split pos="right">
								<feature> 21 </feature>
								<threshold> 0.22048448 </threshold>
								<split pos="left">
									<output> 0.17282062768936157 </output>
								</split>
								<split pos="right">
									<output> -0.12135451287031174 </output>
								</split>
							</split>
						</split>
						<split pos="right">
							<output> 0.2842251658439636 </output>
						</split>
					</split>
					<split pos="right">
						<output> -0.021611934527754784 </output>
					</split>
				</split>
			</split>
			<split pos="right">
				<feature> 10 </feature>
				<threshold> 0.043956045 </threshold>
				<split pos="left">
					<feature> 15 </feature>
					<threshold> 0.043750953 </threshold>
					<split pos="left">
						<feature> 3 </feature>
						<threshold> 0.0 </threshold>
						<split pos="left">
							<output> -0.04149984195828438 </output>
						</split>
						<split pos="right">
							<output> 0.06914940476417542 </output>
						</split>
					</split>
					<split pos="right">
						<output> 1.0953962802886963 </output>
					</split>
				</split>
				<split pos="right">
					<output> -0.15778762102127075 </output>
				</split>
			</split>
		</split>
	</tree>
	<tree id="37" weight="0.1">
		<split>
			<feature> 13 </feature>
			<threshold> 1.8950162E-4 </threshold>
			<split pos="left">
				<feature> 17 </feature>
				<threshold> 0.0049668876 </threshold>
				<split pos="left">
					<output> 0.2004728615283966 </output>
				</split>
				<split pos="right">
					<feature> 9 </feature>
					<threshold> 0.0 </threshold>
					<split pos="left">
						<output> -0.08992763608694077 </output>
					</split>
					<split pos="right">
						<feature> 14 </feature>
						<threshold> 0.0 </threshold>
						<split pos="left">
							<output> 0.3114100694656372 </output>
						</split>
						<split pos="right">
							<feature> 24 </feature>
							<threshold> 0.2 </threshold>
							<split pos="left">
								<feature> 25 </feature>
								<threshold> 0.0 </threshold>
								<split pos="left">
									<output> 0.2040090262889862 </output>
								</split>
								<split pos="right">
									<output> 0.07829014956951141 </output>
								</split>
							</split>
							<split pos="right">
								<output> 0.02431039698421955 </output>
							</split>
						</split>
					</split>
				</split>
			</split>
			<split pos="right">
				<feature> 39 </feature>
				<threshold> 0.42201534 </threshold>
				<split pos="left">
					<feature> 2 </feature>
					<threshold> 0.0 </threshold>
					<split pos="left">
						<feature> 19 </feature>
						<threshold> 0.1583621 </threshold>
						<split pos="left">
							<output> 0.040142495185136795 </output>
						</split>
						<split pos="right">
							<output> 0.5630694627761841 </output>
						</split>
					</split>
					<split pos="right">
						<output> -0.09766535460948944 </output>
					</split>
				</split>
				<split pos="right">
					<output> -0.14739304780960083 </output>
				</split>
			</split>
		</split>
	</tree>
	<tree id="38" weight="0.1">
		<split>
			<feature> 25 </feature>
			<threshold> 0.00390625 </threshold>
			<split pos="left">
				<feature> 5 </feature>
				<threshold> 0.93359375 </threshold>
				<split pos="left">
					<output> -4.545579431578517E-4 </output>
				</split>
				<split pos="right">
					<feature> 14 </feature>
					<threshold> 0.0 </threshold>
					<split pos="left">
						<output> 0.32416319847106934 </output>
					</split>
					<split pos="right">
						<feature> 35 </feature>
						<threshold> 0.203125 </threshold>
						<split pos="left">
							<feature> 41 </feature>
							<threshold> 0.4296875 </threshold>
							<split pos="left">
								<output> 0.27598869800567627 </output>
							</split>
							<split pos="right">
								<feature> 9 </feature>
								<threshold> 0.0 </threshold>
								<split pos="left">
									<output> -0.029080891981720924 </output>
								</split>
								<split pos="right">
									<feature> 10 </feature>
									<threshold> 0.16483517 </threshold>
									<split pos="left">
										<feature> 24 </feature>
										<threshold> 0.08 </threshold>
										<split pos="left">
											<output> 0.18801747262477875 </output>
										</split>
										<split pos="right">
											<feature> 19 </feature>
											<threshold> 0.09501726 </threshold>
											<split pos="left">
												<output> 0.07116363197565079 </output>
											</split>
											<split pos="right">
												<output> 0.2198273241519928 </output>
											</split>
										</split>
									</split>
									<split pos="right">
										<output> -0.33962246775627136 </output>
									</split>
								</split>
							</split>
						</split>
						<split pos="right">
							<output> -0.0454031303524971 </output>
						</split>
					</split>
				</split>
			</split>
			<split pos="right">
				<output> -0.13542504608631134 </output>
			</split>
		</split>
	</tree>
	<tree id="39" weight="0.1">
		<split>
			<feature> 13 </feature>
			<threshold> 1.8950162E-4 </threshold>
			<split pos="left">
				<feature> 24 </feature>
				<threshold> 0.28 </threshold>
				<split pos="left">
					<feature> 7 </feature>
					<threshold> 0.0390625 </threshold>
					<split pos="left">
						<feature> 1 </feature>
						<threshold> 0.0 </threshold>
						<split pos="left">
							<feature> 5 </feature>
							<threshold> 0.94921875 </threshold>
							<split pos="left">
								<output> -0.017097802832722664 </output>
							</split>
							<split pos="right">
								<output> 0.08244272321462631 </output>
							</split>
						</split>
						<split pos="right">
							<output> 0.13469059765338898 </output>
						</split>
					</split>
					<split pos="right">
						<output> 0.15364192426204681 </output>
					</split>
				</split>
				<split pos="right">
					<output> -0.005764903035014868 </output>
				</split>
			</split>
			<split pos="right">
				<feature> 15 </feature>
				<threshold> 0.043750953 </threshold>
				<split pos="left">
					<feature> 39 </feature>
					<threshold> 0.42201534 </threshold>
					<split pos="left">
						<feature> 2 </feature>
						<threshold> 0.0 </threshold>
						<split pos="left">
							<feature> 30 </feature>
							<threshold> 0.0 </threshold>
							<split pos="left">
								<output> 0.03961654379963875 </output>
							</split>
							<split pos="right">
								<output> -0.6368268132209778 </output>
							</split>
						</split>
						<split pos="right">
							<output> -0.09328442066907883 </output>
						</split>
					</split>
					<split pos="right">
						<output> -0.14482444524765015 </output>
					</split>
				</split>
				<split pos="right">
					<output> 0.7613705396652222 </output>
				</split>
			</split>
		</split>
	</tree>
	<tree id="40" weight="0.1">
		<split>
			<feature> 10 </feature>
			<threshold> 0.12087912 </threshold>
			<split pos="left">
				<feature> 17 </feature>
				<threshold> 0.02152318 </threshold>
				<split pos="left">
					<feature> 32 </feature>
					<threshold> 0.20193559 </threshold>
					<split pos="left">
						<output> 0.07461797446012497 </output>
					</split>
					<split pos="right">
						<output> 0.22715193033218384 </output>
					</split>
				</split>
				<split pos="right">
					<feature> 10 </feature>
					<threshold> 0.0 </threshold>
					<split pos="left">
						<output> 0.08005228638648987 </output>
					</split>
					<split pos="right">
						<feature> 41 </feature>
						<threshold> 0.59375 </threshold>
						<split pos="left">
							<output> -0.5935867428779602 </output>
						</split>
						<split pos="right">
							<feature> 43 </feature>
							<threshold> 0.22319531 </threshold>
							<split pos="left">
								<feature> 36 </feature>
								<threshold> 0.3125 </threshold>
								<split pos="left">
									<feature> 36 </feature>
									<threshold> 0.2578125 </threshold>
									<split pos="left">
										<feature> 42 </feature>
										<threshold> 0.95703125 </threshold>
										<split pos="left">
											<output> 0.026633789762854576 </output>
										</split>
										<split pos="right">
											<output> -0.09743320196866989 </output>
										</split>
									</split>
									<split pos="right">
										<output> -0.1458570659160614 </output>
									</split>
								</split>
								<split pos="right">
									<output> 0.16692319512367249 </output>
								</split>
							</split>
							<split pos="right">
								<output> -0.13846330344676971 </output>
							</split>
						</split>
					</split>
				</split>
			</split>
			<split pos="right">
				<output> -0.18687088787555695 </output>
			</split>
		</split>
	</tree>
	<tree id="41" weight="0.1">
		<split>
			<feature> 25 </feature>
			<threshold> 0.00390625 </threshold>
			<split pos="left">
				<feature> 6 </feature>
				<threshold> 0.99609375 </threshold>
				<split pos="left">
					<feature> 42 </feature>
					<threshold> 0.98046875 </threshold>
					<split pos="left">
						<feature> 42 </feature>
						<threshold> 0.9765625 </threshold>
						<split pos="left">
							<output> -0.01623525843024254 </output>
						</split>
						<split pos="right">
							<output> -0.525376558303833 </output>
						</split>
					</split>
					<split pos="right">
						<output> 0.21762606501579285 </output>
					</split>
				</split>
				<split pos="right">
					<feature> 35 </feature>
					<threshold> 0.203125 </threshold>
					<split pos="left">
						<feature> 7 </feature>
						<threshold> 0.00390625 </threshold>
						<split pos="left">
							<output> 0.020372524857521057 </output>
						</split>
						<split pos="right">
							<feature> 13 </feature>
							<threshold> 7.5800647E-4 </threshold>
							<split pos="left">
								<feature> 16 </feature>
								<threshold> 0.25 </threshold>
								<split pos="left">
									<feature> 23 </feature>
									<threshold> 0.09090909 </threshold>
									<split pos="left">
										<output> 0.10762397944927216 </output>
									</split>
									<split pos="right">
										<output> 0.2294386625289917 </output>
									</split>
								</split>
								<split pos="right">
									<output> -0.17081008851528168 </output>
								</split>
							</split>
							<split pos="right">
								<output> -0.011214219965040684 </output>
							</split>
						</split>
					</split>
					<split pos="right">
						<output> -0.04184810072183609 </output>
					</split>
				</split>
			</split>
			<split pos="right">
				<output> -0.12070855498313904 </output>
			</split>
		</split>
	</tree>
	<tree id="42" weight="0.1">
		<split>
			<feature> 17 </feature>
			<threshold> 0.0016556291 </threshold>
			<split pos="left">
				<output> 0.16098961234092712 </output>
			</split>
			<split pos="right">
				<feature> 9 </feature>
				<threshold> 0.0 </threshold>
				<split pos="left">
					<output> -0.0882614329457283 </output>
				</split>
				<split pos="right">
					<feature> 10 </feature>
					<threshold> 0.12087912 </threshold>
					<split pos="left">
						<feature> 15 </feature>
						<threshold> 0.043750953 </threshold>
						<split pos="left">
							<feature> 24 </feature>
							<threshold> 0.12 </threshold>
							<split pos="left">
								<output> 0.09024662524461746 </output>
							</split>
							<split pos="right">
								<feature> 14 </feature>
								<threshold> 0.0 </threshold>
								<split pos="left">
									<output> 0.24024878442287445 </output>
								</split>
								<split pos="right">
									<feature> 18 </feature>
									<threshold> 0.7960367 </threshold>
									<split pos="left">
										<feature> 5 </feature>
										<threshold> 0.90625 </threshold>
										<split pos="left">
											<output> -0.047453321516513824 </output>
										</split>
										<split pos="right">
											<feature> 25 </feature>
											<threshold> 0.00390625 </threshold>
											<split pos="left">
												<output> 0.036982934921979904 </output>
											</split>
											<split pos="right">
												<output> -0.12882478535175323 </output>
											</split>
										</split>
									</split>
									<split pos="right">
										<output> -0.30519556999206543 </output>
									</split>
								</split>
							</split>
						</split>
						<split pos="right">
							<output> 0.8596258163452148 </output>
						</split>
					</split>
					<split pos="right">
						<output> -0.184278205037117 </output>
					</split>
				</split>
			</split>
		</split>
	</tree>
	<tree id="43" weight="0.1">
		<split>
			<feature> 11 </feature>
			<threshold> 0.010309278 </threshold>
			<split pos="left">
				<feature> 4 </feature>
				<threshold> 0.0 </threshold>
				<split pos="left">
					<feature> 24 </feature>
					<threshold> 0.28 </threshold>
					<split pos="left">
						<feature> 17 </feature>
						<threshold> 0.0 </threshold>
						<split pos="left">
							<output> 0.23493534326553345 </output>
						</split>
						<split pos="right">
							<feature> 10 </feature>
							<threshold> 0.0 </threshold>
							<split pos="left">
								<output> 0.08628003299236298 </output>
							</split>
							<split pos="right">
								<feature> 38 </feature>
								<threshold> 0.18240081 </threshold>
								<split pos="left">
									<output> 0.10804937034845352 </output>
								</split>
								<split pos="right">
									<feature> 9 </feature>
									<threshold> 0.0 </threshold>
									<split pos="left">
										<output> -0.12826387584209442 </output>
									</split>
									<split pos="right">
										<feature> 34 </feature>
										<threshold> 0.033163402 </threshold>
										<split pos="left">
											<output> -0.23510271310806274 </output>
										</split>
										<split pos="right">
											<feature> 5 </feature>
											<threshold> 0.9453125 </threshold>
											<split pos="left">
												<output> -0.02704799734055996 </output>
											</split>
											<split pos="right">
												<output> 0.04842362925410271 </output>
											</split>
										</split>
									</split>
								</split>
							</split>
						</split>
					</split>
					<split pos="right">
						<output> -0.027209438383579254 </output>
					</split>
				</split>
				<split pos="right">
					<output> -0.39791974425315857 </output>
				</split>
			</split>
			<split pos="right">
				<output> -0.16077837347984314 </output>
			</split>
		</split>
	</tree>
	<tree id="44" weight="0.1">
		<split>
			<feature> 13 </feature>
			<threshold> 1.8950162E-4 </threshold>
			<split pos="left">
				<feature> 39 </feature>
				<threshold> 0.0819742 </threshold>
				<split pos="left">
					<output> 0.18992146849632263 </output>
				</split>
				<split pos="right">
					<feature> 39 </feature>
					<threshold> 0.09108245 </threshold>
					<split pos="left">
						<output> -0.15566352009773254 </output>
					</split>
					<split pos="right">
						<feature> 25 </feature>
						<threshold> 0.0 </threshold>
						<split pos="left">
							<output> 0.11065494269132614 </output>
						</split>
						<split pos="right">
							<feature> 42 </feature>
							<threshold> 0.96484375 </threshold>
							<split pos="left">
								<feature> 44 </feature>
								<threshold> 0.26798466 </threshold>
								<split pos="left">
									<output> 0.07526729255914688 </output>
								</split>
								<split pos="right">
									<output> -0.00522977439686656 </output>
								</split>
							</split>
							<split pos="right">
								<output> -0.11420793831348419 </output>
							</split>
						</split>
					</split>
				</split>
			</split>
			<split pos="right">
				<feature> 15 </feature>
				<threshold> 0.043750953 </threshold>
				<split pos="left">
					<feature> 38 </feature>
					<threshold> 0.43465686 </threshold>
					<split pos="left">
						<feature> 19 </feature>
						<threshold> 0.18516184 </threshold>
						<split pos="left">
							<output> -6.368643953464925E-4 </output>
						</split>
						<split pos="right">
							<output> 0.6669151186943054 </output>
						</split>
					</split>
					<split pos="right">
						<output> -0.09065651893615723 </output>
					</split>
				</split>
				<split pos="right">
					<output> 0.6112332344055176 </output>
				</split>
			</split>
		</split>
	</tree>
	<tree id="45" weight="0.1">
		<split>
			<feature> 14 </feature>
			<threshold> 0.0 </threshold>
			<split pos="left">
				<output> 0.2052653282880783 </output>
			</split>
			<split pos="right">
				<feature> 17 </feature>
				<threshold> 0.0 </threshold>
				<split pos="left">
					<output> 0.17485380172729492 </output>
				</split>
				<split pos="right">
					<feature> 9 </feature>
					<threshold> 0.0 </threshold>
					<split pos="left">
						<output> -0.0744812935590744 </output>
					</split>
					<split pos="right">
						<feature> 10 </feature>
						<threshold> 0.10989011 </threshold>
						<split pos="left">
							<feature> 15 </feature>
							<threshold> 0.043750953 </threshold>
							<split pos="left">
								<feature> 24 </feature>
								<threshold> 0.12 </threshold>
								<split pos="left">
									<output> 0.07075400650501251 </output>
								</split>
								<split pos="right">
									<feature> 17 </feature>
									<threshold> 0.028145695 </threshold>
									<split pos="left">
										<output> 0.047292258590459824 </output>
									</split>
									<split pos="right">
										<feature> 44 </feature>
										<threshold> 0.20341018 </threshold>
										<split pos="left">
											<output> -2.4027538299560547 </output>
										</split>
										<split pos="right">
											<feature> 18 </feature>
											<threshold> 0.7960367 </threshold>
											<split pos="left">
												<output> -0.00983673520386219 </output>
											</split>
											<split pos="right">
												<output> -0.273895800113678 </output>
											</split>
										</split>
									</split>
								</split>
							</split>
							<split pos="right">
								<output> 0.7096256017684937 </output>
							</split>
						</split>
						<split pos="right">
							<output> -0.14905835688114166 </output>
						</split>
					</split>
				</split>
			</split>
		</split>
	</tree>
	<tree id="46" weight="0.1">
		<split>
			<feature> 2 </feature>
			<threshold> 0.0 </threshold>
			<split pos="left">
				<feature> 23 </feature>
				<threshold> 0.18181819 </threshold>
				<split pos="left">
					<feature> 24 </feature>
					<threshold> 0.28 </threshold>
					<split pos="left">
						<feature> 10 </feature>
						<threshold> 0.0 </threshold>
						<split pos="left">
							<feature> 42 </feature>
							<threshold> 0.98046875 </threshold>
							<split pos="left">
								<feature> 13 </feature>
								<threshold> 0.0 </threshold>
								<split pos="left">
									<output> 0.8967292308807373 </output>
								</split>
								<split pos="right">
									<output> 0.08214346319437027 </output>
								</split>
							</split>
							<split pos="right">
								<output> 0.41823962330818176 </output>
							</split>
						</split>
						<split pos="right">
							<feature> 42 </feature>
							<threshold> 0.92578125 </threshold>
							<split pos="left">
								<feature> 37 </feature>
								<threshold> 0.29919404 </threshold>
								<split pos="left">
									<feature> 17 </feature>
									<threshold> 0.08609272 </threshold>
									<split pos="left">
										<output> 0.08100473880767822 </output>
									</split>
									<split pos="right">
										<output> 0.5553581118583679 </output>
									</split>
								</split>
								<split pos="right">
									<output> -0.020128166303038597 </output>
								</split>
							</split>
							<split pos="right">
								<output> -0.07699932157993317 </output>
							</split>
						</split>
					</split>
					<split pos="right">
						<output> -0.019329531118273735 </output>
					</split>
				</split>
				<split pos="right">
					<output> -0.0935523733496666 </output>
				</split>
			</split>
			<split pos="right">
				<output> -0.03767436742782593 </output>
			</split>
		</split>
	</tree>
	<tree id="47" weight="0.1">
		<split>
			<feature> 13 </feature>
			<threshold> 1.8950162E-4 </threshold>
			<split pos="left">
				<feature> 6 </feature>
				<threshold> 0.9921875 </threshold>
				<split pos="left">
					<output> -0.006162799429148436 </output>
				</split>
				<split pos="right">
					<feature> 24 </feature>
					<threshold> 0.04 </threshold>
					<split pos="left">
						<output> 0.19531257450580597 </output>
					</split>
					<split pos="right">
						<feature> 35 </feature>
						<threshold> 0.203125 </threshold>
						<split pos="left">
							<feature> 19 </feature>
							<threshold> 0.09501726 </threshold>
							<split pos="left">
								<feature> 16 </feature>
								<threshold> 0.25 </threshold>
								<split pos="left">
									<feature> 4 </feature>
									<threshold> 0.0 </threshold>
									<split pos="left">
										<feature> 7 </feature>
										<threshold> 0.08203125 </threshold>
										<split pos="left">
											<output> 0.06921621412038803 </output>
										</split>
										<split pos="right">
											<output> -0.02158481441438198 </output>
										</split>
									</split>
									<split pos="right">
										<output> -0.41917961835861206 </output>
									</split>
								</split>
								<split pos="right">
									<output> -0.12052871286869049 </output>
								</split>
							</split>
							<split pos="right">
								<output> 0.2175387144088745 </output>
							</split>
						</split>
						<split pos="right">
							<output> -0.03909878432750702 </output>
						</split>
					</split>
				</split>
			</split>
			<split pos="right">
				<feature> 10 </feature>
				<threshold> 0.010989011 </threshold>
				<split pos="left">
					<output> 0.017800679430365562 </output>
				</split>
				<split pos="right">
					<output> -0.059775084257125854 </output>
				</split>
			</split>
		</split>
	</tree>
	<tree id="48" weight="0.1">
		<split>
			<feature> 28 </feature>
			<threshold> 0.0 </threshold>
			<split pos="left">
				<feature> 2 </feature>
				<threshold> 0.0 </threshold>
				<split pos="left">
					<feature> 23 </feature>
					<threshold> 0.18181819 </threshold>
					<split pos="left">
						<feature> 14 </feature>
						<threshold> 0.03515625 </threshold>
						<split pos="left">
							<feature> 24 </feature>
							<threshold> 0.28 </threshold>
							<split pos="left">
								<feature> 25 </feature>
								<threshold> 0.0 </threshold>
								<split pos="left">
									<output> 0.10465297102928162 </output>
								</split>
								<split pos="right">
									<feature> 42 </feature>
									<threshold> 0.92578125 </threshold>
									<split pos="left">
										<feature> 42 </feature>
										<threshold> 0.890625 </threshold>
										<split pos="left">
											<feature> 25 </feature>
											<threshold> 0.00390625 </threshold>
											<split pos="left">
												<output> 0.04242437332868576 </output>
											</split>
											<split pos="right">
												<output> -0.11936315149068832 </output>
											</split>
										</split>
										<split pos="right">
											<output> 0.19961434602737427 </output>
										</split>
									</split>
									<split pos="right">
										<output> -0.040915410965681076 </output>
									</split>
								</split>
							</split>
							<split pos="right">
								<output> -0.01868439093232155 </output>
							</split>
						</split>
						<split pos="right">
							<output> 0.5439953207969666 </output>
						</split>
					</split>
					<split pos="right">
						<output> -0.08236950635910034 </output>
					</split>
				</split>
				<split pos="right">
					<output> -0.0319160558283329 </output>
				</split>
			</split>
			<split pos="right">
				<output> -0.19018399715423584 </output>
			</split>
		</split>
	</tree>
	<tree id="49" weight="0.1">
		<split>
			<feature> 14 </feature>
			<threshold> 0.0 </threshold>
			<split pos="left">
				<output> 0.17125830054283142 </output>
			</split>
			<split pos="right">
				<feature> 4 </feature>
				<threshold> 0.0 </threshold>
				<split pos="left">
					<feature> 18 </feature>
					<threshold> 0.7719144 </threshold>
					<split pos="left">
						<feature> 19 </feature>
						<threshold> 0.2070889 </threshold>
						<split pos="left">
							<feature> 31 </feature>
							<threshold> 0.021503976 </threshold>
							<split pos="left">
								<output> 0.1695263534784317 </output>
							</split>
							<split pos="right">
								<feature> 9 </feature>
								<threshold> 0.0 </threshold>
								<split pos="left">
									<output> -0.06993333995342255 </output>
								</split>
								<split pos="right">
									<feature> 11 </feature>
									<threshold> 0.010309278 </threshold>
									<split pos="left">
										<feature> 39 </feature>
										<threshold> 0.09108245 </threshold>
										<split pos="left">
											<output> -0.07211057841777802 </output>
										</split>
										<split pos="right">
											<feature> 16 </feature>
											<threshold> 0.25 </threshold>
											<split pos="left">
												<output> 0.03380798548460007 </output>
											</split>
											<split pos="right">
												<output> -0.11807142943143845 </output>
											</split>
										</split>
									</split>
									<split pos="right">
										<output> -0.1213691383600235 </output>
									</split>
								</split>
							</split>
						</split>
						<split pos="right">
							<output> 0.5881105065345764 </output>
						</split>
					</split>
					<split pos="right">
						<output> -0.19420559704303741 </output>
					</split>
				</split>
				<split pos="right">
					<output> -0.32328492403030396 </output>
				</split>
			</split>
		</split>
	</tree>
	<tree id="50" weight="0.1">
		<split>
			<feature> 6 </feature>
			<threshold> 0.99609375 </threshold>
			<split pos="left">
				<feature> 7 </feature>
				<threshold> 0.08984375 </threshold>
				<split pos="left">
					<feature> 10 </feature>
					<threshold> 0.032967035 </threshold>
					<split pos="left">
						<output> 0.004650210961699486 </output>
					</split>
					<split pos="right">
						<output> -0.10121577978134155 </output>
					</split>
				</split>
				<split pos="right">
					<output> -0.323952853679657 </output>
				</split>
			</split>
			<split pos="right">
				<feature> 44 </feature>
				<threshold> 0.26798466 </threshold>
				<split pos="left">
					<feature> 35 </feature>
					<threshold> 0.16796875 </threshold>
					<split pos="left">
						<feature> 40 </feature>
						<threshold> 0.59862834 </threshold>
						<split pos="left">
							<feature> 20 </feature>
							<threshold> 0.23746438 </threshold>
							<split pos="left">
								<feature> 19 </feature>
								<threshold> 0.014618044 </threshold>
								<split pos="left">
									<feature> 7 </feature>
									<threshold> 0.02734375 </threshold>
									<split pos="left">
										<output> -0.005228669382631779 </output>
									</split>
									<split pos="right">
										<output> 0.09007856249809265 </output>
									</split>
								</split>
								<split pos="right">
									<output> 0.14950355887413025 </output>
								</split>
							</split>
							<split pos="right">
								<output> -0.11479965597391129 </output>
							</split>
						</split>
						<split pos="right">
							<output> 0.42145705223083496 </output>
						</split>
					</split>
					<split pos="right">
						<output> 0.23455826938152313 </output>
					</split>
				</split>
				<split pos="right">
					<output> -0.013659651391208172 </output>
				</split>
			</split>
		</split>
	</tree>
	<tree id="51" weight="0.1">
		<split>
			<feature> 13 </feature>
			<threshold> 1.8950162E-4 </threshold>
			<split pos="left">
				<feature> 39 </feature>
				<threshold> 0.0819742 </threshold>
				<split pos="left">
					<output> 0.1575300395488739 </output>
				</split>
				<split pos="right">
					<feature> 39 </feature>
					<threshold> 0.09108245 </threshold>
					<split pos="left">
						<output> -0.15180689096450806 </output>
					</split>
					<split pos="right">
						<feature> 9 </feature>
						<threshold> 0.0 </threshold>
						<split pos="left">
							<output> -0.05581032484769821 </output>
						</split>
						<split pos="right">
							<feature> 14 </feature>
							<threshold> 0.0 </threshold>
							<split pos="left">
								<output> 0.1734493225812912 </output>
							</split>
							<split pos="right">
								<feature> 18 </feature>
								<threshold> 0.78914464 </threshold>
								<split pos="left">
									<feature> 4 </feature>
									<threshold> 0.0 </threshold>
									<split pos="left">
										<feature> 19 </feature>
										<threshold> 0.14374407 </threshold>
										<split pos="left">
											<feature> 21 </feature>
											<threshold> 0.6373379 </threshold>
											<split pos="left">
												<output> 0.03572029620409012 </output>
											</split>
											<split pos="right">
												<output> -1.025848150253296 </output>
											</split>
										</split>
										<split pos="right">
											<output> 0.22452935576438904 </output>
										</split>
									</split>
									<split pos="right">
										<output> -0.35248348116874695 </output>
									</split>
								</split>
								<split pos="right">
									<output> -0.24141599237918854 </output>
								</split>
							</split>
						</split>
					</split>
				</split>
			</split>
			<split pos="right">
				<output> -0.01906224898993969 </output>
			</split>
		</split>
	</tree>
	<tree id="52" weight="0.1">
		<split>
			<feature> 17 </feature>
			<threshold> 0.0 </threshold>
			<split pos="left">
				<output> 0.13859403133392334 </output>
			</split>
			<split pos="right">
				<feature> 21 </feature>
				<threshold> 0.013780273 </threshold>
				<split pos="left">
					<feature> 42 </feature>
					<threshold> 0.96484375 </threshold>
					<split pos="left">
						<feature> 39 </feature>
						<threshold> 0.35522154 </threshold>
						<split pos="left">
							<output> 0.016986090689897537 </output>
						</split>
						<split pos="right">
							<output> -0.07725109905004501 </output>
						</split>
					</split>
					<split pos="right">
						<output> -0.23243054747581482 </output>
					</split>
				</split>
				<split pos="right">
					<feature> 36 </feature>
					<threshold> 0.42578125 </threshold>
					<split pos="left">
						<feature> 24 </feature>
						<threshold> 0.08 </threshold>
						<split pos="left">
							<output> 0.11200594156980515 </output>
						</split>
						<split pos="right">
							<feature> 15 </feature>
							<threshold> 0.0 </threshold>
							<split pos="left">
								<output> 0.08668933808803558 </output>
							</split>
							<split pos="right">
								<feature> 6 </feature>
								<threshold> 0.9921875 </threshold>
								<split pos="left">
									<output> -0.12872794270515442 </output>
								</split>
								<split pos="right">
									<feature> 20 </feature>
									<threshold> 0.7743404 </threshold>
									<split pos="left">
										<output> 0.02289910614490509 </output>
									</split>
									<split pos="right">
										<output> -0.21123509109020233 </output>
									</split>
								</split>
							</split>
						</split>
					</split>
					<split pos="right">
						<output> 0.5601551532745361 </output>
					</split>
				</split>
			</split>
		</split>
	</tree>
	<tree id="53" weight="0.1">
		<split>
			<feature> 28 </feature>
			<threshold> 0.0 </threshold>
			<split pos="left">
				<feature> 2 </feature>
				<threshold> 0.0 </threshold>
				<split pos="left">
					<feature> 10 </feature>
					<threshold> 0.17582418 </threshold>
					<split pos="left">
						<feature> 14 </feature>
						<threshold> 0.03515625 </threshold>
						<split pos="left">
							<feature> 14 </feature>
							<threshold> 0.0 </threshold>
							<split pos="left">
								<output> 0.17151020467281342 </output>
							</split>
							<split pos="right">
								<feature> 12 </feature>
								<threshold> 0.13671875 </threshold>
								<split pos="left">
									<feature> 25 </feature>
									<threshold> 0.00390625 </threshold>
									<split pos="left">
										<feature> 13 </feature>
										<threshold> 3.7900324E-4 </threshold>
										<split pos="left">
											<feature> 31 </feature>
											<threshold> 0.021503976 </threshold>
											<split pos="left">
												<output> 0.19818638265132904 </output>
											</split>
											<split pos="right">
												<output> 0.031236939132213593 </output>
											</split>
										</split>
										<split pos="right">
											<output> -0.021364223212003708 </output>
										</split>
									</split>
									<split pos="right">
										<output> -0.0925997942686081 </output>
									</split>
								</split>
								<split pos="right">
									<output> -2.0533390045166016 </output>
								</split>
							</split>
						</split>
						<split pos="right">
							<output> 0.472767174243927 </output>
						</split>
					</split>
					<split pos="right">
						<output> -0.2699946463108063 </output>
					</split>
				</split>
				<split pos="right">
					<output> -0.03238970786333084 </output>
				</split>
			</split>
			<split pos="right">
				<output> -0.1688866913318634 </output>
			</split>
		</split>
	</tree>
	<tree id="54" weight="0.1">
		<split>
			<feature> 24 </feature>
			<threshold> 0.24 </threshold>
			<split pos="left">
				<feature> 10 </feature>
				<threshold> 0.0 </threshold>
				<split pos="left">
					<feature> 42 </feature>
					<threshold> 0.98046875 </threshold>
					<split pos="left">
						<feature> 42 </feature>
						<threshold> 0.9765625 </threshold>
						<split pos="left">
							<feature> 7 </feature>
							<threshold> 0.03125 </threshold>
