network unknown {
}
variable accept_num {
    type discrete [ 5 ] { 0, 1, 2, 3, 4 };
}
variable author_identity {
    type discrete [ 3 ] { 0, 1, 2 };
}
variable body_words {
    type discrete [ 5 ] { 0, 1, 2, 3, 4 };
}
variable change_num {
    type discrete [ 5 ] { 0, 1, 2, 3, 4 };
}
variable close_num {
    type discrete [ 5 ] { 0, 1, 2, 3, 4 };
}
variable comment_num {
    type discrete [ 3 ] { 0, 1, 2 };
}
variable commit_num {
    type discrete [ 4 ] { 0, 1, 2, 4 };
}
variable file_changed_num {
    type discrete [ 5 ] { 0, 1, 2, 3, 4 };
}
variable has_bug {
    type discrete [ 2 ] { 0, 1 };
}
variable has_document {
    type discrete [ 2 ] { 0, 1 };
}
variable has_feature {
    type discrete [ 2 ] { 0, 1 };
}
variable has_improve {
    type discrete [ 2 ] { 0, 1 };
}
variable has_refactor {
    type discrete [ 2 ] { 0, 1 };
}
variable is_weekday {
    type discrete [ 2 ] { 0, 1 };
}
variable mergable_state {
    type discrete [ 2 ] { 0, 2 };
}
variable participants_count {
    type discrete [ 2 ] { 0, 2 };
}
variable pre_prs {
    type discrete [ 5 ] { 0, 1, 2, 3, 4 };
}
variable priorities_number {
    type discrete [ 5 ] { 0, 1, 2, 3, 4 };
}
variable review_comment_num {
    type discrete [ 2 ] { 0, 1 };
}
variable review_num {
    type discrete [ 2 ] { 0, 1 };
}
variable title_words {
    type discrete [ 5 ] { 0, 1, 2, 3, 4 };
}
variable total_add_line {
    type discrete [ 5 ] { 0, 1, 2, 3, 4 };
}
variable total_delete_line {
    type discrete [ 4 ] { 0, 1, 2, 3 };
}
variable workload {
    type discrete [ 5 ] { 0, 1, 2, 3, 4 };
}
probability ( accept_num | close_num ) {
    table 0.9882352941176469, 0.0018018018018018016, 0.001503759398496241, 0.0015267175572519084, 0.0025, 0.002941176470588235, 0.9567567567567566, 0.03157894736842106, 0.0015267175572519084, 0.0025, 0.002941176470588235, 0.03783783783783783, 0.9413533834586468, 0.0015267175572519084, 0.0025, 0.002941176470588235, 0.0018018018018018016, 0.024060150375939855, 0.8717557251908398, 0.065, 0.002941176470588235, 0.0018018018018018016, 0.001503759398496241, 0.12366412213740458, 0.9275 ;
}
probability ( author_identity ) {
    table 0.9286169534735501, 0.008922880815806247, 0.062460165710643716 ;
}
probability ( body_words | accept_num, author_identity, change_num, commit_num ) {
    table 0.8324549237170595, 0.4996432818073721, 0.12503123698458976, 0.2, 0.2, 0.2, 0.003278688524590163, 0.2, 0.2, 0.2, 0.2, 0.2, 0.2, 0.2, 0.2, 0.2, 0.2, 0.2, 0.2, 0.2, 0.2, 0.2, 0.2, 0.2, 0.2, 0.2, 0.2, 0.2, 0.2, 0.2, 0.2, 0.2, 0.2, 0.2, 0.2, 0.2, 0.2, 0.2, 0.2, 0.2, 0.2, 0.2, 0.2, 0.2, 0.2, 0.2, 0.2, 0.2, 0.2, 0.2, 0.2, 0.2, 0.2, 0.2, 0.2, 0.2, 0.2, 0.2, 0.2, 0.2, 0.2, 0.2, 0.2, 0.2, 0.5712076145151695, 0.27267221801665403, 0.017000847218299916, 0.9868852459016391, 0.2, 0.2, 0.2, 0.2, 0.2, 0.2, 0.2, 0.2, 0.2, 0.2, 0.2, 0.2, 0.2, 0.2, 0.2, 0.2, 0.2, 0.2, 0.2, 0.2, 0.2, 0.2, 0.2, 0.2, 0.2, 0.2, 0.2, 0.2, 0.2, 0.2, 0.2, 0.2, 0.2, 0.2, 0.2, 0.2, 0.2, 0.2, 0.2, 0.2, 0.2, 0.2, 0.2, 0.2, 0.2, 0.2, 0.2, 0.2, 0.2, 0.2, 0.2, 0.2, 0.2, 0.2, 0.2, 0.2, 0.0032786885245901635, 0.4987551867219918, 0.00025608194622279127, 0.2, 0.3075544174135723, 0.3075544174135723, 0.06004665111629457, 0.2, 0.27261724659606656, 0.19999999999999998, 0.00023781212841854937, 0.2, 0.2, 0.2, 0.2, 0.2, 0.2, 0.2, 0.2, 0.2, 0.2, 0.2, 0.2, 0.2, 0.2, 0.2, 0.2, 0.2, 0.2, 0.2, 0.2, 0.2, 0.2, 0.2, 0.2, 0.2, 0.2, 0.2, 0.2, 0.2, 0.2, 0.2, 0.2, 0.2, 0.2, 0.2, 0.2, 0.2, 0.2, 0.2, 0.2, 0.2, 0.2, 0.2, 0.2, 0.2, 0.2, 0.2, 0.2, 0.2, 0.2, 0.2, 0.2, 0.2, 0.7136741973840665, 0.5993344425956738, 0.3996672212978369, 0.2, 0.28120770432066633, 0.00033277870216306157, 0.031337844872462266, 0.0032786885245901635, 0.0016528925619834713, 0.0032786885245901635, 0.0004158004158004159, 0.2, 0.2, 0.2, 0.2, 0.2, 0.2, 0.2, 0.2, 0.2, 0.2, 0.2, 0.2, 0.2, 0.2, 0.2, 0.2, 0.2, 0.2, 0.003278688524590163, 0.9868852459016391, 0.2, 0.2, 0.2, 0.2, 0.2, 0.2, 0.2, 0.2, 0.2, 0.2, 0.2, 0.2, 0.2, 0.2, 0.2, 0.2, 0.2, 0.2, 0.2, 0.2, 0.2, 0.2, 0.2, 0.2, 0.2, 0.2, 0.2, 0.2, 0.2, 0.2, 0.2, 0.2, 0.2, 0.0016528925619834713, 0.0011049723756906078, 0.0016528925619834713, 0.2, 0.15390524967989758, 0.00030257186081694405, 0.07700192184497116, 0.0032786885245901635, 0.2, 0.2, 0.2, 0.2, 0.2, 0.2, 0.2, 0.2, 0.2, 0.2, 0.2, 0.2, 0.2, 0.2, 0.2, 0.2, 0.2, 0.2, 0.9868852459016391, 0.2, 0.2, 0.2, 0.2, 0.2, 0.2, 0.2, 0.2, 0.2, 0.2, 0.2, 0.2, 0.2, 0.2, 0.0032786885245901635, 0.2, 0.2, 0.0006644518272425251, 0.0006644518272425248, 0.000175284837861525, 0.0032786885245901635, 0.16671289875173367, 0.3569560047562425, 0.3249479383590171, 0.2, 0.2, 0.2, 0.9868852459016391, 0.2, 0.2, 0.2, 0.2, 0.2, 0.2, 0.2, 0.2, 0.2, 0.2, 0.2, 0.2, 0.2, 0.2, 0.2, 0.2, 0.2, 0.2, 0.2, 0.2, 0.2, 0.2, 0.2, 0.2, 0.2, 0.2, 0.2, 0.2, 0.2, 0.2, 0.2, 0.2, 0.2, 0.2, 0.2, 0.2, 0.2, 0.2, 0.2, 0.2, 0.2, 0.2, 0.2, 0.2, 0.2, 0.2, 0.2, 0.2, 0.2, 0.2, 0.2, 0.2, 0.2, 0.2, 0.2, 0.2, 0.2, 0.2856632956573468, 0.18183194549583648, 0.2542219711945778, 0.003278688524590163, 0.2, 0.2, 0.2, 0.2, 0.2, 0.2, 0.2, 0.2, 0.2, 0.2, 0.2, 0.2, 0.2, 0.2, 0.2, 0.2, 0.2, 0.2, 0.2, 0.2, 0.2, 0.2, 0.2, 0.2, 0.2, 0.2, 0.2, 0.2, 0.2, 0.2, 0.2, 0.2, 0.2, 0.2, 0.2, 0.2, 0.2, 0.2, 0.2, 0.2, 0.2, 0.2, 0.2, 0.2, 0.2, 0.2, 0.2, 0.2, 0.2, 0.2, 0.2, 0.2, 0.2, 0.2, 0.2, 0.2, 0.0032786885245901635, 0.4987551867219918, 0.07708066581306018, 0.2, 0.3075544174135723, 0.07708066581306018, 0.2, 0.2, 0.18184568835098336, 0.29983361064891845, 0.14292508917954816, 0.2, 0.2, 0.2, 0.2, 0.2, 0.2, 0.2, 0.2, 0.2, 0.2, 0.2, 0.2, 0.2, 0.2, 0.2, 0.2, 0.2, 0.2, 0.2, 0.2, 0.2, 0.2, 0.2, 0.2, 0.2, 0.2, 0.2, 0.2, 0.2, 0.2, 0.2, 0.2, 0.2, 0.2, 0.2, 0.2, 0.2, 0.2, 0.2, 0.2, 0.2, 0.2, 0.2, 0.2, 0.2, 0.2, 0.2, 0.2, 0.2, 0.2, 0.2, 0.2, 0.2, 0.2856123662306777, 0.00033277870216306157, 0.29983361064891845, 0.2, 0.2187402394586153, 0.10016638935108153, 0.15627277459656427, 0.0032786885245901635, 0.0016528925619834713, 0.0032786885245901635, 0.4993762993762994, 0.2, 0.2, 0.2, 0.2, 0.2, 0.2, 0.2, 0.2, 0.2, 0.2, 0.2, 0.2, 0.2, 0.2, 0.2, 0.2, 0.2, 0.2, 0.9868852459016391, 0.003278688524590163, 0.2, 0.2, 0.2, 0.2, 0.2, 0.2, 0.2, 0.2, 0.2, 0.2, 0.2, 0.2, 0.2, 0.2, 0.2, 0.2, 0.2, 0.2, 0.2, 0.2, 0.2, 0.2, 0.2, 0.2, 0.2, 0.2, 0.2, 0.2, 0.2, 0.2, 0.2, 0.2, 0.2, 0.0016528925619834713, 0.0011049723756906078, 0.0016528925619834713, 0.2, 0.23072983354673499, 0.1818456883509834, 0.03856502242152466, 0.0032786885245901635, 0.2, 0.2, 0.2, 0.2, 0.2, 0.2, 0.2, 0.2, 0.2, 0.2, 0.2, 0.2, 0.2, 0.2, 0.2, 0.2, 0.2, 0.2, 0.003278688524590163, 0.2, 0.2, 0.2, 0.2, 0.2, 0.2, 0.2, 0.2, 0.2, 0.2, 0.2, 0.2, 0.2, 0.2, 0.0032786885245901635, 0.2, 0.2, 0.39933554817275757, 0.3993355481727574, 0.10534618755477652, 0.0032786885245901635, 0.0002773925104022191, 0.07158145065398336, 0.17501041232819659, 0.2, 0.2, 0.2, 0.003278688524590163, 0.2, 0.2, 0.2, 0.2, 0.2, 0.2, 0.2, 0.2, 0.2, 0.2, 0.2, 0.2, 0.2, 0.2, 0.2, 0.2, 0.2, 0.2, 0.2, 0.2, 0.2, 0.2, 0.2, 0.2, 0.2, 0.2, 0.2, 0.2, 0.2, 0.2, 0.2, 0.2, 0.2, 0.2, 0.2, 0.2, 0.2, 0.2, 0.2, 0.2, 0.2, 0.2, 0.2, 0.2, 0.2, 0.2, 0.2, 0.2, 0.2, 0.2, 0.2, 0.2, 0.2, 0.2, 0.2, 0.2, 0.2, 0.07150505651397977, 0.31809235427706284, 0.22033323919796668, 0.003278688524590163, 0.2, 0.2, 0.2, 0.2, 0.2, 0.2, 0.2, 0.2, 0.2, 0.2, 0.2, 0.2, 0.2, 0.2, 0.2, 0.2, 0.2, 0.2, 0.2, 0.2, 0.2, 0.2, 0.2, 0.2, 0.2, 0.2, 0.2, 0.2, 0.2, 0.2, 0.2, 0.2, 0.2, 0.2, 0.2, 0.2, 0.2, 0.2, 0.2, 0.2, 0.2, 0.2, 0.2, 0.2, 0.2, 0.2, 0.2, 0.2, 0.2, 0.2, 0.2, 0.2, 0.2, 0.2, 0.2, 0.2, 0.0032786885245901635, 0.0008298755186721994, 0.15390524967989758, 0.2, 0.23072983354673496, 0.15390524967989758, 0.2599800066644452, 0.2, 0.3633888048411497, 0.29983361064891845, 0.28561236623067776, 0.2, 0.2, 0.2, 0.2, 0.2, 0.2, 0.2, 0.2, 0.2, 0.2, 0.2, 0.2, 0.2, 0.2, 0.2, 0.2, 0.2, 0.2, 0.2, 0.2, 0.2, 0.2, 0.2, 0.2, 0.2, 0.2, 0.2, 0.2, 0.2, 0.2, 0.2, 0.2, 0.2, 0.2, 0.2, 0.2, 0.2, 0.2, 0.2, 0.2, 0.2, 0.2, 0.2, 0.2, 0.2, 0.2, 0.2, 0.2, 0.2, 0.2, 0.2, 0.2, 0.2, 0.00023781212841854932, 0.29983361064891845, 0.10016638935108153, 0.2, 0.24997397188964082, 0.4995008319467553, 0.24997397188964082, 0.0032786885245901635, 0.0016528925619834713, 0.9868852459016393, 0.4993762993762994, 0.2, 0.2, 0.2, 0.2, 0.2, 0.2, 0.2, 0.2, 0.2, 0.2, 0.2, 0.2, 0.2, 0.2, 0.2, 0.2, 0.2, 0.2, 0.003278688524590163, 0.003278688524590163, 0.2, 0.2, 0.2, 0.2, 0.2, 0.2, 0.2, 0.2, 0.2, 0.2, 0.2, 0.2, 0.2, 0.2, 0.2, 0.2, 0.2, 0.2, 0.2, 0.2, 0.2, 0.2, 0.2, 0.2, 0.2, 0.2, 0.2, 0.2, 0.2, 0.2, 0.2, 0.2, 0.2, 0.0016528925619834713, 0.0011049723756906078, 0.0016528925619834713, 0.2, 0.0770806658130602, 0.2726172465960666, 0.15387572069186417, 0.0032786885245901635, 0.2, 0.2, 0.2, 0.2, 0.2, 0.2, 0.2, 0.2, 0.2, 0.2, 0.2, 0.2, 0.2, 0.2, 0.2, 0.2, 0.2, 0.2, 0.003278688524590163, 0.2, 0.2, 0.2, 0.2, 0.2, 0.2, 0.2, 0.2, 0.2, 0.2, 0.2, 0.2, 0.2, 0.2, 0.0032786885245901635, 0.2, 0.2, 0.5986710963455151, 0.19999999999999998, 0.263102541630149, 0.9868852459016393, 0.0002773925104022191, 0.00023781212841854935, 0.05006247396917951, 0.2, 0.2, 0.2, 0.003278688524590163, 0.2, 0.2, 0.2, 0.2, 0.2, 0.2, 0.2, 0.2, 0.2, 0.2, 0.2, 0.2, 0.2, 0.2, 0.2, 0.2, 0.2, 0.2, 0.2, 0.2, 0.2, 0.2, 0.2, 0.2, 0.2, 0.2, 0.2, 0.2, 0.2, 0.2, 0.2, 0.2, 0.2, 0.2, 0.2, 0.2, 0.2, 0.2, 0.2, 0.2, 0.2, 0.2, 0.2, 0.2, 0.2, 0.2, 0.2, 0.2, 0.2, 0.2, 0.2, 0.2, 0.2, 0.2, 0.2, 0.2, 0.2, 0.0001189767995240928, 0.09099167297501894, 0.11866704320813329, 0.003278688524590163, 0.2, 0.2, 0.2, 0.2, 0.2, 0.2, 0.2, 0.2, 0.2, 0.2, 0.2, 0.2, 0.2, 0.2, 0.2, 0.2, 0.2, 0.2, 0.2, 0.2, 0.2, 0.2, 0.2, 0.2, 0.2, 0.2, 0.2, 0.2, 0.2, 0.2, 0.2, 0.2, 0.2, 0.2, 0.2, 0.2, 0.2, 0.2, 0.2, 0.2, 0.2, 0.2, 0.2, 0.2, 0.2, 0.2, 0.2, 0.2, 0.2, 0.2, 0.2, 0.2, 0.2, 0.2, 0.2, 0.2, 0.0032786885245901635, 0.0008298755186721994, 0.07708066581306018, 0.2, 0.15390524967989758, 0.23072983354673496, 0.14001999333555482, 0.2, 0.18184568835098336, 0.19999999999999998, 0.214268727705113, 0.2, 0.2, 0.2, 0.2, 0.2, 0.2, 0.2, 0.2, 0.2, 0.2, 0.2, 0.2, 0.2, 0.2, 0.2, 0.2, 0.2, 0.2, 0.2, 0.2, 0.2, 0.2, 0.2, 0.2, 0.2, 0.2, 0.2, 0.2, 0.2, 0.2, 0.2, 0.2, 0.2, 0.2, 0.2, 0.2, 0.2, 0.2, 0.2, 0.2, 0.2, 0.2, 0.2, 0.2, 0.2, 0.2, 0.2, 0.2, 0.2, 0.2, 0.2, 0.2, 0.2, 0.00023781212841854932, 0.00033277870216306157, 0.10016638935108153, 0.2, 0.2187402394586153, 0.19999999999999998, 0.34367516918271734, 0.9868852459016393, 0.9933884297520662, 0.0032786885245901635, 0.0004158004158004159, 0.2, 0.2, 0.2, 0.2, 0.2, 0.2, 0.2, 0.2, 0.2, 0.2, 0.2, 0.2, 0.2, 0.2, 0.2, 0.2, 0.2, 0.2, 0.003278688524590163, 0.003278688524590163, 0.2, 0.2, 0.2, 0.2, 0.2, 0.2, 0.2, 0.2, 0.2, 0.2, 0.2, 0.2, 0.2, 0.2, 0.2, 0.2, 0.2, 0.2, 0.2, 0.2, 0.2, 0.2, 0.2, 0.2, 0.2, 0.2, 0.2, 0.2, 0.2, 0.2, 0.2, 0.2, 0.2, 0.9933884297520662, 0.6640883977900552, 0.9933884297520662, 0.2, 0.3075544174135723, 0.36338880484114977, 0.6919923126201153, 0.9868852459016393, 0.2, 0.2, 0.2, 0.2, 0.2, 0.2, 0.2, 0.2, 0.2, 0.2, 0.2, 0.2, 0.2, 0.2, 0.2, 0.2, 0.2, 0.2, 0.003278688524590163, 0.2, 0.2, 0.2, 0.2, 0.2, 0.2, 0.2, 0.2, 0.2, 0.2, 0.2, 0.2, 0.2, 0.2, 0.9868852459016393, 0.2, 0.2, 0.0006644518272425251, 0.19999999999999998, 0.263102541630149, 0.0032786885245901635, 0.0002773925104022191, 0.07158145065398336, 0.3249479383590171, 0.2, 0.2, 0.2, 0.003278688524590163, 0.2, 0.2, 0.2, 0.2, 0.2, 0.2, 0.2, 0.2, 0.2, 0.2, 0.2, 0.2, 0.2, 0.2, 0.2, 0.2, 0.2, 0.2, 0.2, 0.2, 0.2, 0.2, 0.2, 0.2, 0.2, 0.2, 0.2, 0.2, 0.2, 0.2, 0.2, 0.2, 0.2, 0.2, 0.2, 0.2, 0.2, 0.2, 0.2, 0.2, 0.2, 0.2, 0.2, 0.2, 0.2, 0.2, 0.2, 0.2, 0.2, 0.2, 0.2, 0.2, 0.2, 0.2, 0.2, 0.2, 0.2, 0.07150505651397977, 0.13641180923542773, 0.3897768991810223, 0.003278688524590163, 0.2, 0.2, 0.2, 0.2, 0.2, 0.2, 0.2, 0.2, 0.2, 0.2, 0.2, 0.2, 0.2, 0.2, 0.2, 0.2, 0.2, 0.2, 0.2, 0.2, 0.2, 0.2, 0.2, 0.2, 0.2, 0.2, 0.2, 0.2, 0.2, 0.2, 0.2, 0.2, 0.2, 0.2, 0.2, 0.2, 0.2, 0.2, 0.2, 0.2, 0.2, 0.2, 0.2, 0.2, 0.2, 0.2, 0.2, 0.2, 0.2, 0.2, 0.2, 0.2, 0.2, 0.2, 0.2, 0.2, 0.9868852459016393, 0.0008298755186721994, 0.6916773367477593, 0.2, 0.00025608194622279127, 0.23072983354673496, 0.33995334888370543, 0.2, 0.000302571860816944, 0.00033277870216306157, 0.35695600475624256, 0.2, 0.2, 0.2, 0.2, 0.2, 0.2, 0.2, 0.2, 0.2, 0.2, 0.2, 0.2, 0.2, 0.2, 0.2, 0.2, 0.2, 0.2, 0.2, 0.2, 0.2, 0.2, 0.2, 0.2, 0.2, 0.2, 0.2, 0.2, 0.2, 0.2, 0.2, 0.2, 0.2, 0.2, 0.2, 0.2, 0.2, 0.2, 0.2, 0.2, 0.2, 0.2, 0.2, 0.2, 0.2, 0.2, 0.2, 0.2, 0.2, 0.2, 0.2, 0.2, 0.2, 0.00023781212841854932, 0.10016638935108153, 0.10016638935108153, 0.2, 0.031337844872462266, 0.19999999999999998, 0.2187402394586153, 0.0032786885245901635, 0.0016528925619834713, 0.0032786885245901635, 0.0004158004158004159, 0.2, 0.2, 0.2, 0.2, 0.2, 0.2, 0.2, 0.2, 0.2, 0.2, 0.2, 0.2, 0.2, 0.2, 0.2, 0.2, 0.2, 0.2, 0.003278688524590163, 0.003278688524590163, 0.2, 0.2, 0.2, 0.2, 0.2, 0.2, 0.2, 0.2, 0.2, 0.2, 0.2, 0.2, 0.2, 0.2, 0.2, 0.2, 0.2, 0.2, 0.2, 0.2, 0.2, 0.2, 0.2, 0.2, 0.2, 0.2, 0.2, 0.2, 0.2, 0.2, 0.2, 0.2, 0.2, 0.0016528925619834713, 0.33259668508287293, 0.0016528925619834713, 0.2, 0.23072983354673499, 0.1818456883509834, 0.03856502242152466, 0.0032786885245901635, 0.2, 0.2, 0.2, 0.2, 0.2, 0.2, 0.2, 0.2, 0.2, 0.2, 0.2, 0.2, 0.2, 0.2, 0.2, 0.2, 0.2, 0.2, 0.003278688524590163, 0.2, 0.2, 0.2, 0.2, 0.2, 0.2, 0.2, 0.2, 0.2, 0.2, 0.2, 0.2, 0.2, 0.2, 0.0032786885245901635, 0.2, 0.2, 0.0006644518272425251, 0.19999999999999998, 0.368273444347064, 0.0032786885245901635 ;
}
probability ( change_num | accept_num ) {
    table 0.9735294117647058, 0.0018018018018018016, 0.0015384615384615385, 0.0016260162601626016, 0.002197802197802198, 0.017647058823529408, 0.9927927927927926, 0.13999999999999999, 0.0016260162601626016, 0.002197802197802198, 0.002941176470588235, 0.0018018018018018016, 0.5861538461538461, 0.27804878048780485, 0.002197802197802198, 0.002941176470588235, 0.0018018018018018016, 0.2707692307692308, 0.6113821138211382, 0.09010989010989011, 0.002941176470588235, 0.0018018018018018016, 0.0015384615384615385, 0.10731707317073169, 0.9032967032967033 ;
}
probability ( close_num | author_identity, comment_num, has_bug, has_refactor ) {
    table 0.030235783633841887, 0.48051948051948057, 0.012987012987012986, 0.19999999999999998, 0.061686232657417295, 0.012987012987012986, 0.01298701298701299, 0.19999999999999998, 0.22076673476745587, 0.44072948328267475, 0.005405405405405406, 0.02439024390243903, 0.008849557522123894, 0.19999999999999998, 0.19999999999999998, 0.19999999999999998, 0.19999999999999998, 0.19999999999999998, 0.19999999999999998, 0.19999999999999998, 0.19999999999999998, 0.19999999999999998, 0.19999999999999998, 0.19999999999999998, 0.0015313935681470136, 0.19999999999999998, 0.19999999999999998, 0.19999999999999998, 0.00273972602739726, 0.19999999999999998, 0.19999999999999998, 0.19999999999999998, 0.008849557522123894, 0.19999999999999998, 0.19999999999999998, 0.19999999999999998, 0.15006934812760056, 0.48051948051948057, 0.012987012987012986, 0.19999999999999998, 0.30757737459978657, 0.012987012987012986, 0.01298701298701299, 0.19999999999999998, 0.20778752553779598, 0.22188449848024314, 0.7837837837837839, 0.02439024390243903, 0.008849557522123894, 0.19999999999999998, 0.19999999999999998, 0.19999999999999998, 0.19999999999999998, 0.19999999999999998, 0.19999999999999998, 0.19999999999999998, 0.19999999999999998, 0.19999999999999998, 0.19999999999999998, 0.19999999999999998, 0.0015313935681470136, 0.19999999999999998, 0.19999999999999998, 0.19999999999999998, 0.00273972602739726, 0.19999999999999998, 0.19999999999999998, 0.19999999999999998, 0.008849557522123894, 0.19999999999999998, 0.19999999999999998, 0.19999999999999998, 0.2299583911234397, 0.01298701298701299, 0.012987012987012986, 0.19999999999999998, 0.26915688367129137, 0.012987012987012986, 0.9480519480519483, 0.19999999999999998, 0.3072947962985218, 0.0030395136778115497, 0.2, 0.02439024390243903, 0.008849557522123894, 0.19999999999999998, 0.19999999999999998, 0.19999999999999998, 0.19999999999999998, 0.19999999999999998, 0.19999999999999998, 0.19999999999999998, 0.19999999999999998, 0.19999999999999998, 0.19999999999999998, 0.19999999999999998, 0.0015313935681470136, 0.19999999999999998, 0.19999999999999998, 0.19999999999999998, 0.00273972602739726, 0.19999999999999998, 0.19999999999999998, 0.19999999999999998, 0.008849557522123894, 0.19999999999999998, 0.19999999999999998, 0.19999999999999998, 0.2998613037447989, 0.01298701298701299, 0.948051948051948, 0.19999999999999998, 0.2537886872998933, 0.948051948051948, 0.01298701298701299, 0.19999999999999998, 0.24672515322677566, 0.22188449848024314, 0.005405405405405406, 0.902439024390244, 0.6460176991150443, 0.19999999999999998, 0.19999999999999998, 0.19999999999999998, 0.19999999999999998, 0.19999999999999998, 0.19999999999999998, 0.19999999999999998, 0.19999999999999998, 0.19999999999999998, 0.19999999999999998, 0.19999999999999998, 0.0566615620214395, 0.19999999999999998, 0.19999999999999998, 0.19999999999999998, 0.00273972602739726, 0.19999999999999998, 0.19999999999999998, 0.19999999999999998, 0.008849557522123894, 0.19999999999999998, 0.19999999999999998, 0.19999999999999998, 0.28987517337031904, 0.01298701298701299, 0.012987012987012986, 0.19999999999999998, 0.10779082177161153, 0.012987012987012986, 0.01298701298701299, 0.19999999999999998, 0.01742579016945079, 0.11246200607902734, 0.005405405405405406, 0.02439024390243903, 0.327433628318584, 0.19999999999999998, 0.19999999999999998, 0.19999999999999998, 0.19999999999999998, 0.19999999999999998, 0.19999999999999998, 0.19999999999999998, 0.19999999999999998, 0.19999999999999998, 0.19999999999999998, 0.19999999999999998, 0.9387442572741195, 0.19999999999999998, 0.19999999999999998, 0.19999999999999998, 0.989041095890411, 0.19999999999999998, 0.19999999999999998, 0.19999999999999998, 0.9646017699115044, 0.19999999999999998, 0.19999999999999998, 0.19999999999999998 ;
}
probability ( comment_num | author_identity, participants_count, review_comment_num ) {
    table 0.5861893881695862, 0.2533754164474838, 0.3333333333333333, 0.0006388143605468252, 0.803921568627451, 0.8850574712643678, 0.3333333333333333, 0.3333333333333333, 0.6853333333333332, 0.6048265460030166, 0.3333333333333333, 0.04065040650406505, 0.22061436912922064, 0.5689987725758373, 0.3333333333333333, 0.09262808227928965, 0.09803921568627452, 0.0574712643678161, 0.3333333333333333, 0.3333333333333333, 0.3013333333333333, 0.38763197586727, 0.3333333333333333, 0.04065040650406505, 0.1931962427011932, 0.17762581097667896, 0.3333333333333333, 0.9067331033601636, 0.09803921568627452, 0.0574712643678161, 0.3333333333333333, 0.3333333333333333, 0.013333333333333332, 0.007541478129713424, 0.3333333333333333, 0.9186991869918699 ;
}
probability ( commit_num | total_add_line ) {
    table 0.6691176470588235, 0.43080357142857145, 0.14523809523809525, 0.012135922330097087, 0.012376237623762377, 0.18872549019607843, 0.296875, 0.2976190476190476, 0.17718446601941748, 0.04207920792079208, 0.13970588235294118, 0.2700892857142857, 0.5547619047619048, 0.808252427184466, 0.9034653465346535, 0.0024509803921568627, 0.002232142857142857, 0.002380952380952381, 0.0024271844660194173, 0.04207920792079208 ;
}
probability ( file_changed_num | author_identity, has_feature ) {
    table 0.21127741037243303, 0.6097560975609755, 0.043478260869565216, 0.2, 0.005235602094240837, 0.2, 0.217542638357118, 0.02439024390243902, 0.043478260869565216, 0.2, 0.19371727748691098, 0.2, 0.22589627567003134, 0.17073170731707316, 0.043478260869565216, 0.2, 0.13089005235602094, 0.2, 0.3386703793943613, 0.17073170731707316, 0.8260869565217391, 0.2, 0.5706806282722513, 0.2, 0.006613296206056387, 0.02439024390243902, 0.043478260869565216, 0.2, 0.09947643979057591, 0.2 ;
}
probability ( has_bug ) {
    table 0.9760994263862333, 0.02390057361376673 ;
}
probability ( has_document | commit_num ) {
    table 0.8836126629422719, 0.9658823529411765, 0.9905320108205591, 0.8809523809523809, 0.11638733705772812, 0.03411764705882353, 0.009467989179440937, 0.11904761904761904 ;
}
probability ( has_feature ) {
    table 0.9837476099426387, 0.016252390057361378 ;
}
probability ( has_improve ) {
    table 0.9875717017208413, 0.0124282982791587 ;
}
probability ( has_refactor | total_delete_line ) {
    table 0.871501272264631, 0.9862579281183932, 0.9861407249466951, 0.9966974900924703, 0.12849872773536897, 0.013742071881606765, 0.013859275053304905, 0.0033025099075297227 ;
}
probability ( is_weekday | body_words ) {
    table 0.3613861386138614, 0.26576576576576577, 0.17727272727272728, 0.15104166666666666, 0.14761904761904762, 0.6386138613861386, 0.7342342342342343, 0.8227272727272728, 0.8489583333333334, 0.8523809523809524 ;
}
probability ( mergable_state | accept_num, comment_num, has_improve, pre_prs ) {
    table 0.25206611570247933, 0.5, 0.5, 0.5, 0.5, 0.5, 0.5, 0.5, 0.5, 0.5, 0.5, 0.5, 0.5, 0.5, 0.5, 0.5, 0.5, 0.5, 0.5, 0.5, 0.3455481526347668, 0.5, 0.5, 0.5, 0.5, 0.5, 0.5, 0.5, 0.5, 0.5, 0.5, 0.5332594235033259, 0.5, 0.5, 0.5, 0.5, 0.5, 0.5, 0.5, 0.5, 0.5, 0.7946199829205807, 0.9945054945054945, 0.5, 0.5, 0.5, 0.5, 0.5, 0.5, 0.5, 0.5, 0.770645385149202, 0.9966887417218543, 0.5, 0.5, 0.5, 0.5, 0.5, 0.5, 0.5, 0.5, 0.9838709677419355, 0.3638426626323752, 0.5, 0.5, 0.5, 0.5, 0.5, 0.5, 0.5, 0.5, 0.01612903225806452, 0.6967709384460141, 0.5, 0.5, 0.5, 0.5, 0.5, 0.5, 0.5, 0.5, 0.0027624309392265192, 0.6983077736647276, 0.9945054945054945, 0.5, 0.5, 0.5, 0.5, 0.5, 0.5, 0.5, 0.5, 0.9838709677419355, 0.6426872770511296, 0.9945054945054945, 0.5, 0.5, 0.5, 0.01612903225806452, 0.5, 0.5, 0.5, 0.5, 0.7304737516005122, 0.9958677685950413, 0.5, 0.5, 0.5, 0.9838709677419355, 0.5, 0.5, 0.5, 0.9838709677419355, 0.9604833442194645, 0.9945054945054945, 0.5, 0.5, 0.5, 0.9838709677419355, 0.5, 0.5, 0.5, 0.5, 0.005494505494505495, 0.7606806661839247, 0.5, 0.5, 0.5, 0.5, 0.01612903225806452, 0.5, 0.5, 0.5, 0.9918032786885246, 0.8794940079893475, 0.5, 0.5, 0.5, 0.5, 0.5, 0.5, 0.5, 0.5, 0.9945054945054945, 0.8986710963455149, 0.5, 0.5, 0.5, 0.5, 0.5, 0.7479338842975207, 0.5, 0.5, 0.5, 0.5, 0.5, 0.5, 0.5, 0.5, 0.5, 0.5, 0.5, 0.5, 0.5, 0.5, 0.5, 0.5, 0.5, 0.5, 0.5, 0.6544518473652332, 0.5, 0.5, 0.5, 0.5, 0.5, 0.5, 0.5, 0.5, 0.5, 0.5, 0.466740576496674, 0.5, 0.5, 0.5, 0.5, 0.5, 0.5, 0.5, 0.5, 0.5, 0.20538001707941933, 0.005494505494505495, 0.5, 0.5, 0.5, 0.5, 0.5, 0.5, 0.5, 0.5, 0.22935461485079808, 0.0033112582781456954, 0.5, 0.5, 0.5, 0.5, 0.5, 0.5, 0.5, 0.5, 0.01612903225806452, 0.6361573373676248, 0.5, 0.5, 0.5, 0.5, 0.5, 0.5, 0.5, 0.5, 0.9838709677419355, 0.30322906155398593, 0.5, 0.5, 0.5, 0.5, 0.5, 0.5, 0.5, 0.5, 0.9972375690607735, 0.3016922263352723, 0.005494505494505495, 0.5, 0.5, 0.5, 0.5, 0.5, 0.5, 0.5, 0.5, 0.01612903225806452, 0.35731272294887045, 0.005494505494505495, 0.5, 0.5, 0.5, 0.9838709677419355, 0.5, 0.5, 0.5, 0.5, 0.26952624839948786, 0.004132231404958678, 0.5, 0.5, 0.5, 0.01612903225806452, 0.5, 0.5, 0.5, 0.01612903225806452, 0.0395166557805356, 0.005494505494505495, 0.5, 0.5, 0.5, 0.01612903225806452, 0.5, 0.5, 0.5, 0.5, 0.9945054945054945, 0.23931933381607534, 0.5, 0.5, 0.5, 0.5, 0.9838709677419355, 0.5, 0.5, 0.5, 0.00819672131147541, 0.12050599201065247, 0.5, 0.5, 0.5, 0.5, 0.5, 0.5, 0.5, 0.5, 0.005494505494505495, 0.10132890365448503, 0.5, 0.5, 0.5, 0.5, 0.5 ;
}
probability ( participants_count | author_identity, review_comment_num ) {
    table 0.996206373292868, 0.4215077605321508, 0.7727272727272727, 0.8529411764705883, 0.9615384615384616, 0.8435114503816794, 0.003793626707132018, 0.5784922394678492, 0.22727272727272727, 0.1470588235294118, 0.03846153846153847, 0.1564885496183206 ;
}
probability ( pre_prs | close_num ) {
    table 0.9882352941176469, 0.0018018018018018016, 0.001503759398496241, 0.0015267175572519084, 0.0025, 0.002941176470588235, 0.9567567567567566, 0.03157894736842106, 0.0015267175572519084, 0.0025, 0.002941176470588235, 0.03783783783783783, 0.9338345864661657, 0.016793893129770993, 0.0025, 0.002941176470588235, 0.0018018018018018016, 0.03157894736842106, 0.8793893129770992, 0.0025, 0.002941176470588235, 0.0018018018018018016, 0.001503759398496241, 0.10076335877862595, 0.99 ;
}
probability ( priorities_number | comment_num, has_refactor, review_comment_num ) {
    table 0.7254437869822487, 0.3572542901716068, 0.4482758620689654, 0.2, 0.26813880126182965, 0.129563350035791, 0.05882352941176471, 0.05882352941176471, 0.21030042918454936, 0.04574669187145557, 0.034482758620689655, 0.009900990099009901, 0.18579881656804736, 0.22620904836193448, 0.03448275862068965, 0.2, 0.26813880126182965, 0.21546170365068004, 0.05882352941176471, 0.05882352941176471, 0.41630901287553657, 0.15009451795841208, 0.4482758620689655, 0.009900990099009901, 0.04378698224852072, 0.24492979719188768, 0.4482758620689654, 0.2, 0.26813880126182965, 0.19828203292770222, 0.05882352941176471, 0.05882352941176471, 0.3133047210300429, 0.20907372400756144, 0.034482758620689655, 0.12871287128712872, 0.04378698224852072, 0.07644305772230887, 0.03448275862068965, 0.2, 0.15457413249211358, 0.24123120973514675, 0.7647058823529412, 0.05882352941176471, 0.004291845493562232, 0.2544423440453686, 0.4482758620689655, 0.6039603960396039, 0.001183431952662722, 0.09516380655226207, 0.03448275862068965, 0.2, 0.04100946372239748, 0.21546170365068004, 0.05882352941176471, 0.7647058823529412, 0.055793991416309016, 0.3406427221172022, 0.034482758620689655, 0.24752475247524755 ;
}
probability ( review_comment_num | author_identity, commit_num, has_document ) {
    table 0.583916083916084, 0.4013698630136987, 0.2321663019693654, 0.03246753246753247, 0.05570182655915748, 0.5, 0.03246753246753247, 0.5, 0.5, 0.5, 0.08620689655172413, 0.5, 0.5, 0.5, 0.5, 0.5, 0.7879999999999999, 0.5, 0.33892617449664425, 0.5, 0.16160520607375267, 0.5, 0.9137931034482758, 0.5, 0.41608391608391604, 0.5986301369863014, 0.7678336980306345, 0.9675324675324676, 0.9442981734408425, 0.5, 0.9675324675324676, 0.5, 0.5, 0.5, 0.9137931034482758, 0.5, 0.5, 0.5, 0.5, 0.5, 0.212, 0.5, 0.6610738255033557, 0.5, 0.8383947939262473, 0.5, 0.08620689655172413, 0.5 ;
}
probability ( review_num | participants_count, pre_prs, review_comment_num ) {
    table 0.9827586206896551, 0.3867924528301887, 0.9905660377358491, 0.2777777777777778, 0.9961240310077519, 0.3723404255319149, 0.4574468085106383, 0.08865248226950355, 0.0037593984962406013, 0.0025906735751295338, 0.5, 0.0026455026455026454, 0.5, 0.0024875621890547263, 0.5, 0.001976284584980237, 0.5, 0.0025380710659898475, 0.5, 0.011111111111111112, 0.017241379310344827, 0.6132075471698113, 0.009433962264150943, 0.7222222222222222, 0.003875968992248062, 0.6276595744680851, 0.5425531914893617, 0.9113475177304965, 0.9962406015037594, 0.9974093264248705, 0.5, 0.9973544973544973, 0.5, 0.9975124378109452, 0.5, 0.9980237154150198, 0.5, 0.9974619289340102, 0.5, 0.9888888888888889 ;
}
probability ( title_words | accept_num, author_identity ) {
    table 0.4613861386138614, 0.2, 0.2, 0.4447129909365559, 0.2, 0.2, 0.1706185567010309, 0.2, 0.2, 0.15844875346260387, 0.45714285714285713, 0.2, 0.15542857142857144, 0.8, 0.12978723404255318, 0.29801980198019806, 0.2, 0.2, 0.15468277945619335, 0.2, 0.2, 0.1706185567010309, 0.2, 0.2, 0.15013850415512467, 0.02857142857142857, 0.2, 0.018285714285714287, 0.05, 0.12978723404255318, 0.16435643564356436, 0.2, 0.2, 0.27250755287009065, 0.2, 0.2, 0.4025773195876289, 0.2, 0.2, 0.44099722991689755, 0.02857142857142857, 0.2, 0.34400000000000003, 0.05, 0.2893617021276596, 0.04554455445544555, 0.2, 0.2, 0.08217522658610273, 0.2, 0.2, 0.1783505154639175, 0.2, 0.2, 0.15844875346260387, 0.45714285714285713, 0.2, 0.1382857142857143, 0.05, 0.2574468085106383, 0.0306930693069307, 0.2, 0.2, 0.0459214501510574, 0.2, 0.2, 0.07783505154639174, 0.2, 0.2, 0.09196675900277008, 0.02857142857142857, 0.2, 0.34400000000000003, 0.05, 0.19361702127659575 ;
}
probability ( total_add_line | file_changed_num, has_improve ) {
    table 0.6612440191387561, 0.7333333333333332, 0.1728506787330317, 0.2, 0.06255506607929515, 0.2, 0.02258953168044077, 0.3142857142857143, 0.015384615384615385, 0.2, 0.20191387559808618, 0.06666666666666665, 0.4986425339366516, 0.2, 0.20352422907488987, 0.2, 0.06115702479338843, 0.3142857142857143, 0.015384615384615385, 0.2, 0.12535885167464117, 0.06666666666666665, 0.15475113122171946, 0.2, 0.37973568281938325, 0.2, 0.16584022038567495, 0.3142857142857143, 0.015384615384615385, 0.2, 0.010526315789473687, 0.06666666666666665, 0.13665158371040723, 0.2, 0.2211453744493392, 0.2, 0.33663911845730027, 0.02857142857142857, 0.015384615384615385, 0.2, 0.0009569377990430626, 0.06666666666666665, 0.037104072398190045, 0.2, 0.1330396475770925, 0.2, 0.4137741046831956, 0.02857142857142857, 0.9384615384615385, 0.2 ;
}
probability ( total_delete_line | file_changed_num, total_add_line ) {
    table 0.5277777777777778, 0.4268867924528302, 0.6098484848484848, 0.041666666666666664, 0.25, 0.4192708333333333, 0.2726449275362319, 0.11918604651162788, 0.13486842105263158, 0.9642857142857144, 0.4236111111111111, 0.21767241379310343, 0.0011574074074074073, 0.04166666666666667, 0.003289473684210526, 0.3942307692307693, 0.08606557377049182, 0.0016025641025641025, 0.0008169934640522877, 0.0006648936170212766, 0.25, 0.25, 0.25, 0.25, 0.008064516129032258, 0.18589743589743593, 0.4268867924528302, 0.38257575757575746, 0.8749999999999999, 0.25, 0.26302083333333326, 0.3813405797101449, 0.46802325581395343, 0.33223684210526316, 0.011904761904761908, 0.006944444444444446, 0.47629310344827586, 0.25578703703703703, 0.12103174603174603, 0.06907894736842105, 0.009615384615384618, 0.4959016393442623, 0.4503205128205128, 0.049836601307189546, 0.013962765957446808, 0.25, 0.25, 0.25, 0.25, 0.008064516129032258, 0.1146723646723647, 0.04952830188679245, 0.003787878787878787, 0.041666666666666664, 0.25, 0.05468749999999999, 0.23641304347826086, 0.29360465116279066, 0.33223684210526316, 0.011904761904761908, 0.006944444444444446, 0.13146551724137928, 0.4409722222222222, 0.27976190476190477, 0.3322368421052631, 0.009615384615384618, 0.004098360655737705, 0.3862179487179487, 0.3602941176470589, 0.20013297872340427, 0.25, 0.25, 0.25, 0.25, 0.008064516129032258, 0.1716524216524217, 0.09669811320754715, 0.003787878787878787, 0.041666666666666664, 0.25, 0.26302083333333326, 0.1096014492753623, 0.11918604651162788, 0.2006578947368421, 0.011904761904761908, 0.5625, 0.17456896551724135, 0.3020833333333333, 0.5575396825396826, 0.5953947368421053, 0.5865384615384616, 0.4139344262295082, 0.16185897435897434, 0.5890522875816994, 0.7852393617021276, 0.25, 0.25, 0.25, 0.25, 0.9758064516129031 ;
}
probability ( workload | accept_num, change_num, pre_prs ) {
    table 0.31811023622047246, 0.2, 0.2, 0.2, 0.2, 0.007692307692307692, 0.2, 0.2, 0.2, 0.2, 0.2, 0.2, 0.2, 0.2, 0.2, 0.2, 0.2, 0.2, 0.2, 0.2, 0.2, 0.2, 0.2, 0.2, 0.2, 0.2, 0.2, 0.2, 0.2, 0.2, 0.2, 7.840062720501765e-05, 0.000995024875621891, 0.2, 0.2, 0.2, 0.2, 0.2, 0.2, 0.2, 0.2, 0.2, 0.2, 0.2, 0.2, 0.2, 0.2, 0.2, 0.2, 0.2, 0.2, 0.2, 0.2, 0.2, 0.2, 0.2, 0.2, 0.00044345898004434595, 0.2, 0.2, 0.2, 0.9960199004975129, 0.18462484624846248, 0.002631578947368421, 0.2, 0.2, 0.2, 0.19999999999999996, 0.2, 0.2, 0.2, 0.2, 0.2, 0.2, 0.2, 0.2, 0.2, 0.2, 0.2, 0.2, 0.2, 0.2, 0.2, 0.2, 0.2, 0.2, 0.2, 0.2, 0.00023501762632197415, 0.2, 0.2, 0.2, 0.0019801980198019802, 0.00012113870381586918, 0.3984126984126984, 0.2, 0.2, 0.2, 0.0009950248756218907, 0.0015873015873015873, 0.2, 0.2, 0.2, 0.2, 0.2, 0.2, 0.2, 0.2, 0.2, 0.2, 0.2, 0.2, 0.2, 0.2, 0.2, 0.2, 0.2, 0.2, 0.9894736842105263, 0.3984126984126984, 0.2, 0.2, 0.2, 0.2, 0.1948078920041537, 0.5755299818291946, 0.2, 0.2, 0.2, 0.2, 0.007692307692307692, 0.2, 0.2, 0.2, 0.2, 0.2, 0.2, 0.2, 0.2, 0.2, 0.2, 0.2, 0.2, 0.2, 0.2, 0.2, 0.2, 0.2, 0.2, 0.2, 0.2, 0.2, 0.2, 0.2, 0.2, 0.2, 0.11767934143473148, 0.000995024875621891, 0.2, 0.2, 0.2, 0.2, 0.2, 0.2, 0.2, 0.2, 0.2, 0.2, 0.2, 0.2, 0.2, 0.2, 0.2, 0.2, 0.2, 0.2, 0.2, 0.2, 0.2, 0.2, 0.2, 0.2, 0.00044345898004434595, 0.2, 0.2, 0.2, 0.0009950248756218911, 0.21537515375153754, 0.002631578947368421, 0.2, 0.2, 0.2, 0.4283105022831049, 0.2, 0.2, 0.2, 0.2, 0.2, 0.2, 0.2, 0.2, 0.2, 0.2, 0.2, 0.2, 0.2, 0.2, 0.2, 0.2, 0.2, 0.2, 0.2, 0.2, 0.00023501762632197415, 0.2, 0.2, 0.2, 0.0019801980198019802, 0.1364021804966687, 0.2, 0.2, 0.2, 0.2, 0.4985074626865672, 0.5968253968253968, 0.2, 0.2, 0.2, 0.2, 0.2, 0.2, 0.2, 0.2, 0.2, 0.2, 0.2, 0.2, 0.2, 0.2, 0.2, 0.2, 0.2, 0.2, 0.002631578947368421, 0.2, 0.2, 0.2, 0.2, 0.7952380952380952, 0.3765316718587747, 0.1061175045427014, 0.2, 0.2, 0.2, 0.2, 0.9692307692307692, 0.2, 0.2, 0.2, 0.2, 0.2, 0.2, 0.2, 0.2, 0.2, 0.2, 0.2, 0.2, 0.2, 0.2, 0.2, 0.2, 0.2, 0.2, 0.2, 0.2, 0.2, 0.2, 0.2, 0.2, 0.2, 0.5978831830654646, 0.9960199004975127, 0.2, 0.2, 0.2, 0.2, 0.2, 0.2, 0.2, 0.2, 0.2, 0.2, 0.2, 0.2, 0.2, 0.2, 0.2, 0.2, 0.2, 0.2, 0.2, 0.2, 0.2, 0.2, 0.2, 0.2, 0.27760532150776057, 0.2, 0.2, 0.2, 0.0009950248756218911, 0.00012300123001230014, 0.002631578947368421, 0.2, 0.2, 0.2, 0.3426940639269406, 0.2, 0.2, 0.2, 0.2, 0.2, 0.2, 0.2, 0.2, 0.2, 0.2, 0.2, 0.2, 0.2, 0.2, 0.2, 0.2, 0.2, 0.2, 0.2, 0.2, 0.00023501762632197415, 0.2, 0.2, 0.2, 0.9920792079207921, 0.33325257419745613, 0.2, 0.2, 0.2, 0.2, 0.12537313432835823, 0.0015873015873015873, 0.2, 0.2, 0.2, 0.2, 0.2, 0.2, 0.2, 0.2, 0.2, 0.2, 0.2, 0.2, 0.2, 0.2, 0.2, 0.2, 0.2, 0.2, 0.002631578947368421, 0.3984126984126984, 0.2, 0.2, 0.2, 0.0015873015873015873, 0.14288681204569056, 0.00012113870381586918, 0.2, 0.2, 0.2, 0.2, 0.007692307692307692, 0.2, 0.2, 0.2, 0.2, 0.2, 0.2, 0.2, 0.2, 0.2, 0.2, 0.2, 0.2, 0.2, 0.2, 0.2, 0.2, 0.2, 0.2, 0.2, 0.2, 0.2, 0.2, 0.2, 0.2, 0.2, 0.24508036064288516, 0.000995024875621891, 0.2, 0.2, 0.2, 0.2, 0.2, 0.2, 0.2, 0.2, 0.2, 0.2, 0.2, 0.2, 0.2, 0.2, 0.2, 0.2, 0.2, 0.2, 0.2, 0.2, 0.2, 0.2, 0.2, 0.2, 0.7210643015521064, 0.2, 0.2, 0.2, 0.0009950248756218911, 0.29225092250922513, 0.002631578947368421, 0.2, 0.2, 0.2, 0.02876712328767123, 0.2, 0.2, 0.2, 0.2, 0.2, 0.2, 0.2, 0.2, 0.2, 0.2, 0.2, 0.2, 0.2, 0.2, 0.2, 0.2, 0.2, 0.2, 0.2, 0.2, 0.00023501762632197415, 0.2, 0.2, 0.2, 0.0019801980198019802, 0.3938219261053907, 0.0015873015873015873, 0.2, 0.2, 0.2, 0.12537313432835823, 0.3984126984126984, 0.2, 0.2, 0.2, 0.2, 0.2, 0.2, 0.2, 0.2, 0.2, 0.2, 0.2, 0.2, 0.2, 0.2, 0.2, 0.2, 0.2, 0.2, 0.002631578947368421, 0.0015873015873015873, 0.2, 0.2, 0.2, 0.0015873015873015873, 0.12990654205607477, 0.00012113870381586918, 0.2, 0.2, 0.2, 0.2, 0.007692307692307692, 0.2, 0.2, 0.2, 0.2, 0.2, 0.2, 0.2, 0.2, 0.2, 0.2, 0.2, 0.2, 0.2, 0.2, 0.2, 0.2, 0.2, 0.2, 0.2, 0.2, 0.2, 0.2, 0.2, 0.2, 0.2, 0.03927871422971384, 0.000995024875621891, 0.2, 0.2, 0.2, 0.2, 0.2, 0.2, 0.2, 0.2, 0.2, 0.2, 0.2, 0.2, 0.2, 0.2, 0.2, 0.2, 0.2, 0.2, 0.2, 0.2, 0.2, 0.2, 0.2, 0.2, 0.00044345898004434595, 0.2, 0.2, 0.2, 0.0009950248756218911, 0.3076260762607626, 0.9894736842105263, 0.2, 0.2, 0.2, 0.000228310502283105, 0.2, 0.2, 0.2, 0.2, 0.2, 0.2, 0.2, 0.2, 0.2, 0.2, 0.2, 0.2, 0.2, 0.2, 0.2, 0.2, 0.2, 0.2, 0.2, 0.2, 0.9990599294947122, 0.2, 0.2, 0.2, 0.0019801980198019802, 0.1364021804966687, 0.2, 0.2, 0.2, 0.2, 0.24975124378109456, 0.0015873015873015873, 0.2, 0.2, 0.2, 0.2, 0.2, 0.2, 0.2, 0.2, 0.2, 0.2, 0.2, 0.2, 0.2, 0.2, 0.2, 0.2, 0.2, 0.2, 0.002631578947368421, 0.0015873015873015873, 0.2, 0.2, 0.2, 0.0015873015873015873, 0.15586708203530633 ;
}
