network unknown {
}
variable accept_num {
    type discrete [ 5 ] { 0, 1, 2, 3, 4 };
}
variable author_identity {
    type discrete [ 4 ] { 0, 1, 2, 3 };
}
variable body_words {
    type discrete [ 5 ] { 0, 1, 2, 3, 4 };
}
variable change_num {
    type discrete [ 5 ] { 0, 1, 2, 3, 4 };
}
variable close_num {
    type discrete [ 5 ] { 0, 1, 2, 3, 4 };
}
variable comment_num {
    type discrete [ 4 ] { 0, 1, 2, 3 };
}
variable commit_num {
    type discrete [ 3 ] { 0, 1, 4 };
}
variable file_changed_num {
    type discrete [ 4 ] { 0, 1, 3, 4 };
}
variable has_assignees_content {
    type discrete [ 2 ] { 0, 1 };
}
variable has_bug {
    type discrete [ 2 ] { 0, 1 };
}
variable has_document {
    type discrete [ 2 ] { 0, 1 };
}
variable has_feature {
    type discrete [ 2 ] { 0, 1 };
}
variable has_improve {
    type discrete [ 2 ] { 0, 1 };
}
variable has_labels {
    type discrete [ 2 ] { 0, 1 };
}
variable has_refactor {
    type discrete [ 2 ] { 0, 1 };
}
variable is_weekday {
    type discrete [ 2 ] { 0, 1 };
}
variable participants_count {
    type discrete [ 3 ] { 0, 1, 3 };
}
variable pre_prs {
    type discrete [ 5 ] { 0, 1, 2, 3, 4 };
}
variable priorities_number {
    type discrete [ 5 ] { 0, 1, 2, 3, 4 };
}
variable review_comment_num {
    type discrete [ 2 ] { 0, 1 };
}
variable review_num {
    type discrete [ 2 ] { 0, 1 };
}
variable title_words {
    type discrete [ 5 ] { 0, 1, 2, 3, 4 };
}
variable total_add_line {
    type discrete [ 5 ] { 0, 1, 2, 3, 4 };
}
variable total_delete_line {
    type discrete [ 5 ] { 0, 1, 2, 3, 4 };
}
variable workload {
    type discrete [ 5 ] { 0, 1, 2, 3, 4 };
}
probability ( accept_num | close_num, pre_prs ) {
    table 0.9766383592373018, 0.8666666666666666, 0.19999999999999998, 0.19999999999999998, 0.19999999999999998, 0.24761904761904763, 0.009444212285833682, 0.0064516129032258064, 0.19999999999999998, 0.19999999999999998, 0.19999999999999998, 0.01818181818181818, 3.940110323089047e-05, 0.0032786885245901644, 0.19999999999999998, 0.19999999999999998, 0.19999999999999998, 0.012499999999999999, 4.170141784820684e-05, 0.001724137931034483, 0.19999999999999998, 0.19999999999999998, 0.19999999999999998, 0.0064516129032258064, 3.769317753486619e-05, 0.02326550232334562, 0.033333333333333326, 0.19999999999999998, 0.19999999999999998, 0.19999999999999998, 0.7238095238095238, 0.9653572921019642, 0.49032258064516127, 0.19999999999999998, 0.19999999999999998, 0.19999999999999998, 0.01818181818181818, 0.012844759653270291, 0.0032786885245901644, 0.19999999999999998, 0.19999999999999998, 0.19999999999999998, 0.012499999999999999, 4.170141784820684e-05, 0.001724137931034483, 0.19999999999999998, 0.19999999999999998, 0.19999999999999998, 0.0064516129032258064, 3.769317753486619e-05, 3.204614645088929e-05, 0.033333333333333326, 0.19999999999999998, 0.19999999999999998, 0.19999999999999998, 0.009523809523809523, 0.025114918512327625, 0.49032258064516127, 0.19999999999999998, 0.19999999999999998, 0.19999999999999998, 0.9272727272727272, 0.9732466509062254, 0.8229508196721311, 0.19999999999999998, 0.19999999999999998, 0.19999999999999998, 0.95, 0.09491242702251877, 0.001724137931034483, 0.19999999999999998, 0.19999999999999998, 0.19999999999999998, 0.0064516129032258064, 3.769317753486619e-05, 3.204614645088929e-05, 0.033333333333333326, 0.19999999999999998, 0.19999999999999998, 0.19999999999999998, 0.009523809523809523, 4.178854993731718e-05, 0.0064516129032258064, 0.19999999999999998, 0.19999999999999998, 0.19999999999999998, 0.01818181818181818, 0.013829787234042554, 0.16721311475409836, 0.19999999999999998, 0.19999999999999998, 0.19999999999999998, 0.012499999999999999, 0.8924520433694746, 0.7344827586206897, 0.19999999999999998, 0.19999999999999998, 0.19999999999999998, 0.8129032258064516, 0.017941952506596304, 3.204614645088929e-05, 0.033333333333333326, 0.19999999999999998, 0.19999999999999998, 0.19999999999999998, 0.009523809523809523, 4.178854993731718e-05, 0.0064516129032258064, 0.19999999999999998, 0.19999999999999998, 0.19999999999999998, 0.01818181818181818, 3.940110323089047e-05, 0.0032786885245901644, 0.19999999999999998, 0.19999999999999998, 0.19999999999999998, 0.012499999999999999, 0.01255212677231026, 0.2603448275862069, 0.19999999999999998, 0.19999999999999998, 0.19999999999999998, 0.16774193548387098, 0.981944967960799 ;
}
probability ( author_identity ) {
    table 0.9319596378725009, 0.039277631082610336, 0.028338362881931346, 0.0004243681629573746 ;
}
probability ( body_words | author_identity, change_num, close_num, total_add_line ) {
    table 0.3555440337752759, 0.17088791848617174, 0.06695117359106313, 0.05697107777988736, 0.014226813895076061, 0.47293608971760576, 0.15873670845897475, 0.10938915794407122, 0.08697290247790175, 0.07044078298831151, 0.9920792079207921, 0.2, 0.0019801980198019802, 0.0006644518272425251, 0.2, 0.06258588382261088, 0.00013324450366422385, 0.0001998001998001998, 0.0001665278934221482, 0.00039920159680638726, 0.2, 0.2, 0.2, 0.2, 0.2, 0.18000399920015997, 0.077937930138943, 2.4688310085174668e-05, 2.4996875390576178e-05, 3.3327778703549404e-05, 0.2916539369532009, 0.06559580396656285, 0.08452330657653852, 0.014110688635403464, 0.038981950396052456, 0.07897921599579057, 0.05457189601890565, 0.027825603998889194, 6.894174422612891e-05, 7.996801279488205e-05, 0.24997917534360684, 0.06258588382261088, 0.050074962518740634, 0.0715203426124197, 0.00024968789013732833, 0.0019801980198019802, 0.000995024875621891, 0.2, 0.0019801980198019802, 0.0019801980198019802, 0.2, 0.2, 0.2, 0.2, 0.2, 0.25924828735419364, 0.19999999999999998, 0.06385875345671134, 0.033361106482252954, 0.09435955480098093, 0.4343197656802344, 0.2, 0.1250078116862827, 0.0744814381448782, 0.05358450138380502, 0.499900033322226, 0.07701767870868562, 0.11116046640755137, 0.1429386590584879, 0.00018165304268846506, 0.3998001998001999, 0.0004987531172069826, 0.0002853067047075606, 0.000664451827242525, 0.2, 0.2, 0.2, 0.2, 0.2, 0.2, 0.2, 0.2, 0.2, 0.2, 0.2, 0.3709401709401709, 0.30432514670723754, 0.09679084018706659, 0.04169964590710268, 0.032285115303983224, 0.38921022693251894, 0.21582619955398893, 0.14754528317351037, 0.1290437026286083, 0.07955914100670379, 0.4680280791320995, 0.17647750661570127, 0.06671109630123292, 0.17392438070404173, 0.09528795811518323, 0.2, 0.2, 0.2, 0.2, 0.2, 0.2, 0.2, 0.2, 0.2, 0.2, 0.2, 0.2, 0.2, 0.2, 0.2, 0.5830141548709408, 0.4997858672376873, 0.00018165304268846506, 0.0003992015968063873, 0.000664451827242525, 0.402969927617342, 0.153288081161959, 0.06919061694233067, 0.09028539684744115, 0.09286479537175917, 0.2, 0.2, 0.2, 0.2, 0.2, 0.2, 0.2, 0.2, 0.2, 0.2, 0.2, 0.2, 0.2, 0.2, 0.2, 0.2, 0.2, 0.2, 0.2, 0.2, 0.2, 0.2, 0.2, 0.2, 0.2, 0.2, 0.2, 0.2, 0.2, 0.2, 0.2, 0.2, 0.2, 0.2, 0.2, 0.3332445036642238, 0.2999000999000998, 0.00022197558268590456, 0.0003327787021630616, 0.0003992015968063873, 0.2, 0.2, 0.2, 0.0019801980198019802, 0.2, 0.2, 0.2, 0.2, 0.2, 0.2, 0.2, 0.2, 0.2, 0.2, 0.2, 0.2, 0.2, 0.2, 0.2, 0.2, 0.2, 0.2, 0.2, 0.2, 0.2, 0.3332223147377185, 0.10009990009990008, 0.14293865905848788, 0.0004987531172069826, 0.33311148086522463, 0.2, 0.2, 0.2, 0.2, 0.2, 0.2, 0.2, 0.2, 0.2, 0.2, 0.2, 0.2, 0.2, 0.2, 0.2, 0.2, 0.2, 0.2, 0.2, 0.2, 0.0019801980198019802, 0.2, 0.0009950248756218907, 0.0019801980198019802, 0.0019801980198019802, 0.2, 0.2, 0.2, 0.2, 0.2, 0.2, 0.2, 0.2, 0.2, 0.2, 0.2, 0.2, 0.2, 0.2, 0.2, 0.2, 0.2, 0.2, 0.2, 0.2, 0.20000000000000004, 0.1250468457214241, 0.05890652557319224, 0.00022197558268590456, 0.00010520778537611784, 0.0004987531172069827, 0.36348773841961846, 0.3998667554963357, 0.00024968789013732833, 0.07701767870868563, 0.2, 0.2, 0.2, 0.2, 0.2, 0.2, 0.2, 0.2, 0.2, 0.2, 0.2, 0.2, 0.2, 0.2, 0.2, 0.2, 0.2, 0.2, 0.2, 0.2, 0.2, 0.2, 0.2, 0.2, 0.2, 0.2, 0.2, 0.2, 0.2, 0.2, 0.2, 0.2, 0.2, 0.2, 0.2, 0.2, 0.2, 0.2, 0.2, 0.2, 0.2, 0.2, 0.2, 0.2, 0.2, 0.2, 0.2, 0.2, 0.2, 0.2, 0.2, 0.2, 0.2, 0.2, 0.2, 0.2, 0.2, 0.2, 0.2, 0.2, 0.2, 0.2, 0.2, 0.2, 0.2, 0.6361653793730123, 0.24987531172069832, 0.0006644518272425252, 0.9920792079207921, 0.4985074626865673, 0.3996007984031937, 0.4992518703241896, 0.3328903654485051, 0.0019801980198019802, 0.0019801980198019802, 0.2, 0.2, 0.2, 0.2, 0.2, 0.2, 0.2, 0.2, 0.2, 0.2, 0.2, 0.2, 0.2, 0.2, 0.2, 0.2, 0.2, 0.2, 0.2, 0.2, 0.9973421926910302, 0.4985074626865672, 0.0019801980198019802, 0.0019801980198019802, 0.0004987531172069826, 0.2, 0.2, 0.2, 0.2, 0.2, 0.2, 0.2, 0.2, 0.2, 0.2, 0.2, 0.2, 0.2, 0.2, 0.2, 0.2, 0.2, 0.2, 0.2, 0.2, 0.26662225183211197, 0.2856531049250535, 0.04006397441023591, 0.06258588382261088, 0.04552476147205816, 0.2, 0.2, 0.2, 0.2, 0.2, 0.2, 0.2, 0.2, 0.2, 0.2, 0.2, 0.2, 0.2, 0.2, 0.2, 0.2, 0.2, 0.2, 0.2, 0.2, 0.2, 0.2, 0.2, 0.2, 0.2, 0.2, 0.2, 0.2, 0.2, 0.2, 0.2, 0.2, 0.2, 0.2, 0.2, 0.2, 0.2, 0.2, 0.2, 0.2, 0.2, 0.2, 0.2, 0.2, 0.2, 0.2, 0.2, 0.2, 0.2, 0.2, 0.2, 0.2, 0.2, 0.2, 0.2, 0.2, 0.2, 0.2, 0.2, 0.2, 0.2, 0.2, 0.2, 0.2, 0.2, 0.2, 0.2, 0.2, 0.2, 0.2, 0.2, 0.2, 0.2, 0.2, 0.2, 0.2, 0.2, 0.2, 0.2, 0.2, 0.2, 0.2, 0.2, 0.2, 0.2, 0.2, 0.2, 0.2, 0.2, 0.2, 0.2, 0.2, 0.2, 0.2, 0.2, 0.2, 0.2, 0.2, 0.2, 0.2, 0.2, 0.2, 0.2, 0.2, 0.2, 0.2, 0.2, 0.2, 0.2, 0.2, 0.2, 0.2, 0.2, 0.2, 0.2, 0.2, 0.2, 0.2, 0.2, 0.2, 0.2, 0.2, 0.2, 0.0019801980198019802, 0.2, 0.2592548700096289, 0.2215176254667426, 0.19665285971298274, 0.13291563825074362, 0.14218283493673287, 0.24323740035130384, 0.49201714013648623, 0.35935010154663327, 0.21738878423416896, 0.1549359245176736, 0.0019801980198019802, 0.2, 0.9920792079207921, 0.0006644518272425251, 0.2, 0.1250468457214241, 0.19999999999999998, 0.0001998001998001998, 0.08343047460449625, 0.2, 0.2, 0.2, 0.2, 0.2, 0.2, 0.31997600479904015, 0.19480586936761463, 0.20987532403406983, 0.15000624921884764, 0.11668055324112646, 0.18055825579780585, 0.29506638256023604, 0.1690184481059006, 0.09860583016476551, 0.11689390988183353, 0.13159694817153378, 0.16364297400472644, 0.11113579561232989, 0.1724233023095484, 0.0400639744102359, 0.20832986255726782, 0.1250468457214241, 9.995002498750626e-05, 0.0715203426124197, 0.00024968789013732833, 0.9920792079207921, 0.000995024875621891, 0.2, 0.0019801980198019802, 0.0019801980198019802, 0.2, 0.2, 0.2, 0.2, 0.2, 0.2222181077578226, 0.1666722212964506, 0.1276749627738779, 0.1666722212964506, 0.018902093944538765, 0.20201999798000203, 0.22727024815925825, 0.26041037391938343, 0.15957876821614725, 0.18750111597178823, 0.3999333555481507, 0.615065334358186, 0.22220988339811218, 0.2855920114122682, 0.5451407811080836, 0.10009990009990012, 0.24987531172069827, 0.14293865905848788, 0.000664451827242525, 0.2, 0.2, 0.2, 0.2, 0.2, 0.2, 0.2, 0.2, 0.2, 0.2, 0.2, 0.4515723270440251, 0.23912193001521406, 0.258055152394775, 0.08335763382628618, 0.14517013384937913, 0.3173582420214358, 0.3237321056039134, 0.2950741742480125, 0.22580228995323334, 0.21590728326326555, 0.21276324186343332, 0.2646868568068216, 0.26664445184938357, 0.39122120817036077, 0.28567348881485005, 0.2, 0.2, 0.2, 0.2, 0.2, 0.2, 0.2, 0.2, 0.2, 0.2, 0.2, 0.2, 0.2, 0.2, 0.2, 0.24995836802664442, 0.0715203426124197, 0.00018165304268846506, 0.3996007984031937, 0.000664451827242525, 0.23880307439743306, 0.27736661557550546, 0.264146908999434, 0.17361294354558707, 0.15000357117348762, 0.2, 0.2, 0.2, 0.2, 0.2, 0.2, 0.2, 0.2, 0.2, 0.2, 0.2, 0.2, 0.2, 0.2, 0.2, 0.2, 0.2, 0.2, 0.2, 0.2, 0.2, 0.2, 0.2, 0.2, 0.2, 0.2, 0.2, 0.2, 0.2, 0.2, 0.2, 0.2, 0.2, 0.2, 0.2, 0.3998667554963357, 0.4997002997002996, 0.11120976692563818, 0.0003327787021630616, 0.3996007984031937, 0.2, 0.2, 0.2, 0.9920792079207921, 0.2, 0.2, 0.2, 0.2, 0.2, 0.2, 0.2, 0.2, 0.2, 0.2, 0.2, 0.2, 0.2, 0.2, 0.2, 0.2, 0.2, 0.2, 0.2, 0.2, 0.2, 0.4164862614487926, 0.5996003996003995, 0.0002853067047075606, 0.0004987531172069826, 0.16672212978369388, 0.2, 0.2, 0.2, 0.2, 0.2, 0.2, 0.2, 0.2, 0.2, 0.2, 0.2, 0.2, 0.2, 0.2, 0.2, 0.2, 0.2, 0.2, 0.2, 0.2, 0.0019801980198019802, 0.2, 0.0009950248756218907, 0.9920792079207921, 0.0019801980198019802, 0.2, 0.2, 0.2, 0.2, 0.2, 0.2, 0.2, 0.2, 0.2, 0.2, 0.2, 0.2, 0.2, 0.2, 0.2, 0.2, 0.2, 0.2, 0.2, 0.2, 0.5992015968063873, 0.18750780762023736, 0.05890652557319224, 0.11120976692563818, 0.10531299316149395, 0.4992518703241896, 0.454314259763851, 0.3332445036642238, 0.37478152309612983, 0.3076095311299001, 0.2, 0.2, 0.2, 0.2, 0.2, 0.2, 0.2, 0.2, 0.2, 0.2, 0.2, 0.2, 0.2, 0.2, 0.2, 0.2, 0.2, 0.2, 0.2, 0.2, 0.2, 0.2, 0.2, 0.2, 0.2, 0.2, 0.2, 0.2, 0.2, 0.2, 0.2, 0.2, 0.2, 0.2, 0.2, 0.2, 0.2, 0.2, 0.2, 0.2, 0.2, 0.2, 0.2, 0.2, 0.2, 0.2, 0.2, 0.2, 0.2, 0.2, 0.2, 0.2, 0.2, 0.2, 0.2, 0.2, 0.2, 0.2, 0.2, 0.2, 0.2, 0.2, 0.2, 0.2, 0.2, 0.18182644252612448, 0.748628428927681, 0.9973421926910302, 0.0019801980198019802, 0.4985074626865673, 0.5992015968063873, 0.24987531172069832, 0.6651162790697676, 0.9920792079207921, 0.0019801980198019802, 0.2, 0.2, 0.2, 0.2, 0.2, 0.2, 0.2, 0.2, 0.2, 0.2, 0.2, 0.2, 0.2, 0.2, 0.2, 0.2, 0.2, 0.2, 0.2, 0.2, 0.0006644518272425252, 0.0009950248756218907, 0.9920792079207921, 0.0019801980198019802, 0.24987531172069827, 0.2, 0.2, 0.2, 0.2, 0.2, 0.2, 0.2, 0.2, 0.2, 0.2, 0.2, 0.2, 0.2, 0.2, 0.2, 0.2, 0.2, 0.2, 0.2, 0.2, 0.2, 0.35703069236259816, 0.12003198720511796, 0.06258588382261088, 0.1363925488414357, 0.2, 0.2, 0.2, 0.2, 0.2, 0.2, 0.2, 0.2, 0.2, 0.2, 0.2, 0.2, 0.2, 0.2, 0.2, 0.2, 0.2, 0.2, 0.2, 0.2, 0.2, 0.2, 0.2, 0.2, 0.2, 0.2, 0.2, 0.2, 0.2, 0.2, 0.2, 0.2, 0.2, 0.2, 0.2, 0.2, 0.2, 0.2, 0.2, 0.2, 0.2, 0.2, 0.2, 0.2, 0.2, 0.2, 0.2, 0.2, 0.2, 0.2, 0.2, 0.2, 0.2, 0.2, 0.2, 0.2, 0.2, 0.2, 0.2, 0.2, 0.2, 0.2, 0.2, 0.2, 0.2, 0.2, 0.2, 0.2, 0.2, 0.2, 0.2, 0.2, 0.2, 0.2, 0.2, 0.2, 0.2, 0.2, 0.2, 0.2, 0.2, 0.2, 0.2, 0.2, 0.2, 0.2, 0.2, 0.2, 0.2, 0.2, 0.2, 0.2, 0.2, 0.2, 0.2, 0.2, 0.2, 0.2, 0.2, 0.2, 0.2, 0.2, 0.2, 0.2, 0.2, 0.2, 0.2, 0.2, 0.2, 0.2, 0.2, 0.2, 0.2, 0.2, 0.2, 0.2, 0.2, 0.2, 0.2, 0.2, 0.2, 0.2, 0.2, 0.0019801980198019802, 0.2, 0.14815198874157468, 0.25948990570217073, 0.2845152922471863, 0.2911334725650276, 0.246443296526231, 0.10812052425347926, 0.11112521821933025, 0.1875019528198719, 0.2898420518765396, 0.2816786368117167, 0.0019801980198019802, 0.2, 0.0019801980198019802, 0.9973421926910301, 0.2, 0.1250468457214241, 0.00013324450366422385, 0.0001998001998001998, 0.08343047460449625, 0.00039920159680638726, 0.2, 0.2, 0.2, 0.2, 0.2, 0.18000399920015997, 0.3895857680820673, 0.28394025428959385, 0.24999375078115232, 0.1833361106482253, 0.22221913623107897, 0.09837731519423046, 0.1690184481059006, 0.2112660188705816, 0.0909232567199065, 0.13159694817153378, 0.2, 0.19444598722577058, 0.10348155808341948, 0.12003198720511794, 0.04173261141191171, 0.1250468457214241, 9.995002498750626e-05, 0.00014275517487508923, 0.1250936329588015, 0.0019801980198019802, 0.000995024875621891, 0.2, 0.0019801980198019802, 0.0019801980198019802, 0.2, 0.2, 0.2, 0.2, 0.2, 0.18518792816145158, 0.2333277787035494, 0.10640289300148904, 0.3833027828695217, 0.26413884172797586, 0.13132006867993135, 0.163639669120989, 0.2499947922091449, 0.223401765769599, 0.2142844388893849, 0.10003332222592469, 0.3076095311299, 0.27773459189339256, 0.5708987161198289, 0.00018165304268846506, 0.10009990009990012, 0.4992518703241895, 0.28559201141226814, 0.33289036544850503, 0.2, 0.2, 0.2, 0.2, 0.2, 0.2, 0.2, 0.2, 0.2, 0.2, 0.2, 0.08066440896629574, 0.17391871332319062, 0.2096758587324625, 0.2499895855030202, 0.2903080148363167, 0.13174061433447096, 0.12950147471404935, 0.1967215801983444, 0.17742299629092081, 0.29544369957959327, 0.042586683684322474, 0.23528374007644814, 0.16667777407530823, 0.08700564971751412, 0.23807710613993333, 0.2, 0.2, 0.2, 0.2, 0.2, 0.2, 0.2, 0.2, 0.2, 0.2, 0.2, 0.2, 0.2, 0.2, 0.2, 0.08343047460449625, 0.2142755174875089, 0.4543142597638511, 0.5992015968063873, 0.33289036544850503, 0.14179538840385045, 0.25547040362017376, 0.3270360354694673, 0.27777237691826956, 0.3071352046282409, 0.2, 0.2, 0.2, 0.2, 0.2, 0.2, 0.2, 0.2, 0.2, 0.2, 0.2, 0.2, 0.2, 0.2, 0.2, 0.2, 0.2, 0.2, 0.2, 0.2, 0.2, 0.2, 0.2, 0.2, 0.2, 0.2, 0.2, 0.2, 0.2, 0.2, 0.2, 0.2, 0.2, 0.2, 0.2, 0.26662225183211186, 0.10009990009990008, 0.5551609322974472, 0.33311148086522463, 0.20000000000000004, 0.2, 0.2, 0.2, 0.0019801980198019802, 0.2, 0.2, 0.2, 0.2, 0.2, 0.2, 0.2, 0.2, 0.2, 0.2, 0.2, 0.2, 0.2, 0.2, 0.2, 0.2, 0.2, 0.2, 0.2, 0.2, 0.2, 0.08343047460449625, 0.10009990009990008, 0.5708987161198288, 0.0004987531172069826, 0.0003327787021630616, 0.2, 0.2, 0.2, 0.2, 0.2, 0.2, 0.2, 0.2, 0.2, 0.2, 0.2, 0.2, 0.2, 0.2, 0.2, 0.2, 0.2, 0.2, 0.2, 0.2, 0.0019801980198019802, 0.2, 0.4985074626865672, 0.0019801980198019802, 0.0019801980198019802, 0.2, 0.2, 0.2, 0.2, 0.2, 0.2, 0.2, 0.2, 0.2, 0.2, 0.2, 0.2, 0.2, 0.2, 0.2, 0.2, 0.2, 0.2, 0.2, 0.2, 0.20000000000000004, 0.24996876951905062, 0.17648442092886535, 0.3331853496115427, 0.10531299316149395, 0.24987531172069832, 0.18183469573115346, 0.26662225183211186, 0.24993757802746563, 0.3076095311299001, 0.2, 0.2, 0.2, 0.2, 0.2, 0.2, 0.2, 0.2, 0.2, 0.2, 0.2, 0.2, 0.2, 0.2, 0.2, 0.2, 0.2, 0.2, 0.2, 0.2, 0.2, 0.2, 0.2, 0.2, 0.2, 0.2, 0.2, 0.2, 0.2, 0.2, 0.2, 0.2, 0.2, 0.2, 0.2, 0.2, 0.2, 0.2, 0.2, 0.2, 0.2, 0.2, 0.2, 0.2, 0.2, 0.2, 0.2, 0.2, 0.2, 0.2, 0.2, 0.2, 0.2, 0.2, 0.2, 0.2, 0.2, 0.2, 0.2, 0.2, 0.2, 0.2, 0.2, 0.2, 0.2, 0.04552476147205816, 0.0004987531172069827, 0.0006644518272425252, 0.0019801980198019802, 0.000995024875621891, 0.0003992015968063873, 0.0004987531172069827, 0.0006644518272425252, 0.0019801980198019802, 0.9920792079207921, 0.2, 0.2, 0.2, 0.2, 0.2, 0.2, 0.2, 0.2, 0.2, 0.2, 0.2, 0.2, 0.2, 0.2, 0.2, 0.2, 0.2, 0.2, 0.2, 0.2, 0.0006644518272425252, 0.4985074626865672, 0.0019801980198019802, 0.0019801980198019802, 0.0004987531172069826, 0.2, 0.2, 0.2, 0.2, 0.2, 0.2, 0.2, 0.2, 0.2, 0.2, 0.2, 0.2, 0.2, 0.2, 0.2, 0.2, 0.2, 0.2, 0.2, 0.2, 0.13337774816788808, 0.1428979300499643, 0.3599360255897642, 0.3748906933166771, 0.3181281235801908, 0.2, 0.2, 0.2, 0.2, 0.2, 0.2, 0.2, 0.2, 0.2, 0.2, 0.2, 0.2, 0.2, 0.2, 0.2, 0.2, 0.2, 0.2, 0.2, 0.2, 0.2, 0.2, 0.2, 0.2, 0.2, 0.2, 0.2, 0.2, 0.2, 0.2, 0.2, 0.2, 0.2, 0.2, 0.2, 0.2, 0.2, 0.2, 0.2, 0.2, 0.2, 0.2, 0.2, 0.2, 0.2, 0.2, 0.2, 0.2, 0.2, 0.2, 0.2, 0.2, 0.2, 0.2, 0.2, 0.2, 0.2, 0.2, 0.2, 0.2, 0.2, 0.2, 0.2, 0.2, 0.2, 0.2, 0.2, 0.2, 0.2, 0.2, 0.2, 0.2, 0.2, 0.2, 0.2, 0.2, 0.2, 0.2, 0.2, 0.2, 0.2, 0.2, 0.2, 0.2, 0.2, 0.2, 0.2, 0.2, 0.2, 0.2, 0.2, 0.2, 0.2, 0.2, 0.2, 0.2, 0.2, 0.2, 0.2, 0.2, 0.2, 0.2, 0.2, 0.2, 0.2, 0.2, 0.2, 0.2, 0.2, 0.2, 0.2, 0.2, 0.2, 0.2, 0.2, 0.2, 0.2, 0.2, 0.2, 0.2, 0.2, 0.2, 0.2, 0.0019801980198019802, 0.2, 0.2148137175024072, 0.29113347256502753, 0.41003305301033427, 0.4366938801341687, 0.5402682337329985, 0.040562086204566944, 0.031772734486589425, 0.0937665989689111, 0.08697290247790175, 0.22534854245880864, 0.0019801980198019802, 0.2, 0.0019801980198019802, 0.0006644518272425251, 0.00039920159680638726, 0.06258588382261088, 0.06675549633577615, 0.0001998001998001998, 0.16669442131557033, 0.00039920159680638726, 0.2, 0.2, 0.2, 0.2, 0.2, 0.29998000399920016, 0.32465913517724976, 0.44441426984322924, 0.4999625046869141, 0.649925012497917, 0.1527843355089571, 0.377020160629405, 0.38025630192930576, 0.49291649063512183, 0.610336319958447, 0.21052354643514865, 0.07275040901654245, 0.27775617883921133, 0.31030679076180623, 0.5598560575769692, 0.08338192419825073, 0.31242973141786384, 0.15002498750624688, 0.2856531049250535, 0.37478152309612983, 0.0019801980198019802, 0.9960199004975127, 0.2, 0.0019801980198019802, 0.0019801980198019802, 0.2, 0.2, 0.2, 0.2, 0.2, 0.24073319755600814, 0.1500083319446759, 0.14894703254626676, 0.1833361106482253, 0.26413884172797586, 0.14142005857994144, 0.127279338241978, 0.06251432142485158, 0.31913626209977664, 0.23213998750111597, 6.664445184938355e-05, 0.00015372790161414295, 0.11116046640755137, 0.0002853067047075607, 0.18183469573115352, 0.10009990009990012, 0.0004987531172069826, 0.0002853067047075606, 0.000664451827242525, 0.2, 0.2, 0.2, 0.2, 0.2, 0.2, 0.2, 0.2, 0.2, 0.2, 0.2, 0.032285115303983224, 0.0869810910671593, 0.1290437026286083, 0.20833159758383668, 0.24192872117400419, 0.0778516256511586, 0.12950147471404935, 0.17213343168592737, 0.14517013384937913, 0.1477332121349847, 0.02131461391193363, 0.05886503969420758, 0.06671109630123292, 0.08700564971751412, 0.04769157544026654, 0.2, 0.2, 0.2, 0.2, 0.2, 0.2, 0.2, 0.2, 0.2, 0.2, 0.2, 0.2, 0.2, 0.2, 0.2, 0.0001665278934221482, 0.0715203426124197, 0.27266121707538604, 0.0003992015968063873, 0.000664451827242525, 0.11940899932840833, 0.16788555579884681, 0.18239104458839064, 0.26388445246857856, 0.1857153060495679, 0.2, 0.2, 0.2, 0.2, 0.2, 0.2, 0.2, 0.2, 0.2, 0.2, 0.2, 0.2, 0.2, 0.2, 0.2, 0.2, 0.2, 0.2, 0.2, 0.2, 0.2, 0.2, 0.2, 0.2, 0.2, 0.2, 0.2, 0.2, 0.2, 0.2, 0.2, 0.2, 0.2, 0.2, 0.2, 0.00013324450366422383, 0.10009990009990008, 0.3331853496115427, 0.6658901830282863, 0.3996007984031937, 0.2, 0.2, 0.2, 0.0019801980198019802, 0.2, 0.2, 0.2, 0.2, 0.2, 0.2, 0.2, 0.2, 0.2, 0.2, 0.2, 0.2, 0.2, 0.2, 0.2, 0.2, 0.2, 0.2, 0.2, 0.2, 0.2, 0.08343047460449625, 0.10009990009990008, 0.14293865905848788, 0.7486284289276808, 0.4995008319467555, 0.2, 0.2, 0.2, 0.2, 0.2, 0.2, 0.2, 0.2, 0.2, 0.2, 0.2, 0.2, 0.2, 0.2, 0.2, 0.2, 0.2, 0.2, 0.2, 0.2, 0.9920792079207921, 0.2, 0.0009950248756218907, 0.0019801980198019802, 0.9920792079207921, 0.2, 0.2, 0.2, 0.2, 0.2, 0.2, 0.2, 0.2, 0.2, 0.2, 0.2, 0.2, 0.2, 0.2, 0.2, 0.2, 0.2, 0.2, 0.2, 0.2, 0.0003992015968063873, 0.43735165521549035, 0.5880070546737213, 0.5551609322974472, 0.736559705418201, 0.24987531172069832, 0.000181653042688465, 0.00013324450366422383, 0.37478152309612983, 0.23074558032282858, 0.2, 0.2, 0.2, 0.2, 0.2, 0.2, 0.2, 0.2, 0.2, 0.2, 0.2, 0.2, 0.2, 0.2, 0.2, 0.2, 0.2, 0.2, 0.2, 0.2, 0.2, 0.2, 0.2, 0.2, 0.2, 0.2, 0.2, 0.2, 0.2, 0.2, 0.2, 0.2, 0.2, 0.2, 0.2, 0.2, 0.2, 0.2, 0.2, 0.2, 0.2, 0.2, 0.2, 0.2, 0.2, 0.2, 0.2, 0.2, 0.2, 0.2, 0.2, 0.2, 0.2, 0.2, 0.2, 0.2, 0.2, 0.2, 0.2, 0.2, 0.2, 0.2, 0.2, 0.2, 0.2, 0.04552476147205816, 0.0004987531172069827, 0.0006644518272425252, 0.0019801980198019802, 0.000995024875621891, 0.0003992015968063873, 0.24987531172069832, 0.0006644518272425252, 0.0019801980198019802, 0.0019801980198019802, 0.2, 0.2, 0.2, 0.2, 0.2, 0.2, 0.2, 0.2, 0.2, 0.2, 0.2, 0.2, 0.2, 0.2, 0.2, 0.2, 0.2, 0.2, 0.2, 0.2, 0.0006644518272425252, 0.0009950248756218907, 0.0019801980198019802, 0.0019801980198019802, 0.0004987531172069826, 0.2, 0.2, 0.2, 0.2, 0.2, 0.2, 0.2, 0.2, 0.2, 0.2, 0.2, 0.2, 0.2, 0.2, 0.2, 0.2, 0.2, 0.2, 0.2, 0.2, 0.13337774816788808, 0.1428979300499643, 0.2, 0.18750780762023736, 0.18182644252612448, 0.2, 0.2, 0.2, 0.2, 0.2, 0.2, 0.2, 0.2, 0.2, 0.2, 0.2, 0.2, 0.2, 0.2, 0.2, 0.2, 0.2, 0.2, 0.2, 0.2, 0.2, 0.2, 0.2, 0.2, 0.2, 0.2, 0.2, 0.2, 0.2, 0.2, 0.2, 0.2, 0.2, 0.2, 0.2, 0.2, 0.2, 0.2, 0.2, 0.2, 0.2, 0.2, 0.2, 0.2, 0.2, 0.2, 0.2, 0.2, 0.2, 0.2, 0.2, 0.2, 0.2, 0.2, 0.2, 0.2, 0.2, 0.2, 0.2, 0.2, 0.2, 0.2, 0.2, 0.2, 0.2, 0.2, 0.2, 0.2, 0.2, 0.2, 0.2, 0.2, 0.2, 0.2, 0.2, 0.2, 0.2, 0.2, 0.2, 0.2, 0.2, 0.2, 0.2, 0.2, 0.2, 0.2, 0.2, 0.2, 0.2, 0.2, 0.2, 0.2, 0.2, 0.2, 0.2, 0.2, 0.2, 0.2, 0.2, 0.2, 0.2, 0.2, 0.2, 0.2, 0.2, 0.2, 0.2, 0.2, 0.2, 0.2, 0.2, 0.2, 0.2, 0.2, 0.2, 0.2, 0.2, 0.2, 0.2, 0.2, 0.2, 0.2, 0.2, 0.9920792079207921, 0.2, 0.022235389971113247, 0.056971077779887344, 0.04184762143843354, 0.08228593127017278, 0.056878820908961666, 0.13514389947304417, 0.20634819869861926, 0.24999218872051238, 0.31882335893348784, 0.2675961132234897, 0.0019801980198019802, 0.2, 0.0019801980198019802, 0.0006644518272425251, 0.39960079840319357, 0.6247345409119301, 0.7329780146568955, 0.9992007992007993, 0.666278101582015, 0.7988023952095809, 0.2, 0.2, 0.2, 0.2, 0.2, 0.02003599280143971, 0.01301129723412544, 0.06174546352302184, 0.10001249843769529, 0.050024995834027655, 0.1527843355089571, 0.16394033764956567, 0.19718349528235463, 0.1831009716941276, 0.14286456304376055, 0.4473033412259931, 0.5090347209598255, 0.3888364343237989, 0.4137194071009996, 0.27996801279488204, 0.416576426488963, 0.3748906933166771, 0.7997001499250375, 0.571163454675232, 0.499625468164794, 0.0019801980198019802, 0.000995024875621891, 0.2, 0.9920792079207921, 0.9920792079207921, 0.2, 0.2, 0.2, 0.2, 0.2, 0.09261247917052397, 0.2499916680553241, 0.553116358221655, 0.2333277787035494, 0.35846066779852853, 0.09092010907989094, 0.28181074447777477, 0.3020727007603375, 0.223401765769599, 0.31248995625390596, 6.664445184938355e-05, 0.00015372790161414295, 0.27773459189339256, 0.0002853067047075607, 0.27266121707538604, 0.2999000999000999, 0.24987531172069827, 0.5708987161198288, 0.6651162790697674, 0.2, 0.2, 0.2, 0.2, 0.2, 0.2, 0.2, 0.2, 0.2, 0.2, 0.2, 0.0645379777455249, 0.19565311888719844, 0.30643444605708753, 0.41662153717975414, 0.2903080148363167, 0.08383929106041554, 0.201438745413999, 0.18852553069420538, 0.32256087727785837, 0.2613566640154528, 0.255307381408211, 0.2646868568068216, 0.43325558147284243, 0.26084311169056934, 0.3332698714897667, 0.2, 0.2, 0.2, 0.2, 0.2, 0.2, 0.2, 0.2, 0.2, 0.2, 0.2, 0.2, 0.2, 0.2, 0.2, 0.08343047460449625, 0.1428979300499643, 0.27266121707538604, 0.0003992015968063873, 0.6651162790697674, 0.09702261025296621, 0.14598934384351508, 0.1572353940003773, 0.19444483022012357, 0.26428112277694454, 0.2, 0.2, 0.2, 0.2, 0.2, 0.2, 0.2, 0.2, 0.2, 0.2, 0.2, 0.2, 0.2, 0.2, 0.2, 0.2, 0.2, 0.2, 0.2, 0.2, 0.2, 0.2, 0.2, 0.2, 0.2, 0.2, 0.2, 0.2, 0.2, 0.2, 0.2, 0.2, 0.2, 0.2, 0.2, 0.00013324450366422383, 0.00019980019980019977, 0.00022197558268590456, 0.0003327787021630616, 0.0003992015968063873, 0.2, 0.2, 0.2, 0.0019801980198019802, 0.2, 0.2, 0.2, 0.2, 0.2, 0.2, 0.2, 0.2, 0.2, 0.2, 0.2, 0.2, 0.2, 0.2, 0.2, 0.2, 0.2, 0.2, 0.2, 0.2, 0.2, 0.08343047460449625, 0.10009990009990008, 0.14293865905848788, 0.24987531172069827, 0.0003327787021630616, 0.2, 0.2, 0.2, 0.2, 0.2, 0.2, 0.2, 0.2, 0.2, 0.2, 0.2, 0.2, 0.2, 0.2, 0.2, 0.2, 0.2, 0.2, 0.2, 0.2, 0.0019801980198019802, 0.2, 0.4985074626865672, 0.0019801980198019802, 0.0019801980198019802, 0.2, 0.2, 0.2, 0.2, 0.2, 0.2, 0.2, 0.2, 0.2, 0.2, 0.2, 0.2, 0.2, 0.2, 0.2, 0.2, 0.2, 0.2, 0.2, 0.2, 0.0003992015968063873, 0.0001249219237976265, 0.11769547325102878, 0.00022197558268590456, 0.05270910047343504, 0.0004987531172069827, 0.000181653042688465, 0.00013324450366422383, 0.00024968789013732833, 0.07701767870868563, 0.2, 0.2, 0.2, 0.2, 0.2, 0.2, 0.2, 0.2, 0.2, 0.2, 0.2, 0.2, 0.2, 0.2, 0.2, 0.2, 0.2, 0.2, 0.2, 0.2, 0.2, 0.2, 0.2, 0.2, 0.2, 0.2, 0.2, 0.2, 0.2, 0.2, 0.2, 0.2, 0.2, 0.2, 0.2, 0.2, 0.2, 0.2, 0.2, 0.2, 0.2, 0.2, 0.2, 0.2, 0.2, 0.2, 0.2, 0.2, 0.2, 0.2, 0.2, 0.2, 0.2, 0.2, 0.2, 0.2, 0.2, 0.2, 0.2, 0.2, 0.2, 0.2, 0.2, 0.2, 0.2, 0.09095865515674693, 0.0004987531172069827, 0.0006644518272425252, 0.0019801980198019802, 0.000995024875621891, 0.0003992015968063873, 0.0004987531172069827, 0.0006644518272425252, 0.0019801980198019802, 0.0019801980198019802, 0.2, 0.2, 0.2, 0.2, 0.2, 0.2, 0.2, 0.2, 0.2, 0.2, 0.2, 0.2, 0.2, 0.2, 0.2, 0.2, 0.2, 0.2, 0.2, 0.2, 0.0006644518272425252, 0.0009950248756218907, 0.0019801980198019802, 0.9920792079207921, 0.7486284289276808, 0.2, 0.2, 0.2, 0.2, 0.2, 0.2, 0.2, 0.2, 0.2, 0.2, 0.2, 0.2, 0.2, 0.2, 0.2, 0.2, 0.2, 0.2, 0.2, 0.2, 0.26662225183211197, 0.0715203426124197, 0.27996801279488204, 0.31242973141786384, 0.3181281235801908, 0.2, 0.2, 0.2, 0.2, 0.2, 0.2, 0.2, 0.2, 0.2, 0.2, 0.2, 0.2, 0.2, 0.2, 0.2, 0.2, 0.2, 0.2, 0.2, 0.2, 0.2, 0.2, 0.2, 0.2, 0.2, 0.2, 0.2, 0.2, 0.2, 0.2, 0.2, 0.2, 0.2, 0.2, 0.2, 0.2, 0.2, 0.2, 0.2, 0.2, 0.2, 0.2, 0.2, 0.2, 0.2, 0.2, 0.2, 0.2, 0.2, 0.2, 0.2, 0.2, 0.2, 0.2, 0.2, 0.2, 0.2, 0.2, 0.2, 0.2, 0.2, 0.2, 0.2, 0.2, 0.2, 0.2, 0.2, 0.2, 0.2, 0.2, 0.2, 0.2, 0.2, 0.2, 0.2, 0.2, 0.2, 0.2, 0.2, 0.2, 0.2, 0.2, 0.2, 0.2, 0.2, 0.2, 0.2, 0.2, 0.2, 0.2, 0.2, 0.2, 0.2, 0.2, 0.2, 0.2, 0.2, 0.2, 0.2, 0.2, 0.2, 0.2, 0.2, 0.2, 0.2, 0.2, 0.2, 0.2, 0.2, 0.2, 0.2, 0.2, 0.2, 0.2, 0.2, 0.2, 0.2, 0.2, 0.2, 0.2, 0.2, 0.2, 0.2, 0.0019801980198019802, 0.2 ;
}
probability ( change_num | author_identity, commit_num, has_labels, review_num ) {
    table 0.2598261630131744, 0.23238961419979462, 0.2, 0.002932551319648094, 0.3171749487081406, 0.2652342054633906, 0.2, 0.07237813884785818, 0.48514851485148514, 0.00341296928327645, 0.2, 0.2, 0.0012180267965895251, 0.0022883295194508005, 0.0018761726078799247, 0.005076142131979696, 0.0006920415224913495, 0.00023917723032767282, 0.0009017132551848513, 0.0007980845969672786, 0.2, 0.2, 0.2, 0.2, 0.00129366106080207, 0.0005934718100890207, 0.2, 0.2, 0.0018761726078799247, 0.0002391772303276728, 0.2, 0.2, 0.2, 0.2, 0.2, 0.2, 0.2, 0.2, 0.2, 0.2, 0.2, 0.01886792452830189, 0.2, 0.2, 0.2, 0.2, 0.2, 0.2, 0.14174820969769858, 0.11128062197447555, 0.004081632653061225, 0.002932551319648094, 0.2403936432868519, 0.21392989706749235, 0.2, 0.3559822747415066, 0.009900990099009901, 0.00341296928327645, 0.2, 0.2, 0.35200974421437276, 0.22196796338672767, 0.27204502814258913, 0.7360406091370559, 0.13356401384083044, 0.05764171250896915, 0.47700631199278637, 0.46049481245011975, 0.2, 0.2, 0.2, 0.2, 0.00129366106080207, 0.0005934718100890207, 0.2, 0.2, 0.0018761726078799247, 0.0002391772303276728, 0.2, 0.2, 0.2, 0.2, 0.2, 0.2, 0.2, 0.2, 0.2, 0.2, 0.2, 0.01886792452830189, 0.2, 0.2, 0.2, 0.2, 0.2, 0.2, 0.18635543650576722, 0.11832184245269178, 0.004081632653061225, 0.002932551319648094, 0.19699551413568867, 0.19029882168513923, 0.2, 0.1432791728212703, 0.009900990099009901, 0.16723549488054607, 0.2, 0.2, 0.0012180267965895251, 0.0022883295194508005, 0.722326454033771, 0.2487309644670051, 0.06712802768166092, 0.03468069839751256, 0.5202885482416593, 0.4988028731045491, 0.2, 0.2, 0.2, 0.2, 0.9948253557567918, 0.114540059347181, 0.2, 0.2, 0.9924953095684802, 0.17244678306625208, 0.2, 0.2, 0.2, 0.2, 0.2, 0.2, 0.2, 0.2, 0.2, 0.2, 0.2, 0.01886792452830189, 0.2, 0.2, 0.2, 0.2, 0.2, 0.2, 0.3437927075930684, 0.22394014962593514, 0.5918367346938777, 0.1436950146627566, 0.21535626108425773, 0.18221450642275527, 0.2, 0.07237813884785818, 0.48514851485148514, 0.3310580204778157, 0.2, 0.2, 0.0012180267965895251, 0.0022883295194508005, 0.0018761726078799247, 0.005076142131979696, 0.06712802768166092, 0.03468069839751256, 0.0009017132551848513, 0.0007980845969672786, 0.2, 0.2, 0.2, 0.2, 0.00129366106080207, 0.029080118694362018, 0.2, 0.2, 0.0018761726078799247, 0.11504424778761062, 0.2, 0.2, 0.2, 0.2, 0.2, 0.2, 0.2, 0.2, 0.2, 0.2, 0.2, 0.01886792452830189, 0.2, 0.2, 0.2, 0.2, 0.2, 0.2, 0.06827748319029137, 0.3140677717471028, 0.2, 0.8475073313782991, 0.03007963278506102, 0.14832256936122248, 0.2, 0.3559822747415066, 0.009900990099009901, 0.4948805460750853, 0.2, 0.2, 0.6443361753958589, 0.7711670480549198, 0.0018761726078799247, 0.005076142131979696, 0.7314878892733564, 0.8727577134656781, 0.0009017132551848513, 0.03910614525139665, 0.2, 0.2, 0.2, 0.2, 0.00129366106080207, 0.855192878338279, 0.2, 0.2, 0.0018761726078799247, 0.7120306146854819, 0.2, 0.2, 0.2, 0.2, 0.2, 0.2, 0.2, 0.2, 0.2, 0.2, 0.2, 0.9245283018867925, 0.2, 0.2, 0.2, 0.2, 0.2, 0.2 ;
}
probability ( close_num | pre_prs ) {
    table 0.9961691939345569, 0.0012486992715920913, 0.0001951219512195122, 0.00020449897750511245, 0.00018433179723502304, 0.0033519553072625693, 0.9960457856399582, 0.006048780487804878, 0.00020449897750511245, 0.00018433179723502304, 0.0001596169193934557, 0.002289281997918834, 0.9904390243902439, 0.01247443762781186, 0.00018433179723502304, 0.0001596169193934557, 0.00020811654526534855, 0.0031219512195121953, 0.9807770961145194, 0.021382488479262673, 0.0001596169193934557, 0.00020811654526534855, 0.0001951219512195122, 0.006339468302658486, 0.9780645161290323 ;
}
probability ( comment_num | commit_num, participants_count, review_comment_num ) {
    table 0.6581980630200518, 0.7775074058400337, 0.328975078975079, 0.21558148656599332, 0.326271186440678, 0.00032560562646522537, 0.5812846143455356, 0.5802640487474611, 0.2249511057619979, 0.12493040983255535, 0.013157894736842105, 4.3341076939079786e-05, 0.326271186440678, 0.8369565217391305, 0.030487804878048776, 0.05434782608695653, 0.25, 0.05434782608695653, 0.2628904651480016, 0.2214346170122725, 0.31002106002106, 0.42738772308295747, 0.021186440677966104, 0.061278978900755406, 0.2603336485208699, 0.4193974272173324, 0.3305626598465473, 0.3261209370048392, 0.39210526315789473, 0.0168943517908533, 0.326271186440678, 0.05434782608695653, 0.030487804878048776, 0.05434782608695653, 0.25, 0.05434782608695653, 0.0689196562542627, 0.0005289885738468048, 0.21525096525096524, 0.3567856442439694, 0.326271186440678, 0.21131805157593123, 0.1290355261380521, 0.00016926201760324982, 0.23849104859335038, 0.548895122264571, 0.013157894736842105, 0.0818019486148192, 0.326271186440678, 0.05434782608695653, 0.9085365853658536, 0.8369565217391305, 0.25, 0.05434782608695653, 0.009991815577683808, 0.0005289885738468048, 0.14575289575289574, 0.0002451461070798196, 0.326271186440678, 0.7270773638968482, 0.029346210995542344, 0.00016926201760324982, 0.2059951857981044, 5.3530898034345425e-05, 0.581578947368421, 0.9012603585173885, 0.021186440677966104, 0.05434782608695653, 0.030487804878048776, 0.05434782608695653, 0.25, 0.8369565217391305 ;
}
probability ( commit_num ) {
    table 0.22570099333584812, 0.772475795297372, 0.0018232113667798315 ;
}
probability ( file_changed_num | commit_num ) {
    table 0.5334958217270195, 0.16686335150972573, 0.04310344827586207, 0.35967966573816157, 0.34290306828355177, 0.04310344827586207, 0.10647632311977716, 0.49013184666720927, 0.04310344827586207, 0.00034818941504178273, 0.00010173353951330676, 0.8706896551724138 ;
}
probability ( has_assignees_content | change_num, close_num, comment_num, has_labels ) {
    table 0.4285805381966586, 0.012195121951219514, 0.5209549468642419, 0.5, 0.6971146979002999, 0.5, 0.9419584282853395, 0.5, 0.3623687069902209, 0.5, 0.4800066644451849, 0.5, 0.6145535016922676, 0.5, 0.7699325168707822, 0.9878048780487805, 0.5, 0.5, 0.993827160493827, 0.5, 0.5, 0.5, 0.5, 0.5, 0.06318252730109204, 0.5, 0.4286563614744352, 0.5, 0.44452149791955614, 0.5, 0.6652892561983471, 0.5, 0.5, 0.5, 0.5, 0.5, 0.5, 0.5, 0.5, 0.5, 0.9683840749414521, 0.5, 0.9997223764575235, 0.5, 0.9997597308986064, 0.5, 0.9812521901647004, 0.0024875621890547263, 0.34926616422054735, 0.5, 0.42669110296567814, 0.5, 0.5823949464432848, 0.5, 0.9592562487299329, 0.5, 0.1796925048046124, 0.998220640569395, 0.43185689948892675, 0.998220640569395, 0.624934929724102, 0.998220640569395, 0.7969938428105758, 0.998220640569395, 0.42315081652257447, 0.5, 0.40016638935108156, 0.5, 0.562402496099844, 0.9878048780487805, 0.7597402597402597, 0.5, 0.9958677685950412, 0.5, 0.5, 0.5, 0.993827160493827, 0.5, 0.5, 0.5, 0.5, 0.5, 0.5, 0.5, 0.5, 0.5, 0.5, 0.5, 0.48485422188564936, 0.5, 0.7014173815740395, 0.5, 0.8682999013482406, 0.5, 0.9382929642445214, 0.5, 0.5825907411432297, 0.9878048780487805, 0.754839500122519, 0.5, 0.7423783374360916, 0.5, 0.9875019406924391, 0.5, 0.9560260586319218, 0.999219968798752, 0.9996953077391834, 0.899002493765586, 0.9518430439952438, 0.9968944099378881, 0.966278101582015, 0.7985074626865671, 0.9991087344028521, 0.5, 0.9975124378109452, 0.5, 0.9975124378109452, 0.5, 0.9991087344028521, 0.5, 0.5, 0.5, 0.5, 0.5, 0.5, 0.5, 0.5, 0.5, 0.5, 0.5, 0.5, 0.5, 0.5, 0.5, 0.5, 0.5, 0.5961076405574243, 0.5, 0.7198900549725137, 0.5, 0.7182330165434706, 0.5, 0.9625087596355991, 0.5, 0.7243652824247195, 0.33471074380165283, 0.8789205540519026, 0.5, 0.8805260212646894, 0.5, 0.9937121564974384, 0.012195121951219514, 0.5101988781234065, 0.012195121951219514, 0.8497813866333541, 0.5, 0.8418803418803418, 0.5, 0.9470742932281393, 0.5, 0.5, 0.5, 0.5, 0.5, 0.5, 0.5, 0.5, 0.5, 0.5, 0.5, 0.5, 0.5, 0.5, 0.5, 0.5, 0.5, 0.5, 0.5, 0.5, 0.5, 0.5, 0.5, 0.5, 0.5, 0.5908059023836549, 0.9878048780487805, 0.7939015429831007, 0.5, 0.7035152636447733, 0.5, 0.9995004995004996, 0.5, 0.6171760570256811, 0.3340248962655602, 0.8092663643762353, 0.012195121951219514, 0.8294986507598353, 0.012195121951219514, 0.9452182564357667, 0.006172839506172839, 0.5714194618033414, 0.9878048780487805, 0.4790450531357581, 0.5, 0.30288530209970005, 0.5, 0.058041571714660595, 0.5, 0.637631293009779, 0.5, 0.5199933355548151, 0.5, 0.38544649830773237, 0.5, 0.23006748312921768, 0.012195121951219514, 0.5, 0.5, 0.006172839506172839, 0.5, 0.5, 0.5, 0.5, 0.5, 0.936817472698908, 0.5, 0.5713436385255648, 0.5, 0.5554785020804438, 0.5, 0.33471074380165283, 0.5, 0.5, 0.5, 0.5, 0.5, 0.5, 0.5, 0.5, 0.5, 0.03161592505854801, 0.5, 0.00027762354247640197, 0.5, 0.00024026910139356077, 0.5, 0.01874780983529962, 0.9975124378109452, 0.6507338357794525, 0.5, 0.5733088970343219, 0.5, 0.4176050535567152, 0.5, 0.04074375127006706, 0.5, 0.8203074951953875, 0.0017793594306049821, 0.5681431005110733, 0.0017793594306049821, 0.37506507027589797, 0.0017793594306049821, 0.2030061571894241, 0.0017793594306049821, 0.5768491834774255, 0.5, 0.5998336106489185, 0.5, 0.43759750390015606, 0.012195121951219514, 0.24025974025974028, 0.5, 0.004132231404958678, 0.5, 0.5, 0.5, 0.006172839506172839, 0.5, 0.5, 0.5, 0.5, 0.5, 0.5, 0.5, 0.5, 0.5, 0.5, 0.5, 0.5151457781143506, 0.5, 0.2985826184259604, 0.5, 0.13170009865175927, 0.5, 0.06170703575547866, 0.5, 0.41740925885677027, 0.012195121951219514, 0.24516049987748098, 0.5, 0.25762166256390834, 0.5, 0.01249805930756094, 0.5, 0.043973941368078175, 0.0007800312012480501, 0.0003046922608165752, 0.10099750623441398, 0.048156956004756245, 0.003105590062111801, 0.033721898417985015, 0.2014925373134328, 0.0008912655971479503, 0.5, 0.0024875621890547263, 0.5, 0.0024875621890547263, 0.5, 0.0008912655971479503, 0.5, 0.5, 0.5, 0.5, 0.5, 0.5, 0.5, 0.5, 0.5, 0.5, 0.5, 0.5, 0.5, 0.5, 0.5, 0.5, 0.5, 0.4038923594425757, 0.5, 0.2801099450274862, 0.5, 0.28176698345652934, 0.5, 0.03749124036440084, 0.5, 0.27563471757528046, 0.6652892561983471, 0.12107944594809746, 0.5, 0.11947397873531057, 0.5, 0.006287843502561715, 0.9878048780487805, 0.4898011218765936, 0.9878048780487805, 0.15021861336664583, 0.5, 0.1581196581196581, 0.5, 0.05292570677186061, 0.5, 0.5, 0.5, 0.5, 0.5, 0.5, 0.5, 0.5, 0.5, 0.5, 0.5, 0.5, 0.5, 0.5, 0.5, 0.5, 0.5, 0.5, 0.5, 0.5, 0.5, 0.5, 0.5, 0.5, 0.5, 0.40919409761634506, 0.012195121951219514, 0.20609845701689936, 0.5, 0.29648473635522665, 0.5, 0.0004995004995004996, 0.5, 0.382823942974319, 0.6659751037344398, 0.19073363562376472, 0.9878048780487805, 0.17050134924016477, 0.9878048780487805, 0.05478174356423331, 0.993827160493827 ;
}
probability ( has_bug | body_words, title_words ) {
    table 0.7212051868802442, 0.688953488372093, 0.7702177293934681, 0.7557544757033248, 0.6849775784753364, 0.773972602739726, 0.7731299212598426, 0.8367794486215538, 0.8377016129032259, 0.8252647503782149, 0.7992861065348709, 0.8738584474885845, 0.9052734374999999, 0.8652263374485597, 0.9397394136807817, 0.4643782383419689, 0.5528789659224442, 0.7531645569620253, 0.9590818363273453, 0.9427083333333334, 0.9996934396076026, 0.9993429697766097, 0.9996468926553671, 0.9987046632124353, 0.9993429697766097, 0.2787948131197559, 0.31104651162790703, 0.2297822706065319, 0.2442455242966752, 0.3150224215246637, 0.22602739726027393, 0.2268700787401575, 0.1632205513784461, 0.16229838709677422, 0.1747352496217852, 0.20071389346512902, 0.12614155251141554, 0.09472656249999999, 0.13477366255144035, 0.06026058631921824, 0.5356217616580311, 0.4471210340775558, 0.24683544303797467, 0.04091816367265469, 0.05729166666666667, 0.00030656039239730225, 0.0006570302233902761, 0.0003531073446327683, 0.001295336787564767, 0.0006570302233902761 ;
}
probability ( has_document | body_words ) {
    table 0.7462025316455696, 0.894163763066202, 0.9570035460992907, 0.9875502008032129, 0.9994954591321897, 0.2537974683544304, 0.10583623693379791, 0.04299645390070922, 0.012449799196787148, 0.0005045408678102926 ;
}
probability ( has_feature | body_words ) {
    table 0.939873417721519, 0.9821428571428571, 0.9906914893617021, 0.9979919678714859, 0.9994954591321897, 0.060126582278481014, 0.017857142857142856, 0.009308510638297872, 0.002008032128514056, 0.0005045408678102926 ;
}
probability ( has_improve | body_words ) {
    table 0.9550632911392405, 0.9777874564459931, 0.988031914893617, 0.9963855421686747, 0.9994954591321897, 0.04493670886075949, 0.02221254355400697, 0.011968085106382979, 0.0036144578313253013, 0.0005045408678102926 ;
}
probability ( has_labels | author_identity ) {
    table 0.9946116873260814, 0.6896758703481393, 0.9958402662229617, 0.7222222222222222, 0.005388312673918543, 0.31032412965186074, 0.004159733777038269, 0.2777777777777778 ;
}
probability ( has_refactor | total_add_line ) {
    table 0.9589720468890893, 0.9911710037174721, 0.9987035436473639, 0.9973204715969989, 0.9975657254138267, 0.04102795311091073, 0.008828996282527882, 0.0012964563526361278, 0.0026795284030010718, 0.0024342745861733205 ;
}
probability ( is_weekday | change_num ) {
    table 0.031655225019069415, 0.023107177974434612, 0.0364476386036961, 0.05679611650485437, 0.14587628865979382, 0.9683447749809306, 0.9768928220255654, 0.9635523613963038, 0.9432038834951456, 0.8541237113402061 ;
}
probability ( participants_count | accept_num, file_changed_num, review_comment_num ) {
    table 0.5694242864054184, 0.17154413514156555, 0.45434900054024846, 0.08679426989286144, 0.33927245731254646, 0.07368600391856206, 0.03703703703703703, 0.3333333333333333, 0.8146204966771597, 0.2632237871674491, 0.5362760020294267, 0.1571724908249561, 0.6238651102464332, 0.06386574912471327, 0.3333333333333333, 0.3333333333333333, 0.6353662471765086, 0.22606445542225356, 0.3981583793738489, 0.07941979032026426, 0.4070660522273425, 0.08908515974266709, 0.9259259259259258, 0.4901960784313726, 0.6551336146272856, 0.2567219152854512, 0.6170828809265291, 0.13974864003001314, 0.4051627384960718, 0.07565543071161049, 0.3333333333333333, 0.3333333333333333, 0.7275788184879094, 0.3143083630598494, 0.6778863554107853, 0.2582600195503421, 0.6908063687724705, 0.19905843823559513, 0.6533333333333334, 0.037037037037037035, 0.43009192065795837, 0.3885320009517012, 0.5321447866018368, 0.3150355122186108, 0.6421677802524128, 0.24542124542124544, 0.9259259259259258, 0.3333333333333333, 0.1850297306750612, 0.4960876369327074, 0.46321664129883305, 0.4252433381203128, 0.3748378728923476, 0.39997585415912107, 0.3333333333333333, 0.3333333333333333, 0.3643110680864795, 0.5139967066572572, 0.6014732965009207, 0.44477954904495187, 0.5913978494623655, 0.3795660233344237, 0.03703703703703703, 0.4901960784313726, 0.34458509142053445, 0.521915285451197, 0.3738689829895041, 0.46839242168448697, 0.5667789001122335, 0.4352059925093633, 0.3333333333333333, 0.3333333333333333, 0.2647689011325375, 0.42845818470075303, 0.2956930872240318, 0.4975562072336266, 0.30868002054442734, 0.41275202128748334, 0.3333333333333334, 0.037037037037037035, 0.0004837929366231253, 0.4399238639067333, 0.013506212857914642, 0.5981702178885278, 0.018559762435040834, 0.6808927506601926, 0.03703703703703703, 0.3333333333333333, 0.00034977264777894364, 0.2406885758998435, 0.0005073566717402334, 0.41758417105473117, 0.0012970168612191958, 0.5361583967161656, 0.3333333333333333, 0.3333333333333333, 0.00032268473701193933, 0.2599388379204893, 0.0003683241252302025, 0.4758006606347838, 0.0015360983102918585, 0.5313488169229091, 0.03703703703703703, 0.0196078431372549, 0.00028129395218002813, 0.22136279926335176, 0.009048136083966702, 0.39185893828549995, 0.028058361391694726, 0.48913857677902617, 0.3333333333333333, 0.3333333333333333, 0.007652280379553108, 0.25723345223939753, 0.026420557365182767, 0.24418377321603127, 0.0005136106831022085, 0.3881895404769215, 0.013333333333333334, 0.925925925925926 ;
}
probability ( pre_prs | author_identity, change_num ) {
    table 0.6869299751955734, 0.3628446276732801, 5.629045876723896e-05, 4.9346163335800646e-05, 6.58544616397761e-05, 0.2, 0.0010810810810810813, 0.0012738853503184717, 0.009523809523809525, 0.0004264392324093817, 0.2, 0.2, 0.001081081081081081, 0.0044444444444444444, 0.0005420054200542005, 0.2, 0.2, 0.2, 0.2, 0.04, 0.2602938370539974, 0.3576913166709611, 0.30627638615254715, 4.9346163335800646e-05, 6.58544616397761e-05, 0.2, 0.0010810810810810813, 0.0012738853503184717, 0.009523809523809525, 0.0004264392324093817, 0.2, 0.2, 0.001081081081081081, 0.0044444444444444444, 0.0005420054200542005, 0.2, 0.2, 0.2, 0.2, 0.04, 0.00843350505628697, 0.18763205359443444, 0.5753447790599493, 0.27244016777695534, 6.58544616397761e-05, 0.2, 0.9524324324324325, 0.0012738853503184717, 0.009523809523809525, 0.0004264392324093817, 0.2, 0.2, 0.001081081081081081, 0.0044444444444444444, 0.0005420054200542005, 0.2, 0.2, 0.2, 0.2, 0.04, 0.04430452203777906, 0.08971914455037361, 0.09012102448634957, 0.5655563779916111, 0.05143233454066513, 0.2, 0.04432432432432433, 0.9949044585987262, 0.9619047619047618, 0.5377398720682303, 0.2, 0.2, 0.6713513513513514, 0.0044444444444444444, 0.0005420054200542005, 0.2, 0.2, 0.2, 0.2, 0.04, 3.816065636328946e-05, 0.0021128575109507857, 0.028201519842386717, 0.1619047619047619, 0.9483701020744155, 0.2, 0.0010810810810810813, 0.0012738853503184717, 0.009523809523809525, 0.46098081023454157, 0.2, 0.2, 0.3254054054054054, 0.9822222222222223, 0.9978319783197832, 0.2, 0.2, 0.2, 0.2, 0.8400000000000001 ;
}
probability ( priorities_number | comment_num, has_assignees_content, is_weekday, review_comment_num ) {
    table 0.7786774628879892, 0.3984496124031008, 0.45471638984644314, 0.3097633419565009, 0.768688293370945, 0.6606683804627249, 0.6397709526288391, 0.48522055479763526, 0.2495164410058027, 0.3050993949870354, 0.21959583588487447, 0.14505455195850475, 0.7818181818181819, 0.42358078602620086, 0.3390916689885762, 0.22016903022489615, 0.0728476821192053, 0.08037383177570094, 0.1825017088174983, 0.06253051080637287, 0.2, 0.3310580204778157, 0.23205342237061768, 0.11459623056816619, 0.16751269035532995, 0.014492753623188406, 0.060825716987078476, 0.030680457267283613, 0.2, 0.42358078602620086, 0.0728476821192053, 0.09214772319827895, 0.21727395411605938, 0.49767441860465117, 0.3444061422751489, 0.2944332662642522, 0.22708039492242596, 0.2493573264781491, 0.21998958875585634, 0.252387448840382, 0.5589941972920697, 0.49870354364736386, 0.3175750153092468, 0.1889345972694211, 0.2, 0.5633187772925764, 0.30342713847868485, 0.27059160578713654, 0.5673289183222958, 0.35950155763239877, 0.24812030075187969, 0.13779789641858609, 0.2, 0.658703071672355, 0.3745130773511408, 0.29068647681936993, 0.49238578680203043, 0.40799297321036454, 0.13142136779073432, 0.10105606967882418, 0.2, 0.5633187772925764, 0.2141280353200883, 0.14951595553961994, 0.001349527665317139, 0.05116279069767442, 0.13715658623211113, 0.21778288780300853, 0.0014104372355430183, 0.08483290488431877, 0.10005205622071837, 0.165075034106412, 0.18762088974854932, 0.08383751080380294, 0.2940600122473974, 0.2976807965182138, 0.006060606060606061, 0.004366812227074236, 0.2320980774589022, 0.22933677123621257, 0.2847682119205298, 0.31962616822429907, 0.291866028708134, 0.2059645852749301, 0.2, 0.0034129692832764505, 0.14301613800779076, 0.1806300729123676, 0.16751269035532995, 0.12692138779095302, 0.34320832020170183, 0.21463255307566684, 0.2, 0.004366812227074236, 0.2141280353200883, 0.21835783434922912, 0.001349527665317139, 0.0015503875968992248, 0.05358821685991852, 0.13500047906486537, 0.0014104372355430183, 0.002570694087403599, 0.03675169182717335, 0.07776261937244201, 0.0019342359767891683, 0.056179775280898875, 0.12945499081445194, 0.22136767423835926, 0.006060606060606061, 0.004366812227074236, 0.0983560880468097, 0.19266580719094686, 0.0728476821192053, 0.08037383177570094, 0.189792663476874, 0.2613500199707096, 0.2, 0.0034129692832764505, 0.2142459654980523, 0.22465263447516853, 0.16751269035532995, 0.22529644268774704, 0.272612669398046, 0.2752531301034295, 0.2, 0.004366812227074236, 0.3554083885209713, 0.22983148081749732, 0.001349527665317139, 0.05116279069767442, 0.010132664786378356, 0.043020024911373, 0.0014104372355430183, 0.002570694087403599, 0.0034357105674128058, 0.019554342883128694, 0.0019342359767891683, 0.056179775280898875, 0.039314145744029395, 0.1469623800155011, 0.006060606060606061, 0.004366812227074236, 0.02702702702702703, 0.08723678556080791, 0.002207505518763797, 0.1601246105919003, 0.08771929824561403, 0.33235698752940135, 0.2, 0.0034129692832764505, 0.036171396772398445, 0.1894345852249278, 0.005076142131979695, 0.22529644268774704, 0.19193192562243933, 0.37837778987479587, 0.2, 0.004366812227074236, 0.1434878587196468, 0.3101470060953747 ;
}
probability ( review_comment_num | accept_num, commit_num, review_num ) {
    table 0.9984326018808777, 0.0008156606851549756, 0.9994984954864593, 9.175995595522112e-05, 0.9285714285714286, 0.5, 0.9991055456171736, 0.0006657789613848203, 0.9994054696789536, 0.00013568521031207597, 0.5, 0.5, 0.9991680532445923, 0.0007052186177715092, 0.9994984954864593, 0.004199772985244041, 0.9285714285714286, 0.03846153846153846, 0.9992887624466572, 0.0552665799739922, 0.9994559303590859, 0.04480750566159819, 0.5, 0.5, 0.9987593052109182, 0.4486594409583571, 0.9978165938864628, 0.1455440545316839, 0.5, 0.74, 0.0015673981191222568, 0.9991843393148451, 0.0005015045135406218, 0.9999082400440448, 0.07142857142857144, 0.5, 0.0008944543828264759, 0.9993342210386152, 0.0005945303210463732, 0.9998643147896878, 0.5, 0.5, 0.0008319467554076539, 0.9992947813822285, 0.0005015045135406218, 0.9958002270147559, 0.07142857142857144, 0.9615384615384615, 0.0007112375533428165, 0.9447334200260078, 0.0005440696409140369, 0.9551924943384018, 0.5, 0.5, 0.0012406947890818859, 0.5513405590416429, 0.0021834061135371174, 0.854455945468316, 0.5, 0.25999999999999995 ;
}
probability ( review_num | author_identity, total_add_line ) {
    table 0.43958587088915957, 0.2849141150112024, 0.14626483593204562, 0.06014718369657515, 0.04209284028324154, 0.7013422818791947, 0.5952380952380952, 0.3805970149253731, 0.2094017094017094, 0.0480225988700565, 0.3784530386740331, 0.25257731958762886, 0.09689922480620156, 0.05844155844155844, 0.004273504273504274, 0.5, 0.5, 0.5, 0.1, 0.5, 0.5604141291108404, 0.7150858849887977, 0.8537351640679544, 0.9398528163034249, 0.9579071597167584, 0.2986577181208054, 0.40476190476190477, 0.6194029850746269, 0.7905982905982906, 0.9519774011299436, 0.6215469613259669, 0.7474226804123711, 0.9031007751937985, 0.9415584415584416, 0.9957264957264957, 0.5, 0.5, 0.5, 0.9, 0.5 ;
}
probability ( title_words | commit_num, review_comment_num ) {
    table 0.35892176970407264, 0.2296256968409875, 0.4163308589607636, 0.3417594037967673, 0.3714285714285714, 0.3043478260869565, 0.14444769997070026, 0.11972391823732413, 0.14909862142099684, 0.1595750037766252, 0.19999999999999998, 0.04347826086956521, 0.28684441840023434, 0.23281125564109367, 0.27762460233297986, 0.2831461805730399, 0.3714285714285714, 0.04347826086956521, 0.07764430120128918, 0.1053889036368463, 0.07529162248144221, 0.08494888967218894, 0.028571428571428567, 0.3043478260869565, 0.13214181072370348, 0.3124502256437483, 0.08165429480381761, 0.13057052218137874, 0.028571428571428567, 0.3043478260869565 ;
}
probability ( total_add_line | commit_num, file_changed_num ) {
    table 0.7425923508680328, 0.24878993223620524, 0.10268149117069982, 0.2, 0.49030606023655643, 0.1104254435412093, 0.011997177134791811, 0.2, 0.2, 0.2, 0.2, 0.0099009900990099, 0.2084584257929774, 0.3881897386253631, 0.17331589274035317, 0.2, 0.2620412144860383, 0.3126446330030262, 0.06729212503632363, 0.2, 0.2, 0.2, 0.2, 0.0099009900990099, 0.03772353478658138, 0.2116166505324298, 0.3145846958796599, 0.2, 0.13620290208511154, 0.3162048300005934, 0.2311843580057287, 0.2, 0.2, 0.2, 0.2, 0.0099009900990099, 0.004829656702780316, 0.137270087124879, 0.24395029431000656, 0.2, 0.0323131325448116, 0.20227852607844302, 0.26555689318776204, 0.2, 0.2, 0.2, 0.2, 0.0099009900990099, 0.006396031849627985, 0.014133591481122943, 0.16546762589928057, 0.2, 0.07913669064748201, 0.05844656737672818, 0.4239694466353937, 0.2, 0.2, 0.2, 0.2, 0.9603960396039604 ;
}
probability ( total_delete_line | file_changed_num, total_add_line ) {
    table 0.7068890948409022, 0.3300240192153722, 0.2818763326226013, 0.7148514851485148, 0.6532188841201718, 0.4043851286939943, 0.11554639175257732, 0.039327417094815506, 0.032192279679533864, 0.26118980169971673, 0.5114093959731544, 0.1275039745627981, 0.006048587010411502, 0.00717766947275144, 0.01610776726855833, 0.2, 0.2, 0.2, 0.2, 0.006060606060606061, 0.1668829162805067, 0.499759807846277, 0.4353944562899787, 0.12079207920792077, 0.05236051502145924, 0.240419447092469, 0.38441237113402066, 0.2896777206912658, 0.06132556445739256, 0.24985835694050992, 0.08187919463087248, 0.470906200317965, 0.14685176003966285, 0.024900310146211788, 0.050501576382917746, 0.2, 0.2, 0.2, 0.2, 0.006060606060606061, 0.05319740500463393, 0.1250600480384307, 0.20511727078891262, 0.08118811881188116, 0.0008583690987124466, 0.11458531935176358, 0.24255670103092786, 0.36814572629612335, 0.32352512745812084, 0.19320113314447593, 0.028187919463087248, 0.16565977742448332, 0.3213683688646505, 0.22871067789100577, 0.05738033820578963, 0.2, 0.2, 0.2, 0.2, 0.006060606060606061, 0.03466172381835034, 0.028983186549239388, 0.05159914712153518, 0.08118811881188116, 0.0008583690987124466, 0.09933269780743566, 0.17327835051546392, 0.2037365716954694, 0.5391114348142753, 0.22719546742209631, 0.028187919463087248, 0.057551669316375204, 0.22816063460585026, 0.496322552060257, 0.742963599885354, 0.2, 0.2, 0.2, 0.2, 0.006060606060606061, 0.03836886005560706, 0.01617293835068054, 0.026012793176972283, 0.0019801980198019802, 0.2927038626609443, 0.14127740705433744, 0.0842061855670103, 0.099112564222326, 0.04384559359067734, 0.06855524079320113, 0.3503355704697987, 0.1783783783783784, 0.2975706494794249, 0.24288879042977404, 0.13304671825738035, 0.2, 0.2, 0.2, 0.2, 0.9757575757575758 ;
}
probability ( workload | author_identity, change_num, has_assignees_content, pre_prs ) {
    table 0.20346989472023974, 0.10607246559777805, 0.0008298755186721993, 0.6494382022471911, 0.19999999999999998, 0.18045296494690352, 0.1888131445551477, 0.3990049751243781, 0.7364891518737671, 0.19999999999999998, 0.00888987500924488, 0.05358776922218503, 0.08513693166710982, 0.38765935747067815, 0.4962962962962964, 0.2855614973262032, 0.11383865068075595, 0.05685884691848907, 0.18422090729783033, 0.19999999999999998, 0.19999999999999998, 0.19704469892870338, 0.06948700452825507, 6.327111673521038e-05, 0.00019980019980019983, 0.19999999999999998, 0.07250996015936256, 0.36107382550335576, 0.004878048780487807, 0.19999999999999998, 0.19999999999999998, 0.19999999999999998, 0.22018117188395828, 0.06349883438321513, 0.0330923362941541, 0.19999999999999998, 0.19999999999999998, 0.3447651874192158, 0.20289750090546907, 0.06984311446833236, 0.19999999999999998, 0.19999999999999998, 0.19999999999999998, 0.10262652146060217, 0.1350905662032367, 0.19999999999999998, 0.19999999999999998, 0.19999999999999998, 0.19999999999999998, 0.1933344442592901, 0.19999999999999998, 0.19999999999999998, 0.19999999999999998, 0.19999999999999998, 0.19999999999999998, 0.19999999999999998, 0.19999999999999998, 0.19999999999999998, 0.19999999999999998, 0.19999999999999998, 0.19999999999999998, 0.19999999999999998, 0.09097103918228279, 0.0024691358024691366, 0.19999999999999998, 0.19999999999999998, 0.19999999999999998, 0.19999999999999998, 0.19999999999999998, 0.19999999999999998, 0.19999999999999998, 0.19999999999999998, 0.19999999999999998, 0.054152599594868324, 0.19999999999999998, 0.19999999999999998, 0.19999999999999998, 0.19999999999999998, 0.0024691358024691358, 0.19999999999999998, 0.19999999999999998, 0.19999999999999998, 0.19999999999999998, 0.0009950248756218907, 0.19999999999999998, 0.19999999999999998, 0.19999999999999998, 0.19999999999999998, 0.19999999999999998, 0.19999999999999998, 0.19999999999999998, 0.19999999999999998, 0.19999999999999998, 0.30762331838565027, 0.030431491294473874, 0.19999999999999998, 0.19999999999999998, 0.19999999999999998, 0.2915712799167534, 0.00023781212841854937, 0.19999999999999998, 0.19999999999999998, 0.19999999999999998, 0.19999999999999998, 0.19999999999999998, 0.19999999999999998, 0.19999999999999998, 0.19999999999999998, 0.19999999999999998, 0.19999999999999998, 0.19999999999999998, 0.19999999999999998, 0.19999999999999998, 0.19999999999999998, 0.19999999999999998, 0.19999999999999998, 0.19999999999999998, 0.19999999999999998, 0.19999999999999998, 0.19999999999999998, 0.19999999999999998, 0.19999999999999998, 0.19999999999999998, 0.48251507321274767, 0.0003327787021630616, 0.19999999999999998, 0.19999999999999998, 0.19999999999999998, 0.0024691358024691366, 0.19999999999999998, 0.19999999999999998, 0.19999999999999998, 0.19999999999999998, 0.19999999999999998, 0.11135734072022159, 0.19999999999999998, 0.19999999999999998, 0.19999999999999998, 0.19999999999999998, 0.4962962962962964, 0.19999999999999998, 0.19999999999999998, 0.19999999999999998, 0.19999999999999998, 0.1486659912191827, 0.19999999999999998, 0.19999999999999998, 0.19999999999999998, 0.19999999999999998, 0.3331484049930652, 0.19999999999999998, 0.19999999999999998, 0.19999999999999998, 0.19999999999999998, 0.19999999999999998, 0.19999999999999998, 0.19999999999999998, 0.19999999999999998, 0.19999999999999998, 0.19999999999999998, 0.19999999999999998, 0.19999999999999998, 0.19999999999999998, 0.19999999999999998, 0.19999999999999998, 0.19999999999999998, 0.19999999999999998, 0.19999999999999998, 0.19999999999999998, 0.19999999999999998, 0.19999999999999998, 0.19999999999999998, 0.19999999999999998, 0.19999999999999998, 0.19999999999999998, 0.19999999999999998, 0.19999999999999998, 0.19999999999999998, 0.19999999999999998, 0.19999999999999998, 0.19999999999999998, 0.19999999999999998, 0.19999999999999998, 0.19999999999999998, 0.19999999999999998, 0.19999999999999998, 0.19999999999999998, 0.19999999999999998, 0.19999999999999998, 0.19999999999999998, 0.19999999999999998, 0.19999999999999998, 0.19999999999999998, 0.19999999999999998, 0.004878048780487807, 0.19999999999999998, 0.19999999999999998, 0.19999999999999998, 0.19999999999999998, 0.19999999999999998, 0.25709554039667204, 0.10102259815679837, 0.16680497925311202, 0.15006242197253433, 0.19999999999999998, 0.3684052250728315, 0.20279671386121306, 0.0009950248756218907, 0.1316239316239316, 0.19999999999999998, 0.12130759559204203, 0.03126883160361567, 0.1595852166976868, 0.4488526262111167, 0.4962962962962964, 0.4281639928698752, 0.4308473887421256, 0.29542743538767396, 0.2894148586456278, 0.19999999999999998, 0.19999999999999998, 0.2807782292821081, 0.18610508033000434, 0.07598861119898766, 0.08011988011988012, 0.19999999999999998, 0.4057225642883014, 0.28701689423744503, 0.004878048780487807, 0.19999999999999998, 0.19999999999999998, 0.19999999999999998, 0.2568742116729733, 0.15079609146371709, 0.2066102045032018, 0.19999999999999998, 0.19999999999999998, 0.4137009909521757, 0.15943498732343356, 0.39523532829750135, 0.19999999999999998, 0.19999999999999998, 0.19999999999999998, 0.17950032030749516, 0.15438796544011227, 0.19999999999999998, 0.19999999999999998, 0.19999999999999998, 0.19999999999999998, 0.3466422262956174, 0.19999999999999998, 0.19999999999999998, 0.19999999999999998, 0.19999999999999998, 0.19999999999999998, 0.19999999999999998, 0.19999999999999998, 0.19999999999999998, 0.19999999999999998, 0.19999999999999998, 0.19999999999999998, 0.19999999999999998, 0.1818285065303805, 0.4962962962962964, 0.19999999999999998, 0.19999999999999998, 0.19999999999999998, 0.19999999999999998, 0.19999999999999998, 0.19999999999999998, 0.19999999999999998, 0.19999999999999998, 0.19999999999999998, 0.13517893315327478, 0.19999999999999998, 0.19999999999999998, 0.19999999999999998, 0.19999999999999998, 0.0024691358024691358, 0.19999999999999998, 0.19999999999999998, 0.19999999999999998, 0.19999999999999998, 0.0009950248756218907, 0.19999999999999998, 0.19999999999999998, 0.19999999999999998, 0.19999999999999998, 0.19999999999999998, 0.19999999999999998, 0.19999999999999998, 0.19999999999999998, 0.19999999999999998, 0.25637411915438824, 0.18183194549583645, 0.19999999999999998, 0.19999999999999998, 0.19999999999999998, 0.16670135275754422, 0.14292508917954816, 0.19999999999999998, 0.19999999999999998, 0.19999999999999998, 0.19999999999999998, 0.19999999999999998, 0.19999999999999998, 0.19999999999999998, 0.19999999999999998, 0.19999999999999998, 0.19999999999999998, 0.19999999999999998, 0.19999999999999998, 0.19999999999999998, 0.19999999999999998, 0.19999999999999998, 0.19999999999999998, 0.19999999999999998, 0.19999999999999998, 0.19999999999999998, 0.19999999999999998, 0.19999999999999998, 0.19999999999999998, 0.19999999999999998, 0.10353143841515934, 0.0003327787021630616, 0.19999999999999998, 0.19999999999999998, 0.19999999999999998, 0.4962962962962964, 0.19999999999999998, 0.19999999999999998, 0.19999999999999998, 0.19999999999999998, 0.19999999999999998, 0.44376731301939054, 0.19999999999999998, 0.19999999999999998, 0.19999999999999998, 0.19999999999999998, 0.4962962962962964, 0.19999999999999998, 0.19999999999999998, 0.19999999999999998, 0.19999999999999998, 0.2972644376899696, 0.19999999999999998, 0.19999999999999998, 0.19999999999999998, 0.19999999999999998, 0.11123439667128988, 0.19999999999999998, 0.19999999999999998, 0.19999999999999998, 0.19999999999999998, 0.19999999999999998, 0.19999999999999998, 0.19999999999999998, 0.19999999999999998, 0.19999999999999998, 0.19999999999999998, 0.19999999999999998, 0.19999999999999998, 0.19999999999999998, 0.19999999999999998, 0.19999999999999998, 0.19999999999999998, 0.19999999999999998, 0.19999999999999998, 0.19999999999999998, 0.19999999999999998, 0.19999999999999998, 0.19999999999999998, 0.19999999999999998, 0.19999999999999998, 0.19999999999999998, 0.19999999999999998, 0.19999999999999998, 0.19999999999999998, 0.19999999999999998, 0.19999999999999998, 0.19999999999999998, 0.19999999999999998, 0.19999999999999998, 0.19999999999999998, 0.19999999999999998, 0.19999999999999998, 0.19999999999999998, 0.19999999999999998, 0.19999999999999998, 0.19999999999999998, 0.19999999999999998, 0.19999999999999998, 0.19999999999999998, 0.19999999999999998, 0.004878048780487807, 0.19999999999999998, 0.19999999999999998, 0.19999999999999998, 0.19999999999999998, 0.19999999999999998, 0.26971333937936204, 0.24746875394520895, 0.3327800829875519, 0.15006242197253433, 0.19999999999999998, 0.3120195470350531, 0.2447474217794092, 0.0009950248756218907, 0.1316239316239316, 0.19999999999999998, 0.2810590932623327, 0.07590670684075437, 0.1595852166976868, 0.12248852626211115, 0.0024691358024691366, 0.21426024955436718, 0.2845356634830319, 0.38631070718545873, 0.47350427350427343, 0.19999999999999998, 0.19999999999999998, 0.25122521856914176, 0.22828608647106258, 0.07598861119898766, 0.4397602397602398, 0.19999999999999998, 0.3622600507062659, 0.24073131219625088, 0.004878048780487807, 0.19999999999999998, 0.19999999999999998, 0.19999999999999998, 0.16055498222680886, 0.2063488914240365, 0.2809750051642223, 0.19999999999999998, 0.19999999999999998, 0.206893580353296, 0.42021006881564654, 0.32550842533410806, 0.19999999999999998, 0.19999999999999998, 0.19999999999999998, 0.051377322229340154, 0.2526292706460243, 0.19999999999999998, 0.19999999999999998, 0.19999999999999998, 0.19999999999999998, 0.2599900016663889, 0.19999999999999998, 0.19999999999999998, 0.19999999999999998, 0.19999999999999998, 0.19999999999999998, 0.19999999999999998, 0.19999999999999998, 0.19999999999999998, 0.19999999999999998, 0.19999999999999998, 0.19999999999999998, 0.19999999999999998, 0.22725724020442933, 0.4962962962962964, 0.19999999999999998, 0.19999999999999998, 0.19999999999999998, 0.19999999999999998, 0.19999999999999998, 0.19999999999999998, 0.19999999999999998, 0.19999999999999998, 0.19999999999999998, 0.29723160027008777, 0.19999999999999998, 0.19999999999999998, 0.19999999999999998, 0.19999999999999998, 0.0024691358024691358, 0.19999999999999998, 0.19999999999999998, 0.19999999999999998, 0.19999999999999998, 0.5980099502487563, 0.19999999999999998, 0.19999999999999998, 0.19999999999999998, 0.19999999999999998, 0.19999999999999998, 0.19999999999999998, 0.19999999999999998, 0.19999999999999998, 0.19999999999999998, 0.10262652146060218, 0.18183194549583645, 0.19999999999999998, 0.19999999999999998, 0.19999999999999998, 0.24994797086368367, 0.4758620689655173, 0.19999999999999998, 0.19999999999999998, 0.19999999999999998, 0.19999999999999998, 0.19999999999999998, 0.19999999999999998, 0.19999999999999998, 0.19999999999999998, 0.19999999999999998, 0.19999999999999998, 0.19999999999999998, 0.19999999999999998, 0.19999999999999998, 0.19999999999999998, 0.19999999999999998, 0.19999999999999998, 0.19999999999999998, 0.19999999999999998, 0.19999999999999998, 0.19999999999999998, 0.19999999999999998, 0.19999999999999998, 0.19999999999999998, 0.10353143841515934, 0.2, 0.19999999999999998, 0.19999999999999998, 0.19999999999999998, 0.0024691358024691366, 0.19999999999999998, 0.19999999999999998, 0.19999999999999998, 0.19999999999999998, 0.19999999999999998, 0.33296398891966755, 0.19999999999999998, 0.19999999999999998, 0.19999999999999998, 0.19999999999999998, 0.0024691358024691366, 0.19999999999999998, 0.19999999999999998, 0.19999999999999998, 0.19999999999999998, 0.1756838905775076, 0.19999999999999998, 0.19999999999999998, 0.19999999999999998, 0.19999999999999998, 0.22219140083217753, 0.19999999999999998, 0.19999999999999998, 0.19999999999999998, 0.19999999999999998, 0.19999999999999998, 0.19999999999999998, 0.19999999999999998, 0.19999999999999998, 0.19999999999999998, 0.19999999999999998, 0.19999999999999998, 0.19999999999999998, 0.19999999999999998, 0.19999999999999998, 0.19999999999999998, 0.19999999999999998, 0.19999999999999998, 0.19999999999999998, 0.19999999999999998, 0.19999999999999998, 0.19999999999999998, 0.19999999999999998, 0.19999999999999998, 0.19999999999999998, 0.19999999999999998, 0.19999999999999998, 0.19999999999999998, 0.19999999999999998, 0.19999999999999998, 0.19999999999999998, 0.19999999999999998, 0.19999999999999998, 0.19999999999999998, 0.19999999999999998, 0.19999999999999998, 0.19999999999999998, 0.19999999999999998, 0.19999999999999998, 0.19999999999999998, 0.19999999999999998, 0.19999999999999998, 0.19999999999999998, 0.19999999999999998, 0.19999999999999998, 0.980487804878049, 0.19999999999999998, 0.19999999999999998, 0.19999999999999998, 0.19999999999999998, 0.19999999999999998, 0.1845431962462048, 0.292917560914026, 0.3327800829875519, 0.050187265917602995, 0.19999999999999998, 0.11279015130156941, 0.23076385247334383, 0.5980099502487563, 0.00013149243918474687, 0.19999999999999998, 0.44081059093262337, 0.2723133578841647, 0.29784631746875834, 0.040897501274859756, 0.0024691358024691366, 0.07165775401069517, 0.1626092257671205, 0.2499857994887816, 0.05272846811308349, 0.19999999999999998, 0.19999999999999998, 0.21182120428518655, 0.2655046213014081, 0.24049351471053462, 0.2, 0.19999999999999998, 0.15943498732343356, 0.11113168248090721, 0.980487804878049, 0.19999999999999998, 0.19999999999999998, 0.19999999999999998, 0.17890150212131636, 0.23214126283418482, 0.049617847552158645, 0.19999999999999998, 0.19999999999999998, 0.03455407152089616, 0.21738500543281425, 0.18605461940732132, 0.19999999999999998, 0.19999999999999998, 0.19999999999999998, 0.3076233183856502, 0.18245690978465856, 0.19999999999999998, 0.19999999999999998, 0.19999999999999998, 0.19999999999999998, 0.14667555407432092, 0.19999999999999998, 0.19999999999999998, 0.19999999999999998, 0.19999999999999998, 0.19999999999999998, 0.19999999999999998, 0.19999999999999998, 0.19999999999999998, 0.19999999999999998, 0.19999999999999998, 0.19999999999999998, 0.19999999999999998, 0.3862578080636002, 0.0024691358024691366, 0.19999999999999998, 0.19999999999999998, 0.19999999999999998, 0.19999999999999998, 0.19999999999999998, 0.19999999999999998, 0.19999999999999998, 0.19999999999999998, 0.19999999999999998, 0.24321404456448345, 0.19999999999999998, 0.19999999999999998, 0.19999999999999998, 0.19999999999999998, 0.0024691358024691358, 0.19999999999999998, 0.19999999999999998, 0.19999999999999998, 0.19999999999999998, 0.0009950248756218907, 0.19999999999999998, 0.19999999999999998, 0.19999999999999998, 0.19999999999999998, 0.19999999999999998, 0.19999999999999998, 0.19999999999999998, 0.19999999999999998, 0.19999999999999998, 0.10262652146060218, 0.2423921271763815, 0.19999999999999998, 0.19999999999999998, 0.19999999999999998, 0.2915712799167534, 0.28561236623067776, 0.19999999999999998, 0.19999999999999998, 0.19999999999999998, 0.19999999999999998, 0.19999999999999998, 0.19999999999999998, 0.19999999999999998, 0.19999999999999998, 0.19999999999999998, 0.19999999999999998, 0.19999999999999998, 0.19999999999999998, 0.19999999999999998, 0.19999999999999998, 0.19999999999999998, 0.19999999999999998, 0.19999999999999998, 0.19999999999999998, 0.19999999999999998, 0.19999999999999998, 0.19999999999999998, 0.19999999999999998, 0.19999999999999998, 0.10353143841515934, 0.5327787021630617, 0.19999999999999998, 0.19999999999999998, 0.19999999999999998, 0.0024691358024691366, 0.19999999999999998, 0.19999999999999998, 0.19999999999999998, 0.19999999999999998, 0.19999999999999998, 0.11135734072022159, 0.19999999999999998, 0.19999999999999998, 0.19999999999999998, 0.19999999999999998, 0.0024691358024691366, 0.19999999999999998, 0.19999999999999998, 0.19999999999999998, 0.19999999999999998, 0.2027017899358325, 0.19999999999999998, 0.19999999999999998, 0.19999999999999998, 0.19999999999999998, 0.2776699029126214, 0.19999999999999998, 0.19999999999999998, 0.19999999999999998, 0.19999999999999998, 0.19999999999999998, 0.19999999999999998, 0.19999999999999998, 0.19999999999999998, 0.19999999999999998, 0.19999999999999998, 0.19999999999999998, 0.19999999999999998, 0.19999999999999998, 0.19999999999999998, 0.19999999999999998, 0.19999999999999998, 0.19999999999999998, 0.19999999999999998, 0.19999999999999998, 0.19999999999999998, 0.19999999999999998, 0.19999999999999998, 0.19999999999999998, 0.19999999999999998, 0.19999999999999998, 0.19999999999999998, 0.19999999999999998, 0.19999999999999998, 0.19999999999999998, 0.19999999999999998, 0.19999999999999998, 0.19999999999999998, 0.19999999999999998, 0.19999999999999998, 0.19999999999999998, 0.19999999999999998, 0.19999999999999998, 0.19999999999999998, 0.19999999999999998, 0.19999999999999998, 0.19999999999999998, 0.19999999999999998, 0.19999999999999998, 0.19999999999999998, 0.004878048780487807, 0.19999999999999998, 0.19999999999999998, 0.19999999999999998, 0.19999999999999998, 0.19999999999999998, 0.0851780292575214, 0.25251862138618864, 0.16680497925311202, 0.0002496878901373284, 0.19999999999999998, 0.026332111643642516, 0.1328788673308862, 0.0009950248756218907, 0.00013149243918474687, 0.19999999999999998, 0.14793284520375713, 0.5669233344492802, 0.29784631746875834, 0.00010198878123406424, 0.0024691358024691366, 0.00035650623885918, 0.008169071326966062, 0.011417211019596706, 0.00013149243918474687, 0.19999999999999998, 0.19999999999999998, 0.05913064893486024, 0.2506172073692699, 0.6074659917747548, 0.27992007992007994, 0.19999999999999998, 7.243752263672583e-05, 4.6285582041194174e-05, 0.004878048780487807, 0.19999999999999998, 0.19999999999999998, 0.19999999999999998, 0.18348813209494325, 0.3472149198948465, 0.4297046064862632, 0.19999999999999998, 0.19999999999999998, 8.61697544161999e-05, 7.243752263672583e-05, 0.023358512492736776, 0.19999999999999998, 0.19999999999999998, 0.19999999999999998, 0.3588725176169122, 0.27543528792596816, 0.19999999999999998, 0.19999999999999998, 0.19999999999999998, 0.19999999999999998, 0.053357773704382605, 0.19999999999999998, 0.19999999999999998, 0.19999999999999998, 0.19999999999999998, 0.19999999999999998, 0.19999999999999998, 0.19999999999999998, 0.19999999999999998, 0.19999999999999998, 0.19999999999999998, 0.19999999999999998, 0.19999999999999998, 0.11368540601930721, 0.0024691358024691366, 0.19999999999999998, 0.19999999999999998, 0.19999999999999998, 0.19999999999999998, 0.19999999999999998, 0.19999999999999998, 0.19999999999999998, 0.19999999999999998, 0.19999999999999998, 0.2702228224172856, 0.19999999999999998, 0.19999999999999998, 0.19999999999999998, 0.19999999999999998, 0.9901234567901235, 0.19999999999999998, 0.19999999999999998, 0.19999999999999998, 0.19999999999999998, 0.3990049751243781, 0.19999999999999998, 0.19999999999999998, 0.19999999999999998, 0.19999999999999998, 0.19999999999999998, 0.19999999999999998, 0.19999999999999998, 0.19999999999999998, 0.19999999999999998, 0.23074951953875725, 0.3635124905374716, 0.19999999999999998, 0.19999999999999998, 0.19999999999999998, 0.0002081165452653486, 0.09536266349583829, 0.19999999999999998, 0.19999999999999998, 0.19999999999999998, 0.19999999999999998, 0.19999999999999998, 0.19999999999999998, 0.19999999999999998, 0.19999999999999998, 0.19999999999999998, 0.19999999999999998, 0.19999999999999998, 0.19999999999999998, 0.19999999999999998, 0.19999999999999998, 0.19999999999999998, 0.19999999999999998, 0.19999999999999998, 0.19999999999999998, 0.19999999999999998, 0.19999999999999998, 0.19999999999999998, 0.19999999999999998, 0.19999999999999998, 0.20689061154177435, 0.2665557404326123, 0.19999999999999998, 0.19999999999999998, 0.19999999999999998, 0.4962962962962964, 0.19999999999999998, 0.19999999999999998, 0.19999999999999998, 0.19999999999999998, 0.19999999999999998, 0.0005540166204986149, 0.19999999999999998, 0.19999999999999998, 0.19999999999999998, 0.19999999999999998, 0.0024691358024691366, 0.19999999999999998, 0.19999999999999998, 0.19999999999999998, 0.19999999999999998, 0.1756838905775076, 0.19999999999999998, 0.19999999999999998, 0.19999999999999998, 0.19999999999999998, 0.055755894590846046, 0.19999999999999998, 0.19999999999999998, 0.19999999999999998, 0.19999999999999998, 0.19999999999999998, 0.19999999999999998, 0.19999999999999998, 0.19999999999999998, 0.19999999999999998, 0.19999999999999998, 0.19999999999999998, 0.19999999999999998, 0.19999999999999998, 0.19999999999999998, 0.19999999999999998, 0.19999999999999998, 0.19999999999999998, 0.19999999999999998, 0.19999999999999998, 0.19999999999999998, 0.19999999999999998, 0.19999999999999998, 0.19999999999999998, 0.19999999999999998, 0.19999999999999998, 0.19999999999999998, 0.19999999999999998, 0.19999999999999998, 0.19999999999999998, 0.19999999999999998, 0.19999999999999998, 0.19999999999999998, 0.19999999999999998, 0.19999999999999998, 0.19999999999999998, 0.19999999999999998, 0.19999999999999998, 0.19999999999999998, 0.19999999999999998, 0.19999999999999998, 0.19999999999999998, 0.19999999999999998, 0.19999999999999998, 0.19999999999999998, 0.004878048780487807, 0.19999999999999998, 0.19999999999999998, 0.19999999999999998, 0.19999999999999998, 0.19999999999999998 ;
}
