network unknown {
}
variable accept_num {
    type discrete [ 4 ] { 0, 1, 2, 3 };
}
variable author_identity {
    type discrete [ 3 ] { 0, 1, 2 };
}
variable body_words {
    type discrete [ 5 ] { 0, 1, 2, 3, 4 };
}
variable change_num {
    type discrete [ 5 ] { 0, 1, 2, 3, 4 };
}
variable close_num {
    type discrete [ 5 ] { 0, 1, 2, 3, 4 };
}
variable comment_num {
    type discrete [ 4 ] { 0, 1, 2, 4 };
}
variable commit_num {
    type discrete [ 3 ] { 0, 1, 4 };
}
variable file_changed_num {
    type discrete [ 4 ] { 0, 1, 2, 4 };
}
variable has_assignees_content {
    type discrete [ 2 ] { 0, 1 };
}
variable has_bug {
    type discrete [ 2 ] { 0, 1 };
}
variable has_document {
    type discrete [ 2 ] { 0, 1 };
}
variable has_feature {
    type discrete [ 2 ] { 0, 1 };
}
variable has_improve {
    type discrete [ 2 ] { 0, 1 };
}
variable has_labels {
    type discrete [ 2 ] { 0, 1 };
}
variable has_refactor {
    type discrete [ 2 ] { 0, 1 };
}
variable is_weekday {
    type discrete [ 2 ] { 0, 1 };
}
variable label_count {
    type discrete [ 2 ] { 0, 1 };
}
variable mergable_state {
    type discrete [ 3 ] { 0, 1, 2 };
}
variable participants_count {
    type discrete [ 3 ] { 0, 1, 3 };
}
variable pre_prs {
    type discrete [ 5 ] { 0, 1, 2, 3, 4 };
}
variable priorities_number {
    type discrete [ 5 ] { 0, 1, 2, 3, 4 };
}
variable review_comment_num {
    type discrete [ 2 ] { 0, 1 };
}
variable title_words {
    type discrete [ 5 ] { 0, 1, 2, 3, 4 };
}
variable total_add_line {
    type discrete [ 5 ] { 0, 1, 2, 3, 4 };
}
variable total_delete_line {
    type discrete [ 5 ] { 0, 1, 2, 3, 4 };
}
variable workload {
    type discrete [ 5 ] { 0, 1, 2, 3, 4 };
}
probability ( accept_num | comment_num, has_assignees_content, has_labels, participants_count ) {
    table 0.009426369445392909, 0.0053972602739726025, 0.012376237623762375, 0.07726909236305479, 0.03930566640063847, 0.012376237623762377, 0.05206537388244077, 0.04953354667245214, 0.023584905660377353, 0.11530850580678649, 0.13112807035277468, 0.00634517766497462, 0.00011029736168710844, 0.0001183151916706105, 0.06793103448275863, 0.14442815249266863, 0.001037344398340249, 0.25, 0.05704688933254196, 0.09356512805979665, 0.4259530791788856, 0.16503969105342203, 0.22101115840331298, 0.4107795371498173, 0.00108038029386344, 0.010194551157790856, 0.10168320052040983, 0.008389261744966443, 0.05940745265729993, 0.20051546391752573, 0.03438000355808576, 0.10771637867505528, 0.7062571895622691, 0.07361885453623922, 0.34958911354298033, 0.8683265285027649, 0.023584905660377357, 0.0014384349827387805, 0.026498272668101935, 0.25, 0.008389261744966443, 0.22230236583958454, 0.012376237623762377, 0.0010373443983402492, 0.2402663241854806, 0.07274741506646971, 0.24490157201529528, 0.4161510185327003, 0.1335178771767231, 0.14216438356164382, 0.012376237623762375, 0.15403838464614153, 0.15422984836392659, 0.012376237623762377, 0.19369101153552196, 0.25000000000000006, 0.9292452830188678, 0.1215370142087848, 0.13112807035277468, 0.00634517766497462, 0.2669416747551398, 0.24091339327969707, 0.2003448275862069, 0.14442815249266863, 0.08070539419087136, 0.25, 0.3108644040360439, 0.45744624322505223, 0.14442815249266863, 0.24742544518343706, 0.14370758081214768, 0.059987819732034105, 0.20851339671564395, 0.20812920734501109, 0.17974467393072047, 0.33053691275167785, 0.11805131337813073, 0.20051546391752573, 0.43573207614303505, 0.29830779722164175, 0.25290609674880427, 0.2195894576786619, 0.173843619055368, 0.07696780195358932, 0.023584905660377357, 0.11191024165707711, 0.05533720522705653, 0.25, 0.008389261744966443, 0.0007212925562608194, 0.48762376237623767, 0.479045643153527, 0.3440921995403542, 0.2145494830132939, 0.29928480385214556, 0.27499617092969825, 0.23653724208575191, 0.21054794520547943, 0.4876237623762376, 0.13484606157536985, 0.07761372705506783, 0.012376237623762377, 0.20734167540569845, 0.2109480935076206, 0.023584905660377353, 0.19939336923376375, 0.15538764783180023, 0.25000000000000006, 0.3940042354186888, 0.2818031235210601, 0.2003448275862069, 0.28519061583577715, 0.04087136929460581, 0.25, 0.2228052662817677, 0.19728824967232278, 0.2851906158357771, 0.1753379103196739, 0.18235936960773033, 0.2353836784409257, 0.3329732065687122, 0.299483664046805, 0.2656122946820621, 0.008389261744966443, 0.11805131337813073, 0.10154639175257732, 0.22224693115104077, 0.2587112421219354, 0.011700066598050493, 0.2195894576786619, 0.14259997559090357, 0.027352834771822827, 0.9292452830188679, 0.16714614499424627, 0.14185400290392028, 0.25, 0.008389261744966443, 0.0007212925562608194, 0.48762376237623767, 0.2002074688796681, 0.2078207381370826, 0.2145494830132939, 0.1973162441580513, 0.11766733037218564, 0.6205185112921321, 0.6418904109589041, 0.4876237623762376, 0.6338464614154338, 0.7288507581803672, 0.9628712871287128, 0.5469019391763389, 0.48951835981992736, 0.023584905660377353, 0.563761110750665, 0.5823562114626504, 0.7373096446700508, 0.33894379246448425, 0.47716516800757214, 0.5313793103448275, 0.42595307917888564, 0.8773858921161826, 0.25, 0.4092834403496466, 0.25170037904282827, 0.14442815249266863, 0.4121969534434671, 0.4529218911768089, 0.2938489646772229, 0.45743301642178047, 0.48219257745039296, 0.45295983086680763, 0.6526845637583891, 0.7044899205864386, 0.4974226804123711, 0.3076409891478385, 0.3352645819813676, 0.029136647090876065, 0.4872022301064369, 0.33396729181074813, 0.027352834771822827, 0.023584905660377357, 0.719505178365938, 0.7763105192009212, 0.25, 0.9748322147651006, 0.7762550490478939, 0.012376237623762377, 0.31970954356846476, 0.2078207381370826, 0.4981536189069424, 0.25849737997450783, 0.19118548016541584 ;
}
probability ( author_identity | change_num, has_assignees_content, has_labels, pre_prs ) {
    table 0.9981532779316714, 0.43627005752346354, 0.3997785160575858, 0.2730015082956259, 0.3333333333333333, 0.9976275207591933, 0.8716356107660455, 0.983739837398374, 0.3333333333333333, 0.3333333333333333, 0.9999181099782992, 0.4117511387879836, 0.8641475483580747, 0.907785336356765, 0.3333333333333333, 0.9999589516244894, 0.216374269005848, 0.9682539682539684, 0.9917695473251029, 0.3333333333333333, 0.8807429130009775, 0.8202174054546638, 0.7195844662901764, 0.6281502615311461, 0.3333333333333333, 0.6612021857923498, 0.25051759834368525, 0.9944903581267218, 0.9682539682539684, 0.3333333333333333, 0.9998639733387743, 0.9108809828702931, 0.6269942114923055, 0.6939435968562182, 0.3333333333333333, 0.8514457701816617, 0.4485359665363779, 0.8174483106404438, 0.8873499538319484, 0.3333333333333333, 0.3333333333333333, 0.9226991244928465, 0.8548696159293511, 0.8438243564784772, 0.3333333333333333, 0.3333333333333333, 0.9952718676122931, 0.7254901960784313, 0.8534278959810875, 0.3333333333333333, 0.3333333333333333, 0.7205693854145584, 0.7641607840283338, 0.8230691337567891, 0.3333333333333333, 0.3333333333333333, 0.8170742631908984, 0.8611177549230646, 0.886934083978419, 0.3333333333333333, 0.3333333333333333, 0.9933993399339934, 0.739586899463654, 0.8092598751062337, 0.3333333333333333, 0.3333333333333333, 0.3333333333333333, 0.9682539682539684, 0.9181286549707602, 0.3333333333333333, 0.3333333333333333, 0.9986693280106455, 0.9181069194077929, 0.8627631237771963, 0.3333333333333333, 0.3333333333333333, 0.9979231568016615, 0.9470454146940207, 0.9649225088665404, 0.3333333333333333, 0.3333333333333333, 0.3333333333333333, 0.3333333333333333, 0.6715156036304861, 0.4312525499796002, 0.3333333333333333, 0.3333333333333333, 0.3333333333333333, 0.7129300118623962, 0.37971747838920517, 0.3333333333333333, 0.3333333333333333, 0.3333333333333333, 0.8592380456478348, 0.7422682818663493, 0.3333333333333333, 0.3333333333333333, 0.3333333333333333, 0.9595825005551855, 0.8583807619340615, 0.0009233610341643584, 0.0003027550711474417, 0.0011074197120708748, 0.0015082956259426846, 0.3333333333333333, 0.0011862396204033213, 0.0020703933747412005, 0.008130081300813009, 0.3333333333333333, 0.3333333333333333, 4.094501085042788e-05, 5.76601510695958e-05, 0.000449842555105713, 0.0007558578987150417, 0.3333333333333333, 2.0524187755269586e-05, 0.000449842555105713, 0.015873015873015876, 0.00411522633744856, 0.3333333333333333, 0.11827956989247311, 0.011781553082080322, 6.972042111134351e-05, 0.00047551117451260106, 0.3333333333333333, 0.3333333333333333, 0.25051759834368525, 0.0027548209366391185, 0.015873015873015876, 0.3333333333333333, 6.801333061280009e-05, 0.010040272442143163, 0.00014118311449950587, 0.00046232085067036526, 0.3333333333333333, 0.14844673761152313, 0.5390523211959131, 0.0005042864346949068, 0.0009233610341643584, 0.3333333333333333, 0.3333333333333333, 0.01302583813794576, 0.0050820628176289255, 0.013194895089768548, 0.3333333333333333, 0.3333333333333333, 0.002364066193853428, 0.18250377073906485, 0.002364066193853428, 0.3333333333333333, 0.3333333333333333, 0.21864669769952097, 0.07425466365863717, 0.02770873607659026, 0.3333333333333333, 0.3333333333333333, 0.16133655827286567, 0.04313162720242367, 0.07060755336617405, 0.3333333333333333, 0.3333333333333333, 0.0033003300330033004, 0.00011411617026132602, 0.006688098141373832, 0.3333333333333333, 0.3333333333333333, 0.3333333333333333, 0.015873015873015876, 0.000449842555105713, 0.3333333333333333, 0.3333333333333333, 0.0006653359946773121, 6.19463544570402e-05, 0.002852226386629894, 0.3333333333333333, 0.3333333333333333, 0.001038421599169263, 0.0001753463089601964, 0.020453772530729244, 0.3333333333333333, 0.3333333333333333, 0.3333333333333333, 0.3333333333333333, 0.00012433171702101205, 3.1384364309700906e-05, 0.3333333333333333, 0.3333333333333333, 0.3333333333333333, 0.0011862396204033213, 0.0002108370229812355, 0.3333333333333333, 0.3333333333333333, 0.3333333333333333, 8.678295582747547e-05, 0.0014238031883855005, 0.3333333333333333, 0.3333333333333333, 0.3333333333333333, 0.013546524539196091, 0.006204173716864073, 0.0009233610341643584, 0.5634271874053891, 0.5991140642303433, 0.7254901960784313, 0.3333333333333333, 0.0011862396204033213, 0.12629399585921322, 0.008130081300813009, 0.3333333333333333, 0.3333333333333333, 4.094501085042788e-05, 0.5881912010609468, 0.13540260908681961, 0.09145880574452003, 0.3333333333333333, 2.0524187755269586e-05, 0.7831758884390464, 0.015873015873015876, 0.00411522633744856, 0.3333333333333333, 0.0009775171065493646, 0.16800104146325587, 0.2803458132887122, 0.3713742272943415, 0.3333333333333333, 0.00546448087431694, 0.4989648033126293, 0.0027548209366391185, 0.015873015873015876, 0.3333333333333333, 6.801333061280009e-05, 0.0790787446875638, 0.372864605393195, 0.30559408229311147, 0.3333333333333333, 0.00010749220681500588, 0.012411712267708973, 0.18204740292486132, 0.11172668513388737, 0.3333333333333333, 0.3333333333333333, 0.06427503736920777, 0.14004832125302005, 0.1429807484317543, 0.3333333333333333, 0.3333333333333333, 0.002364066193853428, 0.09200603318250376, 0.1442080378250591, 0.3333333333333333, 0.3333333333333333, 0.060783916885920525, 0.16158455231302915, 0.14922213016662061, 0.3333333333333333, 0.3333333333333333, 0.021589178536235775, 0.09575061787451167, 0.04245836265540699, 0.3333333333333333, 0.3333333333333333, 0.0033003300330033004, 0.2602989843660847, 0.18405202675239257, 0.3333333333333333, 0.3333333333333333, 0.3333333333333333, 0.015873015873015876, 0.08142150247413406, 0.3333333333333333, 0.3333333333333333, 0.0006653359946773121, 0.0818311342377501, 0.1343846498361738, 0.3333333333333333, 0.3333333333333333, 0.001038421599169263, 0.05277923899701911, 0.01462371860273041, 0.3333333333333333, 0.3333333333333333, 0.3333333333333333, 0.3333333333333333, 0.3283600646524928, 0.5687160656560901, 0.3333333333333333, 0.3333333333333333, 0.3333333333333333, 0.28588374851720044, 0.6200716845878136, 0.3333333333333333, 0.3333333333333333, 0.3333333333333333, 0.14067517139633776, 0.2563079149452653, 0.3333333333333333, 0.3333333333333333, 0.3333333333333333, 0.02687097490561848, 0.13541506434907452 ;
}
probability ( body_words | author_identity, change_num, commit_num, has_labels ) {
    table 0.0639614506720771, 0.166692367000771, 0.0512396694214876, 0.03093993843510631, 0.19999999999999998, 0.19999999999999998, 0.042409978818545545, 0.14641407307171853, 0.037953126937543914, 0.07907793633369924, 0.010526315789473684, 0.010526315789473684, 0.09867995018679951, 0.2352749047359826, 0.02778799928779156, 0.14650627985140635, 0.010526315789473684, 0.19999999999999998, 0.20317404337859282, 0.2585926280516994, 0.08863794487556863, 0.1825869870494617, 0.0015748031496062994, 0.19999999999999998, 0.20523890371089012, 0.287439278278973, 0.15384944092301117, 0.20779080252479706, 0.2, 0.003636363636363637, 0.19999999999999998, 0.19999999999999998, 0.19999999999999998, 0.19999999999999998, 0.19999999999999998, 0.19999999999999998, 0.4918918918918919, 0.14330708661417324, 0.3327188940092166, 0.1666790077748982, 0.19999999999999998, 0.19999999999999998, 0.33090909090909093, 0.41566820276497696, 0.25451792024230196, 0.264600326264274, 0.19999999999999998, 0.19999999999999998, 0.33090909090909093, 0.010526315789473687, 0.005405405405405406, 0.001834862385321101, 0.19999999999999998, 0.19999999999999998, 0.19999999999999998, 0.19999999999999998, 0.9578947368421054, 0.003636363636363637, 0.19999999999999998, 0.19999999999999998, 0.22578334825425242, 0.005405405405405406, 0.09819420783645656, 0.07168316831683168, 0.19999999999999998, 0.19999999999999998, 0.19149940968122786, 0.003636363636363637, 0.014902392081385758, 0.24976958525345622, 0.19999999999999998, 0.19999999999999998, 0.03790575916230366, 0.0015748031496062994, 0.0423152131403989, 0.0005037783375314861, 0.4918918918918919, 0.19999999999999998, 0.048522829006266775, 0.003636363636363637, 0.12646026172997127, 0.2, 0.005405405405405406, 0.19999999999999998, 0.15153147088522384, 0.26072289156626505, 0.11826360131372268, 0.1842220598977356, 0.005405405405405406, 0.19999999999999998, 0.3515597260968805, 0.22220508866615268, 0.12440048773878877, 0.09279118047104302, 0.19999999999999998, 0.19999999999999998, 0.14408096022593553, 0.17077131258457373, 0.08110610507171495, 0.1739187705817783, 0.010526315789473684, 0.010526315789473684, 0.21972602739726027, 0.24507348938486664, 0.16025876906641343, 0.24203078011675216, 0.010526315789473684, 0.19999999999999998, 0.2983953447363781, 0.29305887984681667, 0.24566229595932565, 0.3173974098923389, 0.568503937007874, 0.19999999999999998, 0.3274799902983264, 0.3498959056210965, 0.26794387864112246, 0.4285302073940487, 0.2, 0.003636363636363637, 0.19999999999999998, 0.19999999999999998, 0.19999999999999998, 0.19999999999999998, 0.19999999999999998, 0.19999999999999998, 0.4918918918918919, 0.568503937007874, 0.49861751152073736, 0.5931877082562013, 0.19999999999999998, 0.19999999999999998, 0.33090909090909093, 0.3327188940092166, 0.6815749621403333, 0.5876019575856443, 0.19999999999999998, 0.19999999999999998, 0.33090909090909093, 0.9578947368421054, 0.9783783783783785, 0.8275229357798165, 0.19999999999999998, 0.19999999999999998, 0.19999999999999998, 0.19999999999999998, 0.010526315789473687, 0.33090909090909093, 0.19999999999999998, 0.19999999999999998, 0.2902417188898836, 0.005405405405405406, 0.19018739352640546, 0.14297029702970296, 0.19999999999999998, 0.19999999999999998, 0.12774498229043682, 0.003636363636363637, 0.09408853450646139, 0.08387096774193548, 0.19999999999999998, 0.19999999999999998, 0.16984293193717276, 0.14330708661417324, 0.11974970668752444, 0.272544080604534, 0.005405405405405406, 0.19999999999999998, 0.38692927484333034, 0.6581818181818182, 0.26434727098627514, 0.2994475138121547, 0.4918918918918919, 0.19999999999999998, 0.4786940424099629, 0.5643373493975903, 0.35473368556332996, 0.5786705624543463, 0.4918918918918919, 0.19999999999999998, 0.333299518133401, 0.18057054741711642, 0.1658582847852594, 0.17654807072804068, 0.19999999999999998, 0.19999999999999998, 0.24151565074135092, 0.26820027063599455, 0.16145992642499896, 0.2569045005488474, 0.010526315789473684, 0.010526315789473684, 0.269041095890411, 0.1960805661404464, 0.2788414742714701, 0.22929418008137273, 0.010526315789473684, 0.19999999999999998, 0.22539234702874272, 0.24997606510292006, 0.25336901257693334, 0.27526915275393976, 0.28503937007874014, 0.19999999999999998, 0.24453068154256608, 0.18750867453157533, 0.30640267787194647, 0.20454463480613164, 0.2, 0.9854545454545455, 0.19999999999999998, 0.19999999999999998, 0.19999999999999998, 0.19999999999999998, 0.19999999999999998, 0.19999999999999998, 0.005405405405405406, 0.14330708661417324, 0.08387096774193548, 0.09337282487967419, 0.19999999999999998, 0.19999999999999998, 0.33090909090909093, 0.16682027649769585, 0.027359919232710757, 0.0296900489396411, 0.19999999999999998, 0.19999999999999998, 0.003636363636363637, 0.010526315789473687, 0.005405405405405406, 0.001834862385321101, 0.19999999999999998, 0.19999999999999998, 0.19999999999999998, 0.19999999999999998, 0.010526315789473687, 0.003636363636363637, 0.19999999999999998, 0.19999999999999998, 0.22578334825425242, 0.005405405405405406, 0.2515161839863714, 0.21425742574257425, 0.19999999999999998, 0.19999999999999998, 0.14899645808736717, 0.33090909090909093, 0.1930712125378059, 0.41566820276497696, 0.19999999999999998, 0.19999999999999998, 0.30178010471204186, 0.4267716535433071, 0.23942119671490025, 0.13652392947103273, 0.005405405405405406, 0.19999999999999998, 0.25801253357206805, 0.33090909090909093, 0.29307373124800506, 0.3988950276243094, 0.4918918918918919, 0.19999999999999998, 0.15759003702457083, 0.043855421686746984, 0.25449093245751814, 0.15792549306062822, 0.4918918918918919, 0.19999999999999998, 0.200913010398174, 0.31935235158057057, 0.40972767917626335, 0.5618297659102298, 0.19999999999999998, 0.19999999999999998, 0.2584608143092493, 0.21948579161028417, 0.25148596701525233, 0.359648737650933, 0.010526315789473684, 0.9578947368421052, 0.2645579078455791, 0.28426782798040284, 0.28097809959048015, 0.3025296302848045, 0.010526315789473684, 0.19999999999999998, 0.14286721918532888, 0.15519387266634754, 0.25529569173133526, 0.1797784365735684, 0.14330708661417324, 0.19999999999999998, 0.14411836041717196, 0.1500346981263012, 0.1717968805640624, 0.11365193868349864, 0.39780219780219783, 0.003636363636363637, 0.19999999999999998, 0.19999999999999998, 0.19999999999999998, 0.19999999999999998, 0.19999999999999998, 0.19999999999999998, 0.005405405405405406, 0.14330708661417324, 0.08387096774193548, 0.10670122176971492, 0.19999999999999998, 0.19999999999999998, 0.003636363636363637, 0.08387096774193548, 0.027359919232710757, 0.11778140293637844, 0.19999999999999998, 0.19999999999999998, 0.003636363636363637, 0.010526315789473687, 0.005405405405405406, 0.1669724770642202, 0.19999999999999998, 0.19999999999999998, 0.19999999999999998, 0.19999999999999998, 0.010526315789473687, 0.6581818181818182, 0.19999999999999998, 0.19999999999999998, 0.11298119964189793, 0.9783783783783785, 0.2515161839863714, 0.4281188118811881, 0.19999999999999998, 0.19999999999999998, 0.2127508854781582, 0.6581818181818182, 0.18317294473467144, 0.24976958525345622, 0.19999999999999998, 0.19999999999999998, 0.30178010471204186, 0.0015748031496062994, 0.3802111849824012, 0.22720403022670024, 0.4918918918918919, 0.19999999999999998, 0.09686660698299014, 0.003636363636363637, 0.15518672199170125, 0.0011049723756906078, 0.005405405405405406, 0.19999999999999998, 0.07277011107371255, 0.08722891566265059, 0.18509210338426385, 0.07903579254930608, 0.005405405405405406, 0.19999999999999998, 0.05026629469946741, 0.11117964533538936, 0.24877387887820074, 0.1378910444555802, 0.19999999999999998, 0.19999999999999998, 0.3135325959049188, 0.19512855209742894, 0.4679948745504897, 0.13045005488474207, 0.9578947368421052, 0.010526315789473684, 0.14799501867995019, 0.03930321175830158, 0.2521336577838447, 0.07963912966566426, 0.9578947368421052, 0.19999999999999998, 0.13017104567095752, 0.04317855433221637, 0.15703505485683703, 0.044968013730691224, 0.0015748031496062994, 0.19999999999999998, 0.07863206403104536, 0.025121443442054133, 0.10000712199985755, 0.04548241659152389, 0.002197802197802198, 0.003636363636363637, 0.19999999999999998, 0.19999999999999998, 0.19999999999999998, 0.19999999999999998, 0.19999999999999998, 0.19999999999999998, 0.005405405405405406, 0.0015748031496062994, 0.0009216589861751152, 0.04005923731951129, 0.19999999999999998, 0.19999999999999998, 0.003636363636363637, 0.0009216589861751152, 0.009187279151943464, 0.00032626427406199016, 0.19999999999999998, 0.19999999999999998, 0.33090909090909093, 0.010526315789473687, 0.005405405405405406, 0.001834862385321101, 0.19999999999999998, 0.19999999999999998, 0.19999999999999998, 0.19999999999999998, 0.010526315789473687, 0.003636363636363637, 0.19999999999999998, 0.19999999999999998, 0.1452103849597135, 0.005405405405405406, 0.2085860306643952, 0.14297029702970296, 0.19999999999999998, 0.19999999999999998, 0.3190082644628099, 0.003636363636363637, 0.5147649161396756, 0.0009216589861751152, 0.19999999999999998, 0.19999999999999998, 0.18869109947643975, 0.4267716535433071, 0.21830269847477513, 0.36322418136020146, 0.005405405405405406, 0.19999999999999998, 0.20966875559534465, 0.003636363636363637, 0.16093201404404722, 0.1005524861878453, 0.005405405405405406, 0.19999999999999998, 0.1394143386065298, 0.043855421686746984, 0.0874196772811652, 0.0001460920379839299, 0.005405405405405406, 0.19999999999999998 ;
}
probability ( change_num | accept_num, has_assignees_content, label_count, pre_prs ) {
    table 0.843062200956938, 0.2, 0.2, 0.2, 0.2, 0.5379199999999998, 0.006060606060606058, 0.2, 0.2, 0.2, 0.875747983253344, 0.0024691358024691353, 0.2, 0.2, 0.2, 0.6850247602331848, 0.0009569377990430626, 0.2, 0.2, 0.2, 0.2, 0.1255813953488372, 0.2, 0.2, 0.2, 0.2, 0.16104528485635453, 0.49767441860465117, 0.2, 0.2, 0.2, 0.017522394581603675, 0.0009569377990430623, 0.2, 0.2, 0.001242236024844721, 0.19900191040586374, 0.058996328029375766, 0.2, 0.2, 0.2, 0.2, 0.1255813953488372, 0.2, 0.2, 0.2, 0.00056657223796034, 0.0221199217401312, 0.00047961630695443646, 0.2, 0.2, 0.011764705882352944, 6.474587245063128e-05, 0.0005934718100890209, 0.2, 0.2, 0.06086956521739131, 0.030846319035295416, 0.00021164021164021165, 0.2, 0.2, 0.2, 0.011764705882352941, 0.00044543429844097997, 0.0004987531172069826, 0.2, 0.2, 0.00020811654526534858, 0.015443947760539924, 2.1365238756543107e-05, 0.2, 0.2, 0.004081632653061225, 4.561003420752566e-05, 7.02000702000702e-05, 0.2, 0.2, 0.00023121387283236996, 0.02008590319000048, 1.4516948537417436e-05, 0.15406698564593307, 0.2, 0.2, 0.2, 0.2, 0.4611199999999999, 0.9757575757575754, 0.2, 0.2, 0.2, 0.12419074849382207, 0.9901234567901234, 0.2, 0.2, 0.2, 0.31493762928602764, 0.9961722488038279, 0.2, 0.2, 0.2, 0.2, 0.2496124031007752, 0.2, 0.2, 0.2, 0.2, 0.6285018665801007, 0.2496124031007752, 0.2, 0.2, 0.2, 0.5313961109897314, 0.15406698564593305, 0.2, 0.2, 0.9950310559006214, 0.5994853600530234, 0.3723378212974296, 0.2, 0.2, 0.2, 0.2, 0.49767441860465117, 0.2, 0.2, 0.2, 0.8164305949008499, 0.4272298308205777, 0.11558752997601919, 0.2, 0.2, 0.9529411764705884, 0.10883781158951117, 0.0005934718100890209, 0.2, 0.2, 0.2725897920604915, 0.09515995815208414, 0.051005291005291005, 0.2, 0.2, 0.2, 0.011764705882352941, 0.03608017817371938, 0.0004987531172069826, 0.2, 0.2, 0.11675338189386054, 0.04489438162853888, 2.1365238756543107e-05, 0.2, 0.2, 0.004081632653061225, 0.0401824401368301, 7.02000702000702e-05, 0.2, 0.2, 0.018728323699421963, 0.030896192268712895, 1.4516948537417436e-05, 0.0009569377990430626, 0.2, 0.2, 0.2, 0.2, 0.00031999999999999997, 0.006060606060606058, 0.2, 0.2, 0.2, 2.0422750944552223e-05, 0.0024691358024691353, 0.2, 0.2, 0.2, 1.2536826929104242e-05, 0.0009569377990430626, 0.2, 0.2, 0.2, 0.2, 0.6217054263565892, 0.2, 0.2, 0.2, 0.2, 0.19740301899042367, 0.2496124031007752, 0.2, 0.2, 0.2, 0.40904522613065336, 0.8430622009569378, 0.2, 0.2, 0.001242236024844721, 0.18527817848649067, 0.5681762545899632, 0.2, 0.2, 0.2, 0.2, 0.3736434108527132, 0.2, 0.2, 0.2, 0.18186968838526915, 0.34436644032685004, 0.23069544364508393, 0.2, 0.2, 0.011764705882352944, 0.6786014891550664, 0.427893175074184, 0.2, 0.2, 0.575047258979206, 0.6140741148615165, 0.4234920634920635, 0.2, 0.2, 0.2, 0.011764705882352941, 0.07171492204899778, 0.0004987531172069826, 0.2, 0.2, 0.3165452653485952, 0.10660005259006049, 2.1365238756543107e-05, 0.2, 0.2, 0.33061224489795915, 0.09491448118586089, 7.02000702000702e-05, 0.2, 0.2, 0.4996531791907514, 0.14826504512330482, 1.4516948537417436e-05, 0.0009569377990430626, 0.2, 0.2, 0.2, 0.2, 0.00031999999999999997, 0.006060606060606058, 0.2, 0.2, 0.2, 2.0422750944552223e-05, 0.0024691358024691353, 0.2, 0.2, 0.2, 1.2536826929104242e-05, 0.0009569377990430626, 0.2, 0.2, 0.2, 0.2, 0.0015503875968992248, 0.2, 0.2, 0.2, 0.2, 0.013017367310501545, 0.0015503875968992248, 0.2, 0.2, 0.2, 0.041992571553419275, 0.0009569377990430623, 0.2, 0.2, 0.001242236024844721, 0.01622675347966782, 0.0002447980416156671, 0.2, 0.2, 0.2, 0.2, 0.0015503875968992248, 0.2, 0.2, 0.2, 0.00056657223796034, 0.20626078950397053, 0.652757793764988, 0.2, 0.2, 0.011764705882352944, 0.21243120751052122, 0.570326409495549, 0.2, 0.2, 0.09111531190926277, 0.2599085953416662, 0.525079365079365, 0.2, 0.2, 0.2, 0.9529411764705882, 0.6418708240534521, 0.0004987531172069826, 0.2, 0.2, 0.5662851196670136, 0.6353054606012797, 2.1365238756543107e-05, 0.2, 0.2, 0.6571428571428573, 0.7261573546180159, 7.02000702000702e-05, 0.2, 0.2, 0.48115606936416183, 0.6239177645866512, 1.4516948537417436e-05, 0.0009569377990430626, 0.2, 0.2, 0.2, 0.2, 0.00031999999999999997, 0.006060606060606058, 0.2, 0.2, 0.2, 2.0422750944552223e-05, 0.0024691358024691353, 0.2, 0.2, 0.2, 1.2536826929104242e-05, 0.0009569377990430626, 0.2, 0.2, 0.2, 0.2, 0.0015503875968992248, 0.2, 0.2, 0.2, 0.2, 3.24622626197046e-05, 0.0015503875968992248, 0.2, 0.2, 0.2, 4.369674459252787e-05, 0.0009569377990430623, 0.2, 0.2, 0.001242236024844721, 7.797574954189246e-06, 0.0002447980416156671, 0.2, 0.2, 0.2, 0.2, 0.0015503875968992248, 0.2, 0.2, 0.2, 0.00056657223796034, 2.3017608470479917e-05, 0.00047961630695443646, 0.2, 0.2, 0.011764705882352944, 6.474587245063128e-05, 0.0005934718100890209, 0.2, 0.2, 0.0003780718336483932, 1.1012609437806289e-05, 0.00021164021164021165, 0.2, 0.2, 0.2, 0.011764705882352941, 0.24988864142538977, 0.9980049875311721, 0.2, 0.2, 0.00020811654526534858, 0.19775615741958102, 0.999914539044974, 0.2, 0.2, 0.004081632653061225, 0.13870011402508553, 0.9997191997191996, 0.2, 0.2, 0.00023121387283236996, 0.1768350948313305, 0.9999419322058504 ;
}
probability ( close_num | accept_num ) {
    table 0.9875167186803389, 0.0026424268047775075, 0.00012241400416207614, 6.130080304051984e-05, 0.012037449843958983, 0.9670225134763767, 0.030970743053005265, 6.130080304051984e-05, 0.0001486104919007282, 0.03012366557446359, 0.9118619170033052, 0.03193771838411083, 0.0001486104919007282, 0.00010569707219110031, 0.056922511935365405, 0.502237479310979, 0.0001486104919007282, 0.00010569707219110031, 0.00012241400416207614, 0.46570220069882917 ;
}
probability ( comment_num | commit_num, has_labels, participants_count, review_comment_num ) {
    table 0.7710841149102725, 0.8076905396708651, 0.32223113964687, 0.2460149282054526, 0.006756756756756756, 0.005409497082933314, 0.7087047939444912, 0.8121377978106891, 0.33987517337031903, 0.3682050346588836, 0.25, 0.035644371941272436, 0.6095366566011583, 0.6397364425972475, 0.25612847090867824, 0.11175140979633687, 0.25, 0.0015235796965111048, 0.5756630950289829, 0.7688044013795368, 0.12847034676461055, 0.1936984500139459, 0.006756756756756756, 0.002857180218113346, 0.7851351351351351, 0.9797297297297297, 0.030487804878048776, 0.016233766233766232, 0.25, 0.0048638132295719845, 0.25, 0.25, 0.25, 0.49161073825503354, 0.25, 0.25, 0.13036334096447824, 0.19207961754160152, 0.30572116487044254, 0.28700423809222597, 0.006756756756756756, 0.026678236467026065, 0.1576534903280067, 0.18625241468126208, 0.1501386962552011, 0.19746442904049616, 0.25, 0.07088091353996738, 0.20143804762140488, 0.36020133894129075, 0.22344329272906105, 0.188593466001771, 0.25, 0.017720561168145934, 0.19624978043210958, 0.23078502217112823, 0.09735875553635086, 0.21521496593218314, 0.006756756756756756, 0.010389151868608937, 0.006756756756756756, 0.006756756756756756, 0.030487804878048776, 0.48376623376623373, 0.25, 0.0048638132295719845, 0.25, 0.25, 0.25, 0.25, 0.25, 0.25, 0.09580163946532752, 0.0001149213937666636, 0.24793625315294657, 0.466901764817509, 0.7851351351351351, 0.4919319104940551, 0.09709840201850292, 0.0008048937540244688, 0.23002773925104023, 0.4338744983582634, 0.25, 0.32928221859706364, 0.1853992376615019, 3.110923073094249e-05, 0.4440682454414769, 0.6996434729924966, 0.25, 0.4167552865147859, 0.1772791147022659, 0.00020528822466743304, 0.29958409852003887, 0.5910367773040602, 0.006756756756756756, 0.3625088265292779, 0.20135135135135135, 0.006756756756756756, 0.9085365853658536, 0.48376623376623373, 0.25, 0.0048638132295719845, 0.25, 0.25, 0.25, 0.25, 0.25, 0.25, 0.0027509046599217195, 0.0001149213937666636, 0.12411144232974088, 7.90688848124486e-05, 0.20135135135135135, 0.47598035595598553, 0.03654331370899915, 0.0008048937540244688, 0.2799583911234397, 0.00045603794235680415, 0.25, 0.5641924959216966, 0.0036260581159348547, 3.110923073094249e-05, 0.07635999092078383, 1.1651209395535258e-05, 0.25, 0.564000572620557, 0.05080800983664148, 0.00020528822466743304, 0.47458679917899965, 4.980674981073435e-05, 0.9797297297297297, 0.6242448413839997, 0.006756756756756756, 0.006756756756756756, 0.030487804878048776, 0.016233766233766232, 0.25, 0.985408560311284, 0.25, 0.25, 0.25, 0.008389261744966443, 0.25, 0.25 ;
}
probability ( commit_num | file_changed_num, total_add_line ) {
    table 0.6788673582566712, 0.3419440304686207, 0.19113341698034295, 0.17598343685300202, 0.05349794238683128, 0.43878244326674815, 0.2514000767165324, 0.14926939533381772, 0.08343745661529917, 0.04230118443316413, 0.24320124320124323, 0.16565545136973708, 0.0836725463591135, 0.031460167005190706, 0.011982367914571305, 0.3333333333333333, 0.3333333333333333, 0.3333333333333333, 0.3333333333333333, 0.04097452934662237, 0.3210673974032753, 0.6578903792018547, 0.80844834797156, 0.8219461697722567, 0.9423868312757203, 0.5610816687049871, 0.7485232067510549, 0.8506498748688142, 0.9164237123420795, 0.9560067681895092, 0.756021756021756, 0.8341606913035485, 0.9162369968340117, 0.9684946964567819, 0.9879555472775813, 0.3333333333333333, 0.3333333333333333, 0.3333333333333333, 0.3333333333333333, 0.6389811738648948, 6.524434005350036e-05, 0.00016559032952475575, 0.00041823504809703046, 0.0020703933747412005, 0.00411522633744856, 0.00013588802826470988, 7.671653241273494e-05, 8.07297973682086e-05, 0.00013883104262113005, 0.0016920473773265649, 0.0007770007770007771, 0.00018385732671446958, 9.045680687471731e-05, 4.513653802753329e-05, 6.208480784751972e-05, 0.3333333333333333, 0.3333333333333333, 0.3333333333333333, 0.3333333333333333, 0.32004429678848284 ;
}
probability ( file_changed_num | total_delete_line ) {
    table 0.6091061185468452, 0.2350764087870105, 0.0509814612868048, 0.026657060518731988, 0.05832219251336898, 0.2936185468451243, 0.48674785100286533, 0.3875863322428208, 0.16095100864553313, 0.26888368983957217, 0.09715583173996176, 0.27805635148042024, 0.5613413304252999, 0.8122478386167147, 0.6224933155080213, 0.00011950286806883365, 0.00011938872970391595, 9.087604507451835e-05, 0.00014409221902017292, 0.05030080213903743 ;
}
probability ( has_assignees_content | comment_num, has_labels, mergable_state, participants_count ) {
    table 0.23255442270597962, 0.27351926477836086, 0.5, 0.5, 0.5, 0.5, 0.3953016835292672, 0.6209642074506939, 0.9675324675324675, 0.08438622694062083, 0.0974688210358174, 0.2041095890410959, 0.5, 0.5, 0.5, 0.792403248924988, 0.6647597254004577, 0.9675324675324675, 0.3576688329338506, 0.21699534506402957, 0.7979310344827587, 0.5, 0.5, 0.5, 0.5832369942196531, 0.7189302978325276, 0.5828538550057537, 0.030632272536099816, 0.10513710517181533, 0.0020341741253051262, 0.5, 0.5, 0.5, 0.7958904109589041, 0.6647597254004577, 0.5, 0.14081986769330873, 0.20481773240385706, 0.1785386887583608, 0.5, 0.5, 0.5, 0.46174282678002126, 0.7306665480110349, 0.872605153049989, 0.07046114156723637, 0.06105449598275021, 0.019689595316701267, 0.5, 0.5, 0.5, 0.032467532467532464, 0.2041095890410959, 0.40136986301369865, 0.016778523489932886, 0.33365421640354254, 0.564501679731243, 0.5, 0.5, 0.032467532467532464, 0.9675324675324675, 0.8536345776031434, 0.9303865329973731, 0.00246791707798618, 0.020495263108526403, 0.032997751735938406, 0.5, 0.5, 0.5, 0.5, 0.016778523489932886, 0.7213681783243658, 0.7674455772940204, 0.7264807352216391, 0.5, 0.5, 0.5, 0.5, 0.6046983164707328, 0.3790357925493061, 0.032467532467532464, 0.9156137730593792, 0.9025311789641826, 0.7958904109589041, 0.5, 0.5, 0.5, 0.20759675107501196, 0.33524027459954236, 0.032467532467532464, 0.6423311670661493, 0.7830046549359705, 0.20206896551724143, 0.5, 0.5, 0.5, 0.4167630057803468, 0.2810697021674723, 0.41714614499424624, 0.9693677274639001, 0.8948628948281846, 0.997965825874695, 0.5, 0.5, 0.5, 0.2041095890410959, 0.33524027459954236, 0.5, 0.8591801323066912, 0.795182267596143, 0.8214613112416392, 0.5, 0.5, 0.5, 0.5382571732199788, 0.269333451988965, 0.127394846950011, 0.9295388584327636, 0.9389455040172497, 0.9803104046832987, 0.5, 0.5, 0.5, 0.9675324675324675, 0.7958904109589041, 0.5986301369863014, 0.9832214765100671, 0.6663457835964575, 0.435498320268757, 0.5, 0.5, 0.9675324675324675, 0.032467532467532464, 0.1463654223968566, 0.06961346700262691, 0.9975320829220139, 0.9795047368914735, 0.9670022482640617, 0.5, 0.5, 0.5, 0.5, 0.9832214765100671, 0.27863182167563416 ;
}
probability ( has_bug | body_words, has_document, has_refactor ) {
    table 0.846225660176047, 0.8076923076923077, 0.9466019417475728, 0.05555555555555555, 0.9351101472434653, 0.8305785123966942, 0.8695150115473441, 0.5, 0.9376208347549186, 0.9536082474226805, 0.9327868852459016, 0.5, 0.9586682544408058, 0.34615384615384615, 0.9766839378238342, 0.5, 0.9978673904614191, 0.5, 0.1, 0.5, 0.15377433982395305, 0.19230769230769232, 0.05339805825242718, 0.9444444444444444, 0.06488985275653464, 0.16942148760330578, 0.13048498845265588, 0.5, 0.06237916524508132, 0.04639175257731959, 0.06721311475409836, 0.5, 0.04133174555919421, 0.6538461538461539, 0.023316062176165803, 0.5, 0.0021326095385808454, 0.5, 0.9, 0.5 ;
}
probability ( has_document | body_words, has_improve ) {
    table 0.9257832562917309, 0.8781512605042017, 0.9521758338855755, 0.9961832061068703, 0.9678960231059764, 0.9123711340206185, 0.9826095500098251, 0.839622641509434, 0.9993541720485662, 0.5, 0.07421674370826913, 0.12184873949579832, 0.04782416611442456, 0.003816793893129771, 0.03210397689402355, 0.08762886597938144, 0.017390449990174885, 0.16037735849056603, 0.0006458279514337381, 0.5 ;
}
probability ( has_feature | body_words ) {
    table 0.898838334946757, 0.9624302275654787, 0.9780339277946933, 0.9908595877090626, 0.99974173553719, 0.10116166505324298, 0.037569772434521254, 0.021966072205306657, 0.009140412290937379, 0.00025826446280991736 ;
}
probability ( has_improve | body_words ) {
    table 0.9424007744433688, 0.971876341777587, 0.9789038712483689, 0.9896927265655387, 0.99974173553719, 0.05759922555663117, 0.028123658222413053, 0.021096128751631145, 0.010307273434461299, 0.00025826446280991736 ;
}
probability ( has_labels | label_count ) {
    table 0.0007478312892611427, 0.8642676396163126, 0.9992521687107389, 0.1357323603836874 ;
}
probability ( has_refactor ) {
    table 0.9923780487804879, 0.007621951219512195 ;
}
probability ( is_weekday | accept_num, priorities_number ) {
    table 0.13951473136915077, 0.1299722479185939, 0.200202565833896, 0.1049970255800119, 0.07778941854374018, 0.04330708661417323, 0.05474784189004998, 0.11845515811301192, 0.07366432811656773, 0.017539644401729938, 0.12784645413142484, 0.10941680042803638, 0.20578691184424014, 0.14122635355512067, 0.0669804489500362, 0.17413984461709212, 0.13237565647204202, 0.22352740892066736, 0.14115343538625846, 0.0936283185840708, 0.8604852686308492, 0.8700277520814061, 0.7997974341661039, 0.8950029744199881, 0.9222105814562598, 0.9566929133858267, 0.94525215810995, 0.8815448418869881, 0.9263356718834322, 0.98246035559827, 0.8721535458685752, 0.8905831995719636, 0.7942130881557599, 0.8587736464448793, 0.9330195510499638, 0.8258601553829079, 0.867624343527958, 0.7764725910793326, 0.8588465646137415, 0.9063716814159292 ;
}
probability ( label_count | commit_num, file_changed_num ) {
    table 0.10798464491362762, 0.17130609063578667, 0.13948497854077252, 0.06097560975609756, 0.19195843883698593, 0.19077843553135582, 0.1585108189175423, 0.004302925989672977, 0.5, 0.5, 0.5, 0.17235494880546076, 0.8920153550863723, 0.8286939093642133, 0.8605150214592274, 0.9390243902439024, 0.8080415611630141, 0.8092215644686441, 0.8414891810824576, 0.9956970740103269, 0.5, 0.5, 0.5, 0.8276450511945392 ;
}
probability ( mergable_state | comment_num, commit_num, has_labels ) {
    table 0.7319428350714562, 0.9210946991495619, 0.8334877366347567, 0.9512022380395906, 0.4419306184012066, 0.9371069182389935, 0.7746716232961586, 0.8983184965380812, 0.9162071459912011, 0.9838456117525884, 0.8850574712643678, 0.8850574712643678, 0.7867511694582767, 0.9786555786555787, 0.9494769019948877, 0.9898705337212703, 0.6450216450216449, 0.8850574712643678, 0.27557160048134777, 0.8645041392127049, 0.7092534704715807, 0.9885507473334377, 0.14836223506743737, 0.3333333333333333, 0.00010164460978634303, 0.0003197135366711426, 4.6788879219187195e-05, 0.0001770600941959701, 0.007541478129713424, 0.03144654088050314, 0.0002478314745972738, 0.0009891196834817015, 5.929299038267698e-05, 0.00027104678267468965, 0.0574712643678161, 0.0574712643678161, 0.0001508978421608571, 0.0006930006930006931, 2.6352544338155853e-05, 7.697162825782416e-05, 0.02164502164502164, 0.0574712643678161, 0.0003539321865930488, 0.0008447372867038352, 0.0025881482975362168, 8.700040020184093e-05, 0.009633911368015413, 0.3333333333333333, 0.2679555203187575, 0.07858558731376684, 0.1664654744860242, 0.04862070186621338, 0.5505279034690799, 0.03144654088050314, 0.2250805452292441, 0.1006923837784372, 0.08373356101841642, 0.01588334146473681, 0.0574712643678161, 0.0574712643678161, 0.21309793269956237, 0.020651420651420654, 0.05049674546077425, 0.010052494650471836, 0.33333333333333326, 0.0574712643678161, 0.7240744673320592, 0.13465112350059133, 0.28815838123088294, 0.011362252266360425, 0.8420038535645472, 0.3333333333333333 ;
}
probability ( participants_count | commit_num, has_labels, label_count, review_comment_num ) {
    table 0.3333333333333333, 0.3333333333333333, 0.7488315495450648, 0.2703787963550019, 0.5520606500524236, 0.21319471184700295, 0.7517508568022649, 0.20860401328136277, 0.3333333333333333, 0.3333333333333333, 0.6044649937903069, 0.23372162354754736, 0.3639471401602122, 0.061147084877294096, 0.39855683628525906, 0.12397989607291932, 0.3333333333333333, 0.3333333333333333, 0.8165548098434005, 0.3567937438905181, 0.3333333333333333, 0.0165016501650165, 0.3333333333333333, 0.3333333333333333, 0.3333333333333333, 0.3333333333333333, 0.24107414474957822, 0.3930058802322256, 0.4475360916202919, 0.3333333333333333, 0.24750409774996274, 0.41648621336798036, 0.3333333333333333, 0.3333333333333333, 0.3954601906300968, 0.62407108474034, 0.6211031175059951, 0.27943506631233545, 0.5942273451410364, 0.47358378056052475, 0.3333333333333333, 0.3333333333333333, 0.17225950782997762, 0.14565004887585534, 0.3333333333333333, 0.9669966996699669, 0.3333333333333333, 0.3333333333333333, 0.3333333333333333, 0.3333333333333333, 0.010094305705356896, 0.3366153234127724, 0.0004032583272844584, 0.45347195481966374, 0.0007450454477723142, 0.37490977335065684, 0.3333333333333333, 0.3333333333333333, 7.481557959629513e-05, 0.14220729171211263, 0.014949742333792539, 0.6594178488103704, 0.007215818573704432, 0.40243632336655594, 0.3333333333333333, 0.3333333333333333, 0.011185682326621923, 0.4975562072336266, 0.3333333333333333, 0.0165016501650165, 0.3333333333333333, 0.3333333333333333 ;
}
probability ( pre_prs | accept_num, close_num ) {
    table 0.9992776523702033, 0.05185185185185184, 0.2, 0.2, 0.2, 0.808, 0.002207891572849491, 0.0007017543859649123, 0.2, 0.2, 0.2, 0.0007905138339920951, 2.684924150892738e-05, 0.0004301075268817205, 0.2, 0.2, 0.2, 0.00038387715930902113, 2.441108263151471e-05, 2.632618138738976e-05, 0.0006320541760722349, 0.9407407407407407, 0.2, 0.2, 0.2, 0.16800000000000004, 0.9937916712208982, 0.11298245614035089, 0.2, 0.2, 0.2, 0.8387351778656128, 0.0016378037320445699, 0.0004301075268817205, 0.2, 0.2, 0.2, 0.00038387715930902113, 2.441108263151471e-05, 2.632618138738976e-05, 3.009781790820166e-05, 0.0024691358024691353, 0.2, 0.2, 0.2, 0.008000000000000002, 0.003956716581047108, 0.8849122807017543, 0.2, 0.2, 0.2, 0.15889328063241112, 0.9859309974493221, 0.2843010752688172, 0.2, 0.2, 0.2, 0.8065259117082534, 0.006371292566825339, 2.632618138738976e-05, 3.009781790820166e-05, 0.0024691358024691353, 0.2, 0.2, 0.2, 0.008000000000000002, 2.186031260247021e-05, 0.0007017543859649123, 0.2, 0.2, 0.2, 0.0007905138339920951, 0.012377500335615521, 0.7144086021505377, 0.2, 0.2, 0.2, 0.19232245681381957, 0.9935554741852801, 0.1316572331183362, 3.009781790820166e-05, 0.0024691358024691353, 0.2, 0.2, 0.2, 0.008000000000000002, 2.186031260247021e-05, 0.0007017543859649123, 0.2, 0.2, 0.2, 0.0007905138339920951, 2.684924150892738e-05, 0.0004301075268817205, 0.2, 0.2, 0.2, 0.00038387715930902113, 2.441108263151471e-05, 0.8682637883375016 ;
}
probability ( priorities_number | comment_num, has_assignees_content, participants_count, total_add_line ) {
    table 0.573317797844451, 0.5085098743267503, 0.5553727506426734, 0.397491219267436, 0.37486988847583647, 0.19512690355329948, 0.2829536527886881, 0.12507804370447453, 0.2156734693877551, 0.1291275167785235, 0.9680000000000001, 0.2, 0.004081632653061225, 0.2, 0.008, 0.6174274577739282, 0.5626320064987815, 0.42513816069151195, 0.39091376650094295, 0.35339317773788154, 0.4315852562181601, 0.36428802066515986, 0.24112259970457903, 0.21238481385919647, 0.10300061236987142, 0.004081632653061225, 0.008, 0.4938775510204082, 0.2, 0.2, 0.3060322854715378, 0.1800166527893422, 0.1406636304489265, 0.19608163265306122, 0.2757532281205165, 0.13959341723136498, 0.2557599225556631, 0.208326105810928, 0.10611987381703472, 0.02238667900092507, 0.0010362694300518132, 0.3315068493150685, 0.008, 0.004081632653061225, 0.008, 0.31308371897349596, 0.3584282907662082, 0.14435379991412625, 0.17118198874296436, 0.18572278405710885, 0.18421629521373767, 0.21176182308257782, 0.08997134670487106, 0.09047519363617333, 0.04130528123658223, 0.2995850622406639, 0.0027397260273972603, 0.4969072164948454, 0.0027397260273972603, 0.0020618556701030933, 0.24974093264248706, 0.001652892561983471, 0.5539170506912443, 0.0027397260273972603, 0.4938775510204082, 0.161307657859382, 0.09738297088094361, 0.07262344642257307, 0.08002856462746966, 0.03339118361679973, 0.11771428571428573, 0.21050328227571116, 0.166743648960739, 0.06685159500693481, 0.0004158004158004158, 0.49972850678733033, 0.3332099907493062, 0.24994219653179192, 0.12512998266897749, 0.14319526627218937, 0.21999666722212963, 0.13854549270647495, 0.06918073281185673, 0.06299961725627426, 0.06518455663979635, 0.06626206896551723, 0.04315978456014363, 0.038926174496644296, 0.019741432382515904, 0.04130528123658223, 0.2, 0.9680000000000001, 0.2, 0.2, 0.2, 0.2, 0.0016528925619834713, 0.0027397260273972603, 0.3324137931034483, 0.004081632653061225, 0.09618157543391187, 0.08542407313357035, 0.016793893129770993, 0.06336320506062204, 0.02676290949472515, 0.5966942148760329, 0.4979310344827585, 0.0027397260273972603, 0.4938775510204082, 0.2, 0.3233782129742962, 0.10176429075511645, 0.08520814880425157, 0.00034662045060658575, 0.0010362694300518136, 0.1617881200244948, 0.08698576972833118, 0.034516724810178534, 0.01956061838893409, 0.013751783166904423, 0.20978735799592194, 0.2585996409335727, 0.19753213367609251, 0.19277471149021574, 0.1428996282527881, 0.24385786802030457, 0.188688138256088, 0.29989594172736733, 0.23526530612244898, 0.1291275167785235, 0.008, 0.2, 0.4938775510204082, 0.2, 0.008, 0.24739714161974885, 0.2534756875942904, 0.3163100467620802, 0.25513457911880677, 0.26721723518850987, 0.3524722804914594, 0.3177914110429448, 0.2198522895125554, 0.20353851824548472, 0.20587875076546236, 0.004081632653061225, 0.9680000000000001, 0.004081632653061225, 0.2, 0.2, 0.3060322854715378, 0.2, 0.10943396226415096, 0.058938775510204086, 0.17245337159253948, 0.27899322362052276, 0.13959341723136498, 0.1458803122289679, 0.10611987381703472, 0.06679000925069381, 0.249740932642487, 0.0027397260273972603, 0.008, 0.004081632653061225, 0.008, 0.3534707614640303, 0.29241650294695476, 0.3195362816659511, 0.26123827392120075, 0.29994051160023794, 0.20175374497625137, 0.2882136731193335, 0.26453603702887374, 0.1758844463052125, 0.18557320738514385, 0.0008298755186721993, 0.6602739726027398, 0.24948453608247426, 0.3315068493150685, 0.24948453608247426, 0.12538860103626945, 0.19999999999999998, 0.0009216589861751152, 0.3315068493150685, 0.004081632653061225, 0.2150470219435737, 0.15046074456321415, 0.12905609674168628, 0.14287074506069983, 0.08337382853175981, 0.09812244897959185, 0.05295404814004376, 0.05588914549653579, 0.10013869625520112, 0.050311850311850315, 0.30425339366515836, 0.35541165587419055, 0.44416184971098266, 0.33310225303292895, 0.14319526627218937, 0.2999833361106482, 0.28462587889600166, 0.23715109098394405, 0.21128547214172452, 0.17922783198981757, 0.10598620689655171, 0.24998204667863558, 0.08891460310113398, 0.07884260209316642, 0.08252468870759982, 0.2, 0.008, 0.2, 0.2, 0.2, 0.2, 0.2, 0.3315068493150685, 0.0013793103448275863, 0.004081632653061225, 0.05773030707610146, 0.061046216353478934, 0.00013879250520471896, 0.11396942540853981, 0.04008883953359245, 0.39834710743801643, 0.3324137931034482, 0.989041095890411, 0.004081632653061225, 0.2, 0.35275397796817626, 0.40663373323923785, 0.2552701505757307, 0.24991334488734837, 0.12538860103626945, 0.2205756276791182, 0.15529107373868048, 0.11824338190026676, 0.07423921887713587, 0.10276747503566334, 0.13987765802505098, 0.15518850987432672, 0.09881748071979433, 0.19277471149021574, 0.16074349442379182, 0.24385786802030457, 0.2829536527886881, 0.1750260145681582, 0.15689795918367347, 0.19355704697986578, 0.008, 0.2, 0.004081632653061225, 0.2, 0.008, 0.0935643135556518, 0.1337124289195776, 0.173473147229701, 0.17695868335333448, 0.20689407540394975, 0.12951753071621216, 0.1860510171133355, 0.30493353028064996, 0.28315517876889057, 0.2940600122473975, 0.9836734693877551, 0.008, 0.004081632653061225, 0.2, 0.2, 0.24485981308411214, 0.35986677768526226, 0.3436564736499675, 0.27444897959183673, 0.20688665710186516, 0.09312681510164571, 0.1860600193610842, 0.10424978317432786, 0.21211356466876974, 0.1555966697502313, 0.12538860103626942, 0.0027397260273972603, 0.9680000000000001, 0.004081632653061225, 0.9680000000000001, 0.25250315523769457, 0.2452652259332023, 0.24740231859167025, 0.23422138836772985, 0.1714455681142177, 0.3245158933138473, 0.2470472923303112, 0.253956358827419, 0.216077035796525, 0.2680120223271791, 0.2, 0.0027397260273972603, 0.0020618556701030933, 0.3315068493150685, 0.24948453608247426, 0.24974093264248706, 0.19999999999999998, 0.11152073732718894, 0.6602739726027398, 0.004081632653061225, 0.17205553067622034, 0.22123110947290822, 0.21773597581457846, 0.1371578195667698, 0.18333911836168, 0.19608163265306122, 0.10547045951859955, 0.166743648960739, 0.10013869625520112, 0.10020790020790021, 0.15221719457013577, 0.17779833487511562, 0.27768786127167633, 0.2083188908145581, 0.42721893491124263, 0.2599900016663889, 0.2695141148074299, 0.2746974063400576, 0.22309584996445952, 0.1894102672889266, 0.11260689655172412, 0.1638061041292639, 0.21110853968988658, 0.17734455161091728, 0.16496350364963505, 0.2, 0.008, 0.2, 0.2, 0.2, 0.2, 0.39834710743801655, 0.3315068493150685, 0.0013793103448275863, 0.4938775510204082, 0.044913217623497995, 0.09761300152361606, 0.10006939625260237, 0.11396942540853981, 0.02676290949472515, 0.0016528925619834706, 0.1668965517241379, 0.0027397260273972603, 0.4938775510204082, 0.2, 0.23525091799265607, 0.2372618207480593, 0.29778565101860055, 0.24991334488734837, 0.0010362694300518136, 0.2940600122473975, 0.34157826649417855, 0.2364457213215678, 0.18750203417412528, 0.20547788873038517, 0.06297698805709293, 0.043159784560143626, 0.11115681233933161, 0.14460612142498744, 0.16074349442379182, 0.14639593908629445, 0.1321288295365279, 0.22497398543184183, 0.19608163265306122, 0.16134228187919464, 0.008, 0.2, 0.004081632653061225, 0.2, 0.008, 0.03743611953226505, 0.039015898804688406, 0.05104151905909026, 0.11935539173667067, 0.10348294434470377, 0.05759664369193887, 0.10855666774297708, 0.12768094534711966, 0.23007740508662, 0.2205756276791182, 0.004081632653061225, 0.008, 0.004081632653061225, 0.2, 0.2, 0.14290569243840273, 0.16003330557868442, 0.21873780091086534, 0.3724081632653061, 0.1035868005738881, 0.20929332042594384, 0.1860600193610842, 0.27077189939288815, 0.24239747634069403, 0.22220166512488437, 0.12538860103626942, 0.3315068493150685, 0.008, 0.004081632653061225, 0.008, 0.08085822465292385, 0.06609037328094301, 0.20618291112065265, 0.180187617260788, 0.2428316478286734, 0.20175374497625137, 0.1529527076696888, 0.2327970024245096, 0.3014862884655642, 0.24740231859167025, 0.2, 0.3315068493150685, 0.0020618556701030933, 0.0027397260273972603, 0.24948453608247426, 0.3740932642487047, 0.596694214876033, 0.22211981566820277, 0.0027397260273972603, 0.004081632653061225, 0.23654276757725035, 0.23892370070033175, 0.23385959019146793, 0.27998095691502023, 0.29163484901076014, 0.17648979591836736, 0.263019693654267, 0.0004618937644341801, 0.10013869625520112, 0.1501039501039501, 0.021900452488687782, 0.13339500462534692, 0.00023121387283236996, 0.2915077989601387, 0.14319526627218937, 0.16400599900016663, 0.17380627557980902, 0.23715109098394405, 0.27952321067308217, 0.3136359779380568, 0.25826206896551723, 0.20689407540394975, 0.2777597778292062, 0.3201723784116561, 0.24740231859167025, 0.2, 0.008, 0.2, 0.2, 0.2, 0.2, 0.0016528925619834713, 0.0027397260273972603, 0.16689655172413795, 0.004081632653061225, 0.09618157543391187, 0.182935500253936, 0.18334489937543372, 0.06336320506062204, 0.06674069961132705, 0.0016528925619834706, 0.0013793103448275859, 0.0027397260273972603, 0.004081632653061225, 0.2, 0.08837209302325581, 0.22032462949894144, 0.23401240035429585, 0.4162911611785095, 0.8715025906735753, 0.17648499693815067, 0.23601552393272965, 0.3201723784116561, 0.3515378356387307, 0.34242510699001427, 0.014040198077483251, 0.03454219030520646, 0.03712082262210797, 0.072353236327145, 0.16074349442379182, 0.17076142131979696, 0.11327572663000787, 0.1750260145681582, 0.19608163265306122, 0.38684563758389257, 0.008, 0.2, 0.4938775510204082, 0.2, 0.9679999999999999, 0.004174967518406237, 0.011163978182662182, 0.03403712625761655, 0.057637579290245156, 0.06901256732495512, 0.028828288882229554, 0.023312883435582823, 0.10641063515509601, 0.07084408403980834, 0.17648499693815067, 0.004081632653061225, 0.008, 0.4938775510204082, 0.2, 0.2, 0.00016992353440951574, 0.10008326394671109, 0.1875081327260898, 0.09812244897959185, 0.24131994261119086, 0.27899322362052276, 0.2325266214908035, 0.27077189939288815, 0.3332492113564669, 0.5330249768732656, 0.49844559585492226, 0.3315068493150685, 0.008, 0.9836734693877551, 0.008, 8.413967185527976e-05, 0.037799607072691546, 0.08252468870759982, 0.15317073170731707, 0.10005948839976204, 0.08776032151991231, 0.10002450379808871, 0.15873925501432665, 0.216077035796525, 0.25770717045942465, 0.2995850622406639, 0.0027397260273972603, 0.24948453608247426, 0.3315068493150685, 0.24948453608247426, 0.0010362694300518136, 0.001652892561983471, 0.11152073732718894, 0.0027397260273972603, 0.4938775510204082, 0.2150470219435737, 0.2920014743826023, 0.3467248908296943, 0.3599619138300405, 0.40826102047900037, 0.4115918367346939, 0.36805251641137854, 0.6101616628175519, 0.6327323162274618, 0.698960498960499, 0.021900452488687782, 0.00018501387604070307, 0.027976878612716763, 0.04194107452339688, 0.14319526627218937, 0.05602399600066655, 0.13350823801028439, 0.18181967888019765, 0.22309584996445952, 0.2525413661434026, 0.45688275862068967, 0.3361579892280072, 0.3832909048831289, 0.4038990355017443, 0.4638042078145127, 0.2, 0.008, 0.2, 0.2, 0.2, 0.2, 0.39834710743801655, 0.3315068493150685, 0.49793103448275866, 0.4938775510204082, 0.7049933244325767, 0.5729812087353987, 0.6996530187369883, 0.6453347390616764, 0.8396446418656301, 0.0016528925619834706, 0.0013793103448275859, 0.0027397260273972603, 0.004081632653061225, 0.2, 0.0002447980416156671, 0.03401552575864503, 0.12772364924712137, 0.08353552859618717, 0.0010362694300518136, 0.14709124311083896, 0.1801293661060802, 0.2906217935563308, 0.36716029292107405, 0.33557774607703283 ;
}
probability ( review_comment_num | commit_num, has_labels, total_add_line ) {
    table 0.297450170587179, 0.3559065339679792, 0.3284272497897392, 0.23644859813084113, 0.16086956521739132, 0.6323843416370106, 0.5036991368680641, 0.5210772833723654, 0.38535031847133766, 0.6578947368421052, 0.2936038699274389, 0.27513270065948203, 0.1765123178124597, 0.11352609169224677, 0.03925073838022696, 0.38613477924089845, 0.29430922180322255, 0.19974626444883, 0.08876241220634536, 0.040968764146672706, 0.5, 0.5, 0.5, 0.5, 0.30165289256198347, 0.5, 0.5, 0.5, 0.5, 0.02, 0.702549829412821, 0.6440934660320208, 0.6715727502102607, 0.7635514018691589, 0.8391304347826087, 0.36761565836298926, 0.4963008631319359, 0.47892271662763464, 0.6146496815286624, 0.3421052631578947, 0.7063961300725612, 0.724867299340518, 0.8234876821875403, 0.8864739083077533, 0.9607492616197731, 0.6138652207591014, 0.7056907781967775, 0.8002537355511701, 0.9112375877936546, 0.9590312358533274, 0.5, 0.5, 0.5, 0.5, 0.6983471074380165, 0.5, 0.5, 0.5, 0.5, 0.9800000000000001 ;
}
probability ( title_words | accept_num, author_identity, commit_num, has_labels ) {
    table 0.02279719176461308, 0.0732780504315451, 0.14230040892499382, 0.17084513057370174, 0.19999999999999998, 0.19999999999999998, 0.19999999999999998, 0.9480519480519483, 0.4899328859060403, 0.333076626877166, 0.19999999999999998, 0.19999999999999998, 0.19999999999999998, 0.19999999999999998, 0.19999999999999998, 0.19999999999999998, 0.19999999999999998, 0.19999999999999998, 0.2404944636475482, 0.39965337954939345, 0.2702439024390244, 0.2804221960342265, 0.012987012987012986, 0.19999999999999998, 0.3972602739726027, 0.37349397590361444, 0.3234033870638645, 0.2746113989637306, 0.19999999999999998, 0.19999999999999998, 0.13439635535307518, 0.4948805460750853, 0.37358221860536084, 0.18920944173847884, 0.012987012987012986, 0.19999999999999998, 0.18807719253550728, 0.19480987565327088, 0.25319589199344955, 0.30276041378547325, 0.012987012987012986, 0.012987012987012986, 0.19999999999999998, 0.4425727411944869, 0.2040758562128503, 0.004524886877828055, 0.19999999999999998, 0.19999999999999998, 0.25346882939222204, 0.33231240428790193, 0.3503827211772385, 0.26068633353401566, 0.012987012987012986, 0.19999999999999998, 0.2453415419319971, 0.2735608094832668, 0.29269349997137273, 0.29817657690635796, 0.49827387802071343, 0.9819004524886878, 0.004524886877828055, 0.4899328859060403, 0.16704805491990846, 0.41542002301495967, 0.19999999999999998, 0.19999999999999998, 0.24301598716601205, 0.3595567867036011, 0.351668681088281, 0.27266992587919886, 0.24914675767918087, 0.19999999999999998, 0.02847676895164471, 0.15857167033338976, 0.30038148036336687, 0.3177583397921577, 0.19999999999999998, 0.19999999999999998, 0.19999999999999998, 0.01298701298701299, 0.006711409395973155, 0.19445514054678478, 0.19999999999999998, 0.19999999999999998, 0.19999999999999998, 0.19999999999999998, 0.19999999999999998, 0.19999999999999998, 0.19999999999999998, 0.19999999999999998, 0.14769465112191693, 0.12512998266897749, 0.28925107604017214, 0.30993492852385096, 0.012987012987012986, 0.19999999999999998, 0.3972602739726027, 0.24956970740103268, 0.23525811058967558, 0.3872323785316258, 0.19999999999999998, 0.19999999999999998, 0.0896665976392628, 0.00341296928327645, 0.29301663191088956, 0.27013862869988764, 0.012987012987012986, 0.19999999999999998, 0.23851983950066874, 0.19480987565327088, 0.25959402333286785, 0.2629307960391658, 0.012987012987012986, 0.012987012987012986, 0.19999999999999998, 0.5528330781010719, 0.2652136994056043, 0.9819004524886878, 0.19999999999999998, 0.19999999999999998, 0.18311510650771937, 0.5528330781010719, 0.2777547024268676, 0.3040337146297411, 0.012987012987012986, 0.19999999999999998, 0.2081208731818502, 0.23583731744056585, 0.2591259682155389, 0.29323480290100434, 0.08400460299194475, 0.004524886877828055, 0.004524886877828055, 0.006711409395973155, 0.16704805491990846, 0.41542002301495967, 0.19999999999999998, 0.19999999999999998, 0.15539082812413563, 0.16011080332409972, 0.2451098887545941, 0.2953792777164485, 0.24914675767918087, 0.19999999999999998, 0.034156346138676345, 0.1707564731765104, 0.14625243571095314, 0.20045554483478586, 0.19999999999999998, 0.19999999999999998, 0.19999999999999998, 0.01298701298701299, 0.006711409395973155, 0.19445514054678478, 0.19999999999999998, 0.19999999999999998, 0.19999999999999998, 0.19999999999999998, 0.19999999999999998, 0.19999999999999998, 0.19999999999999998, 0.19999999999999998, 0.11394926474896011, 0.1001733102253033, 0.14380487804878048, 0.14392580826971357, 0.012987012987012986, 0.19999999999999998, 0.19999999999999998, 0.12564543889845095, 0.13242195470312182, 0.1479127969498485, 0.19999999999999998, 0.19999999999999998, 0.01511700144957548, 0.4948805460750853, 0.16118203550175472, 0.08130385912326714, 0.012987012987012986, 0.19999999999999998, 0.1422202407489969, 0.2596864299873851, 0.14625569674888603, 0.14742490457487414, 0.012987012987012986, 0.012987012987012986, 0.19999999999999998, 0.0015313935681470134, 0.22445513727710162, 0.004524886877828055, 0.19999999999999998, 0.19999999999999998, 0.16904436193081884, 0.11179173047473198, 0.12822642852904528, 0.21733895243829018, 0.012987012987012986, 0.19999999999999998, 0.11506920130648306, 0.1745366428711769, 0.12014460866506899, 0.14333432473861218, 0.08400460299194475, 0.004524886877828055, 0.33031674208144796, 0.4899328859060403, 0.16704805491990846, 0.16685845799769847, 0.19999999999999998, 0.19999999999999998, 0.08369751618078222, 0.08033240997229917, 0.10480747884857304, 0.14776849077432583, 0.4948805460750853, 0.19999999999999998, 0.16478662144040387, 0.48756134709764765, 0.3418777616159398, 0.29498109805286216, 0.19999999999999998, 0.19999999999999998, 0.19999999999999998, 0.01298701298701299, 0.4899328859060403, 0.16673084328070853, 0.19999999999999998, 0.19999999999999998, 0.19999999999999998, 0.19999999999999998, 0.19999999999999998, 0.19999999999999998, 0.19999999999999998, 0.19999999999999998, 0.37969418243599506, 0.2, 0.231403156384505, 0.17343854075933798, 0.948051948051948, 0.19999999999999998, 0.00273972602739726, 0.24956970740103268, 0.2499489900020404, 0.14087398572685503, 0.19999999999999998, 0.19999999999999998, 0.7158832056326361, 0.00341296928327645, 0.1501958191343268, 0.4319970026227052, 0.948051948051948, 0.19999999999999998, 0.22476275396471562, 0.31158767345467653, 0.25319589199344955, 0.22310117829285833, 0.948051948051948, 0.012987012987012986, 0.19999999999999998, 0.0015313935681470134, 0.2652136994056043, 0.004524886877828055, 0.19999999999999998, 0.19999999999999998, 0.2956810631229236, 0.0015313935681470134, 0.13677090132320655, 0.21733895243829018, 0.012987012987012986, 0.19999999999999998, 0.2622600277275184, 0.20754469840854017, 0.22732514865738052, 0.20922464480999337, 0.16685845799769847, 0.004524886877828055, 0.33031674208144796, 0.006711409395973155, 0.49656750572082375, 0.001150747986191024, 0.19999999999999998, 0.19999999999999998, 0.17530563699728938, 0.04044321329639889, 0.17584667373769763, 0.1818325185302003, 0.00341296928327645, 0.19999999999999998, 0.749783071704662, 0.1098324589609071, 0.06918791338474627, 0.01595988674649246, 0.19999999999999998, 0.19999999999999998, 0.19999999999999998, 0.01298701298701299, 0.006711409395973155, 0.11128224874855604, 0.19999999999999998, 0.19999999999999998, 0.19999999999999998, 0.19999999999999998, 0.19999999999999998, 0.19999999999999998, 0.19999999999999998, 0.19999999999999998, 0.11816743804557972, 0.17504332755632585, 0.06529698708751792, 0.09227852641287083, 0.012987012987012986, 0.19999999999999998, 0.00273972602739726, 0.001721170395869191, 0.0589675576412977, 0.049369439827940176, 0.19999999999999998, 0.19999999999999998, 0.0449368399254504, 0.00341296928327645, 0.022023294847667973, 0.027351067815661295, 0.012987012987012986, 0.19999999999999998, 0.20641997325011147, 0.03910614525139665, 0.08775849593134702, 0.06378270730762849, 0.012987012987012986, 0.948051948051948, 0.19999999999999998, 0.0015313935681470134, 0.041041607698839515, 0.004524886877828055, 0.19999999999999998, 0.19999999999999998, 0.09869063904631621, 0.0015313935681470134, 0.10686524654364209, 0.0006020469596628536, 0.948051948051948, 0.19999999999999998, 0.16920835585215122, 0.10852053179645034, 0.10071077449063887, 0.05602965064403211, 0.16685845799769847, 0.004524886877828055, 0.33031674208144796, 0.006711409395973155, 0.002288329519450801, 0.001150747986191024, 0.19999999999999998, 0.19999999999999998, 0.34259003153178075, 0.3595567867036011, 0.12256727757085419, 0.10234978709982653, 0.00341296928327645, 0.19999999999999998 ;
}
probability ( total_add_line | file_changed_num, total_delete_line ) {
    table 0.7597017853639396, 0.2743524631792788, 0.47807486631016033, 0.7145945945945947, 0.8487106017191978, 0.46894586894586904, 0.1158204562178072, 0.06569753810082063, 0.11119068934646374, 0.2636420136730888, 0.28560885608856085, 0.018978102189781024, 0.007155577141006963, 0.002164271775767252, 0.025825503355704698, 0.2, 0.2, 0.2, 0.2, 0.000664451827242525, 0.19701785363939578, 0.390147282884713, 0.34260249554367195, 0.15243243243243249, 0.05787965616045846, 0.44452584452584465, 0.40328673043904834, 0.18199296600234469, 0.25443151298119965, 0.3407085146053449, 0.5955719557195571, 0.23366251610133107, 0.03370568237008257, 0.017065815149902432, 0.12891275167785235, 0.2, 0.2, 0.2, 0.2, 0.000664451827242525, 0.020443398077300376, 0.30482478415439307, 0.11443850267379678, 0.08756756756756759, 0.034957020057306595, 0.052177452177452184, 0.4268334559725288, 0.3367409144196952, 0.37976723366159354, 0.24872591671845862, 0.059286592865928654, 0.5805925289823959, 0.20660514813016032, 0.06248004257583821, 0.17616107382550336, 0.2, 0.2, 0.2, 0.2, 0.000664451827242525, 0.012595644496762804, 0.028542407313357034, 0.06452762923351157, 0.0010810810810810815, 0.01203438395415473, 0.017989417989417993, 0.043218052489575665, 0.39488862837045724, 0.24368845120859445, 0.13934120571783715, 0.019926199261992617, 0.11515671962215543, 0.6734984620365874, 0.19872272485364556, 0.4886442953020134, 0.2, 0.2, 0.2, 0.2, 0.000664451827242525, 0.010241318422601533, 0.002133062468257999, 0.00035650623885917997, 0.044324324324324336, 0.046418338108882524, 0.016361416361416366, 0.010841304881039982, 0.0206799531066823, 0.010922112802148611, 0.007582349285270353, 0.03960639606396064, 0.051610133104336625, 0.07903513032216287, 0.7195671456448465, 0.18045637583892618, 0.2, 0.2, 0.2, 0.2, 0.9973421926910299 ;
}
probability ( total_delete_line | has_refactor ) {
    table 0.20231901293295673, 0.6516129032258065, 0.2059858282542986, 0.2, 0.271988504038452, 0.08387096774193549, 0.1717952529607056, 0.01935483870967742, 0.14791140181358703, 0.04516129032258064 ;
}
probability ( workload | author_identity, close_num, has_assignees_content, has_labels ) {
    table 0.2352078239608802, 0.3740932642487047, 0.32764971023824857, 0.3537999823461912, 0.07745229776941683, 0.4362694300518135, 0.16724673261607334, 0.26827285921625543, 0.06712353471596032, 0.6227979274611398, 0.10115889282635762, 0.3321778026279005, 0.09938347718865596, 0.3485493230174081, 0.10448675021524921, 0.4307606472010415, 0.12502110892203772, 0.4609808102345416, 0.1579003322259136, 0.33012430573922247, 0.9680000000000001, 0.9384615384615387, 0.2, 0.780505415162455, 0.2489795918367347, 0.9680000000000001, 0.016920943134535366, 0.29187790998448004, 0.015384615384615389, 0.9680000000000001, 0.35824175824175825, 0.9905882352941177, 0.9836734693877551, 0.2, 0.24948453608247415, 0.7656050955414011, 0.2, 0.2, 0.015384615384615385, 0.4938775510204082, 0.2, 0.2, 0.2, 0.2, 0.013189189189189189, 0.003278688524590164, 0.06593477558927995, 0.08360277136258659, 0.03581201665675194, 0.015384615384615385, 0.11542334096109841, 0.1292225201072386, 0.06951995373048006, 0.2494845360824742, 0.08517424689899589, 0.0015037593984962407, 0.18380482740721515, 0.44855687606112055, 0.07925773195876289, 0.37744916820702407, 0.14718826405867969, 0.24974093264248706, 0.2673792659368963, 0.1906787889487157, 0.061327600107497986, 0.12538860103626945, 0.2140371145931114, 0.21602322206095792, 0.08010820559062218, 0.249740932642487, 0.2344794559908055, 0.22147050601062343, 0.0845869297163995, 0.186073500967118, 0.20091839663254568, 0.18973405244560165, 0.1587953841823811, 0.1539445628997868, 0.22009302325581395, 0.24443268976461255, 0.008, 0.015384615384615389, 0.2, 0.2173285198555957, 0.4938775510204082, 0.008, 0.1500693481276006, 0.1925504397309881, 0.9384615384615387, 0.008, 0.24521193092621668, 0.0023529411764705885, 0.004081632653061225, 0.2, 0.7443298969072163, 0.23057324840764323, 0.2, 0.2, 0.015384615384615385, 0.004081632653061225, 0.2, 0.2, 0.2, 0.2, 0.013189189189189189, 0.003278688524590164, 0.1318049725540846, 0.22217090069284065, 0.050089232599643076, 0.015384615384615385, 0.17034324942791762, 0.0970509383378016, 0.09034123770965878, 0.2494845360824742, 0.1914943886591849, 0.5428571428571429, 0.2180638463534908, 0.10220713073005094, 0.19802061855670106, 0.111275415896488, 0.17652811735941318, 0.3119170984455959, 0.18701867353509335, 0.18326418924883045, 0.20644987906476756, 0.3740932642487047, 0.21317062603798106, 0.18815674891146592, 0.13421100090171323, 0.06321243523316061, 0.18276027200459727, 0.17450377411238469, 0.1712524220539017, 0.11644100580270793, 0.17451449344685738, 0.19419750790403573, 0.1689276667604841, 0.1795309168443497, 0.20095681063122922, 0.2, 0.008, 0.015384615384615389, 0.2, 0.0007220216606498197, 0.004081632653061225, 0.008, 0.31650485436893205, 0.17392653905845834, 0.015384615384615389, 0.008, 0.35824175824175825, 0.0023529411764705885, 0.004081632653061225, 0.2, 0.002061855670103092, 0.0012738853503184708, 0.2, 0.2, 0.015384615384615385, 0.2489795918367347, 0.2, 0.2, 0.2, 0.2, 0.15589189189189193, 0.003278688524590164, 0.16280271230222798, 0.08360277136258659, 0.2, 0.015384615384615385, 0.17583524027459957, 0.2579088471849866, 0.16668594563331407, 0.12577319587628866, 0.24111045481393978, 0.09172932330827067, 0.17446145860368545, 0.2040747028862479, 0.1881237113402062, 0.17781885397412203, 0.2938875305623472, 0.06321243523316063, 0.14838377334191885, 0.18538264630594053, 0.3031980650362806, 0.06321243523316063, 0.21230413748285074, 0.21253991291727142, 0.19697024346257888, 0.0010362694300518132, 0.2068958911981611, 0.20134190662566398, 0.21775585696670774, 0.16286266924564796, 0.22961829139959822, 0.10939185419378836, 0.20607936954686182, 0.1539445628997868, 0.18500996677740864, 0.1682623644538482, 0.008, 0.015384615384615389, 0.2, 0.0007220216606498197, 0.2489795918367347, 0.008, 0.3830790568654647, 0.24842214174857732, 0.015384615384615389, 0.008, 0.03799058084772371, 0.0023529411764705885, 0.004081632653061225, 0.2, 0.002061855670103092, 0.0012738853503184708, 0.2, 0.2, 0.9384615384615385, 0.2489795918367347, 0.2, 0.2, 0.2, 0.2, 0.22075675675675677, 0.39672131147540984, 0.2751695188892477, 0.2775981524249423, 0.249970255800119, 0.9384615384615385, 0.19780320366132725, 0.1292225201072386, 0.29161364950838636, 0.37319587628865974, 0.19858239810986417, 0.09172932330827067, 0.1931481962107449, 0.2244482173174873, 0.1930721649484536, 0.24436229205175605, 0.14718826405867969, 0.0010362694300518136, 0.06956857694784288, 0.0868743931503222, 0.3515721580220371, 0.0010362694300518136, 0.19324138926998338, 0.11500725689404935, 0.5215870153291253, 0.06321243523316061, 0.27470548798007854, 0.07050601062342746, 0.427021314074335, 0.186073500967118, 0.29046206830574955, 0.07591593825553282, 0.3411764705882353, 0.05159914712153518, 0.23603986710963457, 0.05718064004231685, 0.008, 0.015384615384615389, 0.2, 0.0007220216606498197, 0.004081632653061225, 0.008, 0.13342579750346742, 0.09322296947749611, 0.015384615384615389, 0.008, 0.0003139717425431711, 0.0023529411764705885, 0.004081632653061225, 0.2, 0.002061855670103092, 0.0012738853503184708, 0.2, 0.2, 0.015384615384615385, 0.004081632653061225, 0.2, 0.2, 0.2, 0.2, 0.596972972972973, 0.5934426229508197, 0.36428802066515986, 0.3330254041570439, 0.46412849494348607, 0.015384615384615385, 0.34059496567505726, 0.3865951742627346, 0.38183921341816085, 0.0020618556701030924, 0.2836385115180154, 0.2721804511278196, 0.23052167142486377, 0.02071307300509338, 0.3415257731958763, 0.08909426987060999 ;
}
