## MART
## No. of trees = 1000
## No. of leaves = 10
## No. of threshold candidates = 256
## Learning rate = 0.1
## Stop early = 100

<ensemble>
	<tree id="1" weight="0.1">
		<split>
			<feature> 23 </feature>
			<threshold> 0.028571429 </threshold>
			<split pos="left">
				<feature> 23 </feature>
				<threshold> 0.0 </threshold>
				<split pos="left">
					<feature> 12 </feature>
					<threshold> 0.0016 </threshold>
					<split pos="left">
						<output> 2.8034567832946777 </output>
					</split>
					<split pos="right">
						<output> 3.6804122924804688 </output>
					</split>
				</split>
				<split pos="right">
					<feature> 37 </feature>
					<threshold> 0.34375 </threshold>
					<split pos="left">
						<output> 2.6686694622039795 </output>
					</split>
					<split pos="right">
						<feature> 11 </feature>
						<threshold> 0.006557377 </threshold>
						<split pos="left">
							<feature> 12 </feature>
							<threshold> 1.0E-4 </threshold>
							<split pos="left">
								<feature> 36 </feature>
								<threshold> 0.08984375 </threshold>
								<split pos="left">
									<output> 1.8350071907043457 </output>
								</split>
								<split pos="right">
									<feature> 25 </feature>
									<threshold> 0.0 </threshold>
									<split pos="left">
										<output> 2.686192512512207 </output>
									</split>
									<split pos="right">
										<output> 2.2167322635650635 </output>
									</split>
								</split>
							</split>
							<split pos="right">
								<output> 1.6886016130447388 </output>
							</split>
						</split>
						<split pos="right">
							<output> 1.1318328380584717 </output>
						</split>
					</split>
				</split>
			</split>
			<split pos="right">
				<feature> 10 </feature>
				<threshold> 0.023391813 </threshold>
				<split pos="left">
					<output> 1.382022500038147 </output>
				</split>
				<split pos="right">
					<output> 0.5982142686843872 </output>
				</split>
			</split>
		</split>
	</tree>
	<tree id="2" weight="0.1">
		<split>
			<feature> 10 </feature>
			<threshold> 0.0116959065 </threshold>
			<split pos="left">
				<feature> 11 </feature>
				<threshold> 0.0 </threshold>
				<split pos="left">
					<feature> 23 </feature>
					<threshold> 0.0 </threshold>
					<split pos="left">
						<feature> 12 </feature>
						<threshold> 0.0015 </threshold>
						<split pos="left">
							<output> 2.5289037227630615 </output>
						</split>
						<split pos="right">
							<output> 3.2972412109375 </output>
						</split>
					</split>
					<split pos="right">
						<feature> 31 </feature>
						<threshold> 0.6015625 </threshold>
						<split pos="left">
							<output> 2.3918073177337646 </output>
						</split>
						<split pos="right">
							<feature> 34 </feature>
							<threshold> 0.0390625 </threshold>
							<split pos="left">
								<output> 1.4305977821350098 </output>
							</split>
							<split pos="right">
								<feature> 23 </feature>
								<threshold> 0.028571429 </threshold>
								<split pos="left">
									<feature> 6 </feature>
									<threshold> 0.98046875 </threshold>
									<split pos="left">
										<output> 1.8510637283325195 </output>
									</split>
									<split pos="right">
										<output> 2.184218406677246 </output>
									</split>
								</split>
								<split pos="right">
									<output> 1.3265057802200317 </output>
								</split>
							</split>
						</split>
					</split>
				</split>
				<split pos="right">
					<output> 1.3269869089126587 </output>
				</split>
			</split>
			<split pos="right">
				<feature> 10 </feature>
				<threshold> 0.03508772 </threshold>
				<split pos="left">
					<output> 1.145293951034546 </output>
				</split>
				<split pos="right">
					<output> 0.44665250182151794 </output>
				</split>
			</split>
		</split>
	</tree>
	<tree id="3" weight="0.1">
		<split>
			<feature> 23 </feature>
			<threshold> 0.028571429 </threshold>
			<split pos="left">
				<feature> 23 </feature>
				<threshold> 0.0 </threshold>
				<split pos="left">
					<feature> 12 </feature>
					<threshold> 0.0016 </threshold>
					<split pos="left">
						<feature> 39 </feature>
						<threshold> 0.4296875 </threshold>
						<split pos="left">
							<output> 2.9265024662017822 </output>
						</split>
						<split pos="right">
							<output> 2.226573944091797 </output>
						</split>
					</split>
					<split pos="right">
						<output> 2.985698938369751 </output>
					</split>
				</split>
				<split pos="right">
					<feature> 37 </feature>
					<threshold> 0.34375 </threshold>
					<split pos="left">
						<output> 2.1880650520324707 </output>
					</split>
					<split pos="right">
						<feature> 12 </feature>
						<threshold> 1.0E-4 </threshold>
						<split pos="left">
							<feature> 34 </feature>
							<threshold> 0.0703125 </threshold>
							<split pos="left">
								<output> 1.4585496187210083 </output>
							</split>
							<split pos="right">
								<feature> 21 </feature>
								<threshold> 0.059156466 </threshold>
								<split pos="left">
									<output> 1.7465505599975586 </output>
								</split>
								<split pos="right">
									<output> 2.068887233734131 </output>
								</split>
							</split>
						</split>
						<split pos="right">
							<output> 1.246147632598877 </output>
						</split>
					</split>
				</split>
			</split>
			<split pos="right">
				<feature> 10 </feature>
				<threshold> 0.023391813 </threshold>
				<split pos="left">
					<output> 1.1013000011444092 </output>
				</split>
				<split pos="right">
					<output> 0.46690288186073303 </output>
				</split>
			</split>
		</split>
	</tree>
	<tree id="4" weight="0.1">
		<split>
			<feature> 10 </feature>
			<threshold> 0.0116959065 </threshold>
			<split pos="left">
				<feature> 11 </feature>
				<threshold> 0.0 </threshold>
				<split pos="left">
					<feature> 23 </feature>
					<threshold> 0.0 </threshold>
					<split pos="left">
						<feature> 12 </feature>
						<threshold> 0.0015 </threshold>
						<split pos="left">
							<feature> 44 </feature>
							<threshold> 0.7959367 </threshold>
							<split pos="left">
								<output> 2.4861252307891846 </output>
							</split>
							<split pos="right">
								<output> 1.9925727844238281 </output>
							</split>
						</split>
						<split pos="right">
							<output> 2.672743082046509 </output>
						</split>
					</split>
					<split pos="right">
						<feature> 32 </feature>
						<threshold> 0.77734375 </threshold>
						<split pos="left">
							<feature> 4 </feature>
							<threshold> 0.0 </threshold>
							<split pos="left">
								<output> 2.071946382522583 </output>
							</split>
							<split pos="right">
								<output> 1.757177710533142 </output>
							</split>
						</split>
						<split pos="right">
							<feature> 35 </feature>
							<threshold> 0.20703125 </threshold>
							<split pos="left">
								<output> 1.317718505859375 </output>
							</split>
							<split pos="right">
								<output> 1.7266007661819458 </output>
							</split>
						</split>
					</split>
				</split>
				<split pos="right">
					<output> 1.05112886428833 </output>
				</split>
			</split>
			<split pos="right">
				<feature> 11 </feature>
				<threshold> 0.0 </threshold>
				<split pos="left">
					<output> 0.9657584428787231 </output>
				</split>
				<split pos="right">
					<output> 0.3914733827114105 </output>
				</split>
			</split>
		</split>
	</tree>
	<tree id="5" weight="0.1">
		<split>
			<feature> 23 </feature>
			<threshold> 0.028571429 </threshold>
			<split pos="left">
				<feature> 23 </feature>
				<threshold> 0.0 </threshold>
				<split pos="left">
					<feature> 12 </feature>
					<threshold> 0.0016 </threshold>
					<split pos="left">
						<feature> 17 </feature>
						<threshold> 0.9479167 </threshold>
						<split pos="left">
							<output> 1.8509905338287354 </output>
						</split>
						<split pos="right">
							<output> -0.12181743234395981 </output>
						</split>
					</split>
					<split pos="right">
						<output> 2.422356128692627 </output>
					</split>
				</split>
				<split pos="right">
					<feature> 43 </feature>
					<threshold> 0.618717 </threshold>
					<split pos="left">
						<output> 1.7341655492782593 </output>
					</split>
					<split pos="right">
						<feature> 12 </feature>
						<threshold> 1.0E-4 </threshold>
						<split pos="left">
							<feature> 36 </feature>
							<threshold> 0.08984375 </threshold>
							<split pos="left">
								<output> 1.116122841835022 </output>
							</split>
							<split pos="right">
								<feature> 9 </feature>
								<threshold> 0.0 </threshold>
								<split pos="left">
									<output> 1.127382516860962 </output>
								</split>
								<split pos="right">
									<output> 1.532464623451233 </output>
								</split>
							</split>
						</split>
						<split pos="right">
							<output> 0.9430816173553467 </output>
						</split>
					</split>
				</split>
			</split>
			<split pos="right">
				<feature> 23 </feature>
				<threshold> 0.057142857 </threshold>
				<split pos="left">
					<output> 0.8616530299186707 </output>
				</split>
				<split pos="right">
					<output> 0.28952282667160034 </output>
				</split>
			</split>
		</split>
	</tree>
	<tree id="6" weight="0.1">
		<split>
			<feature> 23 </feature>
			<threshold> 0.028571429 </threshold>
			<split pos="left">
				<feature> 11 </feature>
				<threshold> 0.0 </threshold>
				<split pos="left">
					<feature> 31 </feature>
					<threshold> 0.8828125 </threshold>
					<split pos="left">
						<feature> 10 </feature>
						<threshold> 0.0116959065 </threshold>
						<split pos="left">
							<feature> 4 </feature>
							<threshold> 0.0 </threshold>
							<split pos="left">
								<output> 1.8748723268508911 </output>
							</split>
							<split pos="right">
								<feature> 7 </feature>
								<threshold> 0.022135418 </threshold>
								<split pos="left">
									<output> 1.3661878108978271 </output>
								</split>
								<split pos="right">
									<output> 1.666384220123291 </output>
								</split>
							</split>
						</split>
						<split pos="right">
							<output> 1.1058722734451294 </output>
						</split>
					</split>
					<split pos="right">
						<feature> 35 </feature>
						<threshold> 0.1953125 </threshold>
						<split pos="left">
							<output> 0.9127885699272156 </output>
						</split>
						<split pos="right">
							<output> 1.4184812307357788 </output>
						</split>
					</split>
				</split>
				<split pos="right">
					<output> 0.8546687960624695 </output>
				</split>
			</split>
			<split pos="right">
				<feature> 10 </feature>
				<threshold> 0.023391813 </threshold>
				<split pos="left">
					<feature> 43 </feature>
					<threshold> 0.49153548 </threshold>
					<split pos="left">
						<output> 1.1542810201644897 </output>
					</split>
					<split pos="right">
						<output> 0.5567948222160339 </output>
					</split>
				</split>
				<split pos="right">
					<output> 0.2975449562072754 </output>
				</split>
			</split>
		</split>
	</tree>
	<tree id="7" weight="0.1">
		<split>
			<feature> 10 </feature>
			<threshold> 0.0116959065 </threshold>
			<split pos="left">
				<feature> 11 </feature>
				<threshold> 0.0 </threshold>
				<split pos="left">
					<feature> 31 </feature>
					<threshold> 0.9296875 </threshold>
					<split pos="left">
						<feature> 4 </feature>
						<threshold> 0.0 </threshold>
						<split pos="left">
							<output> 1.6161975860595703 </output>
						</split>
						<split pos="right">
							<feature> 6 </feature>
							<threshold> 0.98046875 </threshold>
							<split pos="left">
								<output> 1.1287484169006348 </output>
							</split>
							<split pos="right">
								<feature> 42 </feature>
								<threshold> 0.99609375 </threshold>
								<split pos="left">
									<feature> 18 </feature>
									<threshold> 0.0054041105 </threshold>
									<split pos="left">
										<output> 1.1993005275726318 </output>
									</split>
									<split pos="right">
										<output> 1.5117286443710327 </output>
									</split>
								</split>
								<split pos="right">
									<output> 0.5456002354621887 </output>
								</split>
							</split>
						</split>
					</split>
					<split pos="right">
						<output> 0.9557693004608154 </output>
					</split>
				</split>
				<split pos="right">
					<output> 0.7546691298484802 </output>
				</split>
			</split>
			<split pos="right">
				<feature> 11 </feature>
				<threshold> 0.006557377 </threshold>
				<split pos="left">
					<feature> 23 </feature>
					<threshold> 0.057142857 </threshold>
					<split pos="left">
						<output> 0.7811644673347473 </output>
					</split>
					<split pos="right">
						<output> 0.3179214298725128 </output>
					</split>
				</split>
				<split pos="right">
					<output> 0.09292381256818771 </output>
				</split>
			</split>
		</split>
	</tree>
	<tree id="8" weight="0.1">
		<split>
			<feature> 23 </feature>
			<threshold> 0.028571429 </threshold>
			<split pos="left">
				<feature> 23 </feature>
				<threshold> 0.0 </threshold>
				<split pos="left">
					<feature> 1 </feature>
					<threshold> 1.0 </threshold>
					<split pos="left">
						<output> 1.3437893390655518 </output>
					</split>
					<split pos="right">
						<output> 1.8295003175735474 </output>
					</split>
				</split>
				<split pos="right">
					<feature> 37 </feature>
					<threshold> 0.34375 </threshold>
					<split pos="left">
						<output> 1.3378607034683228 </output>
					</split>
					<split pos="right">
						<feature> 11 </feature>
						<threshold> 0.006557377 </threshold>
						<split pos="left">
							<feature> 35 </feature>
							<threshold> 0.1171875 </threshold>
							<split pos="left">
								<output> 0.7828916311264038 </output>
							</split>
							<split pos="right">
								<feature> 6 </feature>
								<threshold> 0.98046875 </threshold>
								<split pos="left">
									<output> 0.9221338629722595 </output>
								</split>
								<split pos="right">
									<output> 1.184639573097229 </output>
								</split>
							</split>
						</split>
						<split pos="right">
							<output> 0.40613147616386414 </output>
						</split>
					</split>
				</split>
			</split>
			<split pos="right">
				<feature> 11 </feature>
				<threshold> 0.009836066 </threshold>
				<split pos="left">
					<feature> 10 </feature>
					<threshold> 0.023391813 </threshold>
					<split pos="left">
						<output> 0.7485803365707397 </output>
					</split>
					<split pos="right">
						<output> 0.3343653380870819 </output>
					</split>
				</split>
				<split pos="right">
					<output> 0.07001493871212006 </output>
				</split>
			</split>
		</split>
	</tree>
	<tree id="9" weight="0.1">
		<split>
			<feature> 10 </feature>
			<threshold> 0.0116959065 </threshold>
			<split pos="left">
				<feature> 11 </feature>
				<threshold> 0.006557377 </threshold>
				<split pos="left">
					<feature> 23 </feature>
					<threshold> 0.0 </threshold>
					<split pos="left">
						<output> 1.2610565423965454 </output>
					</split>
					<split pos="right">
						<feature> 25 </feature>
						<threshold> 0.0 </threshold>
						<split pos="left">
							<output> 1.2574577331542969 </output>
						</split>
						<split pos="right">
							<feature> 31 </feature>
							<threshold> 0.9296875 </threshold>
							<split pos="left">
								<feature> 42 </feature>
								<threshold> 0.99609375 </threshold>
								<split pos="left">
									<feature> 12 </feature>
									<threshold> 1.0E-4 </threshold>
									<split pos="left">
										<feature> 39 </feature>
										<threshold> 0.34765625 </threshold>
										<split pos="left">
											<output> 1.339077353477478 </output>
										</split>
										<split pos="right">
											<output> 1.0117846727371216 </output>
										</split>
									</split>
									<split pos="right">
										<output> 0.7977361083030701 </output>
									</split>
								</split>
								<split pos="right">
									<output> 0.27701687812805176 </output>
								</split>
							</split>
							<split pos="right">
								<output> 0.5640422105789185 </output>
							</split>
						</split>
					</split>
				</split>
				<split pos="right">
					<output> 0.39038869738578796 </output>
				</split>
			</split>
			<split pos="right">
				<feature> 10 </feature>
				<threshold> 0.03508772 </threshold>
				<split pos="left">
					<output> 0.5390965938568115 </output>
				</split>
				<split pos="right">
					<output> 0.10516523569822311 </output>
				</split>
			</split>
		</split>
	</tree>
	<tree id="10" weight="0.1">
		<split>
			<feature> 23 </feature>
			<threshold> 0.028571429 </threshold>
			<split pos="left">
				<feature> 11 </feature>
				<threshold> 0.0 </threshold>
				<split pos="left">
					<feature> 31 </feature>
					<threshold> 0.8828125 </threshold>
					<split pos="left">
						<feature> 25 </feature>
						<threshold> 0.0078125 </threshold>
						<split pos="left">
							<feature> 4 </feature>
							<threshold> 0.0 </threshold>
							<split pos="left">
								<output> 1.2856868505477905 </output>
							</split>
							<split pos="right">
								<feature> 12 </feature>
								<threshold> 1.0E-4 </threshold>
								<split pos="left">
									<feature> 42 </feature>
									<threshold> 0.99609375 </threshold>
									<split pos="left">
										<feature> 9 </feature>
										<threshold> 0.0 </threshold>
										<split pos="left">
											<output> 0.8299208283424377 </output>
										</split>
										<split pos="right">
											<output> 1.13242506980896 </output>
										</split>
									</split>
									<split pos="right">
										<output> 0.386003702878952 </output>
									</split>
								</split>
								<split pos="right">
									<output> 0.7993990778923035 </output>
								</split>
							</split>
						</split>
						<split pos="right">
							<output> 0.6244658827781677 </output>
						</split>
					</split>
					<split pos="right">
						<output> 0.7484166622161865 </output>
					</split>
				</split>
				<split pos="right">
					<output> 0.552139163017273 </output>
				</split>
			</split>
			<split pos="right">
				<feature> 12 </feature>
				<threshold> 1.0E-4 </threshold>
				<split pos="left">
					<output> 0.5562198758125305 </output>
				</split>
				<split pos="right">
					<output> 0.17433267831802368 </output>
				</split>
			</split>
		</split>
	</tree>
	<tree id="11" weight="0.1">
		<split>
			<feature> 10 </feature>
			<threshold> 0.0116959065 </threshold>
			<split pos="left">
				<feature> 11 </feature>
				<threshold> 0.006557377 </threshold>
				<split pos="left">
					<feature> 40 </feature>
					<threshold> 0.89453125 </threshold>
					<split pos="left">
						<feature> 12 </feature>
						<threshold> 0.0015 </threshold>
						<split pos="left">
							<feature> 12 </feature>
							<threshold> 1.0E-4 </threshold>
							<split pos="left">
								<feature> 9 </feature>
								<threshold> 0.0 </threshold>
								<split pos="left">
									<output> 0.6912190318107605 </output>
								</split>
								<split pos="right">
									<feature> 7 </feature>
									<threshold> 0.044270825 </threshold>
									<split pos="left">
										<feature> 4 </feature>
										<threshold> 0.0 </threshold>
										<split pos="left">
											<output> 1.1515966653823853 </output>
										</split>
										<split pos="right">
											<output> 0.8494877815246582 </output>
										</split>
									</split>
									<split pos="right">
										<output> 1.1365360021591187 </output>
									</split>
								</split>
							</split>
							<split pos="right">
								<output> 0.6870852708816528 </output>
							</split>
						</split>
						<split pos="right">
							<output> 1.3492577075958252 </output>
						</split>
					</split>
					<split pos="right">
						<output> 0.626919686794281 </output>
					</split>
				</split>
				<split pos="right">
					<output> 0.3067418932914734 </output>
				</split>
			</split>
			<split pos="right">
				<feature> 11 </feature>
				<threshold> 0.006557377 </threshold>
				<split pos="left">
					<output> 0.42397937178611755 </output>
				</split>
				<split pos="right">
					<output> -0.00730757275596261 </output>
				</split>
			</split>
		</split>
	</tree>
	<tree id="12" weight="0.1">
		<split>
			<feature> 23 </feature>
			<threshold> 0.028571429 </threshold>
			<split pos="left">
				<feature> 10 </feature>
				<threshold> 0.0058479533 </threshold>
				<split pos="left">
					<feature> 4 </feature>
					<threshold> 0.0 </threshold>
					<split pos="left">
						<output> 1.018190860748291 </output>
					</split>
					<split pos="right">
						<feature> 6 </feature>
						<threshold> 0.98046875 </threshold>
						<split pos="left">
							<output> 0.5997254848480225 </output>
						</split>
						<split pos="right">
							<feature> 35 </feature>
							<threshold> 0.21484375 </threshold>
							<split pos="left">
								<feature> 38 </feature>
								<threshold> 0.73046875 </threshold>
								<split pos="left">
									<feature> 19 </feature>
									<threshold> 0.1328125 </threshold>
									<split pos="left">
										<output> 0.7623130679130554 </output>
									</split>
									<split pos="right">
										<output> 1.0110007524490356 </output>
									</split>
								</split>
								<split pos="right">
									<output> -0.5354340076446533 </output>
								</split>
							</split>
							<split pos="right">
								<output> 1.104251503944397 </output>
							</split>
						</split>
					</split>
				</split>
				<split pos="right">
					<feature> 44 </feature>
					<threshold> 0.78091896 </threshold>
					<split pos="left">
						<output> 0.7833441495895386 </output>
					</split>
					<split pos="right">
						<output> 0.41161659359931946 </output>
					</split>
				</split>
			</split>
			<split pos="right">
				<feature> 44 </feature>
				<threshold> 0.5631616 </threshold>
				<split pos="left">
					<output> 0.5474032163619995 </output>
				</split>
				<split pos="right">
					<output> 0.16705584526062012 </output>
				</split>
			</split>
		</split>
	</tree>
	<tree id="13" weight="0.1">
		<split>
			<feature> 10 </feature>
			<threshold> 0.01754386 </threshold>
			<split pos="left">
				<feature> 11 </feature>
				<threshold> 0.0 </threshold>
				<split pos="left">
					<feature> 40 </feature>
					<threshold> 0.89453125 </threshold>
					<split pos="left">
						<feature> 9 </feature>
						<threshold> 0.0 </threshold>
						<split pos="left">
							<output> 0.5175992846488953 </output>
						</split>
						<split pos="right">
							<feature> 12 </feature>
							<threshold> 0.0014 </threshold>
							<split pos="left">
								<feature> 12 </feature>
								<threshold> 1.0E-4 </threshold>
								<split pos="left">
									<feature> 44 </feature>
									<threshold> 0.3416511 </threshold>
									<split pos="left">
										<output> 0.284196138381958 </output>
									</split>
									<split pos="right">
										<feature> 40 </feature>
										<threshold> 0.3203125 </threshold>
										<split pos="left">
											<output> 1.2416523694992065 </output>
										</split>
										<split pos="right">
											<feature> 6 </feature>
											<threshold> 0.98828125 </threshold>
											<split pos="left">
												<output> 0.7340176701545715 </output>
											</split>
											<split pos="right">
												<output> 0.9094361066818237 </output>
											</split>
										</split>
									</split>
								</split>
								<split pos="right">
									<output> 0.5455708503723145 </output>
								</split>
							</split>
							<split pos="right">
								<output> 1.178157925605774 </output>
							</split>
						</split>
					</split>
					<split pos="right">
						<output> 0.48926234245300293 </output>
					</split>
				</split>
				<split pos="right">
					<output> 0.3527762293815613 </output>
				</split>
			</split>
			<split pos="right">
				<output> 0.16743358969688416 </output>
			</split>
		</split>
	</tree>
	<tree id="14" weight="0.1">
		<split>
			<feature> 23 </feature>
			<threshold> 0.028571429 </threshold>
			<split pos="left">
				<feature> 23 </feature>
				<threshold> 0.0 </threshold>
				<split pos="left">
					<output> 0.7779202461242676 </output>
				</split>
				<split pos="right">
					<feature> 12 </feature>
					<threshold> 1.0E-4 </threshold>
					<split pos="left">
						<feature> 25 </feature>
						<threshold> 0.0 </threshold>
						<split pos="left">
							<output> 0.877602219581604 </output>
						</split>
						<split pos="right">
							<feature> 31 </feature>
							<threshold> 0.9296875 </threshold>
							<split pos="left">
								<feature> 42 </feature>
								<threshold> 0.99609375 </threshold>
								<split pos="left">
									<feature> 14 </feature>
									<threshold> 0.0 </threshold>
									<split pos="left">
										<output> 1.2413793802261353 </output>
									</split>
									<split pos="right">
										<feature> 35 </feature>
										<threshold> 0.0703125 </threshold>
										<split pos="left">
											<output> 0.42068982124328613 </output>
										</split>
										<split pos="right">
											<output> 0.6678714752197266 </output>
										</split>
									</split>
								</split>
								<split pos="right">
									<output> 0.012441127561032772 </output>
								</split>
							</split>
							<split pos="right">
								<output> 0.3283967971801758 </output>
							</split>
						</split>
					</split>
					<split pos="right">
						<output> 0.3359982967376709 </output>
					</split>
				</split>
			</split>
			<split pos="right">
				<feature> 7 </feature>
				<threshold> 0.011718749 </threshold>
				<split pos="left">
					<output> 0.11202213168144226 </output>
				</split>
				<split pos="right">
					<output> 0.4457414746284485 </output>
				</split>
			</split>
		</split>
	</tree>
	<tree id="15" weight="0.1">
		<split>
			<feature> 10 </feature>
			<threshold> 0.023391813 </threshold>
			<split pos="left">
				<feature> 11 </feature>
				<threshold> 0.006557377 </threshold>
				<split pos="left">
					<feature> 32 </feature>
					<threshold> 0.7578125 </threshold>
					<split pos="left">
						<feature> 9 </feature>
						<threshold> 0.0 </threshold>
						<split pos="left">
							<output> 0.3502807021141052 </output>
						</split>
						<split pos="right">
							<feature> 25 </feature>
							<threshold> 0.0078125 </threshold>
							<split pos="left">
								<feature> 4 </feature>
								<threshold> 0.0 </threshold>
								<split pos="left">
									<output> 0.8383489847183228 </output>
								</split>
								<split pos="right">
									<feature> 43 </feature>
									<threshold> 0.2990461 </threshold>
									<split pos="left">
										<output> -0.2422245442867279 </output>
									</split>
									<split pos="right">
										<output> 0.6695329546928406 </output>
									</split>
								</split>
							</split>
							<split pos="right">
								<output> 0.36562708020210266 </output>
							</split>
						</split>
					</split>
					<split pos="right">
						<feature> 34 </feature>
						<threshold> 0.02734375 </threshold>
						<split pos="left">
							<output> -0.10055363923311234 </output>
						</split>
						<split pos="right">
							<feature> 10 </feature>
							<threshold> 0.0058479533 </threshold>
							<split pos="left">
								<output> 0.5965455770492554 </output>
							</split>
							<split pos="right">
								<output> 0.27199587225914 </output>
							</split>
						</split>
					</split>
				</split>
				<split pos="right">
					<output> 0.11884979903697968 </output>
				</split>
			</split>
			<split pos="right">
				<output> 0.048524897545576096 </output>
			</split>
		</split>
	</tree>
	<tree id="16" weight="0.1">
		<split>
			<feature> 10 </feature>
			<threshold> 0.023391813 </threshold>
			<split pos="left">
				<feature> 11 </feature>
				<threshold> 0.0 </threshold>
				<split pos="left">
					<feature> 6 </feature>
					<threshold> 0.98828125 </threshold>
					<split pos="left">
						<feature> 37 </feature>
						<threshold> 0.7421875 </threshold>
						<split pos="left">
							<feature> 4 </feature>
							<threshold> 0.0 </threshold>
							<split pos="left">
								<output> 0.6489534974098206 </output>
							</split>
							<split pos="right">
								<feature> 12 </feature>
								<threshold> 1.0E-4 </threshold>
								<split pos="left">
									<feature> 35 </feature>
									<threshold> 0.18359375 </threshold>
									<split pos="left">
										<output> 0.38225895166397095 </output>
									</split>
									<split pos="right">
										<output> 0.6034999489784241 </output>
									</split>
								</split>
								<split pos="right">
									<output> 0.13925983011722565 </output>
								</split>
							</split>
						</split>
						<split pos="right">
							<output> 0.05746985971927643 </output>
						</split>
					</split>
					<split pos="right">
						<feature> 25 </feature>
						<threshold> 0.00390625 </threshold>
						<split pos="left">
							<feature> 12 </feature>
							<threshold> 1.0E-4 </threshold>
							<split pos="left">
								<output> 0.7200084328651428 </output>
							</split>
							<split pos="right">
								<output> 0.527768075466156 </output>
							</split>
						</split>
						<split pos="right">
							<output> 0.4427811801433563 </output>
						</split>
					</split>
				</split>
				<split pos="right">
					<output> 0.22047007083892822 </output>
				</split>
			</split>
			<split pos="right">
				<output> 0.04367237910628319 </output>
			</split>
		</split>
	</tree>
	<tree id="17" weight="0.1">
		<split>
			<feature> 10 </feature>
			<threshold> 0.0058479533 </threshold>
			<split pos="left">
				<feature> 4 </feature>
				<threshold> 0.0 </threshold>
				<split pos="left">
					<output> 0.6521241664886475 </output>
				</split>
				<split pos="right">
					<feature> 6 </feature>
					<threshold> 0.98046875 </threshold>
					<split pos="left">
						<output> 0.307583212852478 </output>
					</split>
					<split pos="right">
						<feature> 35 </feature>
						<threshold> 0.21484375 </threshold>
						<split pos="left">
							<feature> 38 </feature>
							<threshold> 0.734375 </threshold>
							<split pos="left">
								<feature> 19 </feature>
								<threshold> 0.1328125 </threshold>
								<split pos="left">
									<feature> 12 </feature>
									<threshold> 1.0E-4 </threshold>
									<split pos="left">
										<output> 0.48331522941589355 </output>
									</split>
									<split pos="right">
										<output> 0.19249320030212402 </output>
									</split>
								</split>
								<split pos="right">
									<output> 0.6411149501800537 </output>
								</split>
							</split>
							<split pos="right">
								<output> -1.4738221168518066 </output>
							</split>
						</split>
						<split pos="right">
							<output> 0.7318325638771057 </output>
						</split>
					</split>
				</split>
			</split>
			<split pos="right">
				<feature> 12 </feature>
				<threshold> 1.0E-4 </threshold>
				<split pos="left">
					<feature> 32 </feature>
					<threshold> 0.76171875 </threshold>
					<split pos="left">
						<output> 0.4838603138923645 </output>
					</split>
					<split pos="right">
						<output> 0.16147692501544952 </output>
					</split>
				</split>
				<split pos="right">
					<output> 0.05246242880821228 </output>
				</split>
			</split>
		</split>
	</tree>
	<tree id="18" weight="0.1">
		<split>
			<feature> 11 </feature>
			<threshold> 0.006557377 </threshold>
			<split pos="left">
				<feature> 25 </feature>
				<threshold> 0.0078125 </threshold>
				<split pos="left">
					<feature> 10 </feature>
					<threshold> 0.0058479533 </threshold>
					<split pos="left">
						<feature> 13 </feature>
						<threshold> 0.0 </threshold>
						<split pos="left">
							<output> 1.426062822341919 </output>
						</split>
						<split pos="right">
							<feature> 12 </feature>
							<threshold> 0.0011 </threshold>
							<split pos="left">
								<feature> 12 </feature>
								<threshold> 1.0E-4 </threshold>
								<split pos="left">
									<feature> 31 </feature>
									<threshold> 0.9296875 </threshold>
									<split pos="left">
										<feature> 42 </feature>
										<threshold> 0.99609375 </threshold>
										<split pos="left">
											<output> 0.5391883850097656 </output>
										</split>
										<split pos="right">
											<output> -0.05109358951449394 </output>
										</split>
									</split>
									<split pos="right">
										<output> 0.3147592842578888 </output>
									</split>
								</split>
								<split pos="right">
									<output> 0.27613383531570435 </output>
								</split>
							</split>
							<split pos="right">
								<output> 0.8329048752784729 </output>
							</split>
						</split>
					</split>
					<split pos="right">
						<feature> 32 </feature>
						<threshold> 0.7578125 </threshold>
						<split pos="left">
							<output> 0.4163101315498352 </output>
						</split>
						<split pos="right">
							<output> 0.14732755720615387 </output>
						</split>
					</split>
				</split>
				<split pos="right">
					<output> 0.09495355188846588 </output>
				</split>
			</split>
			<split pos="right">
				<output> -0.023409118875861168 </output>
			</split>
		</split>
	</tree>
	<tree id="19" weight="0.1">
		<split>
			<feature> 23 </feature>
			<threshold> 0.057142857 </threshold>
			<split pos="left">
				<feature> 11 </feature>
				<threshold> 0.0 </threshold>
				<split pos="left">
					<feature> 37 </feature>
					<threshold> 0.5859375 </threshold>
					<split pos="left">
						<feature> 9 </feature>
						<threshold> 0.0 </threshold>
						<split pos="left">
							<output> 0.2177066206932068 </output>
						</split>
						<split pos="right">
							<feature> 4 </feature>
							<threshold> 0.0 </threshold>
							<split pos="left">
								<output> 0.6175142526626587 </output>
							</split>
							<split pos="right">
								<feature> 43 </feature>
								<threshold> 0.2990461 </threshold>
								<split pos="left">
									<output> -0.4335743188858032 </output>
								</split>
								<split pos="right">
									<feature> 25 </feature>
									<threshold> 0.0234375 </threshold>
									<split pos="left">
										<feature> 12 </feature>
										<threshold> 0.0011 </threshold>
										<split pos="left">
											<output> 0.4293690025806427 </output>
										</split>
										<split pos="right">
											<output> 0.8314211964607239 </output>
										</split>
									</split>
									<split pos="right">
										<output> -0.18032817542552948 </output>
									</split>
								</split>
							</split>
						</split>
					</split>
					<split pos="right">
						<feature> 36 </feature>
						<threshold> 0.09765625 </threshold>
						<split pos="left">
							<output> 0.005875800270587206 </output>
						</split>
						<split pos="right">
							<output> 0.36704355478286743 </output>
						</split>
					</split>
				</split>
				<split pos="right">
					<output> 0.13064028322696686 </output>
				</split>
			</split>
			<split pos="right">
				<output> -0.07195506244897842 </output>
			</split>
		</split>
	</tree>
	<tree id="20" weight="0.1">
		<split>
			<feature> 10 </feature>
			<threshold> 0.023391813 </threshold>
			<split pos="left">
				<feature> 12 </feature>
				<threshold> 1.0E-4 </threshold>
				<split pos="left">
					<feature> 7 </feature>
					<threshold> 0.011718749 </threshold>
					<split pos="left">
						<feature> 10 </feature>
						<threshold> 0.0 </threshold>
						<split pos="left">
							<output> 0.5858783721923828 </output>
						</split>
						<split pos="right">
							<feature> 35 </feature>
							<threshold> 0.08203125 </threshold>
							<split pos="left">
								<output> 0.03271932899951935 </output>
							</split>
							<split pos="right">
								<output> 0.27837303280830383 </output>
							</split>
						</split>
					</split>
					<split pos="right">
						<feature> 3 </feature>
						<threshold> 0.0 </threshold>
						<split pos="left">
							<feature> 6 </feature>
							<threshold> 0.99609375 </threshold>
							<split pos="left">
								<feature> 9 </feature>
								<threshold> 0.0 </threshold>
								<split pos="left">
									<output> 0.07895035296678543 </output>
								</split>
								<split pos="right">
									<output> 0.4501304030418396 </output>
								</split>
							</split>
							<split pos="right">
								<output> 0.6742194294929504 </output>
							</split>
						</split>
						<split pos="right">
							<output> -0.07369720935821533 </output>
						</split>
					</split>
				</split>
				<split pos="right">
					<feature> 12 </feature>
					<threshold> 0.0014 </threshold>
					<split pos="left">
						<output> 0.11108599603176117 </output>
					</split>
					<split pos="right">
						<output> 0.6039204001426697 </output>
					</split>
				</split>
			</split>
			<split pos="right">
				<output> -0.006643426604568958 </output>
			</split>
		</split>
	</tree>
	<tree id="21" weight="0.1">
		<split>
			<feature> 11 </feature>
			<threshold> 0.013114754 </threshold>
			<split pos="left">
				<feature> 25 </feature>
				<threshold> 0.0078125 </threshold>
				<split pos="left">
					<feature> 10 </feature>
					<threshold> 0.0058479533 </threshold>
					<split pos="left">
						<feature> 13 </feature>
						<threshold> 0.0 </threshold>
						<split pos="left">
							<output> 1.196702480316162 </output>
						</split>
						<split pos="right">
							<feature> 35 </feature>
							<threshold> 0.08203125 </threshold>
							<split pos="left">
								<output> 0.22813713550567627 </output>
							</split>
							<split pos="right">
								<feature> 39 </feature>
								<threshold> 0.37890625 </threshold>
								<split pos="left">
									<output> 0.7037240862846375 </output>
								</split>
								<split pos="right">
									<feature> 24 </feature>
									<threshold> 0.0 </threshold>
									<split pos="left">
										<output> 0.9377104043960571 </output>
									</split>
									<split pos="right">
										<feature> 35 </feature>
										<threshold> 0.21484375 </threshold>
										<split pos="left">
											<output> 0.311450719833374 </output>
										</split>
										<split pos="right">
											<output> 0.4781400263309479 </output>
										</split>
									</split>
								</split>
							</split>
						</split>
					</split>
					<split pos="right">
						<feature> 40 </feature>
						<threshold> 0.890625 </threshold>
						<split pos="left">
							<output> 0.2669122517108917 </output>
						</split>
						<split pos="right">
							<output> -0.029192974790930748 </output>
						</split>
					</split>
				</split>
				<split pos="right">
					<output> 0.0345219150185585 </output>
				</split>
			</split>
			<split pos="right">
				<output> -0.13020983338356018 </output>
			</split>
		</split>
	</tree>
	<tree id="22" weight="0.1">
		<split>
			<feature> 23 </feature>
			<threshold> 0.057142857 </threshold>
			<split pos="left">
				<feature> 12 </feature>
				<threshold> 1.0E-4 </threshold>
				<split pos="left">
					<feature> 39 </feature>
					<threshold> 0.42578125 </threshold>
					<split pos="left">
						<output> 0.4582460820674896 </output>
					</split>
					<split pos="right">
						<feature> 6 </feature>
						<threshold> 0.98046875 </threshold>
						<split pos="left">
							<feature> 34 </feature>
							<threshold> 0.02734375 </threshold>
							<split pos="left">
								<output> -0.34635475277900696 </output>
							</split>
							<split pos="right">
								<output> 0.19923605024814606 </output>
							</split>
						</split>
						<split pos="right">
							<feature> 35 </feature>
							<threshold> 0.20703125 </threshold>
							<split pos="left">
								<feature> 10 </feature>
								<threshold> 0.023391813 </threshold>
								<split pos="left">
									<feature> 24 </feature>
									<threshold> 0.42857143 </threshold>
									<split pos="left">
										<output> 0.30442386865615845 </output>
									</split>
									<split pos="right">
										<output> -0.875468373298645 </output>
									</split>
								</split>
								<split pos="right">
									<output> -0.1313905417919159 </output>
								</split>
							</split>
							<split pos="right">
								<output> 0.4873327910900116 </output>
							</split>
						</split>
					</split>
				</split>
				<split pos="right">
					<feature> 24 </feature>
					<threshold> 0.035714287 </threshold>
					<split pos="left">
						<output> 0.4371996521949768 </output>
					</split>
					<split pos="right">
						<output> 0.055721018463373184 </output>
					</split>
				</split>
			</split>
			<split pos="right">
				<output> -0.08006501197814941 </output>
			</split>
		</split>
	</tree>
	<tree id="23" weight="0.1">
		<split>
			<feature> 11 </feature>
			<threshold> 0.013114754 </threshold>
			<split pos="left">
				<feature> 12 </feature>
				<threshold> 1.0E-4 </threshold>
				<split pos="left">
					<feature> 29 </feature>
					<threshold> 0.0 </threshold>
					<split pos="left">
						<feature> 25 </feature>
						<threshold> 0.0 </threshold>
						<split pos="left">
							<output> 0.4235232174396515 </output>
						</split>
						<split pos="right">
							<feature> 33 </feature>
							<threshold> 0.984375 </threshold>
							<split pos="left">
								<feature> 14 </feature>
								<threshold> 0.0 </threshold>
								<split pos="left">
									<output> 0.6299313902854919 </output>
								</split>
								<split pos="right">
									<feature> 40 </feature>
									<threshold> 0.8125 </threshold>
									<split pos="left">
										<feature> 41 </feature>
										<threshold> 0.3671875 </threshold>
										<split pos="left">
											<output> -0.8800340890884399 </output>
										</split>
										<split pos="right">
											<feature> 40 </feature>
											<threshold> 0.265625 </threshold>
											<split pos="left">
												<output> 0.6910462975502014 </output>
											</split>
											<split pos="right">
												<output> 0.29569709300994873 </output>
											</split>
										</split>
									</split>
									<split pos="right">
										<output> 0.1572173833847046 </output>
									</split>
								</split>
							</split>
							<split pos="right">
								<output> -0.6267837285995483 </output>
							</split>
						</split>
					</split>
					<split pos="right">
						<output> -0.2841729521751404 </output>
					</split>
				</split>
				<split pos="right">
					<output> 0.10949783772230148 </output>
				</split>
			</split>
			<split pos="right">
				<output> -0.12425731122493744 </output>
			</split>
		</split>
	</tree>
	<tree id="24" weight="0.1">
		<split>
			<feature> 23 </feature>
			<threshold> 0.028571429 </threshold>
			<split pos="left">
				<feature> 9 </feature>
				<threshold> 0.0 </threshold>
				<split pos="left">
					<output> 0.047875795513391495 </output>
				</split>
				<split pos="right">
					<feature> 35 </feature>
					<threshold> 0.08203125 </threshold>
					<split pos="left">
						<output> 0.11519641429185867 </output>
					</split>
					<split pos="right">
						<feature> 25 </feature>
						<threshold> 0.0 </threshold>
						<split pos="left">
							<output> 0.5184616446495056 </output>
						</split>
						<split pos="right">
							<feature> 14 </feature>
							<threshold> 0.0 </threshold>
							<split pos="left">
								<output> 0.813326358795166 </output>
							</split>
							<split pos="right">
								<feature> 19 </feature>
								<threshold> 0.1640625 </threshold>
								<split pos="left">
									<feature> 12 </feature>
									<threshold> 0.0016 </threshold>
									<split pos="left">
										<feature> 12 </feature>
										<threshold> 1.0E-4 </threshold>
										<split pos="left">
											<feature> 33 </feature>
											<threshold> 0.9921875 </threshold>
											<split pos="left">
												<output> 0.2744942009449005 </output>
											</split>
											<split pos="right">
												<output> -0.981738269329071 </output>
											</split>
										</split>
										<split pos="right">
											<output> 0.10116306692361832 </output>
										</split>
									</split>
									<split pos="right">
										<output> 0.6205942630767822 </output>
									</split>
								</split>
								<split pos="right">
									<output> 0.7489311099052429 </output>
								</split>
							</split>
						</split>
					</split>
				</split>
			</split>
			<split pos="right">
				<output> 0.043252237141132355 </output>
			</split>
		</split>
	</tree>
	<tree id="25" weight="0.1">
		<split>
			<feature> 23 </feature>
			<threshold> 0.08571429 </threshold>
			<split pos="left">
				<feature> 43 </feature>
				<threshold> 0.48466086 </threshold>
				<split pos="left">
					<output> 0.29894769191741943 </output>
				</split>
				<split pos="right">
					<feature> 34 </feature>
					<threshold> 0.0703125 </threshold>
					<split pos="left">
						<output> -0.01604531891644001 </output>
					</split>
					<split pos="right">
						<feature> 11 </feature>
						<threshold> 0.013114754 </threshold>
						<split pos="left">
							<feature> 12 </feature>
							<threshold> 0.0068 </threshold>
							<split pos="left">
								<feature> 3 </feature>
								<threshold> 0.0 </threshold>
								<split pos="left">
									<feature> 42 </feature>
									<threshold> 0.99609375 </threshold>
									<split pos="left">
										<feature> 33 </feature>
										<threshold> 0.984375 </threshold>
										<split pos="left">
											<feature> 35 </feature>
											<threshold> 0.20703125 </threshold>
											<split pos="left">
												<output> 0.1959601491689682 </output>
											</split>
											<split pos="right">
												<output> 0.3333779275417328 </output>
											</split>
										</split>
										<split pos="right">
											<output> -0.41704854369163513 </output>
										</split>
									</split>
									<split pos="right">
										<output> -0.1605476588010788 </output>
									</split>
								</split>
								<split pos="right">
									<output> -0.10867571830749512 </output>
								</split>
							</split>
							<split pos="right">
								<output> 0.8812715411186218 </output>
							</split>
						</split>
						<split pos="right">
							<output> -0.1442604660987854 </output>
						</split>
					</split>
				</split>
			</split>
			<split pos="right">
				<output> -0.2684920132160187 </output>
			</split>
		</split>
	</tree>
	<tree id="26" weight="0.1">
		<split>
			<feature> 10 </feature>
			<threshold> 0.0058479533 </threshold>
			<split pos="left">
				<feature> 24 </feature>
				<threshold> 0.0 </threshold>
				<split pos="left">
					<output> 0.6767404079437256 </output>
				</split>
				<split pos="right">
					<feature> 6 </feature>
					<threshold> 0.99609375 </threshold>
					<split pos="left">
						<feature> 38 </feature>
						<threshold> 0.69140625 </threshold>
						<split pos="left">
							<feature> 5 </feature>
							<threshold> 0.9609375 </threshold>
							<split pos="left">
								<feature> 44 </feature>
								<threshold> 0.78091896 </threshold>
								<split pos="left">
									<output> 0.30445727705955505 </output>
								</split>
								<split pos="right">
									<feature> 35 </feature>
									<threshold> 0.21484375 </threshold>
									<split pos="left">
										<output> 0.009930167347192764 </output>
									</split>
									<split pos="right">
										<output> 0.30297955870628357 </output>
									</split>
								</split>
							</split>
							<split pos="right">
								<output> 0.3021881878376007 </output>
							</split>
						</split>
						<split pos="right">
							<output> -0.09605052322149277 </output>
						</split>
					</split>
					<split pos="right">
						<output> 0.3028143644332886 </output>
					</split>
				</split>
			</split>
			<split pos="right">
				<feature> 7 </feature>
				<threshold> 0.011718749 </threshold>
				<split pos="left">
					<feature> 11 </feature>
					<threshold> 0.0 </threshold>
					<split pos="left">
						<output> 0.05704369395971298 </output>
					</split>
					<split pos="right">
						<output> -0.16776740550994873 </output>
					</split>
				</split>
				<split pos="right">
					<output> 0.1917310357093811 </output>
				</split>
			</split>
		</split>
	</tree>
	<tree id="27" weight="0.1">
		<split>
			<feature> 12 </feature>
			<threshold> 1.0E-4 </threshold>
			<split pos="left">
				<feature> 7 </feature>
				<threshold> 0.011718749 </threshold>
				<split pos="left">
					<feature> 10 </feature>
					<threshold> 0.0 </threshold>
					<split pos="left">
						<output> 0.37928393483161926 </output>
					</split>
					<split pos="right">
						<feature> 43 </feature>
						<threshold> 0.81808275 </threshold>
						<split pos="left">
							<output> 0.028805432841181755 </output>
						</split>
						<split pos="right">
							<output> 0.26646745204925537 </output>
						</split>
					</split>
				</split>
				<split pos="right">
					<feature> 3 </feature>
					<threshold> 0.0 </threshold>
					<split pos="left">
						<feature> 25 </feature>
						<threshold> 0.00390625 </threshold>
						<split pos="left">
							<feature> 6 </feature>
							<threshold> 0.99609375 </threshold>
							<split pos="left">
								<output> 0.2563961148262024 </output>
							</split>
							<split pos="right">
								<output> 0.46104130148887634 </output>
							</split>
						</split>
						<split pos="right">
							<output> 0.06185506656765938 </output>
						</split>
					</split>
					<split pos="right">
						<output> -0.20666784048080444 </output>
					</split>
				</split>
			</split>
			<split pos="right">
				<feature> 40 </feature>
				<threshold> 0.91015625 </threshold>
				<split pos="left">
					<feature> 19 </feature>
					<threshold> 0.1484375 </threshold>
					<split pos="left">
						<output> 0.03708130121231079 </output>
					</split>
					<split pos="right">
						<output> 0.5532760620117188 </output>
					</split>
				</split>
				<split pos="right">
					<output> -0.29573407769203186 </output>
				</split>
			</split>
		</split>
	</tree>
	<tree id="28" weight="0.1">
		<split>
			<feature> 23 </feature>
			<threshold> 0.08571429 </threshold>
			<split pos="left">
				<feature> 17 </feature>
				<threshold> 0.53125 </threshold>
				<split pos="left">
					<feature> 9 </feature>
					<threshold> 0.0 </threshold>
					<split pos="left">
						<output> -0.019328689202666283 </output>
					</split>
					<split pos="right">
						<feature> 23 </feature>
						<threshold> 0.0 </threshold>
						<split pos="left">
							<output> 0.36320269107818604 </output>
						</split>
						<split pos="right">
							<feature> 40 </feature>
							<threshold> 0.77734375 </threshold>
							<split pos="left">
								<output> 0.23564423620700836 </output>
							</split>
							<split pos="right">
								<output> 0.07495303452014923 </output>
							</split>
						</split>
					</split>
				</split>
				<split pos="right">
					<feature> 36 </feature>
					<threshold> 0.0390625 </threshold>
					<split pos="left">
						<output> -0.2714700400829315 </output>
					</split>
					<split pos="right">
						<feature> 3 </feature>
						<threshold> 0.0 </threshold>
						<split pos="left">
							<feature> 11 </feature>
							<threshold> 0.013114754 </threshold>
							<split pos="left">
								<feature> 35 </feature>
								<threshold> 0.20703125 </threshold>
								<split pos="left">
									<output> 0.06822028011083603 </output>
								</split>
								<split pos="right">
									<output> 0.250840961933136 </output>
								</split>
							</split>
							<split pos="right">
								<output> -0.19230763614177704 </output>
							</split>
						</split>
						<split pos="right">
							<output> -0.2323874831199646 </output>
						</split>
					</split>
				</split>
			</split>
			<split pos="right">
				<output> -0.2444165050983429 </output>
			</split>
		</split>
	</tree>
	<tree id="29" weight="0.1">
		<split>
			<feature> 25 </feature>
			<threshold> 0.0078125 </threshold>
			<split pos="left">
				<feature> 11 </feature>
				<threshold> 0.009836066 </threshold>
				<split pos="left">
					<feature> 6 </feature>
					<threshold> 0.98828125 </threshold>
					<split pos="left">
						<feature> 35 </feature>
						<threshold> 0.06640625 </threshold>
						<split pos="left">
							<output> -0.073970727622509 </output>
						</split>
						<split pos="right">
							<feature> 24 </feature>
							<threshold> 0.0 </threshold>
							<split pos="left">
								<output> 0.6274927854537964 </output>
							</split>
							<split pos="right">
								<feature> 12 </feature>
								<threshold> 1.0E-4 </threshold>
								<split pos="left">
									<feature> 16 </feature>
									<threshold> 0.5 </threshold>
									<split pos="left">
										<output> 0.16270190477371216 </output>
									</split>
									<split pos="right">
										<output> 0.9325802326202393 </output>
									</split>
								</split>
								<split pos="right">
									<output> -0.0071264468133449554 </output>
								</split>
							</split>
						</split>
					</split>
					<split pos="right">
						<feature> 10 </feature>
						<threshold> 0.03508772 </threshold>
						<split pos="left">
							<feature> 5 </feature>
							<threshold> 0.91796875 </threshold>
							<split pos="left">
								<output> 0.2915749251842499 </output>
							</split>
							<split pos="right">
								<output> 0.16957440972328186 </output>
							</split>
						</split>
						<split pos="right">
							<output> -0.1001545712351799 </output>
						</split>
					</split>
				</split>
				<split pos="right">
					<output> -0.08743859082460403 </output>
				</split>
			</split>
			<split pos="right">
				<output> -0.06805878132581711 </output>
			</split>
		</split>
	</tree>
	<tree id="30" weight="0.1">
		<split>
			<feature> 23 </feature>
			<threshold> 0.08571429 </threshold>
			<split pos="left">
				<feature> 25 </feature>
				<threshold> 0.0 </threshold>
				<split pos="left">
					<output> 0.2438734918832779 </output>
				</split>
				<split pos="right">
					<feature> 23 </feature>
					<threshold> 0.0 </threshold>
					<split pos="left">
						<output> 0.18548186123371124 </output>
					</split>
					<split pos="right">
						<feature> 40 </feature>
						<threshold> 0.89453125 </threshold>
						<split pos="left">
							<feature> 11 </feature>
							<threshold> 0.019672131 </threshold>
							<split pos="left">
								<feature> 19 </feature>
								<threshold> 0.1640625 </threshold>
								<split pos="left">
									<feature> 12 </feature>
									<threshold> 3.0E-4 </threshold>
									<split pos="left">
										<feature> 43 </feature>
										<threshold> 0.2990461 </threshold>
										<split pos="left">
											<output> -0.29718878865242004 </output>
										</split>
										<split pos="right">
											<feature> 41 </feature>
											<threshold> 0.80859375 </threshold>
											<split pos="left">
												<output> 0.3007950186729431 </output>
											</split>
											<split pos="right">
												<output> 0.08913206309080124 </output>
											</split>
										</split>
									</split>
									<split pos="right">
										<output> -0.05608009546995163 </output>
									</split>
								</split>
								<split pos="right">
									<output> 0.499064564704895 </output>
								</split>
							</split>
							<split pos="right">
								<output> -0.18231523036956787 </output>
							</split>
						</split>
						<split pos="right">
							<output> -0.08031268417835236 </output>
						</split>
					</split>
				</split>
			</split>
			<split pos="right">
				<output> -0.21794641017913818 </output>
			</split>
		</split>
	</tree>
	<tree id="31" weight="0.1">
		<split>
			<feature> 12 </feature>
			<threshold> 1.0E-4 </threshold>
			<split pos="left">
				<feature> 29 </feature>
				<threshold> 0.0 </threshold>
				<split pos="left">
					<feature> 41 </feature>
					<threshold> 0.42578125 </threshold>
					<split pos="left">
						<output> -0.4363972246646881 </output>
					</split>
					<split pos="right">
						<feature> 8 </feature>
						<threshold> 0.70703125 </threshold>
						<split pos="left">
							<output> 0.3534337282180786 </output>
						</split>
						<split pos="right">
							<feature> 43 </feature>
							<threshold> 0.2956088 </threshold>
							<split pos="left">
								<output> -1.6520355939865112 </output>
							</split>
							<split pos="right">
								<feature> 36 </feature>
								<threshold> 0.0390625 </threshold>
								<split pos="left">
									<output> -0.06404133886098862 </output>
								</split>
								<split pos="right">
									<feature> 9 </feature>
									<threshold> 0.0 </threshold>
									<split pos="left">
										<output> 0.01301095075905323 </output>
									</split>
									<split pos="right">
										<feature> 14 </feature>
										<threshold> 0.0 </threshold>
										<split pos="left">
											<output> 0.4788382947444916 </output>
										</split>
										<split pos="right">
											<feature> 25 </feature>
											<threshold> 0.0 </threshold>
											<split pos="left">
												<output> 0.28728950023651123 </output>
											</split>
											<split pos="right">
												<output> 0.125513955950737 </output>
											</split>
										</split>
									</split>
								</split>
							</split>
						</split>
					</split>
				</split>
				<split pos="right">
					<output> -0.3197702467441559 </output>
				</split>
			</split>
			<split pos="right">
				<output> 0.005198173690587282 </output>
			</split>
		</split>
	</tree>
	<tree id="32" weight="0.1">
		<split>
			<feature> 25 </feature>
			<threshold> 0.0078125 </threshold>
			<split pos="left">
				<feature> 11 </feature>
				<threshold> 0.009836066 </threshold>
				<split pos="left">
					<feature> 6 </feature>
					<threshold> 0.98828125 </threshold>
					<split pos="left">
						<feature> 12 </feature>
						<threshold> 0.002 </threshold>
						<split pos="left">
							<feature> 35 </feature>
							<threshold> 0.06640625 </threshold>
							<split pos="left">
								<output> -0.09897371381521225 </output>
							</split>
							<split pos="right">
								<feature> 12 </feature>
								<threshold> 1.0E-4 </threshold>
								<split pos="left">
									<feature> 32 </feature>
									<threshold> 0.98046875 </threshold>
									<split pos="left">
										<output> 0.13866445422172546 </output>
									</split>
									<split pos="right">
										<output> -0.3272506296634674 </output>
									</split>
								</split>
								<split pos="right">
									<output> -0.028183070942759514 </output>
								</split>
							</split>
						</split>
						<split pos="right">
							<output> 0.5177105665206909 </output>
						</split>
					</split>
					<split pos="right">
						<feature> 10 </feature>
						<threshold> 0.03508772 </threshold>
						<split pos="left">
							<feature> 5 </feature>
							<threshold> 0.9140625 </threshold>
							<split pos="left">
								<output> 0.24266672134399414 </output>
							</split>
							<split pos="right">
								<output> 0.1302015632390976 </output>
							</split>
						</split>
						<split pos="right">
							<output> -0.09463099390268326 </output>
						</split>
					</split>
				</split>
				<split pos="right">
					<output> -0.07782730460166931 </output>
				</split>
			</split>
			<split pos="right">
				<output> -0.06924979388713837 </output>
			</split>
		</split>
	</tree>
	<tree id="33" weight="0.1">
		<split>
			<feature> 17 </feature>
			<threshold> 0.53125 </threshold>
			<split pos="left">
				<feature> 19 </feature>
				<threshold> 0.1328125 </threshold>
				<split pos="left">
					<feature> 4 </feature>
					<threshold> 0.0 </threshold>
					<split pos="left">
						<output> 0.190596342086792 </output>
					</split>
					<split pos="right">
						<feature> 12 </feature>
						<threshold> 2.0E-4 </threshold>
						<split pos="left">
							<feature> 43 </feature>
							<threshold> 0.2990461 </threshold>
							<split pos="left">
								<output> -0.5428866744041443 </output>
							</split>
							<split pos="right">
								<feature> 5 </feature>
								<threshold> 0.30859375 </threshold>
								<split pos="left">
									<output> -0.1611984372138977 </output>
								</split>
								<split pos="right">
									<feature> 44 </feature>
									<threshold> 0.95362306 </threshold>
									<split pos="left">
										<feature> 34 </feature>
										<threshold> 0.0546875 </threshold>
										<split pos="left">
											<output> -0.011718468740582466 </output>
										</split>
										<split pos="right">
											<output> 0.15404672920703888 </output>
										</split>
									</split>
									<split pos="right">
										<output> 0.6055359244346619 </output>
									</split>
								</split>
							</split>
						</split>
						<split pos="right">
							<output> -0.14887796342372894 </output>
						</split>
					</split>
				</split>
				<split pos="right">
					<output> 0.3724311292171478 </output>
				</split>
			</split>
			<split pos="right">
				<feature> 5 </feature>
				<threshold> 0.796875 </threshold>
				<split pos="left">
					<output> -0.1342795044183731 </output>
				</split>
				<split pos="right">
					<output> 0.0454413965344429 </output>
				</split>
			</split>
		</split>
	</tree>
	<tree id="34" weight="0.1">
		<split>
			<feature> 25 </feature>
			<threshold> 0.0234375 </threshold>
			<split pos="left">
				<feature> 23 </feature>
				<threshold> 0.0 </threshold>
				<split pos="left">
					<output> 0.16000185906887054 </output>
				</split>
				<split pos="right">
					<feature> 3 </feature>
					<threshold> 1.0 </threshold>
					<split pos="left">
						<feature> 7 </feature>
						<threshold> 0.011718749 </threshold>
						<split pos="left">
							<feature> 43 </feature>
							<threshold> 0.81808275 </threshold>
							<split pos="left">
								<feature> 35 </feature>
								<threshold> 0.21875 </threshold>
								<split pos="left">
									<output> -0.0780605599284172 </output>
								</split>
								<split pos="right">
									<output> 0.13650542497634888 </output>
								</split>
							</split>
							<split pos="right">
								<output> 0.14994275569915771 </output>
							</split>
						</split>
						<split pos="right">
							<feature> 17 </feature>
							<threshold> 0.8854167 </threshold>
							<split pos="left">
								<feature> 36 </feature>
								<threshold> 0.0234375 </threshold>
								<split pos="left">
									<output> -0.10626436024904251 </output>
								</split>
								<split pos="right">
									<feature> 8 </feature>
									<threshold> 0.78515625 </threshold>
									<split pos="left">
										<output> 0.21437150239944458 </output>
									</split>
									<split pos="right">
										<output> -0.04041552543640137 </output>
									</split>
								</split>
							</split>
							<split pos="right">
								<output> -0.4803756773471832 </output>
							</split>
						</split>
					</split>
					<split pos="right">
						<output> -0.17107218503952026 </output>
					</split>
				</split>
			</split>
			<split pos="right">
				<output> -0.274738609790802 </output>
			</split>
		</split>
	</tree>
	<tree id="35" weight="0.1">
		<split>
			<feature> 11 </feature>
			<threshold> 0.029508196 </threshold>
			<split pos="left">
				<feature> 12 </feature>
				<threshold> 0.0045 </threshold>
				<split pos="left">
					<feature> 12 </feature>
					<threshold> 1.0E-4 </threshold>
					<split pos="left">
						<feature> 29 </feature>
						<threshold> 0.0 </threshold>
						<split pos="left">
							<feature> 41 </feature>
							<threshold> 0.42578125 </threshold>
							<split pos="left">
								<output> -0.405204176902771 </output>
							</split>
							<split pos="right">
								<feature> 8 </feature>
								<threshold> 0.70703125 </threshold>
								<split pos="left">
									<output> 0.2983635663986206 </output>
								</split>
								<split pos="right">
									<feature> 43 </feature>
									<threshold> 0.2956088 </threshold>
									<split pos="left">
										<output> -1.4498717784881592 </output>
									</split>
									<split pos="right">
										<feature> 16 </feature>
										<threshold> 0.5 </threshold>
										<split pos="left">
											<feature> 9 </feature>
											<threshold> 0.0 </threshold>
											<split pos="left">
												<output> -0.03610314056277275 </output>
											</split>
											<split pos="right">
												<output> 0.10351821035146713 </output>
											</split>
										</split>
										<split pos="right">
											<output> 0.5184252858161926 </output>
										</split>
									</split>
								</split>
							</split>
						</split>
						<split pos="right">
							<output> -0.2894967198371887 </output>
						</split>
					</split>
					<split pos="right">
						<output> -0.01921752840280533 </output>
					</split>
				</split>
				<split pos="right">
					<output> 0.447307825088501 </output>
				</split>
			</split>
			<split pos="right">
				<output> -0.22125999629497528 </output>
			</split>
		</split>
	</tree>
	<tree id="36" weight="0.1">
		<split>
			<feature> 23 </feature>
			<threshold> 0.08571429 </threshold>
			<split pos="left">
				<feature> 43 </feature>
				<threshold> 0.48466086 </threshold>
				<split pos="left">
					<output> 0.1479325145483017 </output>
				</split>
				<split pos="right">
					<feature> 34 </feature>
					<threshold> 0.0703125 </threshold>
					<split pos="left">
						<output> -0.08307059109210968 </output>
					</split>
					<split pos="right">
						<feature> 12 </feature>
						<threshold> 0.0068 </threshold>
						<split pos="left">
							<feature> 3 </feature>
							<threshold> 0.0 </threshold>
							<split pos="left">
								<feature> 42 </feature>
								<threshold> 0.99609375 </threshold>
								<split pos="left">
									<feature> 11 </feature>
									<threshold> 0.013114754 </threshold>
									<split pos="left">
										<feature> 33 </feature>
										<threshold> 0.984375 </threshold>
										<split pos="left">
											<feature> 39 </feature>
											<threshold> 0.43359375 </threshold>
											<split pos="left">
												<output> -0.6476967334747314 </output>
											</split>
											<split pos="right">
												<output> 0.1115727499127388 </output>
											</split>
										</split>
										<split pos="right">
											<output> -0.4483233690261841 </output>
										</split>
									</split>
									<split pos="right">
										<output> -0.11775311827659607 </output>
									</split>
								</split>
								<split pos="right">
									<output> -0.2468622922897339 </output>
								</split>
							</split>
							<split pos="right">
								<output> -0.14408574998378754 </output>
							</split>
						</split>
						<split pos="right">
							<output> 0.6298715472221375 </output>
						</split>
					</split>
				</split>
			</split>
			<split pos="right">
				<output> -0.19141775369644165 </output>
			</split>
		</split>
	</tree>
	<tree id="37" weight="0.1">
		<split>
			<feature> 17 </feature>
			<threshold> 0.53125 </threshold>
			<split pos="left">
				<feature> 19 </feature>
				<threshold> 0.1328125 </threshold>
				<split pos="left">
					<feature> 4 </feature>
					<threshold> 0.0 </threshold>
					<split pos="left">
						<output> 0.15032550692558289 </output>
					</split>
					<split pos="right">
						<feature> 3 </feature>
						<threshold> 0.0 </threshold>
						<split pos="left">
							<feature> 12 </feature>
							<threshold> 2.0E-4 </threshold>
							<split pos="left">
								<feature> 31 </feature>
								<threshold> 0.98046875 </threshold>
								<split pos="left">
									<feature> 32 </feature>
									<threshold> 0.87890625 </threshold>
									<split pos="left">
										<output> 0.058719340711832047 </output>
									</split>
									<split pos="right">
										<output> 0.28574827313423157 </output>
									</split>
								</split>
								<split pos="right">
									<output> -0.2494189590215683 </output>
								</split>
							</split>
							<split pos="right">
								<output> -0.11260915547609329 </output>
							</split>
						</split>
						<split pos="right">
							<output> -0.27083027362823486 </output>
						</split>
					</split>
				</split>
				<split pos="right">
					<output> 0.3088413178920746 </output>
				</split>
			</split>
			<split pos="right">
				<feature> 3 </feature>
				<threshold> 0.0 </threshold>
				<split pos="left">
					<feature> 17 </feature>
					<threshold> 0.9479167 </threshold>
					<split pos="left">
						<output> 0.01494765467941761 </output>
					</split>
					<split pos="right">
						<output> -0.6111701130867004 </output>
					</split>
				</split>
				<split pos="right">
					<output> -0.2484549880027771 </output>
				</split>
			</split>
		</split>
	</tree>
	<tree id="38" weight="0.1">
		<split>
			<feature> 25 </feature>
			<threshold> 0.0234375 </threshold>
			<split pos="left">
				<feature> 35 </feature>
				<threshold> 0.08203125 </threshold>
				<split pos="left">
					<feature> 44 </feature>
					<threshold> 0.95362306 </threshold>
					<split pos="left">
						<output> -0.03527563437819481 </output>
					</split>
					<split pos="right">
						<output> 0.8607237935066223 </output>
					</split>
				</split>
				<split pos="right">
					<feature> 9 </feature>
					<threshold> 0.0 </threshold>
					<split pos="left">
						<output> -0.0538676455616951 </output>
					</split>
					<split pos="right">
						<feature> 17 </feature>
						<threshold> 0.5520833 </threshold>
						<split pos="left">
							<feature> 33 </feature>
							<threshold> 0.98828125 </threshold>
							<split pos="left">
								<feature> 32 </feature>
								<threshold> 0.66796875 </threshold>
								<split pos="left">
									<output> 0.20712247490882874 </output>
								</split>
								<split pos="right">
									<feature> 39 </feature>
									<threshold> 0.40625 </threshold>
									<split pos="left">
										<output> -0.442078173160553 </output>
									</split>
									<split pos="right">
										<feature> 11 </feature>
										<threshold> 0.0 </threshold>
										<split pos="left">
											<output> 0.13294845819473267 </output>
										</split>
										<split pos="right">
											<output> -0.043613895773887634 </output>
										</split>
									</split>
								</split>
							</split>
							<split pos="right">
								<output> -0.6536388397216797 </output>
							</split>
						</split>
						<split pos="right">
							<output> 0.016004350036382675 </output>
						</split>
					</split>
				</split>
			</split>
			<split pos="right">
				<output> -0.2501782476902008 </output>
			</split>
		</split>
	</tree>
	<tree id="39" weight="0.1">
		<split>
			<feature> 6 </feature>
			<threshold> 0.9921875 </threshold>
			<split pos="left">
				<feature> 5 </feature>
				<threshold> 0.9296875 </threshold>
				<split pos="left">
					<feature> 12 </feature>
					<threshold> 1.0E-4 </threshold>
					<split pos="left">
						<feature> 25 </feature>
						<threshold> 0.01171875 </threshold>
						<split pos="left">
							<feature> 35 </feature>
							<threshold> 0.06640625 </threshold>
							<split pos="left">
								<output> -0.1241443082690239 </output>
							</split>
							<split pos="right">
								<output> 0.06102874502539635 </output>
							</split>
						</split>
						<split pos="right">
							<output> -0.45605793595314026 </output>
						</split>
					</split>
					<split pos="right">
						<output> -0.16357578337192535 </output>
					</split>
				</split>
				<split pos="right">
					<feature> 11 </feature>
					<threshold> 0.0 </threshold>
					<split pos="left">
						<feature> 12 </feature>
						<threshold> 6.0E-4 </threshold>
						<split pos="left">
							<output> 0.07627154141664505 </output>
						</split>
						<split pos="right">
							<output> 0.4012784957885742 </output>
						</split>
					</split>
					<split pos="right">
						<output> -0.10225093364715576 </output>
					</split>
				</split>
			</split>
			<split pos="right">
				<feature> 10 </feature>
				<threshold> 0.023391813 </threshold>
				<split pos="left">
					<feature> 5 </feature>
					<threshold> 0.92578125 </threshold>
					<split pos="left">
						<output> 0.17082007229328156 </output>
					</split>
					<split pos="right">
						<output> 0.038529135286808014 </output>
					</split>
				</split>
				<split pos="right">
					<output> -0.07737933099269867 </output>
				</split>
			</split>
		</split>
	</tree>
	<tree id="40" weight="0.1">
		<split>
			<feature> 25 </feature>
			<threshold> 0.0 </threshold>
			<split pos="left">
				<output> 0.12450063228607178 </output>
			</split>
			<split pos="right">
				<feature> 15 </feature>
				<threshold> 0.13388872 </threshold>
				<split pos="left">
					<feature> 31 </feature>
					<threshold> 0.9296875 </threshold>
					<split pos="left">
						<feature> 19 </feature>
						<threshold> 0.1328125 </threshold>
						<split pos="left">
							<feature> 20 </feature>
							<threshold> 0.46483573 </threshold>
							<split pos="left">
								<feature> 14 </feature>
								<threshold> 0.0 </threshold>
								<split pos="left">
									<output> 0.3323954641819 </output>
								</split>
								<split pos="right">
									<feature> 5 </feature>
									<threshold> 0.796875 </threshold>
									<split pos="left">
										<output> -0.05689483880996704 </output>
									</split>
									<split pos="right">
										<feature> 31 </feature>
										<threshold> 0.6484375 </threshold>
										<split pos="left">
											<output> -0.040781550109386444 </output>
										</split>
										<split pos="right">
											<feature> 43 </feature>
											<threshold> 0.51903415 </threshold>
											<split pos="left">
												<output> -0.21342456340789795 </output>
											</split>
											<split pos="right">
												<output> 0.09276770055294037 </output>
											</split>
										</split>
									</split>
								</split>
							</split>
							<split pos="right">
								<output> -0.7259951829910278 </output>
							</split>
						</split>
						<split pos="right">
							<output> 0.2161867767572403 </output>
						</split>
					</split>
					<split pos="right">
						<output> -0.1028580293059349 </output>
					</split>
				</split>
				<split pos="right">
					<output> 0.9497353434562683 </output>
				</split>
			</split>
		</split>
	</tree>
	<tree id="41" weight="0.1">
		<split>
			<feature> 11 </feature>
			<threshold> 0.045901638 </threshold>
			<split pos="left">
				<feature> 12 </feature>
				<threshold> 0.0045 </threshold>
				<split pos="left">
					<feature> 25 </feature>
					<threshold> 0.0078125 </threshold>
					<split pos="left">
						<feature> 6 </feature>
						<threshold> 0.9921875 </threshold>
						<split pos="left">
							<feature> 31 </feature>
							<threshold> 0.8828125 </threshold>
							<split pos="left">
								<feature> 41 </feature>
								<threshold> 0.40234375 </threshold>
								<split pos="left">
									<output> -0.7049180865287781 </output>
								</split>
								<split pos="right">
									<feature> 31 </feature>
									<threshold> 0.14453125 </threshold>
									<split pos="left">
										<output> 0.23502732813358307 </output>
									</split>
									<split pos="right">
										<feature> 38 </feature>
										<threshold> 0.28515625 </threshold>
										<split pos="left">
											<output> -0.5189019441604614 </output>
										</split>
										<split pos="right">
											<feature> 8 </feature>
											<threshold> 0.375 </threshold>
											<split pos="left">
												<output> 1.3139647245407104 </output>
											</split>
											<split pos="right">
												<output> 0.03607615455985069 </output>
											</split>
										</split>
									</split>
								</split>
							</split>
							<split pos="right">
								<output> -0.09592962265014648 </output>
							</split>
						</split>
						<split pos="right">
							<output> 0.10121071338653564 </output>
						</split>
					</split>
					<split pos="right">
						<output> -0.08698219060897827 </output>
					</split>
				</split>
				<split pos="right">
					<output> 0.32953059673309326 </output>
				</split>
			</split>
			<split pos="right">
				<output> -0.2603495717048645 </output>
			</split>
		</split>
	</tree>
	<tree id="42" weight="0.1">
		<split>
			<feature> 10 </feature>
			<threshold> 0.0 </threshold>
			<split pos="left">
				<output> 0.11651533842086792 </output>
			</split>
			<split pos="right">
				<feature> 18 </feature>
				<threshold> 0.19454806 </threshold>
				<split pos="left">
					<feature> 3 </feature>
					<threshold> 0.0 </threshold>
					<split pos="left">
						<feature> 35 </feature>
						<threshold> 0.06640625 </threshold>
						<split pos="left">
							<output> -0.0831635370850563 </output>
						</split>
						<split pos="right">
							<feature> 44 </feature>
							<threshold> 0.60821486 </threshold>
							<split pos="left">
								<output> 0.13261567056179047 </output>
							</split>
							<split pos="right">
								<feature> 37 </feature>
								<threshold> 0.49609375 </threshold>
								<split pos="left">
									<output> -0.15498188138008118 </output>
								</split>
								<split pos="right">
									<feature> 38 </feature>
									<threshold> 0.49609375 </threshold>
									<split pos="left">
										<output> 0.32610610127449036 </output>
									</split>
									<split pos="right">
										<feature> 12 </feature>
										<threshold> 3.0E-4 </threshold>
										<split pos="left">
											<feature> 35 </feature>
											<threshold> 0.21875 </threshold>
											<split pos="left">
												<output> -0.017950352281332016 </output>
											</split>
											<split pos="right">
												<output> 0.12580755352973938 </output>
											</split>
										</split>
										<split pos="right">
											<output> -0.18184824287891388 </output>
										</split>
									</split>
								</split>
							</split>
						</split>
					</split>
					<split pos="right">
						<output> -0.15056133270263672 </output>
					</split>
				</split>
				<split pos="right">
					<output> 0.16787971556186676 </output>
				</split>
			</split>
		</split>
	</tree>
	<tree id="43" weight="0.1">
		<split>
			<feature> 4 </feature>
			<threshold> 0.0 </threshold>
			<split pos="left">
				<output> 0.09200245887041092 </output>
			</split>
			<split pos="right">
				<feature> 3 </feature>
				<threshold> 0.0 </threshold>
				<split pos="left">
					<feature> 34 </feature>
					<threshold> 0.05078125 </threshold>
					<split pos="left">
						<output> -0.06933587044477463 </output>
					</split>
					<split pos="right">
						<feature> 11 </feature>
						<threshold> 0.013114754 </threshold>
						<split pos="left">
							<feature> 23 </feature>
							<threshold> 0.17142858 </threshold>
							<split pos="left">
								<feature> 42 </feature>
								<threshold> 0.99609375 </threshold>
								<split pos="left">
									<feature> 17 </feature>
									<threshold> 0.28125 </threshold>
									<split pos="left">
										<output> 0.2997969090938568 </output>
									</split>
									<split pos="right">
										<feature> 42 </feature>
										<threshold> 0.81640625 </threshold>
										<split pos="left">
											<output> -0.12693549692630768 </output>
										</split>
										<split pos="right">
											<feature> 39 </feature>
											<threshold> 0.51171875 </threshold>
											<split pos="left">
												<output> 0.14170598983764648 </output>
											</split>
											<split pos="right">
												<output> 0.022344645112752914 </output>
											</split>
										</split>
									</split>
								</split>
								<split pos="right">
									<output> -0.22144201397895813 </output>
								</split>
							</split>
							<split pos="right">
								<output> 2.332120895385742 </output>
							</split>
						</split>
						<split pos="right">
							<output> -0.11518590152263641 </output>
						</split>
					</split>
				</split>
				<split pos="right">
					<output> -0.23782256245613098 </output>
				</split>
			</split>
		</split>
	</tree>
	<tree id="44" weight="0.1">
		<split>
			<feature> 4 </feature>
			<threshold> 0.0 </threshold>
			<split pos="left">
				<feature> 10 </feature>
				<threshold> 0.0 </threshold>
				<split pos="left">
					<output> 0.34229549765586853 </output>
				</split>
				<split pos="right">
					<feature> 37 </feature>
					<threshold> 0.58984375 </threshold>
					<split pos="left">
						<output> 0.07848329097032547 </output>
					</split>
					<split pos="right">
						<output> -0.16084018349647522 </output>
					</split>
				</split>
			</split>
			<split pos="right">
				<feature> 3 </feature>
				<threshold> 0.0 </threshold>
				<split pos="left">
					<feature> 7 </feature>
					<threshold> 0.011718749 </threshold>
					<split pos="left">
						<feature> 21 </feature>
						<threshold> 0.0349561 </threshold>
						<split pos="left">
							<feature> 8 </feature>
							<threshold> 0.77734375 </threshold>
							<split pos="left">
								<output> -0.08810635656118393 </output>
							</split>
							<split pos="right">
								<output> 0.04679018259048462 </output>
							</split>
						</split>
						<split pos="right">
							<output> -1.0235896110534668 </output>
						</split>
					</split>
					<split pos="right">
						<feature> 2 </feature>
						<threshold> 0.0 </threshold>
						<split pos="left">
							<feature> 18 </feature>
							<threshold> 0.37018177 </threshold>
							<split pos="left">
								<output> 0.09317287057638168 </output>
							</split>
							<split pos="right">
								<output> 0.5286380052566528 </output>
							</split>
						</split>
						<split pos="right">
							<output> -0.030824927613139153 </output>
						</split>
					</split>
				</split>
				<split pos="right">
					<output> -0.21404024958610535 </output>
				</split>
			</split>
		</split>
	</tree>
	<tree id="45" weight="0.1">
		<split>
			<feature> 25 </feature>
			<threshold> 0.0234375 </threshold>
			<split pos="left">
				<feature> 17 </feature>
				<threshold> 0.53125 </threshold>
				<split pos="left">
					<feature> 37 </feature>
					<threshold> 0.765625 </threshold>
					<split pos="left">
						<feature> 37 </feature>
						<threshold> 0.76171875 </threshold>
						<split pos="left">
							<feature> 9 </feature>
							<threshold> 0.0 </threshold>
							<split pos="left">
								<output> -0.08807135373353958 </output>
							</split>
							<split pos="right">
								<feature> 10 </feature>
								<threshold> 0.0 </threshold>
								<split pos="left">
									<output> 0.20022444427013397 </output>
								</split>
								<split pos="right">
									<feature> 44 </feature>
									<threshold> 0.29659823 </threshold>
									<split pos="left">
										<output> -0.45547640323638916 </output>
									</split>
									<split pos="right">
										<feature> 8 </feature>
										<threshold> 0.6796875 </threshold>
										<split pos="left">
											<output> 0.2301294058561325 </output>
										</split>
										<split pos="right">
											<feature> 43 </feature>
											<threshold> 0.2990461 </threshold>
											<split pos="left">
												<output> -0.6804907917976379 </output>
											</split>
											<split pos="right">
												<output> 0.04564964771270752 </output>
											</split>
										</split>
									</split>
								</split>
							</split>
						</split>
						<split pos="right">
							<output> -0.9897084832191467 </output>
						</split>
					</split>
					<split pos="right">
						<output> 0.642449140548706 </output>
					</split>
				</split>
				<split pos="right">
					<output> -0.021545806899666786 </output>
				</split>
			</split>
			<split pos="right">
				<output> -0.21112845838069916 </output>
			</split>
		</split>
	</tree>
	<tree id="46" weight="0.1">
		<split>
			<feature> 14 </feature>
			<threshold> 0.060528986 </threshold>
			<split pos="left">
				<feature> 12 </feature>
				<threshold> 1.0E-4 </threshold>
				<split pos="left">
					<feature> 41 </feature>
					<threshold> 0.4296875 </threshold>
					<split pos="left">
						<output> -0.3876097798347473 </output>
					</split>
					<split pos="right">
						<feature> 31 </feature>
						<threshold> 0.14453125 </threshold>
						<split pos="left">
							<output> 0.21399672329425812 </output>
						</split>
						<split pos="right">
							<feature> 31 </feature>
							<threshold> 0.15234375 </threshold>
							<split pos="left">
								<output> -0.7360861301422119 </output>
							</split>
							<split pos="right">
								<feature> 29 </feature>
								<threshold> 0.0 </threshold>
								<split pos="left">
									<feature> 39 </feature>
									<threshold> 0.234375 </threshold>
									<split pos="left">
										<output> -0.36175253987312317 </output>
									</split>
									<split pos="right">
										<feature> 40 </feature>
										<threshold> 0.35546875 </threshold>
										<split pos="left">
											<output> 0.6622325778007507 </output>
										</split>
										<split pos="right">
											<feature> 14 </feature>
											<threshold> 0.0 </threshold>
											<split pos="left">
												<output> 0.2733404040336609 </output>
											</split>
											<split pos="right">
												<output> 0.03834899142384529 </output>
											</split>
										</split>
									</split>
								</split>
								<split pos="right">
									<output> -0.3159938156604767 </output>
								</split>
							</split>
						</split>
					</split>
				</split>
				<split pos="right">
					<output> -0.03691690415143967 </output>
				</split>
			</split>
			<split pos="right">
				<output> 0.4377211630344391 </output>
			</split>
		</split>
	</tree>
	<tree id="47" weight="0.1">
		<split>
			<feature> 6 </feature>
			<threshold> 0.9921875 </threshold>
			<split pos="left">
				<feature> 5 </feature>
				<threshold> 0.9609375 </threshold>
				<split pos="left">
					<feature> 17 </feature>
					<threshold> 0.84375 </threshold>
					<split pos="left">
						<feature> 3 </feature>
						<threshold> 0.0 </threshold>
						<split pos="left">
							<feature> 31 </feature>
							<threshold> 0.14453125 </threshold>
							<split pos="left">
								<output> 0.2612259089946747 </output>
							</split>
							<split pos="right">
								<feature> 42 </feature>
								<threshold> 0.28515625 </threshold>
								<split pos="left">
									<output> 1.55791175365448 </output>
								</split>
								<split pos="right">
									<feature> 37 </feature>
									<threshold> 0.765625 </threshold>
									<split pos="left">
										<feature> 38 </feature>
										<threshold> 0.28515625 </threshold>
										<split pos="left">
											<output> -0.42843303084373474 </output>
										</split>
										<split pos="right">
											<output> -0.03327592834830284 </output>
										</split>
									</split>
									<split pos="right">
										<output> 0.4030637741088867 </output>
									</split>
								</split>
							</split>
						</split>
						<split pos="right">
							<output> -0.22965392470359802 </output>
						</split>
					</split>
					<split pos="right">
						<output> -0.36377862095832825 </output>
					</split>
				</split>
				<split pos="right">
					<output> 0.06627342849969864 </output>
				</split>
			</split>
			<split pos="right">
				<feature> 25 </feature>
				<threshold> 0.00390625 </threshold>
				<split pos="left">
					<output> 0.09103431552648544 </output>
				</split>
				<split pos="right">
					<output> -0.022152258083224297 </output>
				</split>
			</split>
		</split>
	</tree>
	<tree id="48" weight="0.1">
		<split>
			<feature> 23 </feature>
			<threshold> 0.08571429 </threshold>
			<split pos="left">
				<feature> 44 </feature>
				<threshold> 0.59695154 </threshold>
				<split pos="left">
					<output> 0.08669012784957886 </output>
				</split>
				<split pos="right">
					<feature> 35 </feature>
					<threshold> 0.20703125 </threshold>
					<split pos="left">
						<feature> 37 </feature>
						<threshold> 0.7421875 </threshold>
						<split pos="left">
							<feature> 43 </feature>
							<threshold> 0.51903415 </threshold>
							<split pos="left">
								<output> -0.33474069833755493 </output>
							</split>
							<split pos="right">
								<feature> 2 </feature>
								<threshold> 0.0 </threshold>
								<split pos="left">
									<feature> 19 </feature>
									<threshold> 0.11328125 </threshold>
									<split pos="left">
										<feature> 43 </feature>
										<threshold> 0.85245615 </threshold>
										<split pos="left">
											<feature> 19 </feature>
											<threshold> 0.0 </threshold>
											<split pos="left">
												<output> 0.1410098671913147 </output>
											</split>
											<split pos="right">
												<output> -0.03413437679409981 </output>
											</split>
										</split>
										<split pos="right">
											<output> 0.4769609570503235 </output>
										</split>
									</split>
									<split pos="right">
										<output> 0.40140631794929504 </output>
									</split>
								</split>
								<split pos="right">
									<output> -0.06178215146064758 </output>
								</split>
							</split>
						</split>
						<split pos="right">
							<output> -0.2725687623023987 </output>
						</split>
					</split>
					<split pos="right">
						<output> 0.07947517931461334 </output>
					</split>
				</split>
			</split>
			<split pos="right">
				<output> -0.1512392908334732 </output>
			</split>
		</split>
	</tree>
	<tree id="49" weight="0.1">
		<split>
			<feature> 15 </feature>
			<threshold> 0.13577448 </threshold>
			<split pos="left">
				<feature> 12 </feature>
				<threshold> 1.0E-4 </threshold>
				<split pos="left">
					<feature> 16 </feature>
					<threshold> 0.5 </threshold>
					<split pos="left">
						<feature> 23 </feature>
						<threshold> 0.25714287 </threshold>
						<split pos="left">
							<feature> 41 </feature>
							<threshold> 0.4296875 </threshold>
							<split pos="left">
								<output> -0.35823148488998413 </output>
							</split>
							<split pos="right">
								<feature> 14 </feature>
								<threshold> 0.0 </threshold>
								<split pos="left">
									<output> 0.23402462899684906 </output>
								</split>
								<split pos="right">
									<feature> 31 </feature>
									<threshold> 0.14453125 </threshold>
									<split pos="left">
										<output> 0.1708260327577591 </output>
									</split>
									<split pos="right">
										<feature> 31 </feature>
										<threshold> 0.15234375 </threshold>
										<split pos="left">
											<output> -0.6811844706535339 </output>
										</split>
										<split pos="right">
											<feature> 29 </feature>
											<threshold> 0.0 </threshold>
											<split pos="left">
												<output> 0.026034807786345482 </output>
											</split>
											<split pos="right">
												<output> -0.27759140729904175 </output>
											</split>
										</split>
									</split>
								</split>
							</split>
						</split>
						<split pos="right">
							<output> 3.0478174686431885 </output>
						</split>
					</split>
					<split pos="right">
						<output> 0.4130939841270447 </output>
					</split>
				</split>
				<split pos="right">
					<output> -0.03289799392223358 </output>
				</split>
			</split>
			<split pos="right">
				<output> 0.6828994154930115 </output>
			</split>
		</split>
	</tree>
	<tree id="50" weight="0.1">
		<split>
			<feature> 24 </feature>
			<threshold> 0.0 </threshold>
			<split pos="left">
				<output> 0.26069700717926025 </output>
			</split>
			<split pos="right">
				<feature> 15 </feature>
				<threshold> 0.13388872 </threshold>
				<split pos="left">
					<feature> 12 </feature>
					<threshold> 1.0E-4 </threshold>
					<split pos="left">
						<feature> 24 </feature>
						<threshold> 0.035714287 </threshold>
						<split pos="left">
							<output> -0.10593938827514648 </output>
						</split>
						<split pos="right">
							<feature> 27 </feature>
							<threshold> 0.0 </threshold>
							<split pos="left">
								<feature> 6 </feature>
								<threshold> 0.9921875 </threshold>
								<split pos="left">
									<feature> 25 </feature>
									<threshold> 0.078125 </threshold>
									<split pos="left">
										<feature> 35 </feature>
										<threshold> 0.03515625 </threshold>
										<split pos="left">
											<output> -0.18226853013038635 </output>
										</split>
										<split pos="right">
											<feature> 44 </feature>
											<threshold> 0.36417755 </threshold>
											<split pos="left">
												<output> 0.2986719012260437 </output>
											</split>
											<split pos="right">
												<output> 0.02280035987496376 </output>
											</split>
										</split>
									</split>
									<split pos="right">
										<output> -1.0504541397094727 </output>
									</split>
								</split>
								<split pos="right">
									<output> 0.09371675550937653 </output>
								</split>
							</split>
							<split pos="right">
								<output> -0.1978154331445694 </output>
							</split>
						</split>
					</split>
					<split pos="right">
						<output> -0.041602570563554764 </output>
					</split>
				</split>
				<split pos="right">
					<output> 0.6872944235801697 </output>
				</split>
			</split>
		</split>
	</tree>
	<tree id="51" weight="0.1">
		<split>
			<feature> 11 </feature>
			<threshold> 0.045901638 </threshold>
			<split pos="left">
				<feature> 12 </feature>
				<threshold> 0.0015 </threshold>
				<split pos="left">
					<feature> 13 </feature>
					<threshold> 0.003187976 </threshold>
					<split pos="left">
						<feature> 6 </feature>
						<threshold> 0.9921875 </threshold>
						<split pos="left">
							<feature> 31 </feature>
							<threshold> 0.8828125 </threshold>
							<split pos="left">
								<feature> 26 </feature>
								<threshold> 0.0 </threshold>
								<split pos="left">
									<feature> 41 </feature>
									<threshold> 0.41015625 </threshold>
									<split pos="left">
										<output> -0.5232909321784973 </output>
									</split>
									<split pos="right">
										<feature> 4 </feature>
										<threshold> 0.0 </threshold>
										<split pos="left">
											<output> 0.0930667370557785 </output>
										</split>
										<split pos="right">
											<output> -0.022528836503624916 </output>
										</split>
									</split>
								</split>
								<split pos="right">
									<output> 0.22370551526546478 </output>
								</split>
							</split>
							<split pos="right">
								<output> -0.09505859762430191 </output>
							</split>
						</split>
						<split pos="right">
							<feature> 5 </feature>
							<threshold> 0.92578125 </threshold>
							<split pos="left">
								<output> 0.10697557032108307 </output>
							</split>
							<split pos="right">
								<output> -0.0158538855612278 </output>
							</split>
						</split>
					</split>
					<split pos="right">
						<output> -0.18351030349731445 </output>
					</split>
				</split>
				<split pos="right">
					<output> 0.1602041870355606 </output>
				</split>
			</split>
			<split pos="right">
				<output> -0.2102130949497223 </output>
			</split>
		</split>
	</tree>
	<tree id="52" weight="0.1">
		<split>
			<feature> 35 </feature>
			<threshold> 0.06640625 </threshold>
			<split pos="left">
				<output> -0.04798199608922005 </output>
			</split>
			<split pos="right">
				<feature> 19 </feature>
				<threshold> 0.1640625 </threshold>
				<split pos="left">
					<feature> 25 </feature>
					<threshold> 0.0 </threshold>
					<split pos="left">
						<output> 0.10584588348865509 </output>
					</split>
					<split pos="right">
						<feature> 24 </feature>
						<threshold> 0.0 </threshold>
						<split pos="left">
							<output> 0.3220306634902954 </output>
						</split>
						<split pos="right">
							<feature> 33 </feature>
							<threshold> 0.9921875 </threshold>
							<split pos="left">
								<feature> 38 </feature>
								<threshold> 0.7265625 </threshold>
								<split pos="left">
									<feature> 31 </feature>
									<threshold> 0.96484375 </threshold>
									<split pos="left">
										<feature> 5 </feature>
										<threshold> 0.9609375 </threshold>
										<split pos="left">
											<feature> 3 </feature>
											<threshold> 0.0 </threshold>
											<split pos="left">
												<output> -0.0017608796479180455 </output>
											</split>
											<split pos="right">
												<output> -0.19158710539340973 </output>
											</split>
										</split>
										<split pos="right">
											<output> 0.062097758054733276 </output>
										</split>
									</split>
									<split pos="right">
										<output> -0.2657511234283447 </output>
									</split>
								</split>
								<split pos="right">
									<output> 0.19935044646263123 </output>
								</split>
							</split>
							<split pos="right">
								<output> -0.626415491104126 </output>
							</split>
						</split>
					</split>
				</split>
				<split pos="right">
					<output> 0.2848547399044037 </output>
				</split>
			</split>
		</split>
	</tree>
	<tree id="53" weight="0.1">
		<split>
			<feature> 10 </feature>
			<threshold> 0.058479533 </threshold>
			<split pos="left">
				<feature> 4 </feature>
				<threshold> 0.0 </threshold>
				<split pos="left">
					<output> 0.06432505697011948 </output>
				</split>
				<split pos="right">
					<feature> 34 </feature>
					<threshold> 0.05078125 </threshold>
					<split pos="left">
						<output> -0.07604110240936279 </output>
					</split>
					<split pos="right">
						<feature> 41 </feature>
						<threshold> 0.99609375 </threshold>
						<split pos="left">
							<feature> 43 </feature>
							<threshold> 0.8490188 </threshold>
							<split pos="left">
								<feature> 3 </feature>
								<threshold> 0.0 </threshold>
								<split pos="left">
									<feature> 17 </feature>
									<threshold> 0.28125 </threshold>
									<split pos="left">
										<output> 0.20591041445732117 </output>
									</split>
									<split pos="right">
										<feature> 42 </feature>
										<threshold> 0.8125 </threshold>
										<split pos="left">
											<output> -0.23598189651966095 </output>
										</split>
										<split pos="right">
											<feature> 14 </feature>
											<threshold> 0.060528986 </threshold>
											<split pos="left">
												<output> 0.03979412466287613 </output>
											</split>
											<split pos="right">
