network unknown {
}
variable accept_num {
    type discrete [ 2 ] { 0, 1 };
}
variable author_identity {
    type discrete [ 3 ] { 0, 1, 2 };
}
variable body_words {
    type discrete [ 4 ] { 0, 1, 2, 3 };
}
variable change_num {
    type discrete [ 5 ] { 0, 1, 2, 3, 4 };
}
variable close_num {
    type discrete [ 5 ] { 0, 1, 2, 3, 4 };
}
variable comment_num {
    type discrete [ 5 ] { 0, 1, 2, 3, 4 };
}
variable commit_num {
    type discrete [ 5 ] { 0, 1, 2, 3, 4 };
}
variable file_changed_num {
    type discrete [ 5 ] { 0, 1, 2, 3, 4 };
}
variable has_bug {
    type discrete [ 2 ] { 0, 1 };
}
variable has_document {
    type discrete [ 2 ] { 0, 1 };
}
variable has_feature {
    type discrete [ 2 ] { 0, 1 };
}
variable has_improve {
    type discrete [ 2 ] { 0, 1 };
}
variable has_refactor {
    type discrete [ 2 ] { 0, 1 };
}
variable is_weekday {
    type discrete [ 2 ] { 0, 1 };
}
variable mergable_state {
    type discrete [ 3 ] { 0, 1, 2 };
}
variable participants_count {
    type discrete [ 2 ] { 0, 4 };
}
variable pre_prs {
    type discrete [ 5 ] { 0, 1, 2, 3, 4 };
}
variable priorities_number {
    type discrete [ 5 ] { 0, 1, 2, 3, 4 };
}
variable review_comment_num {
    type discrete [ 2 ] { 0, 1 };
}
variable review_num {
    type discrete [ 2 ] { 0, 1 };
}
variable title_words {
    type discrete [ 5 ] { 0, 1, 2, 3, 4 };
}
variable total_add_line {
    type discrete [ 5 ] { 0, 1, 2, 3, 4 };
}
variable total_delete_line {
    type discrete [ 5 ] { 0, 1, 2, 3, 4 };
}
variable workload {
    type discrete [ 5 ] { 0, 1, 2, 3, 4 };
}
probability ( accept_num | has_refactor, is_weekday ) {
    table 0.34657534246575344, 0.21051718153418952, 0.7222222222222222, 0.45121951219512196, 0.6534246575342466, 0.7894828184658105, 0.2777777777777778, 0.5487804878048781 ;
}
probability ( author_identity | accept_num ) {
    table 0.004397537379067722, 0.6396112424481218, 0.9912049252418644, 0.2566325190438666, 0.004397537379067722, 0.10375623850801155 ;
}
probability ( body_words | author_identity, change_num, has_bug, has_refactor ) {
    table 0.21160000000000004, 0.25, 0.9423076923076925, 0.25, 0.3330769230769231, 0.25, 0.9699999999999998, 0.25, 0.35123734533183354, 0.019230769230769235, 0.9699999999999998, 0.25, 0.327948034643571, 0.25, 0.25, 0.9423076923076925, 0.2896887159533074, 0.9423076923076925, 0.25, 0.25, 0.08806038426349497, 0.9699999999999998, 0.25, 0.25, 0.06687014428412873, 0.9423076923076925, 0.739795918367347, 0.25, 0.05820265379975873, 0.9423076923076925, 0.019230769230769235, 0.25, 0.047139141742522754, 0.6554054054054054, 0.48999999999999994, 0.25, 0.17665036674816623, 0.25, 0.48999999999999994, 0.25, 0.25, 0.25, 0.25, 0.25, 0.15829694323144103, 0.25, 0.006756756756756756, 0.25, 0.15445859872611464, 0.25, 0.25, 0.25, 0.009999999999999997, 0.25, 0.25, 0.25, 0.14317507418397626, 0.25, 0.25, 0.25, 0.3652, 0.25, 0.019230769230769235, 0.25, 0.2961538461538462, 0.25, 0.009999999999999997, 0.25, 0.1892575928008999, 0.9423076923076925, 0.009999999999999997, 0.25, 0.15206528980679546, 0.25, 0.25, 0.019230769230769235, 0.27101167315175095, 0.019230769230769235, 0.6211340206185566, 0.25, 0.4503659652333028, 0.009999999999999997, 0.25, 0.25, 0.16009988901220865, 0.019230769230769235, 0.25, 0.25, 0.029252110977080817, 0.019230769230769235, 0.9423076923076925, 0.25, 0.06274382314694407, 0.006756756756756756, 0.48999999999999994, 0.25, 0.14731051344743273, 0.25, 0.48999999999999994, 0.25, 0.25, 0.25, 0.25, 0.25, 0.2631004366812227, 0.25, 0.33108108108108103, 0.25, 0.38375796178343946, 0.25, 0.25, 0.25, 0.9699999999999998, 0.25, 0.25, 0.25, 0.392433234421365, 0.25, 0.25, 0.25, 0.0004, 0.25, 0.019230769230769235, 0.25, 0.22230769230769232, 0.25, 0.009999999999999997, 0.25, 0.09476940382452194, 0.019230769230769235, 0.009999999999999997, 0.25, 0.20003331112591602, 0.25, 0.4948979591836735, 0.019230769230769235, 0.25233463035019454, 0.019230769230769235, 0.12628865979381443, 0.25, 0.12099725526075022, 0.009999999999999997, 0.25, 0.25, 0.2533296337402885, 0.019230769230769235, 0.005102040816326531, 0.25, 0.23190591073582625, 0.019230769230769235, 0.019230769230769235, 0.25, 0.12516254876462937, 0.33108108108108103, 0.009999999999999998, 0.25, 0.23533007334963324, 0.25, 0.009999999999999998, 0.25, 0.25, 0.25, 0.25, 0.25, 0.05349344978165938, 0.25, 0.6554054054054054, 0.25, 0.23089171974522293, 0.25, 0.25, 0.25, 0.009999999999999997, 0.25, 0.25, 0.25, 0.25, 0.25, 0.25, 0.25, 0.4228, 0.25, 0.019230769230769235, 0.25, 0.14846153846153845, 0.25, 0.009999999999999997, 0.25, 0.36473565804274466, 0.019230769230769235, 0.009999999999999997, 0.25, 0.3199533644237175, 0.25, 0.005102040816326531, 0.019230769230769235, 0.18696498054474708, 0.019230769230769235, 0.0025773195876288655, 0.25, 0.3405763952424519, 0.009999999999999997, 0.25, 0.25, 0.519700332963374, 0.019230769230769235, 0.005102040816326531, 0.25, 0.6806393244873341, 0.019230769230769235, 0.019230769230769235, 0.25, 0.7649544863459037, 0.006756756756756756, 0.009999999999999998, 0.25, 0.4407090464547677, 0.25, 0.009999999999999998, 0.25, 0.25, 0.25, 0.25, 0.25, 0.5251091703056768, 0.25, 0.006756756756756756, 0.25, 0.23089171974522293, 0.25, 0.25, 0.25, 0.009999999999999997, 0.25, 0.25, 0.25, 0.21439169139465875, 0.25, 0.25, 0.25 ;
}
probability ( change_num | accept_num, author_identity, close_num ) {
    table 0.2, 0.2, 0.2, 0.2, 0.2, 0.9879646017699116, 0.0006779661016949154, 0.001324503311258278, 0.001941747572815534, 0.015384615384615382, 0.2, 0.2, 0.2, 0.2, 0.2, 0.2, 0.535421686746988, 0.1496111975116641, 0.0002600780234070221, 0.0003294892915980231, 0.0013793103448275859, 0.0006779661016949153, 0.0011834319526627217, 0.001324503311258278, 0.0009216589861751152, 0.2, 0.2, 0.002531645569620253, 0.0018348623853211004, 0.0009756097560975609, 0.2, 0.2, 0.2, 0.2, 0.2, 0.010973451327433631, 0.9972881355932205, 0.5178807947019867, 0.001941747572815534, 0.015384615384615382, 0.2, 0.2, 0.2, 0.2, 0.2, 0.2, 0.2896385542168675, 0.08429237947122863, 0.0002600780234070221, 0.0003294892915980231, 0.7048275862068965, 0.0006779661016949153, 0.0011834319526627217, 0.001324503311258278, 0.0009216589861751152, 0.2, 0.2, 0.989873417721519, 0.4972477064220182, 0.0009756097560975609, 0.2, 0.2, 0.2, 0.2, 0.2, 0.00035398230088495576, 0.0006779661016949154, 0.47814569536423834, 0.2349514563106796, 0.015384615384615382, 0.2, 0.2, 0.2, 0.2, 0.2, 0.2, 0.17397590361445786, 0.44821150855365477, 0.13289986996098832, 0.0003294892915980231, 0.29103448275862065, 0.9769491525423729, 0.0011834319526627217, 0.001324503311258278, 0.0009216589861751152, 0.2, 0.2, 0.002531645569620253, 0.4972477064220182, 0.11804878048780486, 0.2, 0.2, 0.2, 0.2, 0.2, 0.00035398230088495576, 0.0006779661016949154, 0.001324503311258278, 0.7592233009708738, 0.4769230769230769, 0.2, 0.2, 0.2, 0.2, 0.2, 0.2, 0.0004819277108433736, 0.30824261275272163, 0.6478543563068921, 0.13871499176276772, 0.0013793103448275859, 0.021016949152542375, 0.995266272189349, 0.9549668874172185, 0.05622119815668203, 0.2, 0.2, 0.002531645569620253, 0.0018348623853211004, 0.05951219512195121, 0.2, 0.2, 0.2, 0.2, 0.2, 0.00035398230088495576, 0.0006779661016949154, 0.001324503311258278, 0.001941747572815534, 0.4769230769230769, 0.2, 0.2, 0.2, 0.2, 0.2, 0.2, 0.0004819277108433736, 0.00964230171073095, 0.21872561768530563, 0.8602965403624383, 0.0013793103448275859, 0.0006779661016949153, 0.0011834319526627217, 0.04105960264900662, 0.9410138248847927, 0.2, 0.2, 0.002531645569620253, 0.0018348623853211004, 0.8204878048780487 ;
}
probability ( close_num | pre_prs ) {
    table 0.9932203389830507, 0.007017543859649125, 0.001169590643274854, 0.0010752688172043013, 0.0011235955056179776, 0.001694915254237288, 0.9719298245614038, 0.007017543859649124, 0.0010752688172043013, 0.0011235955056179776, 0.001694915254237288, 0.018713450292397668, 0.8900584795321638, 0.0978494623655914, 0.0011235955056179776, 0.001694915254237288, 0.0011695906432748543, 0.10058479532163744, 0.8290322580645162, 0.09662921348314607, 0.001694915254237288, 0.0011695906432748543, 0.001169590643274854, 0.07096774193548387, 0.8999999999999999 ;
}
probability ( comment_num | commit_num, has_document, review_comment_num ) {
    table 0.7577287066246058, 0.3242718446601942, 0.20000000000000004, 0.2, 0.2883977900552486, 0.14209748892171345, 0.022222222222222233, 0.2, 0.3811320754716981, 0.11480519480519481, 0.2, 0.2, 0.6141176470588234, 0.06160064672594987, 0.2, 0.022222222222222227, 0.039999999999999994, 0.2, 0.2, 0.2, 0.17728706624605683, 0.25954692556634307, 0.580952380952381, 0.2, 0.3988950276243094, 0.2484490398818316, 0.9111111111111114, 0.2, 0.30566037735849055, 0.26025974025974025, 0.2, 0.2, 0.19058823529411761, 0.1004042037186742, 0.2, 0.022222222222222227, 0.039999999999999994, 0.2, 0.2, 0.2, 0.03848580441640379, 0.19482200647249193, 0.20000000000000004, 0.2, 0.17790055248618786, 0.24254062038404725, 0.022222222222222233, 0.2, 0.07924528301886793, 0.18753246753246755, 0.2, 0.2, 0.14352941176470585, 0.22651576394502823, 0.2, 0.9111111111111112, 0.8399999999999999, 0.2, 0.2, 0.2, 0.025867507886435333, 0.16893203883495148, 0.009523809523809526, 0.2, 0.13370165745856352, 0.2957163958641063, 0.022222222222222233, 0.2, 0.230188679245283, 0.4057142857142857, 0.2, 0.2, 0.04941176470588235, 0.4819725141471301, 0.2, 0.022222222222222227, 0.039999999999999994, 0.2, 0.2, 0.2, 0.0006309148264984229, 0.05242718446601941, 0.009523809523809526, 0.2, 0.0011049723756906078, 0.07119645494830133, 0.022222222222222233, 0.2, 0.0037735849056603774, 0.03168831168831169, 0.2, 0.2, 0.002352941176470588, 0.12950687146321743, 0.2, 0.022222222222222227, 0.039999999999999994, 0.2, 0.2, 0.2 ;
}
probability ( commit_num | total_add_line ) {
    table 0.5658823529411766, 0.19397590361445785, 0.11497005988023952, 0.05359477124183006, 0.036904761904761905, 0.23647058823529418, 0.46506024096385545, 0.288622754491018, 0.2169934640522876, 0.10833333333333332, 0.0835294117647059, 0.12771084337349398, 0.18682634730538922, 0.15816993464052287, 0.11428571428571428, 0.11294117647058825, 0.21204819277108436, 0.40838323353293415, 0.5699346405228758, 0.7333333333333334, 0.0011764705882352944, 0.0012048192771084338, 0.0011976047904191617, 0.0013071895424836603, 0.007142857142857143 ;
}
probability ( file_changed_num | mergable_state, total_delete_line ) {
    table 0.45714285714285713, 0.128, 0.006451612903225807, 0.0022727272727272726, 0.001694915254237288, 0.9199999999999998, 0.019999999999999997, 0.028571428571428574, 0.028571428571428557, 0.2, 0.7616204690831557, 0.24834710743801658, 0.02110091743119266, 0.031211498973305957, 0.021232876712328767, 0.02857142857142857, 0.368, 0.4903225806451613, 0.0022727272727272726, 0.07796610169491526, 0.019999999999999993, 0.31999999999999995, 0.028571428571428574, 0.8857142857142855, 0.2, 0.17313432835820897, 0.415702479338843, 0.23440366972477064, 0.11745379876796716, 0.07260273972602739, 0.02857142857142857, 0.008, 0.10322580645161292, 0.17272727272727273, 0.05254237288135594, 0.019999999999999993, 0.62, 0.4571428571428572, 0.028571428571428557, 0.2, 0.038805970149253737, 0.18636363636363637, 0.3857798165137615, 0.2652977412731007, 0.18561643835616437, 0.45714285714285713, 0.248, 0.20000000000000004, 0.275, 0.20508474576271185, 0.019999999999999993, 0.019999999999999997, 0.028571428571428574, 0.028571428571428557, 0.2, 0.006823027718550107, 0.10578512396694216, 0.2756880733944954, 0.41930184804928133, 0.29863013698630136, 0.02857142857142857, 0.248, 0.20000000000000004, 0.5477272727272727, 0.6627118644067796, 0.019999999999999993, 0.019999999999999997, 0.4571428571428572, 0.028571428571428557, 0.2, 0.01961620469083156, 0.043801652892561986, 0.08302752293577981, 0.166735112936345, 0.42191780821917807 ;
}
probability ( has_bug ) {
    table 0.9605582524271845, 0.03944174757281554 ;
}
probability ( has_document | review_num ) {
    table 0.9462540716612378, 0.9951528709917972, 0.05374592833876222, 0.004847129008202834 ;
}
probability ( has_feature | body_words ) {
    table 0.9222539229671898, 0.9861294583883752, 0.995697074010327, 0.9980111376292761, 0.07774607703281027, 0.013870541611624834, 0.004302925989672977, 0.001988862370723946 ;
}
probability ( has_improve | body_words ) {
    table 0.9165477888730386, 0.9808454425363277, 0.995697074010327, 0.9980111376292761, 0.08345221112696148, 0.01915455746367239, 0.004302925989672977, 0.001988862370723946 ;
}
probability ( has_refactor ) {
    table 0.9848300970873787, 0.01516990291262136 ;
}
probability ( is_weekday ) {
    table 0.11347087378640777, 0.8865291262135923 ;
}
probability ( mergable_state ) {
    table 0.10881877022653723, 0.014158576051779935, 0.8770226537216828 ;
}
probability ( participants_count | comment_num, review_comment_num ) {
    table 0.9972972972972973, 0.9968553459119497, 0.9945054945054945, 0.9978902953586498, 0.9857142857142858, 0.9709897610921502, 0.98, 0.9035785288270378, 0.5, 0.02100840336134454, 0.002702702702702703, 0.0031446540880503146, 0.005494505494505495, 0.002109704641350211, 0.014285714285714285, 0.02901023890784983, 0.02, 0.09642147117296222, 0.5, 0.9789915966386554 ;
}
probability ( pre_prs | accept_num, author_identity, workload ) {
    table 0.2, 0.2, 0.2, 0.2, 0.2, 0.9962085308056874, 0.9965957446808512, 0.4979310344827585, 0.12091690544412607, 0.0010695187165775401, 0.2, 0.2, 0.2, 0.2, 0.2, 0.00026631158455392814, 0.0003169572107765452, 0.0006389776357827475, 0.00048192771084337347, 0.0006153846153846153, 0.18754325259515572, 0.3565217391304348, 0.002197802197802198, 0.0010050251256281408, 0.0013793103448275863, 0.0036363636363636364, 0.005405405405405406, 0.002531645569620253, 0.001183431952662722, 0.0036363636363636364, 0.2, 0.2, 0.2, 0.2, 0.2, 0.0009478672985781993, 0.0008510638297872343, 0.4979310344827585, 0.481948424068768, 0.2898395721925134, 0.2, 0.2, 0.2, 0.2, 0.2, 0.18402130492676433, 0.33312202852614897, 0.05814696485623003, 0.116144578313253, 0.055999999999999994, 0.5612456747404845, 0.28537549407114626, 0.26593406593406593, 0.18190954773869347, 0.0013793103448275863, 0.0036363636363636364, 0.005405405405405406, 0.002531645569620253, 0.001183431952662722, 0.0036363636363636364, 0.2, 0.2, 0.2, 0.2, 0.2, 0.0009478672985781993, 0.0008510638297872343, 0.0013793103448275859, 0.20687679083094557, 0.386096256684492, 0.2, 0.2, 0.2, 0.2, 0.2, 0.47163781624500667, 0.21901743264659274, 0.019808306709265176, 0.1016867469879518, 0.3513846153846154, 0.021453287197231836, 0.0007905138339920949, 0.5296703296703297, 0.48341708542713574, 0.0013793103448275863, 0.33090909090909093, 0.32972972972972975, 0.4582278481012658, 0.03668639053254438, 0.0036363636363636364, 0.2, 0.2, 0.2, 0.2, 0.2, 0.0009478672985781993, 0.0008510638297872343, 0.0013793103448275859, 0.15530085959885387, 0.25775401069518716, 0.2, 0.2, 0.2, 0.2, 0.2, 0.2798934753661784, 0.2855784469096672, 0.3648562300319489, 0.3474698795180723, 0.16676923076923075, 0.2290657439446367, 0.14308300395256918, 0.002197802197802198, 0.2120603015075377, 0.4151724137931035, 0.0036363636363636364, 0.005405405405405406, 0.23037974683544304, 0.4627218934911243, 0.11272727272727275, 0.2, 0.2, 0.2, 0.2, 0.2, 0.0009478672985781993, 0.0008510638297872343, 0.0013793103448275859, 0.03495702005730659, 0.06524064171122995, 0.2, 0.2, 0.2, 0.2, 0.2, 0.06418109187749667, 0.16196513470681462, 0.5565495207667731, 0.43421686746987953, 0.42523076923076925, 0.0006920415224913495, 0.21422924901185772, 0.2, 0.12160804020100503, 0.5806896551724139, 0.6581818181818182, 0.6540540540540541, 0.30632911392405066, 0.498224852071006, 0.8763636363636365 ;
}
probability ( priorities_number | comment_num, has_document, participants_count ) {
    table 0.3879588839941262, 0.2, 0.039999999999999994, 0.2, 0.17725118483412322, 0.2, 0.580952380952381, 0.2, 0.10272, 0.7176470588235295, 0.015384615384615385, 0.2, 0.0754440961337513, 0.04329896907216495, 0.2, 0.2, 0.039999999999999994, 0.1553648068669528, 0.2, 0.2, 0.38208516886930977, 0.2, 0.8399999999999999, 0.2, 0.26571879936808845, 0.2, 0.009523809523809526, 0.2, 0.15392, 0.24705882352941183, 0.3230769230769231, 0.2, 0.09216300940438872, 0.24948453608247423, 0.2, 0.2, 0.039999999999999994, 0.103862660944206, 0.2, 0.2, 0.1530102790014684, 0.2, 0.039999999999999994, 0.2, 0.2278041074249605, 0.2, 0.39047619047619053, 0.2, 0.21151999999999999, 0.011764705882352944, 0.015384615384615385, 0.2, 0.27189132706374086, 0.0845360824742268, 0.2, 0.2, 0.039999999999999994, 0.103862660944206, 0.2, 0.2, 0.05903083700440528, 0.2, 0.039999999999999994, 0.2, 0.21516587677725116, 0.2, 0.009523809523809526, 0.2, 0.28192, 0.011764705882352944, 0.6307692307692307, 0.2, 0.2593521421107628, 0.24948453608247423, 0.2, 0.2, 0.8399999999999999, 0.1553648068669528, 0.2, 0.2, 0.01791483113069016, 0.2, 0.039999999999999994, 0.2, 0.11406003159557662, 0.2, 0.009523809523809526, 0.2, 0.24991999999999998, 0.011764705882352944, 0.015384615384615385, 0.2, 0.30114942528735633, 0.3731958762886598, 0.2, 0.2, 0.039999999999999994, 0.4815450643776824, 0.2, 0.2 ;
}
probability ( review_comment_num | pre_prs, review_num ) {
    table 0.7363636363636363, 0.0027624309392265192, 0.6443298969072165, 0.0020408163265306124, 0.7967032967032966, 0.04183266932270916, 0.7857142857142857, 0.12538699690402477, 0.8333333333333334, 0.17155425219941348, 0.2636363636363636, 0.9972375690607734, 0.3556701030927835, 0.9979591836734694, 0.2032967032967033, 0.9581673306772909, 0.21428571428571427, 0.8746130030959752, 0.16666666666666666, 0.8284457478005866 ;
}
probability ( review_num | close_num, commit_num, has_feature ) {
    table 0.5414937759336099, 0.9545454545454545, 0.16357308584686778, 0.5, 0.08015267175572519, 0.5, 0.11218836565096954, 0.5, 0.9545454545454545, 0.5, 0.5934579439252337, 0.6612903225806451, 0.36199575371549897, 0.5, 0.20119521912350596, 0.9545454545454545, 0.05160744500846024, 0.5, 0.5, 0.5, 0.5554323725055432, 0.5, 0.28935698447893576, 0.5, 0.002369668246445498, 0.5, 0.03410981697171381, 0.5, 0.5, 0.5, 0.444649446494465, 0.01612903225806452, 0.13988919667590027, 0.9545454545454545, 0.2186147186147186, 0.5, 0.10350154479917612, 0.045454545454545456, 0.5, 0.5, 0.0927601809954751, 0.5, 0.0011600928074245941, 0.045454545454545456, 0.0019157088122605363, 0.5, 0.0006321112515802782, 0.5, 0.5, 0.5, 0.45850622406639, 0.045454545454545456, 0.8364269141531323, 0.5, 0.9198473282442747, 0.5, 0.8878116343490305, 0.5, 0.045454545454545456, 0.5, 0.40654205607476634, 0.33870967741935487, 0.638004246284501, 0.5, 0.798804780876494, 0.045454545454545456, 0.9483925549915398, 0.5, 0.5, 0.5, 0.4445676274944568, 0.5, 0.7106430155210643, 0.5, 0.9976303317535544, 0.5, 0.9658901830282862, 0.5, 0.5, 0.5, 0.5553505535055351, 0.9838709677419355, 0.8601108033240997, 0.045454545454545456, 0.7813852813852814, 0.5, 0.8964984552008239, 0.9545454545454545, 0.5, 0.5, 0.9072398190045249, 0.5, 0.9988399071925754, 0.9545454545454545, 0.9980842911877394, 0.5, 0.9993678887484198, 0.5, 0.5, 0.5 ;
}
probability ( title_words | has_document, has_refactor ) {
    table 0.27113884555382217, 0.28888888888888886, 0.024390243902439025, 0.2, 0.2748829953198128, 0.022222222222222223, 0.12195121951219512, 0.2, 0.16380655226209048, 0.37777777777777777, 0.024390243902439025, 0.2, 0.13385335413416535, 0.2, 0.4146341463414634, 0.2, 0.15631825273010921, 0.1111111111111111, 0.4146341463414634, 0.2 ;
}
probability ( total_add_line | file_changed_num, total_delete_line ) {
    table 0.8282467532467531, 0.5106796116504855, 0.6375, 0.7769230769230769, 0.9272727272727272, 0.29558823529411765, 0.1269662921348314, 0.10306122448979593, 0.37924528301886795, 0.39607843137254906, 0.0064516129032258064, 0.03229813664596274, 0.01786941580756014, 0.0008298755186721993, 0.05148514851485149, 0.01818181818181818, 0.05416666666666667, 0.02464454976303318, 0.0005249343832020998, 0.001075268817204301, 0.012499999999999999, 0.004347826086956522, 0.0026315789473684214, 0.0009259259259259259, 0.0005952380952380952, 0.13831168831168827, 0.31650485436893205, 0.012499999999999999, 0.2, 0.01818181818181818, 0.47941176470588237, 0.4780898876404493, 0.3836734693877551, 0.5679245283018869, 0.1019607843137255, 0.6516129032258065, 0.34285714285714286, 0.1725085910652921, 0.14605809128630706, 0.299009900990099, 0.4727272727272727, 0.15833333333333335, 0.09573459715639812, 0.02677165354330709, 0.18924731182795698, 0.6375, 0.004347826086956522, 0.0026315789473684214, 0.024074074074074074, 0.015476190476190477, 0.016558441558441554, 0.12233009708737866, 0.012499999999999999, 0.007692307692307692, 0.01818181818181818, 0.07500000000000001, 0.35168539325842685, 0.2816326530612245, 0.049056603773584916, 0.39607843137254906, 0.0064516129032258064, 0.4670807453416149, 0.44742268041237115, 0.35352697095435687, 0.34851485148514855, 0.01818181818181818, 0.41874999999999996, 0.35639810426540286, 0.14488188976377953, 0.18924731182795698, 0.325, 0.6565217391304349, 0.06842105263157895, 0.024074074074074074, 0.015476190476190477, 0.0003246753246753246, 0.049514563106796125, 0.325, 0.007692307692307692, 0.01818181818181818, 0.03823529411764707, 0.014606741573033705, 0.23061224489795917, 0.0018867924528301891, 0.00392156862745098, 0.0064516129032258064, 0.09440993788819878, 0.2927835051546392, 0.3120331950207469, 0.2495049504950495, 0.01818181818181818, 0.21041666666666667, 0.5222748815165877, 0.367979002624672, 0.43118279569892465, 0.012499999999999999, 0.11304347826086958, 0.6605263157894736, 0.23240740740740737, 0.10476190476190476, 0.016558441558441554, 0.0009708737864077671, 0.012499999999999999, 0.007692307692307692, 0.01818181818181818, 0.11176470588235296, 0.028651685393258422, 0.0010204081632653062, 0.0018867924528301891, 0.1019607843137255, 0.32903225806451614, 0.06335403726708075, 0.06941580756013746, 0.187551867219917, 0.05148514851485149, 0.4727272727272727, 0.15833333333333335, 0.0009478672985781992, 0.4598425196850394, 0.18924731182795698, 0.012499999999999999, 0.22173913043478263, 0.2657894736842105, 0.7185185185185184, 0.8636904761904761 ;
}
probability ( total_delete_line | has_feature, has_refactor, mergable_state ) {
    table 0.023562676720075403, 0.22123893805309733, 0.20200453406514735, 0.2, 0.2, 0.6460176991150441, 0.2, 0.7647058823529413, 0.6024844720496894, 0.2, 0.2, 0.7647058823529413, 0.09142318567389257, 0.327433628318584, 0.22348168476315475, 0.2, 0.2, 0.327433628318584, 0.2, 0.05882352941176472, 0.15527950310559005, 0.2, 0.2, 0.05882352941176472, 0.11404335532516496, 0.22123893805309733, 0.20629996420474883, 0.2, 0.2, 0.008849557522123892, 0.2, 0.05882352941176472, 0.0807453416149068, 0.2, 0.2, 0.05882352941176472, 0.3289349670122526, 0.22123893805309733, 0.23064073499582388, 0.2, 0.2, 0.008849557522123892, 0.2, 0.05882352941176472, 0.0807453416149068, 0.2, 0.2, 0.05882352941176472, 0.4420358152686146, 0.008849557522123892, 0.13757308197112514, 0.2, 0.2, 0.008849557522123892, 0.2, 0.05882352941176472, 0.0807453416149068, 0.2, 0.2, 0.05882352941176472 ;
}
probability ( workload | author_identity, mergable_state ) {
    table 0.4105011933174224, 0.6829268292682928, 0.29000000000000004, 0.4471830985915493, 0.4634146341463415, 0.21335217237725188, 0.1826923076923077, 0.04347826086956521, 0.13530655391120505, 0.3675417661097852, 0.24390243902439032, 0.24500000000000002, 0.1936619718309859, 0.024390243902439025, 0.2387848816672554, 0.09615384615384616, 0.04347826086956521, 0.09725158562367864, 0.1312649164677804, 0.02439024390243903, 0.1296875, 0.13028169014084506, 0.024390243902439025, 0.11162133521723774, 0.1826923076923077, 0.04347826086956521, 0.2114164904862579, 0.02386634844868735, 0.02439024390243903, 0.19156250000000002, 0.035211267605633804, 0.24390243902439027, 0.2832921229247616, 0.4423076923076923, 0.826086956521739, 0.40169133192389006, 0.06682577565632458, 0.02439024390243903, 0.14375000000000002, 0.1936619718309859, 0.24390243902439027, 0.1529494878134935, 0.09615384615384616, 0.04347826086956521, 0.1543340380549683 ;
}
