## LambdaMART
## No. of trees = 1000
## No. of leaves = 10
## No. of threshold candidates = 256
## Learning rate = 0.1
## Stop early = 100

<ensemble>
	<tree id="1" weight="0.1">
		<split>
			<feature> 8 </feature>
			<threshold> 0.7512012 </threshold>
			<split pos="left">
				<feature> 7 </feature>
				<threshold> 0.25 </threshold>
				<split pos="left">
					<feature> 34 </feature>
					<threshold> 0.73828125 </threshold>
					<split pos="left">
						<feature> 38 </feature>
						<threshold> 0.72265625 </threshold>
						<split pos="left">
							<feature> 43 </feature>
							<threshold> 0.049117047 </threshold>
							<split pos="left">
								<output> -0.9985941648483276 </output>
							</split>
							<split pos="right">
								<feature> 8 </feature>
								<threshold> 0.6619586 </threshold>
								<split pos="left">
									<feature> 23 </feature>
									<threshold> 0.037037037 </threshold>
									<split pos="left">
										<output> 1.321317195892334 </output>
									</split>
									<split pos="right">
										<output> -0.4989342987537384 </output>
									</split>
								</split>
								<split pos="right">
									<output> 0.753105640411377 </output>
								</split>
							</split>
						</split>
						<split pos="right">
							<feature> 23 </feature>
							<threshold> 0.037037037 </threshold>
							<split pos="left">
								<output> -0.9965193867683411 </output>
							</split>
							<split pos="right">
								<output> -1.8047802448272705 </output>
							</split>
						</split>
					</split>
					<split pos="right">
						<output> 2.0 </output>
					</split>
				</split>
				<split pos="right">
					<output> 2.0 </output>
				</split>
			</split>
			<split pos="right">
				<feature> 7 </feature>
				<threshold> 0.140625 </threshold>
				<split pos="left">
					<output> -1.0003947019577026 </output>
				</split>
				<split pos="right">
					<output> -2.0 </output>
				</split>
			</split>
		</split>
	</tree>
	<tree id="2" weight="0.1">
		<split>
			<feature> 38 </feature>
			<threshold> 0.72265625 </threshold>
			<split pos="left">
				<feature> 35 </feature>
				<threshold> 0.3828125 </threshold>
				<split pos="left">
					<feature> 41 </feature>
					<threshold> 0.07421875 </threshold>
					<split pos="left">
						<output> -1.0680986642837524 </output>
					</split>
					<split pos="right">
						<feature> 39 </feature>
						<threshold> 0.8359375 </threshold>
						<split pos="left">
							<feature> 39 </feature>
							<threshold> 0.546875 </threshold>
							<split pos="left">
								<feature> 39 </feature>
								<threshold> 0.52734375 </threshold>
								<split pos="left">
									<output> -1.0671310424804688 </output>
								</split>
								<split pos="right">
									<output> -1.0493569374084473 </output>
								</split>
							</split>
							<split pos="right">
								<output> 0.6537238955497742 </output>
							</split>
						</split>
						<split pos="right">
							<output> 0.6666140556335449 </output>
						</split>
					</split>
				</split>
				<split pos="right">
					<feature> 18 </feature>
					<threshold> 0.006905803 </threshold>
					<split pos="left">
						<output> -1.060288429260254 </output>
					</split>
					<split pos="right">
						<output> 1.8680052757263184 </output>
					</split>
				</split>
			</split>
			<split pos="right">
				<feature> 14 </feature>
				<threshold> 0.004919008 </threshold>
				<split pos="left">
					<feature> 12 </feature>
					<threshold> 1.5446401E-4 </threshold>
					<split pos="left">
						<output> 1.8126873970031738 </output>
					</split>
					<split pos="right">
						<output> -1.7163035869598389 </output>
					</split>
				</split>
				<split pos="right">
					<output> 1.8130645751953125 </output>
				</split>
			</split>
		</split>
	</tree>
	<tree id="3" weight="0.1">
		<split>
			<feature> 36 </feature>
			<threshold> 0.390625 </threshold>
			<split pos="left">
				<feature> 39 </feature>
				<threshold> 0.91015625 </threshold>
				<split pos="left">
					<feature> 39 </feature>
					<threshold> 0.546875 </threshold>
					<split pos="left">
						<feature> 39 </feature>
						<threshold> 0.52734375 </threshold>
						<split pos="left">
							<output> -1.1496648788452148 </output>
						</split>
						<split pos="right">
							<output> -1.0537041425704956 </output>
						</split>
					</split>
					<split pos="right">
						<feature> 13 </feature>
						<threshold> 9.149131E-4 </threshold>
						<split pos="left">
							<output> 0.5121057629585266 </output>
						</split>
						<split pos="right">
							<output> -1.6908591985702515 </output>
						</split>
					</split>
				</split>
				<split pos="right">
					<output> 0.5041115283966064 </output>
				</split>
			</split>
			<split pos="right">
				<feature> 10 </feature>
				<threshold> 0.0 </threshold>
				<split pos="left">
					<feature> 31 </feature>
					<threshold> 0.00390625 </threshold>
					<split pos="left">
						<output> 1.610261082649231 </output>
					</split>
					<split pos="right">
						<feature> 5 </feature>
						<threshold> 0.5 </threshold>
						<split pos="left">
							<output> 1.6488670110702515 </output>
						</split>
						<split pos="right">
							<output> 1.6099916696548462 </output>
						</split>
					</split>
				</split>
				<split pos="right">
					<feature> 24 </feature>
					<threshold> 0.17391305 </threshold>
					<split pos="left">
						<output> -1.0589908361434937 </output>
					</split>
					<split pos="right">
						<output> 1.8681888580322266 </output>
					</split>
				</split>
			</split>
		</split>
	</tree>
	<tree id="4" weight="0.1">
		<split>
			<feature> 36 </feature>
			<threshold> 0.390625 </threshold>
			<split pos="left">
				<feature> 39 </feature>
				<threshold> 0.91015625 </threshold>
				<split pos="left">
					<feature> 39 </feature>
					<threshold> 0.546875 </threshold>
					<split pos="left">
						<feature> 39 </feature>
						<threshold> 0.52734375 </threshold>
						<split pos="left">
							<output> -1.0182476043701172 </output>
						</split>
						<split pos="right">
							<output> -1.0605818033218384 </output>
						</split>
					</split>
					<split pos="right">
						<output> 0.33907291293144226 </output>
					</split>
				</split>
				<split pos="right">
					<output> 0.3518925905227661 </output>
				</split>
			</split>
			<split pos="right">
				<feature> 10 </feature>
				<threshold> 0.0 </threshold>
				<split pos="left">
					<feature> 7 </feature>
					<threshold> 0.1796875 </threshold>
					<split pos="left">
						<feature> 5 </feature>
						<threshold> 0.40234375 </threshold>
						<split pos="left">
							<output> 1.4908385276794434 </output>
						</split>
						<split pos="right">
							<output> 1.4632270336151123 </output>
						</split>
					</split>
					<split pos="right">
						<output> 1.4634299278259277 </output>
					</split>
				</split>
				<split pos="right">
					<feature> 27 </feature>
					<threshold> 0.0 </threshold>
					<split pos="left">
						<feature> 6 </feature>
						<threshold> 0.66796875 </threshold>
						<split pos="left">
							<output> -1.5440059900283813 </output>
						</split>
						<split pos="right">
							<output> -1.056196689605713 </output>
						</split>
					</split>
					<split pos="right">
						<output> 1.642863154411316 </output>
					</split>
				</split>
			</split>
		</split>
	</tree>
	<tree id="5" weight="0.1">
		<split>
			<feature> 36 </feature>
			<threshold> 0.390625 </threshold>
			<split pos="left">
				<feature> 41 </feature>
				<threshold> 0.39453125 </threshold>
				<split pos="left">
					<feature> 17 </feature>
					<threshold> 0.00390625 </threshold>
					<split pos="left">
						<output> -1.3500688076019287 </output>
					</split>
					<split pos="right">
						<output> -1.1293326616287231 </output>
					</split>
				</split>
				<split pos="right">
					<feature> 38 </feature>
					<threshold> 0.57421875 </threshold>
					<split pos="left">
						<feature> 38 </feature>
						<threshold> 0.3984375 </threshold>
						<split pos="left">
							<output> -0.990602970123291 </output>
						</split>
						<split pos="right">
							<output> 0.22966445982456207 </output>
						</split>
					</split>
					<split pos="right">
						<output> 0.3981058895587921 </output>
					</split>
				</split>
			</split>
			<split pos="right">
				<feature> 23 </feature>
				<threshold> 0.0 </threshold>
				<split pos="left">
					<feature> 7 </feature>
					<threshold> 0.1796875 </threshold>
					<split pos="left">
						<feature> 5 </feature>
						<threshold> 0.40234375 </threshold>
						<split pos="left">
							<output> 1.3822215795516968 </output>
						</split>
						<split pos="right">
							<output> 1.3617233037948608 </output>
						</split>
					</split>
					<split pos="right">
						<output> 1.361890196800232 </output>
					</split>
				</split>
				<split pos="right">
					<feature> 39 </feature>
					<threshold> 0.58984375 </threshold>
					<split pos="left">
						<output> 1.4934148788452148 </output>
					</split>
					<split pos="right">
						<output> -1.428355097770691 </output>
					</split>
				</split>
			</split>
		</split>
	</tree>
	<tree id="6" weight="0.1">
		<split>
			<feature> 36 </feature>
			<threshold> 0.390625 </threshold>
			<split pos="left">
				<feature> 37 </feature>
				<threshold> 0.8828125 </threshold>
				<split pos="left">
					<feature> 38 </feature>
					<threshold> 0.55859375 </threshold>
					<split pos="left">
						<output> -0.720271646976471 </output>
					</split>
					<split pos="right">
						<feature> 31 </feature>
						<threshold> 0.05078125 </threshold>
						<split pos="left">
							<output> 0.09053551405668259 </output>
						</split>
						<split pos="right">
							<output> 0.48533958196640015 </output>
						</split>
					</split>
				</split>
				<split pos="right">
					<feature> 5 </feature>
					<threshold> 0.44140625 </threshold>
					<split pos="left">
						<output> -2.313739776611328 </output>
					</split>
					<split pos="right">
						<output> -1.2585068941116333 </output>
					</split>
				</split>
			</split>
			<split pos="right">
				<feature> 10 </feature>
				<threshold> 0.0 </threshold>
				<split pos="left">
					<feature> 7 </feature>
					<threshold> 0.1796875 </threshold>
					<split pos="left">
						<feature> 5 </feature>
						<threshold> 0.40234375 </threshold>
						<split pos="left">
							<output> 1.3016756772994995 </output>
						</split>
						<split pos="right">
							<output> 1.2860889434814453 </output>
						</split>
					</split>
					<split pos="right">
						<output> 1.286230444908142 </output>
					</split>
				</split>
				<split pos="right">
					<feature> 24 </feature>
					<threshold> 0.17391305 </threshold>
					<split pos="left">
						<output> -1.283860445022583 </output>
					</split>
					<split pos="right">
						<output> 1.385149359703064 </output>
					</split>
				</split>
			</split>
		</split>
	</tree>
	<tree id="7" weight="0.1">
		<split>
			<feature> 36 </feature>
			<threshold> 0.390625 </threshold>
			<split pos="left">
				<feature> 34 </feature>
				<threshold> 0.4921875 </threshold>
				<split pos="left">
					<feature> 38 </feature>
					<threshold> 0.57421875 </threshold>
					<split pos="left">
						<feature> 38 </feature>
						<threshold> 0.4296875 </threshold>
						<split pos="left">
							<output> -0.7431461811065674 </output>
						</split>
						<split pos="right">
							<feature> 8 </feature>
							<threshold> 0.47806463 </threshold>
							<split pos="left">
								<output> 0.11405202001333237 </output>
							</split>
							<split pos="right">
								<output> -1.258344292640686 </output>
							</split>
						</split>
					</split>
					<split pos="right">
						<output> 0.17844195663928986 </output>
					</split>
				</split>
				<split pos="right">
					<output> -1.2608791589736938 </output>
				</split>
			</split>
			<split pos="right">
				<feature> 10 </feature>
				<threshold> 0.0 </threshold>
				<split pos="left">
					<feature> 7 </feature>
					<threshold> 0.1796875 </threshold>
					<split pos="left">
						<feature> 5 </feature>
						<threshold> 0.40234375 </threshold>
						<split pos="left">
							<output> 1.2465546131134033 </output>
						</split>
						<split pos="right">
							<output> 1.2341793775558472 </output>
						</split>
					</split>
					<split pos="right">
						<output> 1.2342948913574219 </output>
					</split>
				</split>
				<split pos="right">
					<feature> 24 </feature>
					<threshold> 0.17391305 </threshold>
					<split pos="left">
						<output> -1.2841596603393555 </output>
					</split>
					<split pos="right">
						<output> 1.3121798038482666 </output>
					</split>
				</split>
			</split>
		</split>
	</tree>
	<tree id="8" weight="0.1">
		<split>
			<feature> 36 </feature>
			<threshold> 0.390625 </threshold>
			<split pos="left">
				<feature> 36 </feature>
				<threshold> 0.3515625 </threshold>
				<split pos="left">
					<feature> 41 </feature>
					<threshold> 0.07421875 </threshold>
					<split pos="left">
						<feature> 8 </feature>
						<threshold> 0.4023436 </threshold>
						<split pos="left">
							<output> -1.3170909881591797 </output>
						</split>
						<split pos="right">
							<output> -1.255549669265747 </output>
						</split>
					</split>
					<split pos="right">
						<feature> 38 </feature>
						<threshold> 0.57421875 </threshold>
						<split pos="left">
							<output> -0.6185236573219299 </output>
						</split>
						<split pos="right">
							<output> 0.09333901852369308 </output>
						</split>
					</split>
				</split>
				<split pos="right">
					<output> -1.2960929870605469 </output>
				</split>
			</split>
			<split pos="right">
				<feature> 23 </feature>
				<threshold> 0.0 </threshold>
				<split pos="left">
					<feature> 7 </feature>
					<threshold> 0.1796875 </threshold>
					<split pos="left">
						<feature> 5 </feature>
						<threshold> 0.40234375 </threshold>
						<split pos="left">
							<output> 1.2021610736846924 </output>
						</split>
						<split pos="right">
							<output> 1.1922544240951538 </output>
						</split>
					</split>
					<split pos="right">
						<output> 1.1923537254333496 </output>
					</split>
				</split>
				<split pos="right">
					<feature> 24 </feature>
					<threshold> 0.17391305 </threshold>
					<split pos="left">
						<output> -1.239240050315857 </output>
					</split>
					<split pos="right">
						<output> 1.2543065547943115 </output>
					</split>
				</split>
			</split>
		</split>
	</tree>
	<tree id="9" weight="0.1">
		<split>
			<feature> 36 </feature>
			<threshold> 0.390625 </threshold>
			<split pos="left">
				<feature> 39 </feature>
				<threshold> 0.56640625 </threshold>
				<split pos="left">
					<output> -0.5124926567077637 </output>
				</split>
				<split pos="right">
					<feature> 15 </feature>
					<threshold> 0.0 </threshold>
					<split pos="left">
						<output> -2.313931465148926 </output>
					</split>
					<split pos="right">
						<feature> 8 </feature>
						<threshold> 0.4023436 </threshold>
						<split pos="left">
							<output> -1.2317430973052979 </output>
						</split>
						<split pos="right">
							<feature> 9 </feature>
							<threshold> 0.0 </threshold>
							<split pos="left">
								<output> -0.14947399497032166 </output>
							</split>
							<split pos="right">
								<output> 0.11952453851699829 </output>
							</split>
						</split>
					</split>
				</split>
			</split>
			<split pos="right">
				<feature> 10 </feature>
				<threshold> 0.0 </threshold>
				<split pos="left">
					<feature> 7 </feature>
					<threshold> 0.1796875 </threshold>
					<split pos="left">
						<feature> 5 </feature>
						<threshold> 0.40234375 </threshold>
						<split pos="left">
							<output> 1.1685594320297241 </output>
						</split>
						<split pos="right">
							<output> 1.1604583263397217 </output>
						</split>
					</split>
					<split pos="right">
						<output> 1.1605418920516968 </output>
					</split>
				</split>
				<split pos="right">
					<feature> 8 </feature>
					<threshold> 0.43209115 </threshold>
					<split pos="left">
						<output> 1.2109447717666626 </output>
					</split>
					<split pos="right">
						<output> -1.119208812713623 </output>
					</split>
				</split>
			</split>
		</split>
	</tree>
	<tree id="10" weight="0.1">
		<split>
			<feature> 36 </feature>
			<threshold> 0.390625 </threshold>
			<split pos="left">
				<feature> 36 </feature>
				<threshold> 0.3515625 </threshold>
				<split pos="left">
					<feature> 35 </feature>
					<threshold> 0.26171875 </threshold>
					<split pos="left">
						<feature> 39 </feature>
						<threshold> 0.91015625 </threshold>
						<split pos="left">
							<output> -0.4544494152069092 </output>
						</split>
						<split pos="right">
							<output> -0.18870514631271362 </output>
						</split>
					</split>
					<split pos="right">
						<feature> 24 </feature>
						<threshold> 0.04347826 </threshold>
						<split pos="left">
							<output> -1.2735955715179443 </output>
						</split>
						<split pos="right">
							<output> -0.25210851430892944 </output>
						</split>
					</split>
				</split>
				<split pos="right">
					<output> -1.2932037115097046 </output>
				</split>
			</split>
			<split pos="right">
				<feature> 23 </feature>
				<threshold> 0.0 </threshold>
				<split pos="left">
					<feature> 7 </feature>
					<threshold> 0.1796875 </threshold>
					<split pos="left">
						<feature> 5 </feature>
						<threshold> 0.40234375 </threshold>
						<split pos="left">
							<output> 1.1425186395645142 </output>
						</split>
						<split pos="right">
							<output> 1.135780692100525 </output>
						</split>
					</split>
					<split pos="right">
						<output> 1.1358541250228882 </output>
					</split>
				</split>
				<split pos="right">
					<feature> 32 </feature>
					<threshold> 0.38671875 </threshold>
					<split pos="left">
						<output> 1.1776067018508911 </output>
					</split>
					<split pos="right">
						<output> -1.1849383115768433 </output>
					</split>
				</split>
			</split>
		</split>
	</tree>
	<tree id="11" weight="0.1">
		<split>
			<feature> 36 </feature>
			<threshold> 0.390625 </threshold>
			<split pos="left">
				<feature> 34 </feature>
				<threshold> 0.4921875 </threshold>
				<split pos="left">
					<feature> 38 </feature>
					<threshold> 0.4296875 </threshold>
					<split pos="left">
						<output> -0.46493926644325256 </output>
					</split>
					<split pos="right">
						<feature> 38 </feature>
						<threshold> 0.44921875 </threshold>
						<split pos="left">
							<output> -1.2745155096054077 </output>
						</split>
						<split pos="right">
							<feature> 30 </feature>
							<threshold> 0.0 </threshold>
							<split pos="left">
								<output> 0.0608157217502594 </output>
							</split>
							<split pos="right">
								<output> -0.21770313382148743 </output>
							</split>
						</split>
					</split>
				</split>
				<split pos="right">
					<output> -1.2716537714004517 </output>
				</split>
			</split>
			<split pos="right">
				<feature> 10 </feature>
				<threshold> 0.0 </threshold>
				<split pos="left">
					<feature> 31 </feature>
					<threshold> 0.00390625 </threshold>
					<split pos="left">
						<output> 1.1159019470214844 </output>
					</split>
					<split pos="right">
						<feature> 6 </feature>
						<threshold> 0.0 </threshold>
						<split pos="left">
							<output> 1.1158394813537598 </output>
						</split>
						<split pos="right">
							<output> 1.1215065717697144 </output>
						</split>
					</split>
				</split>
				<split pos="right">
					<feature> 38 </feature>
					<threshold> 0.3984375 </threshold>
					<split pos="left">
						<output> 1.1508967876434326 </output>
					</split>
					<split pos="right">
						<output> -1.1691895723342896 </output>
					</split>
				</split>
			</split>
		</split>
	</tree>
	<tree id="12" weight="0.1">
		<split>
			<feature> 36 </feature>
			<threshold> 0.390625 </threshold>
			<split pos="left">
				<feature> 37 </feature>
				<threshold> 0.8828125 </threshold>
				<split pos="left">
					<feature> 37 </feature>
					<threshold> 0.875 </threshold>
					<split pos="left">
						<feature> 11 </feature>
						<threshold> 0.0 </threshold>
						<split pos="left">
							<output> 0.25713714957237244 </output>
						</split>
						<split pos="right">
							<output> -0.9497063159942627 </output>
						</split>
					</split>
					<split pos="right">
						<output> -0.2451407015323639 </output>
					</split>
				</split>
				<split pos="right">
					<feature> 23 </feature>
					<threshold> 0.074074075 </threshold>
					<split pos="left">
						<output> -1.2535282373428345 </output>
					</split>
					<split pos="right">
						<output> -2.370591163635254 </output>
					</split>
				</split>
			</split>
			<split pos="right">
				<feature> 23 </feature>
				<threshold> 0.0 </threshold>
				<split pos="left">
					<feature> 7 </feature>
					<threshold> 0.1796875 </threshold>
					<split pos="left">
						<feature> 5 </feature>
						<threshold> 0.40234375 </threshold>
						<split pos="left">
							<output> 1.103705644607544 </output>
						</split>
						<split pos="right">
							<output> 1.098926067352295 </output>
						</split>
					</split>
					<split pos="right">
						<output> 1.098981261253357 </output>
					</split>
				</split>
				<split pos="right">
					<feature> 24 </feature>
					<threshold> 0.17391305 </threshold>
					<split pos="left">
						<output> -1.0161316394805908 </output>
					</split>
					<split pos="right">
						<output> 1.1284147500991821 </output>
					</split>
				</split>
			</split>
		</split>
	</tree>
	<tree id="13" weight="0.1">
		<split>
			<feature> 36 </feature>
			<threshold> 0.390625 </threshold>
			<split pos="left">
				<feature> 38 </feature>
				<threshold> 0.54296875 </threshold>
				<split pos="left">
					<feature> 10 </feature>
					<threshold> 0.007168459 </threshold>
					<split pos="left">
						<output> 0.34856152534484863 </output>
					</split>
					<split pos="right">
						<output> -0.8694435358047485 </output>
					</split>
				</split>
				<split pos="right">
					<feature> 35 </feature>
					<threshold> 0.01171875 </threshold>
					<split pos="left">
						<feature> 8 </feature>
						<threshold> 0.50240356 </threshold>
						<split pos="left">
							<output> 0.05231642723083496 </output>
						</split>
						<split pos="right">
							<output> -0.2515438199043274 </output>
						</split>
					</split>
					<split pos="right">
						<output> -1.2667683362960815 </output>
					</split>
				</split>
			</split>
			<split pos="right">
				<feature> 23 </feature>
				<threshold> 0.0 </threshold>
				<split pos="left">
					<feature> 7 </feature>
					<threshold> 0.1796875 </threshold>
					<split pos="left">
						<feature> 5 </feature>
						<threshold> 0.40234375 </threshold>
						<split pos="left">
							<output> 1.0891979932785034 </output>
						</split>
						<split pos="right">
							<output> 1.085152268409729 </output>
						</split>
					</split>
					<split pos="right">
						<output> 1.0852253437042236 </output>
					</split>
				</split>
				<split pos="right">
					<feature> 27 </feature>
					<threshold> 0.0 </threshold>
					<split pos="left">
						<output> -1.141017198562622 </output>
					</split>
					<split pos="right">
						<output> 1.1101285219192505 </output>
					</split>
				</split>
			</split>
		</split>
	</tree>
	<tree id="14" weight="0.1">
		<split>
			<feature> 35 </feature>
			<threshold> 0.28515625 </threshold>
			<split pos="left">
				<feature> 36 </feature>
				<threshold> 0.5234375 </threshold>
				<split pos="left">
					<feature> 38 </feature>
					<threshold> 0.75390625 </threshold>
					<split pos="left">
						<feature> 39 </feature>
						<threshold> 0.8515625 </threshold>
						<split pos="left">
							<feature> 11 </feature>
							<threshold> 0.0 </threshold>
							<split pos="left">
								<feature> 38 </feature>
								<threshold> 0.44921875 </threshold>
								<split pos="left">
									<output> -0.04174928367137909 </output>
								</split>
								<split pos="right">
									<output> -0.10472937673330307 </output>
								</split>
							</split>
							<split pos="right">
								<output> -1.117105484008789 </output>
							</split>
						</split>
						<split pos="right">
							<output> -0.2629551589488983 </output>
						</split>
					</split>
					<split pos="right">
						<output> -1.2309740781784058 </output>
					</split>
				</split>
				<split pos="right">
					<output> 1.073293924331665 </output>
				</split>
			</split>
			<split pos="right">
				<feature> 32 </feature>
				<threshold> 0.34765625 </threshold>
				<split pos="left">
					<feature> 1 </feature>
					<threshold> 1.0 </threshold>
					<split pos="left">
						<output> 1.0733771324157715 </output>
					</split>
					<split pos="right">
						<output> 1.7266860008239746 </output>
					</split>
				</split>
				<split pos="right">
					<feature> 38 </feature>
					<threshold> 0.3671875 </threshold>
					<split pos="left">
						<output> 1.0855783224105835 </output>
					</split>
					<split pos="right">
						<output> -1.1849324703216553 </output>
					</split>
				</split>
			</split>
		</split>
	</tree>
	<tree id="15" weight="0.1">
		<split>
			<feature> 35 </feature>
			<threshold> 0.28515625 </threshold>
			<split pos="left">
				<feature> 36 </feature>
				<threshold> 0.5234375 </threshold>
				<split pos="left">
					<feature> 35 </feature>
					<threshold> 0.26171875 </threshold>
					<split pos="left">
						<feature> 39 </feature>
						<threshold> 0.91015625 </threshold>
						<split pos="left">
							<feature> 39 </feature>
							<threshold> 0.546875 </threshold>
							<split pos="left">
								<output> -0.5712413787841797 </output>
							</split>
							<split pos="right">
								<output> -0.11847998201847076 </output>
							</split>
						</split>
						<split pos="right">
							<output> -0.2967863976955414 </output>
						</split>
					</split>
					<split pos="right">
						<feature> 7 </feature>
						<threshold> 0.171875 </threshold>
						<split pos="left">
							<output> -1.2704449892044067 </output>
						</split>
						<split pos="right">
							<output> -1.189857840538025 </output>
						</split>
					</split>
				</split>
				<split pos="right">
					<output> 1.0625618696212769 </output>
				</split>
			</split>
			<split pos="right">
				<feature> 32 </feature>
				<threshold> 0.37109375 </threshold>
				<split pos="left">
					<feature> 1 </feature>
					<threshold> 1.0 </threshold>
					<split pos="left">
						<output> 1.0626516342163086 </output>
					</split>
					<split pos="right">
						<output> 1.5762814283370972 </output>
					</split>
				</split>
				<split pos="right">
					<feature> 38 </feature>
					<threshold> 0.37109375 </threshold>
					<split pos="left">
						<output> 1.0729321241378784 </output>
					</split>
					<split pos="right">
						<output> -1.1573659181594849 </output>
					</split>
				</split>
			</split>
		</split>
	</tree>
	<tree id="16" weight="0.1">
		<split>
			<feature> 35 </feature>
			<threshold> 0.28515625 </threshold>
			<split pos="left">
				<feature> 39 </feature>
				<threshold> 0.91796875 </threshold>
				<split pos="left">
					<feature> 38 </feature>
					<threshold> 0.4296875 </threshold>
					<split pos="left">
						<feature> 39 </feature>
						<threshold> 0.546875 </threshold>
						<split pos="left">
							<output> -0.49268898367881775 </output>
						</split>
						<split pos="right">
							<output> -0.09853209555149078 </output>
						</split>
					</split>
					<split pos="right">
						<feature> 12 </feature>
						<threshold> 0.0018535681 </threshold>
						<split pos="left">
							<feature> 12 </feature>
							<threshold> 3.0892802E-4 </threshold>
							<split pos="left">
								<output> -0.322994202375412 </output>
							</split>
							<split pos="right">
								<output> -0.08058079332113266 </output>
							</split>
						</split>
						<split pos="right">
							<output> -1.233949899673462 </output>
						</split>
					</split>
				</split>
				<split pos="right">
					<output> 1.0531766414642334 </output>
				</split>
			</split>
			<split pos="right">
				<feature> 32 </feature>
				<threshold> 0.328125 </threshold>
				<split pos="left">
					<feature> 1 </feature>
					<threshold> 1.0 </threshold>
					<split pos="left">
						<output> 1.0532554388046265 </output>
					</split>
					<split pos="right">
						<output> 1.4666370153427124 </output>
					</split>
				</split>
				<split pos="right">
					<feature> 38 </feature>
					<threshold> 0.3828125 </threshold>
					<split pos="left">
						<output> 1.0619429349899292 </output>
					</split>
					<split pos="right">
						<output> -1.1341955661773682 </output>
					</split>
				</split>
			</split>
		</split>
	</tree>
	<tree id="17" weight="0.1">
		<split>
			<feature> 35 </feature>
			<threshold> 0.28515625 </threshold>
			<split pos="left">
				<feature> 34 </feature>
				<threshold> 0.73828125 </threshold>
				<split pos="left">
					<feature> 34 </feature>
					<threshold> 0.4921875 </threshold>
					<split pos="left">
						<feature> 39 </feature>
						<threshold> 0.91015625 </threshold>
						<split pos="left">
							<feature> 39 </feature>
							<threshold> 0.546875 </threshold>
							<split pos="left">
								<output> -0.42056992650032043 </output>
							</split>
							<split pos="right">
								<output> -0.2005387544631958 </output>
							</split>
						</split>
						<split pos="right">
							<output> -0.3489813208580017 </output>
						</split>
					</split>
					<split pos="right">
						<feature> 1 </feature>
						<threshold> 1.0 </threshold>
						<split pos="left">
							<output> -1.2750400304794312 </output>
						</split>
						<split pos="right">
							<output> -1.1774961948394775 </output>
						</split>
					</split>
				</split>
				<split pos="right">
					<output> 1.0455939769744873 </output>
				</split>
			</split>
			<split pos="right">
				<feature> 32 </feature>
				<threshold> 0.328125 </threshold>
				<split pos="left">
					<feature> 1 </feature>
					<threshold> 1.0 </threshold>
					<split pos="left">
						<output> 1.0456628799438477 </output>
					</split>
					<split pos="right">
						<output> 1.3848644495010376 </output>
					</split>
				</split>
				<split pos="right">
					<feature> 43 </feature>
					<threshold> 0.09445586 </threshold>
					<split pos="left">
						<output> 1.0530755519866943 </output>
					</split>
					<split pos="right">
						<output> -1.1166298389434814 </output>
					</split>
				</split>
			</split>
		</split>
	</tree>
	<tree id="18" weight="0.1">
		<split>
			<feature> 35 </feature>
			<threshold> 0.28515625 </threshold>
			<split pos="left">
				<feature> 34 </feature>
				<threshold> 0.73828125 </threshold>
				<split pos="left">
					<feature> 38 </feature>
					<threshold> 0.62890625 </threshold>
					<split pos="left">
						<feature> 39 </feature>
						<threshold> 0.546875 </threshold>
						<split pos="left">
							<output> -0.38708826899528503 </output>
						</split>
						<split pos="right">
							<feature> 12 </feature>
							<threshold> 1.5446401E-4 </threshold>
							<split pos="left">
								<output> -0.3687816262245178 </output>
							</split>
							<split pos="right">
								<output> -0.1480192095041275 </output>
							</split>
						</split>
					</split>
					<split pos="right">
						<feature> 8 </feature>
						<threshold> 0.4023436 </threshold>
						<split pos="left">
							<output> -1.2863335609436035 </output>
						</split>
						<split pos="right">
							<output> -0.3525339663028717 </output>
						</split>
					</split>
				</split>
				<split pos="right">
					<output> 1.0393999814987183 </output>
				</split>
			</split>
			<split pos="right">
				<feature> 32 </feature>
				<threshold> 0.328125 </threshold>
				<split pos="left">
					<feature> 1 </feature>
					<threshold> 1.0 </threshold>
					<split pos="left">
						<output> 1.0394598245620728 </output>
					</split>
					<split pos="right">
						<output> 1.322498083114624 </output>
					</split>
				</split>
				<split pos="right">
					<feature> 38 </feature>
					<threshold> 0.37109375 </threshold>
					<split pos="left">
						<output> 1.0458402633666992 </output>
					</split>
					<split pos="right">
						<output> -1.1040765047073364 </output>
					</split>
				</split>
			</split>
		</split>
	</tree>
	<tree id="19" weight="0.1">
		<split>
			<feature> 35 </feature>
			<threshold> 0.28515625 </threshold>
			<split pos="left">
				<feature> 38 </feature>
				<threshold> 0.84765625 </threshold>
				<split pos="left">
					<feature> 36 </feature>
					<threshold> 0.5234375 </threshold>
					<split pos="left">
						<feature> 39 </feature>
						<threshold> 0.8515625 </threshold>
						<split pos="left">
							<feature> 39 </feature>
							<threshold> 0.546875 </threshold>
							<split pos="left">
								<output> -0.37960031628608704 </output>
							</split>
							<split pos="right">
								<feature> 13 </feature>
								<threshold> 4.5745654E-4 </threshold>
								<split pos="left">
									<output> -0.27799925208091736 </output>
								</split>
								<split pos="right">
									<output> -0.1657237559556961 </output>
								</split>
							</split>
						</split>
						<split pos="right">
							<output> -0.3496069312095642 </output>
						</split>
					</split>
					<split pos="right">
						<output> 1.034179449081421 </output>
					</split>
				</split>
				<split pos="right">
					<output> -1.263582706451416 </output>
				</split>
			</split>
			<split pos="right">
				<feature> 41 </feature>
				<threshold> 0.55859375 </threshold>
				<split pos="left">
					<feature> 32 </feature>
					<threshold> 0.38671875 </threshold>
					<split pos="left">
						<feature> 7 </feature>
						<threshold> 0.1796875 </threshold>
						<split pos="left">
							<output> 1.0397474765777588 </output>
						</split>
						<split pos="right">
							<output> 1.0342316627502441 </output>
						</split>
					</split>
					<split pos="right">
						<output> -1.0939127206802368 </output>
					</split>
				</split>
				<split pos="right">
					<output> 1.2728285789489746 </output>
				</split>
			</split>
		</split>
	</tree>
	<tree id="20" weight="0.1">
		<split>
			<feature> 37 </feature>
			<threshold> 0.89453125 </threshold>
			<split pos="left">
				<feature> 35 </feature>
				<threshold> 0.28515625 </threshold>
				<split pos="left">
					<feature> 36 </feature>
					<threshold> 0.5234375 </threshold>
					<split pos="left">
						<feature> 39 </feature>
						<threshold> 0.91015625 </threshold>
						<split pos="left">
							<feature> 39 </feature>
							<threshold> 0.546875 </threshold>
							<split pos="left">
								<output> -0.17270976305007935 </output>
							</split>
							<split pos="right">
								<output> -0.2574635148048401 </output>
							</split>
						</split>
						<split pos="right">
							<output> -0.35281968116760254 </output>
						</split>
					</split>
					<split pos="right">
						<output> 1.029686689376831 </output>
					</split>
				</split>
				<split pos="right">
					<feature> 8 </feature>
					<threshold> 0.3536658 </threshold>
					<split pos="left">
						<output> 1.2317930459976196 </output>
					</split>
					<split pos="right">
						<feature> 32 </feature>
						<threshold> 0.38671875 </threshold>
						<split pos="left">
							<feature> 7 </feature>
							<threshold> 0.1796875 </threshold>
							<split pos="left">
								<output> 1.0345090627670288 </output>
							</split>
							<split pos="right">
								<output> 1.029732346534729 </output>
							</split>
						</split>
						<split pos="right">
							<output> -0.6334563493728638 </output>
						</split>
					</split>
				</split>
			</split>
			<split pos="right">
				<feature> 35 </feature>
				<threshold> 0.27734375 </threshold>
				<split pos="left">
					<output> -2.3292276859283447 </output>
				</split>
				<split pos="right">
					<output> -0.944091260433197 </output>
				</split>
			</split>
		</split>
	</tree>
	<tree id="21" weight="0.1">
		<split>
			<feature> 35 </feature>
			<threshold> 0.28515625 </threshold>
			<split pos="left">
				<feature> 35 </feature>
				<threshold> 0.26171875 </threshold>
				<split pos="left">
					<feature> 34 </feature>
					<threshold> 0.73828125 </threshold>
					<split pos="left">
						<feature> 39 </feature>
						<threshold> 0.91015625 </threshold>
						<split pos="left">
							<feature> 39 </feature>
							<threshold> 0.546875 </threshold>
							<split pos="left">
								<output> -0.27914029359817505 </output>
							</split>
							<split pos="right">
								<output> -0.24758191406726837 </output>
							</split>
						</split>
						<split pos="right">
							<output> -0.3312092125415802 </output>
						</split>
					</split>
					<split pos="right">
						<output> 1.0263288021087646 </output>
					</split>
				</split>
				<split pos="right">
					<feature> 25 </feature>
					<threshold> 0.00390625 </threshold>
					<split pos="left">
						<output> -1.234171748161316 </output>
					</split>
					<split pos="right">
						<output> -1.204037070274353 </output>
					</split>
				</split>
			</split>
			<split pos="right">
				<feature> 39 </feature>
				<threshold> 0.3359375 </threshold>
				<split pos="left">
					<output> 1.2017614841461182 </output>
				</split>
				<split pos="right">
					<feature> 32 </feature>
					<threshold> 0.38671875 </threshold>
					<split pos="left">
						<feature> 7 </feature>
						<threshold> 0.1796875 </threshold>
						<split pos="left">
							<output> 1.0305954217910767 </output>
						</split>
						<split pos="right">
							<output> 1.0263686180114746 </output>
						</split>
					</split>
					<split pos="right">
						<output> -1.0804115533828735 </output>
					</split>
				</split>
			</split>
		</split>
	</tree>
	<tree id="22" weight="0.1">
		<split>
			<feature> 35 </feature>
			<threshold> 0.28515625 </threshold>
			<split pos="left">
				<feature> 39 </feature>
				<threshold> 0.546875 </threshold>
				<split pos="left">
					<feature> 10 </feature>
					<threshold> 0.010752688 </threshold>
					<split pos="left">
						<output> 0.6861729621887207 </output>
					</split>
					<split pos="right">
						<output> -0.7338290810585022 </output>
					</split>
				</split>
				<split pos="right">
					<feature> 23 </feature>
					<threshold> 0.11111111 </threshold>
					<split pos="left">
						<feature> 39 </feature>
						<threshold> 0.91796875 </threshold>
						<split pos="left">
							<feature> 13 </feature>
							<threshold> 4.5745654E-4 </threshold>
							<split pos="left">
								<output> -0.2963479161262512 </output>
							</split>
							<split pos="right">
								<output> -0.1807033270597458 </output>
							</split>
						</split>
						<split pos="right">
							<output> 1.0231125354766846 </output>
						</split>
					</split>
					<split pos="right">
						<output> -2.262752056121826 </output>
					</split>
				</split>
			</split>
			<split pos="right">
				<feature> 17 </feature>
				<threshold> 0.01171875 </threshold>
				<split pos="left">
					<feature> 32 </feature>
					<threshold> 0.38671875 </threshold>
					<split pos="left">
						<feature> 7 </feature>
						<threshold> 0.1796875 </threshold>
						<split pos="left">
							<output> 1.0268497467041016 </output>
						</split>
						<split pos="right">
							<output> 1.0231473445892334 </output>
						</split>
					</split>
					<split pos="right">
						<output> -0.6222200989723206 </output>
					</split>
				</split>
				<split pos="right">
					<output> 1.1742769479751587 </output>
				</split>
			</split>
		</split>
	</tree>
	<tree id="23" weight="0.1">
		<split>
			<feature> 35 </feature>
			<threshold> 0.28515625 </threshold>
			<split pos="left">
				<feature> 36 </feature>
				<threshold> 0.5234375 </threshold>
				<split pos="left">
					<feature> 39 </feature>
					<threshold> 0.52734375 </threshold>
					<split pos="left">
						<output> -0.19516144692897797 </output>
					</split>
					<split pos="right">
						<feature> 43 </feature>
						<threshold> 0.09067763 </threshold>
						<split pos="left">
							<output> -1.251416563987732 </output>
						</split>
						<split pos="right">
							<feature> 12 </feature>
							<threshold> 3.0892802E-4 </threshold>
							<split pos="left">
								<output> -0.31901565194129944 </output>
							</split>
							<split pos="right">
								<feature> 12 </feature>
								<threshold> 6.1785604E-4 </threshold>
								<split pos="left">
									<output> -0.15997910499572754 </output>
								</split>
								<split pos="right">
									<output> -1.248422384262085 </output>
								</split>
							</split>
						</split>
					</split>
				</split>
				<split pos="right">
					<output> 1.0210453271865845 </output>
				</split>
			</split>
			<split pos="right">
				<feature> 39 </feature>
				<threshold> 0.30859375 </threshold>
				<split pos="left">
					<output> 1.155413031578064 </output>
				</split>
				<split pos="right">
					<feature> 32 </feature>
					<threshold> 0.38671875 </threshold>
					<split pos="left">
						<feature> 7 </feature>
						<threshold> 0.1796875 </threshold>
						<split pos="left">
							<output> 1.0244263410568237 </output>
						</split>
						<split pos="right">
							<output> 1.0210843086242676 </output>
						</split>
					</split>
					<split pos="right">
						<output> -1.0721935033798218 </output>
					</split>
				</split>
			</split>
		</split>
	</tree>
	<tree id="24" weight="0.1">
		<split>
			<feature> 35 </feature>
			<threshold> 0.28515625 </threshold>
			<split pos="left">
				<feature> 36 </feature>
				<threshold> 0.5234375 </threshold>
				<split pos="left">
					<feature> 39 </feature>
					<threshold> 0.91015625 </threshold>
					<split pos="left">
						<feature> 39 </feature>
						<threshold> 0.546875 </threshold>
						<split pos="left">
							<feature> 39 </feature>
							<threshold> 0.4375 </threshold>
							<split pos="left">
								<output> -0.34648123383522034 </output>
							</split>
							<split pos="right">
								<feature> 24 </feature>
								<threshold> 0.26086956 </threshold>
								<split pos="left">
									<output> -1.2417420148849487 </output>
								</split>
								<split pos="right">
									<output> 0.4575457274913788 </output>
								</split>
							</split>
						</split>
						<split pos="right">
							<feature> 12 </feature>
							<threshold> 4.6339203E-4 </threshold>
							<split pos="left">
								<output> -0.2502352297306061 </output>
							</split>
							<split pos="right">
								<output> -0.17136122286319733 </output>
							</split>
						</split>
					</split>
					<split pos="right">
						<output> -0.2816162109375 </output>
					</split>
				</split>
				<split pos="right">
					<output> 1.0186370611190796 </output>
				</split>
			</split>
			<split pos="right">
				<feature> 39 </feature>
				<threshold> 0.3125 </threshold>
				<split pos="left">
					<output> 1.136031150817871 </output>
				</split>
				<split pos="right">
					<feature> 32 </feature>
					<threshold> 0.38671875 </threshold>
					<split pos="left">
						<output> 1.0201127529144287 </output>
					</split>
					<split pos="right">
						<output> -1.0849486589431763 </output>
					</split>
				</split>
			</split>
		</split>
	</tree>
	<tree id="25" weight="0.1">
		<split>
			<feature> 35 </feature>
			<threshold> 0.28515625 </threshold>
			<split pos="left">
				<feature> 34 </feature>
				<threshold> 0.73828125 </threshold>
				<split pos="left">
					<feature> 39 </feature>
					<threshold> 0.91015625 </threshold>
					<split pos="left">
						<feature> 39 </feature>
						<threshold> 0.546875 </threshold>
						<split pos="left">
							<feature> 39 </feature>
							<threshold> 0.4375 </threshold>
							<split pos="left">
								<output> -0.2948441505432129 </output>
							</split>
							<split pos="right">
								<feature> 24 </feature>
								<threshold> 0.26086956 </threshold>
								<split pos="left">
									<output> -1.2240512371063232 </output>
								</split>
								<split pos="right">
									<output> 0.38422900438308716 </output>
								</split>
							</split>
						</split>
						<split pos="right">
							<feature> 13 </feature>
							<threshold> 0.0013723696 </threshold>
							<split pos="left">
								<output> -0.26371750235557556 </output>
							</split>
							<split pos="right">
								<output> -0.18412670493125916 </output>
							</split>
						</split>
					</split>
					<split pos="right">
						<output> -0.2890118956565857 </output>
					</split>
				</split>
				<split pos="right">
					<output> 1.016264796257019 </output>
				</split>
			</split>
			<split pos="right">
				<feature> 44 </feature>
				<threshold> 0.23580138 </threshold>
				<split pos="left">
					<feature> 32 </feature>
					<threshold> 0.38671875 </threshold>
					<split pos="left">
						<output> 1.0175515413284302 </output>
					</split>
					<split pos="right">
						<output> -1.077424168586731 </output>
					</split>
				</split>
				<split pos="right">
					<output> 1.1175265312194824 </output>
				</split>
			</split>
		</split>
	</tree>
	<tree id="26" weight="0.1">
		<split>
			<feature> 35 </feature>
			<threshold> 0.28515625 </threshold>
			<split pos="left">
				<feature> 39 </feature>
				<threshold> 0.91796875 </threshold>
				<split pos="left">
					<feature> 39 </feature>
					<threshold> 0.91015625 </threshold>
					<split pos="left">
						<feature> 39 </feature>
						<threshold> 0.546875 </threshold>
						<split pos="left">
							<feature> 39 </feature>
							<threshold> 0.4375 </threshold>
							<split pos="left">
								<output> -0.24946914613246918 </output>
							</split>
							<split pos="right">
								<feature> 10 </feature>
								<threshold> 0.0035842294 </threshold>
								<split pos="left">
									<output> 0.3221375346183777 </output>
								</split>
								<split pos="right">
									<output> -1.2084805965423584 </output>
								</split>
							</split>
						</split>
						<split pos="right">
							<feature> 12 </feature>
							<threshold> 4.6339203E-4 </threshold>
							<split pos="left">
								<output> -0.2688109576702118 </output>
							</split>
							<split pos="right">
								<output> -0.19235940277576447 </output>
							</split>
						</split>
					</split>
					<split pos="right">
						<output> -0.2896854877471924 </output>
					</split>
				</split>
				<split pos="right">
					<output> 1.0142704248428345 </output>
				</split>
			</split>
			<split pos="right">
				<feature> 36 </feature>
				<threshold> 0.390625 </threshold>
				<split pos="left">
					<output> 1.1022233963012695 </output>
				</split>
				<split pos="right">
					<feature> 32 </feature>
					<threshold> 0.38671875 </threshold>
					<split pos="left">
						<output> 1.015398383140564 </output>
					</split>
					<split pos="right">
						<output> -1.07102632522583 </output>
					</split>
				</split>
			</split>
		</split>
	</tree>
	<tree id="27" weight="0.1">
		<split>
			<feature> 35 </feature>
			<threshold> 0.28515625 </threshold>
			<split pos="left">
				<feature> 36 </feature>
				<threshold> 0.5234375 </threshold>
				<split pos="left">
					<feature> 39 </feature>
					<threshold> 0.91015625 </threshold>
					<split pos="left">
						<feature> 39 </feature>
						<threshold> 0.546875 </threshold>
						<split pos="left">
							<feature> 39 </feature>
							<threshold> 0.4375 </threshold>
							<split pos="left">
								<output> -0.20996831357479095 </output>
							</split>
							<split pos="right">
								<feature> 10 </feature>
								<threshold> 0.0035842294 </threshold>
								<split pos="left">
									<output> 0.26953911781311035 </output>
								</split>
								<split pos="right">
									<output> -1.1948492527008057 </output>
								</split>
							</split>
						</split>
						<split pos="right">
							<feature> 13 </feature>
							<threshold> 4.5745654E-4 </threshold>
							<split pos="left">
								<output> -0.26914727687835693 </output>
							</split>
							<split pos="right">
								<output> -0.19299939274787903 </output>
							</split>
						</split>
					</split>
					<split pos="right">
						<output> -0.2851063311100006 </output>
					</split>
				</split>
				<split pos="right">
					<output> 1.012579321861267 </output>
				</split>
			</split>
			<split pos="right">
				<feature> 38 </feature>
				<threshold> 0.2421875 </threshold>
				<split pos="left">
					<output> 1.089431881904602 </output>
				</split>
				<split pos="right">
					<feature> 32 </feature>
					<threshold> 0.38671875 </threshold>
					<split pos="left">
						<output> 1.0135730504989624 </output>
					</split>
					<split pos="right">
						<output> -1.0654672384262085 </output>
					</split>
				</split>
			</split>
		</split>
	</tree>
	<tree id="28" weight="0.1">
		<split>
			<feature> 35 </feature>
			<threshold> 0.28515625 </threshold>
			<split pos="left">
				<feature> 39 </feature>
				<threshold> 0.91796875 </threshold>
				<split pos="left">
					<feature> 39 </feature>
					<threshold> 0.91015625 </threshold>
					<split pos="left">
						<feature> 39 </feature>
						<threshold> 0.546875 </threshold>
						<split pos="left">
							<feature> 39 </feature>
							<threshold> 0.4375 </threshold>
							<split pos="left">
								<output> -0.17593887448310852 </output>
							</split>
							<split pos="right">
								<feature> 10 </feature>
								<threshold> 0.0035842294 </threshold>
								<split pos="left">
									<output> 0.2250559777021408 </output>
								</split>
								<split pos="right">
									<output> -1.1826558113098145 </output>
								</split>
							</split>
						</split>
						<split pos="right">
							<feature> 12 </feature>
							<threshold> 4.6339203E-4 </threshold>
							<split pos="left">
								<output> -0.26402753591537476 </output>
							</split>
							<split pos="right">
								<output> -0.19130317866802216 </output>
							</split>
						</split>
					</split>
					<split pos="right">
						<output> -0.27656832337379456 </output>
					</split>
				</split>
				<split pos="right">
					<output> 1.0111339092254639 </output>
				</split>
			</split>
			<split pos="right">
				<feature> 39 </feature>
				<threshold> 0.390625 </threshold>
				<split pos="left">
					<output> 1.0786349773406982 </output>
				</split>
				<split pos="right">
					<feature> 32 </feature>
					<threshold> 0.38671875 </threshold>
					<split pos="left">
						<output> 1.0120128393173218 </output>
					</split>
					<split pos="right">
						<output> -1.0605403184890747 </output>
					</split>
				</split>
			</split>
		</split>
	</tree>
	<tree id="29" weight="0.1">
		<split>
			<feature> 35 </feature>
			<threshold> 0.28515625 </threshold>
			<split pos="left">
				<feature> 34 </feature>
				<threshold> 0.73828125 </threshold>
				<split pos="left">
					<feature> 39 </feature>
					<threshold> 0.91015625 </threshold>
					<split pos="left">
						<feature> 39 </feature>
						<threshold> 0.546875 </threshold>
						<split pos="left">
							<feature> 39 </feature>
							<threshold> 0.4375 </threshold>
							<split pos="left">
								<output> -0.1468464583158493 </output>
							</split>
							<split pos="right">
								<feature> 10 </feature>
								<threshold> 0.0035842294 </threshold>
								<split pos="left">
									<output> 0.1875237673521042 </output>
								</split>
								<split pos="right">
									<output> -1.170910358428955 </output>
								</split>
							</split>
						</split>
						<split pos="right">
							<feature> 13 </feature>
							<threshold> 4.5745654E-4 </threshold>
							<split pos="left">
								<output> -0.25643953680992126 </output>
							</split>
							<split pos="right">
								<output> -0.1846231073141098 </output>
							</split>
						</split>
					</split>
					<split pos="right">
						<output> -0.26519137620925903 </output>
					</split>
				</split>
				<split pos="right">
					<output> 1.0098892450332642 </output>
				</split>
			</split>
			<split pos="right">
				<feature> 8 </feature>
				<threshold> 0.36989173 </threshold>
				<split pos="left">
					<output> 1.069440245628357 </output>
				</split>
				<split pos="right">
					<feature> 32 </feature>
					<threshold> 0.38671875 </threshold>
					<split pos="left">
						<output> 1.0106693506240845 </output>
					</split>
					<split pos="right">
						<output> -1.0560945272445679 </output>
					</split>
				</split>
			</split>
		</split>
	</tree>
	<tree id="30" weight="0.1">
		<split>
			<feature> 35 </feature>
			<threshold> 0.28515625 </threshold>
			<split pos="left">
				<feature> 34 </feature>
				<threshold> 0.73828125 </threshold>
				<split pos="left">
					<feature> 39 </feature>
					<threshold> 0.91015625 </threshold>
					<split pos="left">
						<feature> 39 </feature>
						<threshold> 0.546875 </threshold>
						<split pos="left">
							<feature> 39 </feature>
							<threshold> 0.4375 </threshold>
							<split pos="left">
								<output> -0.12218782305717468 </output>
							</split>
							<split pos="right">
								<output> 0.15398265421390533 </output>
							</split>
						</split>
						<split pos="right">
							<feature> 12 </feature>
							<threshold> 4.6339203E-4 </threshold>
							<split pos="left">
								<output> -0.24566055834293365 </output>
							</split>
							<split pos="right">
								<feature> 29 </feature>
								<threshold> 0.0 </threshold>
								<split pos="left">
									<output> -1.3022325038909912 </output>
								</split>
								<split pos="right">
									<output> -0.16740715503692627 </output>
								</split>
							</split>
						</split>
					</split>
					<split pos="right">
						<output> -0.2518901228904724 </output>
					</split>
				</split>
				<split pos="right">
					<output> 1.008810043334961 </output>
				</split>
			</split>
			<split pos="right">
				<feature> 36 </feature>
				<threshold> 0.3515625 </threshold>
				<split pos="left">
					<output> 1.0615472793579102 </output>
				</split>
				<split pos="right">
					<feature> 32 </feature>
					<threshold> 0.38671875 </threshold>
					<split pos="left">
						<output> 1.0095049142837524 </output>
					</split>
					<split pos="right">
						<output> -1.0520249605178833 </output>
					</split>
				</split>
			</split>
		</split>
	</tree>
	<tree id="31" weight="0.1">
		<split>
			<feature> 35 </feature>
			<threshold> 0.28515625 </threshold>
			<split pos="left">
				<feature> 39 </feature>
				<threshold> 0.546875 </threshold>
				<split pos="left">
					<feature> 11 </feature>
					<threshold> 0.0 </threshold>
					<split pos="left">
						<feature> 39 </feature>
						<threshold> 0.4375 </threshold>
						<split pos="left">
							<output> 0.743407666683197 </output>
						</split>
						<split pos="right">
							<output> 0.12766636908054352 </output>
						</split>
					</split>
					<split pos="right">
						<output> -0.9613074064254761 </output>
					</split>
				</split>
				<split pos="right">
					<feature> 32 </feature>
					<threshold> 0.42578125 </threshold>
					<split pos="left">
						<feature> 12 </feature>
						<threshold> 6.1785604E-4 </threshold>
						<split pos="left">
							<output> -0.21768862009048462 </output>
						</split>
						<split pos="right">
							<output> -1.2665324211120605 </output>
						</split>
					</split>
					<split pos="right">
						<feature> 34 </feature>
						<threshold> 0.50390625 </threshold>
						<split pos="left">
							<output> -1.2937887907028198 </output>
						</split>
						<split pos="right">
							<output> 1.0078672170639038 </output>
						</split>
					</split>
				</split>
			</split>
			<split pos="right">
				<feature> 39 </feature>
				<threshold> 0.4140625 </threshold>
				<split pos="left">
					<output> 1.0547118186950684 </output>
				</split>
				<split pos="right">
					<feature> 32 </feature>
					<threshold> 0.38671875 </threshold>
					<split pos="left">
						<output> 1.008487343788147 </output>
					</split>
					<split pos="right">
						<output> -1.0482512712478638 </output>
					</split>
				</split>
			</split>
		</split>
	</tree>
	<tree id="32" weight="0.1">
		<split>
			<feature> 35 </feature>
			<threshold> 0.28515625 </threshold>
			<split pos="left">
				<feature> 39 </feature>
				<threshold> 0.546875 </threshold>
				<split pos="left">
					<feature> 10 </feature>
					<threshold> 0.007168459 </threshold>
					<split pos="left">
						<feature> 39 </feature>
						<threshold> 0.4375 </threshold>
						<split pos="left">
							<output> 0.9246929883956909 </output>
						</split>
						<split pos="right">
							<output> 0.10945211350917816 </output>
						</split>
					</split>
					<split pos="right">
						<output> -0.7523380517959595 </output>
					</split>
				</split>
				<split pos="right">
					<feature> 32 </feature>
					<threshold> 0.41796875 </threshold>
					<split pos="left">
						<feature> 12 </feature>
						<threshold> 6.1785604E-4 </threshold>
						<split pos="left">
							<output> -0.2190968543291092 </output>
						</split>
						<split pos="right">
							<output> -1.267935872077942 </output>
						</split>
					</split>
					<split pos="right">
						<feature> 39 </feature>
						<threshold> 0.91015625 </threshold>
						<split pos="left">
							<output> -0.14744530618190765 </output>
						</split>
						<split pos="right">
							<output> 1.007290244102478 </output>
						</split>
					</split>
				</split>
			</split>
			<split pos="right">
				<feature> 36 </feature>
				<threshold> 0.3515625 </threshold>
				<split pos="left">
					<output> 1.0502839088439941 </output>
				</split>
				<split pos="right">
					<feature> 32 </feature>
					<threshold> 0.38671875 </threshold>
					<split pos="left">
						<output> 1.0078634023666382 </output>
					</split>
					<split pos="right">
						<output> -1.0447412729263306 </output>
					</split>
				</split>
			</split>
		</split>
	</tree>
	<tree id="33" weight="0.1">
		<split>
			<feature> 35 </feature>
			<threshold> 0.28515625 </threshold>
			<split pos="left">
				<feature> 39 </feature>
				<threshold> 0.546875 </threshold>
				<split pos="left">
					<feature> 23 </feature>
					<threshold> 0.037037037 </threshold>
					<split pos="left">
						<output> 0.6811007857322693 </output>
					</split>
					<split pos="right">
						<output> -0.6761612892150879 </output>
					</split>
				</split>
				<split pos="right">
					<feature> 32 </feature>
					<threshold> 0.42578125 </threshold>
					<split pos="left">
						<feature> 12 </feature>
						<threshold> 6.1785604E-4 </threshold>
						<split pos="left">
							<feature> 12 </feature>
							<threshold> 3.0892802E-4 </threshold>
							<split pos="left">
								<output> -0.2326868772506714 </output>
							</split>
							<split pos="right">
								<output> -0.13485877215862274 </output>
							</split>
						</split>
						<split pos="right">
							<output> -1.2344741821289062 </output>
						</split>
					</split>
					<split pos="right">
						<feature> 13 </feature>
						<threshold> 9.149131E-4 </threshold>
						<split pos="left">
							<output> 1.0068037509918213 </output>
						</split>
						<split pos="right">
							<output> -1.2770156860351562 </output>
						</split>
					</split>
				</split>
			</split>
			<split pos="right">
				<feature> 39 </feature>
				<threshold> 0.30859375 </threshold>
				<split pos="left">
					<output> 1.0465348958969116 </output>
				</split>
				<split pos="right">
					<feature> 32 </feature>
					<threshold> 0.38671875 </threshold>
					<split pos="left">
						<output> 1.007337212562561 </output>
					</split>
					<split pos="right">
						<output> -1.0414328575134277 </output>
					</split>
				</split>
			</split>
		</split>
	</tree>
	<tree id="34" weight="0.1">
		<split>
			<feature> 35 </feature>
			<threshold> 0.28515625 </threshold>
			<split pos="left">
				<feature> 39 </feature>
				<threshold> 0.546875 </threshold>
				<split pos="left">
					<feature> 11 </feature>
					<threshold> 0.0 </threshold>
					<split pos="left">
						<output> 0.517234206199646 </output>
					</split>
					<split pos="right">
						<output> -0.8934078216552734 </output>
					</split>
				</split>
				<split pos="right">
					<feature> 32 </feature>
					<threshold> 0.42578125 </threshold>
					<split pos="left">
						<feature> 12 </feature>
						<threshold> 6.1785604E-4 </threshold>
						<split pos="left">
							<feature> 12 </feature>
							<threshold> 3.0892802E-4 </threshold>
							<split pos="left">
								<output> -0.22415925562381744 </output>
							</split>
							<split pos="right">
								<output> -0.1375420242547989 </output>
							</split>
						</split>
						<split pos="right">
							<output> -1.2126494646072388 </output>
						</split>
					</split>
					<split pos="right">
						<feature> 13 </feature>
						<threshold> 4.5745654E-4 </threshold>
						<split pos="left">
							<output> 1.0063159465789795 </output>
						</split>
						<split pos="right">
							<output> -1.2507761716842651 </output>
						</split>
					</split>
				</split>
			</split>
			<split pos="right">
				<feature> 24 </feature>
				<threshold> 0.26086956 </threshold>
				<split pos="left">
					<feature> 32 </feature>
					<threshold> 0.38671875 </threshold>
					<split pos="left">
						<output> 1.006809949874878 </output>
					</split>
					<split pos="right">
						<output> -1.0376571416854858 </output>
					</split>
				</split>
				<split pos="right">
					<output> 1.0428801774978638 </output>
				</split>
			</split>
		</split>
	</tree>
	<tree id="35" weight="0.1">
		<split>
			<feature> 35 </feature>
			<threshold> 0.28515625 </threshold>
			<split pos="left">
				<feature> 39 </feature>
				<threshold> 0.546875 </threshold>
				<split pos="left">
					<feature> 10 </feature>
					<threshold> 0.010752688 </threshold>
					<split pos="left">
						<feature> 39 </feature>
						<threshold> 0.4375 </threshold>
						<split pos="left">
							<output> 0.688467264175415 </output>
						</split>
						<split pos="right">
							<output> -0.055534008890390396 </output>
						</split>
					</split>
					<split pos="right">
						<output> -0.7848531007766724 </output>
					</split>
				</split>
				<split pos="right">
					<feature> 12 </feature>
					<threshold> 6.1785604E-4 </threshold>
					<split pos="left">
						<feature> 32 </feature>
						<threshold> 0.42578125 </threshold>
						<split pos="left">
							<feature> 12 </feature>
							<threshold> 1.5446401E-4 </threshold>
							<split pos="left">
								<output> -0.2384861707687378 </output>
							</split>
							<split pos="right">
								<output> -0.15289433300495148 </output>
							</split>
						</split>
						<split pos="right">
							<output> 0.9965512752532959 </output>
						</split>
					</split>
					<split pos="right">
						<output> -1.2110068798065186 </output>
					</split>
				</split>
			</split>
			<split pos="right">
				<feature> 8 </feature>
				<threshold> 0.34555283 </threshold>
				<split pos="left">
					<output> 1.039955496788025 </output>
				</split>
				<split pos="right">
					<feature> 32 </feature>
					<threshold> 0.38671875 </threshold>
					<split pos="left">
						<output> 1.0063810348510742 </output>
					</split>
					<split pos="right">
						<output> -1.0344527959823608 </output>
					</split>
				</split>
			</split>
		</split>
	</tree>
	<tree id="36" weight="0.1">
		<split>
			<feature> 35 </feature>
			<threshold> 0.28515625 </threshold>
			<split pos="left">
				<feature> 39 </feature>
				<threshold> 0.546875 </threshold>
				<split pos="left">
					<feature> 11 </feature>
					<threshold> 0.0 </threshold>
					<split pos="left">
						<feature> 10 </feature>
						<threshold> 0.0035842294 </threshold>
						<split pos="left">
							<output> 0.7372977137565613 </output>
						</split>
						<split pos="right">
							<output> 0.11113245040178299 </output>
						</split>
					</split>
					<split pos="right">
						<output> -0.8471947312355042 </output>
					</split>
				</split>
				<split pos="right">
					<feature> 12 </feature>
					<threshold> 6.1785604E-4 </threshold>
					<split pos="left">
						<feature> 32 </feature>
						<threshold> 0.42578125 </threshold>
						<split pos="left">
							<feature> 12 </feature>
							<threshold> 3.0892802E-4 </threshold>
							<split pos="left">
								<output> -0.19367603957653046 </output>
							</split>
							<split pos="right">
								<output> -0.12277838587760925 </output>
							</split>
						</split>
						<split pos="right">
							<output> 0.9946354031562805 </output>
						</split>
					</split>
					<split pos="right">
						<output> -1.1941739320755005 </output>
					</split>
				</split>
			</split>
			<split pos="right">
				<feature> 8 </feature>
				<threshold> 0.35907444 </threshold>
				<split pos="left">
					<output> 1.0379542112350464 </output>
				</split>
				<split pos="right">
					<feature> 32 </feature>
					<threshold> 0.38671875 </threshold>
					<split pos="left">
						<output> 1.0060960054397583 </output>
					</split>
					<split pos="right">
						<output> -1.0319492816925049 </output>
					</split>
				</split>
			</split>
		</split>
	</tree>
	<tree id="37" weight="0.1">
		<split>
			<feature> 35 </feature>
			<threshold> 0.28515625 </threshold>
			<split pos="left">
				<feature> 39 </feature>
				<threshold> 0.4375 </threshold>
				<split pos="left">
					<feature> 23 </feature>
					<threshold> 0.037037037 </threshold>
					<split pos="left">
						<output> 0.7672131061553955 </output>
					</split>
					<split pos="right">
						<output> -0.5490868091583252 </output>
					</split>
				</split>
				<split pos="right">
					<feature> 13 </feature>
					<threshold> 9.149131E-4 </threshold>
					<split pos="left">
						<feature> 24 </feature>
						<threshold> 0.08695652 </threshold>
						<split pos="left">
							<feature> 1 </feature>
							<threshold> 0.0 </threshold>
							<split pos="left">
								<output> -0.11568643152713776 </output>
							</split>
							<split pos="right">
								<output> 0.9971890449523926 </output>
							</split>
						</split>
						<split pos="right">
							<output> -0.17460963129997253 </output>
						</split>
					</split>
					<split pos="right">
						<feature> 13 </feature>
						<threshold> 0.011436414 </threshold>
						<split pos="left">
							<output> -1.1928619146347046 </output>
						</split>
						<split pos="right">
							<output> -0.12215400487184525 </output>
						</split>
					</split>
				</split>
			</split>
			<split pos="right">
				<feature> 24 </feature>
				<threshold> 0.2173913 </threshold>
				<split pos="left">
					<feature> 32 </feature>
					<threshold> 0.38671875 </threshold>
					<split pos="left">
						<output> 1.0057662725448608 </output>
					</split>
					<split pos="right">
						<output> -1.0290580987930298 </output>
					</split>
				</split>
				<split pos="right">
					<output> 1.035719871520996 </output>
				</split>
			</split>
		</split>
	</tree>
	<tree id="38" weight="0.1">
		<split>
			<feature> 35 </feature>
			<threshold> 0.28515625 </threshold>
			<split pos="left">
				<feature> 39 </feature>
				<threshold> 0.4375 </threshold>
				<split pos="left">
					<feature> 11 </feature>
					<threshold> 0.0 </threshold>
					<split pos="left">
						<feature> 10 </feature>
						<threshold> 0.010752688 </threshold>
						<split pos="left">
							<output> 0.8710271120071411 </output>
						</split>
						<split pos="right">
							<output> -0.23957888782024384 </output>
						</split>
					</split>
					<split pos="right">
						<output> -0.7957369685173035 </output>
					</split>
				</split>
				<split pos="right">
					<feature> 13 </feature>
					<threshold> 9.149131E-4 </threshold>
					<split pos="left">
						<feature> 24 </feature>
						<threshold> 0.08695652 </threshold>
						<split pos="left">
							<feature> 1 </feature>
							<threshold> 0.0 </threshold>
							<split pos="left">
								<output> -0.10535029321908951 </output>
							</split>
							<split pos="right">
								<output> 0.9954900145530701 </output>
							</split>
						</split>
						<split pos="right">
							<output> -0.1571790874004364 </output>
						</split>
					</split>
					<split pos="right">
						<output> -0.11664339900016785 </output>
					</split>
				</split>
			</split>
			<split pos="right">
				<feature> 24 </feature>
				<threshold> 0.2173913 </threshold>
				<split pos="left">
					<feature> 32 </feature>
					<threshold> 0.38671875 </threshold>
					<split pos="left">
						<output> 1.005576252937317 </output>
					</split>
					<split pos="right">
						<output> -1.0269145965576172 </output>
					</split>
				</split>
				<split pos="right">
					<output> 1.0343637466430664 </output>
				</split>
			</split>
		</split>
	</tree>
	<tree id="39" weight="0.1">
		<split>
			<feature> 8 </feature>
			<threshold> 0.37530038 </threshold>
			<split pos="left">
				<feature> 23 </feature>
				<threshold> 0.0 </threshold>
				<split pos="left">
					<feature> 35 </feature>
					<threshold> 0.0625 </threshold>
					<split pos="left">
						<feature> 35 </feature>
						<threshold> 0.05078125 </threshold>
						<split pos="left">
							<output> 1.4044816493988037 </output>
						</split>
						<split pos="right">
							<output> 1.4060178995132446 </output>
						</split>
					</split>
					<split pos="right">
						<output> -1.4631463289260864 </output>
					</split>
				</split>
				<split pos="right">
					<feature> 36 </feature>
					<threshold> 0.2421875 </threshold>
					<split pos="left">
						<output> -1.391844391822815 </output>
					</split>
					<split pos="right">
						<output> 1.0338590145111084 </output>
					</split>
				</split>
			</split>
			<split pos="right">
				<feature> 8 </feature>
				<threshold> 0.38611767 </threshold>
				<split pos="left">
					<feature> 1 </feature>
					<threshold> 0.0 </threshold>
					<split pos="left">
						<output> -0.18795791268348694 </output>
					</split>
					<split pos="right">
						<output> -1.2099330425262451 </output>
					</split>
				</split>
				<split pos="right">
					<feature> 36 </feature>
					<threshold> 0.390625 </threshold>
					<split pos="left">
						<output> -1.1669727563858032 </output>
					</split>
					<split pos="right">
						<feature> 23 </feature>
						<threshold> 0.0 </threshold>
						<split pos="left">
							<output> 1.0051802396774292 </output>
						</split>
						<split pos="right">
							<output> 0.9651746153831482 </output>
						</split>
					</split>
				</split>
			</split>
		</split>
	</tree>
	<tree id="40" weight="0.1">
		<split>
			<feature> 8 </feature>
			<threshold> 0.37530038 </threshold>
			<split pos="left">
				<feature> 23 </feature>
				<threshold> 0.0 </threshold>
				<split pos="left">
					<feature> 35 </feature>
					<threshold> 0.0625 </threshold>
					<split pos="left">
						<feature> 35 </feature>
						<threshold> 0.05078125 </threshold>
						<split pos="left">
							<output> 1.328843116760254 </output>
						</split>
						<split pos="right">
							<feature> 5 </feature>
							<threshold> 0.0 </threshold>
							<split pos="left">
								<output> 1.3305426836013794 </output>
							</split>
							<split pos="right">
								<output> 1.329796314239502 </output>
							</split>
						</split>
					</split>
					<split pos="right">
						<output> -1.0737675428390503 </output>
					</split>
				</split>
				<split pos="right">
					<feature> 36 </feature>
					<threshold> 0.2421875 </threshold>
					<split pos="left">
						<output> -1.3314048051834106 </output>
					</split>
					<split pos="right">
						<output> 1.0273125171661377 </output>
					</split>
				</split>
			</split>
			<split pos="right">
				<feature> 8 </feature>
				<threshold> 0.38611767 </threshold>
				<split pos="left">
					<feature> 1 </feature>
					<threshold> 0.0 </threshold>
					<split pos="left">
						<output> -0.27910929918289185 </output>
					</split>
					<split pos="right">
						<output> -1.1650876998901367 </output>
					</split>
				</split>
				<split pos="right">
					<feature> 36 </feature>
					<threshold> 0.390625 </threshold>
					<split pos="left">
						<output> -1.1400023698806763 </output>
					</split>
					<split pos="right">
						<output> 0.9944940209388733 </output>
					</split>
				</split>
			</split>
		</split>
	</tree>
	<tree id="41" weight="0.1">
		<split>
			<feature> 8 </feature>
			<threshold> 0.37530038 </threshold>
			<split pos="left">
				<feature> 23 </feature>
				<threshold> 0.0 </threshold>
				<split pos="left">
					<feature> 37 </feature>
					<threshold> 0.33984375 </threshold>
					<split pos="left">
						<output> -0.946286678314209 </output>
					</split>
					<split pos="right">
						<feature> 35 </feature>
						<threshold> 0.05078125 </threshold>
						<split pos="left">
							<output> 1.2677878141403198 </output>
						</split>
						<split pos="right">
							<feature> 5 </feature>
							<threshold> 0.0 </threshold>
							<split pos="left">
								<output> 1.2691466808319092 </output>
							</split>
							<split pos="right">
								<output> 1.2685497999191284 </output>
							</split>
						</split>
					</split>
				</split>
				<split pos="right">
					<feature> 26 </feature>
					<threshold> 0.0 </threshold>
					<split pos="left">
						<output> -1.2696528434753418 </output>
					</split>
					<split pos="right">
						<output> 1.0220812559127808 </output>
					</split>
				</split>
			</split>
			<split pos="right">
				<feature> 8 </feature>
				<threshold> 0.38611767 </threshold>
				<split pos="left">
					<feature> 1 </feature>
					<threshold> 0.0 </threshold>
					<split pos="left">
						<output> -0.37713900208473206 </output>
					</split>
					<split pos="right">
						<output> -1.1302722692489624 </output>
					</split>
				</split>
				<split pos="right">
					<feature> 36 </feature>
					<threshold> 0.390625 </threshold>
					<split pos="left">
						<output> -1.061930537223816 </output>
					</split>
					<split pos="right">
						<output> 0.9915357828140259 </output>
					</split>
				</split>
			</split>
		</split>
	</tree>
	<tree id="42" weight="0.1">
		<split>
			<feature> 8 </feature>
			<threshold> 0.37530038 </threshold>
			<split pos="left">
				<feature> 23 </feature>
				<threshold> 0.0 </threshold>
				<split pos="left">
					<feature> 37 </feature>
					<threshold> 0.33984375 </threshold>
					<split pos="left">
						<output> -0.8374913930892944 </output>
					</split>
					<split pos="right">
						<feature> 35 </feature>
						<threshold> 0.05078125 </threshold>
						<split pos="left">
							<output> 1.2195713520050049 </output>
						</split>
						<split pos="right">
							<feature> 7 </feature>
							<threshold> 0.0 </threshold>
							<split pos="left">
								<output> 1.220184326171875 </output>
							</split>
							<split pos="right">
								<output> 1.2206645011901855 </output>
							</split>
						</split>
					</split>
				</split>
				<split pos="right">
					<feature> 35 </feature>
					<threshold> 0.1640625 </threshold>
					<split pos="left">
						<output> -1.2212401628494263 </output>
					</split>
					<split pos="right">
						<output> 1.0179851055145264 </output>
					</split>
				</split>
			</split>
			<split pos="right">
				<feature> 8 </feature>
				<threshold> 0.38611767 </threshold>
				<split pos="left">
					<feature> 1 </feature>
					<threshold> 0.0 </threshold>
					<split pos="left">
						<output> -0.4583421051502228 </output>
					</split>
					<split pos="right">
						<output> -1.1038609743118286 </output>
					</split>
				</split>
				<split pos="right">
					<feature> 36 </feature>
					<threshold> 0.390625 </threshold>
					<split pos="left">
						<output> -0.9914555549621582 </output>
					</split>
					<split pos="right">
						<output> 0.9884210824966431 </output>
					</split>
				</split>
			</split>
		</split>
	</tree>
	<tree id="43" weight="0.1">
		<split>
			<feature> 8 </feature>
			<threshold> 0.37530038 </threshold>
			<split pos="left">
				<feature> 23 </feature>
				<threshold> 0.0 </threshold>
				<split pos="left">
					<feature> 35 </feature>
					<threshold> 0.0625 </threshold>
					<split pos="left">
						<feature> 35 </feature>
						<threshold> 0.05078125 </threshold>
						<split pos="left">
							<output> 1.1811045408248901 </output>
						</split>
						<split pos="right">
							<feature> 5 </feature>
							<threshold> 0.0 </threshold>
							<split pos="left">
								<output> 1.1819875240325928 </output>
							</split>
							<split pos="right">
								<output> 1.181599497795105 </output>
							</split>
						</split>
					</split>
					<split pos="right">
						<output> -1.2421131134033203 </output>
					</split>
				</split>
				<split pos="right">
					<feature> 35 </feature>
					<threshold> 0.1640625 </threshold>
					<split pos="left">
						<output> -1.1834691762924194 </output>
					</split>
					<split pos="right">
						<output> 1.0147489309310913 </output>
					</split>
				</split>
			</split>
			<split pos="right">
				<feature> 8 </feature>
				<threshold> 0.38611767 </threshold>
				<split pos="left">
					<feature> 1 </feature>
					<threshold> 0.0 </threshold>
					<split pos="left">
						<output> -0.5236169695854187 </output>
					</split>
					<split pos="right">
						<output> -1.083620309829712 </output>
					</split>
				</split>
				<split pos="right">
					<feature> 36 </feature>
					<threshold> 0.390625 </threshold>
					<split pos="left">
						<output> -0.9257919192314148 </output>
					</split>
					<split pos="right">
						<output> 0.9848506450653076 </output>
					</split>
				</split>
			</split>
		</split>
	</tree>
	<tree id="44" weight="0.1">
		<split>
			<feature> 8 </feature>
			<threshold> 0.37530038 </threshold>
			<split pos="left">
				<feature> 23 </feature>
				<threshold> 0.0 </threshold>
				<split pos="left">
					<feature> 35 </feature>
					<threshold> 0.0625 </threshold>
					<split pos="left">
						<feature> 35 </feature>
						<threshold> 0.05078125 </threshold>
						<split pos="left">
							<output> 1.1501624584197998 </output>
						</split>
						<split pos="right">
							<feature> 7 </feature>
							<threshold> 0.0 </threshold>
							<split pos="left">
								<output> 1.1505663394927979 </output>
							</split>
							<split pos="right">
								<output> 1.1508830785751343 </output>
							</split>
						</split>
					</split>
					<split pos="right">
						<output> -0.6217005848884583 </output>
					</split>
				</split>
				<split pos="right">
					<feature> 35 </feature>
					<threshold> 0.1640625 </threshold>
					<split pos="left">
						<output> -1.1539636850357056 </output>
					</split>
					<split pos="right">
						<output> 1.0121710300445557 </output>
					</split>
				</split>
			</split>
			<split pos="right">
				<feature> 8 </feature>
				<threshold> 0.38611767 </threshold>
				<split pos="left">
					<feature> 1 </feature>
					<threshold> 0.0 </threshold>
					<split pos="left">
						<output> -0.5744885802268982 </output>
					</split>
					<split pos="right">
						<output> -1.0680129528045654 </output>
					</split>
				</split>
				<split pos="right">
					<feature> 36 </feature>
					<threshold> 0.390625 </threshold>
					<split pos="left">
						<output> -0.8632926344871521 </output>
					</split>
					<split pos="right">
						<output> 0.9807599782943726 </output>
					</split>
				</split>
			</split>
		</split>
	</tree>
	<tree id="45" weight="0.1">
		<split>
			<feature> 8 </feature>
			<threshold> 0.37530038 </threshold>
			<split pos="left">
				<feature> 23 </feature>
				<threshold> 0.0 </threshold>
				<split pos="left">
					<feature> 35 </feature>
					<threshold> 0.0625 </threshold>
					<split pos="left">
						<feature> 35 </feature>
						<threshold> 0.05078125 </threshold>
						<split pos="left">
							<output> 1.1251606941223145 </output>
						</split>
						<split pos="right">
							<feature> 5 </feature>
							<threshold> 0.0 </threshold>
							<split pos="left">
								<output> 1.1257514953613281 </output>
							</split>
							<split pos="right">
								<output> 1.1254918575286865 </output>
							</split>
						</split>
					</split>
					<split pos="right">
						<output> -0.5418587327003479 </output>
					</split>
				</split>
				<split pos="right">
					<feature> 9 </feature>
					<threshold> 0.0 </threshold>
					<split pos="left">
						<output> 1.0101057291030884 </output>
					</split>
					<split pos="right">
						<output> -1.1311843395233154 </output>
					</split>
				</split>
			</split>
			<split pos="right">
				<feature> 8 </feature>
				<threshold> 0.38611767 </threshold>
				<split pos="left">
					<feature> 1 </feature>
					<threshold> 0.0 </threshold>
					<split pos="left">
						<output> -0.6116704344749451 </output>
					</split>
					<split pos="right">
						<output> -1.0559515953063965 </output>
					</split>
				</split>
				<split pos="right">
					<feature> 36 </feature>
					<threshold> 0.390625 </threshold>
					<split pos="left">
						<output> -0.8024351596832275 </output>
					</split>
					<split pos="right">
						<output> 0.9762203693389893 </output>
					</split>
				</split>
			</split>
		</split>
	</tree>
	<tree id="46" weight="0.1">
		<split>
			<feature> 8 </feature>
			<threshold> 0.37530038 </threshold>
			<split pos="left">
				<feature> 23 </feature>
				<threshold> 0.0 </threshold>
				<split pos="left">
					<feature> 35 </feature>
					<threshold> 0.0625 </threshold>
					<split pos="left">
						<feature> 35 </feature>
						<threshold> 0.05078125 </threshold>
						<split pos="left">
							<output> 1.104865550994873 </output>
						</split>
						<split pos="right">
							<feature> 5 </feature>
							<threshold> 0.0 </threshold>
							<split pos="left">
								<output> 1.1053520441055298 </output>
							</split>
							<split pos="right">
								<output> 1.1051381826400757 </output>
							</split>
						</split>
					</split>
					<split pos="right">
						<output> -1.1354432106018066 </output>
					</split>
				</split>
				<split pos="right">
					<feature> 35 </feature>
					<threshold> 0.1640625 </threshold>
					<split pos="left">
						<output> -1.113935947418213 </output>
					</split>
					<split pos="right">
						<output> 1.0084413290023804 </output>
					</split>
				</split>
			</split>
			<split pos="right">
				<feature> 8 </feature>
				<threshold> 0.38611767 </threshold>
				<split pos="left">
					<feature> 1 </feature>
					<threshold> 0.0 </threshold>
					<split pos="left">
						<output> -0.6364486813545227 </output>
					</split>
					<split pos="right">
						<output> -1.0466465950012207 </output>
					</split>
				</split>
				<split pos="right">
					<feature> 36 </feature>
					<threshold> 0.390625 </threshold>
					<split pos="left">
						<output> -0.7423940300941467 </output>
					</split>
					<split pos="right">
						<output> 0.9707475304603577 </output>
					</split>
				</split>
			</split>
		</split>
	</tree>
	<tree id="47" weight="0.1">
		<split>
			<feature> 8 </feature>
			<threshold> 0.37530038 </threshold>
			<split pos="left">
				<feature> 23 </feature>
				<threshold> 0.0 </threshold>
				<split pos="left">
					<feature> 37 </feature>
					<threshold> 0.33984375 </threshold>
					<split pos="left">
						<output> -0.3478865921497345 </output>
					</split>
					<split pos="right">
						<feature> 35 </feature>
						<threshold> 0.05078125 </threshold>
						<split pos="left">
							<output> 1.0883092880249023 </output>
						</split>
						<split pos="right">
							<output> 1.0886293649673462 </output>
						</split>
					</split>
				</split>
				<split pos="right">
					<feature> 9 </feature>
					<threshold> 0.0 </threshold>
					<split pos="left">
						<output> 1.0070923566818237 </output>
					</split>
					<split pos="right">
						<output> -1.101125955581665 </output>
					</split>
				</split>
			</split>
			<split pos="right">
				<feature> 8 </feature>
				<threshold> 0.38611767 </threshold>
				<split pos="left">
					<feature> 1 </feature>
					<threshold> 0.0 </threshold>
					<split pos="left">
						<output> -0.6505776643753052 </output>
					</split>
					<split pos="right">
						<output> -1.039522647857666 </output>
					</split>
				</split>
				<split pos="right">
					<feature> 36 </feature>
					<threshold> 0.390625 </threshold>
					<split pos="left">
						<feature> 37 </feature>
						<threshold> 0.45703125 </threshold>
						<split pos="left">
							<output> -0.4805830419063568 </output>
						</split>
						<split pos="right">
							<output> -0.7415158748626709 </output>
						</split>
					</split>
					<split pos="right">
						<output> 0.9645244479179382 </output>
					</split>
				</split>
			</split>
		</split>
	</tree>
	<tree id="48" weight="0.1">
		<split>
			<feature> 8 </feature>
			<threshold> 0.37530038 </threshold>
			<split pos="left">
				<feature> 23 </feature>
				<threshold> 0.0 </threshold>
				<split pos="left">
					<feature> 35 </feature>
					<threshold> 0.0625 </threshold>
					<split pos="left">
						<feature> 35 </feature>
						<threshold> 0.05078125 </threshold>
						<split pos="left">
							<output> 1.074604868888855 </output>
						</split>
						<split pos="right">
							<output> 1.0748740434646606 </output>
						</split>
					</split>
					<split pos="right">
						<output> -0.3731899857521057 </output>
					</split>
				</split>
				<split pos="right">
					<feature> 9 </feature>
					<threshold> 0.0 </threshold>
					<split pos="left">
						<output> 1.0059800148010254 </output>
					</split>
					<split pos="right">
						<output> -1.0919681787490845 </output>
					</split>
				</split>
			</split>
			<split pos="right">
				<feature> 8 </feature>
				<threshold> 0.38611767 </threshold>
				<split pos="left">
					<feature> 5 </feature>
					<threshold> 0.0 </threshold>
					<split pos="left">
						<output> -1.034109354019165 </output>
					</split>
					<split pos="right">
						<output> -0.6533534526824951 </output>
					</split>
				</split>
				<split pos="right">
					<feature> 36 </feature>
					<threshold> 0.390625 </threshold>
					<split pos="left">
						<feature> 12 </feature>
						<threshold> 1.5446401E-4 </threshold>
						<split pos="left">
							<output> -0.35801875591278076 </output>
						</split>
						<split pos="right">
							<output> -0.8222928047180176 </output>
						</split>
					</split>
					<split pos="right">
						<output> 0.9574017524719238 </output>
					</split>
				</split>
			</split>
		</split>
	</tree>
	<tree id="49" weight="0.1">
		<split>
			<feature> 8 </feature>
			<threshold> 0.37530038 </threshold>
			<split pos="left">
				<feature> 23 </feature>
				<threshold> 0.0 </threshold>
				<split pos="left">
					<feature> 35 </feature>
					<threshold> 0.0625 </threshold>
					<split pos="left">
						<feature> 35 </feature>
						<threshold> 0.05078125 </threshold>
						<split pos="left">
							<output> 1.0641396045684814 </output>
						</split>
						<split pos="right">
							<output> 1.064376950263977 </output>
						</split>
					</split>
					<split pos="right">
						<output> -0.3388124704360962 </output>
					</split>
				</split>
				<split pos="right">
					<feature> 9 </feature>
					<threshold> 0.0 </threshold>
					<split pos="left">
						<output> 1.0051411390304565 </output>
					</split>
					<split pos="right">
						<output> -1.085816502571106 </output>
					</split>
				</split>
			</split>
			<split pos="right">
				<feature> 8 </feature>
				<threshold> 0.38611767 </threshold>
				<split pos="left">
					<feature> 1 </feature>
					<threshold> 0.0 </threshold>
					<split pos="left">
						<output> -0.6487773656845093 </output>
					</split>
					<split pos="right">
						<output> -1.0300772190093994 </output>
					</split>
				</split>
				<split pos="right">
					<feature> 36 </feature>
					<threshold> 0.390625 </threshold>
					<split pos="left">
						<feature> 12 </feature>
						<threshold> 1.5446401E-4 </threshold>
						<split pos="left">
							<output> -0.29885220527648926 </output>
						</split>
						<split pos="right">
							<output> -0.7717499732971191 </output>
						</split>
					</split>
					<split pos="right">
						<output> 0.9491986632347107 </output>
					</split>
				</split>
			</split>
		</split>
	</tree>
	<tree id="50" weight="0.1">
		<split>
			<feature> 8 </feature>
			<threshold> 0.37530038 </threshold>
			<split pos="left">
				<feature> 23 </feature>
				<threshold> 0.0 </threshold>
				<split pos="left">
					<feature> 37 </feature>
					<threshold> 0.33984375 </threshold>
					<split pos="left">
						<output> -0.28415611386299133 </output>
					</split>
					<split pos="right">
						<feature> 35 </feature>
						<threshold> 0.05078125 </threshold>
						<split pos="left">
							<output> 1.0555245876312256 </output>
						</split>
						<split pos="right">
							<output> 1.055735468864441 </output>
						</split>
					</split>
				</split>
				<split pos="right">
					<feature> 36 </feature>
					<threshold> 0.2421875 </threshold>
					<split pos="left">
						<output> -1.0820411443710327 </output>
					</split>
					<split pos="right">
						<output> 1.004452109336853 </output>
					</split>
				</split>
			</split>
			<split pos="right">
				<feature> 8 </feature>
				<threshold> 0.38611767 </threshold>
				<split pos="left">
					<feature> 1 </feature>
					<threshold> 0.0 </threshold>
					<split pos="left">
						<output> -0.6375365853309631 </output>
					</split>
					<split pos="right">
						<output> -1.0271525382995605 </output>
					</split>
				</split>
				<split pos="right">
					<feature> 36 </feature>
					<threshold> 0.390625 </threshold>
					<split pos="left">
						<feature> 12 </feature>
						<threshold> 1.5446401E-4 </threshold>
						<split pos="left">
							<output> -0.2389693260192871 </output>
						</split>
						<split pos="right">
							<output> -0.7285186052322388 </output>
						</split>
					</split>
					<split pos="right">
						<output> 0.9397401213645935 </output>
					</split>
				</split>
			</split>
		</split>
	</tree>
	<tree id="51" weight="0.1">
		<split>
			<feature> 8 </feature>
			<threshold> 0.37530038 </threshold>
			<split pos="left">
				<feature> 23 </feature>
				<threshold> 0.0 </threshold>
				<split pos="left">
					<feature> 37 </feature>
					<threshold> 0.33984375 </threshold>
					<split pos="left">
						<output> -0.23481252789497375 </output>
					</split>
					<split pos="right">
						<feature> 35 </feature>
						<threshold> 0.05078125 </threshold>
						<split pos="left">
							<output> 1.0484029054641724 </output>
						</split>
						<split pos="right">
							<output> 1.0485913753509521 </output>
						</split>
					</split>
				</split>
				<split pos="right">
					<feature> 35 </feature>
					<threshold> 0.1640625 </threshold>
					<split pos="left">
						<output> -1.0802487134933472 </output>
					</split>
					<split pos="right">
						<output> 1.0038832426071167 </output>
					</split>
				</split>
			</split>
			<split pos="right">
				<feature> 8 </feature>
				<threshold> 0.38611767 </threshold>
				<split pos="left">
					<feature> 1 </feature>
					<threshold> 0.0 </threshold>
					<split pos="left">
						<output> -0.6208340525627136 </output>
					</split>
					<split pos="right">
						<output> -1.0251128673553467 </output>
					</split>
				</split>
				<split pos="right">
					<feature> 36 </feature>
					<threshold> 0.390625 </threshold>
					<split pos="left">
						<feature> 10 </feature>
						<threshold> 0.0035842294 </threshold>
						<split pos="left">
							<output> -0.08384452760219574 </output>
						</split>
						<split pos="right">
							<output> -0.6435331106185913 </output>
						</split>
					</split>
					<split pos="right">
						<output> 0.9289590120315552 </output>
					</split>
				</split>
			</split>
		</split>
	</tree>
	<tree id="52" weight="0.1">
		<split>
			<feature> 8 </feature>
			<threshold> 0.37530038 </threshold>
			<split pos="left">
				<feature> 23 </feature>
				<threshold> 0.0 </threshold>
				<split pos="left">
					<feature> 35 </feature>
					<threshold> 0.0625 </threshold>
					<split pos="left">
						<feature> 35 </feature>
						<threshold> 0.05078125 </threshold>
						<split pos="left">
							<output> 1.0427852869033813 </output>
						</split>
						<split pos="right">
							<output> 1.0429579019546509 </output>
						</split>
					</split>
					<split pos="right">
						<output> -0.07684134691953659 </output>
					</split>
				</split>
				<split pos="right">
					<feature> 35 </feature>
					<threshold> 0.1640625 </threshold>
					<split pos="left">
						<output> -1.0797131061553955 </output>
					</split>
					<split pos="right">
						<output> 1.0034382343292236 </output>
					</split>
				</split>
			</split>
			<split pos="right">
				<feature> 8 </feature>
				<threshold> 0.38611767 </threshold>
				<split pos="left">
					<feature> 1 </feature>
					<threshold> 0.0 </threshold>
					<split pos="left">
						<output> -0.600469708442688 </output>
					</split>
					<split pos="right">
						<output> -1.0237711668014526 </output>
					</split>
				</split>
				<split pos="right">
					<feature> 36 </feature>
					<threshold> 0.390625 </threshold>
					<split pos="left">
						<feature> 12 </feature>
						<threshold> 1.5446401E-4 </threshold>
						<split pos="left">
							<output> -0.11669926345348358 </output>
						</split>
						<split pos="right">
							<output> -0.6523621082305908 </output>
						</split>
					</split>
					<split pos="right">
						<output> 0.9174761176109314 </output>
					</split>
				</split>
			</split>
		</split>
	</tree>
	<tree id="53" weight="0.1">
		<split>
			<feature> 8 </feature>
			<threshold> 0.37530038 </threshold>
			<split pos="left">
				<feature> 23 </feature>
				<threshold> 0.0 </threshold>
				<split pos="left">
					<feature> 35 </feature>
					<threshold> 0.0625 </threshold>
					<split pos="left">
						<feature> 35 </feature>
						<threshold> 0.05078125 </threshold>
						<split pos="left">
							<output> 1.0377898216247559 </output>
						</split>
						<split pos="right">
							<output> 1.0379469394683838 </output>
						</split>
					</split>
					<split pos="right">
						<output> -0.16210433840751648 </output>
					</split>
				</split>
				<split pos="right">
					<feature> 9 </feature>
					<threshold> 0.0 </threshold>
					<split pos="left">
						<output> 1.0030392408370972 </output>
					</split>
					<split pos="right">
						<output> -1.0801901817321777 </output>
					</split>
				</split>
			</split>
			<split pos="right">
				<feature> 8 </feature>
				<threshold> 0.38611767 </threshold>
				<split pos="left">
					<feature> 1 </feature>
					<threshold> 0.0 </threshold>
					<split pos="left">
						<output> -0.5765259861946106 </output>
					</split>
					<split pos="right">
						<output> -1.0229754447937012 </output>
					</split>
				</split>
				<split pos="right">
					<feature> 36 </feature>
					<threshold> 0.390625 </threshold>
					<split pos="left">
						<feature> 10 </feature>
						<threshold> 0.0035842294 </threshold>
						<split pos="left">
							<output> 0.025653650984168053 </output>
						</split>
						<split pos="right">
							<output> -0.5619945526123047 </output>
						</split>
					</split>
					<split pos="right">
						<output> 0.904727041721344 </output>
					</split>
				</split>
			</split>
		</split>
	</tree>
	<tree id="54" weight="0.1">
		<split>
			<feature> 8 </feature>
			<threshold> 0.37530038 </threshold>
			<split pos="left">
				<feature> 23 </feature>
				<threshold> 0.0 </threshold>
				<split pos="left">
					<feature> 35 </feature>
					<threshold> 0.0625 </threshold>
					<split pos="left">
						<feature> 35 </feature>
						<threshold> 0.05078125 </threshold>
						<split pos="left">
							<output> 1.0338354110717773 </output>
						</split>
						<split pos="right">
							<output> 1.0339837074279785 </output>
						</split>
					</split>
					<split pos="right">
						<output> -0.007744019851088524 </output>
					</split>
				</split>
				<split pos="right">
					<output> 0.786466658115387 </output>
				</split>
			</split>
			<split pos="right">
				<feature> 8 </feature>
				<threshold> 0.38611767 </threshold>
				<split pos="left">
					<feature> 1 </feature>
					<threshold> 0.0 </threshold>
					<split pos="left">
						<output> -0.5515226125717163 </output>
					</split>
					<split pos="right">
						<output> -1.0225862264633179 </output>
					</split>
				</split>
				<split pos="right">
					<feature> 36 </feature>
					<threshold> 0.390625 </threshold>
					<split pos="left">
						<feature> 10 </feature>
						<threshold> 0.017921148 </threshold>
						<split pos="left">
							<feature> 37 </feature>
							<threshold> 0.45703125 </threshold>
							<split pos="left">
								<output> 0.5200316309928894 </output>
							</split>
							<split pos="right">
								<output> -0.23460057377815247 </output>
							</split>
						</split>
						<split pos="right">
							<output> -0.8414713144302368 </output>
						</split>
					</split>
					<split pos="right">
						<output> 0.9290001392364502 </output>
					</split>
				</split>
			</split>
		</split>
	</tree>
	<tree id="55" weight="0.1">
		<split>
			<feature> 34 </feature>
			<threshold> 0.50390625 </threshold>
			<split pos="left">
				<feature> 8 </feature>
				<threshold> 0.37530038 </threshold>
				<split pos="left">
					<feature> 23 </feature>
					<threshold> 0.0 </threshold>
					<split pos="left">
						<feature> 37 </feature>
						<threshold> 0.33984375 </threshold>
						<split pos="left">
							<output> 0.8801931738853455 </output>
						</split>
						<split pos="right">
							<feature> 35 </feature>
							<threshold> 0.05078125 </threshold>
							<split pos="left">
								<output> 1.0304529666900635 </output>
							</split>
							<split pos="right">
								<output> 1.0305917263031006 </output>
							</split>
						</split>
					</split>
					<split pos="right">
						<output> 1.0024635791778564 </output>
					</split>
				</split>
				<split pos="right">
					<feature> 11 </feature>
					<threshold> 0.0034188034 </threshold>
					<split pos="left">
						<feature> 35 </feature>
						<threshold> 0.3671875 </threshold>
						<split pos="left">
							<feature> 10 </feature>
							<threshold> 0.032258064 </threshold>
							<split pos="left">
								<output> 1.3199304342269897 </output>
							</split>
							<split pos="right">
								<output> 0.7085162401199341 </output>
							</split>
						</split>
						<split pos="right">
							<output> 0.9759671092033386 </output>
						</split>
					</split>
					<split pos="right">
						<output> 0.7810025811195374 </output>
					</split>
				</split>
			</split>
			<split pos="right">
				<feature> 32 </feature>
				<threshold> 0.453125 </threshold>
				<split pos="left">
