network unknown {
}
variable accept_num {
    type discrete [ 5 ] { 0, 1, 2, 3, 4 };
}
variable author_identity {
    type discrete [ 3 ] { 0, 1, 2 };
}
variable body_words {
    type discrete [ 5 ] { 0, 1, 2, 3, 4 };
}
variable change_num {
    type discrete [ 5 ] { 0, 1, 2, 3, 4 };
}
variable close_num {
    type discrete [ 5 ] { 0, 1, 2, 3, 4 };
}
variable comment_num {
    type discrete [ 4 ] { 0, 1, 2, 3 };
}
variable commit_num {
    type discrete [ 3 ] { 0, 1, 4 };
}
variable file_changed_num {
    type discrete [ 5 ] { 0, 1, 2, 3, 4 };
}
variable has_assignees_content {
    type discrete [ 2 ] { 0, 1 };
}
variable has_bug {
    type discrete [ 2 ] { 0, 1 };
}
variable has_document {
    type discrete [ 2 ] { 0, 1 };
}
variable has_feature {
    type discrete [ 2 ] { 0, 1 };
}
variable has_improve {
    type discrete [ 2 ] { 0, 1 };
}
variable has_labels {
    type discrete [ 2 ] { 0, 1 };
}
variable has_refactor {
    type discrete [ 2 ] { 0, 1 };
}
variable is_weekday {
    type discrete [ 2 ] { 0, 1 };
}
variable label_count {
    type discrete [ 2 ] { 0, 1 };
}
variable mergable_state {
    type discrete [ 2 ] { 0, 2 };
}
variable participants_count {
    type discrete [ 3 ] { 0, 1, 3 };
}
variable pre_prs {
    type discrete [ 5 ] { 0, 1, 2, 3, 4 };
}
variable priorities_number {
    type discrete [ 5 ] { 0, 1, 2, 3, 4 };
}
variable review_comment_num {
    type discrete [ 2 ] { 0, 1 };
}
variable review_num {
    type discrete [ 2 ] { 0, 1 };
}
variable title_words {
    type discrete [ 5 ] { 0, 1, 2, 3, 4 };
}
variable total_add_line {
    type discrete [ 5 ] { 0, 1, 2, 3, 4 };
}
variable total_delete_line {
    type discrete [ 5 ] { 0, 1, 2, 3, 4 };
}
variable workload {
    type discrete [ 5 ] { 0, 1, 2, 3, 4 };
}
probability ( accept_num | close_num, pre_prs ) {
    table 0.964513108614232, 0.4222222222222222, 0.19999999999999998, 0.19999999999999998, 0.19999999999999998, 0.49268292682926845, 0.02960776043863348, 0.007692307692307692, 0.19999999999999998, 0.19999999999999998, 0.19999999999999998, 0.0017241379310344832, 7.630675314765357e-05, 0.0019801980198019807, 0.19999999999999998, 0.19999999999999998, 0.19999999999999998, 0.0014705882352941178, 6.631299734748011e-05, 0.0009049773755656108, 0.19999999999999998, 0.19999999999999998, 0.0030303030303030307, 0.0009708737864077671, 7.283321194464677e-05, 0.035205992509363286, 0.5611111111111111, 0.19999999999999998, 0.19999999999999998, 0.19999999999999998, 0.49268292682926845, 0.9110923660902571, 0.7769230769230769, 0.19999999999999998, 0.19999999999999998, 0.19999999999999998, 0.38965517241379316, 0.0649370469286532, 0.0019801980198019807, 0.19999999999999998, 0.19999999999999998, 0.19999999999999998, 0.0014705882352941178, 6.631299734748011e-05, 0.0009049773755656108, 0.19999999999999998, 0.19999999999999998, 0.0030303030303030307, 0.0009708737864077671, 7.283321194464677e-05, 9.36329588014981e-05, 0.005555555555555556, 0.19999999999999998, 0.19999999999999998, 0.19999999999999998, 0.004878048780487807, 0.0591311682834247, 0.2, 0.19999999999999998, 0.19999999999999998, 0.19999999999999998, 0.6051724137931035, 0.8146508966043496, 0.4475247524752476, 0.19999999999999998, 0.19999999999999998, 0.19999999999999998, 0.5529411764705883, 0.058090185676392576, 0.0009049773755656108, 0.19999999999999998, 0.19999999999999998, 0.987878787878788, 0.09805825242718448, 7.283321194464677e-05, 9.36329588014981e-05, 0.005555555555555556, 0.19999999999999998, 0.19999999999999998, 0.19999999999999998, 0.004878048780487807, 8.435259384226064e-05, 0.007692307692307692, 0.19999999999999998, 0.19999999999999998, 0.19999999999999998, 0.0017241379310344832, 0.12025944296070204, 0.5465346534653466, 0.19999999999999998, 0.19999999999999998, 0.19999999999999998, 0.44264705882352945, 0.8555039787798409, 0.5212669683257918, 0.19999999999999998, 0.19999999999999998, 0.0030303030303030307, 0.6805825242718447, 0.043772760378732706, 9.36329588014981e-05, 0.005555555555555556, 0.19999999999999998, 0.19999999999999998, 0.19999999999999998, 0.004878048780487807, 8.435259384226064e-05, 0.007692307692307692, 0.19999999999999998, 0.19999999999999998, 0.19999999999999998, 0.0017241379310344832, 7.630675314765357e-05, 0.0019801980198019807, 0.19999999999999998, 0.19999999999999998, 0.19999999999999998, 0.0014705882352941178, 0.08627320954907162, 0.4760180995475113, 0.19999999999999998, 0.19999999999999998, 0.0030303030303030307, 0.21941747572815534, 0.9560087399854335 ;
}
probability ( author_identity | commit_num, mergable_state, title_words ) {
    table 0.7459945291129348, 0.5960679177837355, 0.7176908752327747, 0.7202543142597638, 0.6712215320910974, 0.3005464480874317, 0.3978494623655914, 0.20218579234972678, 0.25333333333333335, 0.4155251141552511, 0.7255391789491216, 0.7056390158937514, 0.5984595115029898, 0.5534650360614614, 0.4282156643008343, 0.6229885057471265, 0.2868217054263566, 0.44761904761904764, 0.5913978494623656, 0.3989071038251366, 0.9047619047619048, 0.3333333333333333, 0.3333333333333333, 0.3333333333333333, 0.25333333333333335, 0.3333333333333333, 0.3333333333333333, 0.3333333333333333, 0.3333333333333333, 0.3333333333333333, 0.16920672137553733, 0.3065236818588025, 0.25512104283054005, 0.2461398728428701, 0.28364389233954457, 0.3005464480874317, 0.20430107526881724, 0.6939890710382514, 0.49333333333333335, 0.3333333333333333, 0.23690565409276376, 0.2510341824515568, 0.35218404783622176, 0.43493258074631547, 0.5021790561573901, 0.29195402298850576, 0.5658914728682171, 0.3790476190476191, 0.3978494623655914, 0.3005464480874317, 0.047619047619047616, 0.3333333333333333, 0.3333333333333333, 0.3333333333333333, 0.7333333333333334, 0.3333333333333333, 0.3333333333333333, 0.3333333333333333, 0.3333333333333333, 0.3333333333333333, 0.08479874951152795, 0.09740840035746201, 0.027188081936685288, 0.03360581289736603, 0.04513457556935818, 0.3989071038251366, 0.3978494623655914, 0.10382513661202186, 0.25333333333333335, 0.2511415525114155, 0.037555166958114755, 0.04332680165469193, 0.049356440660788495, 0.011602383192223268, 0.06960527954177563, 0.08505747126436781, 0.14728682170542637, 0.17333333333333334, 0.010752688172043012, 0.3005464480874317, 0.047619047619047616, 0.3333333333333333, 0.3333333333333333, 0.3333333333333333, 0.013333333333333334, 0.3333333333333333, 0.3333333333333333, 0.3333333333333333, 0.3333333333333333, 0.3333333333333333 ;
}
probability ( body_words | has_bug, has_document, has_feature, participants_count ) {
    table 0.19550982226379796, 0.13718261831252018, 0.09186546942245366, 0.4238341968911918, 0.47071583514099774, 0.4961439588688945, 0.6587030716723551, 0.7227722772277226, 0.2, 0.2, 0.2, 0.2, 0.5146009085009734, 0.3970956434651977, 0.36301886792452837, 0.656108597285068, 0.8620689655172412, 0.2, 0.6363636363636365, 0.485148514851485, 0.2, 0.2, 0.2, 0.2, 0.20343366532768392, 0.21349246578498687, 0.12884543860581268, 0.3740932642487047, 0.26247288503253796, 0.3727506426735218, 0.003412969283276451, 0.0099009900990099, 0.5918367346938777, 0.2, 0.2, 0.2, 0.24983776768332255, 0.26489734601902853, 0.2905660377358491, 0.22171945701357468, 0.03448275862068964, 0.2, 0.3246753246753248, 0.485148514851485, 0.2, 0.2, 0.2, 0.2, 0.23248775656193255, 0.24003502142758398, 0.19642952021677915, 0.07564766839378238, 0.21041214750542298, 0.12596401028277632, 0.24914675767918093, 0.2475247524752475, 0.10204081632653063, 0.2, 0.2, 0.2, 0.1719662556781311, 0.20480721081622433, 0.2, 0.11312217194570139, 0.03448275862068964, 0.2, 0.01298701298701299, 0.0099009900990099, 0.2, 0.2, 0.2, 0.2, 0.1968304627744456, 0.21349246578498687, 0.27038945858349717, 0.10051813471502592, 0.054229934924078085, 0.0025706940874035984, 0.08532423208191128, 0.0099009900990099, 0.10204081632653063, 0.2, 0.2, 0.2, 0.0006489292667099286, 0.10866299449173758, 0.12754716981132078, 0.004524886877828055, 0.03448275862068964, 0.2, 0.01298701298701299, 0.0099009900990099, 0.2, 0.2, 0.2, 0.2, 0.17173829307214, 0.19579742868992214, 0.31247011317145745, 0.025906735751295342, 0.0021691973969631233, 0.0025706940874035984, 0.003412969283276451, 0.0099009900990099, 0.004081632653061225, 0.2, 0.2, 0.2, 0.06294613887086309, 0.024536805207811714, 0.01886792452830189, 0.004524886877828055, 0.03448275862068964, 0.2, 0.01298701298701299, 0.0099009900990099, 0.2, 0.2, 0.2, 0.2 ;
}
probability ( change_num | accept_num, author_identity, close_num, workload ) {
    table 0.4064816822024713, 0.5633120540743521, 0.7461599681655391, 0.48380993334766714, 0.2, 0.2, 0.0008849557522123892, 0.7984042553191492, 0.2, 0.2, 0.2, 0.2, 0.2, 0.2, 0.2, 0.2, 0.2, 0.2, 0.2, 0.2, 0.2, 0.2, 0.2, 0.2, 0.2, 0.9997193967029109, 0.9993730407523511, 0.9995154451847366, 0.9992895204262878, 0.2, 0.2, 0.2, 0.9989347536617844, 0.2, 0.2, 0.2, 0.2, 0.2, 0.2, 0.2, 0.2, 0.2, 0.2, 0.2, 0.2, 0.2, 0.2, 0.2, 0.2, 0.2, 0.2, 0.2, 0.2, 0.2, 0.2, 0.2, 0.2, 0.2, 0.2, 0.2, 0.2, 0.2, 0.2, 0.2, 0.2, 0.2, 0.2, 0.2, 0.2, 0.2, 0.2, 0.2, 0.2, 0.2, 0.2, 0.001324503311258278, 0.0026315789473684214, 0.2, 0.2, 0.2, 0.12330168005843678, 0.05663983903420523, 0.2702449567723343, 0.23254804711717286, 8.329862557267801e-05, 0.0013245033112582777, 0.0002421307506053269, 0.2, 0.0013245033112582777, 0.0006644518272425252, 0.2, 0.2, 0.2, 0.2, 0.2, 0.2, 0.2, 0.2, 0.2, 0.2, 0.000443458980044346, 0.0008849557522123892, 0.002631578947368422, 0.49933481152993353, 0.2, 0.13209255533199193, 0.2646805174441395, 0.6921394395078605, 0.7271662290446373, 0.00029585798816568053, 0.2, 0.2, 0.1667405764966741, 0.9158712541620423, 0.0026315789473684214, 0.2, 0.2, 0.2, 0.2, 0.2, 0.2, 0.2, 0.2, 0.2, 0.2, 0.2, 0.2, 0.2, 0.2, 0.2, 0.2, 0.2, 0.9894736842105266, 0.2, 0.2, 0.2, 0.2, 0.2, 0.2, 0.2, 0.2, 0.2, 0.2, 0.2, 0.2, 0.2, 0.2, 0.2, 0.2, 0.2, 0.2, 0.2, 0.2, 0.2, 0.2, 0.2, 0.2, 0.0026315789473684214, 0.2, 0.2, 0.3599147121535181, 0.16002132196162047, 0.16001066382298051, 0.10347046655941163, 0.01591197630131189, 0.00020491803278688527, 0.0013245033112582781, 0.2, 0.000664451827242525, 0.0008849557522123893, 0.00015673981191222572, 0.2, 0.2, 0.2, 0.2, 0.2, 0.2, 0.2, 0.2, 0.2, 0.0003327787021630616, 0.0006644518272425252, 0.000443458980044346, 0.00044345898004434584, 0.2, 0.07044686443860305, 0.033407374500222124, 0.15792426367461432, 0.25579665220086795, 6.664445184938353e-05, 0.0008849557522123893, 0.00029585798816568053, 0.0003327787021630616, 0.000664451827242525, 0.000664451827242525, 0.2, 0.2, 0.2, 0.2, 0.2, 0.2, 0.2, 0.2, 0.2, 0.2, 0.2, 0.9973421926910302, 0.2, 0.2, 0.2, 0.2, 0.5989361702127659, 0.7992010652463383, 0.5450363196125908, 0.2, 0.2, 0.2, 0.2, 0.2, 0.2, 0.2, 0.2, 0.2, 0.2, 0.2, 0.2, 0.2, 0.2, 0.2, 0.2, 0.2, 0.2, 0.2, 0.2, 0.2, 0.0026315789473684214, 0.000664451827242525, 0.2855513307984791, 0.0003802281368821293, 0.00022197558268590456, 0.046906894397000624, 0.045485760452433854, 0.03490931638505658, 3.2123353678123996e-05, 3.703017959637104e-05, 0.0001269035532994924, 0.0006644518272425248, 0.000664451827242525, 0.000664451827242525, 0.00038022813688212925, 0.2, 0.2, 0.2, 0.2, 0.2, 0.2, 0.2, 0.2, 0.2, 0.2, 0.00014025245441795232, 0.00029585798816568053, 0.0008849557522123894, 0.0003802281368821293, 0.2, 6.34719136781974e-05, 0.00010660980810234542, 0.0001110494169905608, 9.519276534983341e-05, 6.501950585175553e-05, 0.2, 0.0026315789473684214, 0.2, 0.0005319148936170212, 0.0008849557522123893, 0.2, 0.2, 0.2, 0.2, 0.2, 0.2, 0.2, 0.2, 0.2, 0.2, 0.2, 0.2, 0.001324503311258278, 0.0008849557522123893, 0.2, 0.2, 0.2, 0.2, 0.0003802281368821293, 0.00020491803278688527, 0.2, 0.2, 0.2, 0.2, 0.0008849557522123893, 0.2, 0.2, 0.2, 0.2, 0.2, 0.2, 0.2, 0.2, 0.2, 0.2, 0.2, 0.2, 0.2, 0.2, 0.2, 0.0003327787021630616, 0.000664451827242525, 0.00038022813688212925, 0.0006644518272425248, 0.00013324450366422385, 0.037776659959758555, 0.014962196577795461, 4.1017227235438884e-05, 0.016433566433566433, 2.0510716849553894e-05, 0.2, 0.2, 0.2, 0.2, 0.2, 0.2, 0.2, 0.2, 0.2, 0.2, 0.2, 0.2, 0.2, 0.2, 0.2, 0.00026631158455392814, 0.0003802281368821293, 0.001324503311258278, 0.2, 0.00038022813688212925, 0.0003327787021630615, 0.0005319148936170213, 0.00022197558268590453, 0.00024213075060532685, 7.404664938911513e-05, 0.2, 0.2, 0.2, 0.2, 0.2, 0.2, 0.2, 0.2, 0.2, 0.2, 0.2, 0.2, 0.2, 0.2, 0.2, 0.0026315789473684214, 0.2, 0.2, 0.2, 0.0008849557522123893, 0.00013324450366422385, 0.00022197558268590456, 0.00024213075060532685, 0.00014025245441795232, 0.0001110494169905608, 0.29267288098851074, 0.3380022530980097, 0.20895344210107436, 0.29030316061062134, 0.2, 0.2, 0.9964601769911502, 0.20000000000000004, 0.2, 0.2, 0.2, 0.2, 0.2, 0.2, 0.2, 0.2, 0.2, 0.2, 0.2, 0.2, 0.2, 0.2, 0.2, 0.2, 0.2, 7.015082427218517e-05, 0.00015673981191222572, 0.00012113870381586917, 0.00017761989342806396, 0.2, 0.2, 0.2, 0.00026631158455392814, 0.2, 0.2, 0.2, 0.2, 0.2, 0.2, 0.2, 0.2, 0.2, 0.2, 0.2, 0.2, 0.2, 0.2, 0.2, 0.2, 0.2, 0.2, 0.2, 0.2, 0.2, 0.2, 0.2, 0.2, 0.2, 0.2, 0.2, 0.2, 0.2, 0.2, 0.2, 0.2, 0.2, 0.2, 0.2, 0.2, 0.2, 0.2, 0.2, 0.2, 0.2, 0.2, 0.001324503311258278, 0.0026315789473684214, 0.2, 0.2, 0.2, 0.3698319941563184, 0.4527665995975855, 0.6214697406340057, 0.7672659640421573, 0.9996668054977089, 0.9947019867549666, 0.36343825665859564, 0.598936170212766, 0.9947019867549666, 0.9973421926910302, 0.2, 0.2, 0.2, 0.2, 0.2, 0.2, 0.2, 0.2, 0.2, 0.2, 0.9982261640798228, 0.9964601769911502, 0.9894736842105266, 0.49933481152993353, 0.2, 0.5093561368209255, 0.2940807526460211, 0.15386192754613806, 0.18182185417087451, 0.22218934911242608, 0.2, 0.2, 0.000443458980044346, 0.00022197558268590456, 0.0026315789473684214, 0.2, 0.2, 0.2, 0.2, 0.2, 0.2, 0.2, 0.2, 0.2, 0.2, 0.2, 0.2, 0.2, 0.2, 0.2, 0.2, 0.2, 0.002631578947368422, 0.2, 0.2, 0.2, 0.2, 0.2, 0.2, 0.2, 0.2, 0.2, 0.2, 0.2, 0.2, 0.2, 0.2, 0.2, 0.2, 0.2, 0.2, 0.2, 0.2, 0.2, 0.2, 0.2, 0.2, 0.0026315789473684214, 0.2, 0.2, 0.08006396588486142, 0.16002132196162047, 0.1400159957344708, 0.20689496667432772, 0.17460854845535334, 0.00020491803278688527, 0.0013245033112582781, 0.2, 0.000664451827242525, 0.0008849557522123893, 0.00015673981191222572, 0.2, 0.2, 0.2, 0.2, 0.2, 0.2, 0.2, 0.2, 0.2, 0.9986688851913479, 0.9973421926910302, 0.9982261640798228, 0.4993348115299335, 0.2, 0.6055576417574163, 0.13336294980008884, 0.00014025245441795232, 0.09305641661500309, 6.664445184938353e-05, 0.0008849557522123893, 0.11124260355029587, 0.12512479201331117, 0.000664451827242525, 0.000664451827242525, 0.2, 0.2, 0.2, 0.2, 0.2, 0.2, 0.2, 0.2, 0.2, 0.2, 0.2, 0.0006644518272425252, 0.2, 0.2, 0.2, 0.2, 0.0005319148936170212, 0.00026631158455392814, 0.0002421307506053269, 0.2, 0.2, 0.2, 0.2, 0.2, 0.2, 0.2, 0.2, 0.2, 0.2, 0.2, 0.2, 0.2, 0.2, 0.2, 0.2, 0.2, 0.2, 0.2, 0.2, 0.2, 0.0026315789473684214, 0.4990033222591363, 0.0003802281368821293, 0.1429657794676806, 0.00022197558268590456, 0.18750260362424495, 0.30300949303171076, 0.06978762982483336, 0.0723096691294571, 3.703017959637104e-05, 0.0001269035532994924, 0.0006644518272425248, 0.000664451827242525, 0.000664451827242525, 0.00038022813688212925, 0.2, 0.2, 0.2, 0.2, 0.2, 0.2, 0.2, 0.2, 0.2, 0.2, 0.4208976157082749, 0.11124260355029587, 0.3327433628318584, 0.0003802281368821293, 0.2, 0.38089495398286255, 0.3199360341151386, 0.33325930038867296, 9.519276534983341e-05, 6.501950585175553e-05, 0.2, 0.0026315789473684214, 0.2, 0.0005319148936170212, 0.0008849557522123893, 0.2, 0.2, 0.2, 0.2, 0.2, 0.2, 0.2, 0.2, 0.2, 0.2, 0.2, 0.2, 0.001324503311258278, 0.0008849557522123893, 0.2, 0.2, 0.2, 0.2, 0.0003802281368821293, 0.00020491803278688527, 0.2, 0.2, 0.2, 0.2, 0.0008849557522123893, 0.2, 0.2, 0.2, 0.2, 0.2, 0.2, 0.2, 0.2, 0.2, 0.2, 0.2, 0.2, 0.2, 0.2, 0.2, 0.12512479201331117, 0.000664451827242525, 0.00038022813688212925, 0.0006644518272425248, 0.00013324450366422385, 5.0301810865191146e-05, 0.029884600079586154, 4.1017227235438884e-05, 4.3706293706293706e-05, 2.0510716849553894e-05, 0.2, 0.2, 0.2, 0.2, 0.2, 0.2, 0.2, 0.2, 0.2, 0.2, 0.2, 0.2, 0.2, 0.2, 0.2, 0.00026631158455392814, 0.1429657794676806, 0.001324503311258278, 0.2, 0.2855513307984791, 0.0003327787021630615, 0.0005319148936170213, 0.00022197558268590453, 0.00024213075060532685, 0.13891151425398, 0.2, 0.2, 0.2, 0.2, 0.2, 0.2, 0.2, 0.2, 0.2, 0.2, 0.2, 0.2, 0.2, 0.2, 0.2, 0.0026315789473684214, 0.2, 0.2, 0.2, 0.0008849557522123893, 0.00013324450366422385, 0.00022197558268590456, 0.00024213075060532685, 0.00014025245441795232, 0.0001110494169905608, 0.30080208107522216, 0.09861058956064586, 0.044807003581376834, 0.2258009030316061, 0.2, 0.2, 0.0008849557522123892, 0.0005319148936170214, 0.2, 0.2, 0.2, 0.2, 0.2, 0.2, 0.2, 0.2, 0.2, 0.2, 0.2, 0.2, 0.2, 0.2, 0.2, 0.2, 0.2, 7.015082427218517e-05, 0.00015673981191222572, 0.00012113870381586917, 0.00017761989342806396, 0.2, 0.2, 0.2, 0.00026631158455392814, 0.2, 0.2, 0.2, 0.2, 0.2, 0.2, 0.2, 0.2, 0.2, 0.2, 0.2, 0.2, 0.2, 0.2, 0.2, 0.2, 0.2, 0.2, 0.2, 0.2, 0.2, 0.2, 0.2, 0.2, 0.2, 0.2, 0.2, 0.2, 0.2, 0.2, 0.2, 0.2, 0.2, 0.2, 0.2, 0.2, 0.2, 0.2, 0.2, 0.2, 0.2, 0.2, 0.9947019867549668, 0.9894736842105264, 0.2, 0.2, 0.2, 0.4657048940832724, 0.39617706237424544, 0.10814121037463975, 6.199628022318658e-05, 8.329862557267801e-05, 0.0013245033112582777, 0.0002421307506053269, 0.0005319148936170213, 0.0013245033112582777, 0.0006644518272425252, 0.2, 0.2, 0.2, 0.2, 0.2, 0.2, 0.2, 0.2, 0.2, 0.2, 0.000443458980044346, 0.0008849557522123892, 0.002631578947368422, 0.00044345898004434595, 0.2, 0.3584507042253521, 0.4410819286554292, 0.15386192754613806, 0.0909311250252474, 0.776923076923077, 0.2, 0.2, 0.8319290465631931, 0.08346281908990011, 0.9894736842105264, 0.2, 0.2, 0.2, 0.2, 0.2, 0.2, 0.2, 0.2, 0.2, 0.2, 0.2, 0.2, 0.2, 0.2, 0.2, 0.2, 0.2, 0.002631578947368422, 0.2, 0.2, 0.2, 0.2, 0.2, 0.2, 0.2, 0.2, 0.2, 0.2, 0.2, 0.2, 0.2, 0.2, 0.2, 0.2, 0.2, 0.2, 0.2, 0.2, 0.2, 0.2, 0.2, 0.2, 0.9894736842105264, 0.2, 0.2, 0.040085287846481875, 0.3998933901918977, 0.39994668088509727, 0.5516433003907149, 0.6983072365636902, 0.00020491803278688527, 0.49801324503311256, 0.2, 0.000664451827242525, 0.33274336283185835, 0.00015673981191222572, 0.2, 0.2, 0.2, 0.2, 0.2, 0.2, 0.2, 0.2, 0.2, 0.0003327787021630616, 0.0006644518272425252, 0.000443458980044346, 0.3330376940133038, 0.2, 3.755163349605707e-05, 8.884940026654821e-05, 0.2631136044880785, 0.3952882827030378, 0.7498167277574141, 0.0008849557522123893, 0.00029585798816568053, 0.0003327787021630616, 0.000664451827242525, 0.000664451827242525, 0.2, 0.2, 0.2, 0.2, 0.2, 0.2, 0.2, 0.2, 0.2, 0.2, 0.2, 0.0006644518272425252, 0.2, 0.2, 0.2, 0.2, 0.0005319148936170212, 0.10013315579227697, 0.2726392251815981, 0.2, 0.2, 0.2, 0.2, 0.2, 0.2, 0.2, 0.2, 0.2, 0.2, 0.2, 0.2, 0.2, 0.2, 0.2, 0.2, 0.2, 0.2, 0.2, 0.2, 0.2, 0.0026315789473684214, 0.24983388704318937, 0.570722433460076, 0.2855513307984791, 0.5829078801331854, 0.03128514892730681, 0.22726721874368813, 0.27905751046349403, 0.2048185030517186, 0.361081281244214, 0.0001269035532994924, 0.24983388704318935, 0.000664451827242525, 0.000664451827242525, 0.00038022813688212925, 0.2, 0.2, 0.2, 0.2, 0.2, 0.2, 0.2, 0.2, 0.2, 0.2, 0.00014025245441795232, 0.00029585798816568053, 0.0008849557522123894, 0.0003802281368821293, 0.2, 6.34719136781974e-05, 0.00010660980810234542, 0.0001110494169905608, 9.519276534983341e-05, 0.07321196358907672, 0.2, 0.0026315789473684214, 0.2, 0.0005319148936170212, 0.0008849557522123893, 0.2, 0.2, 0.2, 0.2, 0.2, 0.2, 0.2, 0.2, 0.2, 0.2, 0.2, 0.2, 0.001324503311258278, 0.0008849557522123893, 0.2, 0.2, 0.2, 0.2, 0.0003802281368821293, 0.00020491803278688527, 0.2, 0.2, 0.2, 0.2, 0.0008849557522123893, 0.2, 0.2, 0.2, 0.2, 0.2, 0.2, 0.2, 0.2, 0.2, 0.2, 0.2, 0.2, 0.2, 0.2, 0.2, 0.0003327787021630616, 0.000664451827242525, 0.7133079847908744, 0.0006644518272425248, 0.4998001332445037, 0.01891348088531187, 0.029884600079586154, 0.01542247744052502, 4.3706293706293706e-05, 0.023095067172597687, 0.2, 0.2, 0.2, 0.2, 0.2, 0.2, 0.2, 0.2, 0.2, 0.2, 0.2, 0.2, 0.2, 0.2, 0.2, 0.00026631158455392814, 0.1429657794676806, 0.001324503311258278, 0.2, 0.00038022813688212925, 0.0003327787021630615, 0.0005319148936170213, 0.00022197558268590453, 0.00024213075060532685, 7.404664938911513e-05, 0.2, 0.2, 0.2, 0.2, 0.2, 0.2, 0.2, 0.2, 0.2, 0.2, 0.2, 0.2, 0.2, 0.2, 0.2, 0.0026315789473684214, 0.2, 0.2, 0.2, 0.0008849557522123893, 0.00013324450366422385, 0.08346281908990011, 0.00024213075060532685, 0.00014025245441795232, 0.0001110494169905608, 2.1677866897897243e-05, 3.755163349605707e-05, 3.9793076004775156e-05, 4.300150505267684e-05, 0.2, 0.2, 0.0008849557522123892, 0.0005319148936170214, 0.2, 0.2, 0.2, 0.2, 0.2, 0.2, 0.2, 0.2, 0.2, 0.2, 0.2, 0.2, 0.2, 0.2, 0.2, 0.2, 0.2, 7.015082427218517e-05, 0.00015673981191222572, 0.00012113870381586917, 0.00017761989342806396, 0.2, 0.2, 0.2, 0.00026631158455392814, 0.2, 0.2, 0.2, 0.2, 0.2, 0.2, 0.2, 0.2, 0.2, 0.2, 0.2, 0.2, 0.2, 0.2, 0.2, 0.2, 0.2, 0.2, 0.2, 0.2, 0.2, 0.2, 0.2, 0.2, 0.2, 0.2, 0.2, 0.2, 0.2, 0.2, 0.2, 0.2, 0.2, 0.2, 0.2, 0.2, 0.2, 0.2, 0.2, 0.2, 0.2, 0.2, 0.001324503311258278, 0.0026315789473684214, 0.2, 0.2, 0.2, 0.04112490869247625, 0.09436619718309858, 7.204610951008645e-05, 6.199628022318658e-05, 8.329862557267801e-05, 0.0013245033112582777, 0.6358353510895884, 0.2, 0.0013245033112582777, 0.0006644518272425252, 0.2, 0.2, 0.2, 0.2, 0.2, 0.2, 0.2, 0.2, 0.2, 0.2, 0.000443458980044346, 0.0008849557522123892, 0.002631578947368422, 0.00044345898004434595, 0.2, 5.0301810865191146e-05, 7.840062720501763e-05, 6.83526999316473e-05, 4.039587962027872e-05, 0.00029585798816568053, 0.2, 0.2, 0.000443458980044346, 0.00022197558268590456, 0.0026315789473684214, 0.2, 0.2, 0.2, 0.2, 0.2, 0.2, 0.2, 0.2, 0.2, 0.2, 0.2, 0.2, 0.2, 0.2, 0.2, 0.2, 0.2, 0.002631578947368422, 0.2, 0.2, 0.2, 0.2, 0.2, 0.2, 0.2, 0.2, 0.2, 0.2, 0.2, 0.2, 0.2, 0.2, 0.2, 0.2, 0.2, 0.2, 0.2, 0.2, 0.2, 0.2, 0.2, 0.2, 0.0026315789473684214, 0.2, 0.2, 0.5198294243070363, 0.23997867803837952, 0.29997334044254864, 0.12070788324523098, 0.11112991959373676, 0.6918032786885246, 0.0013245033112582781, 0.2, 0.99734219269103, 0.6646017699115044, 0.9993730407523511, 0.2, 0.2, 0.2, 0.2, 0.2, 0.2, 0.2, 0.2, 0.2, 0.0003327787021630616, 0.0006644518272425252, 0.000443458980044346, 0.16674057649667404, 0.2, 0.3239203905369883, 0.833051976899156, 0.5786816269284712, 0.25579665220086795, 0.24998333888703764, 0.9964601769911504, 0.8878698224852072, 0.8738768718801998, 0.99734219269103, 0.99734219269103, 0.2, 0.2, 0.2, 0.2, 0.2, 0.2, 0.2, 0.2, 0.2, 0.2, 0.2, 0.0006644518272425252, 0.2, 0.2, 0.2, 0.2, 0.399468085106383, 0.10013315579227697, 0.18184019370460053, 0.2, 0.2, 0.2, 0.2, 0.2, 0.2, 0.2, 0.2, 0.2, 0.2, 0.2, 0.2, 0.2, 0.2, 0.2, 0.2, 0.2, 0.2, 0.2, 0.2, 0.2, 0.9894736842105264, 0.24983388704318937, 0.1429657794676806, 0.570722433460076, 0.41642619311875695, 0.515559258487815, 0.30300949303171076, 0.45344907766237796, 0.6625762929649855, 0.3888539159414923, 0.19048223350253807, 0.748172757475083, 0.000664451827242525, 0.000664451827242525, 0.4281368821292776, 0.2, 0.2, 0.2, 0.2, 0.2, 0.2, 0.2, 0.2, 0.2, 0.2, 0.5786816269284712, 0.8878698224852072, 0.6646017699115045, 0.9984790874524715, 0.2, 0.2142811805775944, 0.6397654584221749, 0.6664075513603553, 0.7854355069014756, 0.6583875162548765, 0.2, 0.0026315789473684214, 0.2, 0.399468085106383, 0.33274336283185835, 0.2, 0.2, 0.2, 0.2, 0.2, 0.2, 0.2, 0.2, 0.2, 0.2, 0.2, 0.2, 0.9947019867549668, 0.9964601769911504, 0.2, 0.2, 0.2, 0.2, 0.9984790874524715, 0.9991803278688526, 0.2, 0.2, 0.2, 0.2, 0.6646017699115044, 0.2, 0.2, 0.2, 0.2, 0.2, 0.2, 0.2, 0.2, 0.2, 0.2, 0.2, 0.2, 0.2, 0.2, 0.2, 0.12512479201331117, 0.000664451827242525, 0.00038022813688212925, 0.49900332225913624, 0.10006662225183213, 0.0755030181086519, 0.0746518105849582, 0.13847415914684166, 0.14755244755244754, 0.05386114244692852, 0.2, 0.2, 0.2, 0.2, 0.2, 0.2, 0.2, 0.2, 0.2, 0.2, 0.2, 0.2, 0.2, 0.2, 0.2, 0.9989347536617844, 0.7133079847908745, 0.9947019867549668, 0.2, 0.00038022813688212925, 0.24991680532445926, 0.0005319148936170213, 0.00022197558268590453, 0.00024213075060532685, 0.11114402073306182, 0.2, 0.2, 0.2, 0.2, 0.2, 0.2, 0.2, 0.2, 0.2, 0.2, 0.2, 0.2, 0.2, 0.2, 0.2, 0.9894736842105264, 0.2, 0.2, 0.2, 0.9964601769911504, 0.050099933377748165, 0.08346281908990011, 0.00024213075060532685, 0.05273492286115007, 0.12504164353137148, 2.1677866897897243e-05, 3.755163349605707e-05, 3.9793076004775156e-05, 4.300150505267684e-05, 0.2, 0.2, 0.0008849557522123892, 0.0005319148936170214, 0.2, 0.2, 0.2, 0.2, 0.2, 0.2, 0.2, 0.2, 0.2, 0.2, 0.2, 0.2, 0.2, 0.2, 0.2, 0.2, 0.2, 7.015082427218517e-05, 0.00015673981191222572, 0.00012113870381586917, 0.00017761989342806396, 0.2, 0.2, 0.2, 0.00026631158455392814, 0.2, 0.2, 0.2, 0.2, 0.2, 0.2, 0.2, 0.2, 0.2, 0.2, 0.2, 0.2, 0.2, 0.2, 0.2, 0.2, 0.2, 0.2, 0.2, 0.2, 0.2, 0.2, 0.2, 0.2, 0.2, 0.2, 0.2, 0.2, 0.2, 0.2, 0.2, 0.2, 0.2, 0.2, 0.2, 0.2, 0.2, 0.2, 0.2, 0.2, 0.2, 0.2, 0.001324503311258278, 0.0026315789473684214, 0.2, 0.2, 0.2, 3.652300949598246e-05, 5.0301810865191146e-05, 7.204610951008645e-05, 6.199628022318658e-05, 8.329862557267801e-05, 0.0013245033112582777, 0.0002421307506053269, 0.0005319148936170213, 0.0013245033112582777, 0.0006644518272425252, 0.2, 0.2, 0.2, 0.2, 0.2, 0.2, 0.2, 0.2, 0.2, 0.2, 0.000443458980044346, 0.0008849557522123892, 0.002631578947368422, 0.00044345898004434595, 0.2, 5.0301810865191146e-05, 7.840062720501763e-05, 6.83526999316473e-05, 4.039587962027872e-05, 0.00029585798816568053, 0.2, 0.2, 0.000443458980044346, 0.00022197558268590456, 0.0026315789473684214, 0.2, 0.2, 0.2, 0.2, 0.2, 0.2, 0.2, 0.2, 0.2, 0.2, 0.2, 0.2, 0.2, 0.2, 0.2, 0.2, 0.2, 0.002631578947368422, 0.2, 0.2, 0.2, 0.2, 0.2, 0.2, 0.2, 0.2, 0.2, 0.2, 0.2, 0.2, 0.2, 0.2, 0.2, 0.2, 0.2, 0.2, 0.2, 0.2, 0.2, 0.2, 0.2, 0.2, 0.0026315789473684214, 0.2, 0.2, 0.00010660980810234542, 0.040085287846481875, 5.3319114902692615e-05, 0.01728338313031487, 4.231908590774439e-05, 0.30758196721311476, 0.49801324503311256, 0.2, 0.000664451827242525, 0.0008849557522123893, 0.00015673981191222572, 0.2, 0.2, 0.2, 0.2, 0.2, 0.2, 0.2, 0.2, 0.2, 0.0003327787021630616, 0.0006644518272425252, 0.000443458980044346, 0.00044345898004434584, 0.2, 3.755163349605707e-05, 8.884940026654821e-05, 0.00014025245441795232, 6.199628022318661e-05, 6.664445184938353e-05, 0.0008849557522123893, 0.00029585798816568053, 0.0003327787021630616, 0.000664451827242525, 0.000664451827242525, 0.2, 0.2, 0.2, 0.2, 0.2, 0.2, 0.2, 0.2, 0.2, 0.2, 0.2, 0.0006644518272425252, 0.2, 0.2, 0.2, 0.2, 0.0005319148936170212, 0.00026631158455392814, 0.0002421307506053269, 0.2, 0.2, 0.2, 0.2, 0.2, 0.2, 0.2, 0.2, 0.2, 0.2, 0.2, 0.2, 0.2, 0.2, 0.2, 0.2, 0.2, 0.2, 0.2, 0.2, 0.2, 0.0026315789473684214, 0.000664451827242525, 0.0003802281368821293, 0.0003802281368821293, 0.00022197558268590456, 0.21874609456363256, 0.12122803474045646, 0.16279646566423808, 0.06026341150016061, 0.2499907424551009, 0.8091370558375635, 0.0006644518272425248, 0.99734219269103, 0.99734219269103, 0.570722433460076, 0.2, 0.2, 0.2, 0.2, 0.2, 0.2, 0.2, 0.2, 0.2, 0.2, 0.00014025245441795232, 0.00029585798816568053, 0.0008849557522123894, 0.0003802281368821293, 0.2, 0.40469692161218657, 0.040085287846481875, 0.0001110494169905608, 0.21427891480247502, 0.26827048114434326, 0.2, 0.9894736842105264, 0.2, 0.5989361702127659, 0.6646017699115044, 0.2, 0.2, 0.2, 0.2, 0.2, 0.2, 0.2, 0.2, 0.2, 0.2, 0.2, 0.2, 0.001324503311258278, 0.0008849557522123893, 0.2, 0.2, 0.2, 0.2, 0.0003802281368821293, 0.00020491803278688527, 0.2, 0.2, 0.2, 0.2, 0.33274336283185835, 0.2, 0.2, 0.2, 0.2, 0.2, 0.2, 0.2, 0.2, 0.2, 0.2, 0.2, 0.2, 0.2, 0.2, 0.2, 0.7490848585690517, 0.99734219269103, 0.2855513307984791, 0.49900332225913624, 0.39986675549633577, 0.8677565392354125, 0.850616792678074, 0.8460213289581624, 0.8359265734265735, 0.9230027689467748, 0.2, 0.2, 0.2, 0.2, 0.2, 0.2, 0.2, 0.2, 0.2, 0.2, 0.2, 0.2, 0.2, 0.2, 0.2, 0.00026631158455392814, 0.0003802281368821293, 0.001324503311258278, 0.2, 0.7133079847908744, 0.7490848585690515, 0.997872340425532, 0.9991120976692563, 0.9990314769975787, 0.7497963717141799, 0.2, 0.2, 0.2, 0.2, 0.2, 0.2, 0.2, 0.2, 0.2, 0.2, 0.2, 0.2, 0.2, 0.2, 0.2, 0.0026315789473684214, 0.2, 0.2, 0.2, 0.0008849557522123893, 0.9495003331112593, 0.832630410654828, 0.9990314769975787, 0.9468443197755961, 0.8746252082176569 ;
}
probability ( close_num | author_identity, has_assignees_content, label_count, workload ) {
    table 0.32252575011195705, 0.32989175686927563, 0.3291370558375635, 0.47953410981697175, 0.0023529411764705885, 0.3349935594675827, 0.189059262329051, 0.16807840392019602, 0.14075902499228635, 5.064573309698657e-05, 0.003278688524590164, 0.005405405405405406, 0.004081632653061225, 0.004081632653061225, 0.015384615384615385, 0.0009756097560975611, 0.14352941176470588, 0.001652892561983471, 0.004081632653061225, 0.0027397260273972603, 0.5054545454545455, 0.4850356294536817, 0.39966722129783694, 0.39431072210065643, 0.2, 0.00010035122930255894, 0.031072961373390558, 0.030141548709408827, 0.030951156812339335, 0.00011813349084465447, 0.003278688524590164, 0.0015037593984962405, 0.008, 0.2, 0.2, 0.2, 0.015384615384615389, 0.2, 0.32972972972972975, 0.2, 0.003278688524590164, 0.004081632653061225, 0.0020618556701030933, 0.004081632653061225, 0.0023529411764705885, 0.0010362694300518136, 0.0010362694300518132, 0.0010362694300518132, 0.0004618937644341801, 0.0004618937644341801, 0.2, 0.015384615384615385, 0.2, 0.2, 0.2, 0.2, 0.2, 0.2, 0.2, 0.2, 0.13981191222570533, 0.17002497918401333, 0.08548223350253807, 0.14009983361064893, 0.0023529411764705885, 0.16496350364963505, 0.16916701201823459, 0.12607630381519078, 0.1185436593643937, 0.0972904532793112, 0.39672131147540984, 0.32972972972972975, 0.2489795918367347, 0.4938775510204082, 0.015384615384615385, 0.7619512195121952, 0.5670588235294117, 0.49752066115702476, 0.4938775510204082, 0.0027397260273972603, 0.2183732057416268, 0.1144893111638955, 0.41963394342762067, 0.31553610503282276, 0.2, 0.2228800802809834, 0.24738197424892705, 0.32989175686927563, 0.37028277634961443, 0.06391021854695808, 0.9868852459016394, 0.8135338345864662, 0.48800000000000004, 0.2, 0.2, 0.2, 0.9384615384615387, 0.2, 0.005405405405405406, 0.2, 0.003278688524590164, 0.4938775510204082, 0.12577319587628866, 0.004081632653061225, 0.0023529411764705885, 0.0010362694300518136, 0.12538860103626942, 0.0010362694300518132, 0.0004618937644341801, 0.0004618937644341801, 0.2, 0.015384615384615385, 0.2, 0.2, 0.2, 0.2, 0.2, 0.2, 0.2, 0.2, 0.064576802507837, 0.10008326394671109, 0.30477157360406093, 0.14009983361064893, 0.0023529411764705885, 0.07221983683984544, 0.12938251139660176, 0.13867693384669233, 0.21481024375192842, 0.24011142061281335, 0.003278688524590164, 0.6540540540540541, 0.2489795918367347, 0.2489795918367347, 0.015384615384615385, 0.11804878048780489, 0.2847058823529412, 0.2991735537190082, 0.2489795918367347, 0.0027397260273972603, 0.1954066985645933, 0.2855106888361046, 0.10016638935108153, 0.13172866520787746, 0.2, 0.4396387355745108, 0.28858369098712444, 0.22997502081598667, 0.3456041131105399, 0.29072652096869467, 0.003278688524590164, 0.09172932330827066, 0.008, 0.2, 0.2, 0.2, 0.015384615384615389, 0.2, 0.32972972972972975, 0.2, 0.003278688524590164, 0.4938775510204082, 0.12577319587628866, 0.004081632653061225, 0.0023529411764705885, 0.0010362694300518136, 0.1875647668393782, 0.6849740932642486, 0.3884526558891455, 0.0004618937644341801, 0.2, 0.015384615384615385, 0.2, 0.2, 0.2, 0.2, 0.2, 0.2, 0.2, 0.2, 0.1666815942678012, 0.26994171523730226, 0.20730964467005075, 0.16006655574043263, 0.14352941176470588, 0.25770717045942465, 0.2238707003729797, 0.30668533426671335, 0.29996914532551683, 0.27353760445682446, 0.39672131147540984, 0.005405405405405406, 0.2489795918367347, 0.2489795918367347, 0.015384615384615385, 0.11804878048780489, 0.0023529411764705885, 0.19999999999999998, 0.2489795918367347, 0.6602739726027398, 0.08057416267942584, 0.08598574821852732, 0.060232945091514146, 0.15798687089715535, 0.2, 0.28911189162067236, 0.38128755364806866, 0.3099084096586178, 0.1543444730077121, 0.3686946249261666, 0.003278688524590164, 0.09172932330827066, 0.008, 0.2, 0.2, 0.2, 0.015384615384615389, 0.2, 0.32972972972972975, 0.2, 0.2, 0.004081632653061225, 0.0020618556701030933, 0.004081632653061225, 0.4258823529411765, 0.0010362694300518136, 0.0010362694300518132, 0.0010362694300518132, 0.19445727482678982, 0.3607390300230947, 0.2, 0.015384615384615385, 0.2, 0.2, 0.2, 0.2, 0.2, 0.2, 0.2, 0.2, 0.30640394088669953, 0.13005828476269776, 0.0732994923857868, 0.08019966722129784, 0.8494117647058824, 0.17011592958351224, 0.28852051388313305, 0.26048302415120755, 0.22591792656587475, 0.3890098759179539, 0.2, 0.005405405405405406, 0.2489795918367347, 0.004081632653061225, 0.9384615384615385, 0.0009756097560975611, 0.0023529411764705885, 0.001652892561983471, 0.004081632653061225, 0.3315068493150685, 0.00019138755980861245, 0.028978622327790977, 0.020299500831946756, 0.00043763676148796495, 0.2, 0.04826894129453086, 0.051673819742489274, 0.10008326394671109, 0.09881748071979435, 0.2765505020673361, 0.003278688524590164, 0.0015037593984962405, 0.48800000000000004, 0.2, 0.2, 0.2, 0.015384615384615389, 0.2, 0.005405405405405406, 0.2, 0.7901639344262296, 0.004081632653061225, 0.7443298969072166, 0.9836734693877551, 0.5670588235294117, 0.9958549222797928, 0.6849740932642486, 0.3119170984455958, 0.4161662817551963, 0.6378752886836027, 0.2, 0.9384615384615385, 0.2, 0.2, 0.2, 0.2, 0.2, 0.2, 0.2, 0.2 ;
}
probability ( comment_num | participants_count, review_comment_num, review_num ) {
    table 0.5512432260121135, 0.7062821454812637, 0.6348857644991214, 0.6741880495244931, 0.13277380297193178, 0.17736077481840196, 0.12607573149741827, 0.13049845563957824, 0.04310344827586207, 0.25, 0.012376237623762375, 0.002459814905017048, 0.2490436722983743, 0.16844232182218954, 0.27636203866432335, 0.32536335905257485, 0.2450467804072647, 0.29358353510895885, 0.3532702237521515, 0.3477739908403451, 0.04310344827586207, 0.25, 0.012376237623762375, 0.03402338041889918, 0.13810965890978644, 0.1067229977957384, 0.08655536028119509, 0.00022429571146599675, 0.26485965877820583, 0.23547215496368037, 0.2706540447504303, 0.5190382362338908, 0.04310344827586207, 0.25, 0.13118811881188117, 0.19768631271310277, 0.06160344277972587, 0.018552534900808226, 0.0021968365553602814, 0.00022429571146599675, 0.3573197578425977, 0.29358353510895885, 0.25, 0.002689317286185962, 0.8706896551724138, 0.25, 0.8440594059405939, 0.765830491962981 ;
}
probability ( commit_num | has_assignees_content ) {
    table 0.20489410595615176, 0.4720616570327553, 0.7918141730327308, 0.5183044315992293, 0.0032917210111173215, 0.009633911368015415 ;
}
probability ( file_changed_num | commit_num ) {
    table 0.4813769751693001, 0.1222922107850668, 0.03448275862068965, 0.2646726862302483, 0.19741895836534026, 0.03448275862068965, 0.19187358916478553, 0.31633123367644794, 0.03448275862068965, 0.04796839729119638, 0.3601167614072822, 0.03448275862068965, 0.014108352144469526, 0.0038408357658626514, 0.8620689655172413 ;
}
probability ( has_assignees_content | has_refactor ) {
    table 0.9700200473847276, 0.839622641509434, 0.029979952615272462, 0.16037735849056603 ;
}
probability ( has_bug | change_num, has_assignees_content, has_document ) {
    table 0.9634760705289672, 0.5, 0.9444444444444444, 0.5, 0.9662833246210141, 0.9878048780487805, 0.7603550295857988, 0.5, 0.9421052631578948, 0.5952380952380952, 0.8058823529411765, 0.5, 0.8711340206185567, 0.5689655172413793, 0.9897959183673469, 0.5, 0.904212231672742, 0.8783783783783784, 0.8448275862068966, 0.5, 0.036523929471032744, 0.5, 0.05555555555555555, 0.5, 0.033716675378985886, 0.012195121951219513, 0.23964497041420119, 0.5, 0.05789473684210526, 0.40476190476190477, 0.19411764705882353, 0.5, 0.12886597938144329, 0.43103448275862066, 0.01020408163265306, 0.5, 0.095787768327258, 0.12162162162162163, 0.15517241379310345, 0.5 ;
}
probability ( has_document ) {
    table 0.9871841155234657, 0.012815884476534296 ;
}
probability ( has_feature | total_add_line ) {
    table 0.9139886578449905, 0.9588910133843213, 0.9853448275862069, 0.9877450980392157, 0.9914448669201521, 0.08601134215500945, 0.04110898661567878, 0.014655172413793103, 0.012254901960784314, 0.008555133079847909 ;
}
probability ( has_improve | has_bug, review_num ) {
    table 0.9666310731446877, 0.9872010575651965, 0.8317073170731707, 0.9375917767988252, 0.033368926855312335, 0.01279894243480351, 0.16829268292682928, 0.06240822320117474 ;
}
probability ( has_labels | label_count ) {
    table 0.001781895937277263, 0.9993956973652405, 0.9982181040627227, 0.0006043026347594875 ;
}
probability ( has_refactor ) {
    table 0.9904332129963899, 0.009566787003610109 ;
}
probability ( is_weekday | author_identity, has_assignees_content ) {
    table 0.27953151704031365, 0.08760107816711592, 0.2513780650066527, 0.01824817518248175, 0.13045912653975367, 0.22727272727272727, 0.7204684829596864, 0.9123989218328842, 0.7486219349933473, 0.9817518248175182, 0.8695408734602464, 0.7727272727272727 ;
}
probability ( label_count | file_changed_num, has_feature, review_num ) {
    table 0.4966499162479062, 0.264954257565095, 0.7477876106194691, 0.5289855072463768, 0.3532110091743119, 0.2751892836342458, 0.44594594594594594, 0.4024390243902439, 0.36902654867256635, 0.20851146521570152, 0.023809523809523808, 0.3048780487804878, 0.24619289340101522, 0.16191581040768976, 0.5, 0.02, 0.5, 0.17010309278350516, 0.5, 0.5, 0.5033500837520938, 0.735045742434905, 0.252212389380531, 0.47101449275362317, 0.6467889908256881, 0.7248107163657542, 0.5540540540540541, 0.5975609756097561, 0.6309734513274337, 0.7914885347842985, 0.9761904761904762, 0.6951219512195121, 0.7538071065989848, 0.8380841895923102, 0.5, 0.98, 0.5, 0.8298969072164949, 0.5, 0.5 ;
}
probability ( mergable_state | has_feature, total_add_line ) {
    table 0.9126163391933816, 0.9616151545363908, 0.968066491688539, 0.9764267990074442, 0.9841802492809204, 0.7087912087912088, 0.9883720930232558, 0.7352941176470589, 0.9666666666666667, 0.9444444444444444, 0.08738366080661841, 0.03838484546360917, 0.031933508311461065, 0.02357320099255583, 0.015819750719079578, 0.29120879120879123, 0.011627906976744186, 0.2647058823529412, 0.03333333333333333, 0.05555555555555555 ;
}
probability ( participants_count | pre_prs, review_comment_num, review_num ) {
    table 0.5530012771392082, 0.3333333333333333, 0.5525114155251142, 0.15637568015140763, 0.5826839826839827, 0.3333333333333333, 0.3881278538812785, 0.1257740764467222, 0.6560717196414019, 0.641025641025641, 0.4222222222222222, 0.16904354440007605, 0.6380153738644305, 0.8207885304659499, 0.43669250645994834, 0.2531021587625361, 0.8087855297157622, 0.7594501718213059, 0.5495495495495495, 0.37584541062801935, 0.4457215836526181, 0.3333333333333333, 0.3881278538812785, 0.2614147149278448, 0.41645021645021646, 0.3333333333333333, 0.4429223744292238, 0.37433269271834296, 0.3333333333333334, 0.33333333333333326, 0.4984126984126984, 0.42004183304810805, 0.35290006988120204, 0.1756272401433692, 0.4987080103359173, 0.37344892061873197, 0.18863049095607234, 0.23986254295532647, 0.44144144144144143, 0.41062801932367154, 0.0012771392081736908, 0.3333333333333333, 0.0593607305936073, 0.5822096049207476, 0.0008658008658008658, 0.3333333333333333, 0.16894977168949774, 0.4998932308349349, 0.010594947025264874, 0.025641025641025637, 0.07936507936507937, 0.41091462255181593, 0.009084556254367576, 0.003584229390681004, 0.06459948320413438, 0.37344892061873197, 0.0025839793281653744, 0.0006872852233676976, 0.009009009009009009, 0.21352657004830916 ;
}
probability ( pre_prs | close_num ) {
    table 0.9820689655172414, 0.01680327868852459, 0.000352112676056338, 0.00029629629629629624, 0.00033112582781456954, 0.01655172413793104, 0.97172131147541, 0.0408450704225352, 0.00029629629629629624, 0.00033112582781456954, 0.0004597701149425288, 0.010655737704918034, 0.9228873239436619, 0.04029629629629629, 0.021854304635761587, 0.0004597701149425288, 0.00040983606557377055, 0.035563380281690135, 0.8936296296296296, 0.06821192052980132, 0.0004597701149425288, 0.00040983606557377055, 0.000352112676056338, 0.06548148148148147, 0.909271523178808 ;
}
probability ( priorities_number | author_identity, has_labels, participants_count ) {
    table 0.3505840974751916, 0.12099772154934645, 0.08903187191381116, 0.539299081320177, 0.2369609856262834, 0.1736619175972276, 0.23523015585357016, 0.11322665586388496, 0.07421785795843801, 0.3327745180217938, 0.1296416938110749, 0.18188353702372395, 0.48652118100128366, 0.2289988492520138, 0.07020872865275142, 0.82370820668693, 0.5891891891891893, 0.826086956521739, 0.24205501821379227, 0.17927809089818925, 0.17522070926230734, 0.23307247363048658, 0.2, 0.3954562957258375, 0.16998912649510695, 0.17156167713186146, 0.11943366065311715, 0.16680637049455152, 0.23517915309446255, 0.194823867721064, 0.27856225930680356, 0.20828538550057538, 0.07020872865275142, 0.057750759878419454, 0.2972972972972973, 0.04347826086956521, 0.18552945609848012, 0.24403405684134788, 0.1913811162651504, 0.14732902347737328, 0.22217659137577003, 0.18059299191374664, 0.2874229793403407, 0.15697792181486733, 0.19342315597168305, 0.22715842414082144, 0.18827361563517916, 0.13012221423436376, 0.07060333761232347, 0.2289988492520138, 0.10436432637571157, 0.11246200607902734, 0.005405405405405406, 0.04347826086956521, 0.1403090064062304, 0.222448734860295, 0.19946131976657192, 0.06158557332425996, 0.22217659137577003, 0.1736619175972276, 0.1895614353026459, 0.3064614138140571, 0.271523178807947, 0.16680637049455152, 0.2820846905537459, 0.09130122214234364, 0.07060333761232347, 0.08400460299194476, 0.13851992409867173, 0.0030395136778115497, 0.10270270270270271, 0.04347826086956521, 0.08152242180630576, 0.23324139585082146, 0.3449049827921592, 0.0187138482477033, 0.11868583162217661, 0.07662687716596073, 0.11779630300833636, 0.2517723313753292, 0.3414021466088148, 0.10645431684828163, 0.16482084690553744, 0.4018691588785047, 0.0937098844672657, 0.24971231300345223, 0.6166982922201139, 0.0030395136778115497, 0.005405405405405406, 0.04347826086956521 ;
}
probability ( review_comment_num | commit_num, pre_prs, review_num ) {
    table 0.7760736196319019, 0.0019305019305019301, 0.8321799307958477, 0.0012594458438287155, 0.7987551867219916, 0.014806378132118452, 0.8438395415472779, 0.10420650095602296, 0.7307692307692307, 0.43190416141235816, 0.7848664688427299, 0.00027041644131963225, 0.8476070528967254, 0.00025706940874035993, 0.7948960302457467, 0.005674080798910577, 0.7522361359570662, 0.03099091985787604, 0.8057324840764332, 0.1508569151056198, 0.5, 0.07142857142857144, 0.5, 0.5, 0.5, 0.07142857142857144, 0.5, 0.25999999999999995, 0.5, 0.5, 0.22392638036809817, 0.998069498069498, 0.16782006920415224, 0.9987405541561714, 0.20124481327800828, 0.9851936218678816, 0.15616045845272206, 0.8957934990439771, 0.2692307692307692, 0.5680958385876419, 0.21513353115727002, 0.9997295835586805, 0.15239294710327456, 0.9997429305912597, 0.20510396975425332, 0.9943259192010895, 0.24776386404293382, 0.9690090801421241, 0.1942675159235669, 0.8491430848943803, 0.5, 0.9285714285714286, 0.5, 0.5, 0.5, 0.9285714285714286, 0.5, 0.74, 0.5, 0.5 ;
}
probability ( review_num | has_assignees_content, has_feature, total_add_line ) {
    table 0.2907859078590786, 0.25531363400725765, 0.1746067415730337, 0.11372299872935197, 0.031602155805977465, 0.6183431952662722, 0.4294117647058823, 0.25757575757575757, 0.29310344827586204, 0.029411764705882353, 0.7247191011235955, 0.525974025974026, 0.4672131147540984, 0.2894736842105263, 0.1, 0.9615384615384616, 0.5, 0.5, 0.5, 0.5, 0.7092140921409215, 0.7446863659927424, 0.8253932584269663, 0.886277001270648, 0.9683978441940225, 0.3816568047337278, 0.5705882352941176, 0.7424242424242424, 0.7068965517241379, 0.9705882352941176, 0.2752808988764045, 0.474025974025974, 0.5327868852459017, 0.7105263157894737, 0.9, 0.038461538461538464, 0.5, 0.5, 0.5, 0.5 ;
}
probability ( title_words | has_assignees_content, has_document, label_count, workload ) {
    table 0.3126760563380282, 0.42201665124884363, 0.325972850678733, 0.30666666666666664, 0.42654867256637163, 0.2999662276258021, 0.31930673115679165, 0.30307964601769916, 0.28785501758182314, 0.27036024844720496, 0.008000000000000002, 0.7333333333333333, 0.011764705882352944, 0.7333333333333333, 0.2, 0.657142857142857, 0.4909090909090909, 0.022222222222222223, 0.16734693877551018, 0.648, 0.3975308641975308, 0.13388429752066114, 0.16734693877551018, 0.006060606060606061, 0.022222222222222227, 0.3518248175182482, 0.3723076923076923, 0.10123456790123456, 0.4245614035087719, 0.33061224489795915, 0.2, 0.2, 0.2, 0.2, 0.2, 0.2, 0.2, 0.2, 0.2, 0.2, 0.14547932757837345, 0.16299722479185938, 0.1160180995475113, 0.0797163120567376, 0.14336283185840706, 0.13785883147585276, 0.13228536880290206, 0.10768141592920354, 0.08877468217473627, 0.10737888198757764, 0.328, 0.006060606060606061, 0.9529411764705884, 0.006060606060606061, 0.2, 0.004081632653061223, 0.24848484848484848, 0.022222222222222223, 0.49387755102040815, 0.008000000000000002, 0.19999999999999996, 0.13388429752066114, 0.16734693877551018, 0.24848484848484848, 0.022222222222222227, 0.17664233576642335, 0.003076923076923077, 0.10123456790123456, 0.143859649122807, 0.33061224489795915, 0.2, 0.2, 0.2, 0.2, 0.2, 0.2, 0.2, 0.2, 0.2, 0.2, 0.3890049977283053, 0.3036077705827937, 0.25357466063348416, 0.36340425531914894, 0.14336283185840706, 0.316176967240797, 0.30963321241434905, 0.22945132743362834, 0.25323235055450366, 0.15309316770186338, 0.008000000000000002, 0.006060606060606061, 0.011764705882352944, 0.006060606060606061, 0.2, 0.16734693877551013, 0.006060606060606061, 0.022222222222222223, 0.16734693877551018, 0.328, 0.10123456790123454, 0.39834710743801655, 0.49387755102040815, 0.24848484848484848, 0.022222222222222227, 0.4102189781021898, 0.12615384615384614, 0.49629629629629635, 0.28421052631578947, 0.33061224489795915, 0.2, 0.2, 0.2, 0.2, 0.2, 0.2, 0.2, 0.2, 0.2, 0.2, 0.07641980917764651, 0.08159111933395005, 0.15221719457013574, 0.11375886524822695, 0.07256637168141591, 0.12164809186085782, 0.07101975010076582, 0.05953982300884955, 0.06929943197186908, 0.08750310559006211, 0.008000000000000002, 0.24848484848484848, 0.011764705882352944, 0.24848484848484848, 0.2, 0.004081632653061223, 0.006060606060606061, 0.022222222222222223, 0.16734693877551018, 0.008000000000000002, 0.19999999999999996, 0.19999999999999998, 0.16734693877551018, 0.24848484848484848, 0.9111111111111112, 0.05985401459854014, 0.3723076923076923, 0.29876543209876544, 0.143859649122807, 0.004081632653061225, 0.2, 0.2, 0.2, 0.2, 0.2, 0.2, 0.2, 0.2, 0.2, 0.2, 0.07641980917764651, 0.029787234042553193, 0.15221719457013574, 0.13645390070921987, 0.21415929203539819, 0.1243498817966903, 0.16775493752519144, 0.3002477876106195, 0.30083851771706793, 0.3816645962732919, 0.648, 0.006060606060606061, 0.011764705882352944, 0.006060606060606061, 0.2, 0.16734693877551013, 0.24848484848484848, 0.911111111111111, 0.004081632653061225, 0.008000000000000002, 0.10123456790123454, 0.13388429752066114, 0.004081632653061225, 0.24848484848484848, 0.022222222222222227, 0.0014598540145985403, 0.12615384615384614, 0.0024691358024691358, 0.0035087719298245615, 0.004081632653061225, 0.2, 0.2, 0.2, 0.2, 0.2, 0.2, 0.2, 0.2, 0.2, 0.2 ;
}
probability ( total_add_line | file_changed_num ) {
    table 0.6767272727272726, 0.2123076923076923, 0.0315, 0.008888888888888889, 0.008, 0.20218181818181816, 0.40205128205128204, 0.19774999999999998, 0.022469135802469134, 0.008, 0.07672727272727271, 0.23794871794871794, 0.3565, 0.1397530864197531, 0.008, 0.02763636363636363, 0.11829059829059829, 0.28525, 0.3693827160493827, 0.008, 0.016727272727272723, 0.0294017094017094, 0.129, 0.4595061728395062, 0.968 ;
}
probability ( total_delete_line | file_changed_num, total_add_line ) {
    table 0.7174637291778613, 0.5669064748201438, 0.11943127962085309, 0.2657894736842105, 0.6565217391304349, 0.34653784219001615, 0.21275510204081632, 0.1295977011494253, 0.058381502890173395, 0.40930232558139534, 0.041269841269841276, 0.1077117572692794, 0.04572230014025244, 0.026468010517090274, 0.03914728682170543, 0.14444444444444446, 0.4417582417582418, 0.000353356890459364, 0.0001336898395721925, 0.013541106931757118, 0.19999999999999998, 0.19999999999999998, 0.19999999999999998, 0.19999999999999998, 0.0016528925619834713, 0.11832348199892527, 0.34208633093525176, 0.8540284360189574, 0.2, 0.004347826086956522, 0.28212560386473434, 0.41258503401360547, 0.3666666666666667, 0.08728323699421964, 0.060465116279069774, 0.27936507936507937, 0.2973451327433628, 0.2806451612903226, 0.09219982471516214, 0.058527131782945746, 0.005555555555555556, 0.16703296703296708, 0.19469964664310954, 0.15053475935828875, 0.01891456206340677, 0.19999999999999998, 0.19999999999999998, 0.19999999999999998, 0.19999999999999998, 0.0016528925619834713, 0.05652874798495431, 0.0633093525179856, 0.02464454976303318, 0.4631578947368421, 0.004347826086956522, 0.1533011272141707, 0.2085034013605442, 0.3666666666666667, 0.7809248554913293, 0.002325581395348837, 0.08095238095238096, 0.2530973451327434, 0.24207573632538568, 0.5041191936897459, 0.12635658914728684, 0.005555555555555556, 0.057142857142857155, 0.19469964664310954, 0.2641711229946524, 0.05115529285330467, 0.19999999999999998, 0.19999999999999998, 0.19999999999999998, 0.19999999999999998, 0.0016528925619834713, 0.04309511015583019, 0.027338129496402873, 0.0009478672985781992, 0.06842105263157895, 0.004347826086956522, 0.13719806763285025, 0.09370748299319728, 0.1295977011494253, 0.04393063583815028, 0.1186046511627907, 0.2396825396825397, 0.22781289506953226, 0.3122019635343618, 0.2674846625766871, 0.630232558139535, 0.005555555555555556, 0.057142857142857155, 0.15936395759717314, 0.33770053475935824, 0.7497044599677593, 0.19999999999999998, 0.19999999999999998, 0.19999999999999998, 0.19999999999999998, 0.0016528925619834713, 0.06458893068242878, 0.0003597122302158273, 0.0009478672985781992, 0.0026315789473684214, 0.3304347826086957, 0.08083735909822866, 0.07244897959183673, 0.007471264367816093, 0.02947976878612716, 0.40930232558139534, 0.35873015873015873, 0.11403286978508217, 0.11935483870967739, 0.10972830850131464, 0.14573643410852713, 0.8388888888888889, 0.276923076923077, 0.4508833922261484, 0.24745989304812832, 0.16668457818377214, 0.19999999999999998, 0.19999999999999998, 0.19999999999999998, 0.19999999999999998, 0.9933884297520661 ;
}
probability ( workload | label_count, mergable_state ) {
    table 0.41600303375047404, 0.33727810650887574, 0.19186849040030116, 0.14754098360655737, 0.21577550246492225, 0.28994082840236685, 0.15823817292006526, 0.09508196721311475, 0.21274175199089876, 0.14792899408284024, 0.1773120843267662, 0.14754098360655737, 0.13993174061433447, 0.10059171597633136, 0.2224871376584264, 0.42295081967213116, 0.015547971179370497, 0.1242603550295858, 0.250094114694441, 0.18688524590163935 ;
}
