network unknown {
}
variable accept_num {
    type discrete [ 4 ] { 0, 1, 2, 3 };
}
variable author_identity {
    type discrete [ 3 ] { 0, 1, 2 };
}
variable body_words {
    type discrete [ 5 ] { 0, 1, 2, 3, 4 };
}
variable change_num {
    type discrete [ 5 ] { 0, 1, 2, 3, 4 };
}
variable close_num {
    type discrete [ 5 ] { 0, 1, 2, 3, 4 };
}
variable comment_num {
    type discrete [ 4 ] { 0, 1, 2, 3 };
}
variable commit_num {
    type discrete [ 3 ] { 0, 1, 4 };
}
variable file_changed_num {
    type discrete [ 5 ] { 0, 1, 2, 3, 4 };
}
variable has_assignees_content {
    type discrete [ 2 ] { 0, 1 };
}
variable has_bug {
    type discrete [ 2 ] { 0, 1 };
}
variable has_document {
    type discrete [ 2 ] { 0, 1 };
}
variable has_feature {
    type discrete [ 2 ] { 0, 1 };
}
variable has_improve {
    type discrete [ 2 ] { 0, 1 };
}
variable has_labels {
    type discrete [ 2 ] { 0, 1 };
}
variable has_refactor {
    type discrete [ 2 ] { 0, 1 };
}
variable is_weekday {
    type discrete [ 2 ] { 0, 1 };
}
variable mergable_state {
    type discrete [ 3 ] { 0, 2, 3 };
}
variable participants_count {
    type discrete [ 3 ] { 0, 1, 3 };
}
variable pre_prs {
    type discrete [ 5 ] { 0, 1, 2, 3, 4 };
}
variable priorities_number {
    type discrete [ 5 ] { 0, 1, 2, 3, 4 };
}
variable review_comment_num {
    type discrete [ 2 ] { 0, 1 };
}
variable review_num {
    type discrete [ 2 ] { 0, 1 };
}
variable title_words {
    type discrete [ 5 ] { 0, 1, 2, 3, 4 };
}
variable total_add_line {
    type discrete [ 5 ] { 0, 1, 2, 3, 4 };
}
variable total_delete_line {
    type discrete [ 5 ] { 0, 1, 2, 3, 4 };
}
variable workload {
    type discrete [ 5 ] { 0, 1, 2, 3, 4 };
}
probability ( accept_num | close_num, has_assignees_content ) {
    table 0.9983296213808464, 0.25, 0.0002958579881656805, 0.25, 0.00041050903119868636, 0.25, 0.00033200531208499334, 0.08333333333333333, 0.000343878954607978, 0.25, 0.0005567928730512249, 0.25, 0.999112426035503, 0.25, 0.00041050903119868636, 0.25, 0.00033200531208499334, 0.08333333333333333, 0.000343878954607978, 0.25, 0.0005567928730512249, 0.25, 0.0002958579881656805, 0.25, 0.6539408866995073, 0.25, 0.22875166002656042, 0.75, 0.000343878954607978, 0.25, 0.0005567928730512249, 0.25, 0.0002958579881656805, 0.25, 0.34523809523809523, 0.25, 0.7705843293492696, 0.08333333333333333, 0.9989683631361761, 0.25 ;
}
probability ( author_identity | accept_num, change_num, mergable_state, pre_prs ) {
    table 2.6707261704457442e-05, 0.33333333333333337, 0.33333333333333337, 0.33333333333333337, 0.33333333333333337, 0.0009233610341643583, 0.33333333333333337, 0.33333333333333337, 0.33333333333333337, 0.33333333333333337, 0.33333333333333337, 0.33333333333333337, 0.33333333333333337, 0.33333333333333337, 0.33333333333333337, 0.0005546311702717692, 0.33333333333333337, 0.33333333333333337, 0.33333333333333337, 0.33333333333333337, 0.33333333333333337, 0.33333333333333337, 0.33333333333333337, 0.33333333333333337, 0.33333333333333337, 0.33333333333333337, 0.33333333333333337, 0.33333333333333337, 0.33333333333333337, 0.33333333333333337, 0.33333333333333337, 0.33333333333333337, 0.33333333333333337, 0.33333333333333337, 0.33333333333333337, 0.33333333333333337, 0.33333333333333337, 0.33333333333333337, 0.33333333333333337, 0.33333333333333337, 0.33333333333333337, 0.33333333333333337, 0.33333333333333337, 0.33333333333333337, 0.33333333333333337, 0.33333333333333337, 0.33333333333333337, 0.33333333333333337, 0.33333333333333337, 0.33333333333333337, 0.33333333333333337, 0.33333333333333337, 0.33333333333333337, 0.33333333333333337, 0.33333333333333337, 0.33333333333333337, 0.33333333333333337, 0.33333333333333337, 0.33333333333333337, 0.33333333333333337, 0.33333333333333337, 0.33333333333333337, 0.33333333333333337, 0.33333333333333337, 0.33333333333333337, 0.33333333333333337, 0.33333333333333337, 0.33333333333333337, 0.33333333333333337, 0.33333333333333337, 0.33333333333333337, 0.33333333333333337, 0.33333333333333337, 0.33333333333333337, 0.33333333333333337, 0.33333333333333337, 0.33333333333333337, 0.33333333333333337, 0.33333333333333337, 0.33333333333333337, 0.33333333333333337, 0.33333333333333337, 0.33333333333333337, 0.33333333333333337, 0.33333333333333337, 0.33333333333333337, 0.33333333333333337, 0.33333333333333337, 0.33333333333333337, 0.33333333333333337, 0.33333333333333337, 1.3853677458681409e-05, 0.33333333333333337, 0.33333333333333337, 0.33333333333333337, 0.33333333333333337, 0.0006161429451632778, 0.33333333333333337, 0.33333333333333337, 0.33333333333333337, 0.33333333333333337, 0.33333333333333337, 0.33333333333333337, 0.33333333333333337, 0.33333333333333337, 0.33333333333333337, 0.0004623208506703652, 0.33333333333333337, 0.33333333333333337, 0.33333333333333337, 0.33333333333333337, 0.33333333333333337, 0.33333333333333337, 0.33333333333333337, 0.33333333333333337, 0.33333333333333337, 0.33333333333333337, 0.33333333333333337, 0.33333333333333337, 0.33333333333333337, 0.33333333333333337, 0.33333333333333337, 0.33333333333333337, 0.33333333333333337, 0.33333333333333337, 0.33333333333333337, 0.33333333333333337, 0.33333333333333337, 0.33333333333333337, 0.33333333333333337, 0.33333333333333337, 0.33333333333333337, 0.33333333333333337, 0.33333333333333337, 0.33333333333333337, 0.33333333333333337, 0.33333333333333337, 0.33333333333333337, 0.33333333333333337, 0.33333333333333337, 0.33333333333333337, 0.33333333333333337, 0.33333333333333337, 0.33333333333333337, 0.33333333333333337, 0.33333333333333337, 0.33333333333333337, 0.33333333333333337, 0.33333333333333337, 0.33333333333333337, 0.33333333333333337, 0.33333333333333337, 0.33333333333333337, 0.33333333333333337, 0.33333333333333337, 0.33333333333333337, 0.33333333333333337, 0.33333333333333337, 0.33333333333333337, 0.33333333333333337, 0.33333333333333337, 0.33333333333333337, 0.33333333333333337, 0.33333333333333337, 0.33333333333333337, 0.33333333333333337, 0.33333333333333337, 0.33333333333333337, 0.33333333333333337, 0.33333333333333337, 0.33333333333333337, 0.33333333333333337, 0.33333333333333337, 0.33333333333333337, 0.33333333333333337, 0.33333333333333337, 0.33333333333333337, 0.33333333333333337, 0.33333333333333337, 0.33333333333333337, 0.33333333333333337, 0.33333333333333337, 3.9677816133000035e-05, 0.44990285872883706, 0.33333333333333337, 0.33333333333333337, 0.33333333333333337, 0.0027548209366391185, 0.005464480874316941, 0.33333333333333337, 0.33333333333333337, 0.33333333333333337, 0.33333333333333337, 0.33333333333333337, 0.33333333333333337, 0.33333333333333337, 0.33333333333333337, 0.00010284891494394735, 0.2131475917326778, 0.33333333333333337, 0.33333333333333337, 0.33333333333333337, 0.001841620626151013, 0.0011074197120708748, 0.33333333333333337, 0.33333333333333337, 0.33333333333333337, 0.33333333333333337, 0.33333333333333337, 0.33333333333333337, 0.33333333333333337, 0.33333333333333337, 0.33333333333333337, 0.33333333333333337, 0.33333333333333337, 0.33333333333333337, 0.33333333333333337, 0.33333333333333337, 0.33333333333333337, 0.33333333333333337, 0.33333333333333337, 0.33333333333333337, 0.33333333333333337, 0.33333333333333337, 0.33333333333333337, 0.33333333333333337, 0.33333333333333337, 0.33333333333333337, 0.33333333333333337, 0.33333333333333337, 0.33333333333333337, 0.33333333333333337, 0.33333333333333337, 0.33333333333333337, 0.33333333333333337, 0.33333333333333337, 0.33333333333333337, 0.33333333333333337, 0.33333333333333337, 0.33333333333333337, 0.33333333333333337, 0.33333333333333337, 0.33333333333333337, 0.33333333333333337, 0.33333333333333337, 0.33333333333333337, 0.33333333333333337, 0.33333333333333337, 0.33333333333333337, 0.33333333333333337, 0.33333333333333337, 0.33333333333333337, 0.33333333333333337, 0.33333333333333337, 0.33333333333333337, 0.33333333333333337, 0.33333333333333337, 0.9890710382513661, 0.9992072929052713, 0.33333333333333337, 0.33333333333333337, 0.33333333333333337, 0.9998900071495352, 0.9984164687252574, 0.005464480874316941, 0.33333333333333337, 0.33333333333333337, 0.33333333333333337, 0.33333333333333337, 0.33333333333333337, 0.33333333333333337, 0.33333333333333337, 0.33333333333333337, 0.3529384306586379, 0.5997779628087704, 0.33333333333333337, 0.33333333333333337, 0.996316758747698, 0.9362722819774781, 0.8230492980737838, 0.33333333333333337, 0.33333333333333337, 0.33333333333333337, 0.005464480874316941, 0.33333333333333337, 0.33333333333333337, 0.33333333333333337, 0.33333333333333337, 0.810595827705238, 0.7142544399748242, 0.33333333333333337, 0.33333333333333337, 0.33333333333333337, 0.9994449070219261, 0.6441809539069593, 0.33333333333333337, 0.33333333333333337, 0.33333333333333337, 0.33333333333333337, 0.33333333333333337, 2.6707261704457442e-05, 0.33333333333333337, 0.33333333333333337, 0.33333333333333337, 0.33333333333333337, 0.0009233610341643583, 0.33333333333333337, 0.33333333333333337, 0.33333333333333337, 0.33333333333333337, 0.33333333333333337, 0.33333333333333337, 0.33333333333333337, 0.33333333333333337, 0.33333333333333337, 0.0005546311702717692, 0.33333333333333337, 0.33333333333333337, 0.33333333333333337, 0.33333333333333337, 0.33333333333333337, 0.33333333333333337, 0.33333333333333337, 0.33333333333333337, 0.33333333333333337, 0.33333333333333337, 0.33333333333333337, 0.33333333333333337, 0.33333333333333337, 0.33333333333333337, 0.33333333333333337, 0.33333333333333337, 0.33333333333333337, 0.33333333333333337, 0.33333333333333337, 0.33333333333333337, 0.33333333333333337, 0.33333333333333337, 0.33333333333333337, 0.33333333333333337, 0.33333333333333337, 0.33333333333333337, 0.33333333333333337, 0.33333333333333337, 0.33333333333333337, 0.33333333333333337, 0.33333333333333337, 0.33333333333333337, 0.33333333333333337, 0.33333333333333337, 0.33333333333333337, 0.33333333333333337, 0.33333333333333337, 0.33333333333333337, 0.33333333333333337, 0.33333333333333337, 0.33333333333333337, 0.33333333333333337, 0.33333333333333337, 0.33333333333333337, 0.33333333333333337, 0.33333333333333337, 0.33333333333333337, 0.33333333333333337, 0.33333333333333337, 0.33333333333333337, 0.33333333333333337, 0.33333333333333337, 0.33333333333333337, 0.33333333333333337, 0.33333333333333337, 0.33333333333333337, 0.33333333333333337, 0.33333333333333337, 0.33333333333333337, 0.33333333333333337, 0.33333333333333337, 0.33333333333333337, 0.33333333333333337, 0.33333333333333337, 0.33333333333333337, 0.33333333333333337, 0.33333333333333337, 0.33333333333333337, 0.33333333333333337, 0.33333333333333337, 0.33333333333333337, 0.33333333333333337, 0.33333333333333337, 0.33333333333333337, 0.33333333333333337, 1.3853677458681409e-05, 0.33333333333333337, 0.33333333333333337, 0.33333333333333337, 0.33333333333333337, 0.0006161429451632778, 0.33333333333333337, 0.33333333333333337, 0.33333333333333337, 0.33333333333333337, 0.33333333333333337, 0.33333333333333337, 0.33333333333333337, 0.33333333333333337, 0.33333333333333337, 0.0004623208506703652, 0.33333333333333337, 0.33333333333333337, 0.33333333333333337, 0.33333333333333337, 0.33333333333333337, 0.33333333333333337, 0.33333333333333337, 0.33333333333333337, 0.33333333333333337, 0.33333333333333337, 0.33333333333333337, 0.33333333333333337, 0.33333333333333337, 0.33333333333333337, 0.33333333333333337, 0.33333333333333337, 0.33333333333333337, 0.33333333333333337, 0.33333333333333337, 0.33333333333333337, 0.33333333333333337, 0.33333333333333337, 0.33333333333333337, 0.33333333333333337, 0.33333333333333337, 0.33333333333333337, 0.33333333333333337, 0.33333333333333337, 0.33333333333333337, 0.33333333333333337, 0.33333333333333337, 0.33333333333333337, 0.33333333333333337, 0.33333333333333337, 0.33333333333333337, 0.33333333333333337, 0.33333333333333337, 0.33333333333333337, 0.33333333333333337, 0.33333333333333337, 0.33333333333333337, 0.33333333333333337, 0.33333333333333337, 0.33333333333333337, 0.33333333333333337, 0.33333333333333337, 0.33333333333333337, 0.33333333333333337, 0.33333333333333337, 0.33333333333333337, 0.33333333333333337, 0.33333333333333337, 0.33333333333333337, 0.33333333333333337, 0.33333333333333337, 0.33333333333333337, 0.33333333333333337, 0.33333333333333337, 0.33333333333333337, 0.33333333333333337, 0.33333333333333337, 0.33333333333333337, 0.33333333333333337, 0.33333333333333337, 0.33333333333333337, 0.33333333333333337, 0.33333333333333337, 0.33333333333333337, 0.33333333333333337, 0.33333333333333337, 0.33333333333333337, 0.33333333333333337, 0.33333333333333337, 0.33333333333333337, 0.33333333333333337, 0.16430583660675316, 0.5498195947821259, 0.33333333333333337, 0.33333333333333337, 0.33333333333333337, 0.4986225895316804, 0.9890710382513661, 0.33333333333333337, 0.33333333333333337, 0.33333333333333337, 0.33333333333333337, 0.33333333333333337, 0.33333333333333337, 0.33333333333333337, 0.33333333333333337, 0.6295382083719017, 0.5573158517709187, 0.33333333333333337, 0.33333333333333337, 0.33333333333333337, 0.996316758747698, 0.7984496124031008, 0.33333333333333337, 0.33333333333333337, 0.33333333333333337, 0.33333333333333337, 0.33333333333333337, 0.33333333333333337, 0.33333333333333337, 0.33333333333333337, 0.33333333333333337, 0.33333333333333337, 0.33333333333333337, 0.33333333333333337, 0.33333333333333337, 0.33333333333333337, 0.33333333333333337, 0.33333333333333337, 0.33333333333333337, 0.33333333333333337, 0.33333333333333337, 0.33333333333333337, 0.33333333333333337, 0.33333333333333337, 0.33333333333333337, 0.33333333333333337, 0.33333333333333337, 0.33333333333333337, 0.33333333333333337, 0.33333333333333337, 0.33333333333333337, 0.33333333333333337, 0.33333333333333337, 0.33333333333333337, 0.33333333333333337, 0.33333333333333337, 0.33333333333333337, 0.33333333333333337, 0.33333333333333337, 0.33333333333333337, 0.33333333333333337, 0.33333333333333337, 0.33333333333333337, 0.33333333333333337, 0.33333333333333337, 0.33333333333333337, 0.33333333333333337, 0.33333333333333337, 0.33333333333333337, 0.33333333333333337, 0.33333333333333337, 0.33333333333333337, 0.33333333333333337, 0.33333333333333337, 0.33333333333333337, 0.005464480874316941, 0.0003963535473642489, 0.33333333333333337, 0.33333333333333337, 0.33333333333333337, 5.499642523235989e-05, 0.0007917656373713382, 0.9890710382513661, 0.33333333333333337, 0.33333333333333337, 0.33333333333333337, 0.33333333333333337, 0.33333333333333337, 0.33333333333333337, 0.33333333333333337, 0.33333333333333337, 0.5041777528824161, 0.2500693866222592, 0.33333333333333337, 0.33333333333333337, 0.001841620626151013, 0.0636772206231379, 0.05909239307868102, 0.33333333333333337, 0.33333333333333337, 0.33333333333333337, 0.9890710382513661, 0.33333333333333337, 0.33333333333333337, 0.33333333333333337, 0.33333333333333337, 0.18925408974936214, 0.12316996415182113, 0.33333333333333337, 0.33333333333333337, 0.33333333333333337, 0.00027754648903691365, 0.03850878598515195, 0.33333333333333337, 0.33333333333333337, 0.33333333333333337, 0.33333333333333337, 0.33333333333333337, 0.999946585476591, 0.33333333333333337, 0.33333333333333337, 0.33333333333333337, 0.33333333333333337, 0.9981532779316713, 0.33333333333333337, 0.33333333333333337, 0.33333333333333337, 0.33333333333333337, 0.33333333333333337, 0.33333333333333337, 0.33333333333333337, 0.33333333333333337, 0.33333333333333337, 0.9988907376594565, 0.33333333333333337, 0.33333333333333337, 0.33333333333333337, 0.33333333333333337, 0.33333333333333337, 0.33333333333333337, 0.33333333333333337, 0.33333333333333337, 0.33333333333333337, 0.33333333333333337, 0.33333333333333337, 0.33333333333333337, 0.33333333333333337, 0.33333333333333337, 0.33333333333333337, 0.33333333333333337, 0.33333333333333337, 0.33333333333333337, 0.33333333333333337, 0.33333333333333337, 0.33333333333333337, 0.33333333333333337, 0.33333333333333337, 0.33333333333333337, 0.33333333333333337, 0.33333333333333337, 0.33333333333333337, 0.33333333333333337, 0.33333333333333337, 0.33333333333333337, 0.33333333333333337, 0.33333333333333337, 0.33333333333333337, 0.33333333333333337, 0.33333333333333337, 0.33333333333333337, 0.33333333333333337, 0.33333333333333337, 0.33333333333333337, 0.33333333333333337, 0.33333333333333337, 0.33333333333333337, 0.33333333333333337, 0.33333333333333337, 0.33333333333333337, 0.33333333333333337, 0.33333333333333337, 0.33333333333333337, 0.33333333333333337, 0.33333333333333337, 0.33333333333333337, 0.33333333333333337, 0.33333333333333337, 0.33333333333333337, 0.33333333333333337, 0.33333333333333337, 0.33333333333333337, 0.33333333333333337, 0.33333333333333337, 0.33333333333333337, 0.33333333333333337, 0.33333333333333337, 0.33333333333333337, 0.33333333333333337, 0.33333333333333337, 0.33333333333333337, 0.33333333333333337, 0.33333333333333337, 0.33333333333333337, 0.33333333333333337, 0.33333333333333337, 0.33333333333333337, 0.33333333333333337, 0.33333333333333337, 0.33333333333333337, 0.9999722926450826, 0.33333333333333337, 0.33333333333333337, 0.33333333333333337, 0.33333333333333337, 0.9987677141096735, 0.33333333333333337, 0.33333333333333337, 0.33333333333333337, 0.33333333333333337, 0.33333333333333337, 0.33333333333333337, 0.33333333333333337, 0.33333333333333337, 0.33333333333333337, 0.9990753582986592, 0.33333333333333337, 0.33333333333333337, 0.33333333333333337, 0.33333333333333337, 0.33333333333333337, 0.33333333333333337, 0.33333333333333337, 0.33333333333333337, 0.33333333333333337, 0.33333333333333337, 0.33333333333333337, 0.33333333333333337, 0.33333333333333337, 0.33333333333333337, 0.33333333333333337, 0.33333333333333337, 0.33333333333333337, 0.33333333333333337, 0.33333333333333337, 0.33333333333333337, 0.33333333333333337, 0.33333333333333337, 0.33333333333333337, 0.33333333333333337, 0.33333333333333337, 0.33333333333333337, 0.33333333333333337, 0.33333333333333337, 0.33333333333333337, 0.33333333333333337, 0.33333333333333337, 0.33333333333333337, 0.33333333333333337, 0.33333333333333337, 0.33333333333333337, 0.33333333333333337, 0.33333333333333337, 0.33333333333333337, 0.33333333333333337, 0.33333333333333337, 0.33333333333333337, 0.33333333333333337, 0.33333333333333337, 0.33333333333333337, 0.33333333333333337, 0.33333333333333337, 0.33333333333333337, 0.33333333333333337, 0.33333333333333337, 0.33333333333333337, 0.33333333333333337, 0.33333333333333337, 0.33333333333333337, 0.33333333333333337, 0.33333333333333337, 0.33333333333333337, 0.33333333333333337, 0.33333333333333337, 0.33333333333333337, 0.33333333333333337, 0.33333333333333337, 0.33333333333333337, 0.33333333333333337, 0.33333333333333337, 0.33333333333333337, 0.33333333333333337, 0.33333333333333337, 0.33333333333333337, 0.33333333333333337, 0.33333333333333337, 0.33333333333333337, 0.33333333333333337, 0.33333333333333337, 0.33333333333333337, 0.33333333333333337, 0.8356544855771137, 0.00027754648903691365, 0.33333333333333337, 0.33333333333333337, 0.33333333333333337, 0.4986225895316804, 0.005464480874316941, 0.33333333333333337, 0.33333333333333337, 0.33333333333333337, 0.33333333333333337, 0.33333333333333337, 0.33333333333333337, 0.33333333333333337, 0.33333333333333337, 0.3703589427131544, 0.22953655649640356, 0.33333333333333337, 0.33333333333333337, 0.33333333333333337, 0.001841620626151013, 0.20044296788482835, 0.33333333333333337, 0.33333333333333337, 0.33333333333333337, 0.33333333333333337, 0.33333333333333337, 0.33333333333333337, 0.33333333333333337, 0.33333333333333337, 0.33333333333333337, 0.33333333333333337, 0.33333333333333337, 0.33333333333333337, 0.33333333333333337, 0.33333333333333337, 0.33333333333333337, 0.33333333333333337, 0.33333333333333337, 0.33333333333333337, 0.33333333333333337, 0.33333333333333337, 0.33333333333333337, 0.33333333333333337, 0.33333333333333337, 0.33333333333333337, 0.33333333333333337, 0.33333333333333337, 0.33333333333333337, 0.33333333333333337, 0.33333333333333337, 0.33333333333333337, 0.33333333333333337, 0.33333333333333337, 0.33333333333333337, 0.33333333333333337, 0.33333333333333337, 0.33333333333333337, 0.33333333333333337, 0.33333333333333337, 0.33333333333333337, 0.33333333333333337, 0.33333333333333337, 0.33333333333333337, 0.33333333333333337, 0.33333333333333337, 0.33333333333333337, 0.33333333333333337, 0.33333333333333337, 0.33333333333333337, 0.33333333333333337, 0.33333333333333337, 0.33333333333333337, 0.33333333333333337, 0.33333333333333337, 0.005464480874316941, 0.0003963535473642489, 0.33333333333333337, 0.33333333333333337, 0.33333333333333337, 5.499642523235989e-05, 0.0007917656373713382, 0.005464480874316941, 0.33333333333333337, 0.33333333333333337, 0.33333333333333337, 0.33333333333333337, 0.33333333333333337, 0.33333333333333337, 0.33333333333333337, 0.33333333333333337, 0.142883816458946, 0.1501526505689703, 0.33333333333333337, 0.33333333333333337, 0.001841620626151013, 5.049739938393172e-05, 0.11785830884753508, 0.33333333333333337, 0.33333333333333337, 0.33333333333333337, 0.005464480874316941, 0.33333333333333337, 0.33333333333333337, 0.33333333333333337, 0.33333333333333337, 0.00015008254539996998, 0.16257559587335466, 0.33333333333333337, 0.33333333333333337, 0.33333333333333337, 0.00027754648903691365, 0.31731026010788865, 0.33333333333333337, 0.33333333333333337, 0.33333333333333337, 0.33333333333333337, 0.33333333333333337 ;
}
probability ( body_words | comment_num, has_refactor, mergable_state, review_num ) {
    table 0.4175721825520025, 0.3570593859555933, 0.4948805460750853, 0.2974981421847907, 0.2, 0.2, 0.2, 0.9603960396039601, 0.2, 0.9245283018867927, 0.2, 0.2, 0.3378259595663639, 0.25314120024602405, 0.3288590604026846, 0.0850186530532103, 0.2, 0.2, 0.2487309644670051, 0.49238578680203055, 0.2, 0.9245283018867927, 0.2, 0.2, 0.28868360277136257, 0.14393299008683627, 0.002932551319648094, 0.026609678753619186, 0.2, 0.01886792452830189, 0.018867924528301893, 0.7360406091370559, 0.01886792452830189, 0.9245283018867927, 0.2, 0.2, 0.214259190493873, 0.1035800110912564, 0.2, 0.07190511489992586, 0.2, 0.2, 0.2, 0.24873096446700504, 0.2, 0.2, 0.2, 0.2, 0.34306116113008384, 0.16838414958036757, 0.00341296928327645, 0.26182809016596487, 0.2, 0.2, 0.2, 0.009900990099009898, 0.2, 0.018867924528301893, 0.2, 0.2, 0.38001757984178147, 0.2109656444952113, 0.006711409395973155, 0.2075397604555272, 0.2, 0.2, 0.7360406091370559, 0.49238578680203055, 0.2, 0.018867924528301893, 0.2, 0.2, 0.2443418013856813, 0.19188503803888424, 0.1436950146627566, 0.11926099545015853, 0.2, 0.01886792452830189, 0.9245283018867927, 0.005076142131979696, 0.01886792452830189, 0.018867924528301893, 0.2, 0.2, 0.33902710731526176, 0.12428368969129339, 0.2, 0.14306893995552258, 0.2, 0.2, 0.2, 0.49238578680203043, 0.2, 0.2, 0.2, 0.2, 0.10462589257994413, 0.19388080314458728, 0.00341296928327645, 0.2380480554867476, 0.2, 0.2, 0.2, 0.009900990099009898, 0.2, 0.018867924528301893, 0.2, 0.2, 0.11280398476413715, 0.2151832000702926, 0.006711409395973155, 0.25466326330257216, 0.2, 0.2, 0.005076142131979696, 0.005076142131979696, 0.2, 0.018867924528301893, 0.2, 0.2, 0.31085450346420324, 0.23983708599093215, 0.4252199413489737, 0.2847097752654074, 0.2, 0.01886792452830189, 0.018867924528301893, 0.2487309644670051, 0.9245283018867925, 0.018867924528301893, 0.2, 0.2, 0.1251392499071667, 0.2100560724628751, 0.2, 0.17865085248332094, 0.2, 0.2, 0.2, 0.005076142131979695, 0.2, 0.2, 0.2, 0.2, 0.11952809686432787, 0.1734834802932115, 0.3310580204778157, 0.1191478820906614, 0.2, 0.2, 0.2, 0.009900990099009898, 0.2, 0.018867924528301893, 0.2, 0.2, 0.1409317316144155, 0.20253053334504875, 0.3288590604026846, 0.2169644610249362, 0.2, 0.2, 0.005076142131979696, 0.005076142131979696, 0.2, 0.018867924528301893, 0.2, 0.2, 0.1113163972286374, 0.23983708599093215, 0.1436950146627566, 0.23176616572452777, 0.2, 0.01886792452830189, 0.018867924528301893, 0.005076142131979696, 0.01886792452830189, 0.018867924528301893, 0.2, 0.2, 0.14296323802450797, 0.31653213383449386, 0.2, 0.2853965900667161, 0.2, 0.2, 0.2, 0.24873096446700504, 0.2, 0.2, 0.2, 0.2, 0.015212666873641726, 0.10719218102624029, 0.16723549488054607, 0.08347783007183553, 0.2, 0.2, 0.2, 0.009900990099009898, 0.2, 0.018867924528301893, 0.2, 0.2, 0.028420744213302086, 0.11817942184342324, 0.3288590604026846, 0.2358138621637542, 0.2, 0.2, 0.005076142131979696, 0.005076142131979696, 0.2, 0.018867924528301893, 0.2, 0.2, 0.04480369515011547, 0.1845077998924153, 0.2844574780058651, 0.33765338480628704, 0.2, 0.9245283018867925, 0.018867924528301893, 0.005076142131979696, 0.01886792452830189, 0.018867924528301893, 0.2, 0.2, 0.1786112142591905, 0.24554809292008134, 0.2, 0.32097850259451444, 0.2, 0.2, 0.2, 0.005076142131979695, 0.2, 0.2, 0.2, 0.2 ;
}
probability ( change_num | accept_num, close_num ) {
    table 0.9545150501672239, 0.2, 0.2, 0.2, 0.2, 0.2, 0.00011841326228537595, 0.2, 0.2, 0.2, 0.2, 0.2, 0.00025094102885821835, 0.0005730659025787966, 0.2, 0.2, 0.2, 0.00047505938242280296, 0.00017226528854435833, 0.00013764624913971095, 0.04481605351170568, 0.2, 0.2, 0.2, 0.2, 0.2, 0.9711071640023682, 0.2, 0.2, 0.2, 0.2, 0.2, 0.00025094102885821835, 0.0005730659025787966, 0.2, 0.2, 0.2, 0.00047505938242280296, 0.00017226528854435833, 0.00013764624913971095, 0.00022296544035674466, 0.2, 0.2, 0.2, 0.2, 0.2, 0.028537596210775604, 0.2, 0.2, 0.2, 0.2, 0.2, 0.7129234629861984, 0.24126074498567335, 0.2, 0.2, 0.2, 0.9695961995249407, 0.07252368647717485, 0.0028905712319339297, 0.00022296544035674466, 0.2, 0.2, 0.2, 0.2, 0.2, 0.00011841326228537595, 0.2, 0.2, 0.2, 0.2, 0.2, 0.2863237139272271, 0.7570200573065903, 0.2, 0.2, 0.2, 0.028978622327790977, 0.7684754521963825, 0.12126634549208533, 0.00022296544035674466, 0.2, 0.2, 0.2, 0.2, 0.2, 0.00011841326228537595, 0.2, 0.2, 0.2, 0.2, 0.2, 0.00025094102885821835, 0.0005730659025787966, 0.2, 0.2, 0.2, 0.00047505938242280296, 0.158656330749354, 0.8755677907777013 ;
}
probability ( close_num | pre_prs ) {
    table 0.9964444444444447, 0.00047281323877068567, 0.0006557377049180329, 0.000505050505050505, 0.0005780346820809249, 0.0008888888888888891, 0.9981087470449174, 0.0006557377049180329, 0.000505050505050505, 0.0005780346820809249, 0.0008888888888888891, 0.00047281323877068567, 0.997377049180328, 0.000505050505050505, 0.0005780346820809249, 0.0008888888888888891, 0.00047281323877068567, 0.0006557377049180329, 0.9525252525252524, 0.0005780346820809249, 0.0008888888888888891, 0.00047281323877068567, 0.0006557377049180329, 0.04595959595959596, 0.9976878612716763 ;
}
probability ( comment_num | has_assignees_content, participants_count, review_comment_num ) {
    table 0.6899813171415227, 0.5150498051104375, 0.2838635197537199, 0.13206160037145953, 0.003943217665615142, 0.027138042409773907, 0.25, 0.25, 0.25, 0.7794117647058822, 0.25, 0.25, 0.2247781410555815, 0.4838674750974448, 0.33927655207798874, 0.3215059588299025, 0.19321766561514195, 0.10128493189158824, 0.25, 0.25, 0.25, 0.07352941176470587, 0.25, 0.25, 0.06784212984586642, 0.0005413598960589, 0.25923550538737816, 0.5388097817675284, 0.19321766561514195, 0.22430136216823476, 0.25, 0.25, 0.25, 0.07352941176470587, 0.25, 0.25, 0.017398411957029427, 0.0005413598960589, 0.1176244227809133, 0.007622659031109737, 0.6096214511041009, 0.647275663530403, 0.25, 0.25, 0.25, 0.07352941176470587, 0.25, 0.25 ;
}
probability ( commit_num | total_add_line ) {
    table 0.41568627450980394, 0.2164102564102564, 0.12241054613935973, 0.05316973415132925, 0.01523809523809524, 0.5833333333333334, 0.7825641025641026, 0.876647834274953, 0.9458077709611453, 0.980952380952381, 0.000980392156862745, 0.0010256410256410256, 0.0009416195856873824, 0.0010224948875255625, 0.00380952380952381 ;
}
probability ( file_changed_num | has_assignees_content, has_refactor ) {
    table 0.20047983205877942, 0.6288659793814433, 0.1111111111111111, 0.2, 0.22087269455690509, 0.13402061855670103, 0.1111111111111111, 0.2, 0.16209326735642526, 0.13402061855670103, 0.5555555555555556, 0.2, 0.4146048882890988, 0.09278350515463918, 0.1111111111111111, 0.2, 0.001949317738791423, 0.010309278350515464, 0.1111111111111111, 0.2 ;
}
probability ( has_assignees_content ) {
    table 0.9979351032448378, 0.002064896755162242 ;
}
probability ( has_bug | body_words ) {
    table 0.9127218934911243, 0.9474474474474475, 0.9433701657458563, 0.9741144414168937, 0.9983050847457627, 0.08727810650887574, 0.052552552552552555, 0.05662983425414365, 0.025885558583106268, 0.001694915254237288 ;
}
probability ( has_document | body_words, has_feature ) {
    table 0.9328593996840442, 0.8023255813953488, 0.9778625954198473, 0.9545454545454546, 0.9853556485355649, 0.6428571428571429, 0.9938608458390177, 0.5, 0.9991511035653651, 0.5, 0.06714060031595577, 0.19767441860465115, 0.022137404580152672, 0.045454545454545456, 0.014644351464435146, 0.35714285714285715, 0.006139154160982265, 0.5, 0.0008488964346349745, 0.5 ;
}
probability ( has_feature | body_words ) {
    table 0.9363905325443787, 0.9834834834834835, 0.9903314917127072, 0.9986376021798365, 0.9983050847457627, 0.06360946745562131, 0.016516516516516516, 0.009668508287292817, 0.0013623978201634877, 0.001694915254237288 ;
}
probability ( has_improve | body_words ) {
    table 0.9393491124260355, 0.9744744744744744, 0.9875690607734806, 0.9931880108991825, 0.9983050847457627, 0.060650887573964495, 0.025525525525525526, 0.012430939226519336, 0.006811989100817439, 0.001694915254237288 ;
}
probability ( has_labels | author_identity, change_num, mergable_state ) {
    table 0.5, 0.5, 0.5, 0.5, 0.5, 0.5, 0.5, 0.8977389516957862, 0.5, 0.8948675496688742, 0.9329324699352451, 0.5, 0.7427030456852792, 0.930484693877551, 0.5, 0.5, 0.5, 0.5, 0.5, 0.5, 0.5, 0.17752442996742668, 0.33928571428571436, 0.5, 0.6690317195325542, 0.5330882352941176, 0.95, 0.5934256055363322, 0.9864864864864865, 0.5, 0.7594767752269087, 0.990909090909091, 0.5, 0.9220270270270271, 0.9939024390243902, 0.5, 0.8446643717728055, 0.95, 0.5, 0.9435318275154004, 0.9821428571428572, 0.5, 0.7265100671140939, 0.8171140939597316, 0.5, 0.5, 0.5, 0.5, 0.5, 0.5, 0.5, 0.5, 0.10226104830421377, 0.5, 0.10513245033112582, 0.06706753006475485, 0.5, 0.2572969543147209, 0.06951530612244898, 0.5, 0.5, 0.5, 0.5, 0.5, 0.5, 0.5, 0.8224755700325732, 0.6607142857142857, 0.5, 0.33096828046744575, 0.46691176470588236, 0.049999999999999996, 0.4065743944636678, 0.013513513513513514, 0.5, 0.24052322477309132, 0.00909090909090909, 0.5, 0.07797297297297298, 0.006097560975609756, 0.5, 0.1553356282271945, 0.049999999999999996, 0.5, 0.05646817248459958, 0.01785714285714286, 0.5, 0.273489932885906, 0.18288590604026844, 0.5 ;
}
probability ( has_refactor ) {
    table 0.9849557522123894, 0.01504424778761062 ;
}
probability ( is_weekday | has_document, has_improve, mergable_state ) {
    table 0.1710782667114545, 0.11183484212850521, 0.1470588235294118, 0.3358662613981763, 0.2230769230769231, 0.5, 0.32493368700265257, 0.02808988764044944, 0.5, 0.9137931034482758, 0.5, 0.5, 0.8289217332885456, 0.8881651578714949, 0.8529411764705883, 0.6641337386018237, 0.7769230769230769, 0.5, 0.6750663129973475, 0.9719101123595506, 0.5, 0.08620689655172413, 0.5, 0.5 ;
}
probability ( mergable_state | accept_num, close_num ) {
    table 0.972500929022668, 0.3333333333333333, 0.3333333333333333, 0.3333333333333333, 0.3333333333333333, 0.3333333333333333, 0.9782909019143479, 0.3333333333333333, 0.3333333333333333, 0.3333333333333333, 0.3333333333333333, 0.3333333333333333, 0.974069427017984, 0.9293218720152818, 0.3333333333333333, 0.3333333333333333, 0.3333333333333333, 0.010292953285827395, 0.5343095033017514, 0.655425556320257, 0.0271274619100706, 0.3333333333333333, 0.3333333333333333, 0.3333333333333333, 0.3333333333333333, 0.3333333333333333, 0.021511742648509972, 0.3333333333333333, 0.3333333333333333, 0.3333333333333333, 0.3333333333333333, 0.3333333333333333, 0.02551233793391886, 0.06972301814708692, 0.3333333333333333, 0.3333333333333333, 0.3333333333333333, 0.9889152810768014, 0.4619580821131209, 0.3443450332645102, 0.00037160906726124113, 0.3333333333333333, 0.3333333333333333, 0.3333333333333333, 0.3333333333333333, 0.3333333333333333, 0.00019735543714229328, 0.3333333333333333, 0.3333333333333333, 0.3333333333333333, 0.3333333333333333, 0.3333333333333333, 0.00041823504809703046, 0.0009551098376313277, 0.3333333333333333, 0.3333333333333333, 0.3333333333333333, 0.0007917656373713382, 0.003732414585127763, 0.00022941041523285156 ;
}
probability ( participants_count | accept_num, commit_num, has_labels ) {
    table 0.11558185404339252, 0.16951080773606372, 0.014865808640127709, 0.05416212286441295, 0.3333333333333333, 0.3333333333333333, 0.011185682326621923, 0.0574712643678161, 0.04466005305425342, 0.3333333333333333, 0.3333333333333333, 0.3333333333333333, 0.26391901663051337, 0.5906074527820316, 0.21937829215817198, 0.2832158705298878, 0.3333333333333333, 0.3333333333333333, 0.4304151016083983, 0.5920655454937473, 0.27217877749465486, 0.42039124238891046, 0.0574712643678161, 0.3333333333333333, 0.34280078895463517, 0.3333333333333333, 0.1298014566497057, 0.08033442384587425, 0.3333333333333333, 0.3333333333333333, 0.17225950782997762, 0.8850574712643678, 0.22780624295940985, 0.24299456294437471, 0.3333333333333333, 0.3333333333333333, 0.628344179320318, 0.40684022460439007, 0.4277023518065139, 0.4899504045941008, 0.3333333333333333, 0.3333333333333333, 0.5136280458441683, 0.37473048727899966, 0.626453445801482, 0.513667573519886, 0.0574712643678161, 0.3333333333333333, 0.5416173570019724, 0.49715585893060293, 0.8553327347101667, 0.8655034532897129, 0.3333333333333333, 0.3333333333333333, 0.8165548098434005, 0.0574712643678161, 0.7275337039863367, 0.4236721037222919, 0.3333333333333333, 0.3333333333333333, 0.10773680404916847, 0.002552322613578357, 0.3529193560353142, 0.2268337248760115, 0.3333333333333333, 0.3333333333333333, 0.0559568525474333, 0.033203967227253134, 0.10136777670386315, 0.06594118409120353, 0.8850574712643678, 0.3333333333333333 ;
}
probability ( pre_prs | commit_num, total_delete_line ) {
    table 0.24746835443037973, 0.15280898876404495, 0.17, 0.07603305785123968, 0.0034482758620689655, 0.25783132530120484, 0.1673575129533679, 0.11085353003161225, 0.060838150289017345, 0.08884210526315789, 0.2, 0.2, 0.2, 0.2, 0.05, 0.0481012658227848, 0.017977528089887642, 0.00125, 0.0016528925619834713, 0.05517241379310345, 0.280421686746988, 0.4082901554404145, 0.3700737618545838, 0.1995664739884393, 0.24673684210526317, 0.2, 0.2, 0.2, 0.2, 0.05, 0.2569620253164557, 0.22022471910112362, 0.20750000000000002, 0.22479338842975208, 0.15862068965517243, 0.27590361445783135, 0.1518134715025907, 0.1266596417281349, 0.15838150289017341, 0.17726315789473682, 0.2, 0.2, 0.2, 0.2, 0.05, 0.3613924050632911, 0.3887640449438203, 0.28250000000000003, 0.22479338842975208, 0.3137931034482759, 0.12228915662650602, 0.2062176165803109, 0.21201264488935723, 0.2645953757225434, 0.2151578947368421, 0.2, 0.2, 0.2, 0.2, 0.8, 0.0860759493670886, 0.22022471910112362, 0.33875000000000005, 0.4727272727272728, 0.4689655172413793, 0.06355421686746987, 0.06632124352331607, 0.18040042149631194, 0.3166184971098266, 0.272, 0.2, 0.2, 0.2, 0.2, 0.05 ;
}
probability ( priorities_number | comment_num, commit_num, mergable_state ) {
    table 0.5827005612413338, 0.7730103806228373, 0.19999999999999998, 0.32034963962582425, 0.8413905486148832, 0.19999999999999998, 0.19999999999999998, 0.19999999999999998, 0.19999999999999998, 0.43156320119670905, 0.3120138288677614, 0.19999999999999998, 0.09682555478157032, 0.32029861357980804, 0.19999999999999998, 0.19999999999999998, 0.19999999999999998, 0.19999999999999998, 0.111791730474732, 0.21048798252002912, 0.19999999999999998, 0.07926326399706773, 0.21309984080054584, 0.02439024390243903, 0.19999999999999998, 0.19999999999999998, 0.19999999999999998, 0.13394495412844035, 0.16704805491990846, 0.19999999999999998, 0.05240968234353421, 0.001721170395869191, 0.19999999999999998, 0.02439024390243903, 0.19999999999999998, 0.19999999999999998, 0.3212281280950809, 0.1750865051903114, 0.19999999999999998, 0.26514338291673056, 0.09831613253666485, 0.19999999999999998, 0.19999999999999998, 0.19999999999999998, 0.19999999999999998, 0.27000747943156317, 0.40535868625756266, 0.19999999999999998, 0.21504627326102102, 0.2819054390330608, 0.19999999999999998, 0.19999999999999998, 0.19999999999999998, 0.19999999999999998, 0.332312404287902, 0.2629278951201748, 0.19999999999999998, 0.1782278017043893, 0.2458494428019104, 0.02439024390243903, 0.19999999999999998, 0.19999999999999998, 0.19999999999999998, 0.2660550458715596, 0.16704805491990846, 0.19999999999999998, 0.10736352402413318, 0.06368330464716006, 0.19999999999999998, 0.02439024390243903, 0.19999999999999998, 0.19999999999999998, 0.09541102674149886, 0.0505190311418685, 0.19999999999999998, 0.2596227572458212, 0.05920695274307441, 0.19999999999999998, 0.19999999999999998, 0.19999999999999998, 0.19999999999999998, 0.24308152580403888, 0.09420916162489194, 0.19999999999999998, 0.2652005174644243, 0.11553501599715607, 0.19999999999999998, 0.19999999999999998, 0.19999999999999998, 0.19999999999999998, 0.3874425727411945, 0.15804806991988346, 0.19999999999999998, 0.23100888848162743, 0.06572663179440529, 0.02439024390243903, 0.19999999999999998, 0.19999999999999998, 0.19999999999999998, 0.2660550458715596, 0.16704805491990846, 0.19999999999999998, 0.20157010976230283, 0.12564543889845095, 0.19999999999999998, 0.02439024390243903, 0.19999999999999998, 0.19999999999999998, 0.0003301419610432486, 0.0006920415224913494, 0.19999999999999998, 0.07192148443490262, 0.0005431830526887561, 0.19999999999999998, 0.19999999999999998, 0.19999999999999998, 0.19999999999999998, 0.05459985041136873, 0.09420916162489194, 0.19999999999999998, 0.197134043188377, 0.16672591539281906, 0.19999999999999998, 0.19999999999999998, 0.19999999999999998, 0.19999999999999998, 0.111791730474732, 0.13182811361981062, 0.19999999999999998, 0.23100888848162743, 0.19672503979986355, 0.902439024390244, 0.19999999999999998, 0.19999999999999998, 0.19999999999999998, 0.33211009174311923, 0.08466819221967962, 0.19999999999999998, 0.31147779312350077, 0.1876075731497418, 0.19999999999999998, 0.902439024390244, 0.19999999999999998, 0.19999999999999998, 0.0003301419610432486, 0.0006920415224913494, 0.19999999999999998, 0.08296273577672136, 0.0005431830526887561, 0.19999999999999998, 0.19999999999999998, 0.19999999999999998, 0.19999999999999998, 0.0007479431563201195, 0.09420916162489194, 0.19999999999999998, 0.22579361130460746, 0.11553501599715607, 0.19999999999999998, 0.19999999999999998, 0.19999999999999998, 0.19999999999999998, 0.0566615620214395, 0.23670793882010197, 0.19999999999999998, 0.2804911573352882, 0.27859904480327496, 0.02439024390243903, 0.19999999999999998, 0.19999999999999998, 0.19999999999999998, 0.0018348623853211008, 0.41418764302059496, 0.19999999999999998, 0.32717889074652906, 0.621342512908778, 0.19999999999999998, 0.02439024390243903, 0.19999999999999998, 0.19999999999999998 ;
}
probability ( review_comment_num | participants_count, total_add_line ) {
    table 0.7465034965034965, 0.451417004048583, 0.5403587443946188, 0.35937500000000006, 0.16834170854271358, 0.46675900277008303, 0.4169230769230769, 0.21551724137931033, 0.14551422319474838, 0.05456171735241503, 0.08981233243967827, 0.05334987593052109, 0.03579676674364897, 0.018005540166204984, 0.011986301369863013, 0.2534965034965035, 0.548582995951417, 0.45964125560538116, 0.640625, 0.8316582914572864, 0.5332409972299169, 0.583076923076923, 0.7844827586206896, 0.8544857768052517, 0.945438282647585, 0.9101876675603217, 0.9466501240694789, 0.9642032332563512, 0.981994459833795, 0.988013698630137 ;
}
probability ( review_num | accept_num, close_num, has_assignees_content, review_comment_num ) {
    table 0.999054820415879, 0.11530912659470069, 0.5, 0.5, 0.5, 0.5, 0.5, 0.5, 0.5, 0.5, 0.5, 0.5, 0.5, 0.5, 0.5, 0.5, 0.5, 0.5, 0.5, 0.5, 0.5, 0.5, 0.5, 0.5, 0.999421965317919, 0.1033282390898285, 0.5, 0.5, 0.5, 0.5, 0.5, 0.5, 0.5, 0.5, 0.5, 0.5, 0.5, 0.5, 0.5, 0.5, 0.5, 0.5, 0.5, 0.5, 0.5, 0.5, 0.5, 0.5, 0.999290780141844, 0.16787585650947198, 0.5, 0.5, 0.5199501246882793, 0.08239508700102355, 0.5, 0.9705882352941176, 0.5, 0.5, 0.5, 0.5, 0.5, 0.5, 0.5, 0.5, 0.5, 0.5, 0.5, 0.5, 0.38516746411483255, 0.04378818737270876, 0.5, 0.5, 0.14797728885734562, 0.015001546551190844, 0.5, 0.5, 0.00028653295128939826, 0.0001230012300123001, 0.5, 0.5, 0.000945179584120983, 0.8846908734052993, 0.5, 0.5, 0.5, 0.5, 0.5, 0.5, 0.5, 0.5, 0.5, 0.5, 0.5, 0.5, 0.5, 0.5, 0.5, 0.5, 0.5, 0.5, 0.5, 0.5, 0.5, 0.5, 0.0005780346820809249, 0.8966717609101715, 0.5, 0.5, 0.5, 0.5, 0.5, 0.5, 0.5, 0.5, 0.5, 0.5, 0.5, 0.5, 0.5, 0.5, 0.5, 0.5, 0.5, 0.5, 0.5, 0.5, 0.5, 0.5, 0.0007092198581560284, 0.832124143490528, 0.5, 0.5, 0.4800498753117207, 0.9176049129989765, 0.5, 0.029411764705882353, 0.5, 0.5, 0.5, 0.5, 0.5, 0.5, 0.5, 0.5, 0.5, 0.5, 0.5, 0.5, 0.6148325358851675, 0.9562118126272913, 0.5, 0.5, 0.8520227111426544, 0.9849984534488092, 0.5, 0.5, 0.9997134670487106, 0.9998769987699877, 0.5, 0.5 ;
}
probability ( title_words | author_identity, has_assignees_content, mergable_state ) {
    table 0.1924607329842932, 0.10801762114537446, 0.19999999999999998, 0.826086956521739, 0.19999999999999998, 0.19999999999999998, 0.2662391971006412, 0.04738154613466334, 0.04347826086956521, 0.19999999999999998, 0.19999999999999998, 0.19999999999999998, 0.28500166278683076, 0.2879914984059511, 0.19999999999999998, 0.19999999999999998, 0.19999999999999998, 0.19999999999999998, 0.2753926701570681, 0.13973568281938326, 0.19999999999999998, 0.04347826086956521, 0.19999999999999998, 0.19999999999999998, 0.20100362419849457, 0.18204488778054861, 0.826086956521739, 0.19999999999999998, 0.19999999999999998, 0.19999999999999998, 0.31014299966744263, 0.19234856535600425, 0.19999999999999998, 0.19999999999999998, 0.19999999999999998, 0.19999999999999998, 0.12837696335078536, 0.12387665198237886, 0.19999999999999998, 0.04347826086956521, 0.19999999999999998, 0.19999999999999998, 0.1508224142737664, 0.2718204488778055, 0.04347826086956521, 0.19999999999999998, 0.19999999999999998, 0.19999999999999998, 0.17605586963751246, 0.17321997874601486, 0.19999999999999998, 0.19999999999999998, 0.19999999999999998, 0.19999999999999998, 0.26785340314136125, 0.36176211453744495, 0.19999999999999998, 0.04347826086956521, 0.19999999999999998, 0.19999999999999998, 0.2612210761081684, 0.3615960099750623, 0.04347826086956521, 0.19999999999999998, 0.19999999999999998, 0.19999999999999998, 0.19161955437312936, 0.2879914984059511, 0.19999999999999998, 0.19999999999999998, 0.19999999999999998, 0.19999999999999998, 0.13591623036649217, 0.2666079295154185, 0.19999999999999998, 0.04347826086956521, 0.19999999999999998, 0.19999999999999998, 0.12071368831892948, 0.13715710723192018, 0.04347826086956521, 0.19999999999999998, 0.19999999999999998, 0.19999999999999998, 0.037179913535084805, 0.05844845908607864, 0.19999999999999998, 0.19999999999999998, 0.19999999999999998, 0.19999999999999998 ;
}
probability ( total_add_line | file_changed_num, total_delete_line ) {
    table 0.7272078501338092, 0.40786516853932575, 0.39148936170212767, 0.8354166666666668, 0.9777777777777777, 0.3595744680851064, 0.20768049155145932, 0.1301948051948052, 0.2576923076923077, 0.4131147540983607, 0.4264150943396227, 0.03279742765273312, 0.011926605504587157, 0.02512315270935961, 0.1310344827586207, 0.16774193548387098, 0.07593984962406015, 0.00030487804878048786, 0.0028092922744462454, 0.05285285285285286, 0.19999999999999998, 0.19999999999999998, 0.19999999999999998, 0.19999999999999998, 0.012499999999999999, 0.16074933095450494, 0.3797752808988763, 0.2141843971631206, 0.05416666666666668, 0.005555555555555556, 0.3063829787234043, 0.39969278033794164, 0.29253246753246753, 0.28974358974358977, 0.16721311475409836, 0.23773584905660383, 0.38649517684887463, 0.22981651376146786, 0.14827586206896554, 0.1310344827586207, 0.8129032258064516, 0.35789473684210527, 0.1603658536585366, 0.027120475418692596, 0.0978978978978979, 0.19999999999999998, 0.19999999999999998, 0.19999999999999998, 0.19999999999999998, 0.012499999999999999, 0.03586083853702052, 0.2112359550561797, 0.10780141843971633, 0.05416666666666668, 0.005555555555555556, 0.13351063829787235, 0.330568356374808, 0.3331168831168831, 0.2576923076923077, 0.24918032786885247, 0.049056603773584916, 0.41864951768488745, 0.42477064220183486, 0.30837438423645325, 0.17413793103448277, 0.0064516129032258064, 0.3954887218045113, 0.3356707317073171, 0.11626148028092922, 0.15045045045045047, 0.19999999999999998, 0.19999999999999998, 0.19999999999999998, 0.19999999999999998, 0.012499999999999999, 0.026940231935771636, 0.0005617977528089886, 0.249645390070922, 0.05416666666666668, 0.005555555555555556, 0.0670212765957447, 0.04639016897081414, 0.24383116883116882, 0.16153846153846158, 0.16721311475409836, 0.049056603773584916, 0.14533762057877814, 0.2871559633027523, 0.34532019704433503, 0.346551724137931, 0.0064516129032258064, 0.09473684210526316, 0.4423780487804878, 0.23241491085899516, 0.32312312312312313, 0.19999999999999998, 0.19999999999999998, 0.19999999999999998, 0.19999999999999998, 0.012499999999999999, 0.04924174843889385, 0.0005617977528089886, 0.03687943262411348, 0.0020833333333333337, 0.005555555555555556, 0.13351063829787235, 0.01566820276497696, 0.0003246753246753247, 0.03333333333333334, 0.0032786885245901644, 0.23773584905660383, 0.016720257234726688, 0.046330275229357794, 0.17290640394088672, 0.21724137931034485, 0.0064516129032258064, 0.07593984962406015, 0.06128048780487805, 0.6213938411669367, 0.3756756756756757, 0.19999999999999998, 0.19999999999999998, 0.19999999999999998, 0.19999999999999998, 0.95 ;
}
probability ( total_delete_line | file_changed_num, has_assignees_content ) {
    table 0.6412017167381973, 0.2, 0.20215343203230146, 0.2, 0.07714808043875686, 0.06666666666666667, 0.008795962509012255, 0.2, 0.028571428571428574, 0.2, 0.20343347639484974, 0.2, 0.35020188425302823, 0.2, 0.2270566727605119, 0.06666666666666667, 0.07656813266041816, 0.2, 0.028571428571428574, 0.2, 0.0804005722460658, 0.2, 0.3313593539703903, 0.2, 0.3184643510054844, 0.06666666666666667, 0.18904109589041093, 0.2, 0.028571428571428574, 0.2, 0.05464949928469241, 0.2, 0.08371467025572006, 0.2, 0.296526508226691, 0.06666666666666667, 0.5336697909156453, 0.2, 0.028571428571428574, 0.2, 0.02031473533619456, 0.2, 0.03257065948855989, 0.2, 0.08080438756855576, 0.7333333333333334, 0.1919250180245133, 0.2, 0.8857142857142858, 0.2 ;
}
probability ( workload | accept_num, author_identity, change_num, close_num ) {
    table 0.2, 0.2, 0.2, 0.2, 0.2, 0.2, 0.2, 0.2, 0.2, 0.2, 0.2, 0.2, 0.2, 0.2, 0.2, 0.2, 0.2, 0.2, 0.2, 0.2, 0.2, 0.2, 0.2, 0.2, 0.2, 0.2, 0.2, 0.2, 0.2, 0.2, 0.2, 0.2, 0.2, 0.2, 0.2, 0.2, 0.2, 0.2, 0.2, 0.2, 0.2, 0.2, 0.2, 0.2, 0.2, 0.2, 0.2, 0.2, 0.2, 0.2, 0.8036913013005218, 0.2, 0.2, 0.2, 0.2, 0.10016638935108155, 0.2, 0.2, 0.2, 0.2, 0.2, 0.2, 0.2, 0.2, 0.2, 0.2, 0.2, 0.2, 0.2, 0.2, 0.2, 0.2, 0.2, 0.2, 0.2, 0.2, 0.2, 0.2, 0.2, 0.2, 0.2, 0.2, 0.2, 0.2, 0.2, 0.2, 0.2, 0.2, 0.2, 0.2, 0.2, 0.2, 0.2, 0.2, 0.2, 0.2, 0.2, 0.2, 0.2, 0.2, 0.2, 0.2, 0.2, 0.2, 0.2, 0.2, 0.2, 0.2, 0.2, 0.2, 0.2, 0.2, 0.2, 0.2, 0.2, 0.2, 0.2, 0.2, 0.2, 0.2, 0.2, 0.2, 0.2, 0.2, 0.2, 0.2, 0.2, 0.2, 0.2, 0.2, 0.2, 0.05122555993658795, 0.2, 0.2, 0.2, 0.2, 0.0002773925104022192, 0.2, 0.2, 0.2, 0.2, 0.2, 0.2, 0.2, 0.2, 0.2, 0.2, 0.2, 0.2, 0.2, 0.2, 0.2, 0.2, 0.2, 0.2, 0.2, 0.2, 0.2, 0.2, 0.2, 0.2, 0.2, 0.2, 0.11127541589648798, 0.2, 0.2, 0.2, 0.2, 0.9989756722151086, 0.2, 0.2, 0.2, 0.2, 0.2, 0.2, 0.2, 0.2, 0.2, 0.2, 0.2, 0.2, 0.2, 0.2, 0.2, 0.2, 0.2, 0.2, 0.7912560721721026, 0.8324549237170595, 0.2, 0.2, 0.2, 0.05411976587122918, 0.5261727312582201, 0.2, 0.2, 0.2, 0.2, 0.2, 0.2, 0.2, 0.2, 0.2, 0.2, 0.2, 0.2, 0.2, 0.2, 0.2, 0.2, 0.2, 0.2, 2.824459822059032e-05, 0.2, 0.2, 0.2, 0.2, 0.00016652789342214822, 0.00022197558268590453, 0.2, 0.2, 0.2, 0.2, 0.2, 0.2, 0.2, 0.2, 0.2, 0.2, 0.2, 0.2, 0.2, 0.2, 0.2, 0.2, 0.2, 0.2, 3.267439960790721e-05, 0.0001586042823156225, 0.2, 0.2, 0.2, 0.0011049723756906076, 0.08452059617415797, 0.24135554279149912, 0.2, 0.2, 0.2, 0.05134557881247331, 0.26905313504222406, 0.2, 0.2, 0.2, 0.2, 0.2, 0.2, 0.2, 0.2, 0.2, 0.2, 0.2, 0.2, 0.2, 0.2, 0.9868852459016391, 0.2, 0.2, 0.2, 0.39994873109459117, 0.00036968576709796677, 0.2, 0.2, 0.2, 0.5705463182897863, 0.3102814474439977, 0.2, 0.2, 0.2, 0.2, 0.2, 0.2, 0.2, 0.2, 0.2, 0.2, 0.2, 0.2, 0.2, 0.2, 0.2, 0.2, 0.2, 0.2, 0.00020811654526534863, 0.0005540166204986151, 0.2, 0.2, 0.2, 0.2, 0.25756122191365816, 0.2, 0.2, 0.2, 0.2, 0.2, 0.2, 0.2, 0.2, 0.2, 0.2, 0.2, 0.2, 0.2, 0.2, 0.2, 0.2, 0.2, 0.2, 0.2, 0.2, 0.2, 0.2, 0.2, 0.2, 0.2, 0.2, 0.2, 0.2, 0.2, 0.2, 0.2, 0.2, 0.2, 0.2, 0.2, 0.2, 0.2, 0.2, 0.2, 0.2, 0.2, 0.2, 0.2, 0.2, 0.2, 0.2, 0.2, 0.2, 0.2, 0.2, 0.19626197336656023, 0.2, 0.2, 0.2, 0.2, 0.49950083194675543, 0.2, 0.2, 0.2, 0.2, 0.2, 0.2, 0.2, 0.2, 0.2, 0.2, 0.2, 0.2, 0.2, 0.2, 0.2, 0.2, 0.2, 0.2, 0.2, 0.2, 0.2, 0.2, 0.2, 0.2, 0.2, 0.2, 0.2, 0.2, 0.2, 0.2, 0.2, 0.2, 0.2, 0.2, 0.2, 0.2, 0.2, 0.2, 0.2, 0.2, 0.2, 0.2, 0.2, 0.2, 0.2, 0.2, 0.2, 0.2, 0.2, 0.2, 0.2, 0.2, 0.2, 0.2, 0.2, 0.2, 0.2, 0.2, 0.2, 0.2, 0.2, 0.2, 0.2, 0.2, 0.2, 0.2, 0.2, 0.2, 0.2, 0.2, 0.2, 0.2, 0.2, 0.2, 0.2, 0.31950733710011786, 0.2, 0.2, 0.2, 0.2, 0.0002773925104022192, 0.2, 0.2, 0.2, 0.2, 0.2, 0.2, 0.2, 0.2, 0.2, 0.2, 0.2, 0.2, 0.2, 0.2, 0.2, 0.2, 0.2, 0.2, 0.2, 0.2, 0.2, 0.2, 0.2, 0.2, 0.2, 0.2, 0.11127541589648798, 0.2, 0.2, 0.2, 0.2, 0.00025608194622279127, 0.2, 0.2, 0.2, 0.2, 0.2, 0.2, 0.2, 0.2, 0.2, 0.2, 0.2, 0.2, 0.2, 0.2, 0.2, 0.2, 0.2, 0.2, 0.2083275503122831, 0.08349514563106795, 0.2, 0.2, 0.2, 0.10814948221521836, 0.026391933362560283, 0.2, 0.2, 0.2, 0.2, 0.2, 0.2, 0.2, 0.2, 0.2, 0.2, 0.2, 0.2, 0.2, 0.2, 0.2, 0.2, 0.2, 0.2, 0.008501624064397686, 0.2, 0.2, 0.2, 0.2, 0.00016652789342214822, 0.06681465038845727, 0.2, 0.2, 0.2, 0.2, 0.2, 0.2, 0.2, 0.2, 0.2, 0.2, 0.2, 0.2, 0.2, 0.2, 0.2, 0.2, 0.2, 0.2, 0.00983499428198007, 0.0001586042823156225, 0.2, 0.2, 0.2, 0.0011049723756906076, 0.17605914798732544, 0.10350373348650202, 0.2, 0.2, 0.2, 0.0769756514310124, 0.19730961811523803, 0.2, 0.2, 0.2, 0.2, 0.2, 0.2, 0.2, 0.2, 0.2, 0.2, 0.2, 0.2, 0.2, 0.2, 0.003278688524590163, 0.2, 0.2, 0.2, 0.21538067162266086, 0.44399260628465803, 0.2, 0.2, 0.2, 0.2855106888361046, 0.17242963813900056, 0.2, 0.2, 0.2, 0.2, 0.2, 0.2, 0.2, 0.2, 0.2, 0.2, 0.2, 0.2, 0.2, 0.2, 0.2, 0.2, 0.2, 0.2, 0.00020811654526534863, 0.0005540166204986151, 0.2, 0.2, 0.2, 0.2, 0.22726584195910124, 0.2, 0.2, 0.2, 0.2, 0.2, 0.2, 0.2, 0.2, 0.2, 0.2, 0.2, 0.2, 0.2, 0.2, 0.2, 0.2, 0.2, 0.2, 0.2, 0.2, 0.2, 0.2, 0.2, 0.2, 0.2, 0.2, 0.2, 0.2, 0.2, 0.2, 0.2, 0.2, 0.2, 0.2, 0.2, 0.2, 0.2, 0.2, 0.2, 0.2, 0.2, 0.2, 0.2, 0.2, 0.2, 0.2, 0.2, 0.2, 0.2, 0.2, 1.5575110972665684e-05, 0.2, 0.2, 0.2, 0.2, 0.39966722129783694, 0.2, 0.2, 0.2, 0.2, 0.2, 0.2, 0.2, 0.2, 0.2, 0.2, 0.2, 0.2, 0.2, 0.2, 0.2, 0.2, 0.2, 0.2, 0.2, 0.2, 0.2, 0.2, 0.2, 0.2, 0.2, 0.2, 0.2, 0.2, 0.2, 0.2, 0.2, 0.2, 0.2, 0.2, 0.2, 0.2, 0.2, 0.2, 0.2, 0.2, 0.2, 0.2, 0.2, 0.2, 0.2, 0.2, 0.2, 0.2, 0.2, 0.2, 0.2, 0.2, 0.2, 0.2, 0.2, 0.2, 0.2, 0.2, 0.2, 0.2, 0.2, 0.2, 0.2, 0.2, 0.2, 0.2, 0.2, 0.2, 0.2, 0.2, 0.2, 0.2, 0.2, 0.2, 0.2, 0.35121336531035324, 0.2, 0.2, 0.2, 0.2, 0.0002773925104022192, 0.2, 0.2, 0.2, 0.2, 0.2, 0.2, 0.2, 0.2, 0.2, 0.2, 0.2, 0.2, 0.2, 0.2, 0.2, 0.2, 0.2, 0.2, 0.2, 0.2, 0.2, 0.2, 0.2, 0.2, 0.2, 0.2, 0.11127541589648798, 0.2, 0.2, 0.2, 0.2, 0.00025608194622279127, 0.2, 0.2, 0.2, 0.2, 0.2, 0.2, 0.2, 0.2, 0.2, 0.2, 0.2, 0.2, 0.2, 0.2, 0.2, 0.2, 0.2, 0.2, 0.00013879250520471893, 0.08349514563106795, 0.2, 0.2, 0.2, 0.29725348941918056, 0.2105217010083297, 0.2, 0.2, 0.2, 0.2, 0.2, 0.2, 0.2, 0.2, 0.2, 0.2, 0.2, 0.2, 0.2, 0.2, 0.2, 0.2, 0.2, 0.2, 0.2881231464482418, 0.2, 0.2, 0.2, 0.2, 0.3998334721065779, 0.5329633740288567, 0.2, 0.2, 0.2, 0.2, 0.2, 0.2, 0.2, 0.2, 0.2, 0.2, 0.2, 0.2, 0.2, 0.2, 0.2, 0.2, 0.2, 0.2, 0.31370691063551703, 0.2856463124504361, 0.2, 0.2, 0.2, 0.6640883977900552, 0.330970543363455, 0.44813325674899485, 0.2, 0.2, 0.2, 0.17949594190516874, 0.25111725581047756, 0.2, 0.2, 0.2, 0.2, 0.2, 0.2, 0.2, 0.2, 0.2, 0.2, 0.2, 0.2, 0.2, 0.2, 0.003278688524590163, 0.2, 0.2, 0.2, 0.15385798513201746, 0.44399260628465803, 0.2, 0.2, 0.2, 0.1429928741092637, 0.37920735209649625, 0.2, 0.2, 0.2, 0.2, 0.2, 0.2, 0.2, 0.2, 0.2, 0.2, 0.2, 0.2, 0.2, 0.2, 0.2, 0.2, 0.2, 0.2, 0.6869927159209158, 0.9977839335180057, 0.2, 0.2, 0.2, 0.2, 0.3332996718000505, 0.2, 0.2, 0.2, 0.2, 0.2, 0.2, 0.2, 0.2, 0.2, 0.2, 0.2, 0.2, 0.2, 0.2, 0.2, 0.2, 0.2, 0.2, 0.2, 0.2, 0.2, 0.2, 0.2, 0.2, 0.2, 0.2, 0.2, 0.2, 0.2, 0.2, 0.2, 0.2, 0.2, 0.2, 0.2, 0.2, 0.2, 0.2, 0.2, 0.2, 0.2, 0.2, 0.2, 0.2, 0.2, 0.2, 0.2, 0.2, 0.2, 0.2, 1.5575110972665684e-05, 0.2, 0.2, 0.2, 0.2, 0.0003327787021630616, 0.2, 0.2, 0.2, 0.2, 0.2, 0.2, 0.2, 0.2, 0.2, 0.2, 0.2, 0.2, 0.2, 0.2, 0.2, 0.2, 0.2, 0.2, 0.2, 0.2, 0.2, 0.2, 0.2, 0.2, 0.2, 0.2, 0.2, 0.2, 0.2, 0.2, 0.2, 0.2, 0.2, 0.2, 0.2, 0.2, 0.2, 0.2, 0.2, 0.2, 0.2, 0.2, 0.2, 0.2, 0.2, 0.2, 0.2, 0.2, 0.2, 0.2, 0.2, 0.2, 0.2, 0.2, 0.2, 0.2, 0.2, 0.2, 0.2, 0.2, 0.2, 0.2, 0.2, 0.2, 0.2, 0.2, 0.2, 0.2, 0.2, 0.2, 0.2, 0.2, 0.2, 0.2, 0.2, 0.13658794357952928, 0.2, 0.2, 0.2, 0.2, 0.41636615811373096, 0.2, 0.2, 0.2, 0.2, 0.2, 0.2, 0.2, 0.2, 0.2, 0.2, 0.2, 0.2, 0.2, 0.2, 0.2, 0.2, 0.2, 0.2, 0.2, 0.2, 0.2, 0.2, 0.2, 0.2, 0.2, 0.2, 0.333086876155268, 0.2, 0.2, 0.2, 0.2, 0.00025608194622279127, 0.2, 0.2, 0.2, 0.2, 0.2, 0.2, 0.2, 0.2, 0.2, 0.2, 0.2, 0.2, 0.2, 0.2, 0.2, 0.2, 0.2, 0.2, 0.00013879250520471893, 0.0002773925104022191, 0.2, 0.2, 0.2, 0.40531292210715897, 0.2368259535291539, 0.2, 0.2, 0.2, 0.2, 0.2, 0.2, 0.2, 0.2, 0.2, 0.2, 0.2, 0.2, 0.2, 0.2, 0.2, 0.2, 0.2, 0.2, 0.6101115661629714, 0.2, 0.2, 0.2, 0.2, 0.3498751040799334, 0.19999999999999998, 0.2, 0.2, 0.2, 0.2, 0.2, 0.2, 0.2, 0.2, 0.2, 0.2, 0.2, 0.2, 0.2, 0.2, 0.2, 0.2, 0.2, 0.2, 0.26469531122365625, 0.5235527359238699, 0.2, 0.2, 0.2, 0.0011049723756906076, 0.20422485623753084, 0.1379666858127513, 0.2, 0.2, 0.2, 0.4101665954720205, 0.1390180106120619, 0.2, 0.2, 0.2, 0.2, 0.2, 0.2, 0.2, 0.2, 0.2, 0.2, 0.2, 0.2, 0.2, 0.2, 0.003278688524590163, 0.2, 0.2, 0.2, 0.15385798513201746, 0.11127541589648801, 0.2, 0.2, 0.2, 0.00047505938242280296, 0.06904078116025272, 0.2, 0.2, 0.2, 0.2, 0.2, 0.2, 0.2, 0.2, 0.2, 0.2, 0.2, 0.2, 0.2, 0.2, 0.2, 0.2, 0.2, 0.2, 0.31238293444328824, 0.0005540166204986151, 0.2, 0.2, 0.2, 0.2, 0.09093663216359504, 0.2, 0.2, 0.2, 0.2, 0.2, 0.2, 0.2, 0.2, 0.2, 0.2, 0.2, 0.2, 0.2, 0.2, 0.2, 0.2, 0.2, 0.2, 0.2, 0.2, 0.2, 0.2, 0.2, 0.2, 0.2, 0.2, 0.2, 0.2, 0.2, 0.2, 0.2, 0.2, 0.2, 0.2, 0.2, 0.2, 0.2, 0.2, 0.2, 0.2, 0.2, 0.2, 0.2, 0.2, 0.2, 0.2, 0.2, 0.2, 0.2, 0.2, 1.5575110972665684e-05, 0.2, 0.2, 0.2, 0.2, 0.0003327787021630616, 0.2, 0.2, 0.2, 0.2, 0.2, 0.2, 0.2, 0.2, 0.2, 0.2, 0.2, 0.2, 0.2, 0.2, 0.2, 0.2, 0.2, 0.2, 0.2, 0.2, 0.2, 0.2, 0.2, 0.2, 0.2, 0.2, 0.2, 0.2, 0.2, 0.2, 0.2, 0.2, 0.2, 0.2, 0.2, 0.2, 0.2, 0.2, 0.2, 0.2, 0.2, 0.2, 0.2, 0.2, 0.2, 0.2, 0.2, 0.2, 0.2, 0.2, 0.2, 0.2, 0.2, 0.2, 0.2, 0.2, 0.2, 0.2, 0.2, 0.2, 0.2, 0.2, 0.2, 0.2, 0.2, 0.2, 0.2, 0.2, 0.2, 0.2, 0.2, 0.2, 0.2, 0.2, 0.2, 0.14146579407341164, 0.2, 0.2, 0.2, 0.2, 0.5828016643550624, 0.2, 0.2, 0.2, 0.2, 0.2, 0.2, 0.2, 0.2, 0.2, 0.2, 0.2, 0.2, 0.2, 0.2, 0.2, 0.2, 0.2, 0.2, 0.2, 0.2, 0.2, 0.2, 0.2, 0.2, 0.2, 0.2, 0.333086876155268, 0.2, 0.2, 0.2, 0.2, 0.00025608194622279127, 0.2, 0.2, 0.2, 0.2, 0.2, 0.2, 0.2, 0.2, 0.2, 0.2, 0.2, 0.2, 0.2, 0.2, 0.2, 0.2, 0.2, 0.2, 0.00013879250520471893, 0.0002773925104022191, 0.2, 0.2, 0.2, 0.13516434038721295, 8.768084173608067e-05, 0.2, 0.2, 0.2, 0.2, 0.2, 0.2, 0.2, 0.2, 0.2, 0.2, 0.2, 0.2, 0.2, 0.2, 0.2, 0.2, 0.2, 0.2, 0.09323541872616864, 0.2, 0.2, 0.2, 0.2, 0.24995836802664445, 0.19999999999999998, 0.2, 0.2, 0.2, 0.2, 0.2, 0.2, 0.2, 0.2, 0.2, 0.2, 0.2, 0.2, 0.2, 0.2, 0.2, 0.2, 0.2, 0.2, 0.41173010945923866, 0.1904837430610626, 0.2, 0.2, 0.2, 0.33259668508287293, 0.20422485623753084, 0.06904078116025274, 0.2, 0.2, 0.2, 0.2820162323793251, 0.1435019804199985, 0.2, 0.2, 0.2, 0.2, 0.2, 0.2, 0.2, 0.2, 0.2, 0.2, 0.2, 0.2, 0.2, 0.2, 0.003278688524590163, 0.2, 0.2, 0.2, 0.07695462701871314, 0.00036968576709796677, 0.2, 0.2, 0.2, 0.00047505938242280296, 0.06904078116025272, 0.2, 0.2, 0.2, 0.2, 0.2, 0.2, 0.2, 0.2, 0.2, 0.2, 0.2, 0.2, 0.2, 0.2, 0.2, 0.2, 0.2, 0.2, 0.00020811654526534863, 0.0005540166204986151, 0.2, 0.2, 0.2, 0.2, 0.09093663216359504 ;
}
