network unknown {
}
variable accept_num {
    type discrete [ 4 ] { 0, 1, 2, 3 };
}
variable author_identity {
    type discrete [ 3 ] { 0, 1, 2 };
}
variable body_words {
    type discrete [ 5 ] { 0, 1, 2, 3, 4 };
}
variable change_num {
    type discrete [ 5 ] { 0, 1, 2, 3, 4 };
}
variable close_num {
    type discrete [ 5 ] { 0, 1, 2, 3, 4 };
}
variable comment_num {
    type discrete [ 4 ] { 0, 1, 2, 3 };
}
variable commit_num {
    type discrete [ 3 ] { 0, 1, 4 };
}
variable file_changed_num {
    type discrete [ 5 ] { 0, 1, 2, 3, 4 };
}
variable has_assignees_content {
    type discrete [ 2 ] { 0, 1 };
}
variable has_bug {
    type discrete [ 2 ] { 0, 1 };
}
variable has_document {
    type discrete [ 2 ] { 0, 1 };
}
variable has_feature {
    type discrete [ 2 ] { 0, 1 };
}
variable has_improve {
    type discrete [ 2 ] { 0, 1 };
}
variable has_labels {
    type discrete [ 2 ] { 0, 1 };
}
variable has_refactor {
    type discrete [ 2 ] { 0, 1 };
}
variable is_weekday {
    type discrete [ 2 ] { 0, 1 };
}
variable mergable_state {
    type discrete [ 3 ] { 0, 2, 3 };
}
variable participants_count {
    type discrete [ 3 ] { 0, 1, 3 };
}
variable pre_prs {
    type discrete [ 5 ] { 0, 1, 2, 3, 4 };
}
variable priorities_number {
    type discrete [ 5 ] { 0, 1, 2, 3, 4 };
}
variable review_comment_num {
    type discrete [ 2 ] { 0, 1 };
}
variable review_num {
    type discrete [ 2 ] { 0, 1 };
}
variable title_words {
    type discrete [ 5 ] { 0, 1, 2, 3, 4 };
}
variable total_add_line {
    type discrete [ 5 ] { 0, 1, 2, 3, 4 };
}
variable total_delete_line {
    type discrete [ 5 ] { 0, 1, 2, 3, 4 };
}
variable workload {
    type discrete [ 5 ] { 0, 1, 2, 3, 4 };
}
probability ( accept_num | close_num, has_assignees_content ) {
    table 0.9983296213808464, 0.25, 0.0002958579881656805, 0.25, 0.00030156815440289503, 0.25, 0.00023169601482854495, 0.08333333333333333, 0.00024975024975024975, 0.25, 0.0005567928730512249, 0.25, 0.999112426035503, 0.25, 0.00030156815440289503, 0.25, 0.00023169601482854495, 0.08333333333333333, 0.00024975024975024975, 0.25, 0.0005567928730512249, 0.25, 0.0002958579881656805, 0.25, 0.4924607961399276, 0.25, 0.18744207599629287, 0.75, 0.00024975024975024975, 0.25, 0.0005567928730512249, 0.25, 0.0002958579881656805, 0.25, 0.5069360675512666, 0.25, 0.81209453197405, 0.08333333333333333, 0.9992507492507493, 0.25 ;
}
probability ( author_identity | accept_num, change_num, mergable_state, pre_prs ) {
    table 2.6707261704457442e-05, 0.33333333333333337, 0.33333333333333337, 0.33333333333333337, 0.33333333333333337, 0.0009233610341643583, 0.33333333333333337, 0.33333333333333337, 0.33333333333333337, 0.33333333333333337, 0.33333333333333337, 0.33333333333333337, 0.33333333333333337, 0.33333333333333337, 0.33333333333333337, 0.0005546311702717692, 0.33333333333333337, 0.33333333333333337, 0.33333333333333337, 0.33333333333333337, 0.33333333333333337, 0.33333333333333337, 0.33333333333333337, 0.33333333333333337, 0.33333333333333337, 0.33333333333333337, 0.33333333333333337, 0.33333333333333337, 0.33333333333333337, 0.33333333333333337, 0.33333333333333337, 0.33333333333333337, 0.33333333333333337, 0.33333333333333337, 0.33333333333333337, 0.33333333333333337, 0.33333333333333337, 0.33333333333333337, 0.33333333333333337, 0.33333333333333337, 0.33333333333333337, 0.33333333333333337, 0.33333333333333337, 0.33333333333333337, 0.33333333333333337, 0.33333333333333337, 0.33333333333333337, 0.33333333333333337, 0.33333333333333337, 0.33333333333333337, 0.33333333333333337, 0.33333333333333337, 0.33333333333333337, 0.33333333333333337, 0.33333333333333337, 0.33333333333333337, 0.33333333333333337, 0.33333333333333337, 0.33333333333333337, 0.33333333333333337, 0.33333333333333337, 0.33333333333333337, 0.33333333333333337, 0.33333333333333337, 0.33333333333333337, 0.33333333333333337, 0.33333333333333337, 0.33333333333333337, 0.33333333333333337, 0.33333333333333337, 0.33333333333333337, 0.33333333333333337, 0.33333333333333337, 0.33333333333333337, 0.33333333333333337, 0.33333333333333337, 0.33333333333333337, 0.33333333333333337, 0.33333333333333337, 0.33333333333333337, 0.33333333333333337, 0.33333333333333337, 0.33333333333333337, 0.33333333333333337, 0.33333333333333337, 0.33333333333333337, 0.33333333333333337, 0.33333333333333337, 0.33333333333333337, 0.33333333333333337, 0.33333333333333337, 1.3853677458681409e-05, 0.33333333333333337, 0.33333333333333337, 0.33333333333333337, 0.33333333333333337, 0.0006161429451632778, 0.33333333333333337, 0.33333333333333337, 0.33333333333333337, 0.33333333333333337, 0.33333333333333337, 0.33333333333333337, 0.33333333333333337, 0.33333333333333337, 0.33333333333333337, 0.0004623208506703652, 0.33333333333333337, 0.33333333333333337, 0.33333333333333337, 0.33333333333333337, 0.33333333333333337, 0.33333333333333337, 0.33333333333333337, 0.33333333333333337, 0.33333333333333337, 0.33333333333333337, 0.33333333333333337, 0.33333333333333337, 0.33333333333333337, 0.33333333333333337, 0.33333333333333337, 0.33333333333333337, 0.33333333333333337, 0.33333333333333337, 0.33333333333333337, 0.33333333333333337, 0.33333333333333337, 0.33333333333333337, 0.33333333333333337, 0.33333333333333337, 0.33333333333333337, 0.33333333333333337, 0.33333333333333337, 0.33333333333333337, 0.33333333333333337, 0.33333333333333337, 0.33333333333333337, 0.33333333333333337, 0.33333333333333337, 0.33333333333333337, 0.33333333333333337, 0.33333333333333337, 0.33333333333333337, 0.33333333333333337, 0.33333333333333337, 0.33333333333333337, 0.33333333333333337, 0.33333333333333337, 0.33333333333333337, 0.33333333333333337, 0.33333333333333337, 0.33333333333333337, 0.33333333333333337, 0.33333333333333337, 0.33333333333333337, 0.33333333333333337, 0.33333333333333337, 0.33333333333333337, 0.33333333333333337, 0.33333333333333337, 0.33333333333333337, 0.33333333333333337, 0.33333333333333337, 0.33333333333333337, 0.33333333333333337, 0.33333333333333337, 0.33333333333333337, 0.33333333333333337, 0.33333333333333337, 0.33333333333333337, 0.33333333333333337, 0.33333333333333337, 0.33333333333333337, 0.33333333333333337, 0.33333333333333337, 0.33333333333333337, 0.33333333333333337, 0.33333333333333337, 0.33333333333333337, 0.33333333333333337, 0.33333333333333337, 3.9677816133000035e-05, 0.44990285872883706, 0.33333333333333337, 0.33333333333333337, 0.33333333333333337, 0.0027548209366391185, 0.005464480874316941, 0.33333333333333337, 0.33333333333333337, 0.33333333333333337, 0.33333333333333337, 0.33333333333333337, 0.33333333333333337, 0.33333333333333337, 0.33333333333333337, 9.413536665725314e-05, 0.17336888098940978, 0.33333333333333337, 0.33333333333333337, 0.33333333333333337, 0.001841620626151013, 0.0009233610341643583, 0.33333333333333337, 0.33333333333333337, 0.33333333333333337, 0.33333333333333337, 0.33333333333333337, 0.33333333333333337, 0.33333333333333337, 0.33333333333333337, 0.33333333333333337, 0.33333333333333337, 0.33333333333333337, 0.33333333333333337, 0.33333333333333337, 0.33333333333333337, 0.33333333333333337, 0.33333333333333337, 0.33333333333333337, 0.33333333333333337, 0.33333333333333337, 0.33333333333333337, 0.33333333333333337, 0.33333333333333337, 0.33333333333333337, 0.33333333333333337, 0.33333333333333337, 0.33333333333333337, 0.33333333333333337, 0.33333333333333337, 0.33333333333333337, 0.33333333333333337, 0.33333333333333337, 0.33333333333333337, 0.33333333333333337, 0.33333333333333337, 0.33333333333333337, 0.33333333333333337, 0.33333333333333337, 0.33333333333333337, 0.33333333333333337, 0.33333333333333337, 0.33333333333333337, 0.33333333333333337, 0.33333333333333337, 0.33333333333333337, 0.33333333333333337, 0.33333333333333337, 0.33333333333333337, 0.33333333333333337, 0.33333333333333337, 0.33333333333333337, 0.33333333333333337, 0.33333333333333337, 0.33333333333333337, 0.9944903581267218, 0.9992600813910468, 0.33333333333333337, 0.33333333333333337, 0.33333333333333337, 0.9999449990374831, 0.9991463935125906, 0.005464480874316941, 0.33333333333333337, 0.33333333333333337, 0.33333333333333337, 0.33333333333333337, 0.33333333333333337, 0.33333333333333337, 0.33333333333333337, 0.33333333333333337, 0.337930506072099, 0.5554184659675098, 0.33333333333333337, 0.33333333333333337, 0.9981532779316713, 0.9662954357289747, 0.8273023166762397, 0.33333333333333337, 0.33333333333333337, 0.33333333333333337, 0.005464480874316941, 0.33333333333333337, 0.33333333333333337, 0.33333333333333337, 0.33333333333333337, 0.8290667750237032, 0.7238221416451666, 0.33333333333333337, 0.33333333333333337, 0.33333333333333337, 0.9997152214153497, 0.6777458877264451, 0.33333333333333337, 0.33333333333333337, 0.33333333333333337, 0.33333333333333337, 0.33333333333333337, 2.6707261704457442e-05, 0.33333333333333337, 0.33333333333333337, 0.33333333333333337, 0.33333333333333337, 0.0009233610341643583, 0.33333333333333337, 0.33333333333333337, 0.33333333333333337, 0.33333333333333337, 0.33333333333333337, 0.33333333333333337, 0.33333333333333337, 0.33333333333333337, 0.33333333333333337, 0.0005546311702717692, 0.33333333333333337, 0.33333333333333337, 0.33333333333333337, 0.33333333333333337, 0.33333333333333337, 0.33333333333333337, 0.33333333333333337, 0.33333333333333337, 0.33333333333333337, 0.33333333333333337, 0.33333333333333337, 0.33333333333333337, 0.33333333333333337, 0.33333333333333337, 0.33333333333333337, 0.33333333333333337, 0.33333333333333337, 0.33333333333333337, 0.33333333333333337, 0.33333333333333337, 0.33333333333333337, 0.33333333333333337, 0.33333333333333337, 0.33333333333333337, 0.33333333333333337, 0.33333333333333337, 0.33333333333333337, 0.33333333333333337, 0.33333333333333337, 0.33333333333333337, 0.33333333333333337, 0.33333333333333337, 0.33333333333333337, 0.33333333333333337, 0.33333333333333337, 0.33333333333333337, 0.33333333333333337, 0.33333333333333337, 0.33333333333333337, 0.33333333333333337, 0.33333333333333337, 0.33333333333333337, 0.33333333333333337, 0.33333333333333337, 0.33333333333333337, 0.33333333333333337, 0.33333333333333337, 0.33333333333333337, 0.33333333333333337, 0.33333333333333337, 0.33333333333333337, 0.33333333333333337, 0.33333333333333337, 0.33333333333333337, 0.33333333333333337, 0.33333333333333337, 0.33333333333333337, 0.33333333333333337, 0.33333333333333337, 0.33333333333333337, 0.33333333333333337, 0.33333333333333337, 0.33333333333333337, 0.33333333333333337, 0.33333333333333337, 0.33333333333333337, 0.33333333333333337, 0.33333333333333337, 0.33333333333333337, 0.33333333333333337, 0.33333333333333337, 0.33333333333333337, 0.33333333333333337, 0.33333333333333337, 0.33333333333333337, 1.3853677458681409e-05, 0.33333333333333337, 0.33333333333333337, 0.33333333333333337, 0.33333333333333337, 0.0006161429451632778, 0.33333333333333337, 0.33333333333333337, 0.33333333333333337, 0.33333333333333337, 0.33333333333333337, 0.33333333333333337, 0.33333333333333337, 0.33333333333333337, 0.33333333333333337, 0.0004623208506703652, 0.33333333333333337, 0.33333333333333337, 0.33333333333333337, 0.33333333333333337, 0.33333333333333337, 0.33333333333333337, 0.33333333333333337, 0.33333333333333337, 0.33333333333333337, 0.33333333333333337, 0.33333333333333337, 0.33333333333333337, 0.33333333333333337, 0.33333333333333337, 0.33333333333333337, 0.33333333333333337, 0.33333333333333337, 0.33333333333333337, 0.33333333333333337, 0.33333333333333337, 0.33333333333333337, 0.33333333333333337, 0.33333333333333337, 0.33333333333333337, 0.33333333333333337, 0.33333333333333337, 0.33333333333333337, 0.33333333333333337, 0.33333333333333337, 0.33333333333333337, 0.33333333333333337, 0.33333333333333337, 0.33333333333333337, 0.33333333333333337, 0.33333333333333337, 0.33333333333333337, 0.33333333333333337, 0.33333333333333337, 0.33333333333333337, 0.33333333333333337, 0.33333333333333337, 0.33333333333333337, 0.33333333333333337, 0.33333333333333337, 0.33333333333333337, 0.33333333333333337, 0.33333333333333337, 0.33333333333333337, 0.33333333333333337, 0.33333333333333337, 0.33333333333333337, 0.33333333333333337, 0.33333333333333337, 0.33333333333333337, 0.33333333333333337, 0.33333333333333337, 0.33333333333333337, 0.33333333333333337, 0.33333333333333337, 0.33333333333333337, 0.33333333333333337, 0.33333333333333337, 0.33333333333333337, 0.33333333333333337, 0.33333333333333337, 0.33333333333333337, 0.33333333333333337, 0.33333333333333337, 0.33333333333333337, 0.33333333333333337, 0.33333333333333337, 0.33333333333333337, 0.33333333333333337, 0.33333333333333337, 0.33333333333333337, 0.16430583660675316, 0.5498195947821259, 0.33333333333333337, 0.33333333333333337, 0.33333333333333337, 0.4986225895316804, 0.9890710382513661, 0.33333333333333337, 0.33333333333333337, 0.33333333333333337, 0.33333333333333337, 0.33333333333333337, 0.33333333333333337, 0.33333333333333337, 0.33333333333333337, 0.5762025793090464, 0.453306672591276, 0.33333333333333337, 0.33333333333333337, 0.33333333333333337, 0.996316758747698, 0.6657433056325023, 0.33333333333333337, 0.33333333333333337, 0.33333333333333337, 0.33333333333333337, 0.33333333333333337, 0.33333333333333337, 0.33333333333333337, 0.33333333333333337, 0.33333333333333337, 0.33333333333333337, 0.33333333333333337, 0.33333333333333337, 0.33333333333333337, 0.33333333333333337, 0.33333333333333337, 0.33333333333333337, 0.33333333333333337, 0.33333333333333337, 0.33333333333333337, 0.33333333333333337, 0.33333333333333337, 0.33333333333333337, 0.33333333333333337, 0.33333333333333337, 0.33333333333333337, 0.33333333333333337, 0.33333333333333337, 0.33333333333333337, 0.33333333333333337, 0.33333333333333337, 0.33333333333333337, 0.33333333333333337, 0.33333333333333337, 0.33333333333333337, 0.33333333333333337, 0.33333333333333337, 0.33333333333333337, 0.33333333333333337, 0.33333333333333337, 0.33333333333333337, 0.33333333333333337, 0.33333333333333337, 0.33333333333333337, 0.33333333333333337, 0.33333333333333337, 0.33333333333333337, 0.33333333333333337, 0.33333333333333337, 0.33333333333333337, 0.33333333333333337, 0.33333333333333337, 0.33333333333333337, 0.33333333333333337, 0.0027548209366391185, 0.00036995930447650754, 0.33333333333333337, 0.33333333333333337, 0.33333333333333337, 2.750048125842202e-05, 0.00042680324370465207, 0.9890710382513661, 0.33333333333333337, 0.33333333333333337, 0.33333333333333337, 0.33333333333333337, 0.33333333333333337, 0.33333333333333337, 0.33333333333333337, 0.33333333333333337, 0.43447113358617784, 0.2222907670162451, 0.33333333333333337, 0.33333333333333337, 0.0009233610341643583, 0.033677857009320834, 0.03465441317250622, 0.33333333333333337, 0.33333333333333337, 0.33333333333333337, 0.9890710382513661, 0.33333333333333337, 0.33333333333333337, 0.33333333333333337, 0.33333333333333337, 0.1707977786807531, 0.11298607721451316, 0.33333333333333337, 0.33333333333333337, 0.33333333333333337, 0.00014238929232521718, 0.027806067339443876, 0.33333333333333337, 0.33333333333333337, 0.33333333333333337, 0.33333333333333337, 0.33333333333333337, 0.999946585476591, 0.33333333333333337, 0.33333333333333337, 0.33333333333333337, 0.33333333333333337, 0.9981532779316713, 0.33333333333333337, 0.33333333333333337, 0.33333333333333337, 0.33333333333333337, 0.33333333333333337, 0.33333333333333337, 0.33333333333333337, 0.33333333333333337, 0.33333333333333337, 0.9988907376594565, 0.33333333333333337, 0.33333333333333337, 0.33333333333333337, 0.33333333333333337, 0.33333333333333337, 0.33333333333333337, 0.33333333333333337, 0.33333333333333337, 0.33333333333333337, 0.33333333333333337, 0.33333333333333337, 0.33333333333333337, 0.33333333333333337, 0.33333333333333337, 0.33333333333333337, 0.33333333333333337, 0.33333333333333337, 0.33333333333333337, 0.33333333333333337, 0.33333333333333337, 0.33333333333333337, 0.33333333333333337, 0.33333333333333337, 0.33333333333333337, 0.33333333333333337, 0.33333333333333337, 0.33333333333333337, 0.33333333333333337, 0.33333333333333337, 0.33333333333333337, 0.33333333333333337, 0.33333333333333337, 0.33333333333333337, 0.33333333333333337, 0.33333333333333337, 0.33333333333333337, 0.33333333333333337, 0.33333333333333337, 0.33333333333333337, 0.33333333333333337, 0.33333333333333337, 0.33333333333333337, 0.33333333333333337, 0.33333333333333337, 0.33333333333333337, 0.33333333333333337, 0.33333333333333337, 0.33333333333333337, 0.33333333333333337, 0.33333333333333337, 0.33333333333333337, 0.33333333333333337, 0.33333333333333337, 0.33333333333333337, 0.33333333333333337, 0.33333333333333337, 0.33333333333333337, 0.33333333333333337, 0.33333333333333337, 0.33333333333333337, 0.33333333333333337, 0.33333333333333337, 0.33333333333333337, 0.33333333333333337, 0.33333333333333337, 0.33333333333333337, 0.33333333333333337, 0.33333333333333337, 0.33333333333333337, 0.33333333333333337, 0.33333333333333337, 0.33333333333333337, 0.33333333333333337, 0.33333333333333337, 0.33333333333333337, 0.9999722926450826, 0.33333333333333337, 0.33333333333333337, 0.33333333333333337, 0.33333333333333337, 0.9987677141096735, 0.33333333333333337, 0.33333333333333337, 0.33333333333333337, 0.33333333333333337, 0.33333333333333337, 0.33333333333333337, 0.33333333333333337, 0.33333333333333337, 0.33333333333333337, 0.9990753582986592, 0.33333333333333337, 0.33333333333333337, 0.33333333333333337, 0.33333333333333337, 0.33333333333333337, 0.33333333333333337, 0.33333333333333337, 0.33333333333333337, 0.33333333333333337, 0.33333333333333337, 0.33333333333333337, 0.33333333333333337, 0.33333333333333337, 0.33333333333333337, 0.33333333333333337, 0.33333333333333337, 0.33333333333333337, 0.33333333333333337, 0.33333333333333337, 0.33333333333333337, 0.33333333333333337, 0.33333333333333337, 0.33333333333333337, 0.33333333333333337, 0.33333333333333337, 0.33333333333333337, 0.33333333333333337, 0.33333333333333337, 0.33333333333333337, 0.33333333333333337, 0.33333333333333337, 0.33333333333333337, 0.33333333333333337, 0.33333333333333337, 0.33333333333333337, 0.33333333333333337, 0.33333333333333337, 0.33333333333333337, 0.33333333333333337, 0.33333333333333337, 0.33333333333333337, 0.33333333333333337, 0.33333333333333337, 0.33333333333333337, 0.33333333333333337, 0.33333333333333337, 0.33333333333333337, 0.33333333333333337, 0.33333333333333337, 0.33333333333333337, 0.33333333333333337, 0.33333333333333337, 0.33333333333333337, 0.33333333333333337, 0.33333333333333337, 0.33333333333333337, 0.33333333333333337, 0.33333333333333337, 0.33333333333333337, 0.33333333333333337, 0.33333333333333337, 0.33333333333333337, 0.33333333333333337, 0.33333333333333337, 0.33333333333333337, 0.33333333333333337, 0.33333333333333337, 0.33333333333333337, 0.33333333333333337, 0.33333333333333337, 0.33333333333333337, 0.33333333333333337, 0.33333333333333337, 0.33333333333333337, 0.33333333333333337, 0.8356544855771137, 0.00027754648903691365, 0.33333333333333337, 0.33333333333333337, 0.33333333333333337, 0.4986225895316804, 0.005464480874316941, 0.33333333333333337, 0.33333333333333337, 0.33333333333333337, 0.33333333333333337, 0.33333333333333337, 0.33333333333333337, 0.33333333333333337, 0.33333333333333337, 0.42370328532429635, 0.3733244464193142, 0.33333333333333337, 0.33333333333333337, 0.33333333333333337, 0.001841620626151013, 0.3333333333333333, 0.33333333333333337, 0.33333333333333337, 0.33333333333333337, 0.33333333333333337, 0.33333333333333337, 0.33333333333333337, 0.33333333333333337, 0.33333333333333337, 0.33333333333333337, 0.33333333333333337, 0.33333333333333337, 0.33333333333333337, 0.33333333333333337, 0.33333333333333337, 0.33333333333333337, 0.33333333333333337, 0.33333333333333337, 0.33333333333333337, 0.33333333333333337, 0.33333333333333337, 0.33333333333333337, 0.33333333333333337, 0.33333333333333337, 0.33333333333333337, 0.33333333333333337, 0.33333333333333337, 0.33333333333333337, 0.33333333333333337, 0.33333333333333337, 0.33333333333333337, 0.33333333333333337, 0.33333333333333337, 0.33333333333333337, 0.33333333333333337, 0.33333333333333337, 0.33333333333333337, 0.33333333333333337, 0.33333333333333337, 0.33333333333333337, 0.33333333333333337, 0.33333333333333337, 0.33333333333333337, 0.33333333333333337, 0.33333333333333337, 0.33333333333333337, 0.33333333333333337, 0.33333333333333337, 0.33333333333333337, 0.33333333333333337, 0.33333333333333337, 0.33333333333333337, 0.33333333333333337, 0.33333333333333337, 0.0027548209366391185, 0.00036995930447650754, 0.33333333333333337, 0.33333333333333337, 0.33333333333333337, 2.750048125842202e-05, 0.00042680324370465207, 0.005464480874316941, 0.33333333333333337, 0.33333333333333337, 0.33333333333333337, 0.33333333333333337, 0.33333333333333337, 0.33333333333333337, 0.33333333333333337, 0.33333333333333337, 0.22759836034172318, 0.2222907670162451, 0.33333333333333337, 0.33333333333333337, 0.0009233610341643583, 2.6707261704457442e-05, 0.13804327015125406, 0.33333333333333337, 0.33333333333333337, 0.33333333333333337, 0.005464480874316941, 0.33333333333333337, 0.33333333333333337, 0.33333333333333337, 0.33333333333333337, 0.0001354462955438169, 0.16319178114032026, 0.33333333333333337, 0.33333333333333337, 0.33333333333333337, 0.00014238929232521718, 0.294448044934111, 0.33333333333333337, 0.33333333333333337, 0.33333333333333337, 0.33333333333333337, 0.33333333333333337 ;
}
probability ( body_words | comment_num, file_changed_num, has_labels, mergable_state ) {
    table 0.36525220176140916, 0.24319460067491563, 0.2, 0.4115055079559364, 0.7839762611275966, 0.2, 0.479766860949209, 0.23073639274279617, 0.2, 0.5991683991683993, 0.596694214876033, 0.2, 0.3331484049930652, 0.24987012987012988, 0.2, 0.3995841995841996, 0.4969072164948453, 0.2, 0.2585786073223259, 0.21872561768530563, 0.2, 0.2607594936708861, 0.008, 0.2, 0.2, 0.2, 0.2, 0.2, 0.2, 0.2, 0.4442559753276793, 0.06469798657718122, 0.2, 0.5286063569682152, 0.249740932642487, 0.2, 0.30180675569520815, 0.25707491082045186, 0.2, 0.19999999999999998, 0.4969072164948453, 0.2, 0.20370084811102546, 0.06267880364109234, 0.2, 0.12538860103626945, 0.2, 0.2, 0.1339531424321309, 0.00010035122930255897, 0.2, 0.3141498216409037, 0.000829875518672199, 0.2, 0.2, 0.2, 0.2, 0.2, 0.2, 0.2, 0.3997226074895978, 0.07853061224489798, 0.2, 0.3991701244813279, 0.2, 0.2, 0.2321189591078067, 0.05095271700776288, 0.2, 0.1818867924528302, 0.004081632653061225, 0.2, 0.1628267182962246, 0.04666021297192643, 0.008, 0.08373702422145328, 0.2, 0.2, 0.06921666230023579, 5.866823115283073e-05, 0.2, 0.24991334488734837, 0.000829875518672199, 0.2, 0.008, 0.2, 0.2, 0.008, 0.2, 0.2, 0.171893298633702, 0.0006920415224913494, 0.2, 0.4272189349112425, 0.0027397260273972603, 0.2, 0.14609265325222276, 0.0020618556701030924, 0.2, 0.000554016620498615, 0.004081632653061225, 0.2, 0.12286340394448504, 0.6634482758620689, 0.2, 0.28520710059171595, 0.2, 0.2, 0.06332718165040865, 0.00041580041580041577, 0.2, 0.15399361022364216, 0.2, 0.2, 0.004081632653061225, 0.2, 0.2, 0.2, 0.2, 0.2, 0.3268214571657326, 0.21619797525309337, 0.2, 0.17649938800489598, 0.07181008902077152, 0.2, 0.2199833472106578, 0.128281750266809, 0.2, 0.1501039501039501, 0.001652892561983471, 0.2, 0.06685159500693481, 0.1251948051948052, 0.2, 0.24989604989604994, 0.2494845360824742, 0.2, 0.24134960516870066, 0.6244473342002601, 0.2, 0.08716094032549729, 0.008, 0.2, 0.2, 0.2, 0.2, 0.2, 0.2, 0.2, 0.333230531996916, 0.3546308724832215, 0.2, 0.17652811735941323, 0.49844559585492226, 0.2, 0.39607227022780833, 0.11438763376932226, 0.2, 0.13351800554016618, 0.0020618556701030924, 0.2, 0.2777178103315343, 0.18751625487646298, 0.2, 0.4984455958549224, 0.2, 0.2, 0.21428040163629603, 0.10847967887606624, 0.2, 0.1714625445897741, 0.39917012448132777, 0.2, 0.2, 0.2, 0.2, 0.2, 0.2, 0.2, 0.13342579750346742, 0.23526530612244898, 0.2, 0.2995850622406639, 0.2, 0.2, 0.339182156133829, 0.1187014820042343, 0.2, 0.2724528301886793, 0.004081632653061225, 0.2, 0.27899322362052276, 0.06989351403678606, 0.008, 0.3328719723183391, 0.2, 0.2, 0.1069426250982447, 0.09862129656790847, 0.2, 0.2915077989601387, 0.000829875518672199, 0.2, 0.008, 0.2, 0.2, 0.008, 0.2, 0.2, 0.29681197137280413, 0.3328719723183391, 0.2, 0.28520710059171595, 0.0027397260273972603, 0.2, 0.12363125877398222, 0.0020618556701030924, 0.2, 0.5988919667590028, 0.004081632653061225, 0.2, 0.12286340394448504, 0.0013793103448275859, 0.2, 0.001183431952662722, 0.2, 0.2, 0.09496440812022146, 0.1002079002079002, 0.2, 0.07731629392971245, 0.2, 0.2, 0.9836734693877551, 0.2, 0.2, 0.2, 0.2, 0.2, 0.07702161729383508, 0.37817772778402703, 0.2, 0.058996328029375766, 0.0005934718100890209, 0.2, 0.23996669442131557, 0.3588046958377802, 0.2, 0.0004158004158004158, 0.19999999999999998, 0.2, 0.3997226074895978, 0.18753246753246752, 0.2, 0.1501039501039501, 0.0020618556701030924, 0.2, 0.20689160086145011, 0.12509752925877765, 0.2, 0.30415913200723327, 0.008, 0.2, 0.2, 0.2, 0.2, 0.2, 0.2, 0.2, 0.09267540478026215, 0.25798657718120804, 0.2, 0.05916870415647922, 0.0010362694300518132, 0.2, 0.22639434406912803, 0.3426872770511296, 0.2, 0.19999999999999998, 0.0020618556701030924, 0.2, 0.24070932922127988, 0.37477243172951885, 0.2, 0.12538860103626945, 0.2, 0.2, 0.2499814057270361, 0.2168590065228299, 0.2, 0.1714625445897741, 0.39917012448132777, 0.2, 0.2, 0.2, 0.2, 0.2, 0.2, 0.2, 0.20000000000000004, 0.3136326530612245, 0.2, 0.2995850622406639, 0.2, 0.2, 0.19643122676579924, 0.4235709244883557, 0.2, 0.36301886792452837, 0.004081632653061225, 0.2, 0.3022265246853824, 0.3486931268151017, 0.008, 0.49896193771626296, 0.2, 0.2, 0.2452711553576107, 0.20422411264300377, 0.2, 0.20831889081455807, 0.39917012448132777, 0.2, 0.008, 0.2, 0.2, 0.008, 0.2, 0.2, 0.15627846454131422, 0.1667820069204152, 0.2, 0.28520710059171595, 0.0027397260273972603, 0.2, 0.1910154422087038, 0.0020618556701030924, 0.2, 0.06703601108033241, 0.004081632653061225, 0.2, 0.21051862673484295, 0.3324137931034482, 0.2, 0.14319526627218934, 0.2, 0.2, 0.22784075929343528, 0.2997920997920998, 0.2, 0.23067092651757187, 0.2, 0.2, 0.004081632653061225, 0.2, 0.2, 0.2, 0.2, 0.2, 0.09623698959167334, 0.16220472440944883, 0.2, 0.3233782129742962, 0.07181008902077152, 0.2, 0.00016652789342214822, 0.10266808964781218, 0.2, 0.20000000000000004, 0.19999999999999998, 0.2, 0.20000000000000004, 0.06285714285714285, 0.2, 0.1501039501039501, 0.2494845360824742, 0.2, 0.13797559224694902, 0.03146944083224967, 0.2, 0.30415913200723327, 0.9680000000000001, 0.2, 0.2, 0.2, 0.2, 0.2, 0.2, 0.2, 0.05566692367000771, 0.2902013422818792, 0.2, 0.17652811735941323, 0.249740932642487, 0.2, 0.056716417910447764, 0.1429250891795482, 0.2, 0.2664819944598338, 0.4969072164948453, 0.2, 0.18519660755589823, 0.12509752925877765, 0.2, 0.24974093264248706, 0.2, 0.2, 0.22320565265898104, 0.24094330155544408, 0.2, 0.28561236623067776, 0.19999999999999998, 0.2, 0.2, 0.2, 0.2, 0.2, 0.2, 0.2, 0.10013869625520112, 0.27444897959183673, 0.2, 0.0008298755186721993, 0.2, 0.2, 0.08936802973977696, 0.2372618207480593, 0.2, 0.09132075471698113, 0.004081632653061225, 0.2, 0.13959341723136498, 0.1860600193610842, 0.008, 0.08373702422145328, 0.2, 0.2, 0.33329840188629817, 0.22534467585802284, 0.2, 0.12512998266897746, 0.39917012448132777, 0.2, 0.9680000000000001, 0.2, 0.2, 0.9680000000000001, 0.2, 0.2, 0.2655823031880286, 0.3328719723183391, 0.2, 0.0011834319526627217, 0.989041095890411, 0.2, 0.23593823116518486, 0.0020618556701030924, 0.2, 0.1335180055401662, 0.004081632653061225, 0.2, 0.31570489408327246, 0.0013793103448275859, 0.2, 0.5692307692307693, 0.2, 0.2, 0.32275243870287373, 0.2498960498960499, 0.2, 0.3840255591054313, 0.2, 0.2, 0.004081632653061225, 0.2, 0.2, 0.2, 0.2, 0.2, 0.1346677341873499, 0.00022497187851518562, 0.2, 0.029620563035495717, 0.07181008902077152, 0.2, 0.060116569525395507, 0.17950907150480258, 0.2, 0.050311850311850315, 0.001652892561983471, 0.2, 0.00027739251040221914, 0.37454545454545457, 0.2, 0.050311850311850315, 0.0020618556701030924, 0.2, 0.1552045944005743, 0.0002600780234070221, 0.2, 0.043761301989150084, 0.008, 0.2, 0.2, 0.2, 0.2, 0.2, 0.2, 0.2, 0.07417116422513494, 0.03248322147651007, 0.2, 0.05916870415647922, 0.0010362694300518132, 0.2, 0.0190102120974077, 0.1429250891795482, 0.2, 0.19999999999999998, 0.0020618556701030924, 0.2, 0.09267540478026215, 0.24993498049414825, 0.2, 0.0010362694300518136, 0.2, 0.2, 0.178579397545556, 0.4336176618163573, 0.2, 0.057312722948870395, 0.000829875518672199, 0.2, 0.2, 0.2, 0.2, 0.2, 0.2, 0.2, 0.16671289875173373, 0.09812244897959185, 0.2, 0.0008298755186721993, 0.2, 0.2, 0.1428996282527881, 0.16951305575158787, 0.2, 0.09132075471698113, 0.9836734693877551, 0.2, 0.11636011616650534, 0.3486931268151017, 0.9679999999999999, 0.0006920415224913494, 0.2, 0.2, 0.2452711553576107, 0.471751246699912, 0.2, 0.12512998266897746, 0.19999999999999998, 0.2, 0.008, 0.2, 0.2, 0.008, 0.2, 0.2, 0.10943396226415095, 0.1667820069204152, 0.2, 0.0011834319526627217, 0.0027397260273972603, 0.2, 0.30332241459990644, 0.9917525773195877, 0.2, 0.20000000000000004, 0.9836734693877551, 0.2, 0.22804967129291454, 0.0013793103448275859, 0.2, 0.001183431952662722, 0.2, 0.2, 0.2911152122330609, 0.3496881496881497, 0.2, 0.15399361022364216, 0.2, 0.2, 0.004081632653061225, 0.2, 0.2, 0.2, 0.2, 0.2 ;
}
probability ( change_num | accept_num, close_num ) {
    table 0.9545150501672239, 0.2, 0.2, 0.2, 0.2, 0.2, 0.00011841326228537595, 0.2, 0.2, 0.2, 0.2, 0.2, 0.0002447980416156671, 0.000488997555012225, 0.2, 0.2, 0.2, 0.00023781212841854932, 0.00011409013120365089, 9.995002498750625e-05, 0.04481605351170568, 0.2, 0.2, 0.2, 0.2, 0.2, 0.9711071640023682, 0.2, 0.2, 0.2, 0.2, 0.2, 0.0002447980416156671, 0.000488997555012225, 0.2, 0.2, 0.2, 0.00023781212841854932, 0.00011409013120365089, 9.995002498750625e-05, 0.00022296544035674466, 0.2, 0.2, 0.2, 0.2, 0.2, 0.028537596210775604, 0.2, 0.2, 0.2, 0.2, 0.2, 0.6954712362301102, 0.2058679706601467, 0.2, 0.2, 0.2, 0.9705112960760998, 0.06400456360524814, 0.0020989505247376314, 0.00022296544035674466, 0.2, 0.2, 0.2, 0.2, 0.2, 0.00011841326228537595, 0.2, 0.2, 0.2, 0.2, 0.2, 0.3037943696450428, 0.7926650366748166, 0.2, 0.2, 0.2, 0.028775267538644466, 0.7850541928123218, 0.13203398300849575, 0.00022296544035674466, 0.2, 0.2, 0.2, 0.2, 0.2, 0.00011841326228537595, 0.2, 0.2, 0.2, 0.2, 0.2, 0.0002447980416156671, 0.000488997555012225, 0.2, 0.2, 0.2, 0.00023781212841854932, 0.15071306332002282, 0.8656671664167916 ;
}
probability ( close_num | pre_prs ) {
    table 0.9964444444444447, 0.00047281323877068567, 0.0004819277108433736, 0.0003539823008849557, 0.00041928721174004196, 0.0008888888888888891, 0.9981087470449174, 0.0004819277108433736, 0.0003539823008849557, 0.00041928721174004196, 0.0008888888888888891, 0.00047281323877068567, 0.9980722891566266, 0.0003539823008849557, 0.00041928721174004196, 0.0008888888888888891, 0.00047281323877068567, 0.0004819277108433736, 0.9561061946902654, 0.00041928721174004196, 0.0008888888888888891, 0.00047281323877068567, 0.0004819277108433736, 0.042831858407079634, 0.9983228511530398 ;
}
probability ( comment_num | has_assignees_content, mergable_state, participants_count, review_comment_num ) {
    table 0.7024431932435149, 0.556838453914767, 0.28027117931469414, 0.15309555854643336, 0.001328374070138151, 0.02483411157532563, 0.6377249926231927, 0.3635261013002134, 0.19060712714474262, 0.0638430583501006, 0.25, 0.0338337182448037, 0.25, 0.25, 0.25, 0.25, 0.25, 0.030487804878048776, 0.25, 0.25, 0.25, 0.9085365853658535, 0.25, 0.25, 0.25, 0.25, 0.25, 0.25, 0.25, 0.25, 0.25, 0.25, 0.25, 0.25, 0.25, 0.25, 0.23914136336215558, 0.4426660059464816, 0.39378810174479717, 0.35455479209463764, 0.19261424017003187, 0.10092160235930203, 0.2234434936559457, 0.6359887444207257, 0.174769027716674, 0.22319919517102615, 0.25, 0.05046189376443418, 0.25, 0.25, 0.25, 0.25, 0.25, 0.030487804878048776, 0.25, 0.25, 0.25, 0.030487804878048773, 0.25, 0.25, 0.25, 0.25, 0.25, 0.25, 0.25, 0.25, 0.25, 0.25, 0.25, 0.25, 0.25, 0.25, 0.04368590388095716, 0.00024777006937561937, 0.2045932310279588, 0.48206063611248845, 0.19261424017003187, 0.21239862374047677, 0.11721746827972852, 0.00024257713953037063, 0.5073691157061153, 0.7128571428571429, 0.25, 0.2998845265588915, 0.25, 0.25, 0.25, 0.25, 0.25, 0.9085365853658536, 0.25, 0.25, 0.25, 0.030487804878048773, 0.25, 0.25, 0.25, 0.25, 0.25, 0.25, 0.25, 0.25, 0.25, 0.25, 0.25, 0.25, 0.25, 0.25, 0.014729539513372207, 0.00024777006937561937, 0.12134748791254993, 0.010289013246440461, 0.6134431455897981, 0.6618456623248955, 0.02161404544113308, 0.00024257713953037063, 0.1272547294324681, 0.00010060362173038229, 0.25, 0.6158198614318707, 0.25, 0.25, 0.25, 0.25, 0.25, 0.030487804878048776, 0.25, 0.25, 0.25, 0.030487804878048773, 0.25, 0.25, 0.25, 0.25, 0.25, 0.25, 0.25, 0.25, 0.25, 0.25, 0.25, 0.25, 0.25, 0.25 ;
}
probability ( commit_num | total_add_line ) {
    table 0.45732689210950084, 0.25021872265966755, 0.13966049382716053, 0.06486042692939245, 0.017655367231638422, 0.5418679549114332, 0.7489063867016623, 0.8595679012345679, 0.9343185550082103, 0.9774011299435029, 0.0008051529790660225, 0.0008748906386701664, 0.000771604938271605, 0.0008210180623973728, 0.004943502824858758 ;
}
probability ( file_changed_num | has_assignees_content, has_refactor ) {
    table 0.19546605570963463, 0.6814159292035398, 0.1111111111111111, 0.2, 0.22006511515736163, 0.11504424778761062, 0.1111111111111111, 0.2, 0.15880863378753166, 0.11504424778761062, 0.5555555555555556, 0.2, 0.4236102737248282, 0.07964601769911504, 0.1111111111111111, 0.2, 0.0020499216206439166, 0.008849557522123894, 0.1111111111111111, 0.2 ;
}
probability ( has_assignees_content ) {
    table 0.9983372921615202, 0.00166270783847981 ;
}
probability ( has_bug | body_words ) {
    table 0.9087301587301587, 0.9519704433497537, 0.9489583333333333, 0.9784580498866213, 0.99875, 0.09126984126984126, 0.0480295566502463, 0.051041666666666666, 0.021541950113378686, 0.00125 ;
}
probability ( has_document | body_words, has_feature ) {
    table 0.9315937940761636, 0.776595744680851, 0.9793491864831039, 0.9615384615384616, 0.9868835257082896, 0.6428571428571429, 0.9926220204313281, 0.5, 0.9993742177722152, 0.5, 0.0684062059238364, 0.22340425531914893, 0.02065081351689612, 0.038461538461538464, 0.013116474291710388, 0.35714285714285715, 0.0073779795686719635, 0.5, 0.0006257822277847309, 0.5 ;
}
probability ( has_feature | body_words ) {
    table 0.9378306878306878, 0.9839901477832512, 0.9927083333333333, 0.9988662131519275, 0.99875, 0.062169312169312166, 0.01600985221674877, 0.007291666666666667, 0.0011337868480725624, 0.00125 ;
}
probability ( has_improve | body_words ) {
    table 0.9378306878306878, 0.9766009852216748, 0.990625, 0.9943310657596371, 0.99875, 0.062169312169312166, 0.023399014778325122, 0.009375, 0.005668934240362812, 0.00125 ;
}
probability ( has_labels | author_identity, change_num, mergable_state ) {
    table 0.5, 0.5, 0.5, 0.5, 0.5, 0.5, 0.5382978723404256, 0.9021177685950413, 0.5, 0.9085014409221902, 0.9348557692307693, 0.5, 0.7679721030042919, 0.9437931034482759, 0.5, 0.5, 0.5, 0.5, 0.5, 0.5, 0.5, 0.17752442996742668, 0.33928571428571436, 0.5, 0.6713938411669368, 0.5330882352941176, 0.95, 0.6172638436482084, 0.9891304347826088, 0.5, 0.7594767752269087, 0.990909090909091, 0.5, 0.9220270270270271, 0.9939024390243902, 0.5, 0.8446643717728055, 0.95, 0.5, 0.9342581423401689, 0.990909090909091, 0.5, 0.7173295454545454, 0.8294979079497907, 0.5, 0.5, 0.5, 0.5, 0.5, 0.5, 0.5, 0.46170212765957447, 0.09788223140495869, 0.5, 0.0914985590778098, 0.06514423076923077, 0.5, 0.2320278969957082, 0.056206896551724145, 0.5, 0.5, 0.5, 0.5, 0.5, 0.5, 0.5, 0.8224755700325732, 0.6607142857142857, 0.5, 0.3286061588330632, 0.46691176470588236, 0.049999999999999996, 0.3827361563517915, 0.010869565217391304, 0.5, 0.24052322477309132, 0.00909090909090909, 0.5, 0.07797297297297298, 0.006097560975609756, 0.5, 0.1553356282271945, 0.049999999999999996, 0.5, 0.06574185765983112, 0.00909090909090909, 0.5, 0.28267045454545453, 0.1705020920502092, 0.5 ;
}
probability ( has_refactor ) {
    table 0.9859857482185274, 0.014014251781472684 ;
}
probability ( is_weekday | has_improve, mergable_state, priorities_number ) {
    table 0.16381322957198444, 0.21757735352205398, 0.15180010746910266, 0.18334350213544845, 0.13437998935604048, 0.2246770904146839, 0.09077231695085256, 0.045232273838630814, 0.0009242144177449169, 0.008387096774193546, 0.5, 0.5, 0.5, 0.07142857142857144, 0.5, 0.20967741935483872, 0.5, 0.44545454545454544, 0.5, 0.07142857142857144, 0.3378378378378379, 0.07142857142857144, 0.5, 0.5, 0.5, 0.5, 0.5, 0.5, 0.5, 0.5, 0.8361867704280155, 0.782422646477946, 0.8481998925308974, 0.8166564978645515, 0.8656200106439595, 0.7753229095853161, 0.9092276830491474, 0.9547677261613693, 0.9990757855822552, 0.9916129032258064, 0.5, 0.5, 0.5, 0.9285714285714286, 0.5, 0.7903225806451614, 0.5, 0.5545454545454546, 0.5, 0.9285714285714286, 0.6621621621621622, 0.9285714285714286, 0.5, 0.5, 0.5, 0.5, 0.5, 0.5, 0.5, 0.5 ;
}
probability ( mergable_state | accept_num, close_num ) {
    table 0.972500929022668, 0.3333333333333333, 0.3333333333333333, 0.3333333333333333, 0.3333333333333333, 0.3333333333333333, 0.9782909019143479, 0.3333333333333333, 0.3333333333333333, 0.3333333333333333, 0.3333333333333333, 0.3333333333333333, 0.974704202366381, 0.9299103504482479, 0.3333333333333333, 0.3333333333333333, 0.3333333333333333, 0.009908838684106223, 0.41776003042403503, 0.5678827253040147, 0.0271274619100706, 0.3333333333333333, 0.3333333333333333, 0.3333333333333333, 0.3333333333333333, 0.3333333333333333, 0.021511742648509972, 0.3333333333333333, 0.3333333333333333, 0.3333333333333333, 0.3333333333333333, 0.3333333333333333, 0.024887800897592814, 0.06927465362673187, 0.3333333333333333, 0.3333333333333333, 0.3333333333333333, 0.9896948077685295, 0.5797680167332193, 0.4319506913210062, 0.00037160906726124113, 0.3333333333333333, 0.3333333333333333, 0.3333333333333333, 0.3333333333333333, 0.3333333333333333, 0.00019735543714229328, 0.3333333333333333, 0.3333333333333333, 0.3333333333333333, 0.3333333333333333, 0.3333333333333333, 0.00040799673602611174, 0.000814995925020375, 0.3333333333333333, 0.3333333333333333, 0.3333333333333333, 0.0003963535473642488, 0.002471952842745769, 0.0001665833749791771 ;
}
probability ( participants_count | accept_num, close_num, commit_num, review_num ) {
    table 0.21760096443640747, 0.04217215482380127, 0.06285218899003032, 0.013884898975390214, 0.3333333333333333, 0.3333333333333333, 0.3333333333333333, 0.3333333333333333, 0.3333333333333333, 0.3333333333333333, 0.3333333333333333, 0.3333333333333333, 0.3333333333333333, 0.3333333333333333, 0.3333333333333333, 0.3333333333333333, 0.3333333333333333, 0.3333333333333333, 0.3333333333333333, 0.3333333333333333, 0.3333333333333333, 0.3333333333333333, 0.3333333333333333, 0.3333333333333333, 0.3333333333333333, 0.3333333333333333, 0.3333333333333333, 0.3333333333333333, 0.3333333333333333, 0.3333333333333333, 0.3333333333333333, 0.3333333333333333, 0.3333333333333333, 0.3333333333333333, 0.3333333333333333, 0.3333333333333333, 0.013333333333333334, 0.0022988505747126436, 0.1868802440884821, 0.03398911319703399, 0.3333333333333333, 0.3333333333333333, 0.3333333333333333, 0.3333333333333333, 0.3333333333333333, 0.3333333333333333, 0.3333333333333333, 0.3333333333333333, 0.3333333333333333, 0.3333333333333333, 0.3333333333333333, 0.3333333333333333, 0.3333333333333333, 0.3333333333333333, 0.3333333333333333, 0.3333333333333333, 0.3333333333333333, 0.3333333333333333, 0.3333333333333333, 0.3333333333333333, 0.3333333333333333, 0.3333333333333333, 0.3333333333333333, 0.3333333333333333, 0.3333333333333333, 0.3333333333333333, 0.3333333333333333, 0.3333333333333333, 0.3333333333333333, 0.3333333333333333, 0.3333333333333333, 0.3333333333333333, 0.4994232987312572, 0.3635220125786163, 0.2833680314596345, 0.17360872059667243, 0.3333333333333333, 0.3333333333333333, 0.41637831603229525, 0.5446540880503145, 0.2504317789291882, 0.366177908113392, 0.3333333333333333, 0.3333333333333333, 0.3333333333333333, 0.3333333333333333, 0.3333333333333333, 0.3333333333333333, 0.3333333333333333, 0.3333333333333333, 0.3333333333333333, 0.3333333333333333, 0.3333333333333333, 0.3333333333333333, 0.3333333333333333, 0.3333333333333333, 0.3333333333333333, 0.3333333333333333, 0.3333333333333333, 0.3333333333333333, 0.3333333333333333, 0.3333333333333333, 0.11162432640492685, 0.2903514663084845, 0.3333333333333333, 0.2615614653423048, 0.3333333333333333, 0.3333333333333333, 0.33333333333333326, 0.4803321083435416, 0.6352201257861635, 0.27760984798703287, 0.3333333333333333, 0.006802721088435374, 0.3333333333333333, 0.5887706308807651, 0.3333333333333333, 0.334146258849033, 0.3333333333333333, 0.3333333333333333, 0.6515973477998794, 0.04217215482380127, 0.4061551798872995, 0.05525232212965624, 0.3333333333333333, 0.3333333333333333, 0.3333333333333333, 0.3333333333333333, 0.3333333333333333, 0.3333333333333333, 0.3333333333333333, 0.3333333333333333, 0.3333333333333333, 0.3333333333333333, 0.3333333333333333, 0.3333333333333333, 0.3333333333333333, 0.3333333333333333, 0.3333333333333333, 0.3333333333333333, 0.3333333333333333, 0.3333333333333333, 0.3333333333333333, 0.3333333333333333, 0.3333333333333333, 0.3333333333333333, 0.3333333333333333, 0.3333333333333333, 0.3333333333333333, 0.3333333333333333, 0.3333333333333333, 0.3333333333333333, 0.3333333333333333, 0.3333333333333333, 0.3333333333333333, 0.3333333333333333, 0.013333333333333334, 0.3333333333333333, 0.45049580472921436, 0.16668809738116666, 0.3333333333333333, 0.3333333333333333, 0.3333333333333333, 0.3333333333333333, 0.3333333333333333, 0.3333333333333333, 0.3333333333333333, 0.3333333333333333, 0.3333333333333333, 0.3333333333333333, 0.3333333333333333, 0.3333333333333333, 0.3333333333333333, 0.3333333333333333, 0.3333333333333333, 0.3333333333333333, 0.3333333333333333, 0.3333333333333333, 0.3333333333333333, 0.3333333333333333, 0.3333333333333333, 0.3333333333333333, 0.3333333333333333, 0.3333333333333333, 0.3333333333333333, 0.3333333333333333, 0.3333333333333333, 0.3333333333333333, 0.3333333333333333, 0.3333333333333333, 0.3333333333333333, 0.3333333333333333, 0.4994232987312572, 0.5446540880503145, 0.3999537358315984, 0.3966724039013196, 0.3333333333333333, 0.3333333333333333, 0.5824682814302191, 0.3635220125786163, 0.6234887737478411, 0.5350928641251222, 0.3333333333333333, 0.3333333333333333, 0.3333333333333333, 0.3333333333333333, 0.3333333333333333, 0.3333333333333333, 0.3333333333333333, 0.3333333333333333, 0.3333333333333333, 0.3333333333333333, 0.3333333333333333, 0.3333333333333333, 0.3333333333333333, 0.3333333333333333, 0.3333333333333333, 0.3333333333333333, 0.3333333333333333, 0.3333333333333333, 0.3333333333333333, 0.3333333333333333, 0.8876058506543495, 0.6771882695321245, 0.3333333333333333, 0.722952045284631, 0.3333333333333333, 0.3333333333333333, 0.6643678160919539, 0.44113243500748606, 0.3635220125786163, 0.6308757173522582, 0.3333333333333333, 0.006802721088435374, 0.3333333333333333, 0.33333333333333337, 0.3333333333333333, 0.5511973715408326, 0.3333333333333333, 0.3333333333333333, 0.13080168776371306, 0.9156556903523975, 0.53099263112267, 0.9308627788949536, 0.3333333333333333, 0.3333333333333333, 0.3333333333333333, 0.3333333333333333, 0.3333333333333333, 0.3333333333333333, 0.3333333333333333, 0.3333333333333333, 0.3333333333333333, 0.3333333333333333, 0.3333333333333333, 0.3333333333333333, 0.3333333333333333, 0.3333333333333333, 0.3333333333333333, 0.3333333333333333, 0.3333333333333333, 0.3333333333333333, 0.3333333333333333, 0.3333333333333333, 0.3333333333333333, 0.3333333333333333, 0.3333333333333333, 0.3333333333333333, 0.3333333333333333, 0.3333333333333333, 0.3333333333333333, 0.3333333333333333, 0.3333333333333333, 0.3333333333333333, 0.3333333333333333, 0.3333333333333333, 0.9733333333333334, 0.664367816091954, 0.36262395118230356, 0.7993227894217994, 0.3333333333333333, 0.3333333333333333, 0.3333333333333333, 0.3333333333333333, 0.3333333333333333, 0.3333333333333333, 0.3333333333333333, 0.3333333333333333, 0.3333333333333333, 0.3333333333333333, 0.3333333333333333, 0.3333333333333333, 0.3333333333333333, 0.3333333333333333, 0.3333333333333333, 0.3333333333333333, 0.3333333333333333, 0.3333333333333333, 0.3333333333333333, 0.3333333333333333, 0.3333333333333333, 0.3333333333333333, 0.3333333333333333, 0.3333333333333333, 0.3333333333333333, 0.3333333333333333, 0.3333333333333333, 0.3333333333333333, 0.3333333333333333, 0.3333333333333333, 0.3333333333333333, 0.3333333333333333, 0.0011534025374855823, 0.09182389937106916, 0.31667823270876705, 0.42971887550200805, 0.3333333333333333, 0.3333333333333333, 0.0011534025374855823, 0.09182389937106916, 0.1260794473229706, 0.09872922776148585, 0.3333333333333333, 0.3333333333333333, 0.3333333333333333, 0.3333333333333333, 0.3333333333333333, 0.3333333333333333, 0.3333333333333333, 0.3333333333333333, 0.3333333333333333, 0.3333333333333333, 0.3333333333333333, 0.3333333333333333, 0.3333333333333333, 0.3333333333333333, 0.3333333333333333, 0.3333333333333333, 0.3333333333333333, 0.3333333333333333, 0.3333333333333333, 0.3333333333333333, 0.0007698229407236335, 0.03246026415939109, 0.3333333333333333, 0.01548648937306419, 0.3333333333333333, 0.3333333333333333, 0.002298850574712643, 0.07853545664897238, 0.0012578616352201255, 0.0915144346607088, 0.3333333333333333, 0.9863945578231293, 0.3333333333333333, 0.0778960357859016, 0.3333333333333333, 0.11465636961013448, 0.3333333333333333, 0.3333333333333333 ;
}
probability ( pre_prs | commit_num, has_assignees_content, total_add_line, total_delete_line ) {
    table 0.20535554894376676, 0.11549295774647889, 0.10542907180385289, 0.08712011577424024, 0.0007380073800738006, 0.11549295774647887, 0.1026473099914603, 0.2083217753120666, 0.0013245033112582784, 0.006451612903225807, 0.0032786885245901635, 0.12515592515592516, 0.11127541589648798, 0.06278586278586278, 0.0008298755186721993, 0.2, 0.0021978021978021982, 0.000554016620498615, 0.000947867298578199, 0.0016528925619834713, 0.2, 0.2, 0.2, 0.000947867298578199, 0.006451612903225807, 0.2, 0.2, 0.2, 0.2, 0.2, 0.2, 0.2, 0.2, 0.2, 0.2, 0.2, 0.2, 0.2, 0.2, 0.2, 0.2, 0.2, 0.2, 0.2, 0.2, 0.2, 0.2, 0.2, 0.2, 0.2, 0.2580489115829078, 0.20407885791978242, 0.04786053882725832, 0.000443458980044346, 0.06696230598669622, 0.3271956390066626, 0.18000666444518496, 0.10004759638267492, 0.02578992314261315, 0.19049128367670365, 0.10016638935108153, 0.09169675090252707, 0.08399898244721445, 0.10670812972012438, 0.08015978695073236, 0.00044345898004434595, 0.1429477020602219, 0.10347046655941163, 0.04141576649046196, 0.11543882126841769, 0.14711067580803136, 0.1253112033195021, 0.05909980430528375, 0.04001640857347964, 0.01306793595845954, 0.2, 0.2, 0.2, 0.2, 0.2, 0.2, 0.2, 0.2, 0.2, 0.2, 0.2, 0.2, 0.2, 0.2, 0.2, 0.2, 0.2, 0.2, 0.2, 0.006451612903225807, 0.2, 0.2, 0.2, 0.2, 0.2, 0.2, 0.2, 0.2, 0.2, 0.2, 0.2, 0.2, 0.2, 0.2, 0.2, 0.2, 0.2, 0.2, 0.2, 0.2, 0.2, 0.2, 0.2, 0.2, 0.2, 0.2, 0.2, 0.2, 0.2, 0.0032786885245901635, 0.2, 0.2, 0.2, 0.2, 0.2, 0.2, 0.2, 0.2, 0.2, 0.2, 0.2, 0.2, 0.2, 0.2, 0.2, 0.2, 0.2, 0.2, 0.2, 0.2, 0.2, 0.2, 0.2, 0.2, 0.2, 0.03576316572448676, 0.038668373879641484, 0.0003502626970227671, 0.00028943560057887124, 0.0007380073800738006, 0.038668373879641484, 0.00017079419299743812, 0.0002773925104022192, 0.0013245033112582784, 0.006451612903225807, 0.0032786885245901635, 0.00041580041580041577, 0.0003696857670979667, 0.00041580041580041577, 0.0008298755186721993, 0.2, 0.0021978021978021982, 0.000554016620498615, 0.000947867298578199, 0.24958677685950412, 0.2, 0.2, 0.2, 0.000947867298578199, 0.006451612903225807, 0.2, 0.2, 0.2, 0.2, 0.2, 0.2, 0.2, 0.2, 0.2, 0.2, 0.2, 0.2, 0.2, 0.2, 0.2, 0.2, 0.2, 0.2, 0.2, 0.2, 0.2, 0.2, 0.2, 0.2, 0.2, 0.3225477022305832, 0.4692046227056424, 0.23803486529318546, 0.06696230598669624, 0.19999999999999998, 0.21817080557238033, 0.4199266911029657, 0.47129938124702525, 0.20512382578992314, 0.14294770206022187, 0.24991680532445923, 0.2916412107747848, 0.3740015263291783, 0.2666370501999112, 0.43968042609853525, 0.06696230598669622, 0.19049128367670368, 0.17931509997701678, 0.19310503332567228, 0.28840486867392695, 0.11772771792360431, 0.1253112033195021, 0.23522504892367904, 0.1077017741770075, 0.09095629597576807, 0.2, 0.2, 0.2, 0.2, 0.2, 0.2, 0.2, 0.2, 0.2, 0.2, 0.2, 0.2, 0.2, 0.2, 0.2, 0.2, 0.2, 0.2, 0.2, 0.006451612903225807, 0.2, 0.2, 0.2, 0.2, 0.2, 0.2, 0.2, 0.2, 0.2, 0.2, 0.2, 0.2, 0.2, 0.2, 0.2, 0.2, 0.2, 0.2, 0.2, 0.2, 0.2, 0.2, 0.2, 0.2, 0.2, 0.2, 0.2, 0.2, 0.2, 0.0032786885245901635, 0.2, 0.2, 0.2, 0.2, 0.2, 0.2, 0.2, 0.2, 0.2, 0.2, 0.2, 0.2, 0.2, 0.2, 0.2, 0.2, 0.2, 0.2, 0.2, 0.2, 0.2, 0.2, 0.2, 0.2, 0.2, 0.22320737875632254, 0.038668373879641484, 0.15796847635726793, 0.1739507959479016, 0.222140221402214, 0.5764404609475031, 0.2819812126387703, 0.16671289875173373, 0.39867549668874175, 0.006451612903225807, 0.9868852459016393, 0.6864864864864864, 0.333086876155268, 0.3746361746361746, 0.0008298755186721993, 0.2, 0.0021978021978021982, 0.3329639889196676, 0.2853080568720379, 0.49752066115702487, 0.2, 0.2, 0.2, 0.2853080568720379, 0.9741935483870968, 0.2, 0.2, 0.2, 0.2, 0.2, 0.2, 0.2, 0.2, 0.2, 0.2, 0.2, 0.2, 0.2, 0.2, 0.2, 0.2, 0.2, 0.2, 0.2, 0.2, 0.2, 0.2, 0.2, 0.2, 0.2, 0.2016124697661919, 0.06131883072739633, 0.00031695721077654523, 0.000443458980044346, 0.13348115299334812, 0.3271956390066626, 0.10003332222592469, 0.05721085197524989, 0.23074295473953885, 0.0003169572107765452, 0.29983361064891845, 0.19166898083865594, 0.09163062833884507, 0.09338071968014217, 0.12010652463382157, 0.6656319290465631, 0.23803486529318546, 0.21378993334865548, 0.20689496667432775, 0.17309417040358743, 0.26464250734573946, 0.7477178423236517, 0.4700587084148727, 0.17538713978053536, 0.3116399826914756, 0.2, 0.2, 0.2, 0.2, 0.2, 0.2, 0.2, 0.2, 0.2, 0.2, 0.2, 0.2, 0.2, 0.2, 0.2, 0.2, 0.2, 0.2, 0.2, 0.006451612903225807, 0.2, 0.2, 0.2, 0.2, 0.2, 0.2, 0.2, 0.2, 0.2, 0.2, 0.2, 0.2, 0.2, 0.2, 0.2, 0.2, 0.2, 0.2, 0.2, 0.2, 0.2, 0.2, 0.2, 0.2, 0.2, 0.2, 0.2, 0.2, 0.2, 0.0032786885245901635, 0.2, 0.2, 0.2, 0.2, 0.2, 0.2, 0.2, 0.2, 0.2, 0.2, 0.2, 0.2, 0.2, 0.2, 0.2, 0.2, 0.2, 0.2, 0.2, 0.2, 0.2, 0.2, 0.2, 0.2, 0.2, 0.46420708122582566, 0.49961587708066585, 0.47320490367775825, 0.30419681620839367, 0.222140221402214, 0.15390524967989758, 0.4100768573868489, 0.24993065187239946, 0.0013245033112582784, 0.9741935483870968, 0.0032786885245901635, 0.1875259875259875, 0.333086876155268, 0.1875259875259875, 0.6232365145228216, 0.2, 0.6615384615384616, 0.000554016620498615, 0.42748815165876775, 0.0016528925619834713, 0.2, 0.2, 0.2, 0.2853080568720379, 0.006451612903225807, 0.2, 0.2, 0.2, 0.2, 0.2, 0.2, 0.2, 0.2, 0.2, 0.2, 0.2, 0.2, 0.2, 0.2, 0.2, 0.2, 0.2, 0.2, 0.2, 0.2, 0.2, 0.2, 0.2, 0.2, 0.2, 0.1613007256113948, 0.14289598912304555, 0.333122028526149, 0.3330376940133038, 0.19999999999999998, 0.03646274984857662, 0.21999333555481507, 0.12860542598762492, 0.20512382578992314, 0.47575277337559424, 0.3497504159733777, 0.3416273257428492, 0.30531671330450266, 0.2799644602398934, 0.08015978695073236, 0.2665188470066519, 0.38066561014263073, 0.25515973339462195, 0.2827396000919329, 0.1923126201153107, 0.20587659157688543, 0.0008298755186721994, 0.1765166340508806, 0.2892216182955594, 0.24673301601038514, 0.2, 0.2, 0.2, 0.2, 0.2, 0.2, 0.2, 0.2, 0.2, 0.2, 0.2, 0.2, 0.2, 0.2, 0.2, 0.2, 0.2, 0.2, 0.2, 0.9741935483870968, 0.2, 0.2, 0.2, 0.2, 0.2, 0.2, 0.2, 0.2, 0.2, 0.2, 0.2, 0.2, 0.2, 0.2, 0.2, 0.2, 0.2, 0.2, 0.2, 0.2, 0.2, 0.2, 0.2, 0.2, 0.2, 0.2, 0.2, 0.2, 0.2, 0.9868852459016393, 0.2, 0.2, 0.2, 0.2, 0.2, 0.2, 0.2, 0.2, 0.2, 0.2, 0.2, 0.2, 0.2, 0.2, 0.2, 0.2, 0.2, 0.2, 0.2, 0.2, 0.2, 0.2, 0.2, 0.2, 0.2, 0.07146682534959833, 0.3075544174135723, 0.26304728546409806, 0.43444283646888565, 0.5542435424354243, 0.11549295774647887, 0.20512382578992314, 0.37475728155339805, 0.5973509933774835, 0.006451612903225807, 0.0032786885245901635, 0.00041580041580041577, 0.222181146025878, 0.3746361746361746, 0.37427385892116183, 0.2, 0.33186813186813185, 0.6653739612188365, 0.2853080568720379, 0.24958677685950412, 0.2, 0.2, 0.2, 0.42748815165876775, 0.006451612903225807, 0.2, 0.2, 0.2, 0.2, 0.2, 0.2, 0.2, 0.2, 0.2, 0.2, 0.2, 0.2, 0.2, 0.2, 0.2, 0.2, 0.2, 0.2, 0.2, 0.2, 0.2, 0.2, 0.2, 0.2, 0.2, 0.056490190808922335, 0.12250169952413323, 0.38066561014263073, 0.5991130820399113, 0.39955654101995564, 0.09097516656571775, 0.08003998667110962, 0.24283674440742506, 0.3332194705380017, 0.19049128367670365, 0.00033277870216306157, 0.083365731741183, 0.1450521495802595, 0.25330964015992896, 0.2798934753661784, 0.00044345898004434595, 0.04786053882725832, 0.24826476672029418, 0.2758446334176052, 0.2307495195387572, 0.26464250734573946, 0.0008298755186721994, 0.05909980430528375, 0.38767305917341816, 0.33760276936391176, 0.2, 0.2, 0.2, 0.2, 0.2, 0.2, 0.2, 0.2, 0.2, 0.2, 0.2, 0.2, 0.2, 0.2, 0.2, 0.2, 0.2, 0.2, 0.2, 0.006451612903225807, 0.2, 0.2, 0.2, 0.2, 0.2, 0.2, 0.2, 0.2, 0.2, 0.2, 0.2, 0.2, 0.2, 0.2, 0.2, 0.2, 0.2, 0.2, 0.2, 0.2, 0.2, 0.2, 0.2, 0.2, 0.2, 0.2, 0.2, 0.2, 0.2, 0.0032786885245901635, 0.2, 0.2, 0.2, 0.2, 0.2, 0.2, 0.2, 0.2, 0.2, 0.2, 0.2, 0.2, 0.2, 0.2, 0.2, 0.2, 0.2, 0.2, 0.2, 0.2, 0.2, 0.2, 0.2, 0.2, 0.2 ;
}
probability ( priorities_number | change_num, comment_num, commit_num, mergable_state ) {
    table 0.44406779661016943, 0.9783783783783785, 0.19999999999999998, 0.0006153846153846154, 0.9783783783783785, 0.19999999999999998, 0.19999999999999998, 0.19999999999999998, 0.19999999999999998, 0.23070362473347547, 0.19999999999999998, 0.19999999999999998, 0.2083236994219653, 0.6623853211009174, 0.19999999999999998, 0.19999999999999998, 0.19999999999999998, 0.19999999999999998, 0.0011049723756906078, 0.19999999999999998, 0.19999999999999998, 0.06909090909090908, 0.19999999999999998, 0.19999999999999998, 0.19999999999999998, 0.19999999999999998, 0.19999999999999998, 0.24982698961937713, 0.005405405405405406, 0.19999999999999998, 0.03925946093111898, 0.19999999999999998, 0.19999999999999998, 0.19999999999999998, 0.19999999999999998, 0.19999999999999998, 0.989041095890411, 0.19999999999999998, 0.19999999999999998, 0.4144888287068383, 0.6623853211009174, 0.19999999999999998, 0.19999999999999998, 0.19999999999999998, 0.19999999999999998, 0.9783783783783785, 0.19999999999999998, 0.19999999999999998, 0.07063051290427964, 0.005405405405405406, 0.19999999999999998, 0.19999999999999998, 0.19999999999999998, 0.19999999999999998, 0.4958904109589041, 0.19999999999999998, 0.19999999999999998, 0.07146500425049589, 0.7462068965517241, 0.19999999999999998, 0.19999999999999998, 0.19999999999999998, 0.19999999999999998, 0.0027397260273972603, 0.005405405405405406, 0.19999999999999998, 0.06113254127449468, 0.19999999999999998, 0.19999999999999998, 0.19999999999999998, 0.19999999999999998, 0.19999999999999998, 0.6419801980198019, 0.4539042821158689, 0.19999999999999998, 0.29986130374479886, 0.4979310344827586, 0.19999999999999998, 0.19999999999999998, 0.19999999999999998, 0.19999999999999998, 0.7462068965517241, 0.18751084128360798, 0.19999999999999998, 0.0755369303300157, 0.18182965299684542, 0.19999999999999998, 0.19999999999999998, 0.19999999999999998, 0.19999999999999998, 0.2496551724137931, 0.19048248512888305, 0.19999999999999998, 0.00013540961408259984, 0.10393076090876308, 0.19999999999999998, 0.19999999999999998, 0.19999999999999998, 0.19999999999999998, 0.0027397260273972603, 0.0013793103448275863, 0.19999999999999998, 0.020509915014164305, 0.0011049723756906078, 0.19999999999999998, 0.0027397260273972603, 0.19999999999999998, 0.19999999999999998, 0.5647768395657418, 0.9158381502890172, 0.19999999999999998, 0.18571995239984135, 0.7360583941605838, 0.19999999999999998, 0.19999999999999998, 0.19999999999999998, 0.19999999999999998, 0.37439446366782003, 0.3807133421400264, 0.19999999999999998, 0.025377855887521967, 0.327525131641934, 0.19999999999999998, 0.19999999999999998, 0.19999999999999998, 0.19999999999999998, 0.0013793103448275863, 0.2499421965317919, 0.19999999999999998, 0.038031634446397185, 0.2, 0.005405405405405406, 0.19999999999999998, 0.19999999999999998, 0.19999999999999998, 0.001834862385321101, 0.28537549407114626, 0.19999999999999998, 0.10006939625260236, 0.0006153846153846154, 0.19999999999999998, 0.19999999999999998, 0.19999999999999998, 0.19999999999999998, 0.642418235877106, 0.7494549058473735, 0.19999999999999998, 0.4192566054635021, 0.8943984413054069, 0.19999999999999998, 0.19999999999999998, 0.19999999999999998, 0.19999999999999998, 0.5706930693069305, 0.42766798418972335, 0.19999999999999998, 0.22387070037297974, 0.45926481620405113, 0.19999999999999998, 0.19999999999999998, 0.19999999999999998, 0.19999999999999998, 0.0013793103448275863, 0.24982698961937713, 0.19999999999999998, 0.2345560507370586, 0.322525750111957, 0.19999999999999998, 0.19999999999999998, 0.19999999999999998, 0.19999999999999998, 0.19999999999999998, 0.24982698961937713, 0.19999999999999998, 0.08346820809248555, 0.00046189376443418013, 0.19999999999999998, 0.19999999999999998, 0.19999999999999998, 0.19999999999999998, 0.3331278890600924, 0.005405405405405406, 0.19999999999999998, 0.44369230769230766, 0.005405405405405406, 0.19999999999999998, 0.19999999999999998, 0.19999999999999998, 0.19999999999999998, 0.30746268656716413, 0.19999999999999998, 0.19999999999999998, 0.16670520231213873, 0.3321100917431193, 0.19999999999999998, 0.19999999999999998, 0.19999999999999998, 0.19999999999999998, 0.3988950276243094, 0.19999999999999998, 0.19999999999999998, 0.10354066985645931, 0.19999999999999998, 0.19999999999999998, 0.19999999999999998, 0.19999999999999998, 0.19999999999999998, 0.37439446366782003, 0.005405405405405406, 0.19999999999999998, 0.12747073237135859, 0.19999999999999998, 0.19999999999999998, 0.19999999999999998, 0.19999999999999998, 0.19999999999999998, 0.0027397260273972603, 0.19999999999999998, 0.19999999999999998, 0.29262017603249835, 0.3321100917431193, 0.19999999999999998, 0.19999999999999998, 0.19999999999999998, 0.19999999999999998, 0.005405405405405406, 0.19999999999999998, 0.19999999999999998, 0.1882391375367527, 0.9783783783783785, 0.19999999999999998, 0.19999999999999998, 0.19999999999999998, 0.19999999999999998, 0.0027397260273972603, 0.19999999999999998, 0.19999999999999998, 0.32649475772173414, 0.0013793103448275863, 0.19999999999999998, 0.19999999999999998, 0.19999999999999998, 0.19999999999999998, 0.0027397260273972603, 0.9783783783783785, 0.19999999999999998, 0.12223422311371702, 0.19999999999999998, 0.19999999999999998, 0.19999999999999998, 0.19999999999999998, 0.19999999999999998, 0.28554455445544547, 0.5445843828715364, 0.19999999999999998, 0.34979195561719834, 0.0013793103448275863, 0.19999999999999998, 0.19999999999999998, 0.19999999999999998, 0.19999999999999998, 0.2496551724137931, 0.3748482220294883, 0.19999999999999998, 0.09439497118910423, 0.18182965299684542, 0.19999999999999998, 0.19999999999999998, 0.19999999999999998, 0.19999999999999998, 0.4979310344827586, 0.33324520819563785, 0.19999999999999998, 0.09763033175355448, 0.33761269383339343, 0.19999999999999998, 0.19999999999999998, 0.19999999999999998, 0.19999999999999998, 0.0027397260273972603, 0.0013793103448275863, 0.19999999999999998, 0.06130311614730878, 0.0011049723756906078, 0.19999999999999998, 0.0027397260273972603, 0.19999999999999998, 0.19999999999999998, 0.3910735826296743, 0.08346820809248554, 0.19999999999999998, 0.2142800476001587, 0.2630656934306569, 0.19999999999999998, 0.19999999999999998, 0.19999999999999998, 0.19999999999999998, 0.4989619377162629, 0.5233817701453104, 0.19999999999999998, 0.316414762741652, 0.2241263762565821, 0.19999999999999998, 0.19999999999999998, 0.19999999999999998, 0.19999999999999998, 0.4979310344827586, 0.2499421965317919, 0.19999999999999998, 0.07599297012302283, 0.1777846343721074, 0.005405405405405406, 0.19999999999999998, 0.19999999999999998, 0.19999999999999998, 0.3321100917431193, 0.28537549407114626, 0.19999999999999998, 0.050104094378903535, 0.22215384615384612, 0.19999999999999998, 0.19999999999999998, 0.19999999999999998, 0.19999999999999998, 0.28562933597621404, 0.14291377601585725, 0.19999999999999998, 0.22579489476041203, 0.035168046760837804, 0.19999999999999998, 0.19999999999999998, 0.19999999999999998, 0.19999999999999998, 0.07168316831683166, 0.28537549407114626, 0.19999999999999998, 0.28354745130542897, 0.40525131282820714, 0.19999999999999998, 0.19999999999999998, 0.19999999999999998, 0.19999999999999998, 0.0013793103448275863, 0.0006920415224913495, 0.19999999999999998, 0.11114158381899211, 0.2741603224361845, 0.19999999999999998, 0.19999999999999998, 0.19999999999999998, 0.19999999999999998, 0.19999999999999998, 0.0006920415224913495, 0.19999999999999998, 0.04184971098265896, 0.00046189376443418013, 0.19999999999999998, 0.19999999999999998, 0.19999999999999998, 0.19999999999999998, 0.22218798151001534, 0.005405405405405406, 0.19999999999999998, 0.44369230769230766, 0.005405405405405406, 0.19999999999999998, 0.19999999999999998, 0.19999999999999998, 0.19999999999999998, 0.46098081023454157, 0.19999999999999998, 0.19999999999999998, 0.2499421965317919, 0.001834862385321101, 0.19999999999999998, 0.19999999999999998, 0.19999999999999998, 0.19999999999999998, 0.3988950276243094, 0.19999999999999998, 0.19999999999999998, 0.344688995215311, 0.19999999999999998, 0.19999999999999998, 0.19999999999999998, 0.19999999999999998, 0.19999999999999998, 0.24982698961937713, 0.005405405405405406, 0.19999999999999998, 0.2940920228695889, 0.19999999999999998, 0.19999999999999998, 0.19999999999999998, 0.19999999999999998, 0.19999999999999998, 0.0027397260273972603, 0.19999999999999998, 0.19999999999999998, 0.19512525389302646, 0.001834862385321101, 0.19999999999999998, 0.19999999999999998, 0.19999999999999998, 0.19999999999999998, 0.005405405405405406, 0.19999999999999998, 0.19999999999999998, 0.2588043123162365, 0.005405405405405406, 0.19999999999999998, 0.19999999999999998, 0.19999999999999998, 0.19999999999999998, 0.0027397260273972603, 0.19999999999999998, 0.19999999999999998, 0.1326721450835931, 0.0013793103448275863, 0.19999999999999998, 0.19999999999999998, 0.19999999999999998, 0.19999999999999998, 0.4958904109589041, 0.005405405405405406, 0.19999999999999998, 0.1611171115568585, 0.19999999999999998, 0.19999999999999998, 0.19999999999999998, 0.19999999999999998, 0.19999999999999998, 0.07168316831683166, 0.000503778337531486, 0.19999999999999998, 0.15006934812760056, 0.4979310344827586, 0.19999999999999998, 0.19999999999999998, 0.19999999999999998, 0.19999999999999998, 0.0013793103448275863, 0.18751084128360798, 0.19999999999999998, 0.2075432163436354, 0.09097791798107253, 0.19999999999999998, 0.19999999999999998, 0.19999999999999998, 0.19999999999999998, 0.2496551724137931, 0.28565763384005294, 0.19999999999999998, 0.2682464454976303, 0.1558600793364587, 0.19999999999999998, 0.19999999999999998, 0.19999999999999998, 0.19999999999999998, 0.0027397260273972603, 0.4979310344827586, 0.19999999999999998, 0.14288951841359773, 0.0011049723756906078, 0.19999999999999998, 0.0027397260273972603, 0.19999999999999998, 0.19999999999999998, 0.043667068757539194, 0.0002312138728323699, 0.19999999999999998, 0.3428004760015867, 0.000291970802919708, 0.19999999999999998, 0.19999999999999998, 0.19999999999999998, 0.19999999999999998, 0.0006920415224913495, 0.00026420079260237774, 0.19999999999999998, 0.2531458699472759, 0.18966012446146482, 0.19999999999999998, 0.19999999999999998, 0.19999999999999998, 0.19999999999999998, 0.2496551724137931, 0.00023121387283236994, 0.19999999999999998, 0.2657996485061511, 0.044492440604751625, 0.005405405405405406, 0.19999999999999998, 0.19999999999999998, 0.19999999999999998, 0.3321100917431193, 0.0007905138339920949, 0.19999999999999998, 0.17501734906315058, 0.44369230769230766, 0.19999999999999998, 0.19999999999999998, 0.19999999999999998, 0.19999999999999998, 0.07155599603567887, 0.10723488602576807, 0.19999999999999998, 0.24191670398566953, 0.07023867510959574, 0.19999999999999998, 0.19999999999999998, 0.19999999999999998, 0.19999999999999998, 0.28554455445544547, 0.0007905138339920949, 0.19999999999999998, 0.29846663903854126, 0.054163540885221316, 0.19999999999999998, 0.19999999999999998, 0.19999999999999998, 0.19999999999999998, 0.9944827586206897, 0.0006920415224913495, 0.19999999999999998, 0.2592389441206719, 8.956560680698612e-05, 0.19999999999999998, 0.19999999999999998, 0.19999999999999998, 0.19999999999999998, 0.19999999999999998, 0.24982698961937713, 0.19999999999999998, 0.29156069364161846, 0.00046189376443418013, 0.19999999999999998, 0.19999999999999998, 0.19999999999999998, 0.19999999999999998, 0.00030816640986132507, 0.005405405405405406, 0.19999999999999998, 0.11138461538461537, 0.005405405405405406, 0.19999999999999998, 0.19999999999999998, 0.19999999999999998, 0.19999999999999998, 0.00042643923240938164, 0.19999999999999998, 0.19999999999999998, 0.2083236994219653, 0.001834862385321101, 0.19999999999999998, 0.19999999999999998, 0.19999999999999998, 0.19999999999999998, 0.0011049723756906078, 0.19999999999999998, 0.19999999999999998, 0.3791387559808612, 0.19999999999999998, 0.19999999999999998, 0.19999999999999998, 0.19999999999999998, 0.19999999999999998, 0.12525951557093423, 0.9783783783783785, 0.19999999999999998, 0.411707051456575, 0.19999999999999998, 0.19999999999999998, 0.19999999999999998, 0.19999999999999998, 0.19999999999999998, 0.0027397260273972603, 0.19999999999999998, 0.19999999999999998, 0.02450914014895058, 0.001834862385321101, 0.19999999999999998, 0.19999999999999998, 0.19999999999999998, 0.19999999999999998, 0.005405405405405406, 0.19999999999999998, 0.19999999999999998, 0.2470434498529892, 0.005405405405405406, 0.19999999999999998, 0.19999999999999998, 0.19999999999999998, 0.19999999999999998, 0.4958904109589041, 0.19999999999999998, 0.19999999999999998, 0.1734769056389912, 0.2496551724137931, 0.19999999999999998, 0.19999999999999998, 0.19999999999999998, 0.19999999999999998, 0.4958904109589041, 0.005405405405405406, 0.19999999999999998, 0.2888751735843234, 0.19999999999999998, 0.19999999999999998, 0.19999999999999998, 0.19999999999999998, 0.19999999999999998, 0.00039603960396039596, 0.000503778337531486, 0.19999999999999998, 0.15006934812760056, 0.0013793103448275863, 0.19999999999999998, 0.19999999999999998, 0.19999999999999998, 0.19999999999999998, 0.0013793103448275863, 0.12506504770164786, 0.19999999999999998, 0.26411733892090095, 0.27268138801261826, 0.19999999999999998, 0.19999999999999998, 0.19999999999999998, 0.19999999999999998, 0.0013793103448275863, 0.04771976206212823, 0.19999999999999998, 0.1951252538930264, 0.1818247385503065, 0.19999999999999998, 0.19999999999999998, 0.19999999999999998, 0.19999999999999998, 0.989041095890411, 0.0013793103448275863, 0.19999999999999998, 0.24487252124645895, 0.2, 0.19999999999999998, 0.989041095890411, 0.19999999999999998, 0.19999999999999998, 0.000241254523522316, 0.0002312138728323699, 0.19999999999999998, 0.10003966679888934, 0.000291970802919708, 0.19999999999999998, 0.19999999999999998, 0.19999999999999998, 0.19999999999999998, 0.12525951557093423, 0.00026420079260237774, 0.19999999999999998, 0.1772231985940246, 0.15519387266634754, 0.19999999999999998, 0.19999999999999998, 0.19999999999999998, 0.19999999999999998, 0.2496551724137931, 0.2499421965317919, 0.19999999999999998, 0.316414762741652, 0.22221536562789265, 0.9783783783783785, 0.19999999999999998, 0.19999999999999998, 0.19999999999999998, 0.3321100917431193, 0.0007905138339920949, 0.19999999999999998, 0.24996530187369884, 0.22215384615384612, 0.19999999999999998, 0.19999999999999998, 0.19999999999999998, 0.19999999999999998, 0.0001982160555004955, 0.0001982160555004955, 0.19999999999999998, 0.03233318405732199, 9.741841207988312e-05, 0.19999999999999998, 0.19999999999999998, 0.19999999999999998, 0.19999999999999998, 0.07168316831683166, 0.28537549407114626, 0.19999999999999998, 0.07467882304185662, 0.0811702925731433, 0.19999999999999998, 0.19999999999999998, 0.19999999999999998, 0.19999999999999998, 0.0013793103448275863, 0.12525951557093423, 0.19999999999999998, 0.17284881727802537, 0.161307657859382, 0.19999999999999998, 0.19999999999999998, 0.19999999999999998, 0.19999999999999998, 0.19999999999999998, 0.0006920415224913495, 0.19999999999999998, 0.16670520231213873, 0.166743648960739, 0.19999999999999998, 0.19999999999999998, 0.19999999999999998, 0.19999999999999998, 0.00030816640986132507, 0.005405405405405406, 0.19999999999999998, 0.0006153846153846154, 0.005405405405405406, 0.19999999999999998, 0.19999999999999998, 0.19999999999999998, 0.19999999999999998, 0.00042643923240938164, 0.19999999999999998, 0.19999999999999998, 0.16670520231213873, 0.001834862385321101, 0.19999999999999998, 0.19999999999999998, 0.19999999999999998, 0.19999999999999998, 0.2, 0.19999999999999998, 0.19999999999999998, 0.10354066985645931, 0.19999999999999998, 0.19999999999999998, 0.19999999999999998, 0.19999999999999998, 0.19999999999999998, 0.0006920415224913495, 0.005405405405405406, 0.19999999999999998, 0.12747073237135859, 0.19999999999999998, 0.19999999999999998, 0.19999999999999998, 0.19999999999999998, 0.19999999999999998, 0.0027397260273972603, 0.19999999999999998, 0.19999999999999998, 0.07325660121868653, 0.001834862385321101, 0.19999999999999998, 0.19999999999999998, 0.19999999999999998, 0.19999999999999998, 0.005405405405405406, 0.19999999999999998, 0.19999999999999998, 0.2352825873897419, 0.005405405405405406, 0.19999999999999998, 0.19999999999999998, 0.19999999999999998, 0.19999999999999998, 0.0027397260273972603, 0.19999999999999998, 0.19999999999999998, 0.2958911873051856, 0.0013793103448275863, 0.19999999999999998, 0.19999999999999998, 0.19999999999999998, 0.19999999999999998, 0.0027397260273972603, 0.005405405405405406, 0.19999999999999998, 0.3666409504706064, 0.19999999999999998, 0.19999999999999998, 0.19999999999999998, 0.19999999999999998, 0.19999999999999998, 0.00039603960396039596, 0.000503778337531486, 0.19999999999999998, 0.05020804438280166, 0.0013793103448275863, 0.19999999999999998, 0.19999999999999998, 0.19999999999999998, 0.19999999999999998, 0.0013793103448275863, 0.12506504770164786, 0.19999999999999998, 0.3584075432163436, 0.27268138801261826, 0.19999999999999998, 0.19999999999999998, 0.19999999999999998, 0.19999999999999998, 0.0013793103448275863, 0.1428949107732981, 0.19999999999999998, 0.4388625592417061, 0.22077172737107825, 0.19999999999999998, 0.19999999999999998, 0.19999999999999998, 0.19999999999999998, 0.0027397260273972603, 0.4979310344827586, 0.19999999999999998, 0.5304249291784703, 0.7966850828729282, 0.19999999999999998, 0.0027397260273972603, 0.19999999999999998, 0.19999999999999998, 0.000241254523522316, 0.0002312138728323699, 0.19999999999999998, 0.15715985719952402, 0.000291970802919708, 0.19999999999999998, 0.19999999999999998, 0.19999999999999998, 0.19999999999999998, 0.0006920415224913495, 0.09537648612945837, 0.19999999999999998, 0.22783831282952546, 0.10349449497367161, 0.19999999999999998, 0.19999999999999998, 0.19999999999999998, 0.19999999999999998, 0.0013793103448275863, 0.2499421965317919, 0.19999999999999998, 0.3037609841827768, 0.35550755939524836, 0.005405405405405406, 0.19999999999999998, 0.19999999999999998, 0.19999999999999998, 0.001834862385321101, 0.42766798418972335, 0.19999999999999998, 0.4248438584316447, 0.11138461538461537, 0.19999999999999998, 0.19999999999999998, 0.19999999999999998, 0.19999999999999998, 0.0001982160555004955, 0.0001982160555004955, 0.19999999999999998, 0.0806986117330945, 9.741841207988312e-05, 0.19999999999999998, 0.19999999999999998, 0.19999999999999998, 0.19999999999999998, 0.00039603960396039596, 0.0007905138339920949, 0.19999999999999998, 0.11943638624119356, 0.00015003750937734437, 0.19999999999999998, 0.19999999999999998, 0.19999999999999998, 0.19999999999999998, 0.0013793103448275863, 0.6235294117647058, 0.19999999999999998, 0.22221460404525195, 0.24191670398566947, 0.19999999999999998, 0.19999999999999998, 0.19999999999999998, 0.19999999999999998, 0.19999999999999998, 0.4989619377162629, 0.19999999999999998, 0.4164161849710983, 0.8318706697459585, 0.19999999999999998, 0.19999999999999998, 0.19999999999999998, 0.19999999999999998 ;
}
probability ( review_comment_num | has_assignees_content, participants_count, review_num, total_add_line ) {
    table 0.8485477178423236, 0.6083032490974729, 0.8550295857988166, 0.8287671232876712, 0.5, 0.6989683124539425, 0.35817060637204523, 0.4457013574660633, 0.3032786885245902, 0.14316057774001698, 0.8037974683544304, 0.7831460674157303, 0.44132029339853296, 0.6146496815286624, 0.9897959183673468, 0.31745396317053637, 0.23022481265611988, 0.13124641010913268, 0.09343979283556324, 0.03530751708428246, 0.458477508650519, 0.30505415162454874, 0.26419213973799127, 0.28823529411764703, 0.9615384615384615, 0.00039277297721916724, 0.00035893754486719307, 0.00032786885245901634, 0.0003498950314905528, 0.00037850113550340646, 0.5, 0.5, 0.5, 0.5, 0.5, 0.5, 0.5, 0.5, 0.5, 0.5, 0.5, 0.5, 0.5, 0.03846153846153846, 0.5, 0.5, 0.5, 0.5, 0.5, 0.5, 0.5, 0.5, 0.5, 0.5, 0.5, 0.5, 0.5, 0.5, 0.5, 0.5, 0.1514522821576763, 0.3916967509025271, 0.14497041420118342, 0.17123287671232876, 0.5, 0.3010316875460574, 0.6418293936279548, 0.5542986425339367, 0.6967213114754098, 0.856839422259983, 0.19620253164556964, 0.21685393258426963, 0.558679706601467, 0.38535031847133766, 0.010204081632653059, 0.6825460368294636, 0.7697751873438801, 0.8687535898908673, 0.9065602071644369, 0.9646924829157175, 0.5415224913494809, 0.6949458483754513, 0.7358078602620087, 0.711764705882353, 0.03846153846153846, 0.9996072270227808, 0.9996410624551327, 0.9996721311475409, 0.9996501049685094, 0.9996214988644966, 0.5, 0.5, 0.5, 0.5, 0.5, 0.5, 0.5, 0.5, 0.5, 0.5, 0.5, 0.5, 0.5, 0.9615384615384615, 0.5, 0.5, 0.5, 0.5, 0.5, 0.5, 0.5, 0.5, 0.5, 0.5, 0.5, 0.5, 0.5, 0.5, 0.5, 0.5 ;
}
probability ( review_num | accept_num, has_assignees_content, has_refactor, total_add_line ) {
    table 0.3612315698178664, 0.3394648829431438, 0.2312, 0.0010395010395010396, 0.04896142433234421, 0.015151515151515152, 0.007692307692307693, 0.5, 0.5, 0.5, 0.5, 0.5, 0.5, 0.5, 0.5, 0.5, 0.5, 0.5, 0.5, 0.5, 0.3919831223628692, 0.23249211356466876, 0.21863517060367454, 0.13363863447127394, 0.0397796817625459, 0.336734693877551, 0.5, 0.9705882352941176, 0.5, 0.5, 0.5, 0.5, 0.5, 0.5, 0.5, 0.5, 0.5, 0.5, 0.5, 0.5, 0.4400749063670412, 0.5817253121452894, 0.30178394449950446, 0.17940354147250698, 0.06011183597390494, 0.6632653061224489, 0.5, 0.5, 0.5, 0.5, 0.5, 0.5, 0.5, 0.9705882352941176, 0.5, 0.5, 0.5, 0.5, 0.5, 0.5, 0.0401437050921587, 0.05504761904761905, 0.05754857997010463, 0.013118744928320259, 9.46790380609733e-05, 0.22413793103448276, 0.015151515151515152, 0.5, 0.9705882352941176, 0.015151515151515152, 0.5, 0.5, 0.5, 0.5, 0.5, 0.5, 0.5, 0.5, 0.5, 0.5, 0.6387684301821336, 0.6605351170568562, 0.7688, 0.998960498960499, 0.9510385756676558, 0.9848484848484849, 0.9923076923076923, 0.5, 0.5, 0.5, 0.5, 0.5, 0.5, 0.5, 0.5, 0.5, 0.5, 0.5, 0.5, 0.5, 0.6080168776371307, 0.7675078864353312, 0.7813648293963255, 0.8663613655287261, 0.9602203182374541, 0.6632653061224489, 0.5, 0.029411764705882353, 0.5, 0.5, 0.5, 0.5, 0.5, 0.5, 0.5, 0.5, 0.5, 0.5, 0.5, 0.5, 0.5599250936329588, 0.41827468785471056, 0.6982160555004956, 0.820596458527493, 0.9398881640260951, 0.336734693877551, 0.5, 0.5, 0.5, 0.5, 0.5, 0.5, 0.5, 0.029411764705882353, 0.5, 0.5, 0.5, 0.5, 0.5, 0.5, 0.9598562949078413, 0.944952380952381, 0.9424514200298953, 0.9868812550716798, 0.9999053209619391, 0.7758620689655172, 0.9848484848484849, 0.5, 0.029411764705882353, 0.9848484848484849, 0.5, 0.5, 0.5, 0.5, 0.5, 0.5, 0.5, 0.5, 0.5, 0.5 ;
}
probability ( title_words | accept_num, author_identity, change_num, commit_num ) {
    table 0.19999999999999998, 0.19999999999999998, 0.19999999999999998, 0.19999999999999998, 0.19999999999999998, 0.19999999999999998, 0.19999999999999998, 0.19999999999999998, 0.19999999999999998, 0.19999999999999998, 0.19999999999999998, 0.19999999999999998, 0.19999999999999998, 0.19999999999999998, 0.19999999999999998, 0.19999999999999998, 0.19999999999999998, 0.19999999999999998, 0.19999999999999998, 0.19999999999999998, 0.19999999999999998, 0.19999999999999998, 0.19999999999999998, 0.19999999999999998, 0.19999999999999998, 0.19999999999999998, 0.19999999999999998, 0.19999999999999998, 0.19999999999999998, 0.19999999999999998, 0.28255884127942066, 0.3333112911224996, 0.19999999999999998, 0.9783783783783785, 0.6652307692307692, 0.19999999999999998, 0.19999999999999998, 0.19999999999999998, 0.19999999999999998, 0.19999999999999998, 0.19999999999999998, 0.19999999999999998, 0.19999999999999998, 0.19999999999999998, 0.19999999999999998, 0.19999999999999998, 0.19999999999999998, 0.19999999999999998, 0.19999999999999998, 0.19999999999999998, 0.19999999999999998, 0.19999999999999998, 0.19999999999999998, 0.19999999999999998, 0.19999999999999998, 0.19999999999999998, 0.19999999999999998, 0.19999999999999998, 0.19999999999999998, 0.19999999999999998, 0.19999999999999998, 0.19999999999999998, 0.19999999999999998, 0.19999999999999998, 0.19999999999999998, 0.19999999999999998, 0.19999999999999998, 0.19999999999999998, 0.19999999999999998, 0.19999999999999998, 0.19999999999999998, 0.19999999999999998, 0.19999999999999998, 0.19999999999999998, 0.19999999999999998, 0.19999999999999998, 0.19999999999999998, 0.19999999999999998, 0.14308300395256918, 0.29776001102763805, 0.19999999999999998, 0.19999999999999998, 0.4993071593533487, 0.19999999999999998, 0.19999999999999998, 0.19999999999999998, 0.19999999999999998, 0.19999999999999998, 0.19999999999999998, 0.19999999999999998, 0.19999999999999998, 0.19999999999999998, 0.19999999999999998, 0.19999999999999998, 0.19999999999999998, 0.19999999999999998, 0.0027397260273972603, 0.28537549407114626, 0.19999999999999998, 0.22215384615384612, 0.9944827586206897, 0.19999999999999998, 0.19999999999999998, 0.19999999999999998, 0.19999999999999998, 0.19999999999999998, 0.19999999999999998, 0.19999999999999998, 0.19999999999999998, 0.19999999999999998, 0.19999999999999998, 0.09537648612945838, 0.333086876155268, 0.19999999999999998, 0.08360277136258659, 0.2698104892022918, 0.19999999999999998, 0.19999999999999998, 0.19999999999999998, 0.19999999999999998, 0.19999999999999998, 0.19999999999999998, 0.19999999999999998, 0.19999999999999998, 0.19999999999999998, 0.19999999999999998, 0.989041095890411, 0.2155135264543931, 0.19999999999999998, 0.19999999999999998, 0.018273599192327107, 0.19999999999999998, 0.19999999999999998, 0.19999999999999998, 0.19999999999999998, 0.19999999999999998, 0.19999999999999998, 0.19999999999999998, 0.19999999999999998, 0.19999999999999998, 0.19999999999999998, 0.022783212369832755, 0.09861138274985333, 0.0027397260273972603, 0.01225871994581781, 0.11268744295214499, 0.19999999999999998, 0.229718574108818, 0.18707605101558808, 0.19999999999999998, 0.19999999999999998, 0.19999999999999998, 0.19999999999999998, 0.19999999999999998, 0.19999999999999998, 0.19999999999999998, 0.19999999999999998, 0.005405405405405406, 0.19999999999999998, 0.18186397984886649, 0.32830501450476585, 0.19999999999999998, 0.1002770083102493, 0.1724401913875598, 0.19999999999999998, 0.19999999999999998, 0.19999999999999998, 0.19999999999999998, 0.19999999999999998, 0.19999999999999998, 0.19999999999999998, 0.19999999999999998, 0.19999999999999998, 0.19999999999999998, 0.19999999999999998, 0.13957391865719818, 0.19999999999999998, 0.46098081023454157, 0.2657996485061511, 0.19999999999999998, 0.19999999999999998, 0.19999999999999998, 0.19999999999999998, 0.19999999999999998, 0.19999999999999998, 0.19999999999999998, 0.19999999999999998, 0.19999999999999998, 0.19999999999999998, 0.19999999999999998, 0.19999999999999998, 0.19999999999999998, 0.19999999999999998, 0.19999999999999998, 0.19999999999999998, 0.19999999999999998, 0.19999999999999998, 0.19999999999999998, 0.19999999999999998, 0.19999999999999998, 0.19999999999999998, 0.19999999999999998, 0.19999999999999998, 0.19999999999999998, 0.19999999999999998, 0.19999999999999998, 0.19999999999999998, 0.19999999999999998, 0.19999999999999998, 0.19999999999999998, 0.21738080869040435, 0.28570011572160686, 0.19999999999999998, 0.005405405405405406, 0.11138461538461537, 0.19999999999999998, 0.19999999999999998, 0.19999999999999998, 0.19999999999999998, 0.19999999999999998, 0.19999999999999998, 0.19999999999999998, 0.19999999999999998, 0.19999999999999998, 0.19999999999999998, 0.19999999999999998, 0.19999999999999998, 0.19999999999999998, 0.19999999999999998, 0.19999999999999998, 0.19999999999999998, 0.19999999999999998, 0.19999999999999998, 0.19999999999999998, 0.19999999999999998, 0.19999999999999998, 0.19999999999999998, 0.19999999999999998, 0.19999999999999998, 0.19999999999999998, 0.19999999999999998, 0.19999999999999998, 0.19999999999999998, 0.19999999999999998, 0.19999999999999998, 0.19999999999999998, 0.19999999999999998, 0.19999999999999998, 0.19999999999999998, 0.19999999999999998, 0.19999999999999998, 0.19999999999999998, 0.19999999999999998, 0.19999999999999998, 0.19999999999999998, 0.19999999999999998, 0.19999999999999998, 0.19999999999999998, 0.28537549407114626, 0.300241229581639, 0.19999999999999998, 0.19999999999999998, 0.41616628175519627, 0.19999999999999998, 0.19999999999999998, 0.19999999999999998, 0.19999999999999998, 0.19999999999999998, 0.19999999999999998, 0.19999999999999998, 0.19999999999999998, 0.19999999999999998, 0.19999999999999998, 0.19999999999999998, 0.19999999999999998, 0.19999999999999998, 0.0027397260273972603, 0.14308300395256918, 0.19999999999999998, 0.44369230769230766, 0.0013793103448275863, 0.19999999999999998, 0.19999999999999998, 0.19999999999999998, 0.19999999999999998, 0.19999999999999998, 0.19999999999999998, 0.19999999999999998, 0.19999999999999998, 0.19999999999999998, 0.19999999999999998, 0.14293262879788637, 0.06691312384473197, 0.19999999999999998, 0.33302540415704385, 0.2222124283825474, 0.19999999999999998, 0.19999999999999998, 0.19999999999999998, 0.19999999999999998, 0.19999999999999998, 0.19999999999999998, 0.19999999999999998, 0.19999999999999998, 0.19999999999999998, 0.19999999999999998, 0.0027397260273972603, 0.39650466842231263, 0.19999999999999998, 0.19999999999999998, 0.4180716809692075, 0.19999999999999998, 0.19999999999999998, 0.19999999999999998, 0.19999999999999998, 0.19999999999999998, 0.19999999999999998, 0.19999999999999998, 0.19999999999999998, 0.19999999999999998, 0.19999999999999998, 0.04550331334805933, 0.1338157637394876, 0.0027397260273972603, 0.14635963427023366, 0.13146433694093101, 0.19999999999999998, 0.10814258911819888, 0.3061124232404346, 0.19999999999999998, 0.19999999999999998, 0.19999999999999998, 0.19999999999999998, 0.19999999999999998, 0.19999999999999998, 0.19999999999999998, 0.19999999999999998, 0.005405405405405406, 0.19999999999999998, 0.272544080604534, 0.25370907583920427, 0.19999999999999998, 0.0005540166204986149, 0.13799043062200955, 0.19999999999999998, 0.19999999999999998, 0.19999999999999998, 0.19999999999999998, 0.19999999999999998, 0.19999999999999998, 0.19999999999999998, 0.19999999999999998, 0.19999999999999998, 0.19999999999999998, 0.19999999999999998, 0.37198192382182055, 0.19999999999999998, 0.3842217484008529, 0.1772231985940246, 0.19999999999999998, 0.19999999999999998, 0.19999999999999998, 0.19999999999999998, 0.19999999999999998, 0.19999999999999998, 0.19999999999999998, 0.19999999999999998, 0.19999999999999998, 0.19999999999999998, 0.19999999999999998, 0.19999999999999998, 0.19999999999999998, 0.19999999999999998, 0.19999999999999998, 0.19999999999999998, 0.19999999999999998, 0.19999999999999998, 0.19999999999999998, 0.19999999999999998, 0.19999999999999998, 0.19999999999999998, 0.19999999999999998, 0.19999999999999998, 0.19999999999999998, 0.19999999999999998, 0.19999999999999998, 0.19999999999999998, 0.19999999999999998, 0.19999999999999998, 0.19999999999999998, 0.21738080869040435, 0.19642916184493303, 0.19999999999999998, 0.005405405405405406, 0.11138461538461537, 0.19999999999999998, 0.19999999999999998, 0.19999999999999998, 0.19999999999999998, 0.19999999999999998, 0.19999999999999998, 0.19999999999999998, 0.19999999999999998, 0.19999999999999998, 0.19999999999999998, 0.19999999999999998, 0.19999999999999998, 0.19999999999999998, 0.19999999999999998, 0.19999999999999998, 0.19999999999999998, 0.19999999999999998, 0.19999999999999998, 0.19999999999999998, 0.19999999999999998, 0.19999999999999998, 0.19999999999999998, 0.19999999999999998, 0.19999999999999998, 0.19999999999999998, 0.19999999999999998, 0.19999999999999998, 0.19999999999999998, 0.19999999999999998, 0.19999999999999998, 0.19999999999999998, 0.19999999999999998, 0.19999999999999998, 0.19999999999999998, 0.19999999999999998, 0.19999999999999998, 0.19999999999999998, 0.19999999999999998, 0.19999999999999998, 0.19999999999999998, 0.19999999999999998, 0.19999999999999998, 0.19999999999999998, 0.14308300395256918, 0.18114273898959268, 0.19999999999999998, 0.19999999999999998, 0.08360277136258659, 0.19999999999999998, 0.19999999999999998, 0.19999999999999998, 0.19999999999999998, 0.19999999999999998, 0.19999999999999998, 0.19999999999999998, 0.19999999999999998, 0.19999999999999998, 0.19999999999999998, 0.19999999999999998, 0.19999999999999998, 0.19999999999999998, 0.0027397260273972603, 0.14308300395256918, 0.19999999999999998, 0.11138461538461537, 0.0013793103448275863, 0.19999999999999998, 0.19999999999999998, 0.19999999999999998, 0.19999999999999998, 0.19999999999999998, 0.19999999999999998, 0.19999999999999998, 0.19999999999999998, 0.19999999999999998, 0.19999999999999998, 0.19048877146631438, 0.266543438077634, 0.19999999999999998, 0.24988452655889143, 0.19048038783605115, 0.19999999999999998, 0.19999999999999998, 0.19999999999999998, 0.19999999999999998, 0.19999999999999998, 0.19999999999999998, 0.19999999999999998, 0.19999999999999998, 0.19999999999999998, 0.19999999999999998, 0.0027397260273972603, 0.1551831457984199, 0.19999999999999998, 0.19999999999999998, 0.14548207975769814, 0.19999999999999998, 0.19999999999999998, 0.19999999999999998, 0.19999999999999998, 0.19999999999999998, 0.19999999999999998, 0.19999999999999998, 0.19999999999999998, 0.19999999999999998, 0.19999999999999998, 0.07958346481539919, 0.15493839233326814, 0.0027397260273972603, 0.1585506264815442, 0.11738166644934149, 0.19999999999999998, 0.08112570356472795, 0.13265942371280112, 0.19999999999999998, 0.19999999999999998, 0.19999999999999998, 0.19999999999999998, 0.19999999999999998, 0.19999999999999998, 0.19999999999999998, 0.19999999999999998, 0.9783783783783785, 0.19999999999999998, 0.18186397984886649, 0.044840447575631985, 0.19999999999999998, 0.3994459833795014, 0.13799043062200955, 0.19999999999999998, 0.19999999999999998, 0.19999999999999998, 0.19999999999999998, 0.19999999999999998, 0.19999999999999998, 0.19999999999999998, 0.19999999999999998, 0.19999999999999998, 0.19999999999999998, 0.19999999999999998, 0.04661071659134926, 0.19999999999999998, 0.00042643923240938164, 0.21518453427065026, 0.19999999999999998, 0.19999999999999998, 0.19999999999999998, 0.19999999999999998, 0.19999999999999998, 0.19999999999999998, 0.19999999999999998, 0.19999999999999998, 0.19999999999999998, 0.19999999999999998, 0.19999999999999998, 0.19999999999999998, 0.19999999999999998, 0.19999999999999998, 0.19999999999999998, 0.19999999999999998, 0.19999999999999998, 0.19999999999999998, 0.19999999999999998, 0.19999999999999998, 0.19999999999999998, 0.19999999999999998, 0.19999999999999998, 0.19999999999999998, 0.19999999999999998, 0.19999999999999998, 0.19999999999999998, 0.19999999999999998, 0.19999999999999998, 0.19999999999999998, 0.19999999999999998, 0.2608328304164152, 0.1666721772193751, 0.19999999999999998, 0.005405405405405406, 0.11138461538461537, 0.19999999999999998, 0.19999999999999998, 0.19999999999999998, 0.19999999999999998, 0.19999999999999998, 0.19999999999999998, 0.19999999999999998, 0.19999999999999998, 0.19999999999999998, 0.19999999999999998, 0.19999999999999998, 0.19999999999999998, 0.19999999999999998, 0.19999999999999998, 0.19999999999999998, 0.19999999999999998, 0.19999999999999998, 0.19999999999999998, 0.19999999999999998, 0.19999999999999998, 0.19999999999999998, 0.19999999999999998, 0.19999999999999998, 0.19999999999999998, 0.19999999999999998, 0.19999999999999998, 0.19999999999999998, 0.19999999999999998, 0.19999999999999998, 0.19999999999999998, 0.19999999999999998, 0.19999999999999998, 0.19999999999999998, 0.19999999999999998, 0.19999999999999998, 0.19999999999999998, 0.19999999999999998, 0.19999999999999998, 0.19999999999999998, 0.19999999999999998, 0.19999999999999998, 0.19999999999999998, 0.19999999999999998, 0.28537549407114626, 0.17866152043559172, 0.19999999999999998, 0.19999999999999998, 0.00046189376443418013, 0.19999999999999998, 0.19999999999999998, 0.19999999999999998, 0.19999999999999998, 0.19999999999999998, 0.19999999999999998, 0.19999999999999998, 0.19999999999999998, 0.19999999999999998, 0.19999999999999998, 0.19999999999999998, 0.19999999999999998, 0.19999999999999998, 0.0027397260273972603, 0.28537549407114626, 0.19999999999999998, 0.22215384615384612, 0.0013793103448275863, 0.19999999999999998, 0.19999999999999998, 0.19999999999999998, 0.19999999999999998, 0.19999999999999998, 0.19999999999999998, 0.19999999999999998, 0.19999999999999998, 0.19999999999999998, 0.19999999999999998, 0.38071334214002645, 0.133456561922366, 0.19999999999999998, 0.166743648960739, 0.20634640810929927, 0.19999999999999998, 0.19999999999999998, 0.19999999999999998, 0.19999999999999998, 0.19999999999999998, 0.19999999999999998, 0.19999999999999998, 0.19999999999999998, 0.19999999999999998, 0.19999999999999998, 0.0027397260273972603, 0.20689490064639693, 0.19999999999999998, 0.19999999999999998, 0.32720848056537105, 0.19999999999999998, 0.19999999999999998, 0.19999999999999998, 0.19999999999999998, 0.19999999999999998, 0.19999999999999998, 0.19999999999999998, 0.19999999999999998, 0.19999999999999998, 0.19999999999999998, 0.40902492899968446, 0.4365734402503423, 0.0027397260273972603, 0.3170335252285811, 0.41781197026991784, 0.19999999999999998, 0.2837523452157598, 0.2346905999055267, 0.19999999999999998, 0.19999999999999998, 0.19999999999999998, 0.19999999999999998, 0.19999999999999998, 0.19999999999999998, 0.19999999999999998, 0.19999999999999998, 0.005405405405405406, 0.19999999999999998, 0.36322418136020146, 0.2984666390385412, 0.19999999999999998, 0.29972299168975064, 0.34468899521531104, 0.19999999999999998, 0.19999999999999998, 0.19999999999999998, 0.19999999999999998, 0.19999999999999998, 0.19999999999999998, 0.19999999999999998, 0.19999999999999998, 0.19999999999999998, 0.19999999999999998, 0.19999999999999998, 0.34874112330535834, 0.19999999999999998, 0.15394456289978678, 0.27845342706502635, 0.19999999999999998, 0.19999999999999998, 0.19999999999999998, 0.19999999999999998, 0.19999999999999998, 0.19999999999999998, 0.19999999999999998, 0.19999999999999998, 0.19999999999999998, 0.19999999999999998, 0.19999999999999998, 0.19999999999999998, 0.19999999999999998, 0.19999999999999998, 0.19999999999999998, 0.19999999999999998, 0.19999999999999998, 0.19999999999999998, 0.19999999999999998, 0.19999999999999998, 0.19999999999999998, 0.19999999999999998, 0.19999999999999998, 0.19999999999999998, 0.19999999999999998, 0.19999999999999998, 0.19999999999999998, 0.19999999999999998, 0.19999999999999998, 0.19999999999999998, 0.19999999999999998, 0.02184671092335546, 0.017887254091585387, 0.19999999999999998, 0.005405405405405406, 0.0006153846153846154, 0.19999999999999998, 0.19999999999999998, 0.19999999999999998, 0.19999999999999998, 0.19999999999999998, 0.19999999999999998, 0.19999999999999998, 0.19999999999999998, 0.19999999999999998, 0.19999999999999998, 0.19999999999999998, 0.19999999999999998, 0.19999999999999998, 0.19999999999999998, 0.19999999999999998, 0.19999999999999998, 0.19999999999999998, 0.19999999999999998, 0.19999999999999998, 0.19999999999999998, 0.19999999999999998, 0.19999999999999998, 0.19999999999999998, 0.19999999999999998, 0.19999999999999998, 0.19999999999999998, 0.19999999999999998, 0.19999999999999998, 0.19999999999999998, 0.19999999999999998, 0.19999999999999998, 0.19999999999999998, 0.19999999999999998, 0.19999999999999998, 0.19999999999999998, 0.19999999999999998, 0.19999999999999998, 0.19999999999999998, 0.19999999999999998, 0.19999999999999998, 0.19999999999999998, 0.19999999999999998, 0.19999999999999998, 0.14308300395256918, 0.04219449996553863, 0.19999999999999998, 0.19999999999999998, 0.00046189376443418013, 0.19999999999999998, 0.19999999999999998, 0.19999999999999998, 0.19999999999999998, 0.19999999999999998, 0.19999999999999998, 0.19999999999999998, 0.19999999999999998, 0.19999999999999998, 0.19999999999999998, 0.19999999999999998, 0.19999999999999998, 0.19999999999999998, 0.989041095890411, 0.14308300395256918, 0.19999999999999998, 0.0006153846153846154, 0.0013793103448275863, 0.19999999999999998, 0.19999999999999998, 0.19999999999999998, 0.19999999999999998, 0.19999999999999998, 0.19999999999999998, 0.19999999999999998, 0.19999999999999998, 0.19999999999999998, 0.19999999999999998, 0.19048877146631438, 0.19999999999999998, 0.19999999999999998, 0.166743648960739, 0.11115028646981048, 0.19999999999999998, 0.19999999999999998, 0.19999999999999998, 0.19999999999999998, 0.19999999999999998, 0.19999999999999998, 0.19999999999999998, 0.19999999999999998, 0.19999999999999998, 0.19999999999999998, 0.0027397260273972603, 0.025903758678477374, 0.19999999999999998, 0.19999999999999998, 0.09096415951539626, 0.19999999999999998, 0.19999999999999998, 0.19999999999999998, 0.19999999999999998, 0.19999999999999998, 0.19999999999999998, 0.19999999999999998, 0.19999999999999998, 0.19999999999999998, 0.19999999999999998, 0.4431050804670243, 0.1760610209270487, 0.989041095890411, 0.3657974940738232, 0.22065458338766458, 0.19999999999999998, 0.2972607879924953, 0.1394615021256495, 0.19999999999999998, 0.19999999999999998, 0.19999999999999998, 0.19999999999999998, 0.19999999999999998, 0.19999999999999998, 0.19999999999999998, 0.19999999999999998, 0.005405405405405406, 0.19999999999999998, 0.0005037783375314861, 0.0746788230418566, 0.19999999999999998, 0.19999999999999998, 0.20688995215311004, 0.19999999999999998, 0.19999999999999998, 0.19999999999999998, 0.19999999999999998, 0.19999999999999998, 0.19999999999999998, 0.19999999999999998, 0.19999999999999998, 0.19999999999999998, 0.19999999999999998, 0.19999999999999998, 0.09309231762427372, 0.19999999999999998, 0.00042643923240938164, 0.06333919156414762, 0.19999999999999998 ;
}
probability ( total_add_line | file_changed_num, total_delete_line ) {
    table 0.7289256198347107, 0.40427553444180514, 0.43118279569892476, 0.7960264900662253, 0.9777777777777777, 0.35131578947368414, 0.21602959309494452, 0.15339547270306259, 0.2746268656716418, 0.4345679012345679, 0.38965517241379316, 0.027493261455525605, 0.009885931558935362, 0.019391634980988597, 0.11603053435114505, 0.12682926829268296, 0.06495176848874598, 0.00024213075060532685, 0.0021567814184985483, 0.04313725490196079, 0.19999999999999998, 0.19999999999999998, 0.19999999999999998, 0.19999999999999998, 0.009523809523809523, 0.15792637114951164, 0.380522565320665, 0.16236559139784948, 0.0675496688741722, 0.005555555555555556, 0.29649122807017536, 0.3763255240443897, 0.28655126498002664, 0.2746268656716418, 0.12592592592592594, 0.21724137931034487, 0.35094339622641507, 0.2095057034220532, 0.1619771863117871, 0.11603053435114505, 0.858536585365854, 0.3221864951768489, 0.13946731234866827, 0.029116549149730397, 0.10441176470588236, 0.19999999999999998, 0.19999999999999998, 0.19999999999999998, 0.19999999999999998, 0.009523809523809523, 0.030202854996243426, 0.21425178147268403, 0.10860215053763442, 0.0675496688741722, 0.005555555555555556, 0.1320175438596491, 0.34549938347718867, 0.32649800266311585, 0.24975124378109453, 0.3111111111111111, 0.08793103448275864, 0.47223719676549863, 0.4186311787072243, 0.2855513307984791, 0.15419847328244277, 0.004878048780487807, 0.4347266881028939, 0.3150121065375302, 0.10170053919535461, 0.14730392156862746, 0.19999999999999998, 0.19999999999999998, 0.19999999999999998, 0.19999999999999998, 0.009523809523809523, 0.02644628099173554, 0.00047505938242280274, 0.24301075268817204, 0.0675496688741722, 0.005555555555555556, 0.07719298245614034, 0.04956843403205918, 0.23328894806924103, 0.1502487562189055, 0.12592592592592594, 0.04482758620689656, 0.1353099730458221, 0.3045627376425855, 0.3330798479087453, 0.3450381679389313, 0.004878048780487807, 0.09710610932475885, 0.49055690072639224, 0.2261302364164247, 0.2821078431372549, 0.19999999999999998, 0.19999999999999998, 0.19999999999999998, 0.19999999999999998, 0.009523809523809523, 0.05649887302779864, 0.00047505938242280274, 0.05483870967741936, 0.0013245033112582784, 0.005555555555555556, 0.14298245614035085, 0.012577065351418004, 0.00026631158455392814, 0.05074626865671642, 0.0024691358024691358, 0.260344827586207, 0.014016172506738544, 0.05741444866920152, 0.2, 0.2687022900763359, 0.004878048780487807, 0.08102893890675242, 0.05472154963680386, 0.6408958938199917, 0.42303921568627456, 0.19999999999999998, 0.19999999999999998, 0.19999999999999998, 0.19999999999999998, 0.9619047619047618 ;
}
probability ( total_delete_line | file_changed_num, has_assignees_content ) {
    table 0.6268551236749116, 0.2, 0.19825897714907506, 0.2, 0.06947368421052633, 0.06666666666666667, 0.009199318568994887, 0.2, 0.022222222222222223, 0.2, 0.19811542991755, 0.2, 0.3527747551686616, 0.2, 0.22285714285714284, 0.06666666666666667, 0.07052810902896081, 0.2, 0.022222222222222223, 0.2, 0.087396937573616, 0.2, 0.3266594124047878, 0.2, 0.31609022556390975, 0.06666666666666667, 0.18750709823963654, 0.2, 0.022222222222222223, 0.2, 0.07090694935217902, 0.2, 0.08726877040261154, 0.2, 0.31609022556390975, 0.06666666666666667, 0.5475298126064736, 0.2, 0.022222222222222223, 0.2, 0.016725559481743223, 0.2, 0.035038084874863984, 0.2, 0.07548872180451129, 0.7333333333333334, 0.1852356615559341, 0.2, 0.911111111111111, 0.2 ;
}
probability ( workload | accept_num, author_identity, change_num, close_num ) {
