network unknown {
}
variable accept_num {
    type discrete [ 5 ] { 0, 1, 2, 3, 4 };
}
variable author_identity {
    type discrete [ 3 ] { 0, 1, 2 };
}
variable body_words {
    type discrete [ 3 ] { 0, 1, 2 };
}
variable change_num {
    type discrete [ 5 ] { 0, 1, 2, 3, 4 };
}
variable close_num {
    type discrete [ 5 ] { 0, 1, 2, 3, 4 };
}
variable comment_num {
    type discrete [ 2 ] { 0, 1 };
}
variable commit_num {
    type discrete [ 3 ] { 0, 1, 4 };
}
variable file_changed_num {
    type discrete [ 4 ] { 0, 1, 2, 4 };
}
variable has_assignees_content {
    type discrete [ 2 ] { 0, 1 };
}
variable has_bug {
    type discrete [ 2 ] { 0, 1 };
}
variable has_document {
    type discrete [ 2 ] { 0, 1 };
}
variable has_feature {
    type discrete [ 2 ] { 0, 1 };
}
variable has_improve {
    type discrete [ 2 ] { 0, 1 };
}
variable has_labels {
    type discrete [ 2 ] { 0, 1 };
}
variable has_refactor {
    type discrete [ 2 ] { 0, 1 };
}
variable is_weekday {
    type discrete [ 2 ] { 0, 1 };
}
variable mergable_state {
    type discrete [ 3 ] { 0, 2, 3 };
}
variable participants_count {
    type discrete [ 2 ] { 0, 1 };
}
variable pre_prs {
    type discrete [ 5 ] { 0, 1, 2, 3, 4 };
}
variable priorities_number {
    type discrete [ 5 ] { 0, 1, 2, 3, 4 };
}
variable title_words {
    type discrete [ 5 ] { 0, 1, 2, 3, 4 };
}
variable total_add_line {
    type discrete [ 5 ] { 0, 1, 2, 3, 4 };
}
variable total_delete_line {
    type discrete [ 5 ] { 0, 1, 2, 3, 4 };
}
variable workload {
    type discrete [ 5 ] { 0, 1, 2, 3, 4 };
}
probability ( accept_num | close_num, pre_prs, workload ) {
    table 0.687076284510408, 0.9999422424373688, 0.9999405248680393, 0.9998532379379929, 0.2, 0.2, 0.2, 0.2, 0.2, 0.2, 0.2, 0.2, 0.2, 0.2, 0.2, 0.2, 0.2, 0.2, 0.2, 0.2, 0.2, 0.2, 0.2, 0.2, 0.2, 0.2, 0.2, 0.2, 0.2, 0.2, 0.017730887331706167, 0.07212153261862408, 0.04709891489552507, 0.20970798384591485, 1.3266118333775533e-05, 0.2, 0.2, 0.2, 0.2, 0.2, 0.2, 0.2, 0.2, 0.2, 0.2, 0.2, 0.2, 0.2, 0.2, 0.2, 0.2, 0.2, 0.2, 0.2, 0.2, 0.00392156862745098, 0.007692307692307692, 0.007692307692307692, 0.2, 0.2, 1.1460661280155865e-05, 1.2819691045445803e-05, 1.8016394919376635e-05, 2.6842034626224673e-05, 1.761959298740199e-05, 0.0008849557522123895, 0.0013245033112582781, 0.0013245033112582781, 0.0009950248756218907, 0.0007968127490039842, 0.2, 0.2, 0.2, 0.2, 0.2, 0.2, 0.2, 0.2, 0.2, 0.2, 0.2, 0.2, 0.2, 0.2, 0.2, 0.2, 0.2, 0.2, 0.2, 0.2, 1.3266118333775536e-05, 1.3936311058462823e-05, 1.9228920296125374e-05, 2.15030641866466e-05, 1.5654351909830933e-05, 0.00024213075060532688, 0.00033277870216306157, 0.00026631158455392814, 0.00024213075060532688, 0.0001902949571836346, 0.2, 0.2, 0.2, 0.2, 0.2, 0.2, 0.2, 0.2, 0.2, 0.2, 0.00022197558268590456, 0.2, 0.2, 0.2, 0.2, 0.00015082956259426846, 0.00034722222222222224, 0.0008849557522123895, 0.00392156862745098, 0.2, 1.535390756947643e-05, 1.8516803999629667e-05, 2.0098482564566377e-05, 1.577784790154623e-05, 1.789549033643522e-05, 0.3128859820137098, 1.443939065771424e-05, 1.4868782990112255e-05, 3.669051550174279e-05, 0.2, 0.2, 0.2, 0.2, 0.2, 0.2, 0.2, 0.2, 0.2, 0.2, 0.2, 0.2, 0.2, 0.2, 0.2, 0.2, 0.2, 0.2, 0.2, 0.2, 0.2, 0.2, 0.2, 0.2, 0.2, 0.2, 0.9822218722935203, 0.8797750108167876, 0.8317819029683438, 0.7902454178316246, 0.9999469355266647, 0.2, 0.2, 0.2, 0.2, 0.2, 0.2, 0.2, 0.2, 0.2, 0.2, 0.2, 0.2, 0.2, 0.2, 0.2, 0.2, 0.2, 0.2, 0.2, 0.2, 0.984313725490196, 0.9692307692307692, 0.9692307692307692, 0.2, 0.2, 0.02723053120165033, 0.051291583872828665, 1.8016394919376635e-05, 0.0033820963629043084, 0.07490088978944588, 0.0008849557522123895, 0.0013245033112582781, 0.0013245033112582781, 0.0009950248756218907, 0.0007968127490039842, 0.2, 0.2, 0.2, 0.2, 0.2, 0.2, 0.2, 0.2, 0.2, 0.2, 0.2, 0.2, 0.2, 0.2, 0.2, 0.2, 0.2, 0.2, 0.2, 0.2, 1.3266118333775536e-05, 1.3936311058462823e-05, 1.9228920296125374e-05, 2.15030641866466e-05, 1.5654351909830933e-05, 0.00024213075060532688, 0.00033277870216306157, 0.00026631158455392814, 0.00024213075060532688, 0.0001902949571836346, 0.2, 0.2, 0.2, 0.2, 0.2, 0.2, 0.2, 0.2, 0.2, 0.2, 0.00022197558268590456, 0.2, 0.2, 0.2, 0.2, 0.00015082956259426846, 0.00034722222222222224, 0.0008849557522123895, 0.00392156862745098, 0.2, 1.535390756947643e-05, 1.8516803999629667e-05, 2.0098482564566377e-05, 1.577784790154623e-05, 1.789549033643522e-05, 1.2577825294006664e-05, 1.443939065771424e-05, 1.4868782990112255e-05, 3.669051550174279e-05, 0.2, 0.2, 0.2, 0.2, 0.2, 0.2, 0.2, 0.2, 0.2, 0.2, 0.2, 0.2, 0.2, 0.2, 0.2, 0.2, 0.2, 0.2, 0.2, 0.2, 0.2, 0.2, 0.2, 0.2, 0.2, 0.2, 1.5746791591213295e-05, 0.04808422671986923, 0.12108331091381942, 1.5532774153463807e-05, 1.3266118333775533e-05, 0.2, 0.2, 0.2, 0.2, 0.2, 0.2, 0.2, 0.2, 0.2, 0.2, 0.2, 0.2, 0.2, 0.2, 0.2, 0.2, 0.2, 0.2, 0.2, 0.2, 0.00392156862745098, 0.007692307692307692, 0.007692307692307692, 0.2, 0.2, 0.9297576070139246, 0.9470674956733542, 0.9774074407711018, 0.9764058515635485, 0.9096291075676152, 0.33274336283185846, 0.8291390728476821, 0.9947019867549669, 0.6228855721393035, 0.797609561752988, 0.2, 0.2, 0.2, 0.2, 0.2, 0.2, 0.2, 0.2, 0.2, 0.2, 0.2, 0.2, 0.2, 0.2, 0.2, 0.2, 0.2, 0.2, 0.2, 0.2, 0.02157070841071902, 0.04182286948644693, 0.02165176425343717, 0.05377916353080314, 0.035237946149029434, 0.00024213075060532688, 0.00033277870216306157, 0.00026631158455392814, 0.00024213075060532688, 0.0001902949571836346, 0.2, 0.2, 0.2, 0.2, 0.2, 0.2, 0.2, 0.2, 0.2, 0.2, 0.00022197558268590456, 0.2, 0.2, 0.2, 0.2, 0.00015082956259426846, 0.00034722222222222224, 0.0008849557522123895, 0.00392156862745098, 0.2, 1.535390756947643e-05, 1.8516803999629667e-05, 2.0098482564566377e-05, 1.577784790154623e-05, 1.789549033643522e-05, 1.2577825294006664e-05, 1.443939065771424e-05, 1.4868782990112255e-05, 3.669051550174279e-05, 0.2, 0.2, 0.2, 0.2, 0.2, 0.2, 0.2, 0.2, 0.2, 0.2, 0.2, 0.2, 0.2, 0.2, 0.2, 0.2, 0.2, 0.2, 0.2, 0.2, 0.2, 0.2, 0.2, 0.2, 0.2, 0.2, 1.5746791591213295e-05, 9.614922359501945e-06, 1.7935611155950145e-05, 1.5532774153463807e-05, 1.3266118333775533e-05, 0.2, 0.2, 0.2, 0.2, 0.2, 0.2, 0.2, 0.2, 0.2, 0.2, 0.2, 0.2, 0.2, 0.2, 0.2, 0.2, 0.2, 0.2, 0.2, 0.2, 0.00392156862745098, 0.007692307692307692, 0.007692307692307692, 0.2, 0.2, 0.04298894046186465, 0.001615281071726171, 0.02253851004414017, 0.020158368004294727, 0.015434763456964146, 0.6646017699115044, 0.16688741721854305, 0.0013245033112582781, 0.3741293532338309, 0.2, 0.2, 0.2, 0.2, 0.2, 0.2, 0.2, 0.2, 0.2, 0.2, 0.2, 0.2, 0.2, 0.2, 0.2, 0.2, 0.2, 0.2, 0.2, 0.2, 0.2, 0.91040063677368, 0.9372308549926833, 0.9446399384674551, 0.9380926782066444, 0.9608015028177834, 0.5753026634382566, 0.6242928452579035, 0.5661784287616511, 0.5753026634382566, 0.7613701236917221, 0.2, 0.2, 0.2, 0.2, 0.2, 0.2, 0.2, 0.2, 0.2, 0.2, 0.00022197558268590456, 0.2, 0.2, 0.2, 0.2, 0.0755656108597285, 0.3041666666666667, 0.33274336283185846, 0.49411764705882355, 0.2, 0.015369261477045905, 0.02316452180353671, 0.027655512008843332, 0.029599242663300725, 0.02462419470293486, 1.2577825294006664e-05, 1.443939065771424e-05, 1.4868782990112255e-05, 3.669051550174279e-05, 0.2, 0.2, 0.2, 0.2, 0.2, 0.2, 0.2, 0.2, 0.2, 0.2, 0.2, 0.2, 0.2, 0.2, 0.2, 0.2, 0.2, 0.2, 0.2, 0.2, 0.2, 0.2, 0.2, 0.2, 0.2, 0.2, 1.5746791591213295e-05, 9.614922359501945e-06, 1.7935611155950145e-05, 1.5532774153463807e-05, 1.3266118333775533e-05, 0.2, 0.2, 0.2, 0.2, 0.2, 0.2, 0.2, 0.2, 0.2, 0.2, 0.2, 0.2, 0.2, 0.2, 0.2, 0.2, 0.2, 0.2, 0.2, 0.2, 0.00392156862745098, 0.007692307692307692, 0.007692307692307692, 0.2, 0.2, 1.1460661280155865e-05, 1.2819691045445803e-05, 1.8016394919376635e-05, 2.6842034626224673e-05, 1.761959298740199e-05, 0.0008849557522123895, 0.0013245033112582781, 0.0013245033112582781, 0.0009950248756218907, 0.0007968127490039842, 0.2, 0.2, 0.2, 0.2, 0.2, 0.2, 0.2, 0.2, 0.2, 0.2, 0.2, 0.2, 0.2, 0.2, 0.2, 0.2, 0.2, 0.2, 0.2, 0.2, 0.0680021225789334, 0.020918402898752696, 0.03366983943851553, 0.008085152134179121, 0.003929242329367565, 0.4239709443099273, 0.3747088186356073, 0.4330226364846871, 0.4239709443099273, 0.23805899143672687, 0.2, 0.2, 0.2, 0.2, 0.2, 0.2, 0.2, 0.2, 0.2, 0.2, 0.9991120976692565, 0.2, 0.2, 0.2, 0.2, 0.9239819004524886, 0.6947916666666667, 0.6646017699115044, 0.49411764705882355, 0.2, 0.9845846768002456, 0.9767799277844644, 0.972284192543463, 0.9703534237929947, 0.9753221188260559 ;
}
probability ( author_identity | accept_num, mergable_state, pre_prs, workload ) {
    table 0.968055095897751, 0.8629368097048705, 0.9630949455230605, 0.9745753178085274, 0.33333333333333337, 0.33333333333333337, 0.33333333333333337, 0.33333333333333337, 0.33333333333333337, 0.33333333333333337, 0.33333333333333337, 0.33333333333333337, 0.33333333333333337, 0.33333333333333337, 0.33333333333333337, 0.33333333333333337, 0.33333333333333337, 0.33333333333333337, 0.33333333333333337, 0.33333333333333337, 0.33333333333333337, 0.33333333333333337, 0.33333333333333337, 0.33333333333333337, 0.33333333333333337, 0.4580537874878147, 0.40140525483936595, 0.68845876945229, 0.4100645821344076, 0.33333333333333337, 0.9990138067061143, 0.9998518847663482, 0.9995769881556683, 4.114718347529112e-05, 0.33333333333333337, 0.33333333333333337, 0.33333333333333337, 0.33333333333333337, 0.33333333333333337, 0.33333333333333337, 0.33333333333333337, 0.33333333333333337, 0.33333333333333337, 0.33333333333333337, 0.33333333333333337, 0.33333333333333337, 0.33333333333333337, 0.33333333333333337, 0.33333333333333337, 0.33333333333333337, 0.33333333333333337, 0.33333333333333337, 0.33333333333333337, 0.33333333333333337, 0.33333333333333337, 0.33333333333333337, 0.33333333333333337, 0.33333333333333337, 0.33333333333333337, 0.33333333333333337, 0.33333333333333337, 0.33333333333333337, 0.33333333333333337, 0.33333333333333337, 0.33333333333333337, 0.33333333333333337, 0.33333333333333337, 0.33333333333333337, 0.33333333333333337, 0.33333333333333337, 0.33333333333333337, 0.33333333333333337, 0.33333333333333337, 0.33333333333333337, 0.33333333333333337, 0.9999316309438351, 0.33333333333333337, 0.33333333333333337, 0.33333333333333337, 0.33333333333333337, 0.8537106317493167, 0.7556433692296863, 0.7748382893573457, 0.9999137112779359, 0.33333333333333337, 0.9995324918186067, 0.9997223379147577, 0.33333333333333337, 0.0043859649122807015, 0.33333333333333337, 0.33333333333333337, 0.33333333333333337, 0.33333333333333337, 0.33333333333333337, 0.33333333333333337, 0.33333333333333337, 0.33333333333333337, 0.33333333333333337, 0.33333333333333337, 0.33333333333333337, 0.9998712004121587, 0.33333333333333337, 0.33333333333333337, 0.33333333333333337, 0.33333333333333337, 0.9095922683586326, 0.8865725892666239, 0.7458259673934395, 0.43091677265617, 0.5207255413552676, 0.33333333333333337, 0.33333333333333337, 0.33333333333333337, 0.33333333333333337, 0.411733960538351, 0.33333333333333337, 0.33333333333333337, 0.33333333333333337, 0.33333333333333337, 0.33333333333333337, 0.33333333333333337, 0.33333333333333337, 0.33333333333333337, 0.33333333333333337, 0.33333333333333337, 0.33333333333333337, 0.33333333333333337, 0.33333333333333337, 0.33333333333333337, 0.33333333333333337, 0.33333333333333337, 0.33333333333333337, 0.33333333333333337, 0.33333333333333337, 0.33333333333333337, 0.33333333333333337, 0.33333333333333337, 0.33333333333333337, 0.33333333333333337, 0.33333333333333337, 0.33333333333333337, 0.33333333333333337, 0.33333333333333337, 0.33333333333333337, 0.33333333333333337, 0.33333333333333337, 0.33333333333333337, 0.33333333333333337, 0.33333333333333337, 0.33333333333333337, 0.33333333333333337, 0.33333333333333337, 0.33333333333333337, 0.33333333333333337, 0.33333333333333337, 0.33333333333333337, 0.33333333333333337, 0.33333333333333337, 0.33333333333333337, 0.33333333333333337, 0.5490639883057481, 0.8009885948801669, 0.8469571130215163, 0.4515874722281947, 0.33333333333333337, 0.9990138067061143, 0.3000443852640923, 0.99822695035461, 0.9970501474926255, 0.33333333333333337, 0.33333333333333337, 0.33333333333333337, 0.33333333333333337, 0.33333333333333337, 0.33333333333333337, 0.33333333333333337, 0.33333333333333337, 0.33333333333333337, 0.33333333333333337, 0.33333333333333337, 0.33333333333333337, 0.9997778518271687, 0.9998354315806797, 0.33333333333333337, 0.33333333333333337, 0.8786497393918599, 0.8455523301604446, 0.988013031622933, 0.9781283962117685, 0.6004756370523416, 0.9987325728770596, 0.8943431510051425, 0.9991122947181534, 0.9995962043206137, 0.7690073466598325, 0.33333333333333337, 0.33333333333333337, 0.33333333333333337, 0.33333333333333337, 0.33333333333333337, 0.33333333333333337, 0.33333333333333337, 0.33333333333333337, 0.33333333333333337, 0.33333333333333337, 0.33333333333333337, 0.33333333333333337, 0.33333333333333337, 0.33333333333333337, 0.33333333333333337, 0.33333333333333337, 0.33333333333333337, 0.33333333333333337, 0.33333333333333337, 0.33333333333333337, 0.33333333333333337, 0.33333333333333337, 0.33333333333333337, 0.33333333333333337, 0.33333333333333337, 0.33333333333333337, 0.33333333333333337, 0.33333333333333337, 0.33333333333333337, 0.33333333333333337, 0.33333333333333337, 0.33333333333333337, 0.33333333333333337, 0.33333333333333337, 0.33333333333333337, 0.33333333333333337, 0.33333333333333337, 0.33333333333333337, 0.33333333333333337, 0.33333333333333337, 0.9993169398907102, 0.33333333333333337, 0.9987325728770596, 0.6659275683665928, 0.33333333333333337, 0.8373291567942385, 0.7459455584825189, 0.9370066505065574, 0.8713260966165175, 0.33333333333333337, 0.9439921046138662, 0.8327783943766185, 0.9994079336885731, 0.9977851605758583, 0.33333333333333337, 0.33333333333333337, 0.33333333333333337, 0.33333333333333337, 0.33333333333333337, 0.33333333333333337, 0.33333333333333337, 0.33333333333333337, 0.33333333333333337, 0.33333333333333337, 0.33333333333333337, 0.9994775339602925, 0.9912280701754386, 0.9970501474926255, 0.33333333333333337, 0.9987325728770596, 0.8810250988683974, 0.8918667327297568, 0.8339657110736368, 0.9752347749615251, 0.8235161546228184, 0.9988907376594562, 0.7687841530054644, 0.9224726775956283, 0.9663853102324892, 0.9300475304815045, 0.33333333333333337, 0.33333333333333337, 0.33333333333333337, 0.33333333333333337, 0.33333333333333337, 0.33333333333333337, 0.33333333333333337, 0.33333333333333337, 0.33333333333333337, 0.33333333333333337, 0.33333333333333337, 0.33333333333333337, 0.33333333333333337, 0.33333333333333337, 0.33333333333333337, 0.33333333333333337, 0.9955849889624726, 0.33333333333333337, 0.33333333333333337, 0.33333333333333337, 0.9912280701754386, 0.33333333333333337, 0.33333333333333337, 0.33333333333333337, 0.33333333333333337, 0.33333333333333337, 0.33333333333333337, 0.33333333333333337, 0.33333333333333337, 0.33333333333333337, 0.33333333333333337, 0.33333333333333337, 0.33333333333333337, 0.33333333333333337, 0.33333333333333337, 0.33333333333333337, 0.33333333333333337, 0.33333333333333337, 0.33333333333333337, 0.33333333333333337, 0.9992600813910468, 0.9990138067061143, 0.6651917404129795, 0.33333333333333337, 0.33333333333333337, 0.7992038161913586, 0.81502450308952, 0.8068530096849332, 0.7940273149055741, 0.33333333333333337, 0.33333333333333337, 0.33333333333333337, 0.33333333333333337, 0.33333333333333337, 0.33333333333333337, 0.33333333333333337, 0.33333333333333337, 0.33333333333333337, 0.33333333333333337, 0.33333333333333337, 0.0001234110823151919, 0.33333333333333337, 0.33333333333333337, 0.33333333333333337, 0.33333333333333337, 0.1724507775990194, 0.15801776531089293, 0.8819226750261232, 0.9977851605758583, 0.49889624724061804, 0.5289474587322832, 0.5124470171443032, 0.5059669251744042, 0.7280984711171188, 0.7309298177433659, 0.33333333333333337, 0.33333333333333337, 0.33333333333333337, 0.33333333333333337, 0.33333333333333337, 0.33333333333333337, 0.33333333333333337, 0.33333333333333337, 0.33333333333333337, 0.33333333333333337, 0.33333333333333337, 0.33333333333333337, 0.33333333333333337, 0.33333333333333337, 0.33333333333333337, 0.0002220741727737064, 0.33333333333333337, 0.33333333333333337, 0.33333333333333337, 0.33333333333333337, 0.44428007889546356, 0.4994462901439646, 0.7486157253599115, 0.001107419712070875, 0.33333333333333337, 1.5759696153058166e-05, 1.6460092505719883e-05, 2.0480052428934218e-05, 5.624929688378895e-05, 0.33333333333333337, 0.33333333333333337, 0.33333333333333337, 0.33333333333333337, 0.33333333333333337, 0.33333333333333337, 0.33333333333333337, 0.33333333333333337, 0.33333333333333337, 0.33333333333333337, 0.33333333333333337, 0.33333333333333337, 0.33333333333333337, 0.33333333333333337, 0.33333333333333337, 0.33333333333333337, 0.33333333333333337, 0.33333333333333337, 0.33333333333333337, 0.33333333333333337, 0.33333333333333337, 2.8671368771145138e-05, 1.5648717587593696e-05, 1.384504624245445e-05, 3.197135366711427e-05, 0.33333333333333337, 0.0004930966469428007, 7.405761682589053e-05, 0.0002115059221658206, 4.114718347529112e-05, 0.33333333333333337, 0.33333333333333337, 0.33333333333333337, 0.33333333333333337, 0.33333333333333337, 0.33333333333333337, 0.33333333333333337, 0.33333333333333337, 0.33333333333333337, 0.33333333333333337, 0.33333333333333337, 0.33333333333333337, 0.33333333333333337, 0.33333333333333337, 0.33333333333333337, 0.33333333333333337, 0.33333333333333337, 0.33333333333333337, 0.33333333333333337, 0.33333333333333337, 0.33333333333333337, 0.33333333333333337, 0.33333333333333337, 0.33333333333333337, 0.33333333333333337, 0.33333333333333337, 0.33333333333333337, 0.33333333333333337, 0.33333333333333337, 0.33333333333333337, 0.33333333333333337, 0.33333333333333337, 0.33333333333333337, 0.33333333333333337, 0.33333333333333337, 0.33333333333333337, 0.33333333333333337, 0.33333333333333337, 0.33333333333333337, 0.33333333333333337, 0.33333333333333337, 3.418452808258983e-05, 0.33333333333333337, 0.33333333333333337, 0.33333333333333337, 0.33333333333333337, 0.1462761017803603, 0.24434657576945892, 0.2251384429242869, 4.3144361032013115e-05, 0.33333333333333337, 0.00023375409069658717, 0.00013883104262113008, 0.33333333333333337, 0.9912280701754386, 0.33333333333333337, 0.33333333333333337, 0.33333333333333337, 0.33333333333333337, 0.33333333333333337, 0.33333333333333337, 0.33333333333333337, 0.33333333333333337, 0.33333333333333337, 0.33333333333333337, 0.33333333333333337, 6.439979392065946e-05, 0.33333333333333337, 0.33333333333333337, 0.33333333333333337, 0.33333333333333337, 0.09038096002998423, 0.11341213842817434, 0.2541494794735809, 1.4619241846117861e-05, 7.370391662612951e-06, 0.33333333333333337, 0.33333333333333337, 0.33333333333333337, 0.33333333333333337, 0.00013066771200836272, 0.33333333333333337, 0.33333333333333337, 0.33333333333333337, 0.33333333333333337, 0.33333333333333337, 0.33333333333333337, 0.33333333333333337, 0.33333333333333337, 0.33333333333333337, 0.33333333333333337, 0.33333333333333337, 0.33333333333333337, 0.33333333333333337, 0.33333333333333337, 0.33333333333333337, 0.33333333333333337, 0.33333333333333337, 0.33333333333333337, 0.33333333333333337, 0.33333333333333337, 0.33333333333333337, 0.33333333333333337, 0.33333333333333337, 0.33333333333333337, 0.33333333333333337, 0.33333333333333337, 0.33333333333333337, 0.33333333333333337, 0.33333333333333337, 0.33333333333333337, 0.33333333333333337, 0.33333333333333337, 0.33333333333333337, 0.33333333333333337, 0.33333333333333337, 0.33333333333333337, 0.33333333333333337, 0.33333333333333337, 0.33333333333333337, 0.33333333333333337, 0.33333333333333337, 0.33333333333333337, 0.33333333333333337, 0.33333333333333337, 0.33333333333333337, 0.42705238836233317, 0.17858195587601755, 0.09837777453980281, 0.41933634343868703, 0.33333333333333337, 0.0004930966469428007, 0.5996449178872614, 0.0008865248226950355, 0.0014749262536873158, 0.33333333333333337, 0.33333333333333337, 0.33333333333333337, 0.33333333333333337, 0.33333333333333337, 0.33333333333333337, 0.33333333333333337, 0.33333333333333337, 0.33333333333333337, 0.33333333333333337, 0.33333333333333337, 0.33333333333333337, 0.00011107408641563923, 8.228420966016621e-05, 0.33333333333333337, 0.33333333333333337, 0.1139813407839485, 0.13924705776457616, 0.01196926236764758, 0.01748563887595094, 1.0761019283746557e-05, 0.0006337135614702155, 0.0528284244974287, 0.0004438526409232134, 0.00020189783969311526, 0.00017085255424568595, 0.33333333333333337, 0.33333333333333337, 0.33333333333333337, 0.33333333333333337, 0.33333333333333337, 0.33333333333333337, 0.33333333333333337, 0.33333333333333337, 0.33333333333333337, 0.33333333333333337, 0.33333333333333337, 0.33333333333333337, 0.33333333333333337, 0.33333333333333337, 0.33333333333333337, 0.33333333333333337, 0.33333333333333337, 0.33333333333333337, 0.33333333333333337, 0.33333333333333337, 0.33333333333333337, 0.33333333333333337, 0.33333333333333337, 0.33333333333333337, 0.33333333333333337, 0.33333333333333337, 0.33333333333333337, 0.33333333333333337, 0.33333333333333337, 0.33333333333333337, 0.33333333333333337, 0.33333333333333337, 0.33333333333333337, 0.33333333333333337, 0.33333333333333337, 0.33333333333333337, 0.33333333333333337, 0.33333333333333337, 0.33333333333333337, 0.33333333333333337, 0.0003415300546448087, 0.33333333333333337, 0.0006337135614702155, 0.0007390983000739099, 0.33333333333333337, 0.06326385821185226, 0.11694711753848361, 0.02100814220896265, 0.042912461118517105, 0.33333333333333337, 0.0002467308166790032, 0.00036995930447650754, 0.0002960331557134399, 0.001107419712070875, 0.33333333333333337, 0.33333333333333337, 0.33333333333333337, 0.33333333333333337, 0.33333333333333337, 0.33333333333333337, 0.33333333333333337, 0.33333333333333337, 0.33333333333333337, 0.33333333333333337, 0.33333333333333337, 0.0002612330198537095, 0.0043859649122807015, 0.0014749262536873158, 0.33333333333333337, 0.0006337135614702155, 0.10133521281177808, 0.033797276398961004, 0.05535061832490164, 1.5704010804359432e-05, 9.014856483484782e-06, 0.0005546311702717691, 0.07718579234972676, 0.0003415300546448087, 0.00014808233377758032, 0.000103327133705311, 0.33333333333333337, 0.33333333333333337, 0.33333333333333337, 0.33333333333333337, 0.33333333333333337, 0.33333333333333337, 0.33333333333333337, 0.33333333333333337, 0.33333333333333337, 0.33333333333333337, 0.33333333333333337, 0.33333333333333337, 0.33333333333333337, 0.33333333333333337, 0.33333333333333337, 0.33333333333333337, 0.0022075055187637973, 0.33333333333333337, 0.33333333333333337, 0.33333333333333337, 0.0043859649122807015, 0.33333333333333337, 0.33333333333333337, 0.33333333333333337, 0.33333333333333337, 0.33333333333333337, 0.33333333333333337, 0.33333333333333337, 0.33333333333333337, 0.33333333333333337, 0.33333333333333337, 0.33333333333333337, 0.33333333333333337, 0.33333333333333337, 0.33333333333333337, 0.33333333333333337, 0.33333333333333337, 0.33333333333333337, 0.33333333333333337, 0.33333333333333337, 0.00036995930447650754, 0.0004930966469428007, 0.0014749262536873158, 0.33333333333333337, 0.33333333333333337, 1.7159133806925426e-05, 0.006879128237908259, 3.0648522741203875e-05, 6.53466640528001e-05, 0.33333333333333337, 0.33333333333333337, 0.33333333333333337, 0.33333333333333337, 0.33333333333333337, 0.33333333333333337, 0.33333333333333337, 0.33333333333333337, 0.33333333333333337, 0.33333333333333337, 0.33333333333333337, 0.0001234110823151919, 0.33333333333333337, 0.33333333333333337, 0.33333333333333337, 0.33333333333333337, 7.661074082586379e-05, 0.00023375409069658717, 0.0002612330198537095, 0.001107419712070875, 0.0022075055187637965, 0.011599574453481589, 0.03204276586322516, 0.011969262367647579, 1.0240340798541775e-05, 0.004494135700975555, 0.33333333333333337, 0.33333333333333337, 0.33333333333333337, 0.33333333333333337, 0.33333333333333337, 0.33333333333333337, 0.33333333333333337, 0.33333333333333337, 0.33333333333333337, 0.33333333333333337, 0.33333333333333337, 0.33333333333333337, 0.33333333333333337, 0.33333333333333337, 0.33333333333333337, 0.0002220741727737064, 0.33333333333333337, 0.33333333333333337, 0.33333333333333337, 0.33333333333333337, 0.0004930966469428009, 0.001107419712070875, 0.001107419712070875, 0.001107419712070875, 0.33333333333333337, 0.03192914440609585, 0.13704673020262376, 0.036884574424510534, 0.025368432894588816, 0.33333333333333337, 0.33333333333333337, 0.33333333333333337, 0.33333333333333337, 0.33333333333333337, 0.33333333333333337, 0.33333333333333337, 0.33333333333333337, 0.33333333333333337, 0.33333333333333337, 0.33333333333333337, 0.33333333333333337, 0.33333333333333337, 0.33333333333333337, 0.33333333333333337, 0.33333333333333337, 0.33333333333333337, 0.33333333333333337, 0.33333333333333337, 0.33333333333333337, 0.33333333333333337, 0.5419175411434143, 0.5985790964430465, 0.3115273855014676, 0.5899034465119254, 0.33333333333333337, 0.0004930966469428007, 7.405761682589053e-05, 0.0002115059221658206, 0.9999177056330494, 0.33333333333333337, 0.33333333333333337, 0.33333333333333337, 0.33333333333333337, 0.33333333333333337, 0.33333333333333337, 0.33333333333333337, 0.33333333333333337, 0.33333333333333337, 0.33333333333333337, 0.33333333333333337, 0.33333333333333337, 0.33333333333333337, 0.33333333333333337, 0.33333333333333337, 0.33333333333333337, 0.33333333333333337, 0.33333333333333337, 0.33333333333333337, 0.33333333333333337, 0.33333333333333337, 0.33333333333333337, 0.33333333333333337, 0.33333333333333337, 0.33333333333333337, 0.33333333333333337, 0.33333333333333337, 0.33333333333333337, 0.33333333333333337, 0.33333333333333337, 0.33333333333333337, 0.33333333333333337, 0.33333333333333337, 0.33333333333333337, 0.33333333333333337, 0.33333333333333337, 0.33333333333333337, 0.33333333333333337, 0.33333333333333337, 0.33333333333333337, 0.33333333333333337, 3.418452808258983e-05, 0.33333333333333337, 0.33333333333333337, 0.33333333333333337, 0.33333333333333337, 1.3266470322905885e-05, 1.0055000854675071e-05, 2.3267718367536883e-05, 4.3144361032013115e-05, 0.33333333333333337, 0.00023375409069658717, 0.00013883104262113008, 0.33333333333333337, 0.0043859649122807015, 0.33333333333333337, 0.33333333333333337, 0.33333333333333337, 0.33333333333333337, 0.33333333333333337, 0.33333333333333337, 0.33333333333333337, 0.33333333333333337, 0.33333333333333337, 0.33333333333333337, 0.33333333333333337, 6.439979392065946e-05, 0.33333333333333337, 0.33333333333333337, 0.33333333333333337, 0.33333333333333337, 2.6771611383289168e-05, 1.527230520174715e-05, 2.4553132979768222e-05, 0.5690686081019838, 0.4792670882530698, 0.33333333333333337, 0.33333333333333337, 0.33333333333333337, 0.33333333333333337, 0.5881353717496407, 0.33333333333333337, 0.33333333333333337, 0.33333333333333337, 0.33333333333333337, 0.33333333333333337, 0.33333333333333337, 0.33333333333333337, 0.33333333333333337, 0.33333333333333337, 0.33333333333333337, 0.33333333333333337, 0.33333333333333337, 0.33333333333333337, 0.33333333333333337, 0.33333333333333337, 0.33333333333333337, 0.33333333333333337, 0.33333333333333337, 0.33333333333333337, 0.33333333333333337, 0.33333333333333337, 0.33333333333333337, 0.33333333333333337, 0.33333333333333337, 0.33333333333333337, 0.33333333333333337, 0.33333333333333337, 0.33333333333333337, 0.33333333333333337, 0.33333333333333337, 0.33333333333333337, 0.33333333333333337, 0.33333333333333337, 0.33333333333333337, 0.33333333333333337, 0.33333333333333337, 0.33333333333333337, 0.33333333333333337, 0.33333333333333337, 0.33333333333333337, 0.33333333333333337, 0.33333333333333337, 0.33333333333333337, 0.33333333333333337, 0.33333333333333337, 0.023883623331918707, 0.020429449243815616, 0.05466511243868086, 0.12907618433311832, 0.33333333333333337, 0.0004930966469428007, 0.10031069684864626, 0.0008865248226950355, 0.0014749262536873158, 0.33333333333333337, 0.33333333333333337, 0.33333333333333337, 0.33333333333333337, 0.33333333333333337, 0.33333333333333337, 0.33333333333333337, 0.33333333333333337, 0.33333333333333337, 0.33333333333333337, 0.33333333333333337, 0.33333333333333337, 0.00011107408641563923, 8.228420966016621e-05, 0.33333333333333337, 0.33333333333333337, 0.0073689198241916245, 0.015200612074979183, 1.7706009419597012e-05, 0.004385964912280702, 0.39951360192837465, 0.0006337135614702155, 0.0528284244974287, 0.0004438526409232134, 0.00020189783969311526, 0.2308218007859217, 0.33333333333333337, 0.33333333333333337, 0.33333333333333337, 0.33333333333333337, 0.33333333333333337, 0.33333333333333337, 0.33333333333333337, 0.33333333333333337, 0.33333333333333337, 0.33333333333333337, 0.33333333333333337, 0.33333333333333337, 0.33333333333333337, 0.33333333333333337, 0.33333333333333337, 0.33333333333333337, 0.33333333333333337, 0.33333333333333337, 0.33333333333333337, 0.33333333333333337, 0.33333333333333337, 0.33333333333333337, 0.33333333333333337, 0.33333333333333337, 0.33333333333333337, 0.33333333333333337, 0.33333333333333337, 0.33333333333333337, 0.33333333333333337, 0.33333333333333337, 0.33333333333333337, 0.33333333333333337, 0.33333333333333337, 0.33333333333333337, 0.33333333333333337, 0.33333333333333337, 0.33333333333333337, 0.33333333333333337, 0.33333333333333337, 0.33333333333333337, 0.0003415300546448087, 0.33333333333333337, 0.0006337135614702155, 0.3333333333333333, 0.33333333333333337, 0.09940698499390921, 0.13710732397899755, 0.04198520728448009, 0.0857614422649654, 0.33333333333333337, 0.05576116456945472, 0.16685164631890487, 0.0002960331557134399, 0.001107419712070875, 0.33333333333333337, 0.33333333333333337, 0.33333333333333337, 0.33333333333333337, 0.33333333333333337, 0.33333333333333337, 0.33333333333333337, 0.33333333333333337, 0.33333333333333337, 0.33333333333333337, 0.33333333333333337, 0.0002612330198537095, 0.0043859649122807015, 0.0014749262536873158, 0.33333333333333337, 0.0006337135614702155, 0.017639688319824584, 0.07433599087128206, 0.1106836706014615, 0.024749521027670463, 0.1764748305206981, 0.0005546311702717691, 0.1540300546448087, 0.07718579234972676, 0.033466607433733156, 0.06984914238479024, 0.33333333333333337, 0.33333333333333337, 0.33333333333333337, 0.33333333333333337, 0.33333333333333337, 0.33333333333333337, 0.33333333333333337, 0.33333333333333337, 0.33333333333333337, 0.33333333333333337, 0.33333333333333337, 0.33333333333333337, 0.33333333333333337, 0.33333333333333337, 0.33333333333333337, 0.33333333333333337, 0.0022075055187637973, 0.33333333333333337, 0.33333333333333337, 0.33333333333333337, 0.0043859649122807015, 0.33333333333333337, 0.33333333333333337, 0.33333333333333337, 0.33333333333333337, 0.33333333333333337, 0.33333333333333337, 0.33333333333333337, 0.33333333333333337, 0.33333333333333337, 0.33333333333333337, 0.33333333333333337, 0.33333333333333337, 0.33333333333333337, 0.33333333333333337, 0.33333333333333337, 0.33333333333333337, 0.33333333333333337, 0.33333333333333337, 0.33333333333333337, 0.00036995930447650754, 0.0004930966469428007, 0.3333333333333334, 0.33333333333333337, 0.33333333333333337, 0.20077902467483444, 0.17809636867257178, 0.19311634179232562, 0.20590733843037312, 0.33333333333333337, 0.33333333333333337, 0.33333333333333337, 0.33333333333333337, 0.33333333333333337, 0.33333333333333337, 0.33333333333333337, 0.33333333333333337, 0.33333333333333337, 0.33333333333333337, 0.33333333333333337, 0.9997531778353695, 0.33333333333333337, 0.33333333333333337, 0.33333333333333337, 0.33333333333333337, 0.8274726116601547, 0.8417484805984105, 0.11781609195402297, 0.001107419712070875, 0.49889624724061804, 0.45945296681423525, 0.4555102169924717, 0.48206381245794827, 0.27189128854208267, 0.2645760465556585, 0.33333333333333337, 0.33333333333333337, 0.33333333333333337, 0.33333333333333337, 0.33333333333333337, 0.33333333333333337, 0.33333333333333337, 0.33333333333333337, 0.33333333333333337, 0.33333333333333337, 0.33333333333333337, 0.33333333333333337, 0.33333333333333337, 0.33333333333333337, 0.33333333333333337, 0.9995558516544525, 0.33333333333333337, 0.33333333333333337, 0.33333333333333337, 0.33333333333333337, 0.5552268244575937, 0.4994462901439646, 0.25027685492801777, 0.9977851605758583, 0.33333333333333337 ;
}
probability ( body_words | author_identity, change_num, close_num, comment_num ) {
    table 0.10276117278679192, 0.06198692424912747, 0.5620235620235621, 0.0834027584930112, 0.33333333333333337, 0.33333333333333337, 0.4972677595628415, 0.20088300220750552, 0.33333333333333337, 0.33333333333333337, 0.0015797788309636653, 1.1121862244614239e-05, 0.20132727403880835, 0.07009268825898807, 0.44091664480014, 0.21240127158915872, 0.5364202545356079, 0.32258642307003405, 0.5620235620235621, 0.20029563932002956, 0.0027548209366391185, 6.206168931918328e-05, 0.07098400693295517, 0.010771957071461283, 0.25430458519451765, 0.10397762679920355, 0.3982590294810754, 0.16629461422010108, 0.5197514425210831, 0.3999112294718154, 0.33333333333333337, 0.33333333333333337, 0.33333333333333337, 0.00010578652279699567, 0.13836700933475127, 0.08075524336172968, 0.3706050441048578, 0.14139034155125185, 0.4944759812000244, 0.28801208566604464, 0.33333333333333337, 0.33333333333333337, 0.33333333333333337, 5.4191730341949824e-05, 0.33333333333333337, 5.940711697261332e-05, 0.5499484249781798, 0.12703870228334657, 0.5228760662573256, 0.3474306045044138, 0.33333333333333337, 0.33333333333333337, 0.19679592208265065, 0.022337405899049735, 0.33333333333333337, 0.33333333333333337, 0.33333333333333337, 0.33333333333333337, 0.33333333333333337, 0.33333333333333337, 0.33333333333333337, 0.33333333333333337, 0.23919864832247165, 0.04176790466273285, 0.2537709265705288, 0.11576241623060682, 0.0036630036630036634, 0.0010070493454179255, 0.33333333333333337, 0.33333333333333337, 0.33333333333333337, 0.33333333333333337, 0.33333333333333337, 0.33333333333333337, 0.18765175164758932, 0.042455050362421164, 0.0036630036630036634, 0.0013831258644536654, 0.33333333333333337, 0.33333333333333337, 0.33333333333333337, 0.33333333333333337, 0.33333333333333337, 0.33333333333333337, 0.33333333333333337, 0.33333333333333337, 0.0003699593044765076, 0.05900283039407794, 0.010752688172043012, 0.010752688172043012, 0.33333333333333337, 0.33333333333333337, 0.33333333333333337, 0.33333333333333337, 0.33333333333333337, 0.33333333333333337, 0.33333333333333337, 0.25068870523415976, 0.16758747697974216, 0.0013831258644536654, 0.18010215411947592, 0.0814669582484981, 0.1483764899301274, 0.07368076443025802, 0.005464480874316941, 0.04386605043379551, 0.0005546311702717692, 0.0015797788309636653, 0.598233995584989, 0.46311235823687597, 0.33333333333333337, 0.33333333333333337, 0.33333333333333337, 0.33333333333333337, 0.33333333333333337, 0.3125144575526255, 0.010752688172043012, 0.17513183458229253, 0.4994462901439646, 0.3333333333333333, 0.33333333333333337, 0.33333333333333337, 0.33333333333333337, 0.33333333333333337, 0.42812006319115326, 0.0006523157208088716, 0.28578975171685156, 0.17250622247750336, 0.49930843706777317, 0.4440344403444034, 0.33333333333333337, 0.33333333333333337, 0.33333333333333337, 0.33333333333333337, 0.58264081255771, 0.3748271092669433, 0.26670368313899684, 0.16184876694430836, 0.5997040325564188, 0.21442726912405868, 0.33333333333333337, 0.33333333333333337, 0.33333333333333337, 0.33333333333333337, 0.33333333333333337, 0.33333333333333337, 0.25068870523415976, 0.3333333333333333, 0.501136566802033, 0.26204479296619737, 0.2564759464844862, 0.06641105048419604, 0.06306306306306307, 0.0834027584930112, 0.33333333333333337, 0.33333333333333337, 0.4972677595628415, 0.3995584988962472, 0.33333333333333337, 0.33333333333333337, 0.0015797788309636653, 1.1121862244614239e-05, 0.2922166919137272, 0.1859904466705599, 0.14178255925828742, 0.165208271884115, 0.24397508800433249, 0.32258642307003405, 0.18780318780318783, 0.1337767923133777, 0.0027548209366391185, 6.206168931918328e-05, 0.10643661860868195, 0.037652071759950625, 0.285228877944489, 0.2653929749365434, 0.29004953590150534, 0.23788263669720064, 0.3599644917887262, 0.32001775410563693, 0.33333333333333337, 0.33333333333333337, 0.33333333333333337, 0.00010578652279699567, 0.2872503840245776, 0.2735515368903502, 0.3242816321459632, 0.32586249832385117, 0.25825550875907954, 0.24002488225362129, 0.33333333333333337, 0.33333333333333337, 0.33333333333333337, 5.4191730341949824e-05, 0.33333333333333337, 5.940711697261332e-05, 0.2928667777513291, 0.222251608921802, 0.280322387907911, 0.36857651126103447, 0.33333333333333337, 0.33333333333333337, 0.24594939013289643, 0.06676539553251883, 0.33333333333333337, 0.33333333333333337, 0.33333333333333337, 0.33333333333333337, 0.33333333333333337, 0.33333333333333337, 0.33333333333333337, 0.33333333333333337, 0.21747525947381124, 0.11465926183038297, 0.20901707276645118, 0.10750022950518681, 0.3333333333333333, 0.09164149043303121, 0.33333333333333337, 0.33333333333333337, 0.33333333333333337, 0.33333333333333337, 0.33333333333333337, 0.33333333333333337, 0.3749566423864031, 0.15259342935140735, 0.0036630036630036634, 0.0013831258644536654, 0.33333333333333337, 0.33333333333333337, 0.33333333333333337, 0.33333333333333337, 0.33333333333333337, 0.33333333333333337, 0.33333333333333337, 0.33333333333333337, 0.06696263411024787, 0.039407794469845416, 0.010752688172043012, 0.010752688172043012, 0.33333333333333337, 0.33333333333333337, 0.33333333333333337, 0.33333333333333337, 0.33333333333333337, 0.33333333333333337, 0.33333333333333337, 0.25068870523415976, 0.16758747697974216, 0.12586445366528354, 0.14012880302020875, 0.13576150617097754, 0.03740238388820386, 0.0828883023346224, 0.4972677595628415, 0.10224600664882835, 0.0005546311702717692, 0.0015797788309636653, 0.3995584988962472, 0.17900151993452593, 0.33333333333333337, 0.33333333333333337, 0.33333333333333337, 0.33333333333333337, 0.33333333333333337, 0.14596345130696275, 0.978494623655914, 0.12517346655564807, 0.4994462901439646, 0.4164358264081256, 0.33333333333333337, 0.33333333333333337, 0.33333333333333337, 0.33333333333333337, 0.42812006319115326, 0.11806914546640575, 0.14315900686740624, 0.10358031782500479, 0.2503457814661134, 0.4440344403444034, 0.33333333333333337, 0.33333333333333337, 0.33333333333333337, 0.33333333333333337, 0.4164358264081256, 0.623789764868603, 0.46659263372200627, 0.5146170178017312, 0.2667406585275619, 0.3214427269124059, 0.33333333333333337, 0.33333333333333337, 0.33333333333333337, 0.33333333333333337, 0.33333333333333337, 0.33333333333333337, 0.0027548209366391185, 0.0036630036630036634, 0.27586647255638136, 0.28877799560387335, 0.640762880728722, 0.8716020252666765, 0.37491337491337495, 0.8331944830139776, 0.33333333333333337, 0.33333333333333337, 0.005464480874316941, 0.3995584988962472, 0.33333333333333337, 0.33333333333333337, 0.9968404423380727, 0.9999777562755108, 0.5064560340474644, 0.7439168650704521, 0.41730079594157266, 0.6223904565267264, 0.21960465746005955, 0.3548271538599319, 0.2501732501732502, 0.6659275683665927, 0.9944903581267218, 0.9998758766213617, 0.8225793744583628, 0.951575971168588, 0.4604665368609935, 0.6306293982642531, 0.3116914346174193, 0.5958227490826984, 0.12028406569019086, 0.2800710164225477, 0.33333333333333337, 0.33333333333333337, 0.33333333333333337, 0.999788426954406, 0.5743826066406712, 0.64569321974792, 0.30511332374917915, 0.5327471601248971, 0.24726851004089606, 0.47196303208033413, 0.33333333333333337, 0.33333333333333337, 0.33333333333333337, 0.9998916165393161, 0.33333333333333337, 0.9998811857660548, 0.15718479727049117, 0.6507096887948515, 0.1968015458347635, 0.28399288423455177, 0.33333333333333337, 0.33333333333333337, 0.557254687784453, 0.9108971985684314, 0.33333333333333337, 0.33333333333333337, 0.33333333333333337, 0.33333333333333337, 0.33333333333333337, 0.33333333333333337, 0.33333333333333337, 0.33333333333333337, 0.5433260922037172, 0.8435728335068842, 0.5372120006630201, 0.7767373542642063, 0.663003663003663, 0.9073514602215509, 0.33333333333333337, 0.33333333333333337, 0.33333333333333337, 0.33333333333333337, 0.33333333333333337, 0.33333333333333337, 0.4373916059660077, 0.8049515202861715, 0.9926739926739927, 0.9972337482710927, 0.33333333333333337, 0.33333333333333337, 0.33333333333333337, 0.33333333333333337, 0.33333333333333337, 0.33333333333333337, 0.33333333333333337, 0.33333333333333337, 0.9326674065852756, 0.9015893751360767, 0.978494623655914, 0.978494623655914, 0.33333333333333337, 0.33333333333333337, 0.33333333333333337, 0.33333333333333337, 0.33333333333333337, 0.33333333333333337, 0.33333333333333337, 0.4986225895316804, 0.6648250460405156, 0.8727524204702628, 0.6797690428603154, 0.7827715355805244, 0.8142211261816688, 0.8434309332351196, 0.4972677595628415, 0.8538879429173761, 0.9988907376594565, 0.9968404423380727, 0.002207505518763797, 0.3578861218285982, 0.33333333333333337, 0.33333333333333337, 0.33333333333333337, 0.33333333333333337, 0.33333333333333337, 0.5415220911404118, 0.010752688172043012, 0.6996946988620595, 0.0011074197120708748, 0.2502308402585411, 0.33333333333333337, 0.33333333333333337, 0.33333333333333337, 0.33333333333333337, 0.14375987361769352, 0.8812785388127855, 0.5710512414157423, 0.7239134596974919, 0.2503457814661134, 0.11193111931119311, 0.33333333333333337, 0.33333333333333337, 0.33333333333333337, 0.33333333333333337, 0.0009233610341643583, 0.0013831258644536654, 0.26670368313899684, 0.32353421525396053, 0.13355530891601922, 0.4641300039635355, 0.33333333333333337, 0.33333333333333337, 0.33333333333333337, 0.33333333333333337, 0.33333333333333337, 0.33333333333333337, 0.7465564738292011, 0.663003663003663, 0.22299696064158556, 0.4491772114299293 ;
}
probability ( change_num | accept_num, author_identity, pre_prs, workload ) {
    table 0.45929227549319807, 0.10375009605778841, 0.13721124926358877, 0.08956322753954829, 0.2, 0.9988165680473374, 0.9998222617196176, 0.9994923857868021, 0.2, 0.2, 0.2, 0.2, 0.2, 0.2, 0.2, 0.2, 0.2, 0.2, 0.2, 0.2, 0.2, 0.2, 0.2, 0.2, 0.2, 0.2, 0.2, 0.2, 0.2, 0.2, 0.2, 0.2, 0.2, 0.2, 0.2, 0.2, 0.2, 0.2, 0.2, 0.2, 0.2, 0.2, 0.2, 0.2, 0.2, 0.2, 0.2, 0.2, 0.2, 0.2, 0.9998853211009173, 0.9999484735282751, 0.9999012467596592, 0.9998730360260275, 0.2, 0.2, 0.2, 0.2, 0.9999012467596592, 0.2, 0.2, 0.2, 0.2, 0.2, 0.2, 0.2, 0.2, 0.2, 0.2, 0.2, 0.2, 0.2, 0.2, 0.2, 0.2, 1.3399437223636605e-05, 0.2, 0.2, 0.2, 0.2, 6.1020258725897e-06, 4.504403053985271e-06, 0.13781211721473666, 0.029924220842117256, 8.49220839879411e-06, 0.00014025245441795232, 8.329862557267804e-05, 0.2, 0.2, 0.00019029495718363466, 0.2, 0.2, 0.2, 0.2, 0.2, 0.2, 0.2, 0.2, 0.2, 0.2, 0.2, 0.2, 0.2, 0.2, 0.2, 0.999833368048323, 0.6169818456883509, 2.995805871779508e-05, 0.2, 0.2, 0.2, 0.2, 0.2, 0.002631578947368422, 0.2, 0.2, 0.2, 0.2, 0.2, 0.2, 0.2, 0.2, 0.2, 0.2, 0.2, 0.2, 0.2, 0.2, 0.2, 0.2, 0.2, 0.2, 0.2, 0.9999383477188655, 0.9999630928215542, 0.2, 0.2, 0.2, 0.2, 0.9994670219853432, 0.2, 0.2, 0.2, 0.2, 0.2, 0.2, 0.2, 0.2, 0.2, 0.2, 0.2, 0.2, 0.2, 0.2, 0.2, 0.2, 6.664445184938353e-05, 4.9370525796099724e-05, 0.2, 0.2, 5.978894502406505e-06, 5.4309455276163575e-06, 6.616819956328988e-06, 1.0581450716893286e-05, 1.0752110101607439e-05, 0.00016652789342214822, 0.00013324450366422385, 0.00017761989342806396, 0.00010660980810234542, 0.00013324450366422385, 0.2, 0.2, 0.2, 0.2, 0.2, 0.2, 0.2, 0.2, 0.2, 0.2, 0.2, 0.2, 0.2, 0.2, 0.2, 1.3887924449690991e-05, 2.9625240705080723e-05, 0.0001269035532994924, 8.884940026654821e-05, 0.2, 0.2, 0.00038022813688212936, 0.2, 0.2, 0.2, 0.2, 0.2, 0.2, 0.2, 0.2, 0.2, 0.2, 0.2, 0.2, 0.2, 0.2, 0.2, 0.2, 0.2, 0.2, 0.0002421307506053269, 0.00026631158455392814, 0.00026631158455392814, 0.00029585798816568053, 0.7211700064641241, 0.2, 0.001324503311258278, 0.2, 0.2, 0.000443458980044346, 0.2, 0.2, 0.2, 0.2, 0.2, 0.2, 0.2, 0.2, 0.2, 0.2, 0.2, 0.2, 0.2, 0.2, 0.2, 8.884940026654821e-05, 0.0026315789473684214, 0.00026631158455392814, 0.0006644518272425252, 0.0003802281368821293, 0.004189562355303897, 0.01109205936262047, 7.72916988715412e-06, 7.912644405760405e-06, 6.567928803651769e-06, 0.00010251153254741159, 0.00013324450366422385, 9.87166831194472e-05, 8.077544426494345e-05, 6.664445184938353e-05, 0.2, 0.2, 0.2, 0.2, 0.2, 0.2, 0.2, 0.2, 0.2, 0.2, 0.2, 0.2, 0.2, 0.2, 0.2, 6.0587700696758544e-05, 6.83526999316473e-05, 0.00015673981191222572, 0.0008849557522123893, 0.2, 0.2, 0.0026315789473684214, 0.2, 0.2, 0.2, 0.2, 0.2, 0.2, 0.2, 0.2, 0.2, 0.2, 0.2, 0.2, 0.2, 0.2, 0.2, 0.2, 0.001324503311258278, 0.2, 7.204610951008645e-05, 4.7607712449416804e-05, 7.840062720501763e-05, 0.00020491803278688527, 3.064664419246092e-05, 0.0026315789473684214, 0.0006644518272425248, 0.0026315789473684214, 0.0026315789473684214, 0.0008849557522123894, 0.2, 0.2, 0.2, 0.2, 0.2, 0.2, 0.2, 0.2, 0.2, 0.2, 0.2, 0.2, 0.2, 0.2, 0.2, 0.00012113870381586917, 0.00022197558268590453, 0.00015673981191222572, 0.0006644518272425248, 0.0026315789473684214, 7.662541665070304e-06, 1.0062386798148521e-05, 1.0795638562020944e-05, 7.206947497387481e-06, 8.179624555232915e-06, 0.2, 0.2, 0.2, 0.2, 0.2, 0.2, 0.2, 0.2, 0.2, 0.2, 0.2, 0.2, 0.2, 0.2, 0.2, 0.2, 0.2, 0.2, 0.2, 0.2, 0.0008849557522123893, 0.0002663115845539281, 0.0008849557522123893, 0.2, 0.001324503311258278, 0.2, 0.2, 0.2, 0.2, 0.2, 0.2, 0.2, 0.2, 0.2, 0.2, 0.9997038134024432, 0.2, 0.2, 0.2, 0.2, 0.999843168006273, 0.9368859283930059, 0.0008849557522123893, 0.2, 0.0026315789473684214, 0.022740701462010453, 0.0256559268438595, 1.7776197671318106e-05, 1.960592098813842e-05, 2.259631680036154e-05, 0.5406844695942019, 0.8962268500730042, 0.8627701466621192, 0.9103770769077703, 0.2, 0.00029585798816568053, 4.443457009553431e-05, 0.0001269035532994924, 0.2, 0.2, 0.2, 0.2, 0.2, 0.2, 0.2, 0.2, 0.2, 0.2, 0.2, 0.2, 0.2, 0.2, 0.2, 0.2, 0.2, 0.2, 0.2, 0.2, 0.2, 0.2, 0.2, 0.2, 0.2, 0.2, 0.2, 0.2, 0.2, 0.2, 0.2, 0.2, 0.2, 0.2, 0.2, 0.2, 0.2, 0.2, 0.2, 0.2, 0.2, 0.2, 2.8669724770642197e-05, 1.288161793121216e-05, 2.4688310085174665e-05, 3.174099349309633e-05, 0.2, 0.2, 0.2, 0.2, 2.4688310085174665e-05, 0.2, 0.2, 0.2, 0.2, 0.2, 0.2, 0.2, 0.2, 0.2, 0.2, 0.2, 0.2, 0.2, 0.2, 0.2, 0.2, 0.08041002277904327, 0.2, 0.2, 0.2, 0.2, 0.32265072003905304, 0.29729510596608183, 0.3038820314708377, 0.777744857842858, 0.9999660311664051, 0.9994389901823283, 0.4686380674718867, 0.2, 0.2, 0.9992388201712655, 0.2, 0.2, 0.2, 0.2, 0.2, 0.2, 0.2, 0.2, 0.2, 0.2, 0.2, 0.2, 0.2, 0.2, 0.2, 4.165798791918349e-05, 0.3829614220877458, 0.9998801677651287, 0.2, 0.2, 0.2, 0.2, 0.2, 0.9894736842105266, 0.2, 0.2, 0.2, 0.2, 0.2, 0.2, 0.2, 0.2, 0.2, 0.2, 0.2, 0.2, 0.2, 0.2, 0.2, 0.2, 0.2, 0.2, 0.2, 1.5413070283600493e-05, 9.22679461155195e-06, 0.2, 0.2, 0.2, 0.2, 0.00013324450366422385, 0.2, 0.2, 0.2, 0.2, 0.2, 0.2, 0.2, 0.2, 0.2, 0.2, 0.2, 0.2, 0.2, 0.2, 0.2, 0.2, 6.664445184938353e-05, 4.9370525796099724e-05, 0.2, 0.2, 0.20627783922752685, 0.3258621626025091, 0.24317475021504667, 0.01191471350722184, 0.14516423848180204, 0.00016652789342214822, 0.00013324450366422385, 0.13339253996447603, 0.040085287846481875, 0.00013324450366422385, 0.2, 0.2, 0.2, 0.2, 0.2, 0.2, 0.2, 0.2, 0.2, 0.2, 0.2, 0.2, 0.2, 0.2, 0.2, 0.6197625164919103, 0.15556213894237889, 0.9994923857868021, 0.9996446023989338, 0.2, 0.2, 0.14296577946768063, 0.2, 0.2, 0.2, 0.2, 0.2, 0.2, 0.2, 0.2, 0.2, 0.2, 0.2, 0.2, 0.2, 0.2, 0.2, 0.2, 0.2, 0.2, 0.0002421307506053269, 0.00026631158455392814, 0.00026631158455392814, 0.00029585798816568053, 0.278781512605042, 0.2, 0.001324503311258278, 0.2, 0.2, 0.9982261640798228, 0.2, 0.2, 0.2, 0.2, 0.2, 0.2, 0.2, 0.2, 0.2, 0.2, 0.2, 0.2, 0.2, 0.2, 0.2, 0.23331852509995557, 0.0026315789473684214, 0.9989347536617844, 0.9973421926910302, 0.0003802281368821293, 0.0962372039831525, 0.07539171051853605, 0.02029680012366672, 0.035614812470327585, 6.567928803651769e-06, 0.03854433623782676, 0.00013324450366422385, 0.03711747285291214, 8.077544426494345e-05, 6.664445184938353e-05, 0.2, 0.2, 0.2, 0.2, 0.2, 0.2, 0.2, 0.2, 0.2, 0.2, 0.2, 0.2, 0.2, 0.2, 0.2, 6.0587700696758544e-05, 0.3845522898154477, 0.00015673981191222572, 0.0008849557522123893, 0.2, 0.2, 0.0026315789473684214, 0.2, 0.2, 0.2, 0.2, 0.2, 0.2, 0.2, 0.2, 0.2, 0.2, 0.2, 0.2, 0.2, 0.2, 0.2, 0.2, 0.001324503311258278, 0.2, 7.204610951008645e-05, 4.7607712449416804e-05, 7.840062720501763e-05, 0.00020491803278688527, 0.42525283481458775, 0.0026315789473684214, 0.0006644518272425248, 0.0026315789473684214, 0.0026315789473684214, 0.0008849557522123894, 0.2, 0.2, 0.2, 0.2, 0.2, 0.2, 0.2, 0.2, 0.2, 0.2, 0.2, 0.2, 0.2, 0.2, 0.2, 0.04554815263476681, 0.16670366259711433, 0.00015673981191222572, 0.0006644518272425248, 0.0026315789473684214, 0.02012183441247462, 0.05283759307707788, 0.028349346863866996, 0.008115022882058304, 0.003075538832767576, 0.2, 0.2, 0.2, 0.2, 0.2, 0.2, 0.2, 0.2, 0.2, 0.2, 0.2, 0.2, 0.2, 0.2, 0.2, 0.2, 0.2, 0.2, 0.2, 0.2, 0.0008849557522123893, 0.0002663115845539281, 0.0008849557522123893, 0.2, 0.001324503311258278, 0.2, 0.2, 0.2, 0.2, 0.2, 0.2, 0.2, 0.2, 0.2, 0.2, 7.40466493891151e-05, 0.2, 0.2, 0.2, 0.2, 3.920799843168005e-05, 0.00016652789342214822, 0.0008849557522123893, 0.2, 0.0026315789473684214, 0.05682902810393152, 0.01924621827194257, 0.04001422095813706, 0.02207626703264386, 2.259631680036154e-05, 7.751637533428938e-06, 7.684623069238456e-06, 6.201358097423337e-06, 1.9898517560441744e-05, 0.2, 0.00029585798816568053, 4.443457009553431e-05, 0.0001269035532994924, 0.2, 0.2, 0.2, 0.2, 0.2, 0.2, 0.2, 0.2, 0.2, 0.2, 0.2, 0.2, 0.2, 0.2, 0.2, 0.2, 0.2, 0.2, 0.2, 0.2, 0.2, 0.2, 0.2, 0.2, 0.2, 0.2, 0.2, 0.2, 0.2, 0.2, 0.2, 0.2, 0.2, 0.2, 0.2, 0.2, 0.2, 0.2, 0.2, 0.2, 0.2, 0.2, 2.8669724770642197e-05, 1.288161793121216e-05, 2.4688310085174665e-05, 3.174099349309633e-05, 0.2, 0.2, 0.2, 0.2, 2.4688310085174665e-05, 0.2, 0.2, 0.2, 0.2, 0.2, 0.2, 0.2, 0.2, 0.2, 0.2, 0.2, 0.2, 0.2, 0.2, 0.2, 0.2, 0.9195497789092858, 0.2, 0.2, 0.2, 0.2, 0.6155479619233586, 0.4459404067475957, 0.4275511165551682, 0.19230813059084953, 8.49220839879411e-06, 0.00014025245441795232, 0.5311120366513952, 0.2, 0.2, 0.00019029495718363466, 0.2, 0.2, 0.2, 0.2, 0.2, 0.2, 0.2, 0.2, 0.2, 0.2, 0.2, 0.2, 0.2, 0.2, 0.2, 4.165798791918349e-05, 1.8910741301059e-05, 2.995805871779508e-05, 0.2, 0.2, 0.2, 0.2, 0.2, 0.002631578947368422, 0.2, 0.2, 0.2, 0.2, 0.2, 0.2, 0.2, 0.2, 0.2, 0.2, 0.2, 0.2, 0.2, 0.2, 0.2, 0.2, 0.2, 0.2, 0.2, 1.5413070283600493e-05, 9.22679461155195e-06, 0.2, 0.2, 0.2, 0.2, 0.00013324450366422385, 0.2, 0.2, 0.2, 0.2, 0.2, 0.2, 0.2, 0.2, 0.2, 0.2, 0.2, 0.2, 0.2, 0.2, 0.2, 0.2, 6.664445184938353e-05, 4.9370525796099724e-05, 0.2, 0.2, 0.569495680248722, 0.5743279204909575, 0.5310064183153577, 0.3095180149198455, 0.6612655233589592, 0.4997502081598668, 0.4498334443704197, 0.39982238010657195, 0.5598081023454158, 0.9495003331112593, 0.2, 0.2, 0.2, 0.2, 0.2, 0.2, 0.2, 0.2, 0.2, 0.2, 0.2, 0.2, 0.2, 0.2, 0.2, 0.38019581973474065, 0.8443489853355057, 0.0001269035532994924, 8.884940026654821e-05, 0.2, 0.2, 0.8558935361216732, 0.2, 0.2, 0.2, 0.2, 0.2, 0.2, 0.2, 0.2, 0.2, 0.2, 0.2, 0.2, 0.2, 0.2, 0.2, 0.2, 0.2, 0.2, 0.09104116222760292, 0.10013315579227697, 0.9989347536617844, 0.9988165680473374, 1.6160310277957334e-05, 0.2, 0.001324503311258278, 0.2, 0.2, 0.000443458980044346, 0.2, 0.2, 0.2, 0.2, 0.2, 0.2, 0.2, 0.2, 0.2, 0.2, 0.2, 0.2, 0.2, 0.2, 0.2, 8.884940026654821e-05, 0.0026315789473684214, 0.00026631158455392814, 0.0006644518272425252, 0.0003802281368821293, 0.21129675601796324, 0.21951161828179508, 0.327531303138043, 0.4777338186421902, 0.32265607040819677, 0.00010251153254741159, 0.2, 0.11115498519249754, 0.1515347334410339, 0.1250249916694435, 0.2, 0.2, 0.2, 0.2, 0.2, 0.2, 0.2, 0.2, 0.2, 0.2, 0.2, 0.2, 0.2, 0.2, 0.2, 6.0587700696758544e-05, 0.15386192754613806, 0.00015673981191222572, 0.0008849557522123893, 0.2, 0.2, 0.0026315789473684214, 0.2, 0.2, 0.2, 0.2, 0.2, 0.2, 0.2, 0.2, 0.2, 0.2, 0.2, 0.2, 0.2, 0.2, 0.2, 0.2, 0.9947019867549668, 0.2, 0.6214697406340057, 0.16072363722923114, 0.5880831046648373, 0.4612704918032787, 0.1379405455102666, 0.0026315789473684214, 0.24983388704318935, 0.0026315789473684214, 0.0026315789473684214, 0.6646017699115045, 0.2, 0.2, 0.2, 0.2, 0.2, 0.2, 0.2, 0.2, 0.2, 0.2, 0.2, 0.2, 0.2, 0.2, 0.2, 0.00012113870381586917, 0.08346281908990011, 0.05893416927899687, 0.24983388704318935, 0.9894736842105264, 0.0028811156660664343, 0.03397061783054941, 0.016204253481593437, 0.05946452380094411, 0.02761441249846632, 0.2, 0.2, 0.2, 0.2, 0.2, 0.2, 0.2, 0.2, 0.2, 0.2, 0.2, 0.2, 0.2, 0.2, 0.2, 0.2, 0.2, 0.2, 0.2, 0.2, 0.0008849557522123893, 0.0002663115845539281, 0.0008849557522123893, 0.2, 0.001324503311258278, 0.2, 0.2, 0.2, 0.2, 0.2, 0.2, 0.2, 0.2, 0.2, 0.2, 7.40466493891151e-05, 0.2, 0.2, 0.2, 0.2, 3.920799843168005e-05, 0.00016652789342214822, 0.9964601769911504, 0.2, 0.0026315789473684214, 0.00569653814104992, 0.03206563541577643, 0.03334814683139277, 0.007371826291540045, 0.07628516551802056, 7.751637533428938e-06, 7.684623069238456e-06, 6.201358097423337e-06, 1.9898517560441744e-05, 0.2, 0.00029585798816568053, 4.443457009553431e-05, 0.0001269035532994924, 0.2, 0.2, 0.2, 0.2, 0.2, 0.2, 0.2, 0.2, 0.2, 0.2, 0.2, 0.2, 0.2, 0.2, 0.2, 0.2, 0.2, 0.2, 0.2, 0.2, 0.2, 0.2, 0.2, 0.2, 0.2, 0.2, 0.2, 0.2, 0.2, 0.2, 0.2, 0.2, 0.2, 0.2, 0.2, 0.2, 0.2, 0.2, 0.2, 0.2, 0.2, 0.2, 2.8669724770642197e-05, 1.288161793121216e-05, 2.4688310085174665e-05, 3.174099349309633e-05, 0.2, 0.2, 0.2, 0.2, 2.4688310085174665e-05, 0.2, 0.2, 0.2, 0.2, 0.2, 0.2, 0.2, 0.2, 0.2, 0.2, 0.2, 0.2, 0.2, 0.2, 0.2, 0.2, 1.3399437223636605e-05, 0.2, 0.2, 0.2, 0.2, 0.004582621430314866, 0.13006914258687868, 0.0918778856119853, 1.1395362087630333e-05, 8.49220839879411e-06, 0.00014025245441795232, 8.329862557267804e-05, 0.2, 0.2, 0.00019029495718363466, 0.2, 0.2, 0.2, 0.2, 0.2, 0.2, 0.2, 0.2, 0.2, 0.2, 0.2, 0.2, 0.2, 0.2, 0.2, 4.165798791918349e-05, 1.8910741301059e-05, 2.995805871779508e-05, 0.2, 0.2, 0.2, 0.2, 0.2, 0.002631578947368422, 0.2, 0.2, 0.2, 0.2, 0.2, 0.2, 0.2, 0.2, 0.2, 0.2, 0.2, 0.2, 0.2, 0.2, 0.2, 0.2, 0.2, 0.2, 0.2, 1.5413070283600493e-05, 9.22679461155195e-06, 0.2, 0.2, 0.2, 0.2, 0.00013324450366422385, 0.2, 0.2, 0.2, 0.2, 0.2, 0.2, 0.2, 0.2, 0.2, 0.2, 0.2, 0.2, 0.2, 0.2, 0.2, 0.2, 6.664445184938353e-05, 4.9370525796099724e-05, 0.2, 0.2, 0.22421452273474635, 0.0997990550154782, 0.1389598359028651, 0.08333950584625151, 0.19354873393903554, 0.4997502081598668, 0.5497668221185876, 0.46642984014209593, 0.00010660980810234542, 0.00013324450366422385, 0.2, 0.2, 0.2, 0.2, 0.2, 0.2, 0.2, 0.2, 0.2, 0.2, 0.2, 0.2, 0.2, 0.2, 0.2, 1.3887924449690991e-05, 2.9625240705080723e-05, 0.0001269035532994924, 8.884940026654821e-05, 0.2, 0.2, 0.00038022813688212936, 0.2, 0.2, 0.2, 0.2, 0.2, 0.2, 0.2, 0.2, 0.2, 0.2, 0.2, 0.2, 0.2, 0.2, 0.2, 0.2, 0.2, 0.2, 0.9082324455205812, 0.8990679094540613, 0.00026631158455392814, 0.00029585798816568053, 1.6160310277957334e-05, 0.2, 0.9947019867549668, 0.2, 0.2, 0.000443458980044346, 0.2, 0.2, 0.2, 0.2, 0.2, 0.2, 0.2, 0.2, 0.2, 0.2, 0.2, 0.2, 0.2, 0.2, 0.2, 0.7664149266992448, 0.9894736842105264, 0.00026631158455392814, 0.0006644518272425252, 0.9984790874524715, 0.5878552899500711, 0.6430024241707561, 0.553609522337301, 0.37388036081658493, 0.5492496141341828, 0.3460789338800615, 0.4998001332445037, 0.5553800592300099, 0.4847334410339256, 0.62485838053982, 0.2, 0.2, 0.2, 0.2, 0.2, 0.2, 0.2, 0.2, 0.2, 0.2, 0.2, 0.2, 0.2, 0.2, 0.2, 0.9997576491972129, 0.41018455228981543, 0.9993730407523511, 0.9964601769911504, 0.2, 0.2, 0.0026315789473684214, 0.2, 0.2, 0.2, 0.2, 0.2, 0.2, 0.2, 0.2, 0.2, 0.2, 0.2, 0.2, 0.2, 0.2, 0.2, 0.2, 0.001324503311258278, 0.2, 0.3512968299711815, 0.8391335396334206, 0.2940807526460211, 0.5381147540983607, 0.4367453263867606, 0.0026315789473684214, 0.49900332225913624, 0.0026315789473684214, 0.0026315789473684214, 0.3327433628318584, 0.2, 0.2, 0.2, 0.2, 0.2, 0.2, 0.2, 0.2, 0.2, 0.2, 0.2, 0.2, 0.2, 0.2, 0.2, 0.40896426408237435, 0.24994450610432853, 0.8230407523510972, 0.24983388704318935, 0.0026315789473684214, 0.13793341251293056, 0.2, 0.16194537406887619, 0.2, 0.2177906834076316, 0.2, 0.2, 0.2, 0.2, 0.2, 0.2, 0.2, 0.2, 0.2, 0.2, 0.2, 0.2, 0.2, 0.2, 0.2, 0.2, 0.2, 0.2, 0.2, 0.2, 0.9964601769911504, 0.0002663115845539281, 0.0008849557522123893, 0.2, 0.001324503311258278, 0.2, 0.2, 0.2, 0.2, 0.2, 0.2, 0.2, 0.2, 0.2, 0.2, 7.40466493891151e-05, 0.2, 0.2, 0.2, 0.2, 3.920799843168005e-05, 0.06261448792672773, 0.0008849557522123893, 0.2, 0.9894736842105264, 0.0909173547458526, 0.03847534398769336, 0.06667851746511422, 0.03678070777374767, 0.23728392272059654, 7.751637533428938e-06, 7.684623069238456e-06, 6.201358097423337e-06, 1.9898517560441744e-05, 0.2, 0.00029585798816568053, 4.443457009553431e-05, 0.0001269035532994924, 0.2, 0.2, 0.2, 0.2, 0.2, 0.2, 0.2, 0.2, 0.2, 0.2, 0.2, 0.2, 0.2, 0.2, 0.2, 0.2, 0.2, 0.2, 0.2, 0.2, 0.2, 0.2, 0.2, 0.2, 0.2, 0.2, 0.2, 0.2, 0.2, 0.2, 0.2, 0.2, 0.2, 0.2, 0.2, 0.2, 0.2, 0.2, 0.2, 0.2, 0.2, 0.2, 2.8669724770642197e-05, 1.288161793121216e-05, 2.4688310085174665e-05, 3.174099349309633e-05, 0.2, 0.2, 0.2, 0.2, 2.4688310085174665e-05, 0.2, 0.2, 0.2, 0.2, 0.2, 0.2, 0.2, 0.2, 0.2, 0.2, 0.2, 0.2, 0.2, 0.2, 0.2, 0.2, 1.3399437223636605e-05, 0.2, 0.2, 0.2, 0.2, 0.05721259458140103, 0.12669084029638972, 0.03887684914727221, 1.1395362087630333e-05, 8.49220839879411e-06, 0.00014025245441795232, 8.329862557267804e-05, 0.2, 0.2, 0.00019029495718363466, 0.2, 0.2, 0.2, 0.2, 0.2, 0.2, 0.2, 0.2, 0.2, 0.2, 0.2, 0.2, 0.2, 0.2, 0.2, 4.165798791918349e-05, 1.8910741301059e-05, 2.995805871779508e-05, 0.2, 0.2, 0.2, 0.2, 0.2, 0.002631578947368422, 0.2, 0.2, 0.2, 0.2, 0.2, 0.2, 0.2, 0.2, 0.2, 0.2, 0.2, 0.2, 0.2, 0.2, 0.2, 0.2, 0.2, 0.2, 0.2, 1.5413070283600493e-05, 9.22679461155195e-06, 0.2, 0.2, 0.2, 0.2, 0.00013324450366422385, 0.2, 0.2, 0.2, 0.2, 0.2, 0.2, 0.2, 0.2, 0.2, 0.2, 0.2, 0.2, 0.2, 0.2, 0.2, 0.2, 0.9997334221926025, 0.9998025178968156, 0.2, 0.2, 5.978894502406505e-06, 5.4309455276163575e-06, 0.08685237874677432, 0.5952171842759643, 1.0752110101607439e-05, 0.00016652789342214822, 0.00013324450366422385, 0.00017761989342806396, 0.3998933901918977, 0.050099933377748165, 0.2, 0.2, 0.2, 0.2, 0.2, 0.2, 0.2, 0.2, 0.2, 0.2, 0.2, 0.2, 0.2, 0.2, 0.2, 1.3887924449690991e-05, 2.9625240705080723e-05, 0.0001269035532994924, 8.884940026654821e-05, 0.2, 0.2, 0.00038022813688212936, 0.2, 0.2, 0.2, 0.2, 0.2, 0.2, 0.2, 0.2, 0.2, 0.2, 0.2, 0.2, 0.2, 0.2, 0.2, 0.2, 0.2, 0.2, 0.0002421307506053269, 0.00026631158455392814, 0.00026631158455392814, 0.00029585798816568053, 1.6160310277957334e-05, 0.2, 0.001324503311258278, 0.2, 0.2, 0.000443458980044346, 0.2, 0.2, 0.2, 0.2, 0.2, 0.2, 0.2, 0.2, 0.2, 0.2, 0.2, 0.2, 0.2, 0.2, 0.2, 8.884940026654821e-05, 0.0026315789473684214, 0.00026631158455392814, 0.0006644518272425252, 0.0003802281368821293, 0.10042118769350926, 0.0510021876662922, 0.09855464523110219, 0.11276309542649154, 0.12808117960001314, 0.6151717068170169, 0.2999333777481679, 0.296248766041461, 0.3635702746365105, 0.24998333888703764, 0.2, 0.2, 0.2, 0.2, 0.2, 0.2, 0.2, 0.2, 0.2, 0.2, 0.2, 0.2, 0.2, 0.2, 0.2, 6.0587700696758544e-05, 0.051332877648667126, 0.00015673981191222572, 0.0008849557522123893, 0.2, 0.2, 0.9894736842105264, 0.2, 0.2, 0.2, 0.2, 0.2, 0.2, 0.2, 0.2, 0.2, 0.2, 0.2, 0.2, 0.2, 0.2, 0.2, 0.2, 0.001324503311258278, 0.2, 0.027089337175792504, 4.7607712449416804e-05, 0.11767934143473147, 0.00020491803278688527, 3.064664419246092e-05, 0.9894736842105264, 0.24983388704318935, 0.9894736842105264, 0.9894736842105264, 0.0008849557522123894, 0.2, 0.2, 0.2, 0.2, 0.2, 0.2, 0.2, 0.2, 0.2, 0.2, 0.2, 0.2, 0.2, 0.2, 0.2, 0.5452453058752271, 0.4996670366259711, 0.11771159874608153, 0.49900332225913624, 0.0026315789473684214, 0.8390559748668633, 0.7131817267055746, 0.7934902299471014, 0.7324132463695001, 0.7515111856365794, 0.2, 0.2, 0.2, 0.2, 0.2, 0.2, 0.2, 0.2, 0.2, 0.2, 0.2, 0.2, 0.2, 0.2, 0.2, 0.2, 0.2, 0.2, 0.2, 0.2, 0.0008849557522123893, 0.9989347536617842, 0.9964601769911504, 0.2, 0.9947019867549668, 0.2, 0.2, 0.2, 0.2, 0.2, 0.2, 0.2, 0.2, 0.2, 0.2, 7.40466493891151e-05, 0.2, 0.2, 0.2, 0.2, 3.920799843168005e-05, 0.00016652789342214822, 0.0008849557522123893, 0.2, 0.0026315789473684214, 0.8238163775471556, 0.8845568754807283, 0.8599413385476847, 0.9337515929810803, 0.6863857191277822 ;
}
probability ( close_num | comment_num, participants_count, priorities_number, workload ) {
    table 0.010079468866311237, 0.019743698070694267, 0.021930304688925376, 0.0036587574714725592, 5.5850321139346556e-05, 0.02485374933522425, 0.011801607527935697, 0.04682841274481146, 0.006599150604377654, 6.287331027978623e-05, 0.06807208432505951, 0.035977252319664775, 0.03906554185593769, 0.009706871696299857, 0.00010863661053775122, 0.060139860139860134, 0.07902695595003285, 0.03055975794251135, 0.0002773925104022192, 0.00031201248049922, 0.10049751243781095, 0.1252336448598131, 0.0011049723756906078, 0.0024691358024691366, 0.000664451827242525, 0.03600713012477719, 0.0004987531172069826, 0.05037406483790524, 0.0914027149321267, 0.0009950248756218907, 0.0962536023054755, 0.11123439667128988, 0.06688851913477538, 0.000554016620498615, 0.0012422360248447208, 0.02101977107180021, 0.04183142559833507, 0.028815977175463626, 0.0007117437722419929, 0.0012422360248447203, 0.18753894080996886, 0.2, 0.06710963455149502, 0.08381742738589212, 0.0011049723756906078, 0.0016528925619834715, 0.14326241134751774, 0.39801980198019804, 0.0016528925619834713, 0.0019801980198019802, 0.0003838771593090212, 0.07188612099644129, 0.0004987531172069826, 0.05037406483790524, 0.0012422360248447208, 0.04798099762470309, 0.08349514563106797, 0.03877159309021114, 0.041995841995842, 0.0012422360248447208, 0.10551181102362203, 0.0004158004158004158, 0.0004338394793926248, 0.04798099762470309, 0.0024691358024691358, 0.2496894409937888, 0.1116022099447514, 0.0019801980198019807, 0.0024691358024691358, 0.19999999999999998, 0.49268292682926845, 0.004878048780487807, 0.003278688524590165, 0.009523809523809523, 0.009523809523809523, 0.05147100828334761, 0.04404173531026907, 0.1931856899488927, 0.17569209993247803, 0.0001693480101608806, 0.25805281193307805, 0.186872002019692, 0.24650081376424088, 0.22949610815239654, 7.191657677094571e-05, 0.3241236639466728, 0.2586134712473834, 0.34914118139924594, 0.13854144124648346, 5.2069773496485286e-05, 0.3645185124374025, 0.32915769738212625, 0.3807342328208347, 0.1611302902442143, 3.6893562073418185e-05, 0.3761695036305202, 0.2295626467263716, 0.3349708472894182, 0.17169701890731937, 1.1520073728471863e-05, 0.054340609596620064, 0.0648077735530207, 0.0401751505199781, 0.036261546821228036, 0.011225914549008656, 0.16667257578443537, 0.17647520094099195, 0.12867582578193512, 0.07193727540019601, 0.01263753536623703, 0.1632777966678001, 0.11978449565998206, 0.11693705386112911, 0.05776069197501201, 0.032699619771863114, 0.12007992007992006, 0.10532544378698223, 0.09107413010590015, 0.1389736477115118, 0.00031201248049922, 0.2, 0.06292834890965733, 0.1116022099447514, 0.4962962962962964, 0.598671096345515, 0.1786096256684492, 0.2997506234413965, 0.2, 0.0914027149321267, 0.3990049751243781, 0.23073967339097023, 0.4441054091539529, 0.3663893510815308, 0.38836565096952913, 0.3739130434782609, 0.27075962539021853, 0.5204994797086369, 0.45677603423680463, 0.14306049822064057, 0.0012422360248447203, 0.06292834890965733, 0.06710963455149502, 0.46578073089701, 0.3327800829875519, 0.4430939226519337, 0.3322314049586777, 0.001418439716312057, 0.20000000000000004, 0.1669421487603306, 0.0019801980198019802, 0.11554702495201535, 0.0007117437722419929, 0.05037406483790524, 0.0004987531172069826, 0.0012422360248447208, 0.09548693586698337, 0.08349514563106797, 0.15393474088291748, 0.08357588357588358, 0.3739130434782609, 0.05301837270341207, 0.16673596673596672, 0.0438177874186551, 0.14299287410926367, 0.0024691358024691358, 0.0012422360248447208, 0.22209944751381216, 0.20000000000000004, 0.0024691358024691358, 0.19999999999999998, 0.49268292682926845, 0.004878048780487807, 0.3311475409836066, 0.9619047619047618, 0.9619047619047618, 0.028620394173093398, 0.12092257001647445, 0.04554230550823396, 0.08116137744767048, 0.0679085520745131, 0.08470066518847008, 0.23736430194395355, 0.1581492676121832, 0.22130274477673084, 0.07918015102481123, 0.16092403172049194, 0.32510774535155773, 0.16480938416422286, 0.2467431291928154, 0.09898463941681854, 0.22003119612511288, 0.34165682938684816, 0.26359167451103444, 0.29410561309295485, 0.16974727909979706, 0.3142721104630401, 0.420850360838188, 0.3225654385311996, 0.5916019023315161, 0.5667991475145441, 0.138839150990846, 0.13803689621180115, 0.09855865717934684, 0.01452635392139105, 5.5850321139346556e-05, 0.2446729303315015, 0.23920799843168006, 0.19883075124232683, 0.09807252531852335, 0.01892486639421565, 0.25168310098605917, 0.3233163723436097, 0.272680077871512, 0.05776069197501201, 0.032699619771863114, 0.23996003996003992, 0.2894148586456278, 0.302874432677761, 0.11123439667128988, 0.00031201248049922, 0.2, 0.43676012461059194, 0.33259668508287293, 0.24938271604938278, 0.06710963455149502, 0.3568627450980392, 0.1002493765586035, 0.05037406483790524, 0.000904977375565611, 0.0009950248756218907, 0.40365033621517776, 0.19445214979195563, 0.2998336106489185, 0.22216066481994462, 0.0012422360248447208, 0.5621227887617066, 0.16670135275754422, 0.2, 0.28540925266903916, 0.0012422360248447203, 0.37445482866043617, 0.2, 0.2, 0.16680497925311202, 0.0011049723756906078, 0.3322314049586777, 0.2851063829787234, 0.0019801980198019807, 0.0016528925619834713, 0.0019801980198019802, 0.38426103646833015, 0.14306049822064057, 0.15012468827930175, 0.1002493765586035, 0.0012422360248447208, 0.38052256532066514, 0.1667128987517337, 0.23071017274472172, 0.0004158004158004159, 0.0012422360248447208, 0.4729658792650918, 0.4162162162162162, 0.39088937093275494, 0.09548693586698337, 0.0024691358024691358, 0.49813664596273294, 0.33259668508287293, 0.39801980198019804, 0.24938271604938272, 0.19999999999999998, 0.004878048780487807, 0.980487804878049, 0.659016393442623, 0.009523809523809523, 0.009523809523809523, 0.10859754355898316, 0.14288852278967598, 0.1818285065303805, 0.054152599594868324, 0.20338696020321756, 0.24192703084055636, 0.23736430194395355, 0.15349918623575912, 0.13936911102007374, 0.2589715929521755, 0.24597172738765663, 0.1970446989287034, 0.2374249406507471, 0.255399264228522, 0.2604009372559229, 0.24630161727280192, 0.16528018887577253, 0.1694592615835164, 0.30944891957550186, 0.29887474635676076, 0.20714200690394005, 0.2330406051647683, 0.24565190423024444, 0.1392181881452268, 0.32026956972524623, 0.3380142842772357, 0.26759611322348964, 0.273709177157453, 0.23550081506973375, 0.2457972633342642, 0.3084914022336465, 0.3137031954518722, 0.3449868459514762, 0.33982358706305127, 0.38359006601697576, 0.2720843250595036, 0.3472612990122718, 0.28565866320571054, 0.40374819798173955, 0.43465507876154263, 0.33986013986013985, 0.3157133464825772, 0.21210287443267778, 0.3608876560332871, 0.4371294851794072, 0.29950248756218906, 0.24984423676012465, 0.4430939226519337, 0.0024691358024691366, 0.2, 0.1786096256684492, 0.24987531172069827, 0.44937655860349135, 0.45339366515837104, 0.3990049751243781, 0.15389048991354468, 0.22219140083217753, 0.2, 0.27756232686980614, 0.2496894409937888, 0.04183142559833507, 0.20832466181061396, 0.2570613409415121, 0.21423487544483985, 0.4981366459627328, 0.1252336448598131, 0.46578073089701, 0.06710963455149502, 0.08381742738589212, 0.22209944751381216, 0.0016528925619834715, 0.2851063829787234, 0.20000000000000004, 0.49752066115702476, 0.2, 0.30748560460652596, 0.21423487544483985, 0.4992518703241896, 0.2, 0.2496894409937888, 0.28551068883610453, 0.5273231622746186, 0.34587332053742803, 0.5825363825363826, 0.2496894409937888, 0.36797900262467187, 0.4162162162162162, 0.34750542299349246, 0.523040380047506, 0.7432098765432098, 0.12546583850931678, 0.1116022099447514, 0.0019801980198019807, 0.24938271604938272, 0.19999999999999998, 0.004878048780487807, 0.004878048780487807, 0.003278688524590165, 0.009523809523809523, 0.009523809523809523, 0.21713796058269064, 0.285667215815486, 0.17047132311186827, 0.2702228224172856, 0.3558001693480101, 0.2499899213868172, 0.21211815198182277, 0.2697512206463613, 0.15575583777140517, 0.43876303487953977, 0.20229858636938286, 0.1724171900012314, 0.1927384443513476, 0.255399264228522, 0.44785212184327, 0.1198752154995485, 0.11667245330185405, 0.123438970818952, 0.15601585475003196, 0.4243128574063826, 0.05001785501725986, 0.08696635075210851, 0.06205185460860937, 0.0626609442060086, 0.10138816888428087, 0.45872648626898704, 0.5098155189409942, 0.5656267104542966, 0.7100525267161746, 0.7428651214744485, 0.25530934231519237, 0.2588119976475201, 0.28067816427945047, 0.48356746161385167, 0.5847846589122917, 0.24488269296157772, 0.17366058066447174, 0.28565866320571054, 0.47102354637193655, 0.49983704508419335, 0.23996003996003992, 0.21051939513477974, 0.36338880484114977, 0.38862690707350905, 0.5619344773790953, 0.2, 0.1252336448598131, 0.1116022099447514, 0.24938271604938278, 0.1335548172757475, 0.24991087344028523, 0.3496259351620948, 0.24987531172069827, 0.36289592760181, 0.2, 0.1154658981748319, 0.028016643550624134, 0.06688851913477538, 0.11135734072022162, 0.3739130434782609, 0.10426638917793965, 0.06264308012486992, 0.05734664764621968, 0.35658362989323844, 0.4981366459627328, 0.24984423676012465, 0.06710963455149502, 0.2, 0.3327800829875519, 0.33259668508287293, 0.3322314049586777, 0.2851063829787234, 0.20000000000000004, 0.33223140495867765, 0.7940594059405941, 0.1923224568138196, 0.5701067615658363, 0.2997506234413965, 0.6488778054862844, 0.7465838509316771, 0.19049881235154395, 0.1389736477115118, 0.23071017274472172, 0.2914760914760915, 0.3739130434782609, 0.0005249343832020997, 0.0004158004158004158, 0.217353579175705, 0.19049881235154395, 0.24938271604938272, 0.12546583850931678, 0.22209944751381216, 0.39801980198019804, 0.4962962962962963, 0.19999999999999998, 0.004878048780487807, 0.004878048780487807, 0.003278688524590165, 0.009523809523809523, 0.009523809523809523, 0.5941730934018852, 0.4064799560680944, 0.40897217490062465, 0.41877110060769746, 0.3727349703640982, 0.16532957065107842, 0.12628124211057815, 0.1720995117414555, 0.2540761982793937, 0.22301330456670265, 0.0666819905757959, 0.046816894471124255, 0.055886049434436535, 0.10391690110365723, 0.19271023171049204, 0.04927345866513423, 0.04723283105339907, 0.06277586026566259, 0.07929932233729703, 0.10702822357498616, 0.052398523985239864, 0.02958003651856361, 0.034759955340528476, 0.03482194640992924, 0.011531593802200334 ;
}
probability ( comment_num | has_labels, participants_count, priorities_number ) {
    table 0.9441628385870426, 0.8933660359729035, 0.8585878619595398, 0.8983822042467139, 0.8557312252964426, 0.15209713024282562, 0.12629424512400675, 0.08315303620366364, 0.025207147848657283, 0.010407993338884263, 0.9986301369863013, 0.9827586206896551, 0.9559585492227979, 0.82, 0.5, 0.3048780487804878, 0.4646017699115044, 0.21597633136094674, 0.12790697674418605, 0.04639175257731959, 0.05583716141295739, 0.10663396402709648, 0.14141213804046013, 0.10161779575328615, 0.1442687747035573, 0.8479028697571744, 0.8737057548759932, 0.9168469637963363, 0.9747928521513427, 0.9895920066611157, 0.0013698630136986301, 0.017241379310344827, 0.04404145077720207, 0.18, 0.5, 0.6951219512195121, 0.5353982300884956, 0.7840236686390533, 0.872093023255814, 0.9536082474226805 ;
}
probability ( commit_num | author_identity, close_num, file_changed_num ) {
    table 0.0511638898735673, 0.010904271341647087, 0.010589571653658715, 0.3333333333333333, 0.4743984220907298, 0.16893224585532277, 0.03169960286318993, 0.3333333333333333, 0.6536777897380697, 0.34773830959786106, 0.0677238189626693, 0.009009009009009009, 0.6495713008258376, 0.42830457651280535, 0.10463736529846226, 0.0045662100456621, 0.7172014522617997, 0.47697709679993616, 0.10644774197324902, 0.0021231422505307855, 0.3333333333333333, 0.3333333333333333, 0.3333333333333333, 0.3333333333333333, 0.5677378701953371, 0.2826546003016592, 0.03837312113174182, 0.3333333333333333, 0.7803116685670848, 0.3017468293850204, 0.04070530857250047, 0.025641025641025647, 0.7917860553963706, 0.6462917685411572, 0.13080168776371306, 0.02564102564102564, 0.6576576576576577, 0.7098039215686275, 0.497716894977169, 0.3333333333333333, 0.7365473581689799, 0.41661846925004825, 0.09410229025750565, 0.3333333333333333, 0.8035494640660693, 0.3726504569753406, 0.07578271932735924, 0.3333333333333333, 0.640697260761295, 0.1366120218579235, 0.034768740031897935, 0.3333333333333333, 0.6133711762850836, 0.3969808241534068, 0.1033267239480062, 0.3333333333333333, 0.9266569908079343, 0.44437100682969827, 0.12933245401919838, 0.22256410256410253, 0.9487179487179488, 0.9890354840653052, 0.9893737862298925, 0.3333333333333333, 0.5255226824457594, 0.8310144463990617, 0.9682766164895008, 0.3333333333333333, 0.34625044851094366, 0.6522071260981066, 0.9322507687225229, 0.3333333333333333, 0.3503760980484982, 0.5716462665290272, 0.8953384186947572, 0.497716894977169, 0.28270042194092826, 0.522943101109249, 0.8935229900196094, 0.38428874734607216, 0.3333333333333333, 0.3333333333333333, 0.3333333333333333, 0.3333333333333333, 0.43163201008191554, 0.7170437405731525, 0.961450044208665, 0.3333333333333333, 0.2193082478145192, 0.6980138789184016, 0.9591071093603453, 0.9487179487179489, 0.20725883476599807, 0.35289323553382235, 0.8685955394816154, 0.02564102564102564, 0.3333333333333333, 0.28627450980392155, 0.497716894977169, 0.3333333333333333, 0.26320915510104703, 0.583188741083478, 0.9057790435504925, 0.3333333333333333, 0.19627481989105608, 0.6271770994999138, 0.9241066489655936, 0.3333333333333333, 0.35894699395233015, 0.8629676334594368, 0.9649122807017545, 0.3333333333333333, 0.3863134657836645, 0.6026111791105672, 0.8964529632077551, 0.3333333333333333, 0.07324625060474117, 0.555408680326063, 0.8705942698028871, 0.6287179487179487, 0.00011816140848398913, 6.024459304777396e-05, 3.664211644864607e-05, 0.3333333333333333, 7.889546351084812e-05, 5.330774561543792e-05, 2.378064730921975e-05, 0.3333333333333333, 7.176175098672408e-05, 5.456430403230207e-05, 2.5412314807755832e-05, 0.6576576576576577, 5.260112566408921e-05, 4.9156958167428594e-05, 2.4216006780481893e-05, 0.497716894977169, 9.812579727210284e-05, 7.980209081477934e-05, 2.9268007141393737e-05, 0.6135881104033971, 0.3333333333333333, 0.3333333333333333, 0.3333333333333333, 0.3333333333333333, 0.0006301197227473219, 0.000301659125188537, 0.00017683465959328028, 0.3333333333333333, 0.0003800836183960471, 0.00023929169657812877, 0.00018758206715438006, 0.025641025641025647, 0.0009551098376313275, 0.0008149959250203748, 0.0006027727546714888, 0.9487179487179487, 0.009009009009009009, 0.00392156862745098, 0.0045662100456621, 0.3333333333333333, 0.00024348672997321648, 0.00019278966647387702, 0.00011866619200189867, 0.3333333333333333, 0.00017571604287471446, 0.00017244352474564582, 0.00011063170704723974, 0.3333333333333333, 0.0003557452863749555, 0.0004203446826397646, 0.00031897926634768745, 0.3333333333333333, 0.000315357931251971, 0.0004079967360261118, 0.00022031284423881914, 0.3333333333333333, 9.675858732462506e-05, 0.00022031284423881914, 7.327617791455998e-05, 0.1487179487179487 ;
}
probability ( file_changed_num | total_add_line, total_delete_line ) {
    table 0.7787848182011482, 0.6316447069513857, 0.5486292428198433, 0.5306652806652807, 0.3947201017811704, 0.45659780073308903, 0.19927469702533973, 0.07388097660223804, 0.04542889390519188, 0.035995702005730656, 0.4455521472392638, 0.08154423176409725, 0.01134055517941774, 0.00823878984332793, 0.014586943963027153, 0.4349489795918367, 0.009704251386321628, 0.0012379155859467109, 0.002408364661654135, 9.104151493080847e-05, 0.33317025440313114, 0.02955426356589147, 0.00033738191632928474, 0.0012536692759295498, 0.028391572456320655, 0.16853604082500534, 0.3295093139482054, 0.4115535248041775, 0.40592515592515593, 0.5028625954198472, 0.37829056981006337, 0.5380554535438855, 0.6537385554425228, 0.5251128668171557, 0.5266833810888252, 0.4148773006134969, 0.49282203828246246, 0.39161588806138575, 0.22163695299837927, 0.1474581166955517, 0.35841836734693877, 0.3701478743068392, 0.23349445885404388, 0.02942904135338346, 0.016478514202476334, 0.450587084148728, 0.24273255813953487, 0.06106612685560054, 0.0030883072407045012, 0.015544707091469679, 0.05265256219434404, 0.03873239436619718, 0.03949086161879895, 0.0628898128898129, 0.10209923664122136, 0.165028323892036, 0.26262394417921414, 0.2722533062054934, 0.429176072234763, 0.43714183381088817, 0.1388036809815951, 0.42556906363166064, 0.5969871360866621, 0.7699891950297137, 0.8378105141536685, 0.20535714285714285, 0.6196857670979667, 0.7652086771987738, 0.9681038533834587, 0.9833394027676621, 0.21575342465753428, 0.7272286821705426, 0.9382591093117408, 0.9956274461839532, 0.8248972250770811, 2.6578779502445253e-05, 0.00011358473421172194, 0.00032637075718015666, 0.0005197505197505199, 0.0003180661577608142, 8.330556481172944e-05, 4.5905251560778564e-05, 0.0001271617497456765, 0.00028216704288939055, 0.0001790830945558739, 0.0007668711656441718, 6.466632177961717e-05, 5.642067253441662e-05, 0.0001350621285791464, 0.0001444251877527441, 0.0012755102040816326, 0.00046210720887245846, 5.894836123555766e-05, 5.874060150375941e-05, 9.104151493080847e-05, 0.0004892367906066537, 0.00048449612403100775, 0.00033738191632928474, 3.0577299412915856e-05, 0.13116649537512845 ;
}
probability ( has_assignees_content | comment_num, has_labels, workload ) {
    table 0.9258193645233925, 0.8791862717962912, 0.8910909777274443, 0.9682696097753252, 0.999758337361044, 0.6785063752276868, 0.27235772357723576, 0.8448275862068966, 0.5, 0.5, 0.9951878707976269, 0.9910857002336161, 0.9962150471188012, 0.9999052491946182, 0.9999193678438961, 0.49256505576208176, 0.40532544378698226, 0.9, 0.5, 0.5, 0.07418063547660746, 0.12081372820370882, 0.10890902227255568, 0.03173039022467481, 0.0002416626389560174, 0.3214936247723133, 0.7276422764227642, 0.15517241379310345, 0.5, 0.5, 0.0048121292023731044, 0.008914299766383868, 0.003784952881198826, 9.475080538184574e-05, 8.063215610385422e-05, 0.5074349442379182, 0.5946745562130178, 0.1, 0.5, 0.5 ;
}
probability ( has_bug | body_words ) {
    table 0.8805193001943904, 0.9472986178975289, 0.9995017546900048, 0.11948069980560953, 0.05270138210247102, 0.0004982453099952343 ;
}
probability ( has_document | body_words ) {
    table 0.9867397945015273, 0.9937875191958676, 0.999891685802175, 0.013260205498472644, 0.006212480804132346, 0.00010831419782505092 ;
}
probability ( has_feature | body_words ) {
    table 0.9742432657595111, 0.9958816138489459, 0.999891685802175, 0.02575673424048875, 0.004118386151054028, 0.00010831419782505092 ;
}
probability ( has_improve | body_words ) {
    table 0.9746598167175784, 0.9916934245427893, 0.9996317317273948, 0.025340183282421547, 0.008306575457210665, 0.00036826827260517313 ;
}
probability ( has_labels ) {
    table 0.9720797949046627, 0.027920205095337287 ;
}
probability ( has_refactor | body_words ) {
    table 0.9875728964176617, 0.9946251570570989, 0.999891685802175, 0.012427103582338237, 0.005374842942901019, 0.00010831419782505092 ;
}
probability ( is_weekday | change_num, priorities_number ) {
    table 0.02861952861952862, 0.18672456575682383, 0.03377735490009515, 0.09014161220043572, 0.09174217462932453, 0.10666023166023167, 0.08041082164328657, 0.013700692562481178, 0.05525606469002695, 0.07013314967860422, 0.06956289978678037, 0.08565945568736916, 0.035223618824905, 0.057871022247254295, 0.07376166547020818, 0.16680048173424325, 0.13334583645911477, 0.061641359363702096, 0.04635325131810193, 0.0869330453563715, 0.20573338735818475, 0.21505979073243645, 0.09088252483927527, 0.08182230281051676, 0.11257309941520469, 0.9713804713804715, 0.8132754342431762, 0.9662226450999049, 0.9098583877995642, 0.9082578253706755, 0.8933397683397684, 0.9195891783567134, 0.9862993074375188, 0.944743935309973, 0.9298668503213957, 0.9304371002132196, 0.9143405443126308, 0.964776381175095, 0.9421289777527456, 0.9262383345297918, 0.8331995182657567, 0.8666541635408852, 0.9383586406362978, 0.953646748681898, 0.9130669546436285, 0.7942666126418152, 0.7849402092675635, 0.9091174751607247, 0.9181776971894832, 0.8874269005847953 ;
}
probability ( mergable_state | has_labels ) {
    table 0.3469595197868161, 0.711142993782879, 0.649345476023681, 0.2864658058345289, 0.0036950041895028917, 0.0023912003825920613 ;
}
probability ( participants_count | has_labels, priorities_number ) {
    table 0.7359524364653766, 0.5075883329381077, 0.2666596149777872, 0.08986007632200618, 0.02287109021876695, 0.8990147783251231, 0.6978609625668449, 0.5331491712707183, 0.16233766233766234, 0.01020408163265306, 0.26404756353462344, 0.4924116670618923, 0.7333403850222128, 0.9101399236779938, 0.977128909781233, 0.10098522167487685, 0.30213903743315507, 0.46685082872928174, 0.8376623376623377, 0.9897959183673469 ;
}
probability ( pre_prs | close_num ) {
    table 0.9995891114535181, 6.884681583476767e-05, 7.806401249024201e-05, 7.578628268283443e-05, 8.233841086867023e-05, 0.0001027221366204417, 0.9997246127366611, 0.0016393442622950824, 7.578628268283443e-05, 8.233841086867023e-05, 0.0001027221366204417, 6.884681583476767e-05, 0.9829039812646371, 7.578628268283443e-05, 0.014903252367229313, 0.0001027221366204417, 6.884681583476767e-05, 0.015300546448087435, 0.9383099658961729, 0.035899547138740225, 0.0001027221366204417, 6.884681583476767e-05, 7.806401249024201e-05, 0.06146267525577871, 0.9490325236722931 ;
}
probability ( priorities_number | has_labels, mergable_state, workload ) {
    table 0.182717827384014, 0.1440815799664386, 0.1275078514686865, 0.16415649978965083, 0.2, 0.2754919020211484, 0.15741738688357906, 0.20305639781685872, 0.20154523017491147, 0.12385713133919213, 0.76353591160221, 0.6540540540540541, 0.7280000000000001, 0.7280000000000001, 0.2, 0.3311935807422267, 0.29707865168539327, 0.5627906976744186, 0.2, 0.2, 0.2366812227074236, 0.1667590027700831, 0.8857142857142855, 0.2, 0.2, 0.2, 0.2, 0.2, 0.2, 0.2, 0.2043205431539965, 0.1897766877500968, 0.2538703122113431, 0.184350021034918, 0.2, 0.175103734439834, 0.14704626334519572, 0.15284414796846574, 0.15711986264620667, 0.15191485930823187, 0.034254143646408844, 0.1675675675675676, 0.24800000000000005, 0.008, 0.2, 0.27703109327983955, 0.3240449438202247, 0.2837209302325581, 0.2, 0.2, 0.18427947598253275, 0.2332409972299169, 0.028571428571428557, 0.2, 0.2, 0.2, 0.2, 0.2, 0.2, 0.2, 0.23147824297911737, 0.2579321027494514, 0.2372436726399409, 0.2070677324358435, 0.2, 0.17670994512113505, 0.16534824605998985, 0.20305639781685872, 0.18544908251958364, 0.14320728855921955, 0.13370165745856352, 0.1675675675675676, 0.008, 0.008, 0.2, 0.22286860581745235, 0.22966292134831462, 0.004651162790697674, 0.2, 0.2, 0.34148471615720527, 0.382825484764543, 0.028571428571428557, 0.2, 0.2, 0.2, 0.2, 0.2, 0.2, 0.2, 0.22468881802283716, 0.24089324899961276, 0.2161832625161648, 0.24240639461506103, 0.2, 0.2361397403292732, 0.3020030503304525, 0.24380836870830808, 0.22279214507994421, 0.1509473514472305, 0.06740331491712706, 0.005405405405405406, 0.008, 0.24800000000000005, 0.2, 0.10852557673019059, 0.09483146067415729, 0.14418604651162795, 0.2, 0.2, 0.13187772925764193, 0.11689750692520776, 0.028571428571428557, 0.2, 0.2, 0.2, 0.2, 0.2, 0.2, 0.2, 0.15679456846003498, 0.1673163805344004, 0.1651949011638648, 0.20201935212452674, 0.2, 0.13655467808860927, 0.22818505338078293, 0.1972346876895088, 0.233093679579354, 0.43007336934612583, 0.0011049723756906076, 0.005405405405405406, 0.008, 0.008, 0.2, 0.06038114343029088, 0.05438202247191011, 0.004651162790697674, 0.2, 0.2, 0.10567685589519651, 0.10027700831024931, 0.028571428571428557, 0.2, 0.2, 0.2, 0.2, 0.2, 0.2, 0.2 ;
}
probability ( title_words | author_identity, change_num, pre_prs, workload ) {
