network unknown {
}
variable accept_num {
    type discrete [ 4 ] { 0, 1, 2, 3 };
}
variable author_identity {
    type discrete [ 3 ] { 0, 1, 2 };
}
variable body_words {
    type discrete [ 5 ] { 0, 1, 2, 3, 4 };
}
variable change_num {
    type discrete [ 4 ] { 0, 1, 2, 3 };
}
variable close_num {
    type discrete [ 4 ] { 0, 1, 2, 3 };
}
variable comment_num {
    type discrete [ 5 ] { 0, 1, 2, 3, 4 };
}
variable commit_num {
    type discrete [ 5 ] { 0, 1, 2, 3, 4 };
}
variable file_changed_num {
    type discrete [ 4 ] { 0, 1, 2, 4 };
}
variable has_assignees_content {
    type discrete [ 2 ] { 0, 1 };
}
variable has_bug {
    type discrete [ 2 ] { 0, 1 };
}
variable has_document {
    type discrete [ 2 ] { 0, 1 };
}
variable has_feature {
    type discrete [ 2 ] { 0, 1 };
}
variable has_improve {
    type discrete [ 2 ] { 0, 1 };
}
variable has_labels {
    type discrete [ 2 ] { 0, 1 };
}
variable has_refactor {
    type discrete [ 2 ] { 0, 1 };
}
variable is_weekday {
    type discrete [ 2 ] { 0, 1 };
}
variable label_count {
    type discrete [ 2 ] { 0, 1 };
}
variable mergable_state {
    type discrete [ 3 ] { 0, 1, 2 };
}
variable participants_count {
    type discrete [ 4 ] { 0, 1, 2, 4 };
}
variable pre_prs {
    type discrete [ 4 ] { 0, 1, 2, 3 };
}
variable priorities_number {
    type discrete [ 5 ] { 0, 1, 2, 3, 4 };
}
variable review_comment_num {
    type discrete [ 3 ] { 0, 1, 2 };
}
variable review_num {
    type discrete [ 2 ] { 0, 1 };
}
variable title_words {
    type discrete [ 5 ] { 0, 1, 2, 3, 4 };
}
variable total_add_line {
    type discrete [ 5 ] { 0, 1, 2, 3, 4 };
}
variable total_delete_line {
    type discrete [ 5 ] { 0, 1, 2, 3, 4 };
}
variable workload {
    type discrete [ 5 ] { 0, 1, 2, 3, 4 };
}
probability ( accept_num | author_identity, workload ) {
    table 0.014812138728323699, 0.021205638056883965, 0.03707191780821918, 0.00014534883720930232, 0.0001875468867216804, 0.4174253459577567, 0.5943372270187912, 0.673872950819672, 0.247, 0.06639316811788346, 0.0002702702702702703, 0.00032258064516129027, 0.00038167938931297704, 0.00048076923076923074, 0.0008389261744966443, 0.09544797687861271, 0.0936949408507425, 0.041181506849315076, 0.005377906976744187, 0.0001875468867216804, 0.47969774217042965, 0.36884205180294566, 0.23862704918032784, 0.5778571428571427, 0.4722873409243134, 0.01972972972972973, 0.02354838709677419, 0.009541984732824428, 0.00048076923076923074, 0.0008389261744966443, 0.4535404624277457, 0.4372640322174679, 0.47885273972602743, 0.46409883720930234, 0.4300450112528132, 0.09732337946103423, 0.030599288979177245, 0.08124999999999998, 0.14928571428571427, 0.40296383121232415, 0.08783783783783784, 0.062258064516129016, 0.07366412213740457, 0.18509615384615385, 0.1115771812080537, 0.4361994219653179, 0.4478353888749056, 0.44289383561643836, 0.5303779069767443, 0.5695798949737434, 0.005553532410779315, 0.006221432199085829, 0.006249999999999999, 0.025857142857142856, 0.058355659745478905, 0.8921621621621622, 0.9138709677419354, 0.916412213740458, 0.8139423076923077, 0.886744966442953 ;
}
probability ( author_identity | body_words, file_changed_num, workload ) {
    table 0.5212266241247895, 0.5308860386259767, 0.38706788464982983, 0.37772844987051424, 0.2581251678753693, 0.5808934380703007, 0.6840951441411816, 0.6450356039231493, 0.8441890166028096, 0.32259796027911974, 0.6221687341850275, 0.6367622555467859, 0.6457248640518338, 0.5288367546432062, 0.4610472541507024, 0.20132013201320131, 0.49593495934959353, 0.3333333333333333, 0.015873015873015876, 0.00546448087431694, 0.4924779311202287, 0.5672929221316317, 0.4156840726183792, 0.3483061950215235, 0.15929109625384696, 0.6143731807688447, 0.7402190923317684, 0.5805122693892173, 0.4399289362647124, 0.353646150721105, 0.5533446574456038, 0.6489543673784693, 0.4999256284396847, 0.5140275796481217, 0.297910024796316, 0.4989648033126293, 0.5543278084714548, 0.49593495934959353, 0.49794238683127573, 0.0027548209366391185, 0.34904919063334905, 0.4776975754210624, 0.30139174081679215, 0.2564595344864403, 0.11452373782997086, 0.5085451673129399, 0.601457763894312, 0.4553026922504834, 0.3924957185115989, 0.27208134264363587, 0.4974965115324632, 0.6045723142497336, 0.546819404668923, 0.4697973108569135, 0.3888580418286137, 0.015873015873015876, 0.3333333333333333, 0.015873015873015872, 0.49593495934959353, 0.07790549169859513, 0.317083079423116, 0.5404006302048165, 0.32222839163427724, 0.3188510741008931, 0.13645312736634865, 0.4086629001883239, 0.46661730223374054, 0.4131901418146771, 0.4578857231823136, 0.31250929644503944, 0.40365359626996866, 0.6742641894911575, 0.5372753839457813, 0.45886112062079193, 0.38331250867694017, 0.3333333333333333, 0.6612021857923498, 0.9682539682539684, 0.9682539682539684, 0.002364066193853428, 0.37731699654414075, 0.45440786984487325, 0.37497633920121143, 0.367067257010331, 0.23640769347266394, 0.26090892630816587, 0.329270769855779, 0.4031976353620852, 0.39434471430247564, 0.3653692135191414, 0.3686779432803164, 0.44650529183694854, 0.4798266495757798, 0.5430582489406018, 0.5448468522398483, 0.5973597359735974, 0.3333333333333333, 0.00411522633744856, 0.00411522633744856, 0.49593495934959353, 0.3404236461933883, 0.3539731682146543, 0.47304316675622426, 0.4665186829448761, 0.6932581251678754, 0.24287867967944138, 0.151375643976762, 0.2580948542254467, 0.15453384418901656, 0.48362855609232425, 0.144479417391841, 0.12637025344207664, 0.15284044891819967, 0.2942326490713587, 0.3844189016602809, 0.0033003300330033004, 0.008130081300813009, 0.3333333333333333, 0.9682539682539684, 0.9890710382513661, 0.3656595797587964, 0.3049745952971759, 0.5279805352798054, 0.5728991203443758, 0.7960309880080653, 0.24701395162099768, 0.16026880235662339, 0.2903456922801361, 0.42660448589829003, 0.5730245785090392, 0.21847448030413327, 0.17883352645809192, 0.3482076453964004, 0.22872087494056115, 0.5954658165072618, 0.12629399585921322, 0.0018416206261510127, 0.008130081300813009, 0.49794238683127573, 0.9944903581267218, 0.5942165645135942, 0.4554876920229502, 0.6436230892083048, 0.6408285287209055, 0.8371976312355714, 0.40514146201349993, 0.29688923597553035, 0.4553026922504834, 0.48591001089833413, 0.6616440034301114, 0.40392349995895915, 0.27908553715005324, 0.369782174780873, 0.385510736504114, 0.4776975754210624, 0.9682539682539684, 0.3333333333333333, 0.015873015873015872, 0.49593495934959353, 0.8441890166028098, 0.6339630306723543, 0.445869907720009, 0.5887469924116232, 0.6374607772145788, 0.8270483113736181, 0.5390409966681153, 0.47402196717265205, 0.47927853504061685, 0.43920286470496656, 0.6427190242451287, 0.5228923029886111, 0.25671965779224926, 0.38804949325374616, 0.410932329111035, 0.558239622379564, 0.3333333333333333, 0.3333333333333333, 0.015873015873015876, 0.015873015873015876, 0.9952718676122931, 0.565818410304744, 0.477109345440787, 0.5112625402233579, 0.4935694707990723, 0.6543995153718007, 0.6737280463516205, 0.6461507211050173, 0.4999328227865108, 0.514020884665024, 0.6152490789684447, 0.5554994530000841, 0.48422927800482024, 0.40291765854849537, 0.26725562019679666, 0.39519106056071035, 0.39933993399339934, 0.3333333333333333, 0.25102880658436216, 0.25102880658436216, 0.49593495934959353, 0.1383497296818222, 0.11514079315936902, 0.13988894859394593, 0.1557528671846097, 0.04861670695675531, 0.17622788225025787, 0.16452921188205633, 0.096869541851404, 0.0012771392081736906, 0.1937734836285561, 0.2333518484231315, 0.2368674910111374, 0.20143468702996642, 0.17693059628543498, 0.15453384418901658, 0.7953795379537953, 0.49593495934959353, 0.3333333333333333, 0.015873015873015876, 0.00546448087431694, 0.14186248912097474, 0.12773248257119224, 0.056335392101815464, 0.07879468463410069, 0.04467791573808765, 0.13861286761015756, 0.0995121053116082, 0.1291420383306466, 0.13346657783699759, 0.07332927076985578, 0.22818086225026285, 0.1722121061634387, 0.15186672616391492, 0.25725154541131723, 0.10662415869642225, 0.3747412008281573, 0.4438305709023941, 0.49593495934959353, 0.00411522633744856, 0.0027548209366391185, 0.05673424485305673, 0.06681473255598741, 0.054985169974903034, 0.1027119367926543, 0.04827863093445749, 0.08631337067356025, 0.10165300013015749, 0.08939461549903317, 0.12159427059006696, 0.0662746539262526, 0.09857998850857752, 0.11634214860021311, 0.08339842055020392, 0.14469195263897253, 0.13344438275032391, 0.015873015873015876, 0.3333333333333333, 0.9682539682539681, 0.008130081300813009, 0.07790549169859513, 0.04895388990452976, 0.013729462075174432, 0.08902461595409959, 0.04368814868452812, 0.03649856126003332, 0.05229610314356077, 0.05936073059360731, 0.10753132314470605, 0.10291141211271992, 0.04477167930983192, 0.07345410074142016, 0.06901615271659324, 0.07467512280047255, 0.130206550268173, 0.05844786894349577, 0.3333333333333333, 0.00546448087431694, 0.015873015873015876, 0.015873015873015876, 0.002364066193853428, 0.0568645931511153, 0.06848278471433977, 0.11376112057543064, 0.1393632721905967, 0.10919279115553537, 0.06536302734021365, 0.02457850903920374, 0.096869541851404, 0.0916344010325003, 0.019381707512413904, 0.07582260371959942, 0.06926543015823117, 0.11725569187572484, 0.18968613086260144, 0.05996208719944129, 0.0033003300330033004, 0.3333333333333333, 0.7448559670781894, 0.7448559670781894, 0.008130081300813009 ;
}
probability ( body_words | priorities_number, workload ) {
    table 0.4409730140630938, 0.30274790919952205, 0.23139198678232134, 0.1254498714652956, 0.2105184072126221, 0.299274705349048, 0.26563039723661486, 0.21119023397761952, 0.07297734627831715, 0.06609498680738785, 0.258252427184466, 0.16069031639501438, 0.1629812438302073, 0.046438482886216464, 0.04978274363749223, 0.19503058103975535, 0.15132325141776937, 0.11299559471365637, 0.007900852052672346, 0.03412644459551325, 0.20784856879039704, 0.1178208679593721, 0.16436525612472158, 0.023687752355316286, 0.019932049830124574, 0.24522995058912958, 0.31867781760254876, 0.2107393638992152, 0.2636246786632391, 0.32697220135236665, 0.24487760652765184, 0.2764248704663212, 0.17049847405900304, 0.20647249190938513, 0.2837730870712401, 0.20088261253309797, 0.2757430488974113, 0.12843040473840078, 0.138945420906568, 0.20806952203600249, 0.20840978593272172, 0.2623818525519849, 0.1212555066079295, 0.09310611928737411, 0.09530931339225016, 0.1778393351800554, 0.274792243767313, 0.0864142538975501, 0.05397039030955585, 0.06806342015855038, 0.14070695553021664, 0.20915969733174034, 0.17769516728624535, 0.23149100257069408, 0.22930127723516153, 0.2154125113327289, 0.15984455958549224, 0.20610376398779245, 0.2145631067961165, 0.3101583113456464, 0.2030891438658429, 0.2302013422818792, 0.1876604146100691, 0.2545790934320074, 0.3477343265052762, 0.18356269113149848, 0.14187145557655953, 0.18733480176211453, 0.20929512006196743, 0.2652617267165194, 0.15937211449676825, 0.12705447830101568, 0.1866369710467706, 0.12126514131897712, 0.1699886749716874, 0.09889775750665146, 0.11557148546395857, 0.18595621643948781, 0.2122107969151671, 0.1391435011269722, 0.15648232094288306, 0.2008635578583765, 0.2188199389623601, 0.2105177993527508, 0.19802110817941948, 0.15233892321270961, 0.2062320230105465, 0.27650542941757156, 0.24995374653098984, 0.22048417132216014, 0.22561162079510702, 0.28128544423440455, 0.2616740088105727, 0.25964368706429125, 0.28565601631543164, 0.24709141274238225, 0.27017543859649124, 0.27015590200445433, 0.28277254374158817, 0.2747451868629671, 0.07419232231090839, 0.05384309040223018, 0.19421726559273028, 0.16722365038560408, 0.09406461307287754, 0.08395285584768811, 0.09723661485319515, 0.1933875890132248, 0.29546925566343046, 0.14195250659630604, 0.18543689320388348, 0.1271332694151486, 0.2444225074037512, 0.31008325624421834, 0.17392923649906888, 0.18738532110091743, 0.16313799621928166, 0.31674008810572685, 0.43005422153369477, 0.31964649898028547, 0.20784856879039704, 0.21015697137580794, 0.2924276169265033, 0.5183041722745626, 0.46727066817667035 ;
}
probability ( change_num | author_identity, close_num, pre_prs, workload ) {
    table 0.0010373443983402492, 0.00021682567215958371, 0.0001445922498554077, 0.25, 0.25, 0.25, 0.25, 0.25, 0.25, 0.25, 0.25, 0.25, 0.25, 0.25, 0.25, 0.25, 0.25, 0.25, 0.25, 0.25, 0.0017241379310344823, 0.002577319587628865, 0.25, 0.25, 0.25, 4.649432769202158e-05, 4.567878677142335e-05, 0.00030599755201958387, 0.7474093264248706, 0.25, 0.0017241379310344825, 0.001037344398340249, 0.000741839762611276, 0.005102040816326531, 0.005102040816326531, 0.25, 0.25, 0.25, 0.25, 0.25, 0.25, 0.25, 0.25, 0.25, 0.25, 0.25, 0.00028901734104046245, 0.00028901734104046245, 0.9846938775510207, 0.9846938775510207, 0.0030275459622262657, 0.008034868824151954, 0.02390686100248845, 0.009547663922229938, 0.03089237495178089, 0.25, 0.25, 0.25, 0.25, 0.25, 0.25, 0.25, 0.25, 0.25, 0.25, 0.25, 0.25, 0.25, 0.25, 0.25, 7.546030787805614e-05, 0.011420118343195264, 6.851192107426691e-05, 0.025760811532301118, 0.00019275250578257514, 0.001598052528731825, 7.450898578368551e-06, 0.0019109667709612263, 0.006305273501473961, 2.0584602717167558e-05, 0.7348412079005824, 0.8057438897698072, 0.4518440646579993, 0.9999206936660673, 0.6161903608621943, 0.0005773672055427251, 0.9846938775510207, 0.37467532467532466, 0.9980519480519479, 0.25, 0.25, 0.25, 0.25, 0.25, 0.25, 0.25, 0.25, 0.25, 0.25, 0.25, 0.25, 0.0010373443983402492, 0.4987046632124353, 0.25, 0.001295336787564767, 0.07901481307312487, 0.19565709627751107, 0.37789148601186867, 0.7836485188741967, 0.3922597352771916, 0.25, 0.005102040816326531, 0.4974226804123711, 0.005102040816326532, 0.10015608740894905, 0.25, 0.25, 0.25, 0.25, 0.25, 0.25, 0.25, 0.25, 0.25, 0.25, 0.000741839762611276, 0.00047258979206049145, 0.4974226804123711, 0.39937759336099593, 0.14317507418397626, 6.125949522175937e-05, 0.00028901734104046245, 0.15944763054633265, 0.05268566730611126, 0.0859508503539751, 0.25, 0.25, 0.25, 0.25, 0.25, 0.25, 0.25, 0.25, 0.25, 0.25, 0.25, 0.25, 0.25, 0.25, 0.25, 0.0006493506493506492, 0.0017241379310344825, 0.000741839762611276, 0.0012953367875647669, 0.0003467406380027739, 0.0004332755632582322, 0.0008650519031141869, 0.0005773672055427252, 0.0005197505197505197, 8.135372600065081e-05, 0.25, 0.25, 0.25, 0.25, 0.25, 0.25, 0.25, 0.25, 0.25, 0.25, 0.25, 0.25, 0.25, 0.25, 0.25, 0.25, 0.25, 0.25, 0.25, 0.25, 0.25, 0.25, 0.25, 0.25, 0.25, 0.000865051903114187, 0.000865051903114187, 0.002577319587628865, 0.005102040816326532, 0.25, 0.25, 0.25, 0.25, 0.25, 0.25, 0.25, 0.25, 0.25, 0.25, 0.25, 0.25, 0.25, 0.25, 0.25, 0.25, 0.25, 0.25, 0.25, 0.002577319587628865, 0.25, 0.00032509752925877764, 0.00039999999999999996, 0.39937759336099593, 0.0002168256721595837, 0.0005773672055427251, 0.25, 0.25, 0.25, 0.25, 0.25, 0.25, 0.25, 0.25, 0.25, 0.25, 0.25, 0.25, 0.25, 0.25, 0.25, 0.00039999999999999996, 0.0008650519031141869, 0.10031185031185032, 0.0012953367875647669, 0.005102040816326531, 0.0036818008393742848, 2.235136343316942e-05, 2.590942066535392e-05, 3.667302332404283e-05, 5.850690381465013e-05, 0.9968879668049794, 0.9993495229835214, 0.9995662232504335, 0.25, 0.25, 0.25, 0.25, 0.25, 0.25, 0.25, 0.25, 0.25, 0.25, 0.25, 0.25, 0.25, 0.25, 0.25, 0.25, 0.25, 0.9948275862068964, 0.9922680412371132, 0.25, 0.25, 0.25, 0.7766877440952205, 0.6753608624154942, 0.5290697674418605, 0.0012953367875647669, 0.25, 0.3327586206896551, 0.39937759336099593, 0.5704747774480712, 0.005102040816326531, 0.005102040816326531, 0.25, 0.25, 0.25, 0.25, 0.25, 0.25, 0.25, 0.25, 0.25, 0.25, 0.25, 0.2222543352601156, 0.2777456647398844, 0.005102040816326532, 0.005102040816326532, 0.06025287067829579, 0.09091795243134854, 0.12628865979381446, 0.2428578514036306, 0.22222579400797224, 0.25, 0.25, 0.25, 0.25, 0.25, 0.25, 0.25, 0.25, 0.25, 0.25, 0.25, 0.25, 0.25, 0.25, 0.25, 7.546030787805614e-05, 0.011420118343195264, 0.0658399561523705, 0.15389749065670047, 0.07420971472629144, 0.0031878249925479415, 0.0042991684797186545, 0.007614162937146026, 0.012594169669177858, 0.027686290654590363, 0.2536020892117428, 0.18897971458253598, 0.5481366459627328, 2.643544464417891e-05, 0.3836885444417535, 0.4439953810623556, 0.005102040816326532, 0.6240259740259739, 0.0006493506493506491, 0.25, 0.25, 0.25, 0.25, 0.25, 0.25, 0.25, 0.25, 0.25, 0.25, 0.25, 0.25, 0.9968879668049794, 0.4987046632124353, 0.25, 0.9961139896373059, 0.702010345638373, 0.656484919844217, 0.45346372774615473, 0.1737644973036862, 0.5782562823709955, 0.4987046632124353, 0.005102040816326531, 0.0025773195876288655, 0.9846938775510207, 0.7994276795005204, 0.25, 0.25, 0.25, 0.25, 0.25, 0.25, 0.25, 0.25, 0.25, 0.25, 0.28560830860534125, 0.00047258979206049145, 0.0025773195876288655, 0.20020746887966806, 0.8553412462908013, 0.11767949032099977, 0.05578034682080925, 0.07251735587081196, 0.5262400657714443, 0.4492025388558874, 0.25, 0.25, 0.25, 0.25, 0.25, 0.25, 0.25, 0.25, 0.25, 0.25, 0.25, 0.25, 0.25, 0.25, 0.25, 0.0006493506493506492, 0.0017241379310344825, 0.28560830860534125, 0.25, 0.26664355062413314, 0.0004332755632582322, 0.0008650519031141869, 0.0005773672055427252, 0.0005197505197505197, 0.10942076147087534, 0.25, 0.25, 0.25, 0.25, 0.25, 0.25, 0.25, 0.25, 0.25, 0.25, 0.25, 0.25, 0.25, 0.25, 0.25, 0.25, 0.25, 0.25, 0.25, 0.25, 0.25, 0.25, 0.25, 0.25, 0.25, 0.9974048442906576, 0.9974048442906576, 0.9922680412371132, 0.9846938775510207, 0.25, 0.25, 0.25, 0.25, 0.25, 0.25, 0.25, 0.25, 0.25, 0.25, 0.25, 0.25, 0.25, 0.25, 0.25, 0.25, 0.25, 0.25, 0.25, 0.9922680412371132, 0.25, 0.18758127438231473, 0.00039999999999999996, 0.001037344398340249, 0.20836947094535993, 0.0005773672055427251, 0.25, 0.25, 0.25, 0.25, 0.25, 0.25, 0.25, 0.25, 0.25, 0.25, 0.25, 0.25, 0.25, 0.25, 0.25, 0.07719999999999999, 0.16695501730103807, 0.0005197505197505198, 0.0012953367875647669, 0.005102040816326531, 0.0036818008393742848, 0.008605274921770227, 0.0050005181884133065, 0.021160334457972715, 0.022525157968640304, 0.0010373443983402492, 0.00021682567215958371, 0.0001445922498554077, 0.25, 0.25, 0.25, 0.25, 0.25, 0.25, 0.25, 0.25, 0.25, 0.25, 0.25, 0.25, 0.25, 0.25, 0.25, 0.25, 0.25, 0.0017241379310344823, 0.002577319587628865, 0.25, 0.25, 0.25, 0.22321926724939561, 0.32454778001096296, 0.47031823745410045, 0.25, 0.25, 0.6637931034482759, 0.5985477178423237, 0.4280415430267063, 0.9846938775510204, 0.9846938775510204, 0.25, 0.25, 0.25, 0.25, 0.25, 0.25, 0.25, 0.25, 0.25, 0.25, 0.25, 0.7771676300578035, 0.7216763005780348, 0.005102040816326532, 0.005102040816326532, 0.6445535546213215, 0.6096056369409013, 0.5016885886953432, 0.5333052276559864, 0.5555162659123054, 0.25, 0.25, 0.25, 0.25, 0.25, 0.25, 0.25, 0.25, 0.25, 0.25, 0.25, 0.25, 0.25, 0.25, 0.25, 0.5940990039239361, 0.35224852071005913, 0.38154288846259243, 0.6151895355045381, 0.6293369313801078, 0.04929122644321531, 0.05436920692635532, 0.047536536100439626, 0.05032754667540124, 0.09092219020172909, 0.011541694182625923, 0.005262726228880749, 9.64468963388758e-06, 2.643544464417891e-05, 6.054734802615645e-05, 0.5548498845265588, 0.005102040816326532, 0.0006493506493506492, 0.0006493506493506491, 0.25, 0.25, 0.25, 0.25, 0.25, 0.25, 0.25, 0.25, 0.25, 0.25, 0.25, 0.25, 0.0010373443983402492, 0.0012953367875647669, 0.25, 0.001295336787564767, 0.21896308488126032, 0.14783534100172085, 0.16861450890153806, 0.04256851591933221, 0.029474390945712636, 0.25, 0.9846938775510204, 0.4974226804123711, 0.005102040816326532, 0.10015608740894905, 0.25, 0.25, 0.25, 0.25, 0.25, 0.25, 0.25, 0.25, 0.25, 0.25, 0.7129080118694362, 0.9985822306238186, 0.4974226804123711, 0.39937759336099593, 0.0007418397626112761, 0.7175324675324676, 0.9436416184971098, 0.7679595532749774, 0.4210057550013703, 0.4140491496460249, 0.25, 0.25, 0.25, 0.25, 0.25, 0.25, 0.25, 0.25, 0.25, 0.25, 0.25, 0.25, 0.25, 0.25, 0.25, 0.8733766233766233, 0.3327586206896551, 0.5704747774480712, 0.7474093264248706, 0.7326629680998613, 0.16681109185441942, 0.333044982698962, 0.22228637413394925, 0.2001039501039501, 0.14066059225512528, 0.25, 0.25, 0.25, 0.25, 0.25, 0.25, 0.25, 0.25, 0.25, 0.25, 0.25, 0.25, 0.25, 0.25, 0.25, 0.25, 0.25, 0.25, 0.25, 0.25, 0.25, 0.25, 0.25, 0.25, 0.25, 0.000865051903114187, 0.000865051903114187, 0.002577319587628865, 0.005102040816326532, 0.25, 0.25, 0.25, 0.25, 0.25, 0.25, 0.25, 0.25, 0.25, 0.25, 0.25, 0.25, 0.25, 0.25, 0.25, 0.25, 0.25, 0.25, 0.25, 0.002577319587628865, 0.25, 0.6245123537061119, 0.922, 0.39937759336099593, 0.1251084128360798, 0.665704387990762, 0.25, 0.25, 0.25, 0.25, 0.25, 0.25, 0.25, 0.25, 0.25, 0.25, 0.25, 0.25, 0.25, 0.25, 0.25, 0.2308, 0.6652249134948097, 0.4994802494802495, 0.7474093264248706, 0.005102040816326531, 0.04397176650133537, 0.012896736700938757, 0.034848170794901025, 0.042283995892621384, 0.022525157968640304, 0.0010373443983402492, 0.00021682567215958371, 0.0001445922498554077, 0.25, 0.25, 0.25, 0.25, 0.25, 0.25, 0.25, 0.25, 0.25, 0.25, 0.25, 0.25, 0.25, 0.25, 0.25, 0.25, 0.25, 0.0017241379310344823, 0.002577319587628865, 0.25, 0.25, 0.25, 4.649432769202158e-05, 4.567878677142335e-05, 0.00030599755201958387, 0.0012953367875647669, 0.25, 0.0017241379310344825, 0.001037344398340249, 0.000741839762611276, 0.005102040816326531, 0.005102040816326531, 0.25, 0.25, 0.25, 0.25, 0.25, 0.25, 0.25, 0.25, 0.25, 0.25, 0.25, 0.00028901734104046245, 0.00028901734104046245, 0.005102040816326532, 0.005102040816326532, 0.2921660287381565, 0.29144154180359827, 0.34811589050835406, 0.21428925701815296, 0.19136556512794134, 0.25, 0.25, 0.25, 0.25, 0.25, 0.25, 0.25, 0.25, 0.25, 0.25, 0.25, 0.25, 0.25, 0.25, 0.25, 0.4057500754603079, 0.6249112426035502, 0.5525486434639627, 0.20515216230646022, 0.296260601387818, 0.945922896035505, 0.9413241736953477, 0.9429383341914532, 0.930773010153947, 0.8813709345409634, 1.5008705048928378e-05, 1.3669418776313634e-05, 9.64468963388758e-06, 2.643544464417891e-05, 6.054734802615645e-05, 0.0005773672055427251, 0.005102040816326532, 0.0006493506493506492, 0.0006493506493506491, 0.25, 0.25, 0.25, 0.25, 0.25, 0.25, 0.25, 0.25, 0.25, 0.25, 0.25, 0.25, 0.0010373443983402492, 0.0012953367875647669, 0.25, 0.001295336787564767, 1.1756407241946863e-05, 2.2642876551037037e-05, 3.0277340438415887e-05, 1.846790278495974e-05, 9.59140610013428e-06, 0.0012953367875647669, 0.005102040816326531, 0.0025773195876288655, 0.005102040816326532, 0.00026014568158168577, 0.25, 0.25, 0.25, 0.25, 0.25, 0.25, 0.25, 0.25, 0.25, 0.25, 0.000741839762611276, 0.00047258979206049145, 0.0025773195876288655, 0.001037344398340249, 0.0007418397626112761, 0.16472678265131097, 0.00028901734104046245, 7.546030787805614e-05, 6.851192107426693e-05, 0.05079746114411263, 0.25, 0.25, 0.25, 0.25, 0.25, 0.25, 0.25, 0.25, 0.25, 0.25, 0.25, 0.25, 0.25, 0.25, 0.25, 0.1253246753246753, 0.6637931034482759, 0.14317507418397626, 0.0012953367875647669, 0.0003467406380027739, 0.8323223570190641, 0.6652249134948097, 0.7765588914549654, 0.7988565488565489, 0.7498372925479986, 0.25, 0.25, 0.25, 0.25, 0.25, 0.25, 0.25, 0.25, 0.25, 0.25, 0.25, 0.25, 0.25, 0.25, 0.25, 0.25, 0.25, 0.25, 0.25, 0.25, 0.25, 0.25, 0.25, 0.25, 0.25, 0.000865051903114187, 0.000865051903114187, 0.002577319587628865, 0.005102040816326532, 0.25, 0.25, 0.25, 0.25, 0.25, 0.25, 0.25, 0.25, 0.25, 0.25, 0.25, 0.25, 0.25, 0.25, 0.25, 0.25, 0.25, 0.25, 0.25, 0.002577319587628865, 0.25, 0.18758127438231473, 0.07719999999999999, 0.20020746887966806, 0.6663052905464006, 0.3331408775981524, 0.25, 0.25, 0.25, 0.25, 0.25, 0.25, 0.25, 0.25, 0.25, 0.25, 0.25, 0.25, 0.25, 0.25, 0.25, 0.6916, 0.16695501730103807, 0.3996881496881497, 0.25, 0.9846938775510204, 0.948664631819916, 0.9784756370138579, 0.9601254015960203, 0.9365189966260818, 0.9548911771589047 ;
}
probability ( close_num | accept_num, author_identity, workload ) {
    table 0.2939024390243902, 0.8553412462908013, 0.9982678983833716, 0.25, 0.25, 0.9265539803707744, 0.8947340311899168, 0.9688687851604073, 0.9995662232504335, 0.9990542244640608, 0.25, 0.25, 0.25, 0.25, 0.25, 0.00018925056775170328, 0.000167897918065816, 0.0005197505197505197, 0.006756756756756756, 0.25, 0.004602391345606378, 0.13640275387263337, 0.08769858308286817, 0.181025957972806, 0.04258996631802872, 0.003424657534246576, 0.003424657534246576, 0.009999999999999997, 0.25, 0.25, 3.9827943285008755e-05, 3.597639948193984e-05, 4.46987305560522e-05, 7.829627309740057e-05, 0.00010902747492368076, 0.00023386342376052386, 0.001037344398340249, 0.00031525851197982345, 0.00023923444976076556, 5.194265530853937e-05, 0.0007692307692307691, 0.0012953367875647669, 0.0012953367875647667, 0.0006493506493506492, 0.0018796992481203009, 4.1411297001822096e-05, 3.51271603203597e-05, 4.8327856176300016e-05, 6.851192107426693e-05, 8.231807704972011e-05, 0.004098360655737705, 0.005102040816326531, 0.004098360655737705, 0.0013812154696132596, 0.00035868005738880915, 7.57346258709482e-05, 8.824567596187785e-05, 0.00010412328196584755, 0.00014766686355581805, 0.00023651844843897824, 0.7036585365853659, 0.14317507418397626, 0.000577367205542725, 0.25, 0.25, 0.07333696837513633, 0.10515915402691735, 0.03105519233693172, 0.0001445922498554077, 0.0003152585119798235, 0.25, 0.25, 0.25, 0.25, 0.25, 0.9085919757759274, 0.8947280053727334, 0.49948024948024944, 0.6554054054054054, 0.25, 0.9497532738660088, 0.8014629948364888, 0.8193430656934305, 0.8158838071693449, 0.9466849849317498, 0.9897260273972605, 0.9897260273972605, 0.9699999999999998, 0.25, 0.25, 0.01151027560936753, 0.010397179450280614, 0.008626854997318075, 0.011352959599123084, 0.005342346271260357, 0.022684752104770816, 0.0508298755186722, 0.03058007566204288, 0.09210526315789475, 0.3042281321421151, 0.0007692307692307691, 0.0012953367875647669, 0.0012953367875647667, 0.031818181818181815, 0.0018796992481203009, 4.1411297001822096e-05, 3.51271603203597e-05, 4.8327856176300016e-05, 6.851192107426693e-05, 8.231807704972011e-05, 0.004098360655737705, 0.005102040816326531, 0.004098360655737705, 0.0013812154696132596, 0.00035868005738880915, 7.57346258709482e-05, 8.824567596187785e-05, 0.00010412328196584755, 0.00014766686355581805, 0.00023651844843897824, 0.0012195121951219512, 0.0007418397626112761, 0.000577367205542725, 0.25, 0.25, 5.452562704471102e-05, 5.340739158299509e-05, 3.8011251330393786e-05, 0.0001445922498554077, 0.0003152585119798235, 0.25, 0.25, 0.25, 0.25, 0.25, 0.09102952308856929, 0.10493619879113501, 0.49948024948024944, 0.33108108108108103, 0.25, 0.04559688745492504, 0.06204819277108433, 0.09285100901674535, 0.003028430160692213, 0.010680730366956215, 0.003424657534246576, 0.003424657534246576, 0.009999999999999997, 0.25, 0.25, 0.5907678827465349, 0.6217081594474024, 0.6115233327373502, 0.7178985280300658, 0.7170737025730485, 0.808465855940131, 0.6981327800829876, 0.8023329129886508, 0.8155502392344498, 0.6183773114481613, 0.4807692307692307, 0.623056994818653, 0.18782383419689117, 0.7175324675324675, 0.4530075187969925, 0.025882060626138813, 0.0320710973724884, 0.013966750434950706, 0.0625513839408057, 0.10281527823510042, 0.004098360655737705, 0.005102040816326531, 0.004098360655737705, 0.5980662983425415, 0.1725251076040172, 0.01098152075128749, 0.01279562301447229, 0.010099958350687215, 0.02141169521559362, 0.0456480605487228, 0.0012195121951219512, 0.0007418397626112761, 0.000577367205542725, 0.25, 0.25, 5.452562704471102e-05, 5.340739158299509e-05, 3.8011251330393786e-05, 0.0001445922498554077, 0.0003152585119798235, 0.25, 0.25, 0.25, 0.25, 0.25, 0.00018925056775170328, 0.000167897918065816, 0.0005197505197505197, 0.006756756756756756, 0.25, 4.744733345985956e-05, 8.605851979345953e-05, 0.00010734220695577499, 6.180469715698394e-05, 4.4318383265378484e-05, 0.003424657534246576, 0.003424657534246576, 0.009999999999999997, 0.25, 0.25, 0.39768201370081246, 0.36785868470283495, 0.3798051135347756, 0.27067021609771375, 0.27747492368076754, 0.1686155285313377, 0.25, 0.16677175283732662, 0.09210526315789475, 0.07734261375441513, 0.5176923076923077, 0.3743523316062176, 0.8095854922279792, 0.25, 0.543233082706767, 0.9740351167798575, 0.9678586483068709, 0.9859365938526967, 0.9373115922170457, 0.8970200856108002, 0.9877049180327869, 0.9846938775510204, 0.9877049180327869, 0.39917127071823205, 0.8267575322812052, 0.9888670099969706, 0.987027885633604, 0.9896917950853811, 0.9782929710572947, 0.9538789025543992 ;
}
probability ( comment_num | file_changed_num, review_comment_num, total_add_line ) {
    table 0.8521152404412553, 0.5523773297831874, 0.35256723716381416, 0.2489795918367347, 0.9384615384615387, 0.5677751114158381, 0.24703576678098965, 0.15795620437956207, 0.09172932330827067, 0.48800000000000004, 0.3174734569012057, 0.19266335498662593, 0.07753665689149562, 0.10617906683480455, 0.13370165745856355, 0.7097875885047896, 0.528188331627431, 0.4224046920821114, 0.262882096069869, 0.9384615384615387, 0.5290891283055827, 0.33329352045386684, 0.24181867683092842, 0.16219054763690924, 0.2, 0.21578255151249454, 0.2145174594445972, 0.12964320154291226, 0.05494823019503973, 0.029828850855745718, 0.4872210953346856, 0.35150960658737423, 0.24996282527881042, 0.2651952461799661, 0.48800000000000004, 0.2995850622406639, 0.25604060913705584, 0.10622926649465536, 0.08032836728488903, 0.047074122236671005, 0.15916824196597354, 0.14975501113585746, 0.09560955687155401, 0.051554893763243806, 0.013184918084189074, 0.2, 0.2, 0.2, 0.2, 0.6402366863905326, 0.2, 0.2, 0.2, 0.2, 0.4276679841897234, 0.2, 0.2, 0.2, 0.2, 0.14295415959252972, 0.09127128628038986, 0.2739444655762647, 0.41124694376528115, 0.2489795918367347, 0.015384615384615389, 0.20575934178950975, 0.29995100440960304, 0.35065693430656936, 0.45263157894736844, 0.008, 0.1706316357746986, 0.26602980512036684, 0.183108504398827, 0.1969735182849937, 0.2, 0.1650145772594752, 0.277625383828045, 0.32387096774193547, 0.21048034934497817, 0.015384615384615389, 0.2822722820763957, 0.2938787697820245, 0.34309828478083315, 0.31522880720180046, 0.39672131147540984, 0.27891275756247264, 0.23761341765191094, 0.26850530376084863, 0.1965326270166145, 0.17652811735941318, 0.1464503042596349, 0.28563586459286366, 0.21427509293680297, 0.34668930390492364, 0.48800000000000004, 0.3991701244813279, 0.3900507614213198, 0.2079616660523406, 0.20072970507753118, 0.21872561768530563, 0.22722117202268435, 0.19251670378619154, 0.18137635286910353, 0.15739075654315332, 0.11477620130124638, 0.2, 0.2, 0.2, 0.2, 0.28520710059171595, 0.2, 0.2, 0.2, 0.2, 0.4276679841897234, 0.2, 0.2, 0.2, 0.2, 0.1837011884550085, 0.04757416729142123, 0.12788132369722324, 0.2352078239608802, 0.2489795918367347, 0.015384615384615389, 0.16462118615015423, 0.3646251837334639, 0.33313868613138686, 0.18195488721804512, 0.48800000000000004, 0.24405254633795215, 0.3210546427206725, 0.41536656891495605, 0.2575031525851198, 0.33259668508287293, 0.09004581424406495, 0.1621699078812692, 0.14791788856304983, 0.42008733624454153, 0.015384615384615389, 0.15298726738491678, 0.2508808599581965, 0.2842907704873401, 0.3242310577644411, 0.39672131147540984, 0.29995615957913196, 0.326697827880121, 0.36108003857280624, 0.3785697086443535, 0.35256723716381416, 0.21947261663286008, 0.28563586459286366, 0.3570260223048327, 0.2040747028862479, 0.008, 0.24979253112033195, 0.25604060913705584, 0.3185403612237376, 0.3612648221343874, 0.37477243172951885, 0.40869565217391307, 0.31011135857461025, 0.3725137839493568, 0.3621900234809003, 0.3160774476757858, 0.2, 0.2, 0.2, 0.2, 0.0011834319526627217, 0.2, 0.2, 0.2, 0.2, 0.048221343873517786, 0.2, 0.2, 0.2, 0.2, 0.20407470288624788, 0.007732676448538075, 0.036591860022822366, 0.0004889975550122249, 0.2489795918367347, 0.015384615384615389, 0.04120671923208776, 0.076531112199902, 0.10540145985401461, 0.09172932330827067, 0.008, 0.15551556595285226, 0.11471150171952618, 0.14791788856304985, 0.16670870113493066, 0.13370165745856355, 0.035068721366097455, 0.029518935516888438, 0.0775366568914956, 0.05327510917030568, 0.015384615384615389, 0.011949069539666993, 0.08605553896685578, 0.07846447046011434, 0.13518379594898727, 0.003278688524590164, 0.11056554142919772, 0.10893593621116306, 0.1504725168756027, 0.18786419455815073, 0.1178484107579462, 0.12210953346855985, 0.055077767612076854, 0.11613382899628254, 0.10220713073005094, 0.008, 0.05062240663900415, 0.024568527918781728, 0.21680796166605235, 0.22991790817877775, 0.23433029908972694, 0.18185255198487715, 0.17648106904231628, 0.2279354706963447, 0.253605177252162, 0.346178568628988, 0.2, 0.2, 0.2, 0.2, 0.0011834319526627217, 0.2, 0.2, 0.2, 0.2, 0.09565217391304348, 0.2, 0.2, 0.2, 0.2, 0.26519524617996604, 0.0013066295383956303, 0.00920502092050209, 0.0004889975550122249, 0.004081632653061225, 0.015384615384615389, 0.020637641412410007, 0.011856932876041153, 0.05284671532846716, 0.18195488721804512, 0.008, 0.11232679503329135, 0.10554069545280856, 0.17607038123167157, 0.2726355611601513, 0.2, 8.329862557267804e-05, 0.0024974411463664276, 0.028269794721407622, 0.05327510917030568, 0.015384615384615389, 0.023702252693437807, 0.03589131083905644, 0.0523277974407841, 0.06316579144786197, 0.003278688524590164, 0.09478298991670321, 0.11223535881220786, 0.09029893924783028, 0.18208523958584158, 0.3232273838630807, 0.024746450304259638, 0.022140896614821593, 0.06260223048327138, 0.08183361629881156, 0.008, 0.0008298755186721993, 0.0732994923857868, 0.15046074456321415, 0.1277591973244147, 0.12509752925877765, 0.023062381852551987, 0.1711358574610245, 0.12256483561364101, 0.17525914896054065, 0.20978286430979073, 0.2, 0.2, 0.2, 0.2, 0.07218934911242601, 0.2, 0.2, 0.2, 0.2, 0.0007905138339920949, 0.2, 0.2, 0.2, 0.2, 0.20407470288624788 ;
}
probability ( commit_num | file_changed_num ) {
    table 0.5004640610498092, 0.21572739187418086, 0.04254415245493719, 0.026392961876832845, 0.26368980096937195, 0.35727391874180864, 0.17679189172786308, 0.10850439882697947, 0.0805403733113334, 0.15771079073831368, 0.16198337075924016, 0.03812316715542522, 0.15520263999175002, 0.2692005242463958, 0.6186198943982522, 0.2727272727272727, 0.00010312467773538208, 8.737439930100481e-05, 6.069065970747102e-05, 0.5542521994134897 ;
}
probability ( file_changed_num ) {
    table 0.2554531085353003, 0.30150158061116966, 0.43406217070600633, 0.008983140147523709 ;
}
probability ( has_assignees_content | priorities_number ) {
    table 0.9610047846889952, 0.9867424242424242, 0.99696802646086, 0.9997314715359829, 0.9981343283582089, 0.038995215311004784, 0.013257575757575758, 0.003031973539140022, 0.0002685284640171858, 0.0018656716417910447 ;
}
probability ( has_bug | body_words ) {
    table 0.954979129397734, 0.9579680247550284, 0.9494652406417112, 0.9777070063694268, 0.9905756495160468, 0.04502087060226595, 0.04203197524497163, 0.05053475935828877, 0.022292993630573247, 0.009424350483953133 ;
}
probability ( has_document | body_words, pre_prs ) {
    table 0.8407917383820999, 0.9049195837275308, 0.8536794067313177, 0.8346397347000302, 0.9090368608799049, 0.8777928232904536, 0.8545497406883545, 0.8551401869158879, 0.9608501118568232, 0.9287949921752738, 0.8995446784291405, 0.8456389452332658, 0.9713584288052373, 0.9563758389261745, 0.9050377833753148, 0.8752594437525945, 0.9874035989717224, 0.9881980426021877, 0.9865162355531095, 0.952188695282618, 0.15920826161790017, 0.09508041627246926, 0.14632059326868227, 0.16536026529996986, 0.09096313912009513, 0.12220717670954638, 0.14545025931164546, 0.14485981308411214, 0.039149888143176735, 0.07120500782472614, 0.10045532157085942, 0.15436105476673428, 0.028641571194762683, 0.0436241610738255, 0.09496221662468514, 0.12474055624740556, 0.012596401028277636, 0.01180195739781232, 0.013483764446890478, 0.04781130471738206 ;
}
probability ( has_feature | body_words ) {
    table 0.8464519976147883, 0.8919546157813306, 0.9286096256684492, 0.9723174914257717, 0.9936321956189506, 0.15354800238521168, 0.10804538421866942, 0.07139037433155081, 0.02768250857422832, 0.006367804381049415 ;
}
probability ( has_improve | body_words, has_document ) {
    table 0.9493870402802101, 0.8386773547094188, 0.9587183308494784, 0.9378585086042065, 0.9642114642114642, 0.9664879356568364, 0.9876625099495887, 0.9920127795527156, 0.9956975228161669, 0.9505494505494505, 0.050612959719789845, 0.16132264529058116, 0.04128166915052161, 0.0621414913957935, 0.03578853578853579, 0.03351206434316354, 0.01233749005041125, 0.007987220447284345, 0.004302477183833116, 0.04945054945054945 ;
}
probability ( has_labels | label_count ) {
    table 0.0007582650894752805, 0.9998405917235222, 0.9992417349105247, 0.00015940827647771473 ;
}
probability ( has_refactor | total_delete_line ) {
    table 0.9580436941410129, 0.9894140817331364, 0.9957698815566836, 0.9981803477557623, 0.9954128440366973, 0.04195630585898709, 0.010585918266863614, 0.004230118443316413, 0.001819652244237768, 0.0045871559633027525 ;
}
probability ( is_weekday | close_num, workload ) {
    table 0.12214532871972318, 0.14307692307692307, 0.09777492511767223, 0.09317904993909866, 0.4420289855072464, 0.16827133479212253, 0.14349621472814866, 0.13280293757649939, 0.12834917891097666, 0.23427188737351518, 0.15019875070982397, 0.21675302245250433, 0.20690768237572627, 0.1983503534956795, 0.19557725445146468, 0.24707493154095095, 0.3758753924172905, 0.3317757009345794, 0.24770420492991785, 0.15831942125765164, 0.8778546712802768, 0.8569230769230769, 0.9022250748823277, 0.9068209500609014, 0.5579710144927537, 0.8317286652078775, 0.8565037852718513, 0.8671970624235006, 0.8716508210890234, 0.7657281126264848, 0.8498012492901761, 0.7832469775474957, 0.7930923176242737, 0.8016496465043205, 0.8044227455485353, 0.752925068459049, 0.6241246075827095, 0.6682242990654206, 0.7522957950700822, 0.8416805787423484 ;
}
probability ( label_count | has_assignees_content, priorities_number ) {
    table 0.3780184217077421, 0.16246229777899643, 0.13118606580038705, 0.08823529411764706, 0.06795727636849132, 0.7147239263803681, 0.17346938775510204, 0.22727272727272727, 0.5, 0.07142857142857142, 0.6219815782922579, 0.8375377022210035, 0.868813934199613, 0.9117647058823529, 0.9320427236315086, 0.2852760736196319, 0.826530612244898, 0.7727272727272727, 0.5, 0.9285714285714286 ;
}
probability ( mergable_state | author_identity ) {
    table 0.005047491173106569, 0.017295994169259664, 0.0052526525895577264, 0.00034810283952459094, 0.0008970369747428026, 0.011870994852400462, 0.9946044059873688, 0.9818069688559975, 0.9828763525580418 ;
}
probability ( participants_count | comment_num, review_comment_num ) {
    table 0.9227913415554998, 0.8595597897503287, 0.8000296912114013, 0.7091593973037272, 0.6120210135970333, 0.48862470065001706, 0.5290697674418605, 0.34651232711966323, 0.10277421717634135, 0.4047085201793722, 0.1019882179675994, 6.925207756232688e-05, 0.41438356164383566, 0.03900255754475703, 9.720062208398132e-05, 0.0740624213440725, 0.12434296977660975, 0.17651425178147268, 0.2476209357652657, 0.3338998763906057, 0.3716216216216216, 0.38586291309669524, 0.47098616957306066, 0.47907892327412566, 0.39125560538116594, 0.5040500736377025, 0.025831024930747924, 0.37328767123287676, 0.24616368286445012, 9.720062208398132e-05, 0.003083312358419331, 0.015932982917214195, 0.023307600950118763, 0.043021411578112616, 0.05392459826946847, 0.13864180636332535, 0.08476132190942473, 0.1805472038484666, 0.38953488372093026, 0.20291479820627806, 0.3891752577319587, 0.7945290858725763, 0.2089041095890411, 0.6988491048593349, 0.052585536547433906, 6.292474200855777e-05, 0.000164257555847569, 0.00014845605700712587, 0.00019825535289452818, 0.00015451174289245981, 0.0011118713650359218, 0.00030599755201958387, 0.0019542994588093803, 0.028611975828602823, 0.0011210762331838565, 0.004786450662739322, 0.17957063711911359, 0.003424657534246575, 0.0159846547314578, 0.9472200622083982 ;
}
probability ( pre_prs | accept_num, close_num ) {
    table 0.9905689676591163, 0.11805131337813073, 0.25, 0.25, 0.9082278481012658, 0.0034985789833435264, 0.0007562008469449486, 0.25, 0.25, 0.0004998000799680128, 4.354035319934515e-05, 9.297136481963555e-05, 0.25, 0.25, 0.0006659563132658498, 2.6091131102715565e-05, 0.009327508385440391, 0.8804215027489309, 0.25, 0.25, 0.09060009376465072, 0.9877774579990647, 0.41696914700544463, 0.25, 0.25, 0.8065773690523791, 0.016205719460796266, 9.297136481963555e-05, 0.25, 0.25, 0.0006659563132658498, 2.6091131102715565e-05, 5.176197772164479e-05, 0.0007635919364691509, 0.25, 0.25, 0.0005860290670417253, 0.008678994136057848, 0.5815184513006655, 0.25, 0.25, 0.1924230307876849, 0.9837071998328051, 0.33449237634808476, 0.25, 0.25, 0.9980021310602024, 0.029749107683316286, 5.176197772164479e-05, 0.0007635919364691509, 0.25, 0.25, 0.0005860290670417253, 4.4968881533978485e-05, 0.0007562008469449486, 0.25, 0.25, 0.0004998000799680128, 4.354035319934515e-05, 0.665321680922276, 0.25, 0.25, 0.0006659563132658498, 0.9701987100544783 ;
}
probability ( priorities_number | comment_num, review_comment_num ) {
    table 0.5565567581172918, 0.35886990801576873, 0.3492874109263658, 0.32133227597145125, 0.23930778739184175, 0.19815258296270954, 0.24626682986536108, 0.20757666867107635, 0.11210401025453212, 0.18923766816143497, 0.13726067746686305, 0.042437673130193906, 0.20821917808219179, 0.05421994884910485, 0.026905132192846036, 0.3247420085577649, 0.3470433639947438, 0.26021377672209023, 0.3950832672482157, 0.2986402966625463, 0.19199452617174137, 0.40048959608323137, 0.2364401683704149, 0.09232741256180185, 0.3237668161434978, 0.19469808541973493, 0.04576177285318559, 0.12602739726027398, 0.1309462915601023, 0.03506998444790047, 0.09670274351875158, 0.19329829172141919, 0.22280285035629452, 0.20951625693893736, 0.2522867737948084, 0.24125898049948685, 0.24626682986536108, 0.2671076368009621, 0.2142830983336385, 0.33721973094170404, 0.2963181148748159, 0.12304709141274237, 0.3315068493150685, 0.4071611253196931, 0.11321928460342147, 0.02194815001258495, 0.08094612352168201, 0.13016627078384796, 0.06439333862014275, 0.17626699629171816, 0.23304823811152928, 0.08837209302325581, 0.19855682501503305, 0.2961362387841055, 0.08161434977578476, 0.2477172312223859, 0.30088642659279774, 0.16712328767123288, 0.27672634271099744, 0.2706842923794712, 5.0339793606846214e-05, 0.019842312746386336, 0.03752969121140142, 0.009674861221252974, 0.03349814585908529, 0.135545672254533, 0.018604651162790697, 0.09031870114251353, 0.285149240065922, 0.06816143497757848, 0.1240058910162003, 0.48786703601108034, 0.16712328767123288, 0.1309462915601023, 0.5541213063763608 ;
}
probability ( review_comment_num | commit_num, total_add_line ) {
    table 0.6220584875485493, 0.6812155344362313, 0.5167310167310167, 0.2004830917874396, 0.20261437908496735, 0.37550117516936266, 0.3134183041246238, 0.1934939998016463, 0.07974406991260925, 0.0010384215991692627, 0.2518115942028986, 0.13405797101449277, 0.06120472593453419, 0.02665578675370597, 0.01108801108801109, 0.27989062888391747, 0.15665488810365136, 0.04725977156030598, 0.010318857589984352, 0.006703345348763675, 0.3333333333333333, 0.3333333333333333, 0.3333333333333333, 0.3333333333333333, 0.17090395480225987, 0.13713730865889878, 0.2060307403496421, 0.3285070785070785, 0.3635265700483092, 0.20261437908496735, 0.2365546799391677, 0.3505930253142149, 0.41664187245859363, 0.37702871410736577, 0.4215991692627206, 0.1838768115942029, 0.2887402452619844, 0.33430176254115823, 0.2041343669250646, 0.15661815661815665, 0.17549092716877954, 0.20461046609456504, 0.19815571623179293, 0.08440923317683882, 0.028520837285777523, 0.3333333333333333, 0.3333333333333333, 0.3333333333333333, 0.3333333333333333, 0.3827683615819209, 0.24080420379255196, 0.11275372521412647, 0.1547619047619048, 0.4359903381642512, 0.5947712418300654, 0.38794414489146967, 0.3359886705611612, 0.38986412773976, 0.543227215980025, 0.5773624091381101, 0.5643115942028986, 0.5772017837235228, 0.6044935115243076, 0.7692098463212295, 0.8322938322938324, 0.544618443947303, 0.6387346458017836, 0.754584512207901, 0.9052719092331769, 0.9647758173654588, 0.3333333333333333, 0.3333333333333333, 0.3333333333333333, 0.3333333333333333, 0.4463276836158192 ;
}
probability ( review_num | author_identity, close_num, review_comment_num ) {
    table 0.9965517241379311, 0.9947145877378435, 0.15773552290406226, 0.8477530449391012, 0.8430056301429191, 0.10830505090836495, 0.11066861527219582, 0.09653168526888663, 0.006962194331057109, 0.006109002960677203, 0.0019334103349570632, 4.613823013749193e-05, 0.9997108155002892, 0.9998044583496284, 0.10698023022315241, 0.9792633307159683, 0.9742446951171413, 0.10108804581245526, 0.48028117582618224, 0.5, 0.03923402579501821, 0.022215810732833238, 0.09347553324968634, 0.0010191602119853241, 0.5, 0.5, 0.5, 0.022123893805309734, 0.022123893805309734, 0.007598784194528876, 0.007598784194528876, 0.004051863857374393, 0.0016097875080489377, 0.0004920291281243849, 0.0003987876854362737, 0.00010567696664834932, 0.0034482758620689663, 0.005285412262156448, 0.8422644770959378, 0.1522469550608988, 0.156994369857081, 0.891694949091635, 0.8893313847278042, 0.9034683147311133, 0.9930378056689428, 0.9938909970393228, 0.9980665896650429, 0.9999538617698626, 0.0002891844997108155, 0.00019554165037152912, 0.8930197697768476, 0.020736669284031693, 0.02575530488285872, 0.8989119541875448, 0.5197188241738178, 0.5, 0.9607659742049818, 0.9777841892671668, 0.9065244667503137, 0.9989808397880147, 0.5, 0.5, 0.5, 0.9778761061946902, 0.9778761061946902, 0.9924012158054711, 0.9924012158054711, 0.9959481361426257, 0.9983902124919511, 0.9995079708718755, 0.9996012123145637, 0.9998943230333517 ;
}
probability ( title_words | review_num, total_add_line ) {
    table 0.23437283437283438, 0.37142857142857144, 0.3726375176304654, 0.2565333333333334, 0.13846153846153844, 0.2017863788611835, 0.3242987249544627, 0.306276984390568, 0.2662787991622062, 0.16736711990111247, 0.26902286902286904, 0.30983746792130024, 0.3133991537376586, 0.3685333333333334, 0.2923076923076923, 0.20997394864160776, 0.28422586520947185, 0.27638658253072074, 0.2909471724458925, 0.265430572723527, 0.15398475398475397, 0.1438836612489307, 0.1328631875881523, 0.22453333333333336, 0.241025641025641, 0.1437290658727205, 0.13923497267759566, 0.1661242112255065, 0.15922736793111475, 0.19126493613514628, 0.14566874566874566, 0.08913601368691189, 0.11029619181946403, 0.09653333333333336, 0.12136752136752135, 0.13926311871976182, 0.1035336976320583, 0.11962803055463303, 0.11966488247614616, 0.14182117840955913, 0.19695079695079695, 0.08571428571428572, 0.07080394922425952, 0.053866666666666674, 0.2068376068376068, 0.3052474879047265, 0.14870673952641167, 0.1315841912985719, 0.16388177798464046, 0.23411619283065516 ;
}
probability ( total_add_line | commit_num, file_changed_num ) {
    table 0.788007418091902, 0.2981773997569867, 0.1543509272467903, 0.022222222222222223, 0.48971450919045767, 0.13895818048422598, 0.03714383796773086, 0.005405405405405406, 0.3587708066581306, 0.1330747922437673, 0.025552641438741103, 0.015384615384615385, 0.3855149501661129, 0.11561181434599156, 0.013362111252820563, 0.002150537634408602, 0.2, 0.2, 0.2, 0.0010582010582010583, 0.1723057902328457, 0.4974483596597814, 0.2970042796005706, 0.022222222222222223, 0.3426671881110677, 0.38742968941061384, 0.189564023343632, 0.005405405405405406, 0.3382842509603073, 0.23722991689750692, 0.09898838516298239, 0.015384615384615385, 0.3004651162790697, 0.23245699448231094, 0.04083194349063082, 0.002150537634408602, 0.2, 0.2, 0.2, 0.0010582010582010583, 0.03630743869771276, 0.16857027136492508, 0.3369472182596291, 0.022222222222222223, 0.12522487289792728, 0.3463438493519198, 0.32687950566426366, 0.005405405405405406, 0.19999999999999998, 0.34803324099722993, 0.22188085425252904, 0.015384615384615385, 0.18617940199335545, 0.3441090555014606, 0.11813989993132543, 0.002150537634408602, 0.2, 0.2, 0.2, 0.0010582010582010583, 0.0016896764887698332, 0.03248278655326044, 0.18858773181169755, 0.022222222222222223, 0.039186546734454444, 0.1252629004646613, 0.37631307929969104, 0.005405405405405406, 0.07708066581306018, 0.2660387811634349, 0.5321094042712626, 0.015384615384615385, 0.10378737541528237, 0.2701071080817916, 0.437967232414402, 0.002150537634408602, 0.2, 0.2, 0.2, 0.0010582010582010583, 0.0016896764887698332, 0.003321182665046578, 0.02310984308131241, 0.911111111111111, 0.0032068830660930783, 0.0020053802885791143, 0.07009955372468245, 0.9783783783783785, 0.02586427656850192, 0.015623268698060942, 0.12146871487448482, 0.9384615384615385, 0.0240531561461794, 0.03771502758844531, 0.38969881291082115, 0.9913978494623656, 0.2, 0.2, 0.2, 0.9957671957671957 ;
}
probability ( total_delete_line | file_changed_num, total_add_line ) {
    table 0.7162203132895403, 0.41836146562371357, 0.17170418006430863, 0.20984615384615385, 0.8246575342465752, 0.4882693319305628, 0.14460449835734143, 0.022777619994319796, 0.0358005249343832, 0.3987577639751554, 0.6275534441805226, 0.28605135322692576, 0.008107202680067002, 0.0028398706593561088, 0.014212973212309056, 0.2, 0.2, 0.2, 0.2, 0.0005934718100890209, 0.14219302678120266, 0.38871963771099227, 0.630439442658092, 0.296, 0.16712328767123283, 0.2231457127827459, 0.39428860247662373, 0.30678784436239703, 0.14078740157480316, 0.34906832298136653, 0.04798099762470309, 0.3138098542678695, 0.3900167504187605, 0.06863489385631942, 0.02749612574717733, 0.2, 0.2, 0.2, 0.2, 0.0005934718100890209, 0.047869294256358434, 0.13511733223548789, 0.11596998928188636, 0.4067692307692307, 0.00273972602739726, 0.08216728037874801, 0.2153651756381097, 0.2749786992331724, 0.40955380577427825, 0.07577639751552796, 0.019477434679334917, 0.0945176960444136, 0.21581239530988275, 0.3408125966540138, 0.056719061323887536, 0.2, 0.2, 0.2, 0.2, 0.0005934718100890209, 0.051911739935994614, 0.03631123919308358, 0.06452304394426579, 0.07446153846153845, 0.00273972602739726, 0.09058390320883744, 0.1476370988122315, 0.277250781028117, 0.3108661417322835, 0.1751552795031056, 0.05748218527315915, 0.06398334489937543, 0.12067001675041876, 0.4026711654716716, 0.8227141908346247, 0.2, 0.2, 0.2, 0.2, 0.0005934718100890209, 0.04180562573690416, 0.021490325236722937, 0.01736334405144694, 0.012923076923076924, 0.00273972602739726, 0.11583377169910572, 0.0981046247156937, 0.11820505538199375, 0.10299212598425196, 0.0012422360248447208, 0.24750593824228032, 0.24163775156141568, 0.26539363484087103, 0.18504147335863913, 0.07885764888200132, 0.2, 0.2, 0.2, 0.2, 0.9976261127596439 ;
}
probability ( workload | comment_num, commit_num, has_labels ) {
    table 0.3075865396212761, 0.254421768707483, 0.19552026063938097, 0.15944967414916728, 0.10914597213809811, 0.10378006872852234, 0.09298301826337713, 0.12510402219140085, 0.12546583850931675, 0.009523809523809523, 0.3948569358927924, 0.1467376830892144, 0.2809271263013161, 0.21092896174863388, 0.19629766753054423, 0.1967266775777414, 0.1451723442854263, 0.18001998001998, 0.001418439716312057, 0.24878048780487808, 0.29773434029320295, 0.1757085020242915, 0.3581530630794401, 0.11946308724832212, 0.3287693561532192, 0.18967297762478483, 0.20829416643627313, 0.13702943189596165, 0.16721311475409836, 0.19999999999999998, 0.25800214822771217, 0.0008298755186721993, 0.3301720130172012, 0.12781316348195326, 0.32425715829281465, 0.28540925266903916, 0.2567980120695776, 0.1563182527301092, 0.009523809523809523, 0.19999999999999998, 0.2655226209048362, 0.0021978021978021982, 0.2838168923275306, 0.16141479099678457, 0.3738424045491471, 0.13814432989690723, 0.4058660763696735, 0.10925589836660615, 0.0064516129032258064, 0.19999999999999998, 0.15079001326739838, 0.3490683229813665, 0.1812665444919568, 0.3694424330195511, 0.15760145366444578, 0.3099656357388316, 0.11861582826017304, 0.18058252427184468, 0.0012422360248447203, 0.009523809523809523, 0.19565374864179644, 0.492942743009321, 0.22396385778825378, 0.43731459797033573, 0.1740836727138097, 0.2785597381342062, 0.19758113283612172, 0.31988011988011994, 0.2851063829787234, 0.004878048780487806, 0.23553976010661928, 0.41862348178137654, 0.19818214870023632, 0.49977628635346744, 0.23640315131757675, 0.48227194492254727, 0.2175099069210211, 0.36290212183436, 0.16721311475409836, 0.19999999999999998, 0.21503759398496242, 0.37427385892116183, 0.23254300325430033, 0.4250530785562632, 0.26482982171799024, 0.3209964412811388, 0.2544314282333452, 0.4215288611544461, 0.009523809523809523, 0.19999999999999998, 0.28112324492979723, 0.5516483516483517, 0.24513217279174723, 0.4829581993569132, 0.22761982128350935, 0.3099656357388316, 0.20664084117321527, 0.3814882032667876, 0.32903225806451614, 0.19999999999999998, 0.10736943673863224, 0.2396332446021887, 0.09574424760741193, 0.22461984069514845, 0.14548758328285885, 0.3099656357388316, 0.17628965075296382, 0.34701803051317615, 0.0012422360248447203, 0.009523809523809523, 0.22100688156465048, 0.34647137150466045, 0.1355725790610882, 0.2655737704918033, 0.12595335061088486, 0.3276595744680851, 0.20765974601894777, 0.31988011988011994, 0.0723404255319149, 0.24878048780487808, 0.2533096401599289, 0.3916329284750338, 0.22363206689692783, 0.3506338553318419, 0.15490355881553927, 0.3101549053356282, 0.1788037968850797, 0.34236824093086926, 0.0032786885245901644, 0.19999999999999998, 0.279484425349087, 0.6232365145228216, 0.306927010692701, 0.4250530785562632, 0.19999999999999998, 0.3921708185053381, 0.2035498757543486, 0.39032761310452413, 0.009523809523809523, 0.19999999999999998, 0.2499219968798752, 0.4417582417582418, 0.380528691166989, 0.35434083601286176, 0.2682372055239643, 0.5505154639175258, 0.27120457480169713, 0.49038112522686017, 0.6516129032258065, 0.19999999999999998, 0.12184296224822096, 0.06808636498077493, 0.21588271227855832, 0.12324402606806661, 0.3211387038158691, 0.24123711340206186, 0.4037808394745274, 0.26380027739251044, 0.24968944099378876, 0.9619047619047618, 0.03991307497283592, 0.013581890812250334, 0.1395010803378511, 0.06260733801717408, 0.22961865975564605, 0.14762684124386252, 0.28022576093529533, 0.17002997002997003, 0.0723404255319149, 0.004878048780487806, 0.06228342958685028, 0.013765182186234818, 0.061843301217960375, 0.007606263982102907, 0.13588698723173054, 0.0003442340791738382, 0.2340982397935674, 0.11649555099247089, 0.0032786885245901644, 0.19999999999999998, 0.07540279269602577, 0.0008298755186721993, 0.004741980474198047, 0.000424628450106157, 0.05413290113452187, 0.0007117437722419929, 0.15503490711158444, 0.015912636505460216, 0.4857142857142857, 0.19999999999999998, 0.09391575663026522, 0.0021978021978021982, 0.006576402321083172, 0.0006430868167202572, 0.016409423233143785, 0.0006872852233676976, 0.036930455635491605, 0.01851179673321234, 0.0064516129032258064, 0.19999999999999998, 0.3124110481244723, 0.08879029872818693, 0.31158623498269195, 0.12324402606806661, 0.26662628709872804, 0.03505154639175258, 0.2083306632489587, 0.08349514563106797, 0.6223602484472048, 0.009523809523809523, 0.14856935892792467, 0.00026631158455392814, 0.22003535651149086, 0.023575331772053086, 0.2740466493891151, 0.04942716857610475, 0.16936101592420882, 0.01018981018981019, 0.5687943262411348, 0.49268292682926834, 0.1511328298533985, 0.00026990553306342784, 0.15818942010543535, 0.022520507084265468, 0.14403694648193427, 0.017555938037865745, 0.1612938899640586, 0.04120465434633812, 0.659016393442623, 0.19999999999999998, 0.1720730397422127, 0.0008298755186721993, 0.12561599256159925, 0.021656050955414008, 0.15678011885467313, 0.0007117437722419929, 0.13018577683114424, 0.015912636505460216, 0.4857142857142857, 0.19999999999999998, 0.10951638065522622, 0.0021978021978021982, 0.08394584139264989, 0.0006430868167202572, 0.11389114541023558, 0.0006872852233676976, 0.07935805201992252, 0.0003629764065335753, 0.0064516129032258064, 0.19999999999999998 ;
}
